//-----------------------------------------------------------------------------
// Network: HT250_MHT70_v1_HT250_v4_164924_165921_sel1
// Inputs:
//                                                  Offset       Scale
//    offlinevar                                 2.738e+01   1.972e+01
//
// Created: Wed Dec 21 19:43:27 2011
//-----------------------------------------------------------------------------
#include <cmath>
#include <vector>
#include <iostream>
#include <stdlib.h>
//-----------------------------------------------------------------------------
// Make following visible only to this programming unit
namespace {
  // NOTE: Network indices start at 0
  static const int nnetworks=100;
  static const int ninputs  =1;
  static const int nhidden  =15;
  static const int nparams  =46;

  static const double mean[ninputs]={
  2.73800e+01
  };

  static const double sigma[ninputs]={
  1.97200e+01
  };

  static const double weight[nnetworks][nparams]={
    {  -0.038,    0.135,    0.048,    0.046,    0.061,   -0.011,   -0.016,
        0.169,   -0.033,   -0.085,   -0.055,   -0.090,    0.011,    0.009,
        0.037,    0.003,   -0.016,    0.020,   -0.059,   -0.013,   -0.033,
       -0.011,    0.004,   -0.058,    0.033,    0.014,    0.047,    0.037,
        0.010,    0.013,   -2.891,    2.176,   -0.721,   10.094,    2.293,
       -2.478,   -2.682,   -5.530,   -3.580,   -6.105,    3.970,   -2.963,
       -4.528,    4.760,   -2.126,   -4.487
    },
    {   0.030,   -0.114,    0.066,    0.130,    0.050,    0.171,    0.094,
       -0.127,   -0.020,    0.138,    0.019,    0.127,   -0.049,   -0.043,
        0.035,   -0.036,    0.039,    0.066,    0.045,    0.215,    0.012,
       -0.114,    0.032,    0.093,   -0.035,   -0.031,    0.082,   -0.034,
       -0.018,   -0.056,   -2.960,    1.875,   -1.075,    8.165,    2.180,
       -3.006,   -2.263,   -7.264,   -2.790,   -6.588,    3.866,   -2.959,
       -3.798,    4.909,   -1.685,   -4.886
    },
    {  -0.038,   -0.007,    0.045,   -0.077,    0.024,    0.178,    0.023,
       -0.111,    0.032,   -0.084,    0.001,    0.004,    0.033,    0.058,
        0.047,   -0.131,   -0.073,   -0.136,    0.012,    0.058,    0.045,
       -0.025,    0.038,    0.096,    0.050,   -0.151,    0.015,    0.021,
       -0.011,    0.167,   -2.606,    1.511,   -2.021,    7.445,    0.471,
       -2.654,   -2.126,   -7.357,   -1.821,   -7.104,    4.996,   -3.092,
       -3.195,    4.211,   -1.177,   -4.980
    },
    {   0.028,    0.097,   -0.018,   -0.069,   -0.031,    0.073,   -0.014,
       -0.142,    0.035,   -0.173,    0.003,   -0.012,   -0.025,   -0.067,
        0.014,    0.005,    0.042,    0.164,   -0.034,   -0.034,   -0.085,
       -0.184,   -0.043,   -0.046,   -0.010,   -0.153,   -0.011,    0.160,
       -0.011,   -0.087,   -2.176,    2.551,   -0.986,    7.729,   -0.366,
       -2.712,   -2.206,   -8.505,   -0.855,   -6.611,    4.648,   -2.173,
       -2.429,    3.769,   -1.463,   -3.854
    },
    {  -0.025,    0.161,   -0.032,    0.024,    0.047,    0.177,   -0.057,
        0.042,   -0.002,   -0.177,    0.035,    0.328,    0.020,   -0.048,
       -0.004,   -0.105,   -0.023,   -0.106,   -0.026,   -0.030,    0.018,
        0.134,   -0.001,    0.177,    0.045,   -0.090,   -0.105,    0.214,
       -0.012,    0.055,   -3.033,    2.485,   -1.665,    8.970,    0.931,
       -2.191,   -1.033,   -7.363,    0.021,   -6.953,    3.287,   -2.825,
       -4.680,    5.012,   -0.660,   -4.323
    },
    {   0.129,   -0.345,   -0.099,   -0.104,   -0.119,   -0.063,   -0.061,
       -0.011,    0.037,   -0.032,    0.169,    0.074,    0.119,   -0.269,
        0.002,   -0.033,   -0.015,   -0.142,   -0.008,   -0.162,   -0.075,
       -0.101,    0.021,    0.051,   -0.015,   -0.040,    0.041,    0.070,
       -0.014,   -0.086,   -0.938,    3.592,   -1.322,    8.652,    0.436,
       -2.488,   -1.137,   -7.191,   -1.869,   -7.501,    4.076,   -2.600,
       -3.826,    3.731,   -3.227,   -6.357
    },
    {  -0.038,   -0.259,   -0.006,   -0.011,   -0.031,   -0.046,   -0.062,
       -0.035,    0.075,   -0.082,    0.034,   -0.178,    0.064,   -0.175,
        0.071,    0.101,   -0.040,   -0.060,   -0.002,   -0.261,   -0.125,
       -0.133,   -0.099,   -0.109,    0.034,    0.204,    0.081,    0.088,
       -0.048,   -0.008,   -2.148,    4.101,   -2.063,    9.320,    0.180,
       -3.265,   -0.726,   -7.271,   -1.182,   -7.121,    3.734,   -2.157,
       -3.820,    4.676,   -3.804,   -5.836
    },
    {  -0.014,   -0.050,    0.040,    0.100,   -0.054,    0.062,    0.040,
       -0.032,    0.082,    0.015,    0.028,    0.210,    0.095,   -0.204,
       -0.067,    0.156,   -0.040,    0.047,    0.078,    0.012,   -0.072,
       -0.049,   -0.019,    0.226,    0.108,    0.081,    0.011,    0.029,
        0.052,   -0.116,   -2.117,    3.974,   -1.598,    9.024,   -0.252,
       -2.791,   -0.682,   -6.399,   -1.955,   -7.034,    4.187,   -2.447,
       -3.751,    4.443,   -3.453,   -5.475
    },
    {  -0.146,    0.144,    0.093,   -0.130,   -0.101,    0.019,    0.067,
        0.122,    0.076,   -0.073,   -0.017,   -0.016,    0.082,    0.090,
       -0.150,   -0.026,   -0.009,    0.004,    0.022,   -0.062,   -0.110,
       -0.004,    0.014,   -0.125,    0.131,    0.090,   -0.073,   -0.057,
        0.008,    0.064,   -1.297,    4.708,   -0.888,    8.168,   -1.436,
       -3.513,   -1.716,   -7.202,   -3.105,   -7.665,    3.156,   -1.312,
       -3.794,    2.983,   -3.298,   -4.265
    },
    {   0.052,   -0.000,    0.036,    0.119,   -0.038,    0.078,   -0.042,
       -0.059,   -0.055,    0.031,    0.005,    0.054,    0.007,   -0.086,
        0.053,    0.042,    0.015,   -0.017,   -0.004,    0.027,    0.017,
       -0.069,   -0.019,    0.087,   -0.062,   -0.000,    0.058,   -0.053,
       -0.041,    0.008,   -1.973,    3.999,   -1.447,    9.025,   -0.829,
       -4.676,   -2.860,   -7.125,   -3.069,   -7.818,    2.011,   -1.620,
       -3.080,    3.309,   -3.968,   -4.754
    },
    {   0.044,   -0.138,    0.022,   -0.062,   -0.049,   -0.024,   -0.027,
        0.049,   -0.017,   -0.008,    0.061,   -0.018,   -0.043,    0.053,
        0.012,   -0.013,   -0.003,   -0.087,   -0.033,    0.022,    0.017,
        0.052,   -0.049,   -0.108,    0.008,   -0.053,    0.078,   -0.077,
        0.004,   -0.113,   -2.202,    2.093,   -1.817,    8.440,   -1.252,
       -4.780,   -2.353,   -7.375,   -2.884,   -8.307,    0.775,   -3.481,
       -3.510,    3.429,   -3.900,   -5.187
    },
    {  -0.005,    0.038,   -0.025,    0.026,    0.002,    0.046,    0.075,
       -0.011,    0.002,    0.011,   -0.077,   -0.046,    0.087,   -0.050,
        0.001,   -0.042,   -0.034,    0.012,    0.039,   -0.020,   -0.025,
       -0.055,    0.010,    0.080,    0.012,    0.009,   -0.057,    0.029,
       -0.001,   -0.033,   -2.588,    2.811,   -2.267,    8.506,   -0.331,
       -4.124,   -3.380,   -6.829,   -2.477,   -9.166,   -0.168,   -2.504,
       -3.490,    2.878,   -4.704,   -4.818
    },
    {  -0.057,   -0.007,    0.052,    0.036,   -0.013,   -0.030,    0.000,
       -0.041,    0.020,    0.040,   -0.062,    0.067,   -0.004,   -0.069,
        0.015,    0.013,   -0.071,    0.011,   -0.036,   -0.020,   -0.006,
       -0.063,   -0.014,   -0.062,   -0.020,    0.002,    0.047,   -0.114,
       -0.028,   -0.016,   -2.592,    3.108,   -2.540,    8.679,   -0.791,
       -2.602,   -3.945,   -7.242,   -1.971,   -8.534,   -0.707,   -3.005,
       -4.201,    3.358,   -5.331,   -4.313
    },
    {  -0.056,   -0.003,    0.038,   -0.041,    0.012,    0.062,    0.036,
        0.021,   -0.019,    0.027,   -0.036,   -0.076,    0.014,   -0.006,
       -0.005,    0.097,   -0.016,   -0.034,    0.027,    0.074,    0.037,
       -0.041,    0.026,   -0.058,    0.067,   -0.038,    0.038,    0.029,
       -0.017,    0.001,   -2.203,    2.908,   -0.651,    7.927,   -0.550,
       -2.767,   -3.490,   -7.158,   -2.688,   -7.055,    0.244,   -3.021,
       -5.017,    2.289,   -6.109,   -4.500
    },
    {  -0.024,   -0.027,    0.013,   -0.037,    0.049,   -0.003,   -0.054,
        0.005,   -0.042,   -0.012,   -0.026,   -0.060,   -0.012,   -0.029,
       -0.056,    0.040,   -0.037,   -0.060,    0.014,    0.042,    0.008,
       -0.025,   -0.035,   -0.056,   -0.033,   -0.032,    0.029,    0.010,
        0.031,    0.010,   -3.195,    2.735,   -0.692,    8.507,   -1.915,
       -3.529,   -3.243,   -6.829,   -2.050,   -6.882,    0.667,   -2.863,
       -3.836,    2.434,   -5.344,   -4.741
    },
    {  -0.018,    0.044,   -0.016,   -0.030,    0.016,    0.117,    0.079,
        0.089,   -0.006,    0.043,   -0.008,    0.069,   -0.013,   -0.039,
       -0.026,    0.030,   -0.013,    0.073,    0.019,   -0.059,    0.011,
        0.062,    0.022,   -0.089,    0.018,    0.000,    0.059,   -0.095,
       -0.034,   -0.004,   -2.328,    2.891,   -1.433,    7.959,   -2.334,
       -3.824,   -4.023,   -5.711,   -2.764,   -7.725,   -0.223,   -1.960,
       -5.373,    3.260,   -5.257,   -4.250
    },
    {   0.013,    0.010,    0.029,   -0.011,    0.010,   -0.022,    0.078,
       -0.033,    0.009,    0.004,    0.074,   -0.070,    0.018,    0.087,
        0.052,   -0.039,   -0.047,   -0.109,    0.006,   -0.007,    0.007,
       -0.027,    0.003,   -0.006,    0.078,   -0.028,    0.042,   -0.004,
       -0.056,   -0.096,   -2.708,    3.367,   -0.368,    7.545,   -1.149,
       -3.337,   -3.169,   -6.057,   -2.217,   -7.458,    1.059,   -2.963,
       -5.046,    3.242,   -4.894,   -4.918
    },
    {  -0.023,    0.017,   -0.021,   -0.054,    0.002,    0.011,    0.055,
       -0.024,    0.063,   -0.008,    0.068,   -0.023,   -0.024,   -0.036,
       -0.003,   -0.048,   -0.028,   -0.047,   -0.041,   -0.018,   -0.025,
        0.018,    0.013,   -0.016,    0.021,    0.006,    0.015,   -0.065,
       -0.031,    0.038,   -2.297,    2.616,   -0.145,    6.825,   -1.136,
       -3.800,   -2.823,   -6.236,   -3.332,   -6.227,    1.844,   -2.429,
       -5.474,    3.120,   -4.612,   -4.434
    },
    {   0.039,   -0.002,    0.009,   -0.013,    0.008,    0.039,   -0.052,
        0.028,   -0.065,    0.008,   -0.037,   -0.038,    0.031,   -0.053,
       -0.036,   -0.020,    0.005,    0.018,    0.010,   -0.036,    0.041,
       -0.010,   -0.032,    0.033,   -0.041,    0.040,    0.012,   -0.030,
        0.036,   -0.006,   -2.350,    2.237,   -1.556,    8.356,   -0.170,
       -3.435,   -2.062,   -6.202,   -2.456,   -6.103,    1.972,   -3.159,
       -4.359,    2.065,   -5.654,   -4.542
    },
    {  -0.036,    0.049,   -0.059,    0.010,   -0.042,   -0.027,   -0.014,
        0.057,   -0.019,   -0.124,    0.043,   -0.002,   -0.031,   -0.081,
        0.009,   -0.014,    0.007,    0.043,   -0.041,    0.041,   -0.044,
       -0.029,   -0.071,    0.019,    0.034,   -0.018,   -0.057,   -0.031,
       -0.030,   -0.023,   -3.031,    2.371,   -2.717,    8.336,   -0.023,
       -2.115,   -2.218,   -5.944,   -3.580,   -5.195,    1.264,   -2.508,
       -3.223,    2.937,   -6.220,   -5.278
    },
    {  -0.019,    0.012,   -0.055,   -0.026,   -0.024,    0.082,   -0.019,
        0.083,    0.014,    0.009,   -0.011,   -0.010,   -0.002,    0.040,
        0.001,    0.029,    0.018,   -0.006,   -0.031,    0.029,   -0.010,
       -0.067,   -0.046,   -0.055,   -0.013,   -0.028,    0.013,    0.026,
       -0.023,   -0.021,   -2.365,    2.355,   -3.186,    9.343,   -0.565,
       -2.613,   -2.375,   -5.774,   -3.901,   -6.138,   -0.209,   -2.692,
       -3.349,    2.765,   -6.708,   -7.287
    },
    {  -0.031,    0.020,   -0.031,   -0.035,   -0.005,    0.029,    0.023,
        0.034,    0.034,    0.014,   -0.021,   -0.026,   -0.011,    0.002,
        0.013,   -0.032,   -0.028,   -0.061,   -0.023,    0.033,    0.043,
       -0.018,   -0.006,   -0.011,   -0.000,   -0.068,   -0.031,   -0.015,
       -0.071,   -0.004,   -3.150,    2.899,   -1.990,    8.998,   -0.925,
       -1.743,   -2.469,   -5.750,   -2.814,   -7.250,   -0.105,   -3.174,
       -2.493,    2.842,   -6.228,   -6.680
    },
    {   0.026,   -0.011,   -0.023,   -0.039,    0.010,   -0.002,   -0.020,
        0.001,   -0.067,    0.080,   -0.025,   -0.050,   -0.006,   -0.073,
        0.015,   -0.067,    0.019,   -0.040,   -0.014,    0.026,   -0.020,
       -0.066,    0.010,    0.016,    0.019,   -0.114,   -0.030,    0.026,
       -0.031,   -0.059,   -3.213,    3.909,   -1.297,    8.999,    1.027,
       -2.357,   -2.267,   -5.810,   -1.914,   -7.690,    0.788,   -2.755,
       -0.832,    2.136,   -6.463,   -6.785
    },
    {   0.016,   -0.029,   -0.001,   -0.074,   -0.024,    0.095,    0.005,
       -0.056,    0.071,    0.042,    0.013,   -0.002,   -0.007,   -0.041,
       -0.013,   -0.085,    0.001,   -0.031,    0.011,   -0.016,   -0.002,
       -0.029,   -0.006,   -0.050,    0.002,   -0.069,   -0.002,    0.008,
        0.031,    0.006,   -1.865,    3.795,   -1.188,    6.938,    1.202,
       -3.022,   -2.420,   -6.352,   -1.594,   -7.563,    0.863,   -3.752,
       -0.998,    2.834,   -5.943,   -6.800
    },
    {   0.042,    0.026,    0.013,   -0.045,   -0.020,    0.086,   -0.027,
       -0.044,   -0.009,    0.012,    0.053,    0.008,    0.030,   -0.012,
        0.008,   -0.003,   -0.021,   -0.015,   -0.002,    0.032,    0.017,
       -0.033,   -0.000,    0.027,    0.005,    0.031,   -0.019,   -0.007,
        0.039,    0.011,   -2.089,    4.308,   -1.711,    6.054,    2.057,
       -3.182,   -2.882,   -6.767,   -2.602,   -6.833,    1.910,   -3.427,
       -0.178,    1.768,   -6.297,   -6.841
    },
    {   0.032,    0.012,   -0.024,   -0.027,   -0.010,    0.108,    0.003,
        0.001,   -0.019,    0.009,    0.046,   -0.059,   -0.022,   -0.008,
        0.003,   -0.006,   -0.018,   -0.005,   -0.010,    0.030,    0.013,
        0.035,   -0.003,    0.027,   -0.016,   -0.007,   -0.017,   -0.002,
        0.010,    0.018,   -2.646,    3.441,   -2.033,    5.918,    3.898,
       -3.428,   -3.162,   -6.670,   -2.815,   -8.542,    1.659,   -3.952,
       -0.096,    0.965,   -6.727,   -6.943
    },
    {   0.018,   -0.030,   -0.013,   -0.024,    0.011,    0.050,   -0.033,
        0.053,   -0.015,   -0.011,    0.019,   -0.043,   -0.007,   -0.041,
       -0.015,    0.036,   -0.005,    0.039,    0.008,   -0.001,    0.018,
        0.015,   -0.026,    0.005,   -0.011,   -0.047,   -0.003,   -0.038,
       -0.004,   -0.054,   -2.586,    3.883,   -2.494,    6.174,    3.476,
       -3.667,   -2.876,   -7.266,   -2.045,   -9.377,    0.930,   -4.736,
       -0.899,    2.034,   -6.922,   -5.826
    },
    {   0.006,    0.064,   -0.045,    0.010,   -0.010,   -0.014,    0.019,
       -0.004,   -0.024,    0.006,    0.040,    0.031,    0.014,   -0.056,
       -0.038,   -0.042,    0.005,   -0.069,   -0.034,   -0.043,    0.038,
        0.018,    0.027,   -0.014,    0.009,    0.027,    0.032,    0.001,
       -0.013,    0.030,   -2.105,    5.145,   -3.542,    6.778,    2.423,
       -3.430,   -2.289,   -7.302,   -1.668,   -9.002,    1.436,   -4.196,
       -0.981,    2.506,   -5.596,   -4.383
    },
    {   0.044,   -0.027,    0.036,   -0.030,   -0.071,   -0.004,   -0.057,
        0.016,    0.054,    0.002,    0.039,   -0.038,   -0.013,   -0.065,
       -0.027,   -0.002,    0.028,   -0.046,    0.109,   -0.005,    0.032,
        0.043,    0.016,    0.004,   -0.033,    0.001,   -0.048,   -0.028,
        0.040,   -0.004,   -1.657,    5.336,   -3.005,    7.634,    2.595,
       -3.722,   -1.673,   -7.496,   -2.098,   -9.430,    1.117,   -2.675,
       -1.622,    2.120,   -7.078,   -5.144
    },
    {  -0.014,    0.022,    0.025,   -0.037,   -0.078,    0.024,   -0.000,
        0.031,    0.071,   -0.001,    0.053,    0.001,   -0.002,    0.002,
       -0.059,   -0.023,   -0.000,   -0.002,    0.010,    0.038,   -0.042,
       -0.036,    0.022,   -0.024,   -0.034,   -0.002,    0.017,   -0.041,
        0.003,   -0.002,   -1.210,    5.065,   -2.357,    7.750,    2.786,
       -3.217,   -1.348,   -7.212,   -1.398,   -9.585,    0.673,   -2.655,
       -1.910,    3.622,   -5.637,   -3.797
    },
    {  -0.021,    0.047,   -0.036,    0.037,   -0.033,    0.071,   -0.031,
       -0.037,   -0.009,   -0.016,    0.016,   -0.015,    0.066,   -0.020,
       -0.017,   -0.015,   -0.015,   -0.032,    0.009,   -0.009,   -0.031,
        0.002,    0.034,    0.045,   -0.016,   -0.050,   -0.016,    0.022,
       -0.009,   -0.014,   -1.921,    4.224,   -1.523,    6.463,    2.501,
       -3.058,   -1.786,   -6.844,   -1.336,   -9.704,    0.427,   -2.341,
       -0.738,    2.459,   -6.309,   -4.884
    },
    {  -0.029,    0.007,    0.007,   -0.059,   -0.039,    0.007,   -0.069,
        0.026,   -0.037,   -0.004,    0.026,   -0.033,    0.074,   -0.002,
       -0.023,    0.014,    0.004,   -0.009,    0.025,    0.052,   -0.037,
       -0.029,    0.023,   -0.029,   -0.027,    0.034,   -0.004,   -0.064,
        0.023,   -0.006,   -1.421,    3.027,   -0.675,    7.341,    3.369,
       -4.344,   -1.576,   -6.369,   -1.170,   -8.428,   -0.147,   -1.581,
       -0.663,    1.742,   -5.965,   -4.273
    },
    {   0.081,    0.002,    0.034,    0.016,   -0.142,    0.078,    0.012,
       -0.017,    0.188,    0.105,    0.044,   -0.096,    0.012,   -0.042,
       -0.002,   -0.065,    0.067,   -0.014,    0.083,    0.065,    0.044,
        0.060,   -0.088,    0.031,    0.183,   -0.035,   -0.087,   -0.031,
       -0.015,   -0.051,   -0.794,    2.863,   -1.109,    7.377,    3.695,
       -4.630,   -2.599,   -6.490,   -1.040,   -9.715,    0.538,   -3.312,
       -0.792,    1.752,   -6.178,   -3.933
    },
    {   0.174,    0.007,   -0.028,    0.017,   -0.182,    0.066,    0.061,
        0.044,    0.028,   -0.036,   -0.009,   -0.002,   -0.006,    0.006,
        0.099,   -0.058,    0.072,    0.007,   -0.038,    0.034,   -0.035,
        0.016,   -0.079,   -0.018,    0.048,   -0.048,   -0.026,    0.015,
       -0.067,   -0.043,   -1.684,    4.091,   -1.217,    8.938,    3.550,
       -4.767,   -1.981,   -7.955,   -0.220,   -9.772,    0.647,   -2.712,
       -1.958,    1.833,   -6.047,   -3.507
    },
    {   0.048,    0.030,    0.030,   -0.017,   -0.004,    0.029,   -0.159,
        0.022,   -0.111,    0.031,    0.119,   -0.009,   -0.010,   -0.025,
       -0.143,   -0.038,   -0.009,   -0.060,    0.168,    0.001,    0.115,
       -0.033,    0.028,    0.040,    0.190,   -0.007,    0.008,    0.017,
        0.150,   -0.007,   -1.983,    2.626,   -1.395,    8.229,    2.809,
       -4.854,   -0.660,   -7.315,    0.654,   -9.475,    0.473,   -2.480,
       -2.065,    1.431,   -6.979,   -3.961
    },
    {  -0.020,    0.003,   -0.021,    0.022,   -0.069,    0.028,    0.031,
        0.031,   -0.048,    0.005,    0.030,   -0.001,    0.030,   -0.034,
       -0.063,   -0.014,    0.081,   -0.056,    0.035,   -0.013,   -0.022,
        0.003,   -0.008,    0.007,    0.087,   -0.040,   -0.001,    0.022,
        0.072,   -0.013,   -0.776,    3.607,   -2.576,    9.317,    2.861,
       -4.168,   -0.749,   -6.520,    1.046,   -9.326,   -0.723,   -2.052,
       -2.581,    1.111,   -6.051,   -3.861
    },
    {   0.029,    0.027,    0.077,    0.057,   -0.013,   -0.007,   -0.009,
       -0.018,   -0.024,    0.005,    0.061,    0.012,    0.001,   -0.076,
       -0.005,    0.030,   -0.049,   -0.016,    0.055,   -0.025,   -0.004,
       -0.085,    0.019,    0.026,   -0.010,   -0.023,    0.053,    0.008,
        0.049,   -0.025,   -1.872,    3.361,   -2.978,   10.296,    2.672,
       -3.464,   -1.832,   -7.610,    2.173,   -8.682,   -0.125,   -2.844,
       -2.165,    0.481,   -5.832,   -5.450
    },
    {   0.040,   -0.002,    0.081,    0.016,   -0.091,    0.082,   -0.066,
        0.009,    0.047,   -0.038,   -0.109,   -0.004,   -0.037,    0.023,
        0.000,   -0.028,    0.067,   -0.018,   -0.064,    0.006,    0.039,
       -0.066,    0.031,   -0.000,   -0.068,    0.001,    0.112,    0.045,
       -0.056,   -0.016,   -0.413,    1.964,   -1.853,    9.929,    1.378,
       -5.743,   -1.281,   -6.684,    1.500,   -7.436,   -0.195,   -2.544,
       -1.454,    0.126,   -5.405,   -5.183
    },
    {  -0.032,    0.019,   -0.011,   -0.017,   -0.029,   -0.011,   -0.024,
        0.033,   -0.015,   -0.013,   -0.043,   -0.021,   -0.003,   -0.017,
       -0.071,   -0.005,    0.058,   -0.025,   -0.063,   -0.059,    0.042,
       -0.043,    0.015,    0.021,    0.007,   -0.020,   -0.032,   -0.023,
        0.023,   -0.028,   -1.317,    2.568,   -1.713,    9.958,    1.145,
       -5.984,   -1.890,   -6.462,    1.823,   -9.042,    0.493,   -2.452,
       -1.048,   -0.163,   -4.456,   -4.788
    },
    {  -0.021,    0.039,   -0.035,   -0.021,    0.025,   -0.004,    0.075,
       -0.012,    0.006,   -0.007,    0.052,   -0.020,    0.078,    0.002,
       -0.107,    0.003,    0.018,    0.006,    0.046,   -0.014,    0.036,
       -0.033,   -0.006,    0.015,   -0.005,   -0.009,   -0.020,   -0.069,
        0.024,   -0.062,   -1.622,    2.783,   -1.112,    9.838,    0.809,
       -5.873,   -2.486,   -5.375,    1.245,   -8.479,    0.418,   -2.049,
       -1.554,    1.066,   -4.825,   -6.026
    },
    {  -0.004,   -0.011,    0.034,    0.016,   -0.088,   -0.020,   -0.037,
       -0.015,   -0.050,   -0.054,   -0.039,   -0.003,   -0.031,   -0.043,
       -0.044,    0.025,   -0.010,   -0.061,   -0.067,    0.066,   -0.029,
        0.018,   -0.002,   -0.017,   -0.041,    0.054,    0.027,   -0.049,
        0.025,    0.027,   -1.785,    3.109,   -0.735,    9.443,    1.519,
       -5.360,   -1.008,   -5.668,    0.413,   -8.879,    0.417,   -0.698,
       -0.170,    1.180,   -5.670,   -5.601
    },
    {  -0.060,    0.062,    0.008,   -0.018,   -0.025,    0.051,    0.062,
       -0.067,   -0.054,    0.013,    0.104,   -0.020,   -0.019,   -0.085,
       -0.015,    0.041,    0.019,   -0.001,    0.040,    0.062,    0.012,
        0.021,    0.010,   -0.007,   -0.035,    0.073,   -0.013,   -0.028,
        0.045,    0.052,   -2.135,    2.931,   -2.261,    9.636,    2.140,
       -5.451,   -0.435,   -5.161,    0.162,   -9.048,    2.051,   -0.560,
        0.020,    1.549,   -5.623,   -6.429
    },
    {  -0.107,   -0.007,   -0.004,    0.034,   -0.055,    0.051,    0.059,
        0.064,    0.076,    0.085,    0.136,    0.012,    0.071,    0.018,
        0.006,    0.023,   -0.012,   -0.062,    0.055,    0.049,   -0.041,
       -0.021,    0.062,    0.013,    0.131,   -0.045,    0.010,   -0.032,
        0.052,    0.013,   -1.311,    3.048,   -2.194,    8.539,    1.476,
       -4.389,    0.419,   -4.078,    0.106,   -9.987,    1.621,   -1.446,
        0.119,    2.007,   -5.548,   -5.678
    },
    {   0.040,    0.007,    0.017,   -0.018,   -0.026,    0.035,   -0.084,
       -0.006,   -0.033,   -0.011,   -0.117,    0.039,   -0.079,   -0.008,
        0.026,   -0.023,   -0.001,   -0.012,   -0.039,    0.014,   -0.018,
       -0.009,   -0.098,   -0.047,   -0.064,    0.029,    0.049,    0.036,
        0.216,   -0.035,   -1.064,    3.472,   -3.105,    8.912,    0.839,
       -4.629,   -0.308,   -3.615,   -1.472,   -8.588,    2.624,   -2.267,
       -1.713,    2.476,   -6.220,   -5.268
    },
    {  -0.045,    0.051,    0.046,    0.007,    0.005,   -0.006,    0.082,
       -0.025,    0.046,   -0.011,    0.122,    0.014,    0.047,    0.058,
        0.006,   -0.038,   -0.020,   -0.077,    0.064,    0.031,    0.059,
       -0.039,    0.029,   -0.007,    0.113,    0.078,   -0.009,    0.064,
        0.025,   -0.036,   -2.000,    3.066,   -2.626,    8.790,    1.110,
       -5.769,   -1.694,   -3.729,   -1.069,   -8.844,    1.020,   -2.018,
       -0.184,    3.016,   -5.060,   -5.512
    },
    {   0.052,    0.049,    0.081,   -0.050,    0.035,    0.041,   -0.068,
        0.008,    0.010,   -0.040,   -0.058,   -0.018,   -0.040,    0.031,
       -0.052,   -0.015,    0.090,   -0.026,    0.032,    0.020,    0.084,
       -0.001,    0.009,    0.014,   -0.003,    0.026,    0.052,    0.021,
        0.208,   -0.011,   -0.632,    2.590,   -2.590,    8.443,   -1.206,
       -5.400,    0.742,   -4.131,   -1.387,   -8.178,    1.146,   -1.174,
       -1.425,    1.392,   -4.827,   -5.492
    },
    {  -0.019,   -0.047,    0.051,   -0.008,   -0.081,    0.031,    0.048,
        0.026,    0.052,    0.007,    0.027,    0.077,    0.111,   -0.028,
        0.079,    0.041,   -0.028,   -0.017,    0.046,   -0.038,   -0.049,
       -0.026,    0.046,   -0.044,   -0.071,    0.001,    0.005,   -0.035,
        0.009,   -0.040,   -0.676,    0.645,   -2.765,    9.331,   -0.943,
       -4.137,    1.520,   -2.913,   -1.706,   -8.518,    1.012,   -0.467,
       -1.994,    1.391,   -4.683,   -6.115
    },
    {   0.012,    0.020,    0.046,    0.041,   -0.044,   -0.027,    0.063,
        0.041,    0.032,    0.037,    0.057,    0.095,    0.043,   -0.138,
        0.114,    0.031,    0.001,   -0.063,    0.071,   -0.000,   -0.069,
       -0.069,    0.066,   -0.094,   -0.062,    0.005,    0.007,   -0.001,
        0.014,   -0.112,   -0.877,    0.671,   -3.094,   10.187,   -0.553,
       -4.120,    0.427,   -2.841,   -3.000,   -8.458,    0.893,   -0.002,
       -1.047,    1.488,   -4.449,   -5.283
    },
    {  -0.078,    0.005,    0.033,    0.030,    0.083,    0.017,   -0.029,
        0.039,    0.042,   -0.005,    0.050,    0.019,    0.023,   -0.020,
       -0.085,    0.008,    0.131,   -0.041,    0.038,   -0.006,   -0.006,
       -0.001,    0.047,   -0.031,   -0.039,    0.018,    0.068,    0.018,
        0.082,   -0.068,   -0.956,    1.487,   -2.295,    9.377,    0.290,
       -4.524,    0.679,   -4.132,   -3.390,   -8.924,    0.155,    0.167,
       -1.098,    0.563,   -4.558,   -5.296
    },
    {   0.051,    0.003,    0.149,   -0.017,   -0.095,    0.050,   -0.115,
       -0.016,   -0.061,    0.024,   -0.019,    0.040,    0.130,   -0.028,
        0.230,   -0.054,   -0.025,    0.003,    0.061,   -0.013,    0.049,
       -0.026,    0.064,   -0.025,    0.030,    0.035,   -0.043,   -0.021,
        0.006,   -0.024,   -0.840,    1.405,   -1.509,    8.739,   -0.086,
       -4.216,    2.180,   -3.205,   -3.211,   -8.804,   -0.362,    0.085,
       -1.194,    0.769,   -3.608,   -6.054
    },
    {   0.159,    0.019,    0.065,   -0.016,    0.114,    0.008,    0.100,
       -0.035,    0.063,    0.031,   -0.120,    0.094,    0.159,   -0.068,
        0.105,   -0.012,    0.113,   -0.001,   -0.031,    0.042,   -0.118,
        0.008,    0.021,   -0.012,   -0.142,   -0.022,    0.015,   -0.070,
        0.076,   -0.008,   -0.706,    1.739,   -1.654,    9.632,   -1.116,
       -4.414,    2.462,   -3.592,   -2.270,   -9.384,    0.089,   -1.427,
       -1.580,    0.389,   -4.318,   -6.856
    },
    {   0.075,    0.053,    0.129,   -0.082,    0.009,    0.033,    0.189,
        0.033,    0.012,    0.050,   -0.012,   -0.002,   -0.025,   -0.061,
       -0.004,   -0.035,    0.070,    0.021,    0.013,   -0.024,   -0.010,
        0.046,    0.087,   -0.011,    0.090,    0.013,    0.058,   -0.023,
        0.189,   -0.047,   -0.146,    1.692,   -2.113,    8.715,   -0.774,
       -2.672,    2.655,   -4.680,   -2.263,   -8.266,   -0.756,   -0.488,
       -2.102,    0.949,   -4.077,   -6.609
    },
    {   0.142,    0.034,    0.184,    0.012,   -0.060,    0.038,    0.003,
        0.052,    0.030,    0.001,    0.021,    0.003,    0.032,   -0.027,
        0.136,   -0.046,    0.130,    0.031,   -0.082,   -0.013,    0.007,
       -0.030,   -0.058,    0.007,    0.104,    0.018,    0.004,   -0.000,
        0.000,   -0.060,   -0.329,    1.777,   -2.418,    9.004,   -0.332,
       -3.420,    3.271,   -4.967,   -3.765,   -7.566,   -1.140,   -1.733,
       -1.137,    1.091,   -4.760,   -6.114
    },
    {  -0.030,    0.058,    0.025,   -0.055,   -0.032,    0.012,   -0.120,
        0.017,   -0.061,   -0.021,    0.072,   -0.000,    0.021,   -0.021,
        0.069,   -0.015,    0.028,    0.003,   -0.052,   -0.016,    0.041,
        0.004,   -0.023,   -0.018,    0.100,   -0.002,    0.085,   -0.003,
        0.079,   -0.036,   -0.735,    2.429,   -1.767,    9.785,   -0.442,
       -3.222,    1.941,   -5.447,   -4.350,   -6.342,   -1.089,   -2.676,
       -2.767,    0.018,   -6.570,   -5.705
    },
    {  -0.195,    0.025,    0.049,    0.028,   -0.095,   -0.004,   -0.052,
        0.000,    0.051,   -0.031,    0.133,    0.081,    0.028,   -0.070,
       -0.006,    0.017,    0.036,   -0.047,   -0.020,   -0.020,   -0.044,
       -0.068,    0.037,    0.024,    0.062,    0.024,    0.023,   -0.028,
       -0.024,    0.063,   -0.952,    2.046,   -1.094,    9.440,   -0.012,
       -3.161,    2.075,   -5.366,   -3.983,   -6.388,   -1.739,   -3.273,
       -2.085,   -0.603,   -5.966,   -5.475
    },
    {   0.123,   -0.075,   -0.120,    0.034,    0.043,   -0.005,    0.090,
       -0.024,    0.036,   -0.057,   -0.067,    0.014,    0.018,   -0.018,
        0.095,   -0.051,    0.044,   -0.087,   -0.063,   -0.116,   -0.140,
       -0.075,   -0.031,   -0.005,   -0.119,   -0.013,    0.098,   -0.019,
        0.097,    0.095,   -1.546,    2.453,   -1.800,    9.698,    0.467,
       -3.181,    2.150,   -5.893,   -4.304,   -5.672,   -2.058,   -2.065,
       -2.046,    0.355,   -6.738,   -4.706
    },
    {  -0.068,   -0.072,    0.088,   -0.004,   -0.061,    0.069,    0.028,
       -0.015,    0.160,   -0.042,   -0.196,    0.035,    0.047,   -0.017,
       -0.098,   -0.051,   -0.000,   -0.037,   -0.096,   -0.000,   -0.067,
       -0.105,   -0.012,   -0.006,    0.036,   -0.012,   -0.018,    0.087,
       -0.101,   -0.032,   -1.891,    1.909,   -1.234,   11.083,    1.361,
       -0.805,    2.009,   -5.365,   -3.029,   -5.717,   -1.699,   -1.828,
       -1.638,    1.266,   -6.444,   -3.971
    },
    {   0.140,   -0.042,   -0.006,    0.001,   -0.054,    0.042,    0.042,
        0.013,    0.068,   -0.024,    0.010,    0.029,    0.090,   -0.015,
       -0.105,   -0.067,   -0.006,    0.021,   -0.003,   -0.001,   -0.034,
       -0.004,    0.075,   -0.020,   -0.042,   -0.003,    0.061,   -0.017,
        0.025,   -0.027,   -1.778,    2.059,   -2.277,    9.738,    2.877,
       -0.085,    2.519,   -4.821,   -3.119,   -4.929,   -0.478,   -1.604,
       -0.858,    0.225,   -6.125,   -4.471
    },
    {   0.031,   -0.013,   -0.044,   -0.009,   -0.042,   -0.002,   -0.037,
        0.094,    0.040,   -0.014,   -0.094,    0.049,    0.150,    0.026,
       -0.057,   -0.043,    0.044,    0.005,    0.124,    0.011,   -0.050,
       -0.009,   -0.022,    0.004,    0.037,   -0.005,   -0.148,   -0.069,
        0.090,   -0.004,   -1.666,    2.335,   -2.333,   10.497,    2.758,
       -0.287,    2.721,   -6.744,   -3.202,   -4.251,    0.275,   -2.776,
       -3.054,   -0.336,   -6.991,   -3.738
    },
    {  -0.037,   -0.012,    0.170,   -0.082,    0.038,    0.007,    0.096,
        0.088,    0.019,   -0.023,    0.033,    0.022,   -0.146,    0.040,
        0.078,   -0.036,   -0.079,   -0.003,   -0.113,    0.005,    0.241,
        0.032,    0.071,    0.022,   -0.150,   -0.022,    0.198,   -0.065,
       -0.137,   -0.035,   -2.215,    3.231,   -3.436,    9.738,    3.043,
       -0.739,    3.507,   -5.625,   -2.255,   -4.110,    0.891,   -2.276,
       -4.062,   -1.142,   -6.142,   -4.397
    },
    {  -0.000,   -0.026,    0.232,   -0.064,   -0.063,   -0.022,    0.139,
        0.066,    0.043,   -0.033,    0.013,    0.052,   -0.157,   -0.005,
       -0.140,   -0.034,   -0.207,   -0.025,    0.095,    0.012,    0.091,
        0.006,    0.054,   -0.005,   -0.241,   -0.053,    0.228,   -0.029,
        0.284,   -0.016,   -0.611,    2.103,   -1.882,    9.624,    3.360,
       -0.985,    3.900,   -5.806,   -0.817,   -4.117,    0.663,   -1.876,
       -4.451,    0.258,   -6.280,   -4.679
    },
    {  -0.166,    0.028,    0.184,   -0.010,   -0.020,    0.034,    0.236,
        0.021,   -0.100,   -0.030,    0.028,   -0.000,   -0.304,   -0.010,
       -0.138,   -0.041,   -0.104,   -0.062,    0.363,    0.042,    0.123,
       -0.026,    0.111,    0.029,   -0.010,    0.000,    0.286,   -0.024,
        0.109,    0.015,   -1.540,    1.867,   -1.078,    9.486,    2.631,
       -1.202,    2.512,   -5.836,   -0.456,   -3.846,    0.865,   -3.269,
       -5.322,   -0.659,   -7.412,   -5.001
    },
    {  -0.040,    0.039,    0.130,    0.008,   -0.090,   -0.016,    0.079,
        0.006,    0.075,   -0.064,   -0.017,    0.001,    0.059,   -0.044,
        0.249,   -0.062,   -0.190,   -0.068,   -0.110,    0.070,   -0.009,
       -0.066,   -0.004,    0.038,    0.057,    0.023,    0.025,   -0.050,
        0.077,    0.043,   -1.125,    2.582,   -1.071,    8.764,    3.297,
       -0.710,    1.884,   -6.106,   -0.593,   -4.675,    1.043,   -3.254,
       -4.016,   -2.158,   -6.787,   -4.000
    },
    {   0.079,    0.031,   -0.031,    0.032,    0.018,   -0.001,    0.108,
        0.052,   -0.082,   -0.027,   -0.003,    0.027,   -0.035,   -0.091,
        0.223,   -0.065,   -0.136,   -0.053,   -0.134,    0.026,    0.139,
       -0.000,    0.001,   -0.034,    0.094,    0.005,    0.051,    0.028,
        0.184,    0.010,   -1.623,    2.728,   -1.222,    9.100,    2.192,
       -0.904,    2.352,   -6.627,   -0.592,   -4.215,    0.804,   -2.899,
       -4.245,   -2.727,   -6.881,   -5.070
    },
    {   0.079,    0.020,   -0.120,    0.004,   -0.106,    0.007,    0.090,
        0.024,    0.044,    0.012,   -0.036,   -0.005,    0.026,   -0.031,
        0.152,   -0.008,   -0.031,   -0.028,   -0.018,    0.050,    0.171,
       -0.007,   -0.017,   -0.005,    0.107,    0.005,    0.099,   -0.023,
       -0.033,   -0.015,   -0.700,    2.865,   -1.089,    7.882,    2.352,
       -0.940,    2.345,   -5.812,   -0.819,   -4.854,    2.467,   -3.869,
       -4.613,   -2.043,   -6.372,   -6.035
    },
    {  -0.025,    0.035,   -0.031,   -0.041,    0.000,    0.040,   -0.046,
        0.020,    0.006,   -0.015,    0.019,    0.013,   -0.026,   -0.006,
       -0.114,   -0.014,    0.065,   -0.028,   -0.020,   -0.040,    0.039,
       -0.012,    0.053,   -0.006,   -0.082,   -0.038,   -0.048,    0.010,
        0.014,   -0.037,   -2.020,    3.854,   -1.571,    8.600,    3.369,
       -2.784,    0.414,   -4.618,   -0.141,   -5.273,    3.438,   -4.097,
       -4.453,   -1.772,   -6.052,   -5.763
    },
    {  -0.083,   -0.050,    0.011,   -0.010,   -0.030,    0.018,   -0.045,
        0.016,    0.026,   -0.012,   -0.002,   -0.006,   -0.051,   -0.057,
       -0.028,    0.040,    0.022,    0.002,   -0.045,    0.058,    0.113,
       -0.022,    0.017,    0.018,   -0.036,    0.088,    0.028,   -0.056,
       -0.001,   -0.035,   -1.277,    4.370,   -1.385,    9.389,    2.386,
       -1.579,    3.443,   -5.816,   -0.019,   -3.426,    1.036,   -3.273,
       -3.813,   -1.499,   -6.695,   -6.429
    },
    {  -0.030,    0.055,   -0.023,   -0.042,   -0.034,    0.013,   -0.018,
        0.022,    0.014,   -0.007,    0.052,    0.003,   -0.026,   -0.077,
       -0.012,    0.098,    0.069,   -0.057,   -0.044,   -0.033,    0.058,
        0.008,    0.016,    0.015,   -0.004,   -0.071,    0.011,    0.015,
        0.000,    0.055,   -1.567,    5.160,   -0.638,   10.361,    2.132,
       -1.566,    2.704,   -6.834,    0.048,   -4.316,    0.875,   -2.736,
       -3.089,   -2.575,   -6.266,   -6.333
    },
    {   0.019,    0.024,    0.008,    0.078,   -0.011,    0.116,   -0.034,
       -0.136,   -0.012,    0.018,   -0.014,    0.069,   -0.018,   -0.084,
        0.020,    0.006,   -0.012,    0.014,   -0.002,    0.097,   -0.026,
        0.114,   -0.008,    0.029,    0.038,    0.073,    0.017,    0.030,
       -0.008,    0.109,   -2.676,    6.227,    0.204,    9.893,    1.558,
       -0.789,    3.044,   -8.486,   -0.622,   -4.559,    2.968,   -3.119,
       -4.742,   -0.816,   -6.171,   -5.614
    },
    {  -0.002,    0.094,   -0.053,    0.027,   -0.019,    0.008,    0.001,
        0.005,   -0.001,    0.024,   -0.011,   -0.014,   -0.019,    0.020,
       -0.012,    0.045,   -0.001,   -0.109,   -0.002,   -0.027,    0.005,
       -0.003,    0.020,   -0.006,    0.018,   -0.023,    0.010,    0.048,
       -0.038,   -0.074,   -2.448,    6.400,    0.072,    9.214,    1.437,
       -2.453,    2.751,   -9.359,   -1.293,   -4.313,    2.034,   -3.572,
       -4.268,   -1.168,   -7.884,   -5.979
    },
    {   0.022,    0.060,   -0.048,   -0.012,    0.052,   -0.017,    0.058,
        0.026,   -0.012,   -0.033,   -0.027,   -0.012,   -0.071,   -0.011,
       -0.044,   -0.018,   -0.021,    0.010,    0.037,   -0.023,    0.008,
       -0.015,    0.026,   -0.021,   -0.045,   -0.008,   -0.023,   -0.010,
       -0.058,   -0.047,   -4.324,    6.749,    0.142,    9.308,    1.384,
       -1.464,    2.945,   -8.836,   -1.104,   -3.757,    0.734,   -3.404,
       -4.520,   -0.329,   -8.468,   -6.207
    },
    {   0.041,    0.033,   -0.126,    0.009,   -0.091,   -0.048,    0.025,
       -0.001,   -0.122,   -0.085,   -0.115,    0.024,   -0.133,    0.027,
       -0.005,   -0.035,   -0.044,    0.033,    0.084,   -0.046,    0.124,
       -0.040,    0.085,   -0.014,   -0.074,   -0.037,    0.039,   -0.081,
       -0.130,   -0.033,   -3.108,    7.042,   -0.274,    8.761,    0.552,
       -2.895,    2.328,   -8.673,   -0.587,   -3.309,    0.932,   -3.001,
       -3.245,   -0.098,   -9.446,   -5.129
    },
    {  -0.098,    0.072,    0.233,    0.099,    0.181,    0.009,    0.042,
       -0.030,   -0.178,   -0.067,    0.123,   -0.006,    0.018,    0.009,
       -0.126,   -0.024,    0.072,    0.027,    0.017,    0.037,   -0.128,
       -0.042,   -0.269,   -0.036,    0.172,    0.007,    0.009,    0.031,
        0.012,   -0.106,   -5.010,    7.417,   -0.089,    9.923,    2.731,
       -1.879,    3.655,   -9.235,   -0.081,   -4.337,   -0.263,   -1.900,
       -4.482,   -0.503,   -7.735,   -5.518
    },
    {   0.110,    0.036,    0.322,    0.086,   -0.167,    0.038,    0.181,
       -0.043,   -0.304,   -0.001,    0.316,   -0.023,   -0.098,   -0.004,
        0.093,    0.019,    0.139,    0.018,    0.226,   -0.028,    0.085,
       -0.040,   -0.080,    0.012,   -0.026,   -0.015,   -0.027,    0.004,
        0.153,   -0.054,   -3.606,    6.998,    0.203,   10.619,    1.930,
       -2.327,    3.963,   -9.359,    0.576,   -4.105,   -0.714,   -2.270,
       -3.753,   -2.288,   -8.238,   -4.783
    },
    {  -0.149,    0.049,    0.268,    0.029,   -0.183,    0.054,   -0.033,
       -0.034,    0.077,   -0.014,    0.428,    0.016,   -0.129,   -0.048,
       -0.092,    0.032,   -0.099,    0.019,    0.423,    0.036,    0.034,
       -0.006,   -0.140,   -0.046,    0.065,    0.025,    0.084,    0.052,
        0.117,    0.008,   -1.766,    5.587,    0.580,   10.226,    1.808,
       -1.187,    3.404,   -8.538,   -0.016,   -4.931,   -0.615,   -1.946,
       -4.376,   -1.092,   -7.294,   -4.327
    },
    {  -0.033,    0.013,    0.374,   -0.031,    0.061,    0.005,    0.169,
       -0.047,   -0.067,    0.033,    0.506,   -0.063,   -0.219,   -0.045,
       -0.232,    0.005,    0.106,   -0.045,    0.567,    0.076,   -0.059,
       -0.005,    0.295,    0.023,    0.026,   -0.045,    0.127,   -0.074,
        0.128,    0.010,   -2.903,    5.782,   -0.091,   11.251,    2.243,
       -0.882,    2.521,   -8.064,   -0.356,   -5.316,   -0.780,   -1.885,
       -3.748,   -0.998,   -7.514,   -4.454
    },
    {  -0.310,    0.016,    0.386,   -0.001,    0.038,    0.050,    0.247,
        0.044,   -0.157,    0.019,    0.536,    0.020,   -0.265,   -0.044,
        0.071,   -0.029,    0.137,    0.013,    0.733,   -0.051,   -0.039,
       -0.012,    0.253,   -0.050,    0.027,    0.065,    0.262,    0.050,
       -0.130,   -0.017,   -1.556,    5.878,    0.423,   10.741,    1.826,
       -1.694,    2.940,   -8.114,   -0.370,   -5.578,   -0.757,   -2.200,
       -4.408,    0.201,   -8.579,   -4.135
    },
    {  -0.440,   -0.009,    0.441,   -0.011,   -0.239,    0.017,    0.006,
        0.017,   -0.228,    0.039,    0.504,    0.034,   -0.241,   -0.021,
       -0.086,   -0.026,    0.226,   -0.003,    0.565,   -0.064,   -0.184,
       -0.039,   -0.109,   -0.034,    0.305,    0.035,   -0.068,   -0.005,
        0.003,   -0.034,   -2.122,    4.625,    0.941,   10.368,    1.399,
       -1.622,    3.604,   -9.010,   -2.110,   -5.706,   -1.274,   -2.082,
       -4.083,   -0.744,   -9.983,   -3.975
    },
    {  -0.214,   -0.031,    0.294,   -0.017,   -0.010,    0.032,    0.016,
        0.013,   -0.117,   -0.000,    0.191,    0.025,    0.046,   -0.039,
       -0.066,   -0.031,   -0.065,   -0.019,    0.310,   -0.029,   -0.291,
       -0.019,   -0.137,   -0.006,    0.179,    0.002,   -0.082,    0.001,
        0.044,   -0.023,   -3.731,    4.682,   -0.249,   10.022,    1.427,
       -0.323,    3.239,   -9.466,   -3.594,   -5.444,   -0.345,   -2.221,
       -3.783,   -0.686,   -9.486,   -2.939
    },
    {  -0.002,    0.032,    0.164,    0.041,   -0.022,   -0.006,   -0.130,
        0.003,   -0.037,   -0.057,   -0.005,    0.031,    0.151,   -0.031,
        0.077,   -0.043,   -0.229,   -0.035,    0.425,    0.063,   -0.051,
        0.032,   -0.165,   -0.014,    0.229,    0.005,   -0.206,   -0.017,
       -0.077,    0.009,   -3.544,    4.473,    0.466,    9.069,    2.382,
        0.982,    3.364,  -10.171,   -4.045,   -5.106,   -0.947,   -1.115,
       -3.291,   -0.410,   -9.164,   -3.762
    },
    {  -0.278,    0.075,    0.500,   -0.076,   -0.084,   -0.007,    0.187,
        0.087,   -0.052,   -0.026,    0.150,   -0.035,    0.274,    0.021,
       -0.078,   -0.006,    0.088,   -0.035,    0.348,   -0.019,   -0.400,
        0.037,   -0.250,   -0.061,   -0.114,   -0.026,   -0.161,   -0.063,
       -0.229,    0.029,   -3.410,    3.689,    1.157,    9.090,    3.270,
        1.566,    3.260,   -9.813,   -4.679,   -4.532,   -1.181,   -1.143,
       -3.849,   -0.270,  -11.559,   -4.069
    },
    {  -0.224,    0.016,    0.197,   -0.010,   -0.074,    0.005,    0.265,
        0.016,    0.070,   -0.078,   -0.028,    0.005,    0.339,   -0.024,
        0.201,   -0.002,   -0.173,   -0.064,    0.447,    0.020,   -0.336,
        0.039,   -0.222,   -0.017,   -0.171,    0.006,   -0.231,   -0.014,
       -0.008,   -0.048,   -3.118,    2.704,    0.881,    9.746,    2.759,
        1.342,    3.317,   -9.668,   -4.879,   -5.240,   -0.508,   -2.770,
       -3.792,   -0.578,  -11.500,   -3.914
    },
    {  -0.286,    0.008,    0.098,    0.034,   -0.129,    0.058,    0.498,
        0.034,   -0.012,    0.046,   -0.108,   -0.038,    0.134,   -0.042,
        0.248,   -0.019,   -0.167,    0.076,    0.319,    0.018,   -0.119,
        0.012,   -0.255,    0.003,   -0.081,   -0.008,   -0.181,   -0.001,
       -0.047,    0.012,   -3.280,    2.420,    0.823,   10.896,    3.351,
        1.624,    2.924,  -10.072,   -4.185,   -4.071,   -0.432,   -2.115,
       -3.706,   -1.085,  -11.671,   -3.898
    },
    {  -0.198,   -0.065,    0.301,    0.059,   -0.031,    0.057,    0.354,
        0.128,   -0.319,   -0.001,   -0.074,    0.019,    0.226,   -0.022,
        0.137,   -0.051,   -0.079,    0.058,    0.010,    0.002,    0.093,
        0.108,   -0.333,   -0.024,    0.014,    0.024,   -0.119,   -0.015,
       -0.104,    0.023,   -2.950,    1.899,    0.853,    9.848,    3.062,
        0.460,    3.483,  -10.556,   -3.278,   -4.034,   -0.415,   -2.058,
       -3.837,   -0.958,  -11.111,   -3.685
    },
    {  -0.232,    0.010,    0.137,   -0.027,   -0.127,    0.021,   -0.074,
       -0.018,   -0.357,    0.010,   -0.137,    0.039,    0.126,    0.002,
       -0.055,   -0.007,   -0.248,   -0.066,   -0.209,   -0.024,    0.073,
       -0.010,   -0.300,   -0.023,    0.024,   -0.036,   -0.155,   -0.022,
       -0.244,    0.002,   -2.988,    1.155,    0.408,    9.323,    3.567,
        0.519,    3.863,  -10.963,   -4.329,   -3.642,   -0.128,   -2.020,
       -2.766,   -0.757,  -12.113,   -2.825
    },
    {  -0.037,    0.024,    0.058,   -0.031,   -0.079,    0.011,    0.191,
        0.017,   -0.274,    0.012,   -0.215,    0.048,    0.276,   -0.002,
       -0.161,    0.033,   -0.096,   -0.015,   -0.057,    0.026,    0.136,
       -0.049,   -0.150,   -0.044,   -0.091,   -0.010,   -0.269,   -0.022,
       -0.144,    0.029,   -2.129,    1.468,   -0.486,   10.450,    3.983,
        1.675,    4.687,  -12.514,   -3.676,   -4.479,    0.086,   -2.817,
       -2.539,   -0.047,  -12.720,   -2.317
    },
    {  -0.056,    0.032,   -0.087,   -0.037,   -0.111,    0.038,    0.107,
       -0.048,   -0.183,   -0.026,   -0.101,    0.090,    0.135,   -0.034,
       -0.102,    0.078,   -0.284,    0.015,   -0.047,    0.014,    0.012,
       -0.069,   -0.138,    0.017,    0.163,   -0.009,   -0.054,   -0.006,
       -0.014,    0.035,   -1.706,    1.523,   -1.604,   11.038,    4.215,
        1.899,    5.282,  -12.406,   -4.183,   -4.368,    0.155,   -2.485,
       -2.569,   -0.290,  -12.453,   -2.436
    },
    {  -0.178,   -0.004,    0.122,   -0.020,    0.014,    0.036,    0.075,
        0.026,   -0.150,    0.015,   -0.131,   -0.034,    0.102,   -0.030,
        0.006,   -0.032,    0.061,   -0.030,   -0.122,    0.013,   -0.054,
       -0.033,    0.144,    0.046,   -0.030,   -0.009,   -0.110,    0.014,
       -0.034,   -0.031,   -1.289,    1.677,   -1.463,   11.179,    4.483,
        1.769,    4.666,  -12.584,   -3.692,   -4.549,    0.524,   -2.514,
       -2.650,    0.020,  -13.613,   -2.888
    },
    {  -0.054,   -0.040,    0.031,    0.017,   -0.005,    0.033,    0.141,
        0.006,   -0.054,    0.038,   -0.119,   -0.020,    0.126,   -0.025,
        0.093,   -0.059,   -0.053,    0.035,   -0.067,   -0.026,    0.026,
       -0.008,    0.087,    0.063,    0.082,    0.006,   -0.079,   -0.013,
        0.025,   -0.049,   -1.462,    0.388,   -0.925,   11.302,    3.438,
        1.933,    3.365,  -11.087,   -4.511,   -4.265,    1.723,   -1.878,
       -1.630,    0.768,  -13.504,   -1.950
    },
    {   0.060,   -0.064,   -0.020,    0.018,   -0.096,    0.039,   -0.003,
       -0.010,   -0.007,    0.027,   -0.068,   -0.035,   -0.106,   -0.026,
        0.031,   -0.026,   -0.003,   -0.021,    0.007,   -0.051,   -0.112,
       -0.065,    0.110,    0.088,   -0.028,    0.014,   -0.009,   -0.008,
        0.013,   -0.022,   -2.158,   -0.785,   -0.347,   10.351,    4.897,
        2.479,    1.969,  -10.495,   -5.061,   -3.648,    0.787,   -0.828,
       -2.158,   -0.266,  -14.399,   -1.113
    },
    {   0.034,   -0.028,    0.009,    0.003,   -0.017,    0.029,   -0.002,
       -0.095,    0.031,   -0.010,    0.010,    0.035,   -0.017,   -0.097,
        0.066,   -0.027,   -0.046,   -0.033,    0.023,    0.032,    0.083,
       -0.066,   -0.080,    0.089,    0.035,   -0.155,    0.020,    0.001,
       -0.079,   -0.031,   -2.271,    0.635,   -1.073,   10.727,    4.610,
        2.705,    1.798,  -10.189,   -4.586,   -4.060,    0.501,   -0.206,
       -2.174,    0.561,  -14.256,   -0.552
    },
    {  -0.027,    0.063,   -0.040,   -0.047,   -0.094,    0.019,    0.004,
        0.116,   -0.003,    0.011,    0.127,   -0.023,   -0.021,   -0.021,
        0.077,   -0.063,    0.106,   -0.039,   -0.007,   -0.037,    0.012,
        0.001,   -0.041,    0.002,   -0.064,    0.127,    0.048,    0.030,
       -0.149,    0.017,   -0.784,    0.611,   -0.850,   11.468,    4.792,
        2.016,    1.813,  -10.106,   -4.034,   -3.623,    1.956,   -1.375,
       -0.865,   -0.705,  -15.199,   -1.364
    },
    {   0.024,    0.020,    0.136,   -0.050,   -0.010,    0.054,    0.018,
        0.004,    0.039,   -0.011,   -0.170,    0.003,   -0.001,   -0.024,
       -0.008,   -0.052,    0.077,   -0.035,    0.057,    0.029,    0.044,
       -0.064,    0.104,   -0.025,    0.141,   -0.013,   -0.009,    0.033,
        0.129,   -0.025,   -1.733,   -1.242,    0.066,   10.270,    5.269,
        2.395,    1.117,   -8.862,   -5.213,   -3.942,    1.935,   -2.891,
       -0.604,   -0.943,  -14.426,   -1.420
    },
    {   0.154,    0.012,    0.037,   -0.032,    0.035,    0.052,   -0.034,
        0.018,   -0.013,    0.003,   -0.099,    0.024,   -0.004,   -0.035,
        0.088,   -0.021,    0.036,   -0.026,   -0.011,   -0.042,    0.014,
        0.015,    0.090,    0.034,    0.120,    0.043,    0.031,    0.007,
       -0.006,   -0.043,   -1.472,    0.031,    0.264,    9.985,    3.823,
        2.272,    1.244,   -8.596,   -4.415,   -4.043,    0.845,   -2.733,
       -0.631,   -0.280,  -14.356,   -1.444
    },
    {  -0.024,   -0.002,    0.028,    0.013,    0.082,    0.035,    0.037,
        0.051,   -0.048,    0.028,    0.024,   -0.058,    0.068,   -0.008,
        0.030,   -0.040,   -0.106,    0.023,    0.048,    0.036,    0.236,
       -0.014,    0.002,   -0.072,    0.034,   -0.021,    0.096,   -0.001,
       -0.221,    0.007,   -1.675,   -0.592,    0.129,   10.595,    5.682,
        3.006,    1.423,   -8.218,   -3.221,   -3.410,    0.814,   -2.312,
       -0.567,    0.186,  -14.259,   -1.474
    },
    {  -0.143,   -0.022,    0.032,   -0.009,    0.047,    0.008,    0.028,
       -0.052,   -0.062,    0.026,    0.108,    0.008,    0.054,   -0.031,
        0.028,   -0.019,   -0.134,   -0.002,   -0.059,   -0.011,    0.086,
        0.027,    0.044,    0.028,   -0.035,    0.020,    0.102,   -0.056,
       -0.047,   -0.018,   -1.224,    0.400,    0.895,   10.626,    6.003,
        3.560,    1.824,   -9.036,   -3.451,   -3.053,    0.858,   -1.868,
       -0.481,    0.664,  -14.058,   -1.652
    },
    {   0.035,    0.021,   -0.103,    0.018,    0.005,    0.046,   -0.110,
        0.046,   -0.109,    0.016,    0.152,    0.044,    0.052,   -0.022,
        0.053,    0.003,   -0.036,   -0.050,   -0.008,    0.036,    0.051,
        0.001,   -0.133,    0.014,   -0.080,   -0.025,    0.015,    0.039,
       -0.074,   -0.023,   -0.879,    0.897,    0.704,    9.690,    6.959,
        3.370,    3.130,   -9.006,   -2.128,   -3.751,    0.689,   -1.426,
        0.713,   -0.006,  -14.698,   -1.777
    },
    {  -0.121,    0.047,   -0.278,    0.019,   -0.170,    0.023,   -0.041,
        0.050,    0.061,    0.029,    0.271,    0.008,    0.036,   -0.001,
       -0.075,   -0.003,   -0.033,   -0.067,   -0.058,   -0.008,   -0.039,
       -0.022,   -0.149,   -0.008,   -0.108,    0.005,    0.025,    0.016,
       -0.104,   -0.029,   -1.329,    1.754,   -1.240,    9.082,    5.563,
        2.146,    3.467,   -8.019,   -1.543,   -4.062,    0.102,   -3.171,
        2.271,   -0.554,  -14.312,   -2.729
    },
    {  -0.155,   -0.009,   -0.068,    0.033,   -0.163,   -0.007,   -0.105,
       -0.068,    0.109,   -0.038,    0.340,   -0.001,   -0.044,   -0.034,
       -0.130,   -0.034,   -0.003,    0.018,   -0.004,   -0.010,   -0.185,
        0.045,   -0.007,   -0.007,   -0.135,    0.030,    0.109,   -0.104,
       -0.103,    0.012,   -1.208,    2.749,   -0.035,    9.303,    6.637,
        2.007,    3.743,   -8.242,   -1.798,   -5.145,    0.320,   -3.669,
        1.805,   -0.188,  -14.144,   -3.320
    },
    {  -0.072,   -0.028,   -0.200,    0.003,   -0.184,    0.014,    0.014,
       -0.034,   -0.067,   -0.034,    0.208,   -0.036,    0.095,   -0.001,
       -0.038,   -0.032,    0.112,   -0.012,    0.008,    0.053,   -0.095,
        0.004,    0.138,   -0.025,    0.067,   -0.000,    0.022,   -0.086,
       -0.103,    0.034,   -0.566,    1.736,    0.168,    9.698,    6.541,
        1.783,    3.479,   -8.899,   -1.639,   -5.246,    0.393,   -4.045,
        2.682,   -0.530,  -14.343,   -3.375
    }
  };


  double netfun(std::vector<double>& in, const double* w)
  {
    double x00 = in[0];
    double x;

    //Layer 1, Node 0
    x = w[0];
    x = x + w[1] * x00;
    double x10 = tanh(x);

    //Layer 1, Node 1
    x = w[2];
    x = x + w[3] * x00;
    double x11 = tanh(x);

    //Layer 1, Node 2
    x = w[4];
    x = x + w[5] * x00;
    double x12 = tanh(x);

    //Layer 1, Node 3
    x = w[6];
    x = x + w[7] * x00;
    double x13 = tanh(x);

    //Layer 1, Node 4
    x = w[8];
    x = x + w[9] * x00;
    double x14 = tanh(x);

    //Layer 1, Node 5
    x = w[10];
    x = x + w[11] * x00;
    double x15 = tanh(x);

    //Layer 1, Node 6
    x = w[12];
    x = x + w[13] * x00;
    double x16 = tanh(x);

    //Layer 1, Node 7
    x = w[14];
    x = x + w[15] * x00;
    double x17 = tanh(x);

    //Layer 1, Node 8
    x = w[16];
    x = x + w[17] * x00;
    double x18 = tanh(x);

    //Layer 1, Node 9
    x = w[18];
    x = x + w[19] * x00;
    double x19 = tanh(x);

    //Layer 1, Node 10
    x = w[20];
    x = x + w[21] * x00;
    double x110 = tanh(x);

    //Layer 1, Node 11
    x = w[22];
    x = x + w[23] * x00;
    double x111 = tanh(x);

    //Layer 1, Node 12
    x = w[24];
    x = x + w[25] * x00;
    double x112 = tanh(x);

    //Layer 1, Node 13
    x = w[26];
    x = x + w[27] * x00;
    double x113 = tanh(x);

    //Layer 1, Node 14
    x = w[28];
    x = x + w[29] * x00;
    double x114 = tanh(x);

    //Layer 2, Node 0
    x = w[30];
    x = x + w[31] * x10;
    x = x + w[32] * x11;
    x = x + w[33] * x12;
    x = x + w[34] * x13;
    x = x + w[35] * x14;
    x = x + w[36] * x15;
    x = x + w[37] * x16;
    x = x + w[38] * x17;
    x = x + w[39] * x18;
    x = x + w[40] * x19;
    x = x + w[41] * x110;
    x = x + w[42] * x111;
    x = x + w[43] * x112;
    x = x + w[44] * x113;
    x = x + w[45] * x114;
    double x20 = 1.0/(1.0+exp(-x));
    return x20;
  }
}; // End anonymous namespace

//-----------------------------------------------------------------------------
// Compute average over networks. Default is to use all networks
//-----------------------------------------------------------------------------

double HT250_MHT70_v1_HT250_v4_164924_165921_sel1(std::vector<double>& inputvars,
                                                  int first=0,
                                                  int last=nnetworks-1)
{
  if ( first < 0 ) first = 0;
  if ( last  < 0 ) last  = nnetworks-1;
  if ( last  > nnetworks-1 ) last = nnetworks-1;
  if ( first > last )
    {
      std::cerr << "** HT250_MHT70_v1_HT250_v4_164924_165921_sel1 ** first-index > last-index"
                << std::endl; exit(3);
    }

  // Compute average over networks
  std::vector<double> in(ninputs);
  in[0] = (inputvars[0] - mean[0]) / sigma[0];

  int   n = last - first + 1;
  double x = 0.0;
  for(int i=first; i <= last; i++) x += netfun(in, weight[i]);
  return x / n;
}

extern "C" double HT250_MHT70_v1_HT250_v4_164924_165921_sel1_dl(std::vector<double>& in,
                                                                int first=0,
                                                                int last=nnetworks-1)
{
  return HT250_MHT70_v1_HT250_v4_164924_165921_sel1(in, first, last);
}

extern "C" double HT250_MHT70_v1_HT250_v4_164924_165921_sel1_dl2(double* in,
                                                                 int first=0,
                                                                 int last=nnetworks-1)
{
  std::vector<double> invec;

  invec.push_back(in[0]);

  return HT250_MHT70_v1_HT250_v4_164924_165921_sel1(invec, first, last);
}
