//-----------------------------------------------------------------------------
// Network: HT250_MHT60_v2_HT250_v2_161205_163268_sel2
// Inputs:
//                                                  Offset       Scale
//    offlinevar                                 2.284e+01   1.534e+01
//
// Created: Wed Dec 21 19:43:24 2011
//-----------------------------------------------------------------------------
#include <cmath>
#include <vector>
#include <iostream>
#include <stdlib.h>
//-----------------------------------------------------------------------------
// Make following visible only to this programming unit
namespace {
  // NOTE: Network indices start at 0
  static const int nnetworks=100;
  static const int ninputs  =1;
  static const int nhidden  =15;
  static const int nparams  =46;

  static const double mean[ninputs]={
  2.28400e+01
  };

  static const double sigma[ninputs]={
  1.53400e+01
  };

  static const double weight[nnetworks][nparams]={
    {   0.230,   -0.040,   -0.179,    0.091,    0.083,    0.001,   -0.131,
        0.070,   -0.154,   -0.085,    0.124,   -0.037,    0.061,    0.002,
       -0.096,   -0.058,   -0.104,   -0.064,   -0.129,    0.025,    0.263,
       -0.027,    0.264,   -0.051,   -0.210,    0.008,    0.013,   -0.080,
        0.112,    0.054,   -0.761,    1.475,   -0.288,    4.783,    0.382,
       -1.177,   -1.399,   -3.096,   -1.047,   -2.997,    2.159,   -1.933,
       -2.033,    1.282,   -0.628,   -1.627
    },
    {   0.136,    0.022,    0.016,    0.051,    0.019,    0.110,   -0.008,
       -0.029,   -0.158,    0.094,    0.030,    0.028,   -0.026,   -0.002,
       -0.019,    0.064,   -0.095,    0.156,   -0.092,    0.193,    0.073,
       -0.110,    0.152,   -0.009,   -0.284,    0.013,   -0.128,   -0.011,
        0.151,   -0.062,   -1.177,    1.317,   -0.408,    3.988,    0.324,
       -1.356,   -1.209,   -3.785,   -0.732,   -3.109,    2.150,   -1.970,
       -1.766,    1.345,   -0.415,   -1.765
    },
    {  -0.029,    0.076,   -0.120,   -0.114,    0.037,    0.166,   -0.074,
       -0.086,   -0.201,   -0.093,    0.036,   -0.024,    0.152,    0.131,
       -0.045,    0.045,   -0.184,    0.018,   -0.017,   -0.015,    0.141,
       -0.140,    0.209,   -0.065,   -0.208,   -0.082,   -0.277,    0.009,
        0.151,    0.059,   -0.967,    1.168,   -0.764,    3.734,   -0.400,
       -1.199,   -1.192,   -3.809,   -0.344,   -3.331,    2.608,   -2.077,
       -1.579,    1.063,   -0.179,   -1.811
    },
    {  -0.059,    0.019,   -0.125,    0.014,   -0.035,    0.083,   -0.221,
       -0.115,   -0.127,   -0.118,    0.054,    0.045,    0.151,    0.076,
        0.165,   -0.018,   -0.208,   -0.050,   -0.009,   -0.007,    0.156,
       -0.009,    0.163,   -0.158,   -0.061,   -0.037,    0.047,    0.106,
        0.384,   -0.099,   -0.615,    1.538,   -0.382,    3.830,   -0.705,
       -1.239,   -1.223,   -4.260,    0.037,   -3.135,    2.481,   -1.673,
       -1.254,    0.906,   -0.343,   -1.378
    },
    {   0.149,    0.180,   -0.035,    0.011,   -0.112,    0.247,   -0.006,
       -0.097,   -0.081,   -0.240,   -0.112,    0.408,    0.134,   -0.040,
        0.077,   -0.050,   -0.136,   -0.053,   -0.126,   -0.168,    0.134,
        0.257,   -0.015,   -0.052,    0.053,   -0.261,   -0.182,    0.266,
        0.149,    0.021,   -0.903,    1.499,   -0.642,    4.359,   -0.144,
       -0.991,   -0.714,   -3.798,    0.387,   -3.284,    1.930,   -1.924,
       -2.180,    1.493,   -0.032,   -1.592
    },
    {  -0.225,   -0.270,   -0.120,   -0.054,   -0.026,   -0.138,    0.184,
       -0.030,    0.058,    0.064,    0.092,    0.208,    0.052,   -0.265,
       -0.079,   -0.024,   -0.138,   -0.123,    0.130,   -0.059,    0.136,
       -0.022,    0.051,   -0.099,   -0.146,   -0.021,    0.214,    0.079,
        0.367,   -0.197,   -0.021,    2.009,   -0.513,    4.241,   -0.365,
       -1.157,   -0.803,   -3.689,   -0.385,   -3.477,    2.211,   -1.803,
       -1.811,    0.902,   -1.098,   -2.419
    },
    {  -0.266,   -0.348,   -0.034,    0.037,   -0.105,   -0.124,    0.036,
       -0.018,    0.093,   -0.068,   -0.001,   -0.145,    0.119,   -0.182,
       -0.056,    0.087,   -0.075,   -0.056,    0.226,   -0.136,   -0.040,
       -0.123,   -0.155,   -0.138,   -0.052,    0.266,    0.220,    0.043,
        0.103,   -0.088,   -0.496,    2.227,   -0.819,    4.501,   -0.475,
       -1.435,   -0.615,   -3.745,   -0.117,   -3.342,    2.059,   -1.675,
       -1.827,    1.287,   -1.307,   -2.226
    },
    {  -0.090,   -0.198,    0.068,    0.159,   -0.207,   -0.105,    0.065,
       -0.046,    0.126,   -0.034,    0.017,    0.206,    0.250,   -0.200,
       -0.129,    0.148,   -0.165,   -0.004,    0.238,   -0.010,   -0.067,
       -0.093,   -0.154,   -0.042,    0.039,    0.206,    0.258,   -0.093,
        0.106,   -0.173,   -0.473,    2.197,   -0.648,    4.423,   -0.642,
       -1.264,   -0.604,   -3.398,   -0.434,   -3.316,    2.208,   -1.759,
       -1.793,    1.208,   -1.190,   -2.107
    },
    {  -0.083,   -0.257,    0.094,    0.095,   -0.042,    0.047,    0.148,
       -0.115,   -0.001,    0.100,   -0.019,    0.036,    0.270,   -0.132,
       -0.174,    0.037,   -0.019,   -0.165,    0.014,    0.102,   -0.014,
        0.035,   -0.070,    0.041,    0.135,   -0.092,    0.323,    0.085,
        0.062,   -0.062,   -0.172,    2.507,   -0.346,    4.032,   -1.087,
       -1.497,   -1.029,   -3.636,   -0.980,   -3.591,    1.814,   -1.236,
       -1.836,    0.599,   -1.084,   -1.547
    },
    {  -0.340,   -0.128,   -0.208,   -0.039,    0.196,    0.197,    0.138,
       -0.051,    0.026,    0.340,   -0.240,   -0.129,    0.176,   -0.033,
       -0.017,    0.005,    0.301,   -0.180,   -0.174,    0.170,   -0.115,
        0.142,   -0.028,    0.251,    0.109,   -0.235,    0.087,    0.100,
       -0.070,   -0.129,   -0.403,    2.154,   -0.578,    4.400,   -0.857,
       -1.953,   -1.516,   -3.608,   -0.983,   -3.710,    1.392,   -1.335,
       -1.536,    0.710,   -1.321,   -1.771
    },
    {  -0.292,   -0.103,   -0.195,   -0.021,    0.268,    0.081,    0.058,
       -0.081,    0.036,    0.196,   -0.130,   -0.007,    0.295,    0.135,
        0.031,   -0.075,    0.221,   -0.265,   -0.015,    0.140,   -0.117,
        0.042,    0.175,    0.032,   -0.016,   -0.294,    0.091,   -0.009,
        0.050,   -0.120,   -0.250,    1.384,   -0.753,    4.156,   -1.025,
       -2.033,   -1.296,   -3.720,   -0.888,   -3.869,    0.870,   -2.127,
       -1.778,    0.775,   -1.271,   -1.921
    },
    {  -0.211,   -0.107,   -0.040,    0.025,    0.210,    0.091,    0.239,
       -0.007,   -0.084,    0.092,   -0.165,    0.089,    0.373,   -0.089,
        0.026,   -0.162,    0.128,   -0.040,    0.056,    0.020,   -0.014,
        0.105,    0.155,   -0.141,    0.033,   -0.098,    0.119,    0.018,
       -0.124,   -0.067,   -0.398,    1.720,   -0.925,    4.205,   -0.686,
       -1.714,   -1.716,   -3.489,   -0.702,   -4.221,    0.518,   -1.712,
       -1.758,    0.581,   -1.638,   -1.743
    },
    {   0.044,   -0.067,    0.006,    0.334,    0.214,   -0.207,    0.111,
       -0.003,   -0.110,    0.039,   -0.047,   -0.047,    0.349,   -0.212,
        0.007,    0.063,    0.150,   -0.100,   -0.052,    0.254,   -0.027,
       -0.087,    0.181,   -0.044,   -0.030,    0.272,    0.129,    0.006,
       -0.100,   -0.102,   -0.366,    1.844,   -1.045,    4.222,   -0.875,
       -1.091,   -1.931,   -3.699,   -0.504,   -3.977,    0.324,   -1.893,
       -2.065,    0.734,   -1.922,   -1.567
    },
    {  -0.092,    0.076,    0.078,    0.133,    0.036,   -0.036,    0.012,
       -0.010,   -0.109,   -0.022,    0.017,    0.059,    0.255,   -0.136,
        0.020,   -0.079,   -0.028,   -0.021,   -0.067,    0.174,    0.018,
        0.026,    0.049,    0.039,    0.038,    0.147,    0.009,    0.030,
        0.061,   -0.082,   -0.465,    1.734,   -0.302,    3.878,   -0.759,
       -1.153,   -1.710,   -3.637,   -0.766,   -3.325,    0.712,   -1.884,
       -2.402,    0.335,   -2.251,   -1.626
    },
    {   0.019,    0.045,    0.011,   -0.109,   -0.090,    0.051,    0.089,
        0.024,    0.012,   -0.060,    0.067,    0.028,   -0.075,    0.029,
        0.049,    0.066,    0.031,   -0.067,    0.047,   -0.031,    0.051,
        0.009,    0.083,   -0.038,    0.088,    0.008,    0.023,   -0.045,
       -0.073,    0.019,   -1.037,    1.660,   -0.331,    4.119,   -1.317,
       -1.462,   -1.631,   -3.544,   -0.504,   -3.248,    0.882,   -1.803,
       -1.939,    0.409,   -1.927,   -1.763
    },
    {   0.087,   -0.040,    0.027,   -0.074,   -0.060,    0.090,   -0.035,
        0.014,    0.001,   -0.016,   -0.103,   -0.042,    0.021,    0.024,
        0.041,    0.027,    0.153,   -0.065,   -0.097,   -0.080,    0.102,
       -0.030,   -0.040,    0.003,   -0.166,   -0.068,    0.112,   -0.086,
        0.012,    0.045,   -0.638,    1.729,   -0.586,    3.870,   -1.490,
       -1.560,   -1.921,   -3.094,   -0.803,   -3.585,    0.573,   -1.435,
       -2.578,    0.770,   -1.890,   -1.557
    },
    {   0.082,   -0.032,    0.084,    0.045,   -0.017,    0.070,    0.122,
       -0.081,    0.001,   -0.044,   -0.048,   -0.028,    0.068,    0.185,
        0.141,   -0.041,    0.108,   -0.138,   -0.106,    0.006,   -0.015,
       -0.032,   -0.052,   -0.003,    0.015,   -0.021,    0.099,    0.071,
        0.017,   -0.134,   -0.777,    1.919,   -0.138,    3.692,   -0.989,
       -1.374,   -1.566,   -3.227,   -0.581,   -3.475,    1.066,   -1.835,
       -2.458,    0.759,   -1.734,   -1.846
    },
    {  -0.068,    0.157,   -0.035,   -0.069,   -0.062,   -0.001,   -0.049,
       -0.030,    0.014,    0.023,    0.064,    0.053,    0.123,    0.178,
       -0.050,    0.082,   -0.007,   -0.115,    0.082,    0.008,    0.097,
       -0.105,    0.082,   -0.032,    0.079,    0.194,    0.009,   -0.159,
        0.026,   -0.007,   -0.636,    1.608,   -0.065,    3.431,   -0.993,
       -1.566,   -1.431,   -3.309,   -1.069,   -2.993,    1.396,   -1.623,
       -2.640,    0.733,   -1.661,   -1.688
    },
    {  -0.100,    0.021,   -0.094,   -0.172,   -0.069,    0.197,   -0.038,
       -0.232,    0.014,    0.140,    0.062,    0.190,   -0.045,    0.107,
       -0.000,   -0.060,   -0.009,   -0.086,    0.042,    0.069,    0.165,
       -0.061,    0.061,    0.267,    0.098,    0.009,    0.023,   -0.113,
        0.031,   -0.127,   -0.831,    1.582,   -0.429,    4.009,   -0.749,
       -1.487,   -1.304,   -3.348,   -0.893,   -2.633,    1.627,   -1.936,
       -2.635,    0.196,   -1.836,   -1.826
    },
    {   0.022,    0.078,   -0.242,    0.049,   -0.049,    0.088,   -0.058,
        0.051,   -0.156,    0.150,    0.129,   -0.056,    0.095,   -0.024,
       -0.011,   -0.106,    0.020,    0.053,    0.319,   -0.036,   -0.094,
       -0.034,    0.099,    0.067,   -0.186,    0.026,    0.175,   -0.038,
        0.094,   -0.060,   -1.024,    1.570,   -1.022,    3.997,   -0.663,
       -0.889,   -1.247,   -3.201,   -1.225,   -2.435,    1.253,   -1.684,
       -1.937,    0.639,   -2.174,   -2.080
    },
    {  -0.025,    0.093,    0.149,   -0.018,    0.069,    0.018,    0.073,
        0.074,   -0.041,    0.114,    0.090,   -0.071,    0.057,   -0.084,
        0.067,    0.029,    0.043,    0.063,    0.146,    0.032,    0.017,
       -0.111,    0.103,   -0.023,    0.019,    0.021,    0.054,    0.027,
        0.034,   -0.047,   -0.724,    1.558,   -1.270,    4.437,   -0.867,
       -1.151,   -1.316,   -3.140,   -1.363,   -2.884,    0.674,   -1.737,
       -1.946,    0.599,   -2.406,   -2.919
    },
    {   0.062,   -0.085,   -0.105,   -0.052,   -0.152,    0.134,    0.021,
        0.016,   -0.021,   -0.044,    0.158,    0.096,   -0.208,    0.032,
        0.017,   -0.061,   -0.096,    0.007,    0.003,   -0.217,    0.132,
       -0.098,    0.075,   -0.001,    0.014,    0.070,    0.129,   -0.048,
       -0.061,   -0.024,   -1.383,    1.752,   -0.798,    4.288,   -1.000,
       -0.811,   -1.339,   -3.118,   -0.887,   -3.375,    0.712,   -1.900,
       -1.526,    0.617,   -2.221,   -2.645
    },
    {   0.234,   -0.091,   -0.153,   -0.114,   -0.239,    0.116,   -0.246,
        0.103,   -0.017,   -0.078,    0.116,   -0.040,    0.103,   -0.020,
       -0.066,   -0.073,   -0.043,   -0.040,    0.133,    0.040,   -0.152,
       -0.040,   -0.077,    0.090,    0.157,   -0.029,   -0.072,    0.029,
        0.036,    0.050,   -1.521,    2.179,   -0.530,    4.348,   -0.194,
       -1.072,   -1.238,   -3.141,   -0.528,   -3.586,    1.028,   -1.762,
       -0.840,    0.327,   -2.373,   -2.736
    },
    {  -0.002,    0.026,   -0.031,   -0.099,    0.079,    0.100,   -0.156,
        0.149,    0.016,    0.031,    0.035,    0.118,    0.080,   -0.140,
       -0.044,    0.048,    0.028,   -0.084,   -0.181,    0.091,   -0.103,
       -0.052,   -0.141,    0.170,   -0.179,   -0.148,    0.038,    0.025,
        0.140,    0.151,   -1.037,    2.120,   -0.492,    3.497,   -0.080,
       -1.368,   -1.305,   -3.377,   -0.403,   -3.545,    1.049,   -2.181,
       -0.886,    0.642,   -2.166,   -2.749
    },
    {  -0.155,    0.191,   -0.050,   -0.195,   -0.080,    0.097,    0.052,
        0.311,    0.128,   -0.184,   -0.081,    0.162,   -0.160,   -0.013,
       -0.074,   -0.055,   -0.000,    0.043,   -0.090,    0.163,   -0.029,
       -0.094,    0.205,    0.229,    0.139,   -0.057,    0.173,   -0.005,
       -0.049,    0.272,   -1.189,    2.342,   -0.749,    3.151,    0.219,
       -1.410,   -1.436,   -3.528,   -0.817,   -3.219,    1.489,   -2.047,
       -0.525,    0.199,   -2.265,   -2.703
    },
    {   0.019,    0.137,    0.036,   -0.119,    0.015,    0.027,   -0.043,
        0.299,    0.021,   -0.070,   -0.020,    0.052,    0.035,    0.057,
       -0.039,    0.072,   -0.018,   -0.011,   -0.066,    0.187,   -0.019,
       -0.105,    0.051,    0.222,    0.018,   -0.024,    0.104,   -0.174,
        0.007,    0.314,   -1.204,    1.964,   -0.865,    3.108,    0.990,
       -1.522,   -1.567,   -3.520,   -0.963,   -3.952,    1.372,   -2.244,
       -0.538,   -0.140,   -2.455,   -2.839
    },
    {   0.019,    0.054,   -0.016,   -0.194,   -0.043,    0.053,   -0.001,
        0.034,    0.040,   -0.155,   -0.073,    0.070,    0.073,    0.052,
       -0.046,   -0.319,    0.024,    0.067,   -0.122,    0.009,   -0.023,
       -0.186,    0.037,    0.300,    0.093,    0.115,    0.065,   -0.260,
        0.048,    0.370,   -0.832,    2.124,   -1.070,    3.199,    0.873,
       -1.603,   -1.446,   -3.775,   -0.654,   -4.317,    1.081,   -2.567,
       -0.865,    0.317,   -2.563,   -2.399
    },
    {   0.033,    0.122,    0.008,   -0.122,   -0.081,   -0.023,   -0.098,
       -0.150,   -0.110,   -0.018,   -0.255,    0.081,    0.105,   -0.150,
       -0.143,    0.032,    0.057,    0.137,   -0.083,    0.042,    0.015,
       -0.107,   -0.072,    0.120,    0.116,   -0.044,    0.079,   -0.157,
        0.170,    0.142,   -0.739,    2.609,   -1.507,    3.403,    0.426,
       -1.497,   -1.199,   -3.794,   -0.456,   -4.165,    1.305,   -2.319,
       -0.908,    0.527,   -1.998,   -1.793
    },
    {  -0.305,    0.202,    0.175,    0.112,   -0.157,   -0.175,    0.351,
        0.039,   -0.173,   -0.042,    0.315,   -0.094,   -0.231,    0.036,
        0.267,   -0.071,    0.230,    0.008,   -0.074,    0.143,    0.016,
       -0.032,   -0.044,   -0.103,    0.116,    0.079,   -0.201,    0.013,
        0.087,   -0.183,   -0.079,    2.740,   -1.264,    3.791,    0.443,
       -1.593,   -1.019,   -3.821,   -0.672,   -4.366,    1.181,   -1.704,
       -1.177,    0.333,   -2.544,   -2.121
    },
    {  -0.267,    0.072,    0.089,    0.043,   -0.061,    0.042,    0.101,
        0.092,   -0.151,    0.017,    0.396,    0.011,   -0.472,   -0.007,
        0.623,    0.019,    0.517,   -0.113,   -0.153,   -0.039,    0.151,
        0.074,    0.186,   -0.065,    0.040,   -0.002,   -0.431,   -0.022,
        0.068,    0.126,    0.035,    2.633,   -0.997,    3.816,    0.557,
       -1.406,   -0.874,   -3.698,   -0.364,   -4.416,    0.959,   -1.649,
       -1.275,    0.981,   -1.981,   -1.642
    },
    {  -0.477,    0.090,    0.126,   -0.069,    0.085,   -0.097,    0.204,
       -0.047,   -0.075,    0.035,    0.183,   -0.022,   -0.366,   -0.004,
        0.582,    0.113,    0.369,   -0.144,   -0.287,    0.081,    0.033,
       -0.069,    0.084,   -0.066,    0.107,   -0.003,   -0.366,    0.027,
        0.238,    0.040,   -0.184,    2.304,   -0.672,    3.274,    0.464,
       -1.343,   -1.056,   -3.554,   -0.387,   -4.517,    0.869,   -1.565,
       -0.809,    0.522,   -2.218,   -2.083
    },
    {  -0.366,    0.102,   -0.253,   -0.030,   -0.011,    0.089,    0.428,
       -0.075,    0.033,    0.177,    0.263,    0.081,   -0.188,    0.021,
        0.656,    0.394,    0.278,   -0.124,   -0.305,   -0.094,    0.310,
       -0.070,    0.285,   -0.124,    0.303,    0.218,   -0.368,    0.020,
        0.292,   -0.029,    0.248,    1.832,   -0.342,    3.649,    0.817,
       -1.848,   -0.985,   -3.273,   -0.446,   -3.999,    0.674,   -1.263,
       -0.779,    0.258,   -2.062,   -1.874
    },
    {  -0.123,   -0.009,   -0.054,   -0.149,   -0.043,   -0.019,    0.171,
       -0.033,    0.103,   -0.173,    0.237,    0.072,   -0.352,    0.042,
        0.576,    0.154,    0.410,   -0.174,   -0.412,   -0.113,    0.215,
       -0.042,   -0.162,   -0.075,    0.317,    0.085,   -0.373,    0.130,
        0.383,    0.002,    0.397,    1.799,   -0.497,    3.660,    0.929,
       -1.978,   -1.375,   -3.359,   -0.393,   -4.538,    0.979,   -2.008,
       -0.892,    0.221,   -2.156,   -1.751
    },
    {   0.005,   -0.033,   -0.079,   -0.183,   -0.178,   -0.045,    0.271,
        0.042,   -0.004,   -0.120,    0.180,    0.203,   -0.186,   -0.064,
        0.569,    0.143,    0.362,   -0.112,   -0.380,   -0.143,    0.039,
       -0.069,   -0.231,   -0.026,    0.513,   -0.055,   -0.296,   -0.012,
        0.384,    0.089,   -0.011,    2.328,   -0.548,    4.298,    0.884,
       -2.057,   -1.132,   -3.944,   -0.097,   -4.592,    1.031,   -1.763,
       -1.361,    0.267,   -2.091,   -1.588
    },
    {  -0.100,    0.102,    0.002,   -0.082,   -0.210,    0.048,    0.128,
        0.057,   -0.269,    0.001,    0.338,    0.018,   -0.246,   -0.142,
        0.550,    0.065,    0.391,   -0.011,   -0.111,    0.010,    0.204,
        0.118,   -0.290,    0.030,    0.631,   -0.059,   -0.372,   -0.061,
        0.412,    0.219,   -0.293,    1.774,   -0.577,    3.973,    0.528,
       -2.107,   -0.680,   -3.561,    0.164,   -4.619,    1.040,   -1.674,
       -1.337,    0.023,   -2.390,   -1.861
    },
    {  -0.152,    0.196,    0.161,    0.022,   -0.128,    0.088,    0.148,
        0.195,   -0.308,   -0.089,    0.645,   -0.012,   -0.359,   -0.011,
        0.492,   -0.098,    0.441,   -0.028,   -0.087,    0.166,    0.211,
        0.122,    0.002,    0.041,    0.442,    0.113,   -0.294,    0.027,
        0.466,    0.327,    0.422,    2.143,   -1.059,    4.429,    0.522,
       -1.861,   -0.685,   -3.322,    0.385,   -4.553,    0.511,   -1.492,
       -1.536,   -0.124,   -2.054,   -1.816
    },
    {  -0.039,   -0.006,   -0.002,   -0.029,    0.053,    0.134,   -0.004,
        0.097,   -0.007,   -0.094,    0.601,   -0.017,   -0.606,    0.070,
       -0.070,   -0.108,    0.806,   -0.120,   -0.081,    0.098,    0.077,
        0.072,   -0.268,   -0.114,    0.488,    0.189,   -0.344,    0.047,
        0.468,    0.153,    0.283,    2.037,   -1.208,    4.715,    0.385,
       -1.585,   -1.189,   -3.741,    0.857,   -4.289,    0.807,   -1.850,
       -1.364,   -0.437,   -1.894,   -2.474
    },
    {  -0.138,    0.097,    0.282,   -0.152,   -0.012,    0.082,   -0.218,
       -0.014,   -0.186,   -0.030,    0.645,   -0.219,   -0.792,    0.006,
       -0.053,   -0.133,    0.674,    0.005,   -0.214,    0.224,    0.285,
        0.002,   -0.487,   -0.019,    0.232,    0.167,   -0.144,    0.110,
        0.780,    0.093,    0.575,    1.436,   -0.755,    4.613,   -0.111,
       -2.541,   -0.979,   -3.365,    0.597,   -3.793,    0.746,   -1.713,
       -1.068,   -0.611,   -1.757,   -2.415
    },
    {   0.014,   -0.013,   -0.105,   -0.000,    0.003,    0.194,   -0.021,
        0.124,   -0.179,    0.001,    0.473,   -0.048,   -0.437,   -0.016,
       -0.160,    0.070,    0.494,   -0.012,   -0.316,    0.076,    0.251,
        0.082,   -0.194,   -0.040,    0.384,    0.042,   -0.362,    0.055,
        0.655,    0.287,    0.637,    1.663,   -0.673,    4.643,   -0.172,
       -2.666,   -1.201,   -3.328,    0.740,   -4.381,    0.974,   -1.709,
       -0.892,   -0.666,   -1.419,   -2.213
    },
    {   0.036,    0.065,   -0.105,    0.048,    0.161,    0.032,    0.138,
        0.122,    0.022,   -0.010,    0.658,   -0.090,   -0.422,    0.001,
       -0.075,    0.088,    0.485,   -0.097,   -0.196,   -0.049,    0.193,
       -0.081,   -0.057,    0.067,    0.504,    0.063,   -0.376,   -0.093,
        0.553,    0.157,    0.581,    1.767,   -0.374,    4.562,   -0.304,
       -2.620,   -1.474,   -2.877,    0.526,   -4.120,    0.967,   -1.573,
       -1.096,   -0.137,   -1.531,   -2.715
    },
    {   0.051,   -0.164,    0.118,   -0.053,    0.016,    0.023,    0.400,
       -0.023,    0.021,   -0.026,    0.770,   -0.262,   -0.272,   -0.018,
       -0.009,   -0.044,    0.340,   -0.121,   -0.093,   -0.031,    0.214,
       -0.062,   -0.161,   -0.228,    0.311,    0.028,   -0.247,   -0.056,
        0.455,    0.141,    0.409,    1.902,   -0.219,    4.392,   -0.024,
       -2.412,   -0.913,   -2.988,    0.185,   -4.318,    0.940,   -1.014,
       -0.523,   -0.094,   -1.893,   -2.563
    },
    {   0.091,    0.073,    0.131,    0.002,   -0.057,   -0.057,    0.218,
       -0.097,    0.112,    0.050,    0.616,   -0.228,   -0.314,   -0.036,
        0.080,    0.114,    0.299,   -0.087,   -0.104,   -0.035,    0.185,
       -0.116,   -0.022,   -0.237,    0.558,    0.024,   -0.299,   -0.019,
        0.475,    0.037,    1.052,    1.307,   -0.835,    4.492,   -0.136,
       -2.191,   -0.513,   -2.782,    0.472,   -4.426,    1.265,   -1.284,
       -0.673,   -0.391,   -1.479,   -2.987
    },
    {  -0.089,    0.131,    0.096,    0.063,   -0.116,   -0.127,    0.348,
       -0.055,    0.201,    0.017,    0.882,   -0.142,   -0.269,    0.025,
        0.021,    0.119,    0.209,   -0.114,   -0.099,    0.137,    0.071,
       -0.031,    0.123,   -0.227,    0.708,    0.022,   -0.382,   -0.101,
        0.536,    0.062,    1.080,    1.459,   -0.817,    4.064,   -0.235,
       -1.842,   -0.161,   -2.371,    0.293,   -4.835,    1.195,   -1.523,
       -0.508,   -0.044,   -1.610,   -2.648
    },
    {  -0.320,   -0.197,   -0.011,   -0.138,   -0.307,   -0.063,    0.196,
        0.007,   -0.115,    0.075,    0.761,    0.109,   -0.416,   -0.145,
        0.124,   -0.115,    0.114,   -0.127,   -0.130,    0.048,    0.333,
        0.024,   -0.029,   -0.141,    0.548,    0.045,   -0.136,   -0.063,
        0.409,    0.045,    1.242,    1.857,   -1.188,    4.097,   -0.279,
       -2.037,   -0.513,   -2.196,   -0.574,   -4.227,    1.739,   -1.677,
       -1.115,    0.372,   -2.079,   -2.399
    },
    {  -0.003,    0.011,    0.041,   -0.029,   -0.340,   -0.041,    0.205,
       -0.001,    0.055,   -0.057,    0.272,   -0.009,   -0.159,   -0.060,
       -0.289,   -0.008,    0.234,   -0.067,   -0.100,    0.003,    0.059,
        0.072,   -0.034,    0.059,    0.564,    0.043,   -0.194,    0.033,
        0.138,   -0.083,    0.919,    1.685,   -1.053,    4.056,   -0.247,
       -2.477,   -1.156,   -2.171,   -0.384,   -4.367,    1.062,   -1.658,
       -0.542,    0.463,   -1.546,   -2.566
    },
    {  -0.039,    0.058,    0.401,   -0.029,   -0.008,   -0.000,    0.370,
       -0.046,    0.178,    0.011,    0.458,   -0.054,   -0.143,    0.019,
       -0.288,   -0.022,    0.118,   -0.073,    0.048,    0.014,    0.209,
        0.009,    0.035,    0.006,    0.228,   -0.011,    0.056,    0.008,
        0.554,   -0.059,    1.422,    1.452,   -1.042,    3.935,   -1.187,
       -2.325,   -0.116,   -2.343,   -0.501,   -4.080,    1.091,   -1.299,
       -1.023,   -0.174,   -1.486,   -2.550
    },
    {   0.046,   -0.029,    0.274,   -0.012,   -0.054,    0.070,    0.361,
        0.061,    0.275,   -0.059,    0.434,    0.022,   -0.045,   -0.029,
       -0.273,   -0.004,    0.284,   -0.002,    0.086,   -0.005,    0.177,
        0.005,    0.019,    0.002,    0.193,   -0.026,   -0.027,   -0.047,
        0.356,   -0.025,    1.719,    0.657,   -1.118,    4.311,   -1.063,
       -1.800,    0.230,   -1.862,   -0.622,   -4.253,    1.041,   -1.016,
       -1.274,   -0.145,   -1.453,   -2.810
    },
    {  -0.068,    0.023,    0.303,    0.002,   -0.193,   -0.013,    0.422,
       -0.005,    0.015,    0.015,    0.204,   -0.052,   -0.199,    0.020,
       -0.141,    0.049,    0.376,   -0.121,   -0.032,    0.070,    0.235,
        0.042,   -0.111,   -0.019,    0.474,   -0.043,   -0.124,   -0.039,
        0.178,   -0.041,    1.593,    0.684,   -1.231,    4.636,   -0.932,
       -1.878,   -0.226,   -1.898,   -1.129,   -4.230,    1.026,   -0.854,
       -0.874,   -0.151,   -1.268,   -2.478
    },
    {   0.007,   -0.001,    0.035,   -0.083,   -0.237,    0.076,    0.167,
        0.008,   -0.015,   -0.002,    0.086,   -0.012,   -0.049,    0.040,
       -0.274,    0.020,    0.308,   -0.064,   -0.102,    0.018,    0.020,
        0.036,    0.100,    0.061,    0.263,    0.006,   -0.006,   -0.019,
        0.353,   -0.016,    1.557,    1.009,   -0.915,    4.323,   -0.587,
       -2.021,   -0.133,   -2.426,   -1.278,   -4.395,    0.691,   -0.796,
       -0.892,   -0.543,   -1.313,   -2.495
    },
    {  -0.011,    0.025,    0.264,   -0.132,   -0.128,   -0.042,    0.226,
        0.018,    0.008,   -0.077,    0.133,   -0.080,    0.185,    0.082,
        0.082,    0.154,    0.179,   -0.046,   -0.260,   -0.008,    0.077,
       -0.008,    0.155,   -0.013,    0.052,    0.038,   -0.124,   -0.011,
        0.288,   -0.213,    1.552,    1.005,   -0.633,    4.032,   -0.799,
       -1.925,    0.430,   -2.059,   -1.139,   -4.424,    0.529,   -0.854,
       -0.960,   -0.484,   -0.912,   -2.862
    },
    {   0.098,    0.020,    0.240,   -0.030,    0.065,   -0.048,    0.220,
        0.157,    0.139,    0.118,   -0.088,    0.290,    0.410,   -0.197,
        0.160,   -0.207,    0.233,    0.009,   -0.100,    0.086,    0.000,
       -0.000,    0.135,    0.037,   -0.216,    0.100,   -0.016,   -0.154,
        0.252,   -0.103,    1.635,    1.132,   -0.676,    4.398,   -1.247,
       -1.996,    0.524,   -2.196,   -0.742,   -4.624,    0.699,   -1.488,
       -1.116,   -0.665,   -1.170,   -3.152
    },
    {  -0.009,    0.068,    0.282,    0.106,   -0.010,   -0.035,    0.202,
        0.354,    0.248,    0.192,   -0.148,    0.047,    0.058,   -0.076,
        0.092,   -0.159,    0.105,    0.043,    0.029,   -0.034,    0.260,
       -0.078,    0.236,    0.040,    0.180,   -0.111,    0.248,   -0.057,
        0.171,   -0.237,    1.496,    1.382,   -0.798,    4.019,   -0.791,
       -1.328,    0.722,   -2.115,   -0.816,   -4.268,    0.488,   -1.278,
       -1.039,   -0.830,   -1.379,   -3.325
    },
    {  -0.352,    0.189,    0.288,   -0.045,   -0.039,    0.073,   -0.043,
        0.292,    0.088,    0.127,   -0.246,    0.130,   -0.117,    0.156,
        0.097,    0.169,    0.326,   -0.008,   -0.118,    0.211,    0.183,
       -0.073,    0.172,    0.017,    0.191,   -0.100,    0.274,   -0.010,
        0.100,   -0.260,    1.658,    1.026,   -1.157,    4.203,   -0.831,
       -1.677,    0.790,   -2.572,   -1.237,   -3.894,    0.161,   -1.511,
       -0.891,   -0.190,   -1.191,   -2.889
    },
    {  -0.343,    0.053,    0.044,   -0.105,   -0.093,   -0.054,   -0.240,
        0.501,   -0.096,   -0.001,   -0.071,    0.124,    0.041,    0.086,
        0.090,    0.135,    0.196,   -0.085,   -0.172,    0.147,    0.221,
       -0.331,    0.065,    0.108,    0.163,   -0.073,    0.263,   -0.084,
        0.270,   -0.176,    1.670,    1.254,   -0.828,    4.437,   -0.853,
       -1.592,    0.261,   -2.750,   -1.498,   -3.335,    0.209,   -1.834,
       -1.501,   -0.605,   -1.885,   -2.657
    },
    {  -0.231,   -0.101,    0.069,    0.028,   -0.412,    0.086,   -0.316,
        0.438,   -0.028,   -0.064,    0.025,    0.180,    0.220,    0.165,
       -0.317,    0.046,    0.051,   -0.190,   -0.096,   -0.142,    0.013,
       -0.027,    0.190,    0.042,    0.061,   -0.112,    0.216,   -0.178,
        0.131,    0.064,    1.569,    1.142,   -0.515,    4.411,   -0.628,
       -1.546,    0.287,   -2.799,   -1.370,   -3.388,   -0.053,   -2.131,
       -1.272,   -0.908,   -1.735,   -2.667
    },
    {  -0.165,   -0.012,    0.053,    0.023,   -0.185,    0.131,   -0.061,
        0.178,    0.268,    0.023,    0.105,   -0.121,    0.071,    0.223,
        0.060,    0.077,    0.124,   -0.219,   -0.014,   -0.198,   -0.125,
        0.137,    0.064,   -0.140,   -0.190,    0.091,    0.140,   -0.112,
        0.270,    0.010,    1.296,    1.347,   -0.814,    4.609,   -0.304,
       -1.567,    0.310,   -3.047,   -1.511,   -3.107,   -0.175,   -1.617,
       -1.285,   -0.482,   -2.143,   -2.434
    },
    {  -0.058,    0.116,    0.320,    0.025,   -0.200,   -0.070,    0.300,
        0.147,    0.170,    0.017,   -0.075,   -0.153,   -0.053,   -0.074,
        0.191,    0.120,    0.232,   -0.203,    0.172,    0.002,   -0.016,
        0.043,   -0.189,   -0.050,   -0.032,   -0.031,    0.291,   -0.120,
        0.163,    0.059,    1.267,    1.135,   -0.602,    5.217,    0.011,
       -0.602,    0.323,   -2.820,   -1.005,   -3.091,   -0.042,   -1.513,
       -1.110,   -0.117,   -2.056,   -2.116
    },
    {   0.136,   -0.035,    0.208,    0.042,   -0.332,    0.178,    0.139,
       -0.022,    0.259,   -0.050,    0.136,    0.269,    0.165,    0.073,
       -0.066,   -0.007,    0.148,    0.115,    0.148,    0.119,   -0.146,
       -0.140,    0.178,    0.062,   -0.184,    0.048,    0.246,    0.141,
        0.217,   -0.127,    1.294,    1.219,   -1.001,    4.575,    0.668,
       -0.317,    0.455,   -2.608,   -0.980,   -2.787,    0.494,   -1.383,
       -0.819,   -0.589,   -1.858,   -2.280
    },
    {   0.035,    0.073,    0.150,   -0.115,   -0.267,    0.132,    0.223,
        0.009,    0.048,    0.056,    0.079,    0.003,    0.497,   -0.081,
        0.082,    0.023,    0.014,    0.131,   -0.131,   -0.128,    0.038,
       -0.002,    0.002,    0.071,    0.061,    0.044,   -0.222,    0.049,
        0.127,   -0.081,    1.340,    1.354,   -1.033,    4.885,    0.614,
       -0.412,    0.555,   -3.389,   -1.003,   -2.507,    0.811,   -1.880,
       -1.691,   -0.846,   -2.150,   -1.987
    },
    {  -0.155,    0.124,    0.291,   -0.285,   -0.221,    0.095,    0.114,
       -0.283,   -0.059,    0.090,    0.009,   -0.278,    0.283,   -0.021,
        0.103,    0.036,   -0.051,    0.081,    0.046,    0.019,    0.075,
       -0.117,    0.067,    0.105,   -0.057,    0.071,    0.079,    0.159,
       -0.026,   -0.237,    0.961,    1.695,   -1.472,    4.562,    0.767,
       -0.605,    0.926,   -2.937,   -0.632,   -2.432,    1.040,   -1.648,
       -2.121,   -1.168,   -1.832,   -2.226
    },
    {  -0.027,    0.084,    0.398,   -0.236,   -0.245,    0.111,    0.159,
       -0.186,    0.001,    0.254,    0.100,   -0.256,    0.296,    0.071,
        0.054,   -0.035,   -0.130,   -0.020,    0.194,   -0.187,    0.070,
       -0.338,    0.032,   -0.056,   -0.040,    0.106,    0.149,   -0.016,
        0.480,   -0.048,    1.505,    1.244,   -0.842,    4.558,    0.913,
       -0.710,    1.003,   -3.012,   -0.059,   -2.448,    0.980,   -1.467,
       -2.207,   -0.569,   -1.878,   -2.368
    },
    {  -0.187,    0.197,    0.307,   -0.153,   -0.222,    0.164,    0.149,
       -0.017,   -0.164,    0.020,    0.053,   -0.091,    0.114,    0.178,
        0.052,   -0.057,    0.051,   -0.090,    0.335,    0.016,    0.064,
       -0.012,    0.100,    0.117,    0.199,   -0.009,    0.256,    0.054,
        0.240,   -0.107,    1.398,    1.258,   -0.564,    4.378,    0.518,
       -0.833,    0.343,   -3.210,   -0.090,   -2.410,    0.956,   -1.997,
       -2.585,   -1.040,   -2.157,   -2.362
    },
    {  -0.179,    0.053,    0.105,   -0.058,   -0.247,   -0.042,    0.198,
        0.016,    0.115,    0.083,   -0.079,   -0.032,    0.096,   -0.073,
        0.136,   -0.022,    0.046,    0.133,   -0.051,   -0.079,    0.108,
       -0.144,    0.107,   -0.088,    0.186,   -0.103,    0.157,    0.037,
        0.043,   -0.125,    1.234,    1.445,   -0.537,    4.207,    0.952,
       -0.590,    0.181,   -3.112,   -0.010,   -2.698,    1.156,   -1.986,
       -2.035,   -1.592,   -2.071,   -2.061
    },
    {   0.042,   -0.069,   -0.097,   -0.039,   -0.118,   -0.094,   -0.272,
        0.055,    0.032,   -0.112,    0.145,    0.103,    0.110,   -0.075,
       -0.075,   -0.006,    0.200,   -0.045,    0.098,   -0.062,   -0.044,
        0.034,    0.166,   -0.131,    0.151,   -0.138,    0.192,   -0.187,
        0.287,    0.134,    1.327,    1.448,   -0.628,    4.605,    0.816,
       -0.629,    0.321,   -3.007,    0.015,   -2.597,    0.998,   -1.877,
       -2.376,   -1.726,   -2.122,   -2.323
    },
    {   0.039,   -0.020,   -0.160,   -0.123,   -0.372,    0.006,   -0.344,
        0.105,    0.043,   -0.034,   -0.165,   -0.009,   -0.057,   -0.109,
        0.013,    0.112,    0.229,   -0.011,   -0.030,   -0.135,   -0.205,
        0.027,    0.128,   -0.025,    0.189,   -0.132,    0.076,   -0.119,
        0.245,    0.052,    1.490,    1.511,   -0.528,    3.928,    0.642,
       -0.653,    0.436,   -2.883,   -0.048,   -2.765,    1.699,   -2.259,
       -2.297,   -1.492,   -1.954,   -2.864
    },
    {   0.128,   -0.014,    0.235,    0.040,   -0.285,   -0.121,   -0.346,
        0.349,    0.008,   -0.074,   -0.400,   -0.294,    0.015,   -0.114,
        0.278,    0.015,    0.256,   -0.124,    0.428,    0.023,   -0.282,
       -0.024,    0.286,    0.045,    0.161,   -0.001,    0.200,    0.019,
        0.296,    0.017,    0.881,    1.950,   -0.713,    4.154,    0.979,
       -1.416,   -0.309,   -2.452,    0.211,   -2.918,    2.167,   -2.344,
       -2.135,   -1.375,   -1.821,   -2.832
    },
    {  -0.111,   -0.032,    0.255,   -0.052,   -0.193,   -0.235,   -0.102,
        0.407,    0.008,   -0.181,   -0.418,   -0.099,    0.124,   -0.185,
        0.002,    0.035,   -0.109,    0.011,    0.229,    0.194,   -0.075,
       -0.028,    0.448,    0.153,    0.228,   -0.253,    0.182,   -0.047,
        0.119,    0.043,    1.336,    2.206,   -0.870,    4.385,    0.996,
       -1.012,    0.393,   -3.036,    0.346,   -2.102,    2.011,   -1.967,
       -2.018,   -1.514,   -1.838,   -3.111
    },
    {  -0.207,   -0.085,    0.086,    0.201,   -0.302,   -0.201,   -0.228,
       -0.074,   -0.080,   -0.077,   -0.108,   -0.067,    0.155,   -0.212,
        0.035,   -0.044,   -0.149,   -0.084,   -0.085,    0.114,    0.101,
       -0.060,    0.180,   -0.041,    0.105,   -0.297,    0.004,   -0.017,
       -0.080,    0.049,    1.207,    2.528,   -0.477,    4.834,    0.702,
       -0.953,    0.367,   -3.399,    0.323,   -2.490,    1.546,   -1.729,
       -1.655,   -1.826,   -1.774,   -3.093
    },
    {  -0.110,   -0.162,   -0.114,    0.137,   -0.252,    0.107,   -0.081,
       -0.245,   -0.063,   -0.032,   -0.104,    0.302,    0.132,   -0.180,
       -0.074,    0.083,    0.139,    0.056,    0.064,    0.133,    0.107,
       -0.070,    0.113,    0.086,    0.078,    0.013,    0.139,   -0.009,
       -0.093,    0.063,    1.077,    2.988,   -0.506,    4.616,    0.123,
       -1.033,    0.321,   -4.029,    0.013,   -2.183,    1.572,   -2.082,
       -2.185,   -1.500,   -1.830,   -3.046
    },
    {  -0.065,   -0.055,    0.079,    0.003,   -0.190,    0.014,   -0.018,
       -0.083,    0.052,   -0.170,    0.005,    0.004,    0.096,   -0.109,
        0.104,   -0.035,    0.004,    0.090,   -0.120,    0.114,    0.084,
       -0.102,   -0.094,   -0.024,    0.104,   -0.154,   -0.022,    0.067,
        0.180,    0.115,    0.693,    2.726,    0.292,    4.412,    0.186,
       -1.474,    0.076,   -4.067,    0.015,   -1.887,    1.763,   -2.050,
       -1.929,   -1.411,   -2.643,   -3.025
    },
    {  -0.302,    0.279,   -0.025,    0.111,   -0.111,    0.041,   -0.142,
       -0.061,    0.044,    0.119,   -0.009,   -0.334,    0.010,   -0.071,
       -0.093,   -0.184,   -0.300,    0.016,   -0.003,   -0.016,    0.031,
        0.162,    0.209,    0.093,   -0.248,   -0.051,    0.214,   -0.174,
        0.020,    0.130,    0.137,    3.098,   -0.107,    4.425,    0.136,
       -1.094,    0.340,   -4.072,   -0.148,   -1.930,    1.079,   -2.115,
       -2.099,   -1.102,   -2.763,   -3.156
    },
    {  -0.194,    0.293,   -0.113,    0.190,   -0.282,    0.174,   -0.116,
       -0.026,   -0.105,    0.226,   -0.082,   -0.499,   -0.041,   -0.210,
       -0.014,   -0.264,   -0.247,    0.037,    0.047,    0.133,    0.219,
        0.185,    0.245,    0.255,   -0.207,   -0.066,    0.276,    0.164,
       -0.067,    0.151,    0.540,    3.317,   -0.368,    4.235,   -0.238,
       -1.682,    0.173,   -4.102,   -0.007,   -1.802,    1.106,   -1.976,
       -1.629,   -0.996,   -3.200,   -2.734
    },
    {  -0.242,    0.225,    0.155,    0.009,   -0.025,   -0.094,   -0.028,
       -0.041,   -0.386,    0.016,   -0.003,   -0.119,    0.092,   -0.227,
       -0.190,   -0.435,    0.060,   -0.242,    0.285,    0.154,    0.280,
       -0.167,   -0.255,    0.436,   -0.099,    0.087,   -0.008,    0.025,
        0.232,    0.149,   -0.160,    3.516,   -0.404,    4.678,    0.673,
       -1.233,    0.880,   -4.342,    0.174,   -2.278,    0.565,   -1.503,
       -2.113,   -1.123,   -2.525,   -2.909
    },
    {  -0.066,    0.180,    0.195,    0.142,   -0.298,   -0.104,    0.104,
        0.161,   -0.363,   -0.008,    0.210,   -0.236,    0.040,   -0.208,
        0.103,   -0.251,    0.078,   -0.073,    0.345,    0.135,    0.344,
       -0.273,    0.037,    0.374,   -0.203,    0.181,    0.033,   -0.114,
        0.225,    0.078,    0.435,    3.360,   -0.233,    4.960,    0.325,
       -1.429,    0.960,   -4.388,    0.482,   -2.185,    0.387,   -1.664,
       -1.842,   -1.857,   -2.775,   -2.573
    },
    {  -0.346,    0.197,    0.067,   -0.142,   -0.277,   -0.181,   -0.156,
        0.069,   -0.176,    0.089,    0.252,   -0.082,    0.032,   -0.192,
       -0.394,   -0.401,   -0.190,   -0.189,    0.404,    0.201,    0.268,
       -0.036,   -0.124,    0.170,    0.257,    0.064,    0.030,   -0.094,
        0.168,    0.079,    1.056,    2.960,   -0.288,    4.786,    0.265,
       -1.010,    0.590,   -3.962,    0.319,   -2.406,    0.334,   -1.462,
       -1.960,   -1.284,   -2.155,   -2.503
    },
    {  -0.222,    0.030,    0.238,    0.136,   -0.065,   -0.131,    0.081,
       -0.174,   -0.363,    0.099,    0.343,   -0.072,   -0.044,   -0.189,
       -0.455,   -0.431,    0.036,   -0.037,    0.589,    0.124,    0.219,
       -0.113,    0.308,    0.288,    0.175,    0.167,    0.046,   -0.322,
        0.199,   -0.119,    0.588,    2.938,   -0.438,    5.281,    0.458,
       -0.837,    0.370,   -3.841,    0.207,   -2.609,    0.274,   -1.510,
       -1.813,   -1.338,   -2.412,   -2.532
    },
    {  -0.427,    0.168,    0.309,    0.094,   -0.183,    0.010,    0.170,
        0.033,   -0.434,    0.091,    0.393,   -0.104,   -0.079,    0.063,
       -0.101,   -0.048,    0.079,   -0.123,    0.816,   -0.061,    0.243,
        0.022,    0.258,    0.102,    0.085,    0.021,    0.231,   -0.164,
       -0.026,    0.039,    1.137,    2.953,   -0.175,    5.099,    0.290,
       -1.134,    0.583,   -3.874,    0.136,   -2.753,    0.298,   -1.641,
       -2.072,   -0.861,   -2.900,   -2.368
    },
    {  -0.537,    0.140,    0.401,    0.003,   -0.400,   -0.114,   -0.018,
       -0.042,   -0.383,   -0.146,    0.414,   -0.076,   -0.107,   -0.112,
       -0.144,    0.093,    0.189,   -0.075,    0.645,    0.063,   -0.014,
       -0.069,   -0.107,    0.015,    0.276,   -0.068,   -0.033,    0.050,
        0.064,   -0.014,    0.871,    2.491,    0.037,    4.956,    0.115,
       -1.068,    0.851,   -4.254,   -0.560,   -2.800,    0.070,   -1.611,
       -1.932,   -1.262,   -3.472,   -2.305
    },
    {  -0.327,   -0.036,    0.310,    0.012,   -0.187,    0.133,   -0.026,
       -0.003,   -0.253,    0.015,    0.166,   -0.011,    0.174,   -0.006,
       -0.115,   -0.015,   -0.045,   -0.074,    0.462,   -0.052,   -0.213,
        0.023,   -0.171,    0.063,    0.171,   -0.007,    0.001,    0.059,
        0.105,   -0.050,    0.119,    2.486,   -0.483,    4.790,    0.121,
       -0.548,    0.676,   -4.406,   -1.183,   -2.709,    0.427,   -1.614,
       -1.781,   -1.256,   -3.267,   -1.871
    },
    {  -0.096,   -0.050,    0.195,   -0.001,   -0.250,    0.209,   -0.156,
       -0.076,   -0.115,   -0.004,   -0.026,   -0.032,    0.275,    0.067,
        0.035,   -0.056,   -0.167,   -0.028,    0.529,   -0.018,   -0.003,
        0.057,   -0.194,    0.082,    0.250,   -0.037,   -0.100,   -0.018,
       -0.034,   -0.032,    0.246,    2.368,   -0.160,    4.424,    0.505,
       -0.007,    0.749,   -4.718,   -1.382,   -2.569,    0.169,   -1.174,
       -1.571,   -1.152,   -3.144,   -2.216
    },
    {  -0.403,   -0.024,    0.553,   -0.019,   -0.296,    0.068,    0.147,
       -0.013,   -0.186,    0.006,    0.144,   -0.090,    0.401,   -0.028,
       -0.142,   -0.024,    0.112,   -0.138,    0.523,   -0.029,   -0.341,
       -0.042,   -0.288,    0.043,   -0.095,    0.001,   -0.093,    0.011,
       -0.160,    0.010,    0.275,    2.078,    0.097,    4.428,    0.879,
        0.248,    0.712,   -4.580,   -1.626,   -2.316,    0.052,   -1.183,
       -1.838,   -1.102,   -4.129,   -2.359
    },
    {  -0.347,    0.102,    0.327,    0.019,   -0.281,   -0.087,    0.200,
        0.134,   -0.057,   -0.047,   -0.031,   -0.100,    0.479,   -0.210,
        0.164,    0.125,   -0.082,   -0.079,    0.630,    0.017,   -0.300,
        0.058,   -0.244,    0.033,   -0.178,   -0.094,   -0.167,    0.015,
        0.084,   -0.003,    0.340,    1.642,   -0.057,    4.638,    0.655,
        0.114,    0.721,   -4.564,   -1.709,   -2.622,    0.281,   -1.790,
       -1.809,   -1.219,   -4.094,   -2.295
    },
    {  -0.432,   -0.047,    0.273,    0.006,   -0.310,   -0.046,    0.464,
        0.144,   -0.121,    0.071,   -0.113,   -0.074,    0.303,   -0.149,
        0.221,    0.122,   -0.072,    0.051,    0.520,   -0.069,   -0.111,
        0.046,   -0.304,    0.032,   -0.089,   -0.090,   -0.167,   -0.014,
        0.046,   -0.112,    0.334,    1.531,   -0.098,    5.108,    0.909,
        0.234,    0.575,   -4.721,   -1.422,   -2.129,    0.302,   -1.540,
       -1.770,   -1.430,   -4.181,   -2.264
    },
    {  -0.367,   -0.132,    0.481,    0.067,   -0.202,   -0.056,    0.364,
        0.095,   -0.482,   -0.083,   -0.105,    0.100,    0.420,   -0.197,
        0.119,    0.013,   -0.008,   -0.060,    0.219,    0.004,    0.107,
        0.072,   -0.441,   -0.040,   -0.007,    0.063,   -0.124,    0.104,
       -0.056,   -0.176,    0.392,    1.361,   -0.094,    4.672,    0.781,
       -0.186,    0.769,   -4.985,   -1.053,   -2.049,    0.297,   -1.483,
       -1.781,   -1.341,   -3.954,   -2.147
    },
    {  -0.399,    0.013,    0.303,    0.037,   -0.298,   -0.047,   -0.020,
        0.015,   -0.512,    0.060,   -0.203,    0.108,    0.401,   -0.112,
       -0.071,    0.071,   -0.192,    0.075,   -0.023,   -0.021,    0.081,
       -0.029,   -0.422,    0.053,   -0.002,    0.088,   -0.163,   -0.068,
       -0.193,   -0.085,    0.421,    1.042,   -0.274,    4.447,    0.998,
       -0.166,    0.938,   -5.169,   -1.466,   -1.896,    0.398,   -1.473,
       -1.347,   -1.257,   -4.350,   -1.785
    },
    {  -0.057,   -0.040,    0.219,    0.017,   -0.210,   -0.033,    0.236,
        0.011,   -0.379,   -0.033,   -0.145,   -0.106,    0.546,   -0.129,
       -0.224,   -0.129,    0.143,   -0.030,    0.170,    0.091,    0.176,
        0.092,   -0.186,   -0.149,   -0.245,   -0.155,   -0.550,    0.003,
        0.228,    0.146,    0.485,    1.149,   -0.503,    4.962,    1.199,
        0.202,    1.126,   -5.959,   -0.897,   -2.783,    0.528,   -1.607,
       -1.338,   -1.002,   -4.653,   -1.432
    },
    {  -0.064,   -0.006,    0.024,   -0.070,   -0.220,   -0.018,    0.207,
        0.026,   -0.332,    0.079,   -0.050,   -0.054,    0.466,   -0.132,
       -0.194,    0.043,   -0.110,    0.011,    0.128,   -0.075,    0.123,
        0.025,   -0.190,   -0.150,    0.036,   -0.115,   -0.372,    0.016,
        0.343,    0.171,    0.530,    1.189,   -1.049,    5.234,    1.258,
        0.401,    1.473,   -5.946,   -1.191,   -2.550,    0.512,   -1.578,
       -1.276,   -1.050,   -4.434,   -1.559
    },
    {  -0.321,    0.051,    0.308,   -0.065,   -0.088,    0.033,    0.170,
        0.094,   -0.430,    0.076,   -0.231,   -0.090,    0.459,   -0.035,
       -0.088,   -0.012,    0.208,    0.076,   -0.021,   -0.075,   -0.003,
        0.009,    0.122,   -0.129,   -0.131,   -0.025,   -0.465,   -0.026,
        0.153,    0.050,    0.881,    1.240,   -0.999,    5.239,    1.381,
        0.326,    1.221,   -5.914,   -1.111,   -2.452,    0.674,   -1.634,
       -1.315,   -0.943,   -4.945,   -1.770
    },
    {  -0.226,    0.023,    0.273,   -0.006,   -0.079,   -0.040,    0.255,
        0.154,   -0.341,   -0.011,   -0.235,   -0.008,    0.488,   -0.155,
        0.063,   -0.068,   -0.062,    0.092,   -0.173,    0.110,    0.136,
        0.013,    0.077,   -0.067,    0.123,   -0.089,   -0.294,    0.008,
        0.162,    0.151,    0.922,    0.706,   -0.781,    5.274,    0.953,
        0.387,    0.698,   -5.280,   -1.461,   -2.265,    1.108,   -1.370,
       -0.913,   -0.617,   -4.922,   -1.417
    },
    {  -0.270,    0.036,    0.179,   -0.101,   -0.114,   -0.054,    0.115,
       -0.060,   -0.122,   -0.157,   -0.158,   -0.072,    0.408,   -0.121,
        0.210,    0.028,   -0.069,   -0.069,    0.015,   -0.233,   -0.056,
       -0.014,    0.246,   -0.020,    0.178,    0.149,   -0.209,   -0.095,
        0.053,   -0.083,    0.590,    0.236,   -0.553,    4.878,    1.527,
        0.611,    0.168,   -5.012,   -1.705,   -2.020,    0.738,   -0.974,
       -1.093,   -1.040,   -5.288,   -1.080
    },
    {  -0.245,   -0.019,    0.151,   -0.001,   -0.239,   -0.054,    0.282,
       -0.054,   -0.023,   -0.026,   -0.122,    0.042,    0.393,   -0.154,
        0.339,   -0.060,   -0.166,   -0.074,    0.153,   -0.033,   -0.120,
       -0.068,    0.325,    0.105,    0.274,   -0.113,   -0.217,    0.015,
       -0.170,   -0.071,    0.626,    0.856,   -0.851,    5.024,    1.404,
        0.708,    0.113,   -4.929,   -1.510,   -2.169,    0.630,   -0.726,
       -1.113,   -0.723,   -5.209,   -0.856
    },
    {  -0.262,    0.113,    0.127,   -0.097,   -0.163,   -0.007,    0.200,
       -0.084,   -0.075,    0.057,    0.204,   -0.012,    0.357,   -0.085,
        0.510,   -0.017,    0.080,   -0.079,    0.083,    0.028,   -0.062,
       -0.077,    0.294,   -0.008,   -0.035,    0.108,   -0.113,    0.018,
       -0.218,   -0.013,    0.967,    0.903,   -0.810,    5.342,    1.440,
        0.475,    0.109,   -4.956,   -1.348,   -2.009,    1.214,   -1.146,
       -0.661,   -1.247,   -5.568,   -1.185
    },
    {  -0.404,    0.016,   -0.074,   -0.067,   -0.029,    0.090,    0.134,
        0.071,    0.154,    0.009,    0.170,    0.012,    0.141,    0.018,
        0.126,   -0.006,    0.243,    0.027,    0.082,   -0.044,   -0.099,
       -0.028,    0.033,   -0.009,    0.225,   -0.048,    0.199,   -0.005,
       -0.183,    0.023,    0.556,    0.158,   -0.436,    4.873,    1.619,
        0.658,   -0.151,   -4.485,   -1.890,   -2.096,    1.123,   -1.714,
       -0.609,   -1.318,   -5.271,   -1.189
    },
    {  -0.189,   -0.027,   -0.095,   -0.027,    0.081,   -0.051,    0.138,
        0.010,    0.012,   -0.054,    0.349,   -0.008,    0.173,   -0.061,
        0.405,   -0.027,    0.096,   -0.028,    0.050,   -0.008,   -0.027,
        0.005,    0.016,   -0.005,    0.292,    0.007,    0.277,   -0.090,
       -0.454,    0.013,    0.670,    0.633,   -0.343,    4.748,    1.049,
        0.599,   -0.074,   -4.327,   -1.503,   -2.142,    0.696,   -1.661,
       -0.588,   -1.049,   -5.226,   -1.221
    },
    {  -0.294,   -0.024,    0.020,   -0.091,    0.125,   -0.089,    0.185,
       -0.094,    0.014,    0.006,    0.252,   -0.188,    0.391,   -0.173,
        0.370,    0.031,   -0.061,   -0.004,    0.086,   -0.054,    0.280,
       -0.033,    0.128,   -0.083,    0.173,   -0.075,    0.203,   -0.047,
       -0.492,   -0.057,    0.485,    0.436,   -0.450,    5.043,    1.753,
        0.915,   -0.042,   -4.240,   -1.060,   -1.844,    0.681,   -1.500,
       -0.537,   -0.851,   -5.216,   -1.211
    },
    {  -0.521,    0.080,    0.102,   -0.062,    0.093,   -0.108,    0.212,
       -0.006,   -0.021,   -0.015,    0.351,   -0.068,    0.457,   -0.127,
        0.465,    0.080,   -0.214,   -0.148,   -0.068,   -0.017,    0.416,
       -0.162,    0.172,    0.004,    0.264,   -0.183,    0.135,   -0.009,
       -0.579,    0.030,    0.907,    1.077,    0.077,    4.948,    1.964,
        1.150,   -0.059,   -4.461,   -1.190,   -1.870,    0.680,   -1.307,
       -0.426,   -0.594,   -5.032,   -1.382
    },
    {  -0.282,    0.143,   -0.086,   -0.050,    0.054,   -0.060,    0.030,
       -0.077,   -0.047,    0.113,    0.417,   -0.036,    0.502,   -0.063,
        0.517,   -0.093,   -0.057,   -0.164,   -0.007,   -0.040,    0.455,
       -0.184,    0.061,    0.097,    0.316,   -0.209,    0.046,    0.038,
       -0.757,    0.019,    0.853,    1.060,   -0.190,    4.637,    2.242,
        1.028,    0.595,   -4.641,   -0.683,   -1.940,    0.580,   -1.202,
       -0.075,   -1.032,   -5.377,   -1.230
    },
    {  -0.276,    0.116,   -0.098,    0.003,    0.001,   -0.028,    0.025,
        0.015,    0.117,    0.099,    0.573,   -0.042,    0.601,   -0.061,
        0.445,   -0.112,   -0.145,   -0.053,    0.014,   -0.017,    0.221,
       -0.117,   -0.018,    0.060,    0.231,   -0.053,    0.039,    0.024,
       -0.727,    0.063,    0.846,    1.153,   -0.798,    4.490,    1.720,
        0.616,    0.904,   -4.272,   -0.802,   -2.067,    0.175,   -1.883,
        0.367,   -1.562,   -5.589,   -0.962
    },
    {  -0.376,   -0.016,    0.035,    0.076,   -0.091,   -0.035,   -0.049,
       -0.009,    0.143,   -0.093,    0.783,    0.032,    0.566,   -0.174,
        0.376,   -0.012,   -0.130,   -0.012,    0.099,   -0.012,   -0.037,
        0.017,    0.199,   -0.148,    0.091,   -0.027,    0.151,   -0.035,
       -0.888,    0.085,    0.774,    1.613,   -0.350,    4.532,    2.134,
        0.538,    0.979,   -4.386,   -0.823,   -2.480,    0.297,   -2.090,
        0.212,   -1.333,   -5.364,   -1.341
    },
    {  -0.265,   -0.058,   -0.158,   -0.062,   -0.128,   -0.070,    0.043,
        0.041,    0.017,   -0.130,    0.653,    0.051,    0.506,   -0.093,
        0.251,   -0.003,    0.038,   -0.032,    0.067,    0.060,   -0.082,
        0.071,    0.365,   -0.267,    0.183,   -0.067,    0.157,   -0.106,
       -0.728,   -0.017,    0.946,    1.217,   -0.277,    4.669,    2.056,
        0.432,    0.830,   -4.707,   -0.750,   -2.505,    0.336,   -2.275,
        0.588,   -1.415,   -5.393,   -1.424
    }
  };


  double netfun(std::vector<double>& in, const double* w)
  {
    double x00 = in[0];
    double x;

    //Layer 1, Node 0
    x = w[0];
    x = x + w[1] * x00;
    double x10 = tanh(x);

    //Layer 1, Node 1
    x = w[2];
    x = x + w[3] * x00;
    double x11 = tanh(x);

    //Layer 1, Node 2
    x = w[4];
    x = x + w[5] * x00;
    double x12 = tanh(x);

    //Layer 1, Node 3
    x = w[6];
    x = x + w[7] * x00;
    double x13 = tanh(x);

    //Layer 1, Node 4
    x = w[8];
    x = x + w[9] * x00;
    double x14 = tanh(x);

    //Layer 1, Node 5
    x = w[10];
    x = x + w[11] * x00;
    double x15 = tanh(x);

    //Layer 1, Node 6
    x = w[12];
    x = x + w[13] * x00;
    double x16 = tanh(x);

    //Layer 1, Node 7
    x = w[14];
    x = x + w[15] * x00;
    double x17 = tanh(x);

    //Layer 1, Node 8
    x = w[16];
    x = x + w[17] * x00;
    double x18 = tanh(x);

    //Layer 1, Node 9
    x = w[18];
    x = x + w[19] * x00;
    double x19 = tanh(x);

    //Layer 1, Node 10
    x = w[20];
    x = x + w[21] * x00;
    double x110 = tanh(x);

    //Layer 1, Node 11
    x = w[22];
    x = x + w[23] * x00;
    double x111 = tanh(x);

    //Layer 1, Node 12
    x = w[24];
    x = x + w[25] * x00;
    double x112 = tanh(x);

    //Layer 1, Node 13
    x = w[26];
    x = x + w[27] * x00;
    double x113 = tanh(x);

    //Layer 1, Node 14
    x = w[28];
    x = x + w[29] * x00;
    double x114 = tanh(x);

    //Layer 2, Node 0
    x = w[30];
    x = x + w[31] * x10;
    x = x + w[32] * x11;
    x = x + w[33] * x12;
    x = x + w[34] * x13;
    x = x + w[35] * x14;
    x = x + w[36] * x15;
    x = x + w[37] * x16;
    x = x + w[38] * x17;
    x = x + w[39] * x18;
    x = x + w[40] * x19;
    x = x + w[41] * x110;
    x = x + w[42] * x111;
    x = x + w[43] * x112;
    x = x + w[44] * x113;
    x = x + w[45] * x114;
    double x20 = 1.0/(1.0+exp(-x));
    return x20;
  }
}; // End anonymous namespace

//-----------------------------------------------------------------------------
// Compute average over networks. Default is to use all networks
//-----------------------------------------------------------------------------

double HT250_MHT60_v2_HT250_v2_161205_163268_sel2(std::vector<double>& inputvars,
                                                  int first=0,
                                                  int last=nnetworks-1)
{
  if ( first < 0 ) first = 0;
  if ( last  < 0 ) last  = nnetworks-1;
  if ( last  > nnetworks-1 ) last = nnetworks-1;
  if ( first > last )
    {
      std::cerr << "** HT250_MHT60_v2_HT250_v2_161205_163268_sel2 ** first-index > last-index"
                << std::endl; exit(3);
    }

  // Compute average over networks
  std::vector<double> in(ninputs);
  in[0] = (inputvars[0] - mean[0]) / sigma[0];

  int   n = last - first + 1;
  double x = 0.0;
  for(int i=first; i <= last; i++) x += netfun(in, weight[i]);
  return x / n;
}

extern "C" double HT250_MHT60_v2_HT250_v2_161205_163268_sel2_dl(std::vector<double>& in,
                                                                int first=0,
                                                                int last=nnetworks-1)
{
  return HT250_MHT60_v2_HT250_v2_161205_163268_sel2(in, first, last);
}

extern "C" double HT250_MHT60_v2_HT250_v2_161205_163268_sel2_dl2(double* in,
                                                                 int first=0,
                                                                 int last=nnetworks-1)
{
  std::vector<double> invec;

  invec.push_back(in[0]);

  return HT250_MHT60_v2_HT250_v2_161205_163268_sel2(invec, first, last);
}
