//-----------------------------------------------------------------------------
// Network: HT250_MHT60_v2_HT250_v2_161205_163268_sel2
// Inputs:
//                                                  Offset       Scale
//    offlinevar                                 2.292e+01   1.555e+01
//
// Created: Mon Jan 23 06:18:36 2012
//-----------------------------------------------------------------------------
#include <cmath>
#include <vector>
#include <iostream>
#include <stdlib.h>
//-----------------------------------------------------------------------------
// Make following visible only to this programming unit
namespace {
  // NOTE: Network indices start at 0
  static const int nnetworks=100;
  static const int ninputs  =1;
  static const int nhidden  =15;
  static const int nparams  =46;

  static const double mean[ninputs]={
  2.29200e+01
  };

  static const double sigma[ninputs]={
  1.55500e+01
  };

  static const double weight[nnetworks][nparams]={
    {   0.033,    0.693,   -0.151,    0.162,   -0.024,   -0.577,   -0.158,
        0.255,   -0.083,   -0.009,    0.074,   -0.341,   -0.021,   -0.191,
       -0.121,    0.492,   -0.127,   -0.185,   -0.020,    0.581,    0.185,
       -0.786,   -0.064,    0.271,   -0.121,    0.055,    0.000,    0.616,
        0.117,   -0.198,   -1.466,    0.601,   -0.208,    3.557,    0.637,
       -0.920,   -0.954,   -2.408,   -0.969,   -1.986,    1.888,   -1.049,
       -1.641,    1.441,   -0.805,   -1.469
    },
    {  -0.023,    0.389,    0.065,    0.468,    0.020,   -0.570,   -0.011,
        0.224,   -0.106,   -0.023,   -0.011,   -0.299,   -0.093,   -0.167,
       -0.037,    0.607,   -0.253,   -0.007,   -0.111,    0.655,    0.071,
       -0.896,   -0.061,    0.369,   -0.181,   -0.001,   -0.038,    0.764,
        0.117,   -0.283,   -1.935,    0.432,   -0.279,    2.827,    0.587,
       -1.125,   -0.795,   -3.135,   -0.614,   -2.148,    1.952,   -0.983,
       -1.425,    1.482,   -0.583,   -1.593
    },
    {  -0.175,    0.352,   -0.109,    0.133,   -0.100,   -0.440,   -0.057,
        0.177,   -0.112,   -0.358,    0.036,   -0.367,    0.063,   -0.136,
        0.017,    0.573,   -0.432,   -0.039,    0.022,    0.212,    0.181,
       -0.821,   -0.042,    0.362,   -0.019,   -0.064,   -0.170,    0.796,
        0.141,   -0.056,   -1.923,    0.367,   -0.576,    2.559,   -0.059,
       -0.953,   -0.746,   -3.168,   -0.245,   -2.250,    2.389,   -1.051,
       -1.177,    1.180,   -0.381,   -1.669
    },
    {   0.200,    0.405,    0.062,    0.053,   -0.012,   -0.473,   -0.010,
       -0.311,   -0.019,   -0.364,    0.021,   -0.082,    0.085,   -0.192,
        0.093,    0.555,    0.066,    0.062,    0.023,    0.139,    0.087,
       -0.634,   -0.114,    0.032,    0.123,   -0.215,    0.107,    0.691,
       -0.050,   -0.279,   -1.504,    0.647,   -0.252,    2.707,   -0.302,
       -0.919,   -0.687,   -3.516,    0.157,   -2.073,    2.191,   -0.628,
       -0.882,    1.087,   -0.568,   -1.114
    },
    {   0.131,    0.411,   -0.082,    0.084,   -0.017,   -0.536,   -0.030,
       -0.333,    0.011,   -0.336,   -0.055,    0.098,   -0.035,   -0.364,
       -0.105,    0.374,    0.038,   -0.037,   -0.047,   -0.083,   -0.054,
       -0.415,    0.021,   -0.137,   -0.004,   -0.440,   -0.213,    0.563,
       -0.130,   -0.293,   -1.751,    0.699,   -0.540,    3.093,    0.140,
       -0.782,   -0.273,   -3.136,    0.574,   -2.212,    1.609,   -1.001,
       -1.752,    1.535,   -0.130,   -1.387
    },
    {  -0.059,   -0.084,   -0.165,   -0.135,   -0.042,   -0.505,   -0.145,
       -0.221,   -0.019,   -0.214,    0.128,    0.093,    0.077,   -0.425,
       -0.101,    0.103,   -0.036,   -0.252,    0.064,   -0.123,    0.003,
       -0.433,    0.052,    0.102,   -0.042,   -0.023,    0.075,    0.347,
        0.170,   -0.149,   -0.860,    1.110,   -0.421,    2.992,   -0.026,
       -0.934,   -0.328,   -3.071,   -0.169,   -2.460,    1.932,   -0.861,
       -1.408,    0.981,   -1.168,   -2.221
    },
    {  -0.091,   -0.292,   -0.092,   -0.161,   -0.012,   -0.546,   -0.131,
       -0.302,    0.001,   -0.411,    0.025,   -0.122,    0.124,   -0.402,
        0.023,    0.177,   -0.025,   -0.224,   -0.033,   -0.433,   -0.159,
       -0.668,   -0.062,    0.119,    0.001,    0.524,    0.035,    0.412,
       -0.031,   -0.155,   -1.394,    1.258,   -0.717,    3.217,   -0.159,
       -1.232,   -0.155,   -3.172,    0.127,   -2.375,    1.750,   -0.754,
       -1.368,    1.376,   -1.301,   -2.013
    },
    {  -0.016,   -0.120,    0.068,    0.076,   -0.091,   -0.632,    0.065,
       -0.339,    0.098,   -0.339,   -0.009,    0.348,    0.119,   -0.423,
       -0.048,    0.314,   -0.047,   -0.222,    0.079,   -0.349,   -0.078,
       -0.660,   -0.077,    0.027,    0.082,    0.533,    0.053,    0.282,
        0.079,   -0.284,   -1.227,    1.222,   -0.502,    3.179,   -0.272,
       -1.017,   -0.157,   -2.747,   -0.188,   -2.336,    1.957,   -0.759,
       -1.297,    1.198,   -1.180,   -1.855
    },
    {  -0.103,   -0.572,    0.170,   -0.052,    0.131,   -0.538,   -0.006,
       -0.556,    0.110,   -0.117,    0.042,   -0.045,    0.116,   -0.378,
       -0.147,    0.256,    0.055,   -0.572,   -0.032,   -0.165,   -0.072,
       -0.323,   -0.036,   -0.056,    0.168,    0.044,    0.165,    0.456,
        0.125,   -0.172,   -0.971,    1.487,   -0.218,    2.777,   -0.757,
       -1.343,   -0.579,   -3.028,   -0.610,   -2.597,    1.499,   -0.318,
       -1.313,    0.663,   -1.122,   -1.429
    },
    {  -0.254,   -0.485,   -0.055,   -0.372,    0.088,    0.019,    0.117,
       -0.326,    0.028,    0.169,   -0.197,   -0.383,    0.121,   -0.002,
        0.062,    0.229,    0.072,   -0.338,   -0.039,    0.174,   -0.093,
        0.120,   -0.080,   -0.159,    0.053,   -0.357,   -0.018,    0.455,
        0.018,   -0.234,   -1.200,    1.201,   -0.477,    3.104,   -0.524,
       -1.774,   -1.013,   -3.008,   -0.667,   -2.665,    1.075,   -0.434,
       -1.047,    0.771,   -1.330,   -1.568
    },
    {  -0.172,   -0.522,   -0.107,   -0.238,   -0.104,   -0.088,    0.049,
       -0.345,    0.104,    0.080,   -0.024,   -0.165,   -0.051,   -0.042,
        0.047,    0.065,    0.129,   -0.415,   -0.013,    0.055,   -0.149,
        0.011,   -0.003,   -0.154,    0.031,   -0.560,   -0.008,    0.483,
       -0.063,   -0.127,   -1.186,    0.503,   -0.648,    2.820,   -0.651,
       -1.820,   -0.813,   -3.141,   -0.536,   -2.811,    0.634,   -1.148,
       -1.278,    0.860,   -1.352,   -1.791
    },
    {  -0.182,   -0.365,   -0.014,   -0.177,    0.025,   -0.042,    0.205,
       -0.307,   -0.015,    0.158,   -0.105,   -0.045,    0.206,   -0.215,
        0.028,   -0.125,   -0.008,   -0.264,    0.097,   -0.107,   -0.053,
        0.075,    0.079,   -0.192,    0.083,   -0.434,    0.011,    0.252,
       -0.169,    0.002,   -1.290,    0.856,   -0.794,    2.886,   -0.259,
       -1.602,   -1.168,   -2.898,   -0.361,   -3.070,    0.284,   -0.758,
       -1.236,    0.685,   -1.713,   -1.648
    },
    {   0.075,   -0.693,    0.022,    0.415,    0.034,   -0.083,    0.140,
       -0.333,   -0.152,    0.588,    0.027,   -0.184,    0.000,   -0.603,
       -0.024,   -0.088,    0.114,   -0.223,   -0.007,    0.283,   -0.012,
       -0.026,    0.179,   -0.193,    0.048,   -0.110,    0.033,    0.496,
       -0.131,   -0.091,   -1.368,    0.915,   -0.905,    2.893,   -0.381,
       -0.943,   -1.391,   -3.040,   -0.190,   -2.809,    0.098,   -0.988,
       -1.485,    0.868,   -1.907,   -1.484
    },
    {  -0.013,   -0.128,    0.125,    0.422,    0.045,   -0.206,    0.049,
       -0.158,   -0.121,    0.258,   -0.032,   -0.181,    0.159,   -0.187,
       -0.049,   -0.341,   -0.063,   -0.229,   -0.120,    0.321,    0.029,
       -0.171,    0.125,    0.037,    0.073,    0.298,   -0.005,    0.439,
        0.070,   -0.401,   -1.156,    0.844,   -0.158,    2.604,   -0.302,
       -1.033,   -1.228,   -2.961,   -0.471,   -2.255,    0.465,   -0.989,
       -1.800,    0.414,   -2.215,   -1.516
    },
    {   0.129,    0.058,    0.045,    0.300,    0.004,   -0.148,    0.077,
       -0.074,   -0.024,    0.420,   -0.018,   -0.103,    0.013,   -0.351,
       -0.003,   -0.182,    0.028,   -0.288,    0.026,    0.316,    0.013,
       -0.285,    0.127,    0.060,    0.108,    0.015,    0.132,    0.499,
       -0.254,   -0.020,   -1.672,    0.694,   -0.119,    2.770,   -0.874,
       -1.251,   -1.157,   -2.829,   -0.234,   -2.170,    0.669,   -0.955,
       -1.293,    0.510,   -1.868,   -1.635
    },
    {   0.063,   -0.358,   -0.020,    0.569,    0.003,   -0.065,   -0.057,
       -0.123,    0.070,    0.238,   -0.096,   -0.156,    0.025,   -0.231,
        0.089,   -0.269,    0.080,   -0.021,   -0.069,    0.001,    0.120,
       -0.156,   -0.162,   -0.120,   -0.179,    0.420,    0.094,    0.268,
        0.009,   -0.272,   -1.344,    0.850,   -0.426,    2.615,   -0.997,
       -1.468,   -1.372,   -2.385,   -0.469,   -2.485,    0.309,   -0.552,
       -1.842,    0.754,   -1.861,   -1.451
    },
    {   0.151,   -0.311,   -0.057,    0.325,    0.062,   -0.047,   -0.052,
       -0.216,   -0.012,   -0.012,   -0.003,   -0.336,    0.042,   -0.095,
        0.101,   -0.511,   -0.044,   -0.139,   -0.099,   -0.293,    0.022,
       -0.226,   -0.137,    0.149,   -0.155,    0.155,    0.153,    0.401,
        0.063,   -0.325,   -1.545,    1.009,   -0.034,    2.450,   -0.546,
       -1.270,   -1.041,   -2.524,   -0.321,   -2.370,    0.820,   -0.938,
       -1.712,    0.746,   -1.730,   -1.726
    },
    {  -0.062,   -0.025,    0.070,    0.096,   -0.018,    0.017,   -0.051,
       -0.304,   -0.041,    0.196,    0.037,   -0.244,    0.026,   -0.173,
       -0.049,   -0.221,   -0.033,   -0.092,    0.078,   -0.424,    0.031,
       -0.359,    0.182,    0.170,    0.148,    0.237,    0.093,    0.388,
        0.092,   -0.358,   -1.142,    0.706,    0.050,    2.152,   -0.572,
       -1.434,   -0.904,   -2.573,   -0.708,   -1.889,    1.087,   -0.750,
       -1.900,    0.703,   -1.593,   -1.541
    },
    {   0.001,   -0.146,   -0.042,   -0.060,   -0.049,    0.217,   -0.060,
       -0.425,    0.137,   -0.003,    0.070,    0.146,   -0.009,    0.055,
        0.063,   -0.079,    0.035,   -0.251,   -0.060,   -0.213,    0.074,
       -0.358,   -0.085,   -0.015,   -0.130,    0.133,   -0.010,    0.484,
        0.060,   -0.201,   -1.057,    0.609,   -0.511,    2.766,   -0.209,
       -1.194,   -0.769,   -2.591,   -0.427,   -1.779,    1.154,   -1.144,
       -1.508,    0.332,   -1.975,   -1.560
    },
    {   0.033,    0.027,   -0.247,    0.026,   -0.068,   -0.015,   -0.074,
       -0.097,   -0.098,    0.120,    0.108,   -0.118,   -0.016,   -0.034,
       -0.042,   -0.021,   -0.041,   -0.085,    0.223,   -0.108,   -0.044,
       -0.185,    0.046,   -0.128,   -0.247,    0.082,    0.097,    0.039,
        0.106,   -0.096,   -1.384,    0.624,   -0.912,    2.727,   -0.244,
       -0.742,   -0.750,   -2.516,   -0.842,   -1.446,    0.871,   -0.859,
       -1.109,    0.646,   -2.151,   -1.933
    },
    {  -0.019,    0.146,   -0.000,   -0.158,   -0.022,    0.027,    0.044,
        0.066,   -0.001,    0.157,   -0.035,    0.009,    0.032,   -0.168,
        0.014,    0.032,    0.031,    0.040,    0.048,    0.108,    0.059,
        0.078,   -0.043,   -0.153,    0.025,    0.158,    0.072,    0.146,
       -0.031,   -0.069,   -1.322,    0.616,   -1.095,    3.125,   -0.447,
       -0.952,   -0.819,   -2.423,   -0.981,   -1.825,    0.283,   -0.966,
       -1.148,    0.539,   -2.351,   -2.710
    },
    {  -0.061,    0.004,   -0.015,   -0.069,   -0.055,    0.145,    0.014,
        0.119,    0.049,   -0.023,    0.003,   -0.043,   -0.019,    0.062,
       -0.051,   -0.127,   -0.043,   -0.069,   -0.029,   -0.174,    0.027,
       -0.074,   -0.015,    0.056,    0.041,   -0.039,   -0.058,    0.025,
       -0.046,   -0.046,   -1.731,    0.817,   -0.621,    3.006,   -0.576,
       -0.642,   -0.840,   -2.381,   -0.516,   -2.261,    0.327,   -1.165,
       -0.795,    0.553,   -2.114,   -2.489
    },
    {   0.014,    0.086,   -0.019,   -0.156,    0.022,    0.143,   -0.043,
        0.200,   -0.079,    0.018,    0.049,   -0.154,   -0.009,    0.087,
        0.042,   -0.112,    0.048,    0.112,    0.056,    0.094,   -0.024,
        0.000,    0.011,    0.130,   -0.091,    0.043,   -0.121,    0.042,
        0.061,   -0.128,   -1.720,    1.235,   -0.325,    3.026,    0.213,
       -0.885,   -0.761,   -2.371,   -0.189,   -2.426,    0.620,   -1.011,
       -0.142,    0.321,   -2.191,   -2.526
    },
    {   0.009,    0.314,    0.050,   -0.199,   -0.091,    0.051,   -0.001,
        0.341,    0.031,    0.030,   -0.060,   -0.007,   -0.004,   -0.159,
       -0.009,    0.155,    0.043,    0.362,    0.024,    0.281,    0.018,
       -0.040,   -0.057,    0.376,    0.061,   -0.101,    0.003,    0.088,
        0.022,   -0.168,   -1.285,    1.219,   -0.296,    2.224,    0.311,
       -1.164,   -0.813,   -2.558,   -0.054,   -2.363,    0.621,   -1.407,
       -0.185,    0.599,   -1.997,   -2.542
    },
    {  -0.009,    0.293,    0.102,   -0.243,   -0.091,    0.206,    0.060,
        0.230,    0.077,   -0.206,   -0.007,    0.249,   -0.047,    0.054,
        0.001,   -0.000,    0.025,    0.378,   -0.003,    0.057,   -0.009,
       -0.056,   -0.071,    0.325,    0.065,    0.353,    0.029,    0.249,
       -0.058,   -0.246,   -1.446,    1.400,   -0.537,    1.903,    0.604,
       -1.218,   -0.958,   -2.750,   -0.434,   -2.077,    1.050,   -1.312,
        0.124,    0.208,   -2.099,   -2.576
    },
    {  -0.008,    0.204,    0.100,   -0.168,   -0.015,    0.150,    0.033,
        0.245,    0.020,   -0.041,   -0.021,    0.101,   -0.009,    0.049,
       -0.040,    0.080,    0.046,    0.323,   -0.037,    0.194,   -0.090,
       -0.123,    0.053,    0.206,    0.114,    0.214,    0.040,    0.089,
        0.012,   -0.197,   -1.414,    1.051,   -0.675,    1.843,    1.343,
       -1.330,   -1.046,   -2.719,   -0.548,   -2.758,    0.932,   -1.505,
        0.130,   -0.111,   -2.245,   -2.626
    },
    {  -0.023,    0.131,   -0.039,   -0.200,   -0.035,   -0.097,    0.057,
       -0.063,    0.118,   -0.158,    0.022,    0.070,    0.069,    0.015,
        0.081,   -0.389,    0.052,    0.396,   -0.032,   -0.090,   -0.018,
       -0.209,    0.003,    0.247,    0.088,    0.269,   -0.092,   -0.215,
        0.048,   -0.252,   -1.160,    1.244,   -0.875,    1.930,    1.217,
       -1.381,   -0.933,   -2.953,   -0.245,   -3.078,    0.661,   -1.843,
       -0.153,    0.322,   -2.353,   -2.185
    },
    {  -0.093,    0.146,    0.077,   -0.023,   -0.003,    0.073,   -0.072,
       -0.135,   -0.205,   -0.027,   -0.100,    0.056,    0.118,   -0.106,
       -0.087,    0.299,    0.027,    0.096,   -0.063,   -0.036,    0.070,
       -0.140,   -0.049,    0.168,    0.079,   -0.034,    0.029,    0.059,
        0.067,   -0.081,   -0.873,    1.740,   -1.249,    2.193,    0.776,
       -1.335,   -0.694,   -2.976,   -0.155,   -2.984,    0.848,   -1.630,
       -0.149,    0.502,   -1.813,   -1.583
    },
    {  -0.086,   -0.039,   -0.001,   -0.042,   -0.065,    0.097,    0.092,
       -0.044,    0.081,    0.007,    0.054,   -0.089,   -0.001,    0.044,
       -0.009,    0.108,    0.099,   -0.164,   -0.026,   -0.007,    0.050,
       -0.078,   -0.011,    0.153,   -0.015,   -0.181,   -0.008,    0.098,
       -0.031,   -0.139,   -0.834,    1.779,   -1.025,    2.580,    0.886,
       -1.430,   -0.460,   -3.060,   -0.266,   -3.222,    0.714,   -1.014,
       -0.419,    0.322,   -2.436,   -1.921
    },
    {   0.103,    0.027,    0.063,   -0.000,   -0.087,    0.042,   -0.087,
       -0.142,   -0.065,    0.045,    0.019,   -0.053,    0.016,   -0.034,
        0.096,    0.129,    0.250,   -0.206,    0.080,   -0.107,    0.097,
       -0.027,    0.112,    0.092,   -0.026,   -0.101,   -0.021,    0.012,
        0.153,    0.077,   -0.255,    1.461,   -0.460,    1.979,    1.212,
       -1.100,   -0.053,   -2.638,    0.609,   -3.801,    0.932,   -1.587,
       -0.486,    0.720,   -2.084,   -1.384
    },
    {  -0.000,    0.021,   -0.115,   -0.097,    0.059,   -0.037,   -0.112,
       -0.117,   -0.083,    0.090,    0.107,   -0.013,    0.112,   -0.145,
       -0.016,    0.148,    0.109,   -0.090,    0.123,    0.100,   -0.019,
       -0.007,    0.075,   -0.029,    0.121,   -0.017,    0.094,   -0.017,
        0.160,    0.032,   -0.675,    1.313,   -0.388,    1.936,    0.895,
       -1.124,   -0.435,   -2.678,    0.104,   -3.390,    0.529,   -0.982,
       -0.121,    0.467,   -2.135,   -1.773
    },
    {  -0.097,    0.005,   -0.006,    0.055,   -0.182,   -0.000,    0.030,
       -0.064,    0.054,    0.313,   -0.015,   -0.016,    0.213,   -0.190,
       -0.045,    0.321,    0.020,   -0.106,    0.100,    0.032,   -0.024,
        0.007,   -0.087,   -0.158,   -0.066,    0.295,    0.067,   -0.145,
       -0.103,    0.053,   -0.464,    0.821,   -0.081,    2.374,    1.205,
       -1.712,   -0.438,   -2.579,    0.039,   -2.790,    0.177,   -0.542,
       -0.086,    0.190,   -1.949,   -1.523
    },
    {   0.202,   -0.095,   -0.149,   -0.193,   -0.142,   -0.189,   -0.091,
        0.100,    0.208,   -0.001,    0.148,    0.258,    0.102,   -0.196,
        0.058,    0.162,    0.061,   -0.219,   -0.048,   -0.072,    0.026,
       -0.043,   -0.176,   -0.003,    0.201,    0.077,    0.005,    0.115,
        0.064,   -0.041,   -0.249,    0.803,   -0.260,    2.453,    1.304,
       -1.790,   -0.860,   -2.649,    0.021,   -3.269,    0.452,   -1.169,
       -0.135,    0.240,   -2.060,   -1.410
    },
    {   0.251,   -0.043,   -0.152,   -0.242,   -0.117,   -0.060,    0.032,
        0.180,    0.039,    0.025,    0.076,    0.421,    0.051,   -0.138,
        0.098,    0.195,    0.216,   -0.179,   -0.169,   -0.133,   -0.104,
       -0.120,   -0.202,    0.072,    0.178,   -0.121,    0.069,    0.068,
        0.046,    0.147,   -0.638,    1.283,   -0.319,    3.028,    1.287,
       -1.823,   -0.596,   -3.216,    0.308,   -3.323,    0.485,   -0.886,
       -0.586,    0.282,   -1.983,   -1.268
    },
    {   0.157,   -0.006,   -0.107,    0.041,   -0.055,    0.010,   -0.216,
       -0.055,   -0.247,    0.106,    0.289,   -0.064,    0.098,   -0.183,
       -0.060,    0.083,    0.299,   -0.141,    0.204,   -0.141,    0.075,
        0.074,   -0.219,    0.037,    0.432,    0.070,   -0.135,   -0.013,
        0.181,    0.136,   -0.819,    0.695,   -0.361,    2.736,    1.016,
       -1.836,   -0.102,   -2.953,    0.669,   -3.236,    0.361,   -0.806,
       -0.636,    0.161,   -2.316,   -1.383
    },
    {   0.048,    0.057,    0.233,   -0.017,    0.062,    0.054,   -0.167,
        0.149,   -0.359,   -0.036,    0.563,    0.047,    0.031,    0.026,
       -0.144,   -0.056,    0.362,   -0.197,    0.269,    0.026,    0.151,
        0.037,    0.245,    0.004,    0.134,    0.064,   -0.075,    0.056,
        0.205,    0.210,   -0.127,    1.066,   -0.824,    3.144,    0.976,
       -1.609,   -0.220,   -2.701,    0.862,   -3.237,   -0.074,   -0.696,
       -0.815,   -0.032,   -1.929,   -1.355
    },
    {   0.140,   -0.141,    0.030,   -0.001,    0.094,    0.012,   -0.097,
       -0.026,    0.035,   -0.101,    0.192,   -0.043,   -0.236,   -0.105,
       -0.471,   -0.054,    0.552,   -0.185,    0.171,    0.021,    0.057,
        0.130,   -0.148,   -0.110,    0.111,    0.104,   -0.096,    0.088,
        0.161,   -0.006,   -0.283,    0.962,   -0.972,    3.483,    0.906,
       -1.316,   -0.642,   -3.097,    1.327,   -2.970,    0.132,   -1.013,
       -0.656,   -0.290,   -1.817,   -1.959
    },
    {  -0.037,    0.093,    0.295,   -0.211,   -0.080,   -0.057,   -0.294,
        0.009,   -0.221,   -0.154,    0.207,   -0.282,   -0.189,   -0.077,
       -0.008,   -0.146,    0.333,   -0.247,    0.034,    0.285,    0.278,
        0.019,   -0.341,   -0.008,   -0.184,    0.221,    0.163,    0.272,
        0.370,    0.006,   -0.137,    0.382,   -0.538,    3.335,    0.430,
       -2.178,   -0.463,   -2.696,    1.114,   -2.510,    0.076,   -0.905,
       -0.377,   -0.418,   -1.693,   -1.897
    },
    {   0.134,   -0.154,   -0.008,   -0.008,    0.030,    0.187,   -0.091,
        0.122,   -0.211,    0.051,    0.058,    0.012,    0.056,   -0.042,
       -0.466,    0.209,    0.174,   -0.098,   -0.153,    0.019,    0.312,
        0.160,   -0.039,   -0.033,   -0.077,    0.025,   -0.007,    0.141,
        0.381,    0.179,   -0.076,    0.616,   -0.485,    3.352,    0.343,
       -2.278,   -0.678,   -2.613,    1.223,   -3.149,    0.352,   -0.856,
       -0.177,   -0.527,   -1.327,   -1.732
    },
    {   0.104,   -0.088,    0.026,   -0.065,    0.099,   -0.030,    0.133,
        0.231,    0.141,    0.251,    0.323,   -0.167,    0.032,    0.050,
       -0.255,    0.196,    0.209,   -0.221,    0.011,   -0.114,    0.204,
       -0.036,    0.112,    0.119,    0.057,    0.078,   -0.032,   -0.063,
        0.167,   -0.127,   -0.024,    0.720,   -0.191,    3.301,    0.211,
       -2.229,   -0.922,   -2.220,    1.007,   -2.918,    0.326,   -0.708,
       -0.383,   -0.007,   -1.438,   -2.162
    },
    {   0.039,   -0.138,    0.141,   -0.144,   -0.156,   -0.282,    0.310,
       -0.001,    0.231,    0.127,    0.325,   -0.437,    0.091,   -0.262,
        0.048,    0.157,    0.034,   -0.188,    0.103,   -0.196,    0.023,
       -0.115,   -0.049,   -0.189,   -0.089,   -0.018,    0.113,    0.011,
        0.039,   -0.149,   -0.167,    0.880,   -0.073,    3.125,    0.486,
       -2.008,   -0.415,   -2.332,    0.651,   -3.107,    0.265,   -0.193,
        0.144,    0.031,   -1.780,   -2.070
    },
    {   0.016,   -0.094,    0.088,   -0.018,   -0.199,   -0.396,   -0.039,
       -0.045,    0.229,   -0.006,    0.262,   -0.272,    0.054,   -0.213,
        0.172,    0.153,    0.104,   -0.392,    0.197,   -0.021,    0.051,
       -0.147,    0.168,   -0.106,    0.138,   -0.060,    0.044,    0.011,
        0.044,   -0.020,   -0.084,    0.806,   -0.698,    3.262,    0.678,
       -2.124,   -0.167,   -2.101,    0.480,   -3.107,    0.886,   -0.131,
        0.224,    0.175,   -1.793,   -2.389
    },
    {  -0.124,    0.036,    0.057,    0.129,   -0.224,   -0.423,    0.098,
       -0.049,    0.347,   -0.152,    0.513,   -0.204,    0.105,   -0.157,
        0.078,    0.221,    0.015,   -0.339,    0.143,    0.243,   -0.134,
       -0.095,    0.299,   -0.301,    0.275,   -0.048,   -0.011,   -0.084,
        0.209,    0.178,   -0.088,    0.794,   -0.673,    2.867,    0.418,
       -1.780,    0.154,   -1.668,    0.402,   -3.454,    0.712,   -0.464,
        0.304,    0.293,   -1.721,   -2.060
    },
    {  -0.246,   -0.237,   -0.015,   -0.252,   -0.595,   -0.282,    0.046,
       -0.158,    0.072,   -0.098,    0.318,    0.118,   -0.042,   -0.181,
        0.062,   -0.000,   -0.198,   -0.215,    0.000,    0.138,    0.033,
       -0.052,    0.133,   -0.283,    0.265,   -0.163,    0.032,    0.065,
        0.262,    0.037,    0.037,    1.042,   -1.183,    2.596,    0.382,
       -1.760,   -0.101,   -1.903,   -0.106,   -3.009,    0.740,   -0.867,
        0.016,    0.460,   -1.792,   -2.135
    },
    {   0.034,    0.127,    0.068,   -0.183,   -0.430,    0.012,    0.078,
       -0.069,    0.135,   -0.048,   -0.047,    0.009,    0.088,   -0.143,
       -0.277,    0.155,    0.104,    0.043,    0.010,    0.119,   -0.044,
        0.010,    0.007,   -0.235,    0.292,    0.013,   -0.011,    0.115,
       -0.073,   -0.119,   -0.098,    0.858,   -0.910,    2.756,    0.348,
       -2.233,   -0.667,   -1.648,   -0.024,   -3.035,    0.370,   -0.735,
        0.301,    0.682,   -1.498,   -1.992
    },
    {  -0.054,    0.049,    0.366,   -0.047,   -0.004,    0.118,    0.160,
       -0.121,    0.204,    0.106,   -0.076,    0.014,    0.081,   -0.150,
       -0.259,    0.120,    0.164,   -0.111,    0.151,   -0.054,    0.105,
        0.042,    0.220,   -0.007,   -0.095,    0.067,    0.398,    0.172,
        0.117,   -0.001,    0.608,    0.602,   -0.840,    2.641,   -0.614,
       -2.073,    0.235,   -1.710,   -0.147,   -2.690,    0.432,   -0.377,
       -0.175,   -0.003,   -1.392,   -1.955
    },
    {   0.051,    0.207,    0.090,    0.081,   -0.192,   -0.162,    0.145,
       -0.079,    0.334,    0.091,    0.018,   -0.011,    0.125,   -0.059,
       -0.091,    0.062,    0.253,   -0.207,    0.104,    0.050,    0.005,
       -0.132,    0.096,   -0.145,    0.017,    0.167,    0.066,   -0.104,
        0.164,   -0.154,    0.878,   -0.149,   -0.884,    3.006,   -0.494,
       -1.533,    0.544,   -1.231,   -0.244,   -2.827,    0.350,   -0.117,
       -0.456,    0.049,   -1.318,   -2.169
    },
    {  -0.014,   -0.187,    0.179,    0.110,   -0.248,    0.190,    0.224,
        0.068,    0.144,   -0.028,   -0.269,    0.041,   -0.123,    0.068,
        0.074,   -0.063,    0.088,   -0.079,   -0.342,   -0.071,    0.080,
       -0.032,   -0.109,    0.199,    0.311,   -0.126,    0.048,    0.160,
        0.213,    0.006,    0.423,    0.018,   -0.878,    3.017,   -0.374,
       -1.923,   -0.009,   -1.608,   -0.671,   -2.750,    0.635,    0.018,
        0.072,   -0.008,   -0.897,   -1.763
    },
    {   0.013,    0.070,   -0.003,    0.103,   -0.178,   -0.059,   -0.079,
       -0.084,    0.104,   -0.179,   -0.092,   -0.005,   -0.086,    0.004,
       -0.109,    0.017,    0.253,   -0.153,   -0.205,   -0.068,   -0.135,
       -0.072,    0.111,    0.004,    0.154,    0.087,    0.096,    0.086,
        0.434,   -0.069,    0.583,    0.248,   -0.626,    2.875,    0.023,
       -1.828,    0.159,   -1.829,   -0.860,   -2.886,    0.186,    0.123,
       -0.070,   -0.342,   -1.142,   -1.894
    },
    {   0.008,   -0.289,    0.226,    0.104,   -0.182,   -0.130,    0.089,
        0.271,    0.017,   -0.144,   -0.081,    0.104,    0.255,    0.039,
        0.204,    0.360,    0.180,   -0.127,   -0.272,    0.005,   -0.002,
       -0.054,    0.164,    0.084,   -0.009,   -0.154,   -0.033,    0.018,
        0.219,   -0.273,    0.563,    0.222,   -0.370,    2.775,   -0.205,
       -1.671,    0.797,   -1.370,   -0.806,   -2.949,   -0.056,    0.056,
       -0.125,   -0.196,   -0.879,   -2.215
    },
    {   0.176,    0.263,    0.188,    0.013,    0.119,   -0.120,    0.141,
        0.161,    0.180,    0.243,   -0.195,    0.170,    0.411,   -0.037,
        0.158,    0.030,    0.248,   -0.188,    0.049,    0.183,   -0.036,
        0.178,    0.081,    0.192,   -0.290,    0.303,    0.003,   -0.172,
        0.262,   -0.263,    0.596,    0.302,   -0.419,    3.099,   -0.633,
       -1.711,    0.915,   -1.535,   -0.428,   -3.126,    0.102,   -0.507,
       -0.264,   -0.341,   -1.100,   -2.468
    },
    {  -0.079,    0.107,    0.214,    0.297,   -0.112,   -0.044,    0.136,
        0.306,    0.235,    0.125,   -0.140,   -0.168,   -0.310,   -0.159,
        0.029,   -0.059,    0.120,   -0.141,    0.133,   -0.098,    0.235,
       -0.036,    0.195,    0.061,    0.398,   -0.020,    0.300,   -0.169,
        0.243,   -0.108,    0.572,    0.509,   -0.530,    2.775,   -0.222,
       -1.055,    1.124,   -1.331,   -0.502,   -2.697,   -0.117,   -0.382,
       -0.282,   -0.548,   -1.257,   -2.519
    },
    {  -0.476,    0.035,    0.209,   -0.119,   -0.236,   -0.044,   -0.218,
       -0.036,    0.061,   -0.182,   -0.298,    0.129,   -0.449,    0.086,
        0.062,   -0.168,    0.411,   -0.187,   -0.023,    0.106,    0.127,
        0.090,    0.066,   -0.050,    0.315,    0.012,    0.354,    0.088,
        0.129,    0.040,    0.965,    0.422,   -0.666,    2.799,   -0.144,
       -1.283,    1.269,   -1.741,   -1.020,   -2.419,   -0.313,   -0.738,
       -0.028,   -0.229,   -1.356,   -2.194
    },
    {  -0.449,   -0.298,   -0.043,   -0.173,   -0.267,   -0.093,   -0.486,
        0.236,   -0.089,   -0.128,   -0.135,   -0.002,   -0.196,   -0.098,
        0.101,   -0.107,    0.367,   -0.121,   -0.176,   -0.071,    0.114,
       -0.132,   -0.050,    0.058,    0.268,   -0.028,    0.358,    0.050,
        0.216,   -0.025,    0.826,    0.388,   -0.593,    3.073,   -0.221,
       -1.600,    0.851,   -2.032,   -1.319,   -1.878,   -0.191,   -0.645,
       -0.340,   -0.324,   -1.652,   -2.335
    },
    {  -0.359,   -0.539,    0.114,    0.152,   -0.520,    0.132,   -0.623,
        0.200,    0.100,   -0.215,   -0.156,    0.234,    0.039,    0.189,
       -0.394,   -0.258,    0.328,   -0.301,   -0.206,   -0.110,   -0.178,
        0.243,    0.052,    0.071,    0.090,   -0.239,    0.403,    0.047,
       -0.121,    0.158,    0.672,    0.367,   -0.243,    3.001,    0.039,
       -1.325,    0.795,   -1.983,   -1.059,   -1.922,   -0.512,   -1.144,
       -0.290,   -0.704,   -1.644,   -2.060
    },
    {  -0.207,   -0.389,    0.041,   -0.027,   -0.206,    0.238,   -0.180,
        0.139,    0.419,   -0.150,    0.127,   -0.213,   -0.063,    0.063,
        0.090,   -0.136,    0.103,   -0.122,    0.042,   -0.183,   -0.280,
        0.231,   -0.037,   -0.250,   -0.269,   -0.047,    0.221,    0.120,
        0.314,    0.068,    0.517,    0.607,   -0.507,    3.134,    0.292,
       -1.295,    0.835,   -2.172,   -1.173,   -1.665,   -0.596,   -0.675,
       -0.280,   -0.308,   -2.042,   -1.740
    },
    {  -0.028,    0.124,    0.339,    0.143,   -0.207,    0.169,    0.409,
       -0.151,    0.183,   -0.114,   -0.076,   -0.082,    0.006,    0.111,
        0.211,    0.128,    0.265,   -0.138,    0.252,    0.024,   -0.041,
        0.018,   -0.228,    0.104,   -0.050,    0.072,    0.223,   -0.131,
        0.239,    0.070,    0.489,    0.315,   -0.284,    3.619,    0.617,
       -0.371,    0.746,   -1.905,   -0.671,   -1.636,   -0.446,   -0.570,
       -0.150,    0.031,   -1.847,   -1.379
    },
    {   0.170,   -0.019,    0.221,    0.100,   -0.474,    0.242,    0.057,
        0.183,    0.356,   -0.017,    0.254,    0.159,    0.163,    0.207,
       -0.134,    0.120,    0.143,    0.170,    0.138,    0.230,   -0.281,
       -0.020,    0.274,   -0.005,   -0.245,    0.025,    0.244,   -0.041,
        0.170,   -0.077,    0.440,    0.442,   -0.682,    3.208,    1.258,
       -0.138,    0.898,   -1.776,   -0.694,   -1.368,    0.020,   -0.450,
        0.140,   -0.410,   -1.757,   -1.618
    },
    {   0.056,    0.025,    0.152,   -0.077,   -0.471,    0.303,    0.070,
       -0.008,    0.059,    0.068,    0.166,    0.033,    0.460,    0.036,
        0.070,    0.030,   -0.086,    0.015,   -0.182,   -0.090,   -0.115,
       -0.135,    0.022,    0.123,    0.107,    0.135,   -0.160,    0.153,
       -0.037,   -0.027,    0.399,    0.568,   -0.700,    3.472,    1.190,
       -0.224,    1.063,   -2.497,   -0.708,   -1.079,    0.349,   -0.885,
       -0.729,   -0.643,   -2.074,   -1.314
    },
    {   0.048,    0.028,    0.282,   -0.234,   -0.236,    0.331,    0.094,
       -0.403,    0.006,    0.022,    0.051,   -0.343,    0.240,   -0.007,
        0.346,   -0.040,    0.079,   -0.232,    0.016,    0.026,    0.110,
       -0.189,    0.154,    0.101,    0.132,   -0.010,   -0.016,    0.337,
       -0.056,   -0.401,    0.117,    1.023,   -1.442,    2.878,    1.541,
       -0.399,    1.546,   -2.037,   -0.353,   -0.989,    0.412,   -0.393,
       -1.131,   -0.912,   -1.505,   -1.721
    },
    {   0.145,    0.053,    0.518,   -0.218,   -0.523,    0.147,    0.190,
       -0.123,   -0.012,    0.256,    0.265,   -0.276,    0.205,   -0.012,
        0.166,   -0.014,   -0.150,   -0.197,    0.272,   -0.208,   -0.059,
       -0.499,    0.197,   -0.010,    0.053,   -0.006,    0.091,    0.018,
        0.529,   -0.299,    0.730,    0.529,   -0.726,    2.999,    1.529,
       -0.514,    1.519,   -2.068,    0.179,   -1.023,    0.358,   -0.415,
       -1.154,   -0.296,   -1.646,   -1.752
    },
    {  -0.113,    0.205,    0.436,   -0.205,   -0.534,    0.100,    0.217,
       -0.103,   -0.192,    0.056,    0.207,   -0.178,    0.041,    0.100,
        0.137,   -0.025,   -0.020,   -0.161,    0.418,    0.025,   -0.048,
       -0.194,    0.241,    0.144,    0.227,   -0.041,    0.159,   -0.011,
        0.248,   -0.311,    0.545,    0.485,   -0.308,    2.995,    1.208,
       -0.610,    0.946,   -2.163,    0.269,   -0.913,    0.500,   -0.908,
       -1.492,   -0.668,   -2.080,   -1.757
    },
    {  -0.194,    0.086,    0.208,   -0.041,   -0.373,    0.169,    0.216,
        0.163,    0.136,    0.097,   -0.068,    0.016,    0.241,    0.086,
        0.297,   -0.076,   -0.106,    0.051,   -0.170,   -0.235,    0.055,
       -0.133,    0.096,   -0.130,    0.173,   -0.144,    0.169,    0.136,
        0.092,   -0.020,    0.567,    0.695,   -0.331,    2.641,    1.422,
       -0.333,    0.694,   -2.242,    0.249,   -1.204,    0.583,   -0.901,
       -0.963,   -1.319,   -1.906,   -1.387
    },
    {   0.121,   -0.074,   -0.214,   -0.046,   -0.007,   -0.025,   -0.462,
        0.049,    0.005,   -0.091,    0.120,    0.081,    0.014,    0.070,
       -0.169,    0.039,    0.200,   -0.122,    0.177,   -0.062,   -0.054,
        0.053,    0.174,   -0.119,    0.267,   -0.192,    0.366,   -0.227,
        0.280,    0.197,    0.559,    0.721,   -0.406,    2.976,    1.198,
       -0.416,    0.844,   -2.227,    0.207,   -1.093,    0.430,   -0.791,
       -1.267,   -1.459,   -1.979,   -1.652
    },
    {   0.210,   -0.107,   -0.410,   -0.110,   -0.431,    0.008,   -0.380,
        0.173,    0.148,   -0.009,   -0.202,   -0.034,   -0.278,   -0.067,
        0.041,    0.111,    0.257,    0.123,    0.008,   -0.185,   -0.200,
        0.070,    0.105,    0.060,    0.540,   -0.169,    0.243,   -0.144,
        0.168,   -0.184,    0.641,    0.773,   -0.335,    2.280,    0.956,
       -0.457,    0.866,   -2.058,    0.116,   -1.283,    1.084,   -1.124,
       -1.213,   -1.228,   -1.752,   -2.057
    },
    {   0.303,   -0.061,    0.182,   -0.174,   -0.314,    0.029,   -0.489,
        0.131,    0.065,   -0.142,   -0.536,   -0.193,   -0.094,    0.000,
        0.405,    0.038,    0.228,    0.169,    0.620,   -0.123,   -0.390,
        0.154,    0.267,    0.025,    0.419,   -0.227,    0.368,   -0.126,
        0.298,   -0.150,    0.182,    1.171,   -0.510,    2.485,    1.217,
       -1.186,    0.141,   -1.675,    0.374,   -1.434,    1.510,   -1.223,
       -1.083,   -1.095,   -1.604,   -2.026
    },
    {   0.029,   -0.022,    0.243,   -0.116,   -0.274,    0.101,   -0.174,
        0.282,    0.006,   -0.184,   -0.533,   -0.187,   -0.052,    0.021,
       -0.001,    0.018,   -0.132,    0.066,    0.269,    0.165,   -0.159,
        0.176,    0.368,    0.129,    0.442,   -0.256,    0.134,    0.035,
        0.084,   -0.051,    0.734,    1.395,   -0.439,    2.739,    0.851,
       -0.701,    1.374,   -2.299,    0.468,   -0.673,    0.573,   -0.917,
       -0.765,   -1.133,   -1.824,   -2.339
    },
    {  -0.149,   -0.122,    0.072,    0.256,   -0.568,    0.185,   -0.406,
       -0.047,   -0.113,   -0.026,   -0.179,   -0.065,   -0.019,   -0.106,
        0.000,   -0.238,   -0.175,   -0.241,   -0.144,    0.082,   -0.021,
        0.058,    0.095,    0.044,    0.178,   -0.170,   -0.087,    0.152,
       -0.066,   -0.014,    0.450,    1.719,   -0.129,    3.094,    0.703,
       -0.660,    1.106,   -2.613,    0.457,   -1.022,    0.458,   -0.719,
       -0.504,   -1.461,   -1.715,   -2.248
    },
    {   0.062,   -0.258,    0.106,    0.298,   -0.404,    0.175,   -0.177,
       -0.179,   -0.103,   -0.098,   -0.056,    0.240,    0.147,   -0.064,
        0.022,   -0.172,   -0.012,   -0.087,    0.067,    0.263,    0.149,
        0.099,    0.110,    0.018,    0.107,   -0.135,   -0.026,    0.187,
       -0.004,    0.005,    0.239,    2.135,    0.192,    3.049,    0.488,
       -0.367,    1.296,   -3.302,    0.166,   -1.049,    1.284,   -0.882,
       -1.234,   -0.762,   -1.648,   -2.003
    },
    {   0.055,   -0.293,   -0.074,    0.046,   -0.084,   -0.076,   -0.029,
       -0.038,    0.227,   -0.006,   -0.096,    0.008,    0.208,   -0.275,
        0.112,    0.013,   -0.125,   -0.109,   -0.130,    0.022,    0.051,
        0.013,    0.170,   -0.104,   -0.273,    0.003,    0.064,    0.039,
        0.044,   -0.109,   -0.117,    2.208,    0.115,    2.758,    0.431,
       -1.014,    1.223,   -3.650,   -0.136,   -1.046,    0.900,   -1.030,
       -1.039,   -0.948,   -2.294,   -2.223
    },
    {  -0.348,    0.028,    0.135,   -0.052,   -0.236,    0.037,   -0.311,
       -0.001,   -0.090,    0.020,   -0.042,    0.151,   -0.118,   -0.021,
        0.045,    0.020,   -0.521,   -0.057,   -0.091,    0.039,   -0.030,
        0.062,   -0.089,   -0.041,   -0.110,   -0.073,    0.118,   -0.000,
        0.090,   -0.026,   -0.536,    2.326,    0.160,    2.757,    0.399,
       -0.664,    1.260,   -3.450,   -0.059,   -0.856,    0.380,   -0.955,
       -1.150,   -0.593,   -2.555,   -2.288
    },
    {  -0.195,    0.119,   -0.029,    0.043,   -0.440,    0.197,   -0.244,
        0.028,   -0.246,    0.101,   -0.175,   -0.042,   -0.132,   -0.155,
        0.125,   -0.003,   -0.438,   -0.034,   -0.071,    0.190,    0.144,
        0.092,    0.009,    0.113,   -0.048,   -0.037,    0.237,    0.171,
       -0.048,    0.030,   -0.132,    2.498,   -0.042,    2.578,    0.057,
       -1.209,    1.029,   -3.387,    0.122,   -0.662,    0.446,   -0.801,
       -0.683,   -0.476,   -2.947,   -1.832
    },
    {  -0.291,    0.207,    0.173,   -0.111,   -0.259,    0.143,    0.027,
       -0.050,   -0.482,   -0.067,    0.022,    0.066,   -0.035,    0.091,
       -0.036,   -0.051,   -0.095,   -0.107,    0.261,    0.009,    0.338,
       -0.040,   -0.501,   -0.017,   -0.103,    0.025,   -0.080,    0.074,
        0.294,    0.027,   -0.861,    2.572,    0.148,    3.049,    1.013,
       -0.763,    1.544,   -3.379,    0.395,   -1.088,    0.099,   -0.367,
       -1.217,   -0.606,   -2.389,   -2.053
    },
    {  -0.042,    0.066,    0.357,    0.030,   -0.430,    0.195,    0.121,
       -0.082,   -0.400,    0.021,    0.155,   -0.017,   -0.149,   -0.043,
        0.076,   -0.030,    0.129,    0.006,    0.389,    0.038,    0.189,
       -0.149,   -0.296,   -0.052,   -0.260,    0.059,    0.062,    0.068,
        0.526,    0.072,   -0.525,    2.515,   -0.027,    3.183,    1.074,
       -0.815,    1.753,   -3.405,    0.618,   -0.847,   -0.230,   -0.680,
       -1.114,   -1.061,   -2.213,   -2.178
    },
    {  -0.371,    0.082,    0.310,   -0.004,   -0.446,    0.294,   -0.129,
       -0.070,   -0.006,    0.034,    0.341,   -0.052,   -0.158,   -0.004,
       -0.114,   -0.074,   -0.161,    0.065,    0.651,   -0.057,    0.212,
       -0.051,   -0.317,    0.032,   -0.118,   -0.027,    0.186,    0.025,
        0.469,    0.084,    0.143,    1.887,    0.165,    3.138,    0.777,
       -0.417,    1.460,   -3.066,    0.403,   -1.260,   -0.170,   -0.440,
       -1.185,   -0.822,   -2.049,   -1.748
    },
    {  -0.295,    0.136,    0.456,    0.020,   -0.187,   -0.122,    0.144,
       -0.204,   -0.287,    0.026,    0.448,   -0.068,   -0.325,   -0.027,
       -0.308,   -0.122,    0.015,    0.109,    0.858,    0.010,    0.138,
       -0.094,    0.149,   -0.048,   -0.077,    0.001,    0.217,   -0.236,
        0.454,   -0.287,   -0.263,    2.022,   -0.079,    3.619,    0.890,
       -0.279,    1.111,   -2.901,    0.267,   -1.420,   -0.264,   -0.448,
       -0.885,   -0.782,   -2.203,   -1.809
    },
    {  -0.569,    0.142,    0.488,    0.214,   -0.305,    0.202,    0.233,
       -0.038,   -0.410,    0.154,    0.511,   -0.115,   -0.349,    0.050,
        0.091,    0.029,    0.064,   -0.110,    1.105,   -0.140,    0.192,
        0.047,    0.124,    0.127,   -0.065,    0.109,    0.410,   -0.015,
        0.146,    0.055,    0.236,    2.095,    0.156,    3.436,    0.685,
       -0.601,    1.279,   -2.911,    0.279,   -1.516,   -0.281,   -0.562,
       -1.102,   -0.287,   -2.637,   -1.639
    },
    {  -0.651,    0.140,    0.564,   -0.137,   -0.534,    0.111,   -0.043,
       -0.016,   -0.381,   -0.251,    0.503,   -0.087,   -0.239,   -0.079,
       -0.029,   -0.032,    0.150,   -0.178,    0.808,    0.111,   -0.193,
       -0.033,   -0.473,   -0.155,    0.341,   -0.069,   -0.024,    0.110,
        0.097,    0.087,   -0.505,    1.566,    0.360,    3.396,    0.463,
       -0.433,    1.302,   -3.016,   -0.148,   -1.248,   -0.408,   -0.464,
       -1.062,   -0.453,   -3.005,   -1.712
    },
    {  -0.294,    0.137,    0.456,   -0.166,   -0.264,    0.179,    0.056,
       -0.065,   -0.182,   -0.023,    0.310,   -0.028,   -0.021,   -0.025,
        0.007,   -0.036,    0.003,   -0.037,    0.632,   -0.071,   -0.361,
        0.070,   -0.357,   -0.113,    0.143,   -0.122,    0.020,    0.118,
        0.072,    0.052,   -1.011,    1.612,   -0.070,    3.236,    0.502,
        0.006,    1.262,   -3.273,   -0.757,   -1.219,    0.012,   -0.536,
       -0.909,   -0.480,   -2.816,   -1.300
    },
    {  -0.030,    0.073,    0.318,   -0.073,   -0.376,    0.225,   -0.149,
       -0.182,   -0.029,   -0.007,    0.068,   -0.023,    0.133,   -0.064,
        0.162,   -0.091,   -0.124,    0.098,    0.722,    0.037,   -0.097,
        0.094,   -0.415,   -0.068,    0.303,   -0.065,   -0.128,    0.046,
       -0.129,    0.065,   -0.723,    1.500,    0.310,    2.819,    0.877,
        0.516,    1.343,   -3.540,   -0.964,   -1.091,   -0.176,   -0.154,
       -0.767,   -0.335,   -2.650,   -1.607
    },
    {  -0.407,    0.025,    0.731,    0.015,   -0.365,    0.185,    0.247,
       -0.076,   -0.105,    0.058,    0.243,   -0.024,    0.314,   -0.020,
        0.008,   -0.066,    0.263,   -0.054,    0.705,    0.037,   -0.508,
       -0.033,   -0.455,    0.084,   -0.213,    0.005,   -0.034,    0.017,
       -0.261,   -0.057,   -0.671,    1.191,    0.558,    2.864,    1.237,
        0.739,    1.294,   -3.378,   -1.216,   -0.864,   -0.305,   -0.160,
       -0.969,   -0.300,   -3.602,   -1.731
    },
    {  -0.318,    0.011,    0.431,    0.148,   -0.362,    0.229,    0.283,
        0.092,    0.040,   -0.066,    0.040,   -0.015,    0.331,    0.045,
        0.384,    0.298,    0.007,   -0.098,    0.833,    0.243,   -0.441,
        0.124,   -0.391,    0.017,   -0.327,   -0.073,   -0.227,    0.042,
        0.015,   -0.179,   -0.661,    0.828,    0.388,    3.095,    1.005,
        0.590,    1.290,   -3.378,   -1.295,   -1.167,   -0.102,   -0.683,
       -0.933,   -0.429,   -3.548,   -1.656
    },
    {  -0.453,   -0.073,    0.384,    0.098,   -0.441,    0.150,    0.605,
        0.084,   -0.073,    0.076,   -0.086,   -0.029,    0.140,    0.036,
        0.434,    0.279,   -0.003,   -0.064,    0.679,    0.102,   -0.180,
        0.157,   -0.462,   -0.026,   -0.199,   -0.135,   -0.212,    0.034,
        0.007,   -0.242,   -0.719,    0.733,    0.322,    3.609,    1.205,
        0.707,    1.115,   -3.524,   -1.050,   -0.726,   -0.116,   -0.423,
       -0.879,   -0.617,   -3.605,   -1.614
    },
    {  -0.305,   -0.232,    0.630,    0.014,   -0.531,    0.226,    0.495,
        0.138,   -0.508,   -0.123,   -0.115,    0.209,    0.139,    0.068,
        0.288,    0.020,    0.074,   -0.039,    0.284,   -0.040,    0.084,
        0.017,   -0.645,   -0.032,   -0.129,   -0.047,   -0.130,    0.106,
       -0.092,   -0.144,   -0.614,    0.555,    0.336,    3.212,    1.080,
        0.254,    1.354,   -3.713,   -0.688,   -0.727,   -0.092,   -0.421,
       -0.906,   -0.570,   -3.370,   -1.511
    },
    {  -0.354,   -0.020,    0.363,   -0.039,   -0.580,    0.026,   -0.023,
       -0.056,   -0.556,    0.069,   -0.246,   -0.064,    0.144,   -0.160,
        0.000,    0.022,   -0.187,   -0.053,    0.006,   -0.028,    0.031,
       -0.011,   -0.599,    0.024,   -0.156,   -0.034,   -0.246,   -0.033,
       -0.258,    0.088,   -0.553,    0.221,    0.172,    3.051,    1.329,
        0.227,    1.508,   -3.847,   -1.101,   -0.582,    0.032,   -0.421,
       -0.536,   -0.483,   -3.747,   -1.182
    },
    {  -0.100,    0.005,    0.282,    0.051,   -0.526,    0.039,    0.307,
        0.075,   -0.484,    0.173,   -0.268,   -0.141,    0.349,   -0.172,
       -0.126,   -0.079,    0.005,    0.016,    0.218,    0.040,    0.156,
       -0.015,   -0.426,    0.005,   -0.328,   -0.163,   -0.484,    0.077,
       -0.151,    0.061,   -0.191,    0.320,   -0.193,    3.473,    1.476,
        0.672,    1.826,   -4.397,   -0.832,   -0.915,    0.094,   -0.727,
       -0.437,   -0.219,   -3.979,   -0.975
    },
    {  -0.116,    0.004,    0.071,   -0.148,   -0.457,    0.056,    0.259,
       -0.119,   -0.484,    0.104,   -0.149,   -0.040,    0.305,   -0.155,
       -0.132,    0.067,   -0.326,   -0.107,    0.168,   -0.075,    0.097,
       -0.040,   -0.437,    0.122,    0.029,   -0.066,   -0.345,    0.035,
       -0.020,    0.055,   -0.131,    0.362,   -0.636,    3.726,    1.547,
        0.826,    2.079,   -4.384,   -1.039,   -0.869,    0.133,   -0.629,
       -0.446,   -0.282,   -3.847,   -1.032
    },
    {  -0.415,   -0.001,    0.404,   -0.035,   -0.329,    0.049,    0.197,
        0.150,   -0.501,    0.155,   -0.296,   -0.121,    0.405,   -0.183,
        0.027,    0.028,    0.234,    0.108,   -0.039,   -0.057,   -0.015,
        0.042,    0.036,   -0.032,   -0.220,   -0.006,   -0.505,    0.082,
       -0.080,    0.022,    0.164,    0.361,   -0.517,    3.714,    1.690,
        0.715,    1.779,   -4.379,   -0.819,   -0.862,    0.256,   -0.608,
       -0.473,   -0.244,   -4.390,   -1.204
    },
    {  -0.278,   -0.051,    0.328,    0.011,   -0.214,   -0.067,    0.306,
        0.170,   -0.361,    0.038,   -0.252,    0.043,    0.503,   -0.178,
        0.146,   -0.067,   -0.077,    0.068,   -0.201,    0.208,    0.166,
       -0.038,    0.002,   -0.054,    0.110,   -0.084,   -0.386,    0.031,
       -0.014,    0.145,    0.016,   -0.102,   -0.347,    3.788,    1.256,
        0.824,    1.258,   -3.831,   -1.116,   -0.789,    0.686,   -0.365,
       -0.057,    0.102,   -4.306,   -0.821
    },
    {  -0.321,    0.040,    0.203,   -0.124,   -0.281,   -0.038,    0.125,
        0.064,   -0.094,   -0.051,   -0.148,   -0.080,    0.283,   -0.215,
        0.307,    0.027,   -0.061,   -0.037,    0.025,   -0.188,   -0.049,
        0.001,    0.204,    0.030,    0.170,    0.181,   -0.209,   -0.006,
       -0.119,   -0.069,   -0.330,   -0.536,   -0.154,    3.426,    1.785,
        1.031,    0.745,   -3.607,   -1.335,   -0.576,    0.345,    0.012,
       -0.259,   -0.284,   -4.616,   -0.497
    },
    {  -0.293,   -0.004,    0.167,   -0.046,   -0.361,   -0.005,    0.355,
       -0.016,    0.018,    0.017,   -0.104,    0.042,    0.384,   -0.137,
        0.447,   -0.050,   -0.199,   -0.078,    0.202,   -0.036,   -0.132,
       -0.063,    0.300,    0.192,    0.285,   -0.081,   -0.262,   -0.002,
       -0.380,   -0.071,   -0.319,    0.076,   -0.456,    3.593,    1.654,
        1.141,    0.691,   -3.553,   -1.160,   -0.735,    0.241,    0.236,
       -0.296,    0.014,   -4.523,   -0.273
    },
    {  -0.309,    0.165,    0.139,   -0.062,   -0.345,    0.087,    0.247,
       -0.025,   -0.049,    0.075,    0.298,   -0.013,    0.291,   -0.127,
        0.652,    0.018,    0.124,   -0.003,    0.104,    0.055,   -0.047,
       -0.068,    0.261,   -0.112,   -0.087,    0.144,   -0.094,    0.051,
       -0.421,    0.047,    0.078,    0.116,   -0.369,    3.936,    1.709,
        0.880,    0.687,   -3.560,   -1.011,   -0.566,    0.789,   -0.163,
        0.127,   -0.463,   -4.885,   -0.547
    },
    {  -0.455,    0.014,   -0.147,   -0.080,   -0.042,   -0.041,    0.148,
        0.069,    0.188,    0.020,    0.193,    0.060,    0.021,    0.008,
        0.126,    0.024,    0.252,    0.042,    0.125,   -0.020,   -0.145,
       -0.010,   -0.035,   -0.005,    0.245,   -0.096,    0.371,   -0.137,
       -0.294,    0.030,   -0.348,   -0.571,   -0.009,    3.465,    1.839,
        1.027,    0.386,   -3.083,   -1.542,   -0.667,    0.706,   -0.733,
        0.168,   -0.544,   -4.564,   -0.520
    },
    {  -0.199,   -0.057,   -0.164,   -0.154,    0.069,   -0.109,    0.174,
       -0.013,    0.025,    0.017,    0.445,   -0.024,    0.049,   -0.072,
        0.494,    0.082,    0.072,    0.122,    0.084,   -0.095,   -0.030,
        0.000,   -0.052,   -0.077,    0.329,   -0.014,    0.394,   -0.220,
       -0.649,   -0.035,   -0.173,   -0.132,    0.095,    3.322,    1.331,
        0.976,    0.511,   -2.936,   -1.131,   -0.735,    0.306,   -0.675,
        0.202,   -0.262,   -4.532,   -0.589
    },
    {  -0.293,   -0.022,   -0.090,   -0.074,    0.238,    0.195,    0.202,
       -0.050,   -0.012,    0.075,    0.271,   -0.219,    0.394,   -0.209,
        0.480,   -0.208,   -0.106,    0.026,    0.139,   -0.053,    0.326,
        0.040,    0.089,   -0.160,    0.210,   -0.187,    0.343,    0.154,
       -0.753,   -0.060,   -0.376,   -0.277,   -0.012,    3.549,    1.983,
        1.281,    0.508,   -2.890,   -0.773,   -0.427,    0.286,   -0.521,
        0.279,   -0.093,   -4.520,   -0.537
    },
    {  -0.549,   -0.024,   -0.015,    0.038,    0.153,    0.047,    0.201,
       -0.009,   -0.066,   -0.032,    0.372,   -0.062,    0.473,   -0.242,
        0.610,   -0.031,   -0.287,   -0.178,   -0.042,   -0.049,    0.501,
       -0.198,    0.149,   -0.058,    0.315,   -0.102,    0.285,    0.075,
       -0.891,   -0.036,    0.019,    0.234,    0.442,    3.525,    2.186,
        1.524,    0.554,   -3.079,   -0.851,   -0.397,    0.288,   -0.350,
        0.386,    0.164,   -4.420,   -0.682
    },
    {  -0.230,    0.007,   -0.285,    0.095,    0.133,    0.074,   -0.069,
       -0.152,   -0.117,    0.160,    0.430,   -0.027,    0.501,   -0.256,
        0.647,   -0.224,   -0.157,   -0.246,    0.047,   -0.078,    0.521,
       -0.171,   -0.052,    0.021,    0.310,   -0.070,    0.129,    0.104,
       -1.113,    0.038,   -0.032,    0.250,    0.178,    3.184,    2.444,
        1.402,    1.161,   -3.246,   -0.387,   -0.481,    0.205,   -0.235,
        0.693,   -0.298,   -4.755,   -0.505
    },
    {  -0.407,    0.110,   -0.669,    0.068,   -0.190,    0.173,   -0.054,
       -0.069,    0.034,    0.029,    0.520,    0.020,    0.416,   -0.246,
        0.504,   -0.185,   -0.146,    0.076,   -0.060,   -0.065,    0.483,
       -0.095,   -0.213,    0.046,    0.181,    0.027,    0.143,    0.130,
       -1.075,   -0.006,   -0.062,    0.393,   -0.397,    2.869,    1.914,
        1.087,    1.292,   -2.850,   -0.047,   -0.843,   -0.102,   -0.771,
        1.176,   -0.437,   -4.701,   -0.877
    },
    {  -0.531,    0.041,   -0.498,    0.138,   -0.262,    0.198,   -0.132,
       -0.147,    0.136,   -0.093,    0.738,   -0.087,    0.307,   -0.234,
        0.421,   -0.050,   -0.156,    0.091,    0.001,   -0.055,    0.180,
       -0.011,    0.019,   -0.161,    0.038,    0.000,    0.218,   -0.007,
       -1.218,    0.053,   -0.059,    0.808,    0.008,    3.043,    2.329,
        0.948,    1.436,   -2.986,   -0.230,   -1.168,   -0.044,   -1.004,
        1.026,   -0.330,   -4.575,   -1.058
    },
    {  -0.374,   -0.095,   -0.598,   -0.101,   -0.258,    0.105,   -0.024,
       -0.071,    0.004,   -0.124,    0.628,    0.129,    0.412,   -0.287,
        0.294,    0.033,    0.054,    0.142,   -0.011,   -0.079,    0.064,
        0.050,    0.264,   -0.298,    0.156,   -0.061,    0.223,   -0.018,
       -1.010,   -0.076,    0.168,    0.462,    0.071,    3.208,    2.250,
        0.780,    1.316,   -3.277,   -0.227,   -1.150,   -0.024,   -1.202,
        1.368,   -0.464,   -4.621,   -1.058
    }
  };


  double netfun(std::vector<double>& in, const double* w)
  {
    double x00 = in[0];
    double x;

    //Layer 1, Node 0
    x = w[0];
    x = x + w[1] * x00;
    double x10 = tanh(x);

    //Layer 1, Node 1
    x = w[2];
    x = x + w[3] * x00;
    double x11 = tanh(x);

    //Layer 1, Node 2
    x = w[4];
    x = x + w[5] * x00;
    double x12 = tanh(x);

    //Layer 1, Node 3
    x = w[6];
    x = x + w[7] * x00;
    double x13 = tanh(x);

    //Layer 1, Node 4
    x = w[8];
    x = x + w[9] * x00;
    double x14 = tanh(x);

    //Layer 1, Node 5
    x = w[10];
    x = x + w[11] * x00;
    double x15 = tanh(x);

    //Layer 1, Node 6
    x = w[12];
    x = x + w[13] * x00;
    double x16 = tanh(x);

    //Layer 1, Node 7
    x = w[14];
    x = x + w[15] * x00;
    double x17 = tanh(x);

    //Layer 1, Node 8
    x = w[16];
    x = x + w[17] * x00;
    double x18 = tanh(x);

    //Layer 1, Node 9
    x = w[18];
    x = x + w[19] * x00;
    double x19 = tanh(x);

    //Layer 1, Node 10
    x = w[20];
    x = x + w[21] * x00;
    double x110 = tanh(x);

    //Layer 1, Node 11
    x = w[22];
    x = x + w[23] * x00;
    double x111 = tanh(x);

    //Layer 1, Node 12
    x = w[24];
    x = x + w[25] * x00;
    double x112 = tanh(x);

    //Layer 1, Node 13
    x = w[26];
    x = x + w[27] * x00;
    double x113 = tanh(x);

    //Layer 1, Node 14
    x = w[28];
    x = x + w[29] * x00;
    double x114 = tanh(x);

    //Layer 2, Node 0
    x = w[30];
    x = x + w[31] * x10;
    x = x + w[32] * x11;
    x = x + w[33] * x12;
    x = x + w[34] * x13;
    x = x + w[35] * x14;
    x = x + w[36] * x15;
    x = x + w[37] * x16;
    x = x + w[38] * x17;
    x = x + w[39] * x18;
    x = x + w[40] * x19;
    x = x + w[41] * x110;
    x = x + w[42] * x111;
    x = x + w[43] * x112;
    x = x + w[44] * x113;
    x = x + w[45] * x114;
    double x20 = 1.0/(1.0+exp(-x));
    return x20;
  }
}; // End anonymous namespace

//-----------------------------------------------------------------------------
// Compute average over networks. Default is to use all networks
//-----------------------------------------------------------------------------

double HT250_MHT60_v2_HT250_v2_161205_163268_sel2(std::vector<double>& inputvars,
                                                  int first=0,
                                                  int last=nnetworks-1)
{
  if ( first < 0 ) first = 0;
  if ( last  < 0 ) last  = nnetworks-1;
  if ( last  > nnetworks-1 ) last = nnetworks-1;
  if ( first > last )
    {
      std::cerr << "** HT250_MHT60_v2_HT250_v2_161205_163268_sel2 ** first-index > last-index"
                << std::endl; exit(3);
    }

  // Compute average over networks
  std::vector<double> in(ninputs);
  in[0] = (inputvars[0] - mean[0]) / sigma[0];

  int   n = last - first + 1;
  double x = 0.0;
  for(int i=first; i <= last; i++) x += netfun(in, weight[i]);
  return x / n;
}

extern "C" double HT250_MHT60_v2_HT250_v2_161205_163268_sel2_dl(std::vector<double>& in,
                                                                int first=0,
                                                                int last=nnetworks-1)
{
  return HT250_MHT60_v2_HT250_v2_161205_163268_sel2(in, first, last);
}

extern "C" double HT250_MHT60_v2_HT250_v2_161205_163268_sel2_dl2(double* in,
                                                                 int first=0,
                                                                 int last=nnetworks-1)
{
  std::vector<double> invec;

  invec.push_back(in[0]);

  return HT250_MHT60_v2_HT250_v2_161205_163268_sel2(invec, first, last);
}
