//-----------------------------------------------------------------------------
// Network: HT250_MHT60_v3_HT250_v3_163269_164923_sel2
// Inputs:
//                                                  Offset       Scale
//    offlinevar                                 2.365e+01   1.590e+01
//
// Created: Mon Jan 23 06:18:38 2012
//-----------------------------------------------------------------------------
#include <cmath>
#include <vector>
#include <iostream>
#include <stdlib.h>
//-----------------------------------------------------------------------------
// Make following visible only to this programming unit
namespace {
  // NOTE: Network indices start at 0
  static const int nnetworks=100;
  static const int ninputs  =1;
  static const int nhidden  =15;
  static const int nparams  =46;

  static const double mean[ninputs]={
  2.36500e+01
  };

  static const double sigma[ninputs]={
  1.59000e+01
  };

  static const double weight[nnetworks][nparams]={
    {   0.608,    0.128,    0.958,    0.021,   -0.620,    0.116,   -0.429,
        0.037,    0.773,    0.086,   -0.127,   -0.085,   -0.364,    0.044,
       -0.540,   -0.011,   -0.876,    0.048,   -1.832,    0.088,   -0.129,
       -0.005,    0.760,    0.067,   -1.659,    0.031,    1.740,    0.055,
        0.893,   -0.000,    2.681,    2.692,   -0.706,    6.991,   -1.118,
       -2.071,   -1.852,   -4.906,   -1.300,   -3.714,    2.579,   -2.602,
       -2.257,    0.937,   -0.406,   -1.143
    },
    {   0.584,    0.059,    1.067,    0.185,   -0.654,    0.151,   -0.373,
       -0.026,    0.633,    0.113,   -0.253,   -0.057,   -0.458,   -0.004,
       -0.519,    0.044,   -1.050,    0.179,   -1.842,    0.143,   -0.225,
       -0.093,    0.814,    0.068,   -1.748,   -0.017,    1.456,    0.100,
        0.920,   -0.029,    2.197,    2.445,   -1.025,    6.215,   -1.097,
       -2.459,   -1.599,   -5.584,   -0.846,   -3.756,    2.692,   -2.542,
       -2.054,    1.160,   -0.361,   -1.424
    },
    {   0.399,    0.049,    0.992,    0.002,   -0.610,    0.163,   -0.403,
       -0.005,    0.691,   -0.104,   -0.213,   -0.086,   -0.294,    0.108,
       -0.526,    0.024,   -1.120,    0.093,   -1.735,   -0.008,   -0.205,
       -0.090,    0.756,    0.058,   -1.636,   -0.013,    1.360,    0.082,
        1.023,    0.160,    2.557,    2.296,   -1.376,    5.923,   -1.845,
       -2.280,   -1.596,   -5.658,   -0.444,   -4.001,    3.151,   -2.607,
       -1.759,    0.811,   -0.100,   -1.429
    },
    {   0.237,   -0.002,    0.887,    0.021,   -0.685,    0.082,   -0.445,
       -0.123,    0.574,   -0.046,   -0.294,    0.072,   -0.161,    0.012,
       -0.522,   -0.003,   -0.906,   -0.022,   -1.821,   -0.088,   -0.315,
        0.008,    0.854,   -0.038,   -1.731,   -0.031,    1.519,    0.084,
        1.044,   -0.148,    2.782,    2.768,   -0.896,    6.037,   -2.205,
       -2.300,   -1.636,   -6.199,   -0.030,   -3.814,    2.978,   -2.239,
       -1.430,    0.635,   -0.215,   -0.966
    },
    {   0.259,    0.084,    0.925,    0.035,   -0.627,    0.158,   -0.179,
       -0.144,    0.486,   -0.021,   -0.535,    0.234,   -0.191,    0.025,
       -0.476,   -0.069,   -1.094,   -0.030,   -1.748,   -0.144,   -0.324,
        0.135,    0.655,    0.056,   -1.716,   -0.142,    1.342,    0.140,
        1.006,   -0.077,    2.613,    2.720,   -1.118,    6.549,   -1.582,
       -2.019,   -1.152,   -5.738,    0.342,   -4.107,    2.326,   -2.551,
       -2.394,    1.169,    0.197,   -1.103
    },
    {  -0.089,   -0.280,    0.953,   -0.034,   -0.483,    0.039,    0.049,
       -0.007,    0.609,   -0.016,   -0.368,    0.029,   -0.253,   -0.122,
       -0.620,   -0.013,   -0.968,   -0.125,   -1.593,   -0.135,   -0.358,
       -0.063,    0.720,   -0.101,   -1.864,    0.023,    1.832,    0.011,
        1.283,   -0.031,    3.764,    3.221,   -0.922,    6.323,   -1.770,
       -2.117,   -1.236,   -5.631,   -0.572,   -4.404,    2.598,   -2.461,
       -1.991,    0.459,   -0.885,   -1.925
    },
    {  -0.233,   -0.204,    0.994,    0.017,   -0.453,   -0.027,   -0.004,
        0.009,    0.607,   -0.137,   -0.532,   -0.156,   -0.199,   -0.122,
       -0.618,    0.083,   -0.995,    0.005,   -1.334,   -0.180,   -0.481,
       -0.056,    0.462,   -0.157,   -1.793,    0.190,    1.947,    0.032,
        1.196,   -0.004,    3.408,    3.371,   -1.121,    6.528,   -1.869,
       -2.346,   -1.146,   -5.736,   -0.376,   -4.370,    2.323,   -2.393,
       -1.942,    0.688,   -0.907,   -1.528
    },
    {  -0.101,   -0.064,    1.043,    0.101,   -0.567,    0.011,   -0.028,
       -0.006,    0.656,   -0.107,   -0.527,    0.092,   -0.103,   -0.094,
       -0.732,    0.094,   -1.045,    0.007,   -1.210,   -0.022,   -0.536,
       -0.017,    0.426,   -0.060,   -1.762,    0.128,    2.073,   -0.046,
        1.215,   -0.078,    3.512,    3.360,   -0.973,    6.449,   -2.053,
       -2.190,   -1.125,   -5.344,   -0.715,   -4.337,    2.571,   -2.498,
       -1.975,    0.681,   -0.806,   -1.456
    },
    {  -0.091,   -0.154,    1.187,    0.004,   -0.553,   -0.017,   -0.047,
       -0.084,    0.684,   -0.041,   -0.556,    0.025,    0.235,   -0.145,
       -0.803,   -0.014,   -0.976,   -0.141,   -1.267,    0.240,   -0.375,
        0.071,    0.456,    0.135,   -1.668,   -0.194,    2.501,    0.102,
        1.347,    0.015,    3.622,    3.671,   -0.666,    6.070,   -2.544,
       -2.528,   -1.585,   -5.691,   -1.254,   -4.616,    2.175,   -1.949,
       -2.026,    0.073,   -0.799,   -0.947
    },
    {  -0.230,    0.188,    1.050,   -0.144,   -0.202,    0.166,   -0.063,
        0.066,    0.679,    0.161,   -0.678,   -0.156,    0.527,    0.108,
       -0.801,   -0.005,   -0.821,    0.049,   -1.420,   -0.015,   -0.356,
        0.054,    0.425,    0.162,   -1.569,   -0.242,    2.715,    0.120,
        1.326,    0.039,    3.359,    3.336,   -0.833,    6.391,   -2.282,
       -2.995,   -2.138,   -5.679,   -1.329,   -4.808,    1.554,   -2.112,
       -1.661,    0.126,   -0.985,   -1.089
    },
    {  -0.304,    0.094,    0.967,   -0.110,   -0.035,    0.112,   -0.109,
       -0.005,    0.631,    0.077,   -0.681,   -0.077,    0.658,    0.094,
       -0.696,   -0.071,   -0.780,   -0.043,   -1.352,    0.051,   -0.384,
        0.029,    0.691,    0.130,   -1.686,   -0.275,    2.632,    0.085,
        1.411,    0.011,    3.443,    2.511,   -1.079,    6.148,   -2.470,
       -3.101,   -1.841,   -5.823,   -1.195,   -4.949,    1.091,   -2.897,
       -1.962,    0.253,   -0.993,   -1.333
    },
    {  -0.219,   -0.010,    1.094,   -0.064,   -0.088,    0.106,    0.060,
        0.001,    0.520,    0.088,   -0.714,   -0.001,    0.663,   -0.055,
       -0.705,   -0.130,   -0.852,    0.018,   -1.270,    0.020,   -0.376,
        0.095,    0.666,   -0.012,   -1.657,   -0.175,    2.612,   -0.002,
        1.241,   -0.025,    3.192,    2.868,   -1.323,    6.190,   -2.053,
       -2.863,   -2.261,   -5.632,   -0.963,   -5.294,    0.718,   -2.451,
       -1.980,    0.073,   -1.413,   -1.223
    },
    {   0.010,   -0.082,    1.149,    0.137,    0.057,    0.010,   -0.028,
       -0.041,    0.445,    0.015,   -0.660,   -0.012,    0.796,   -0.095,
       -0.679,   -0.019,   -0.755,   -0.054,   -1.376,    0.212,   -0.384,
       -0.063,    0.742,   -0.014,   -1.757,    0.036,    2.636,    0.028,
        1.252,   -0.034,    3.197,    3.003,   -1.550,    6.283,   -2.234,
       -2.196,   -2.477,   -5.901,   -0.687,   -4.992,    0.570,   -2.686,
       -2.374,    0.406,   -1.811,   -1.124
    },
    {  -0.070,    0.113,    1.236,    0.103,   -0.038,   -0.004,   -0.184,
        0.033,    0.398,   -0.157,   -0.594,   -0.003,    0.803,   -0.021,
       -0.719,   -0.062,   -0.906,    0.070,   -1.374,    0.144,   -0.404,
        0.003,    0.603,    0.039,   -1.758,    0.095,    2.539,   -0.075,
        1.382,   -0.134,    3.186,    2.883,   -0.689,    5.928,   -2.099,
       -2.252,   -2.301,   -5.820,   -1.007,   -4.362,    0.964,   -2.697,
       -2.695,   -0.073,   -2.125,   -1.194
    },
    {  -0.256,    0.039,    1.399,   -0.128,    0.119,    0.040,   -0.174,
       -0.008,    0.496,    0.033,   -0.693,    0.041,    0.840,   -0.052,
       -0.859,    0.055,   -1.073,   -0.071,   -1.423,   -0.094,   -0.636,
        0.020,    0.455,   -0.016,   -1.721,   -0.037,    2.634,   -0.072,
        1.531,    0.040,    2.641,    2.771,   -0.790,    6.182,   -2.669,
       -2.657,   -2.143,   -5.755,   -0.627,   -4.187,    1.240,   -2.573,
       -2.219,    0.095,   -1.890,   -1.423
    },
    {  -0.157,   -0.185,    1.290,   -0.022,    0.051,    0.124,   -0.302,
        0.011,    0.531,   -0.078,   -0.937,   -0.011,    1.129,   -0.129,
       -0.846,    0.082,   -0.854,    0.008,   -1.507,   -0.042,   -0.447,
        0.031,    0.452,    0.032,   -1.867,    0.060,    2.382,   -0.050,
        1.394,    0.045,    2.981,    2.860,   -1.122,    5.920,   -2.870,
       -2.742,   -2.492,   -5.241,   -0.951,   -4.553,    0.869,   -2.186,
       -2.906,    0.425,   -1.819,   -1.165
    },
    {  -0.134,   -0.006,    1.232,    0.079,    0.177,    0.053,   -0.158,
        0.047,    0.579,   -0.118,   -1.005,   -0.118,    1.099,    0.215,
       -0.670,   -0.166,   -0.832,   -0.050,   -1.731,   -0.108,   -0.566,
       -0.060,    0.545,    0.010,   -1.647,   -0.105,    2.483,    0.072,
        1.464,   -0.137,    2.803,    3.011,   -0.576,    5.718,   -2.352,
       -2.493,   -2.179,   -5.327,   -0.831,   -4.453,    1.340,   -2.658,
       -2.744,    0.359,   -1.654,   -1.386
    },
    {   0.012,    0.112,    1.358,   -0.056,    0.184,    0.034,   -0.241,
       -0.099,    0.555,    0.093,   -1.075,   -0.110,    1.262,    0.187,
       -0.797,   -0.032,   -0.593,   -0.040,   -1.749,   -0.093,   -0.519,
       -0.102,    0.648,    0.052,   -1.740,    0.055,    2.363,   -0.110,
        1.519,   -0.021,    3.353,    2.658,   -0.416,    5.422,   -2.332,
       -2.715,   -2.067,   -5.378,   -1.376,   -3.966,    1.648,   -2.449,
       -2.947,    0.295,   -1.500,   -1.172
    },
    {  -0.064,    0.037,    1.253,   -0.085,    0.171,    0.118,   -0.264,
       -0.118,    0.540,   -0.012,   -0.891,    0.046,    1.270,    0.167,
       -0.733,   -0.069,   -0.778,   -0.038,   -1.460,   -0.008,   -0.579,
       -0.019,    0.521,    0.201,   -1.883,   -0.047,    2.388,    0.000,
        1.678,   -0.089,    3.339,    2.615,   -0.811,    6.044,   -2.079,
       -2.621,   -1.918,   -5.413,   -1.191,   -3.578,    1.899,   -2.809,
       -2.920,   -0.336,   -1.680,   -1.260
    },
    {  -0.086,    0.152,    1.069,    0.064,    0.166,   -0.015,   -0.211,
       -0.040,    0.432,   -0.028,   -0.946,   -0.084,    1.359,   -0.143,
       -0.638,    0.029,   -0.754,    0.063,   -1.321,   -0.053,   -0.823,
       -0.079,    0.602,    0.024,   -2.014,    0.091,    2.486,   -0.023,
        1.692,   -0.046,    2.980,    2.598,   -1.361,    6.049,   -2.000,
       -1.934,   -1.952,   -5.160,   -1.581,   -3.403,    1.399,   -2.598,
       -2.098,    0.015,   -1.946,   -1.446
    },
    {  -0.079,    0.118,    1.251,   -0.047,    0.301,   -0.009,   -0.071,
        0.020,    0.617,    0.058,   -0.833,   -0.031,    1.292,   -0.165,
       -0.404,    0.046,   -0.716,    0.077,   -1.280,    0.122,   -0.841,
       -0.106,    0.605,   -0.116,   -1.926,    0.078,    2.506,    0.028,
        1.723,    0.030,    3.452,    2.562,   -1.619,    6.572,   -2.216,
       -2.168,   -1.985,   -5.108,   -1.713,   -3.900,    0.751,   -2.669,
       -2.150,   -0.030,   -2.218,   -2.358
    },
    {   0.018,   -0.005,    1.064,   -0.015,    0.202,    0.062,    0.020,
        0.015,    0.770,   -0.109,   -0.898,    0.016,    1.151,    0.081,
       -0.281,   -0.048,   -0.703,   -0.017,   -1.118,   -0.103,   -0.938,
       -0.044,    0.513,   -0.051,   -1.745,    0.002,    2.785,    0.031,
        1.424,   -0.004,    2.594,    2.810,   -1.172,    6.383,   -2.362,
       -1.834,   -1.960,   -5.131,   -1.168,   -4.364,    0.848,   -2.815,
       -1.743,    0.071,   -2.080,   -2.145
    },
    {   0.150,    0.008,    1.067,   -0.050,    0.123,    0.053,   -0.221,
        0.042,    0.708,   -0.012,   -0.916,   -0.051,    1.382,    0.020,
       -0.385,   -0.073,   -0.678,   -0.050,   -0.782,    0.036,   -0.863,
       -0.035,    0.341,    0.054,   -1.406,   -0.045,    2.530,    0.028,
        1.267,    0.082,    2.505,    3.276,   -0.907,    6.469,   -1.457,
       -2.156,   -1.851,   -5.197,   -0.766,   -4.629,    1.276,   -2.639,
       -1.033,   -0.154,   -2.313,   -2.319
    },
    {   0.027,    0.078,    1.060,    0.069,    0.324,   -0.045,   -0.265,
       -0.032,    0.728,    0.019,   -0.935,   -0.062,    1.404,   -0.113,
       -0.365,    0.043,   -0.595,   -0.050,   -1.046,    0.049,   -0.859,
       -0.078,    0.257,   -0.006,   -1.597,   -0.170,    2.576,    0.009,
        1.301,   -0.020,    3.001,    3.217,   -0.895,    5.498,   -1.318,
       -2.516,   -1.863,   -5.466,   -0.590,   -4.543,    1.377,   -3.029,
       -1.143,    0.231,   -2.160,   -2.396
    },
    {  -0.186,    0.098,    0.839,   -0.013,    0.367,   -0.012,   -0.355,
        0.023,    0.727,   -0.133,   -0.963,    0.012,    1.193,   -0.028,
       -0.443,    0.030,   -0.714,    0.005,   -1.319,   -0.023,   -0.777,
       -0.052,    0.638,    0.036,   -1.451,   -0.042,    2.728,   -0.011,
        1.102,    0.007,    2.834,    3.431,   -1.051,    5.126,   -1.030,
       -2.504,   -2.109,   -5.545,   -1.065,   -4.200,    1.760,   -2.900,
       -0.722,   -0.387,   -2.103,   -2.227
    },
    {  -0.325,    0.105,    0.764,    0.080,    0.234,    0.009,   -0.606,
        0.055,    0.659,   -0.012,   -0.948,   -0.029,    1.441,   -0.023,
       -0.468,   -0.032,   -0.785,   -0.026,   -1.276,   -0.019,   -0.709,
       -0.026,    0.702,    0.021,   -1.536,   -0.078,    2.780,   -0.063,
        1.071,    0.028,    2.902,    3.003,   -1.186,    5.068,   -0.188,
       -2.617,   -2.287,   -5.461,   -1.222,   -5.074,    1.579,   -3.191,
       -0.611,   -0.801,   -2.279,   -2.304
    },
    {  -0.489,    0.151,    0.733,    0.037,    0.361,   -0.054,   -0.686,
       -0.036,    0.623,   -0.132,   -1.123,   -0.032,    1.328,    0.121,
       -0.724,   -0.119,   -0.678,   -0.036,   -1.375,   -0.123,   -0.544,
       -0.041,    0.911,    0.094,   -1.640,   -0.029,    3.014,   -0.202,
        1.304,    0.021,    3.345,    3.231,   -1.380,    5.209,   -0.369,
       -2.744,   -2.184,   -5.718,   -0.861,   -5.457,    1.246,   -3.529,
       -0.945,   -0.315,   -2.388,   -1.832
    },
    {  -0.399,    0.036,    0.730,   -0.049,    0.236,    0.012,   -0.773,
       -0.091,    0.557,   -0.063,   -1.360,    0.027,    1.367,   -0.107,
       -0.727,    0.048,   -0.606,    0.034,   -1.300,    0.009,   -0.627,
       -0.071,    0.795,    0.074,   -1.584,   -0.063,    3.078,   -0.107,
        1.404,    0.025,    3.454,    3.768,   -1.867,    5.425,   -0.832,
       -2.623,   -1.917,   -5.739,   -0.662,   -5.274,    1.482,   -3.264,
       -1.003,   -0.085,   -1.757,   -1.158
    },
    {  -0.848,    0.009,    0.736,   -0.009,    0.351,    0.053,   -0.380,
        0.009,    0.301,   -0.055,   -0.860,   -0.020,    1.154,    0.093,
       -0.558,    0.012,   -0.820,   -0.050,   -1.713,    0.034,   -0.471,
       -0.022,    0.898,    0.023,   -1.166,   -0.050,    2.766,   -0.021,
        1.455,   -0.106,    4.326,    3.846,   -1.566,    5.860,   -0.808,
       -2.746,   -1.695,   -5.760,   -0.884,   -5.485,    1.283,   -2.622,
       -1.240,   -0.307,   -2.341,   -1.438
    },
    {  -0.787,   -0.007,    0.634,   -0.022,    0.393,    0.031,   -0.601,
        0.005,    0.335,   -0.020,   -0.751,    0.003,    0.935,   -0.043,
       -0.238,    0.014,   -0.560,   -0.023,   -1.779,   -0.040,   -0.354,
       -0.035,    1.092,   -0.018,   -1.209,   -0.001,    2.542,   -0.014,
        1.399,   -0.009,    4.337,    3.782,   -1.330,    5.932,   -0.635,
       -2.561,   -1.560,   -5.659,   -0.588,   -5.627,    1.102,   -2.605,
       -1.384,    0.429,   -1.816,   -0.959
    },
    {  -1.028,    0.086,    0.682,    0.029,    0.525,    0.064,   -0.449,
       -0.038,    0.400,    0.003,   -0.910,    0.001,    1.040,   -0.003,
       -0.241,   -0.008,   -0.663,   -0.013,   -1.966,    0.024,   -0.412,
       -0.034,    1.031,   -0.008,   -1.115,   -0.009,    2.566,    0.025,
        1.555,   -0.022,    4.027,    3.505,   -1.017,    5.332,   -0.687,
       -2.557,   -1.681,   -5.598,   -0.561,   -5.650,    1.077,   -2.440,
       -0.931,    0.002,   -2.219,   -1.536
    },
    {  -0.851,    0.008,    0.343,   -0.036,    0.417,    0.024,   -0.200,
       -0.056,    0.455,   -0.074,   -0.832,   -0.059,    1.110,   -0.029,
       -0.124,    0.003,   -0.797,    0.004,   -1.919,    0.033,   -0.177,
       -0.047,    1.179,   -0.015,   -0.929,   -0.017,    2.475,   -0.008,
        1.529,   -0.005,    4.599,    3.047,   -0.718,    5.685,   -0.190,
       -3.186,   -1.484,   -5.505,   -0.478,   -5.050,    0.910,   -2.067,
       -1.011,   -0.188,   -2.240,   -1.422
    },
    {  -0.709,   -0.032,    0.463,   -0.034,    0.412,   -0.015,   -0.342,
        0.057,    0.528,   -0.072,   -0.807,    0.046,    0.979,   -0.109,
       -0.138,   -0.054,   -0.574,   -0.031,   -2.042,   -0.034,   -0.215,
       -0.021,    0.855,   -0.078,   -0.847,    0.013,    2.464,    0.079,
        1.650,   -0.009,    4.722,    3.006,   -0.914,    5.661,   -0.057,
       -3.307,   -1.932,   -5.543,   -0.437,   -5.607,    1.260,   -2.835,
       -1.079,   -0.157,   -2.382,   -1.294
    },
    {  -0.584,    0.029,    0.446,   -0.035,    0.345,    0.047,   -0.216,
        0.008,    0.401,   -0.054,   -0.840,    0.031,    1.015,    0.013,
       -0.053,   -0.063,   -0.556,    0.011,   -2.036,   -0.091,   -0.371,
       -0.022,    0.739,   -0.095,   -0.582,   -0.071,    2.414,   -0.025,
        1.694,    0.002,    4.468,    3.451,   -0.893,    6.431,   -0.106,
       -3.354,   -1.740,   -6.096,   -0.108,   -5.724,    1.165,   -2.625,
       -1.510,   -0.197,   -2.193,   -0.992
    },
    {  -0.610,    0.014,    0.472,   -0.026,    0.397,    0.052,   -0.312,
       -0.088,    0.164,    0.005,   -0.711,   -0.011,    0.886,   -0.033,
       -0.082,   -0.016,   -0.641,   -0.014,   -1.761,   -0.109,   -0.276,
        0.005,    0.700,   -0.046,   -0.518,   -0.014,    2.340,   -0.010,
        1.670,   -0.017,    4.326,    2.885,   -1.033,    6.052,   -0.398,
       -3.459,   -1.063,   -5.926,    0.294,   -5.547,    1.223,   -2.474,
       -1.637,   -0.278,   -2.733,   -1.313
    },
    {  -0.664,    0.075,    0.603,   -0.032,    0.402,    0.001,   -0.306,
       -0.006,    0.190,   -0.046,   -0.472,    0.004,    0.850,   -0.033,
       -0.143,   -0.060,   -0.554,   -0.027,   -1.764,    0.001,   -0.244,
       -0.007,    0.962,    0.032,   -0.677,   -0.021,    2.417,    0.037,
        1.714,    0.095,    4.946,    3.369,   -1.579,    6.509,   -0.352,
       -3.223,   -1.082,   -5.654,    0.522,   -5.524,    0.764,   -2.274,
       -1.892,   -0.386,   -2.411,   -1.353
    },
    {  -0.541,    0.018,    0.472,   -0.011,    0.508,    0.038,   -0.425,
        0.047,    0.439,   -0.047,   -0.419,   -0.053,    0.618,   -0.021,
       -0.575,    0.015,   -0.178,   -0.012,   -1.735,    0.067,   -0.331,
        0.018,    0.739,    0.002,   -0.578,    0.017,    2.309,    0.045,
        1.730,    0.009,    5.019,    3.147,   -1.656,    6.944,   -0.568,
       -2.851,   -1.636,   -6.022,    0.905,   -5.238,    0.874,   -2.710,
       -1.615,   -0.768,   -2.088,   -1.850
    },
    {  -0.647,   -0.015,    0.705,   -0.071,    0.467,    0.016,   -0.586,
       -0.019,    0.331,   -0.051,   -0.307,   -0.064,    0.438,   -0.064,
       -0.586,   -0.049,   -0.145,    0.072,   -1.845,    0.090,   -0.146,
       -0.054,    0.528,   -0.023,   -0.740,    0.045,    2.418,    0.129,
        1.992,   -0.018,    5.159,    2.619,   -1.287,    6.792,   -0.981,
       -3.938,   -1.307,   -5.791,    0.773,   -4.651,    0.985,   -2.504,
       -1.468,   -0.786,   -2.209,   -2.009
    },
    {  -0.527,   -0.060,    0.376,    0.043,    0.431,    0.040,   -0.394,
        0.093,    0.378,   -0.041,   -0.465,    0.055,    0.801,   -0.107,
       -0.620,    0.119,   -0.303,   -0.032,   -1.895,    0.023,   -0.153,
        0.080,    0.819,   -0.022,   -0.612,   -0.052,    2.224,    0.015,
        1.859,    0.152,    5.142,    2.885,   -1.244,    6.783,   -1.130,
       -4.037,   -1.585,   -5.637,    0.876,   -5.382,    1.273,   -2.483,
       -1.295,   -0.919,   -1.744,   -1.796
    },
    {  -0.488,    0.014,    0.347,    0.016,    0.586,    0.035,   -0.289,
        0.148,    0.493,   -0.052,   -0.322,   -0.007,    0.766,   -0.116,
       -0.547,    0.043,   -0.357,   -0.047,   -1.802,   -0.020,   -0.209,
        0.067,    0.907,    0.143,   -0.498,   -0.036,    2.183,   -0.018,
        1.806,    0.163,    5.086,    3.033,   -0.919,    6.629,   -1.203,
       -3.950,   -1.957,   -5.162,    0.607,   -5.127,    1.275,   -2.390,
       -1.452,   -0.255,   -1.894,   -2.396
    },
    {  -0.424,   -0.148,    0.536,   -0.066,    0.571,    0.042,   -0.015,
       -0.044,    0.500,   -0.014,   -0.129,   -0.184,    0.816,   -0.091,
       -0.468,   -0.047,   -0.435,    0.013,   -1.779,    0.004,   -0.168,
       -0.024,    0.798,   -0.186,   -0.591,    0.007,    2.244,    0.047,
        1.759,    0.034,    5.024,    3.150,   -0.709,    6.501,   -0.879,
       -3.699,   -1.320,   -5.259,    0.214,   -5.366,    1.168,   -1.800,
       -0.793,   -0.235,   -2.220,   -2.158
    },
    {  -0.425,   -0.168,    0.459,   -0.007,    0.607,    0.009,   -0.194,
       -0.075,    0.466,   -0.026,   -0.093,   -0.010,    0.777,   -0.095,
       -0.393,   -0.085,   -0.396,   -0.082,   -1.664,    0.077,   -0.169,
       -0.015,    0.937,   -0.078,   -0.428,   -0.023,    2.100,    0.027,
        1.664,    0.054,    5.456,    3.061,   -1.348,    6.628,   -0.600,
       -3.716,   -1.059,   -4.971,    0.058,   -5.444,    1.809,   -1.747,
       -0.672,   -0.087,   -2.133,   -2.483
    },
    {  -0.570,   -0.028,    0.443,    0.030,    0.567,    0.014,   -0.105,
       -0.065,    0.561,   -0.060,    0.147,    0.038,    0.800,   -0.093,
       -0.439,   -0.022,   -0.445,   -0.014,   -1.679,    0.159,   -0.257,
        0.022,    1.057,   -0.104,   -0.313,   -0.039,    2.017,   -0.066,
        1.750,    0.048,    5.501,    3.096,   -1.341,    6.139,   -0.865,
       -3.280,   -0.634,   -4.575,    0.048,   -5.896,    1.669,   -2.148,
       -0.679,    0.147,   -2.201,   -2.198
    },
    {  -0.708,   -0.130,    0.405,   -0.138,    0.382,   -0.041,   -0.164,
       -0.110,    0.365,   -0.054,    0.018,    0.087,    0.660,   -0.081,
       -0.395,   -0.041,   -0.650,   -0.037,   -1.728,    0.143,   -0.080,
       -0.015,    0.923,   -0.098,   -0.356,   -0.058,    2.167,    0.050,
        1.746,   -0.001,    5.808,    3.286,   -1.887,    5.882,   -0.901,
       -3.238,   -0.895,   -4.799,   -0.561,   -5.436,    1.592,   -2.546,
       -0.956,    0.294,   -2.261,   -2.177
    },
    {  -0.510,    0.038,    0.475,   -0.054,    0.404,   -0.053,   -0.138,
       -0.090,    0.491,   -0.117,   -0.281,    0.014,    0.770,   -0.088,
       -0.651,    0.034,   -0.435,   -0.017,   -1.720,    0.040,   -0.168,
        0.055,    0.841,   -0.063,   -0.312,   -0.029,    2.098,    0.093,
        1.436,    0.077,    5.502,    3.151,   -1.644,    6.073,   -0.900,
       -3.908,   -1.568,   -4.555,   -0.447,   -5.398,    1.319,   -2.421,
       -0.699,    0.609,   -2.042,   -2.250
    },
    {  -0.537,    0.032,    0.811,   -0.053,    0.676,    0.013,   -0.003,
       -0.070,    0.558,    0.011,   -0.192,   -0.006,    0.853,   -0.054,
       -0.645,    0.045,   -0.506,   -0.018,   -1.566,   -0.053,    0.006,
       -0.028,    0.880,   -0.031,   -0.668,   -0.002,    2.380,    0.045,
        1.741,   -0.022,    5.946,    2.926,   -1.606,    6.013,   -1.929,
       -3.767,   -0.491,   -4.675,   -0.597,   -5.123,    1.439,   -2.020,
       -1.297,   -0.138,   -1.970,   -2.239
    },
    {  -0.467,    0.074,    0.803,    0.044,    0.758,    0.038,    0.101,
       -0.027,    0.657,    0.072,   -0.069,    0.003,    0.826,   -0.099,
       -0.765,    0.017,   -0.367,   -0.006,   -1.512,   -0.002,    0.053,
       -0.038,    0.854,   -0.049,   -0.579,    0.031,    2.242,    0.035,
        1.627,    0.000,    6.139,    2.123,   -1.798,    6.379,   -1.794,
       -3.282,   -0.107,   -4.201,   -0.663,   -5.234,    1.504,   -1.711,
       -1.661,   -0.048,   -2.082,   -2.653
    },
    {  -0.595,   -0.039,    0.860,   -0.028,    0.642,    0.001,    0.197,
       -0.025,    0.492,   -0.036,   -0.229,   -0.024,    0.682,   -0.063,
       -0.659,    0.019,   -0.254,   -0.062,   -1.616,   -0.011,    0.098,
        0.010,    0.732,    0.062,   -0.326,   -0.057,    2.149,    0.006,
        1.468,   -0.010,    6.018,    2.217,   -1.989,    6.685,   -1.649,
       -3.388,   -0.622,   -4.298,   -1.212,   -5.121,    1.544,   -1.500,
       -1.293,    0.017,   -2.027,   -2.352
    },
    {  -0.554,    0.044,    0.610,    0.017,    0.402,    0.009,    0.234,
       -0.070,    0.476,   -0.010,   -0.224,    0.025,    0.611,   -0.114,
       -0.819,   -0.032,   -0.305,    0.023,   -1.747,   -0.025,   -0.033,
       -0.002,    0.856,   -0.007,   -0.373,    0.005,    2.121,    0.037,
        1.709,    0.032,    6.068,    2.531,   -1.611,    6.343,   -1.266,
       -3.560,   -0.507,   -4.853,   -1.384,   -5.352,    1.186,   -1.406,
       -1.300,   -0.414,   -2.038,   -2.376
    },
    {  -0.526,   -0.163,    0.834,    0.050,    0.639,    0.045,    0.282,
        0.089,    0.465,   -0.190,   -0.142,   -0.000,    0.867,   -0.010,
       -0.633,    0.156,   -0.357,   -0.046,   -1.891,   -0.058,    0.007,
       -0.069,    0.918,    0.026,   -0.553,   -0.075,    1.957,    0.013,
        1.583,   -0.049,    6.166,    2.628,   -1.344,    5.931,   -1.484,
       -3.515,    0.155,   -4.492,   -1.147,   -5.268,    1.077,   -1.461,
       -1.456,   -0.275,   -1.763,   -2.839
    },
    {  -0.380,    0.156,    0.917,    0.006,    0.867,   -0.018,    0.386,
        0.100,    0.477,   -0.068,   -0.256,    0.115,    1.100,   -0.042,
       -0.616,   -0.123,   -0.336,   -0.003,   -1.820,    0.151,   -0.083,
        0.019,    0.910,    0.112,   -0.768,    0.160,    1.924,   -0.083,
        1.592,   -0.190,    6.323,    2.740,   -1.346,    6.324,   -1.923,
       -3.551,    0.234,   -4.612,   -0.748,   -5.497,    1.231,   -2.145,
       -1.564,   -0.496,   -1.981,   -3.064
    },
    {  -0.339,    0.127,    1.021,   -0.036,    0.842,   -0.073,    0.454,
        0.145,    0.557,   -0.078,   -0.232,    0.075,    1.048,   -0.091,
       -0.681,   -0.182,   -0.343,    0.007,   -1.822,    0.029,   -0.010,
       -0.117,    0.916,    0.126,   -0.669,    0.081,    1.957,   -0.077,
        1.625,   -0.134,    6.896,    2.690,   -1.535,    5.921,   -1.729,
       -2.757,    0.334,   -5.075,   -0.754,   -4.998,    0.822,   -1.715,
       -1.781,   -0.242,   -1.860,   -2.942
    },
    {  -0.601,    0.123,    1.010,   -0.070,    0.910,    0.008,    0.245,
        0.072,    0.459,   -0.046,   -0.344,    0.121,    0.795,    0.058,
       -0.699,    0.073,   -0.236,   -0.024,   -1.845,    0.175,    0.042,
       -0.062,    0.927,    0.038,   -0.592,    0.032,    2.025,    0.024,
        1.486,   -0.141,    6.867,    2.733,   -1.748,    6.016,   -1.592,
       -3.159,    0.632,   -5.249,   -1.390,   -4.677,    0.735,   -2.256,
       -1.413,   -0.137,   -2.248,   -2.830
    },
    {  -0.676,   -0.070,    0.877,   -0.115,    0.838,   -0.021,    0.000,
        0.206,    0.319,   -0.107,   -0.262,    0.075,    0.895,    0.017,
       -0.657,    0.000,   -0.247,   -0.100,   -1.944,    0.068,    0.050,
       -0.136,    0.836,    0.091,   -0.563,    0.037,    2.094,   -0.001,
        1.636,   -0.034,    6.646,    2.967,   -1.404,    6.383,   -1.631,
       -3.038,    0.039,   -5.349,   -1.705,   -4.145,    0.676,   -2.656,
       -2.076,   -0.656,   -2.955,   -2.527
    },
    {  -0.664,   -0.146,    0.894,    0.005,    0.708,    0.022,   -0.243,
        0.163,    0.402,   -0.144,   -0.188,    0.289,    1.042,   -0.049,
       -1.011,   -0.016,   -0.378,   -0.038,   -1.879,   -0.072,    0.070,
       -0.060,    1.025,    0.065,   -0.621,   -0.167,    2.169,   -0.085,
        1.624,    0.063,    6.585,    2.881,   -1.211,    6.185,   -1.390,
       -3.071,    0.115,   -5.448,   -1.478,   -4.160,    0.536,   -2.978,
       -1.894,   -0.861,   -2.862,   -2.638
    },
    {  -0.653,   -0.097,    0.848,   -0.019,    0.766,    0.027,   -0.273,
        0.056,    0.553,   -0.106,   -0.081,    0.051,    0.856,   -0.036,
       -0.905,    0.007,   -0.461,   -0.067,   -1.791,   -0.091,   -0.070,
        0.007,    0.892,   -0.083,   -0.864,   -0.055,    2.057,   -0.017,
        1.675,   -0.115,    6.533,    3.083,   -1.581,    6.297,   -1.152,
       -3.110,    0.205,   -5.767,   -1.603,   -3.835,    0.453,   -2.428,
       -1.949,   -0.387,   -3.339,   -2.404
    },
    {  -0.673,   -0.017,    1.105,    0.036,    0.667,   -0.018,   -0.061,
       -0.023,    0.504,   -0.101,   -0.069,   -0.009,    0.794,   -0.087,
       -0.748,    0.015,   -0.276,   -0.055,   -1.474,   -0.025,    0.004,
        0.023,    0.600,   -0.051,   -0.798,    0.010,    2.111,    0.028,
        1.676,   -0.035,    6.417,    2.820,   -1.314,    7.049,   -0.720,
       -2.071,    0.220,   -5.529,   -1.110,   -3.922,    0.534,   -2.330,
       -1.772,   -0.017,   -3.234,   -2.127
    },
    {  -0.471,    0.048,    1.010,    0.034,    0.577,   -0.025,   -0.118,
       -0.048,    0.535,   -0.038,    0.000,    0.121,    0.944,   -0.131,
       -0.881,    0.062,   -0.341,    0.036,   -1.490,    0.050,   -0.060,
       -0.102,    0.848,    0.036,   -0.885,   -0.123,    2.176,    0.019,
        1.762,   -0.036,    6.464,    2.771,   -1.634,    6.326,   -0.129,
       -1.661,    0.439,   -5.116,   -1.165,   -3.472,    1.111,   -2.211,
       -1.325,   -0.567,   -2.960,   -2.140
    },
    {  -0.357,    0.035,    0.968,   -0.124,    0.740,    0.085,    0.219,
        0.023,    0.428,    0.004,   -0.048,   -0.021,    1.196,   -0.048,
       -0.888,   -0.046,   -0.648,    0.021,   -1.689,   -0.074,   -0.018,
       -0.032,    0.745,    0.066,   -0.685,    0.002,    1.843,    0.014,
        1.581,    0.016,    6.559,    2.889,   -1.636,    6.651,   -0.243,
       -1.760,    0.589,   -5.989,   -1.199,   -3.155,    1.460,   -2.786,
       -2.248,   -0.852,   -3.303,   -1.739
    },
    {  -0.368,    0.052,    0.993,   -0.172,    0.715,    0.067,    0.182,
       -0.159,    0.360,    0.036,   -0.084,   -0.193,    1.190,   -0.027,
       -0.743,    0.003,   -0.674,   -0.026,   -1.560,    0.019,   -0.011,
       -0.044,    0.811,    0.050,   -0.667,   -0.038,    1.911,    0.181,
        1.506,   -0.078,    6.399,    3.200,   -1.977,    6.481,   -0.029,
       -1.838,    0.953,   -5.317,   -0.933,   -3.191,    1.510,   -2.530,
       -2.556,   -1.308,   -2.775,   -1.852
    },
    {  -0.304,    0.090,    1.161,   -0.133,    0.598,    0.066,    0.232,
       -0.108,    0.418,    0.119,   -0.031,   -0.166,    1.169,    0.135,
       -0.852,    0.005,   -0.762,    0.003,   -1.478,   -0.110,   -0.018,
       -0.231,    0.786,   -0.027,   -0.705,   -0.004,    2.000,    0.084,
        1.965,    0.020,    7.064,    2.730,   -1.323,    6.445,    0.148,
       -1.980,    1.071,   -5.390,   -0.291,   -3.223,    1.437,   -2.353,
       -2.707,   -0.673,   -2.828,   -1.989
    },
    {  -0.387,    0.128,    1.101,   -0.087,    0.612,    0.048,    0.167,
       -0.046,    0.269,   -0.007,   -0.089,   -0.093,    1.118,    0.179,
       -0.879,   -0.010,   -0.632,   -0.060,   -1.474,    0.031,   -0.062,
       -0.062,    0.763,    0.063,   -0.707,   -0.048,    1.968,    0.059,
        1.676,   -0.057,    6.921,    2.695,   -0.841,    6.417,   -0.212,
       -2.098,    0.410,   -5.432,   -0.270,   -3.171,    1.465,   -2.939,
       -3.044,   -1.113,   -3.208,   -1.966
    },
    {  -0.467,    0.044,    1.095,    0.015,    0.332,   -0.030,    0.251,
        0.063,    0.297,   -0.043,   -0.146,    0.039,    1.224,   -0.142,
       -0.576,   -0.033,   -0.677,    0.002,   -1.615,   -0.050,   -0.121,
       -0.029,    0.757,   -0.069,   -0.622,   -0.027,    1.905,    0.042,
        1.518,   -0.033,    6.994,    2.922,   -0.852,    6.108,    0.072,
       -1.782,    0.193,   -5.471,   -0.316,   -3.509,    1.416,   -2.920,
       -2.456,   -1.873,   -2.903,   -1.564
    },
    {  -0.394,    0.052,    0.984,   -0.067,    0.410,   -0.012,    0.059,
       -0.023,    0.346,   -0.060,    0.043,    0.063,    1.210,    0.041,
       -0.461,   -0.006,   -0.706,    0.000,   -1.363,   -0.043,   -0.316,
       -0.034,    0.900,   -0.066,   -0.450,   -0.095,    1.934,   -0.112,
        1.483,    0.040,    6.883,    2.976,   -0.985,    6.492,   -0.140,
       -1.886,    0.352,   -5.511,   -0.317,   -3.377,    1.288,   -2.766,
       -2.790,   -2.034,   -3.034,   -1.939
    },
    {  -0.377,    0.065,    0.895,   -0.089,    0.230,    0.034,   -0.130,
        0.065,    0.383,   -0.028,   -0.196,   -0.003,    1.054,   -0.042,
       -0.296,    0.055,   -0.756,   -0.007,   -1.364,   -0.101,   -0.673,
        0.026,    0.970,   -0.008,   -0.285,   -0.062,    1.871,   -0.052,
        1.445,    0.023,    7.159,    3.017,   -0.795,    5.818,   -0.290,
       -1.804,    0.464,   -5.286,   -0.399,   -3.698,    1.951,   -3.285,
       -2.624,   -1.834,   -2.687,   -2.493
    },
    {  -0.381,    0.046,    1.334,   -0.064,    0.298,    0.023,   -0.232,
        0.143,    0.327,   -0.060,   -0.414,   -0.061,    1.075,   -0.111,
       -0.050,    0.065,   -0.629,    0.012,   -0.840,   -0.036,   -0.751,
        0.094,    1.065,    0.017,   -0.380,   -0.059,    1.953,   -0.020,
        1.503,   -0.046,    6.668,    3.468,   -0.986,    6.026,    0.078,
       -2.636,   -0.391,   -4.802,   -0.103,   -3.840,    2.464,   -3.394,
       -2.444,   -1.724,   -2.548,   -2.440
    },
    {  -0.489,    0.044,    1.388,   -0.065,    0.345,   -0.016,   -0.069,
        0.236,    0.289,   -0.130,   -0.499,    0.005,    1.111,   -0.089,
       -0.235,    0.026,   -0.886,    0.034,   -0.937,    0.198,   -0.663,
        0.117,    1.213,    0.018,   -0.329,   -0.132,    1.909,   -0.062,
        1.375,   -0.078,    7.322,    3.670,   -0.849,    6.265,   -0.452,
       -2.086,    0.917,   -5.357,   -0.052,   -3.019,    1.412,   -3.045,
       -2.046,   -1.679,   -2.722,   -2.682
    },
    {  -0.530,   -0.056,    1.258,    0.131,    0.299,    0.040,   -0.183,
       -0.016,    0.194,   -0.037,   -0.435,   -0.039,    1.093,   -0.026,
       -0.186,   -0.052,   -0.859,   -0.088,   -1.028,    0.246,   -0.518,
        0.049,    1.018,    0.008,   -0.445,   -0.112,    1.805,   -0.054,
        1.121,    0.104,    7.034,    4.073,   -0.603,    6.702,   -0.506,
       -2.102,    0.644,   -5.860,   -0.045,   -3.352,    1.473,   -2.752,
       -1.858,   -2.051,   -2.666,   -2.767
    },
    {  -0.298,   -0.074,    1.207,    0.150,    0.095,    0.085,   -0.337,
       -0.008,    0.058,    0.022,   -0.526,    0.171,    1.043,   -0.073,
       -0.309,    0.011,   -0.685,   -0.052,   -0.782,    0.173,   -0.480,
        0.005,    1.138,    0.005,   -0.484,    0.120,    1.716,   -0.078,
        0.854,    0.029,    7.148,    4.485,   -0.483,    6.471,   -1.073,
       -2.198,    0.376,   -6.462,   -0.393,   -3.208,    1.467,   -3.207,
       -2.310,   -1.907,   -2.468,   -2.592
    },
    {  -0.339,   -0.093,    1.209,    0.054,    0.292,   -0.005,   -0.143,
        0.036,    0.303,   -0.101,   -0.448,    0.054,    0.942,   -0.040,
       -0.083,   -0.068,   -0.740,    0.015,   -1.125,    0.028,   -0.519,
       -0.141,    0.788,   -0.055,   -0.703,    0.023,    1.518,   -0.063,
        1.152,   -0.142,    6.970,    4.556,   -0.401,    6.182,   -1.025,
       -2.823,    0.324,   -6.806,   -0.734,   -3.228,    1.221,   -3.406,
       -2.125,   -1.899,   -3.206,   -2.666
    },
    {  -0.529,    0.165,    1.401,    0.071,    0.261,   -0.053,   -0.219,
       -0.062,    0.109,    0.068,   -0.255,   -0.165,    0.855,   -0.060,
       -0.128,   -0.080,   -1.166,   -0.062,   -0.812,    0.006,   -0.504,
       -0.127,    0.842,    0.066,   -0.156,    0.029,    1.936,    0.025,
        1.146,    0.197,    6.405,    4.627,   -0.119,    6.243,   -1.028,
       -2.281,    0.388,   -6.424,   -0.669,   -3.178,    0.678,   -3.370,
       -2.133,   -1.430,   -3.263,   -2.570
    },
    {  -0.429,    0.150,    1.334,    0.145,    0.132,    0.029,   -0.175,
       -0.027,    0.009,    0.153,   -0.330,   -0.272,    0.778,    0.025,
       -0.065,   -0.135,   -1.187,   -0.063,   -0.776,    0.104,   -0.406,
       -0.165,    0.893,    0.150,   -0.121,    0.022,    1.977,    0.313,
        1.046,    0.130,    6.926,    4.772,   -0.277,    6.025,   -1.346,
       -2.900,    0.219,   -6.363,   -0.435,   -2.967,    0.834,   -3.163,
       -1.638,   -1.314,   -3.768,   -2.130
    },
    {  -0.575,    0.081,    1.479,   -0.016,    0.186,   -0.067,   -0.257,
       -0.007,   -0.398,   -0.014,   -0.268,    0.045,    0.752,   -0.091,
       -0.181,   -0.255,   -1.127,   -0.205,   -0.463,    0.118,   -0.081,
       -0.257,    0.333,    0.336,   -0.226,    0.126,    1.878,    0.051,
        1.306,   -0.082,    6.083,    4.972,   -0.188,    6.559,   -0.295,
       -2.384,    0.892,   -6.665,   -0.202,   -3.387,    0.371,   -2.620,
       -2.267,   -1.413,   -3.087,   -2.367
    },
    {  -0.409,    0.203,    1.590,    0.124,    0.076,   -0.131,   -0.177,
        0.031,   -0.386,   -0.012,   -0.155,    0.137,    0.693,   -0.063,
       -0.136,   -0.107,   -0.978,    0.039,   -0.341,    0.252,   -0.130,
       -0.197,    0.379,    0.099,   -0.314,    0.141,    1.921,    0.016,
        1.450,   -0.103,    6.436,    4.917,   -0.474,    6.718,   -0.094,
       -2.448,    1.181,   -6.785,    0.167,   -3.001,    0.091,   -2.832,
       -2.314,   -1.916,   -2.971,   -2.667
    },
    {  -0.690,    0.037,    1.540,    0.105,   -0.091,   -0.040,   -0.333,
        0.081,   -0.139,   -0.007,   -0.073,   -0.001,    0.732,   -0.133,
       -0.257,   -0.096,   -1.156,   -0.019,   -0.190,    0.125,   -0.116,
       -0.093,    0.409,   -0.007,   -0.161,    0.106,    2.055,   -0.034,
        1.422,    0.066,    7.268,    4.231,   -0.130,    6.681,   -0.456,
       -1.983,    0.853,   -6.382,   -0.123,   -3.549,    0.175,   -2.684,
       -2.335,   -1.574,   -2.735,   -2.118
    },
    {  -0.583,   -0.066,    1.622,    0.161,    0.098,   -0.009,   -0.133,
       -0.070,   -0.247,   -0.021,   -0.000,   -0.025,    0.639,   -0.164,
       -0.345,   -0.065,   -1.055,    0.152,   -0.098,    0.079,   -0.150,
       -0.056,    0.729,   -0.009,   -0.172,    0.051,    1.980,   -0.133,
        1.373,   -0.086,    6.667,    4.465,   -0.554,    7.136,   -0.271,
       -1.815,    0.528,   -6.334,   -0.173,   -3.529,    0.235,   -2.628,
       -2.126,   -1.535,   -3.178,   -2.370
    },
    {  -0.779,    0.030,    1.645,    0.145,    0.097,    0.074,   -0.091,
       -0.040,   -0.313,    0.052,    0.050,   -0.077,    0.581,   -0.050,
       -0.124,   -0.022,   -1.061,    0.042,    0.027,   -0.036,   -0.124,
       -0.047,    0.721,    0.153,   -0.197,    0.029,    2.100,   -0.140,
        1.192,    0.034,    7.234,    4.539,   -0.358,    6.922,   -0.476,
       -2.135,    0.703,   -6.353,   -0.179,   -3.598,    0.232,   -2.737,
       -2.429,   -1.006,   -3.686,   -2.239
    },
    {  -0.912,    0.018,    1.759,   -0.052,   -0.027,   -0.003,   -0.227,
       -0.008,   -0.458,   -0.074,    0.201,   -0.045,    0.454,   -0.072,
       -0.244,   -0.007,   -0.944,   -0.080,    0.123,    0.051,   -0.303,
       -0.014,    0.403,    0.063,    0.071,   -0.023,    1.823,    0.011,
        1.248,   -0.011,    6.962,    4.052,   -0.211,    6.698,   -0.639,
       -2.051,    1.019,   -6.832,   -0.926,   -3.515,    0.036,   -2.654,
       -2.361,   -1.406,   -4.445,   -2.283
    },
    {  -0.862,    0.066,    1.747,   -0.094,    0.074,    0.022,   -0.247,
       -0.009,   -0.397,   -0.039,    0.047,   -0.052,    0.719,   -0.023,
       -0.247,   -0.041,   -1.081,   -0.061,    0.074,    0.007,   -0.473,
        0.017,    0.351,    0.012,    0.026,   -0.025,    1.934,    0.024,
        1.361,   -0.091,    6.252,    3.974,   -0.565,    6.583,   -0.673,
       -1.544,    0.834,   -6.871,   -1.607,   -3.615,    0.394,   -2.745,
       -2.072,   -1.395,   -4.000,   -1.658
    },
    {  -0.718,    0.079,    1.740,   -0.027,    0.096,    0.012,   -0.366,
        0.031,   -0.289,    0.029,   -0.090,   -0.035,    0.805,   -0.052,
       -0.140,   -0.009,   -1.213,    0.028,    0.251,    0.011,   -0.358,
       -0.035,    0.237,   -0.012,    0.063,   -0.010,    1.804,   -0.081,
        1.232,    0.066,    6.481,    3.810,   -0.120,    6.212,   -0.266,
       -0.990,    0.929,   -7.143,   -1.865,   -3.561,    0.129,   -2.317,
       -1.845,   -1.266,   -3.800,   -1.954
    },
    {  -0.894,    0.006,    1.967,    0.029,    0.079,    0.034,   -0.089,
       -0.058,   -0.395,    0.014,    0.056,    0.014,    0.827,   -0.078,
       -0.319,   -0.014,   -0.992,   -0.039,    0.136,    0.029,   -0.633,
       -0.000,    0.239,    0.028,   -0.210,    0.004,    1.835,    0.076,
        1.135,   -0.064,    6.611,    3.436,    0.219,    6.188,    0.131,
       -0.739,    0.884,   -6.937,   -2.128,   -3.305,    0.055,   -2.357,
       -2.137,   -1.225,   -4.860,   -2.081
    },
    {  -0.882,    0.084,    1.892,    0.057,    0.083,    0.001,   -0.081,
        0.017,   -0.316,    0.003,   -0.082,    0.040,    0.899,   -0.061,
       -0.071,    0.062,   -1.170,   -0.059,    0.299,    0.072,   -0.621,
        0.040,    0.285,   -0.086,   -0.286,   -0.089,    1.797,    0.108,
        1.339,   -0.026,    6.504,    3.039,   -0.066,    6.470,   -0.097,
       -0.882,    0.856,   -6.999,   -2.183,   -3.684,    0.199,   -2.951,
       -2.067,   -1.366,   -4.806,   -1.983
    },
    {  -0.977,   -0.029,    1.904,    0.037,    0.088,    0.038,    0.159,
        0.087,   -0.398,    0.029,   -0.146,   -0.002,    0.721,   -0.042,
       -0.040,    0.046,   -1.185,    0.002,    0.260,    0.034,   -0.492,
        0.037,    0.189,   -0.074,   -0.237,   -0.043,    1.748,    0.072,
        1.283,   -0.121,    6.586,    2.900,   -0.034,    6.994,    0.187,
       -0.765,    0.682,   -7.151,   -1.882,   -3.152,    0.275,   -2.683,
       -2.051,   -1.603,   -4.910,   -1.965
    },
    {  -0.884,   -0.150,    2.031,    0.033,    0.165,    0.050,    0.036,
        0.084,   -0.689,   -0.089,   -0.151,    0.155,    0.826,   -0.009,
       -0.106,   -0.012,   -1.099,   -0.048,   -0.077,   -0.056,   -0.279,
        0.019,    0.139,   -0.061,   -0.135,    0.025,    1.843,    0.107,
        1.243,   -0.125,    6.654,    2.712,   -0.049,    6.549,    0.073,
       -1.209,    0.948,   -7.419,   -1.503,   -3.087,    0.273,   -2.633,
       -2.084,   -1.517,   -4.740,   -1.891
    },
    {  -0.972,    0.038,    1.935,    0.094,    0.070,    0.033,   -0.227,
        0.051,   -0.775,   -0.014,   -0.257,    0.213,    0.788,   -0.012,
       -0.272,    0.043,   -1.269,    0.066,   -0.248,   -0.004,   -0.281,
       -0.023,    0.066,   -0.035,   -0.139,    0.088,    1.714,    0.064,
        1.048,   -0.217,    6.759,    2.326,   -0.207,    6.305,    0.331,
       -1.216,    1.109,   -7.547,   -1.962,   -2.943,    0.395,   -2.612,
       -1.642,   -1.442,   -5.191,   -1.506
    },
    {  -0.793,    0.059,    1.863,    0.114,    0.149,   -0.063,   -0.048,
        0.107,   -0.693,    0.025,   -0.269,    0.026,    0.875,   -0.117,
       -0.362,   -0.031,   -1.149,    0.093,   -0.131,    0.101,   -0.193,
       -0.027,    0.221,   -0.085,   -0.238,   -0.090,    1.590,    0.046,
        1.150,   -0.055,    7.269,    2.393,   -0.509,    6.822,    0.484,
       -0.762,    1.446,   -8.152,   -1.691,   -3.401,    0.467,   -2.970,
       -1.513,   -1.167,   -5.374,   -1.219
    },
    {  -0.791,    0.087,    1.725,    0.032,    0.120,   -0.023,   -0.072,
        0.146,   -0.722,    0.141,   -0.198,    0.044,    0.845,   -0.088,
       -0.354,    0.097,   -1.320,    0.093,   -0.128,   -0.036,   -0.198,
       -0.035,    0.157,   -0.150,   -0.052,   -0.050,    1.560,    0.029,
        1.203,   -0.029,    7.439,    2.368,   -0.977,    7.124,    0.580,
       -0.682,    1.756,   -8.081,   -1.927,   -3.396,    0.480,   -2.818,
       -1.481,   -1.266,   -5.233,   -1.231
    },
    {  -0.996,    0.118,    1.960,    0.043,    0.207,    0.033,   -0.115,
        0.164,   -0.808,    0.055,   -0.345,   -0.041,    0.930,   -0.005,
       -0.268,   -0.018,   -0.967,    0.074,   -0.249,    0.034,   -0.292,
       -0.013,    0.478,   -0.150,   -0.216,    0.015,    1.485,    0.018,
        1.155,   -0.089,    7.757,    2.307,   -0.697,    7.197,    0.710,
       -0.878,    1.409,   -8.024,   -1.771,   -3.655,    0.619,   -2.904,
       -1.477,   -1.184,   -5.489,   -1.242
    },
    {  -0.932,    0.023,    2.000,    0.035,    0.193,    0.013,   -0.013,
        0.258,   -0.847,   -0.051,   -0.375,    0.011,    1.037,    0.024,
       -0.142,   -0.072,   -1.123,    0.048,   -0.381,    0.240,   -0.127,
       -0.001,    0.374,   -0.108,   -0.082,   -0.083,    1.527,    0.142,
        1.151,    0.056,    7.695,    1.796,   -0.536,    7.180,    0.281,
       -0.722,    0.844,   -7.436,   -2.074,   -3.401,    1.144,   -2.536,
       -1.097,   -0.801,   -5.622,   -0.916
    },
    {  -0.991,    0.093,    1.927,   -0.007,    0.138,    0.028,   -0.150,
        0.026,   -0.660,   -0.180,   -0.319,   -0.034,    1.082,   -0.068,
        0.038,   -0.025,   -1.136,   -0.047,   -0.232,   -0.094,   -0.280,
        0.016,    0.563,   -0.147,   -0.017,    0.219,    1.583,   -0.066,
        1.066,   -0.040,    7.515,    1.134,   -0.167,    6.777,    0.949,
       -0.506,    0.205,   -7.047,   -2.307,   -3.215,    0.691,   -2.058,
       -1.325,   -1.246,   -5.932,   -0.426
    },
    {  -0.990,    0.007,    1.910,    0.001,    0.046,   -0.018,    0.011,
       -0.043,   -0.577,   -0.081,   -0.306,    0.014,    1.107,   -0.109,
        0.160,   -0.104,   -1.237,   -0.083,   -0.116,   -0.077,   -0.340,
       -0.073,    0.652,    0.034,    0.077,   -0.041,    1.508,   -0.023,
        0.858,   -0.014,    7.767,    1.654,   -0.363,    6.923,    0.793,
       -0.503,    0.088,   -6.794,   -2.058,   -3.505,    0.530,   -1.829,
       -1.237,   -0.911,   -5.746,   -0.065
    },
    {  -1.007,    0.128,    1.895,   -0.030,    0.080,    0.056,   -0.059,
        0.017,   -0.621,    0.004,    0.022,    0.001,    1.006,    0.010,
        0.383,   -0.038,   -0.992,   -0.013,   -0.170,    0.025,   -0.288,
       -0.009,    0.656,   -0.043,   -0.223,    0.079,    1.674,    0.068,
        0.817,   -0.002,    8.269,    1.720,   -0.332,    7.291,    0.896,
       -0.761,    0.100,   -6.809,   -1.781,   -3.277,    1.211,   -2.310,
       -0.726,   -1.443,   -6.223,   -0.492
    },
    {  -1.299,   -0.008,    1.669,   -0.035,    0.096,    0.055,   -0.000,
        0.062,   -0.370,    0.006,    0.131,    0.015,    0.914,   -0.034,
        0.334,    0.018,   -0.821,    0.030,   -0.136,   -0.017,   -0.333,
       -0.029,    0.553,   -0.004,    0.016,   -0.040,    1.661,    0.007,
        0.700,    0.021,    7.750,    1.021,   -0.139,    6.757,    1.162,
       -0.421,   -0.167,   -6.420,   -2.399,   -3.187,    1.181,   -2.865,
       -0.759,   -1.499,   -6.149,   -0.703
    },
    {  -1.074,   -0.006,    1.663,   -0.083,    0.137,    0.016,   -0.060,
        0.008,   -0.529,   -0.041,    0.269,   -0.022,    0.922,   -0.084,
        0.535,   -0.028,   -0.916,    0.003,   -0.167,   -0.010,   -0.270,
       -0.023,    0.532,   -0.021,    0.077,   -0.020,    1.805,   -0.037,
        0.500,    0.021,    7.738,    1.595,    0.002,    6.620,    0.458,
       -0.510,   -0.131,   -6.277,   -2.036,   -3.258,    0.697,   -2.808,
       -0.746,   -1.228,   -6.075,   -0.676
    },
    {  -1.204,   -0.060,    1.737,   -0.087,    0.297,    0.028,    0.060,
       -0.044,   -0.464,   -0.037,    0.225,   -0.157,    0.973,   -0.060,
        0.550,   -0.049,   -1.083,   -0.050,   -0.123,   -0.025,   -0.002,
       -0.000,    0.618,   -0.087,    0.015,   -0.043,    1.673,   -0.066,
        0.358,    0.015,    7.556,    1.461,   -0.221,    6.914,    1.267,
       -0.089,   -0.088,   -6.253,   -1.580,   -2.826,    0.707,   -2.599,
       -0.763,   -0.999,   -6.213,   -0.803
    },
    {  -1.429,   -0.007,    1.848,   -0.081,    0.255,   -0.036,    0.131,
       -0.015,   -0.518,   -0.039,    0.353,   -0.075,    0.977,   -0.148,
        0.600,    0.029,   -1.290,   -0.138,   -0.290,   -0.003,    0.064,
       -0.069,    0.597,   -0.021,    0.030,   -0.107,    1.668,   -0.017,
        0.392,    0.075,    7.983,    1.805,    0.219,    6.916,    1.418,
        0.097,    0.140,   -6.554,   -1.632,   -2.742,    0.682,   -2.363,
       -0.683,   -0.775,   -5.998,   -0.881
    },
    {  -1.238,    0.039,    1.722,   -0.003,    0.246,   -0.046,    0.059,
       -0.007,   -0.539,    0.126,    0.470,    0.005,    0.971,   -0.117,
        0.630,   -0.089,   -1.253,   -0.166,   -0.255,    0.019,    0.083,
       -0.016,    0.480,    0.063,    0.031,   -0.133,    1.508,   -0.101,
        0.281,    0.119,    8.130,    2.178,   -0.015,    6.463,    1.830,
        0.081,    0.646,   -6.651,   -1.108,   -2.922,    0.642,   -2.167,
       -0.247,   -1.091,   -6.453,   -1.012
    },
    {  -1.360,    0.038,    1.465,   -0.002,    0.092,    0.024,    0.085,
        0.064,   -0.452,   -0.049,    0.544,    0.042,    0.958,   -0.035,
        0.587,   -0.002,   -1.276,   -0.016,   -0.317,   -0.030,    0.080,
       -0.025,    0.361,    0.021,   -0.018,   -0.008,    1.526,   -0.043,
        0.216,   -0.015,    8.097,    2.368,   -0.500,    6.095,    1.320,
       -0.278,    0.750,   -6.108,   -0.739,   -3.411,    0.298,   -2.790,
        0.392,   -1.269,   -6.378,   -1.303
    },
    {  -1.458,    0.011,    1.607,   -0.029,   -0.019,    0.026,    0.011,
        0.062,   -0.381,   -0.053,    0.687,    0.003,    0.900,   -0.084,
        0.549,    0.043,   -1.290,    0.001,   -0.286,    0.024,   -0.086,
        0.021,    0.519,   -0.088,   -0.096,   -0.047,    1.613,   -0.061,
        0.151,    0.032,    8.062,    2.918,   -0.145,    6.234,    1.820,
       -0.393,    0.894,   -6.294,   -0.942,   -3.714,    0.399,   -3.030,
        0.182,   -1.140,   -6.334,   -1.578
    },
    {  -1.363,   -0.038,    1.473,   -0.081,   -0.019,    0.023,    0.059,
        0.116,   -0.399,   -0.060,    0.681,   -0.002,    0.975,   -0.033,
        0.515,    0.009,   -1.153,   -0.051,   -0.296,    0.108,   -0.138,
        0.024,    0.660,   -0.153,   -0.001,   -0.106,    1.583,   -0.068,
        0.127,    0.034,    8.377,    2.584,   -0.213,    6.437,    1.790,
       -0.515,    0.735,   -6.639,   -0.959,   -3.581,    0.428,   -3.187,
        0.565,   -1.291,   -6.520,   -1.651
    }
  };


  double netfun(std::vector<double>& in, const double* w)
  {
    double x00 = in[0];
    double x;

    //Layer 1, Node 0
    x = w[0];
    x = x + w[1] * x00;
    double x10 = tanh(x);

    //Layer 1, Node 1
    x = w[2];
    x = x + w[3] * x00;
    double x11 = tanh(x);

    //Layer 1, Node 2
    x = w[4];
    x = x + w[5] * x00;
    double x12 = tanh(x);

    //Layer 1, Node 3
    x = w[6];
    x = x + w[7] * x00;
    double x13 = tanh(x);

    //Layer 1, Node 4
    x = w[8];
    x = x + w[9] * x00;
    double x14 = tanh(x);

    //Layer 1, Node 5
    x = w[10];
    x = x + w[11] * x00;
    double x15 = tanh(x);

    //Layer 1, Node 6
    x = w[12];
    x = x + w[13] * x00;
    double x16 = tanh(x);

    //Layer 1, Node 7
    x = w[14];
    x = x + w[15] * x00;
    double x17 = tanh(x);

    //Layer 1, Node 8
    x = w[16];
    x = x + w[17] * x00;
    double x18 = tanh(x);

    //Layer 1, Node 9
    x = w[18];
    x = x + w[19] * x00;
    double x19 = tanh(x);

    //Layer 1, Node 10
    x = w[20];
    x = x + w[21] * x00;
    double x110 = tanh(x);

    //Layer 1, Node 11
    x = w[22];
    x = x + w[23] * x00;
    double x111 = tanh(x);

    //Layer 1, Node 12
    x = w[24];
    x = x + w[25] * x00;
    double x112 = tanh(x);

    //Layer 1, Node 13
    x = w[26];
    x = x + w[27] * x00;
    double x113 = tanh(x);

    //Layer 1, Node 14
    x = w[28];
    x = x + w[29] * x00;
    double x114 = tanh(x);

    //Layer 2, Node 0
    x = w[30];
    x = x + w[31] * x10;
    x = x + w[32] * x11;
    x = x + w[33] * x12;
    x = x + w[34] * x13;
    x = x + w[35] * x14;
    x = x + w[36] * x15;
    x = x + w[37] * x16;
    x = x + w[38] * x17;
    x = x + w[39] * x18;
    x = x + w[40] * x19;
    x = x + w[41] * x110;
    x = x + w[42] * x111;
    x = x + w[43] * x112;
    x = x + w[44] * x113;
    x = x + w[45] * x114;
    double x20 = 1.0/(1.0+exp(-x));
    return x20;
  }
}; // End anonymous namespace

//-----------------------------------------------------------------------------
// Compute average over networks. Default is to use all networks
//-----------------------------------------------------------------------------

double HT250_MHT60_v3_HT250_v3_163269_164923_sel2(std::vector<double>& inputvars,
                                                  int first=0,
                                                  int last=nnetworks-1)
{
  if ( first < 0 ) first = 0;
  if ( last  < 0 ) last  = nnetworks-1;
  if ( last  > nnetworks-1 ) last = nnetworks-1;
  if ( first > last )
    {
      std::cerr << "** HT250_MHT60_v3_HT250_v3_163269_164923_sel2 ** first-index > last-index"
                << std::endl; exit(3);
    }

  // Compute average over networks
  std::vector<double> in(ninputs);
  in[0] = (inputvars[0] - mean[0]) / sigma[0];

  int   n = last - first + 1;
  double x = 0.0;
  for(int i=first; i <= last; i++) x += netfun(in, weight[i]);
  return x / n;
}

extern "C" double HT250_MHT60_v3_HT250_v3_163269_164923_sel2_dl(std::vector<double>& in,
                                                                int first=0,
                                                                int last=nnetworks-1)
{
  return HT250_MHT60_v3_HT250_v3_163269_164923_sel2(in, first, last);
}

extern "C" double HT250_MHT60_v3_HT250_v3_163269_164923_sel2_dl2(double* in,
                                                                 int first=0,
                                                                 int last=nnetworks-1)
{
  std::vector<double> invec;

  invec.push_back(in[0]);

  return HT250_MHT60_v3_HT250_v3_163269_164923_sel2(invec, first, last);
}
