//-----------------------------------------------------------------------------
// Network: HT250_MHT60_v2_HT250_v2_161205_163268_sel1
// Inputs:
//                                                  Offset       Scale
//    offlinevar                                 2.673e+01   1.984e+01
//
// Created: Wed Dec 21 19:43:23 2011
//-----------------------------------------------------------------------------
#include <cmath>
#include <vector>
#include <iostream>
#include <stdlib.h>
//-----------------------------------------------------------------------------
// Make following visible only to this programming unit
namespace {
  // NOTE: Network indices start at 0
  static const int nnetworks=100;
  static const int ninputs  =1;
  static const int nhidden  =15;
  static const int nparams  =46;

  static const double mean[ninputs]={
  2.67300e+01
  };

  static const double sigma[ninputs]={
  1.98400e+01
  };

  static const double weight[nnetworks][nparams]={
    {   0.203,    0.044,   -0.308,    0.023,    0.126,    0.025,   -0.120,
        0.142,   -0.112,   -0.076,    0.151,   -0.086,   -0.013,   -0.030,
       -0.028,   -0.028,    0.009,    0.064,   -0.157,   -0.009,    0.184,
        0.003,    0.101,   -0.006,   -0.111,   -0.010,   -0.008,   -0.054,
        0.134,   -0.071,   -1.254,    2.322,   -1.004,    8.455,    0.656,
       -2.365,   -2.510,   -5.541,   -1.883,   -5.931,    3.734,   -2.962,
       -4.002,    3.134,   -0.887,   -2.289
    },
    {   0.116,   -0.080,   -0.013,    0.061,    0.103,    0.096,    0.027,
       -0.038,   -0.128,    0.083,    0.061,    0.104,   -0.059,   -0.021,
       -0.046,    0.082,   -0.070,   -0.070,   -0.101,   -0.030,    0.010,
       -0.092,    0.063,    0.011,   -0.231,    0.071,   -0.081,   -0.120,
        0.150,    0.025,   -2.194,    1.985,   -1.126,    7.019,    0.478,
       -2.665,   -2.189,   -6.733,   -1.340,   -6.235,    3.810,   -3.028,
       -3.548,    3.222,   -0.486,   -2.481
    },
    {  -0.005,    0.037,   -0.211,   -0.036,    0.091,    0.047,   -0.032,
       -0.043,   -0.159,   -0.118,    0.103,    0.001,    0.066,    0.064,
       -0.023,    0.008,   -0.186,   -0.127,   -0.058,   -0.056,    0.069,
        0.016,    0.064,   -0.084,   -0.145,    0.050,   -0.286,    0.008,
        0.208,    0.127,   -2.045,    1.693,   -1.720,    6.498,   -0.791,
       -2.346,   -2.111,   -6.772,   -0.606,   -6.561,    4.641,   -3.133,
       -3.181,    2.759,   -0.041,   -2.594
    },
    {  -0.005,    0.034,   -0.028,   -0.028,   -0.013,    0.089,   -0.166,
       -0.027,   -0.042,   -0.113,    0.085,   -0.018,    0.147,    0.046,
        0.171,   -0.008,   -0.183,   -0.028,    0.074,   -0.005,    0.147,
       -0.036,   -0.010,    0.004,    0.075,   -0.058,    0.134,    0.122,
        0.296,   -0.033,   -1.642,    2.434,   -0.989,    6.729,   -1.368,
       -2.390,   -2.136,   -7.613,    0.095,   -6.261,    4.437,   -2.423,
       -2.628,    2.511,   -0.315,   -1.788
    },
    {   0.203,    0.139,    0.025,    0.017,   -0.043,    0.081,    0.009,
        0.036,   -0.057,   -0.175,   -0.098,    0.216,    0.106,   -0.000,
        0.022,   -0.017,   -0.069,   -0.029,   -0.080,   -0.147,    0.073,
       -0.036,   -0.073,   -0.018,    0.096,   -0.099,   -0.144,    0.190,
        0.027,   -0.076,   -1.866,    2.347,   -1.490,    7.676,   -0.365,
       -2.002,   -1.252,   -6.763,    0.720,   -6.572,    3.451,   -2.855,
       -4.209,    3.442,    0.223,   -2.159
    },
    {  -0.107,   -0.219,   -0.162,   -0.089,   -0.005,   -0.032,    0.062,
        0.040,    0.055,   -0.036,    0.081,    0.026,    0.048,   -0.125,
       -0.083,   -0.042,   -0.031,   -0.131,    0.156,   -0.085,    0.051,
       -0.111,    0.046,    0.083,   -0.124,    0.020,    0.162,    0.062,
        0.250,   -0.076,   -0.191,    3.164,   -1.248,    7.404,   -0.739,
       -2.176,   -1.381,   -6.651,   -0.629,   -6.935,    3.933,   -2.685,
       -3.695,    2.520,   -1.637,   -3.615
    },
    {  -0.134,   -0.163,   -0.051,   -0.016,   -0.092,   -0.069,   -0.078,
       -0.021,    0.057,   -0.055,    0.005,   -0.137,    0.082,   -0.155,
       -0.002,    0.042,    0.001,   -0.061,    0.156,   -0.100,   -0.127,
       -0.040,   -0.068,    0.003,   -0.040,    0.145,    0.085,    0.063,
       -0.054,    0.000,   -1.049,    3.558,   -1.754,    7.921,   -0.905,
       -2.720,   -1.082,   -6.709,   -0.134,   -6.687,    3.663,   -2.330,
       -3.715,    3.208,   -2.044,   -3.206
    },
    {  -0.025,    0.021,    0.013,    0.006,   -0.103,   -0.017,    0.004,
        0.003,    0.049,   -0.002,    0.030,    0.095,    0.083,   -0.159,
       -0.038,    0.051,    0.003,    0.014,    0.119,    0.017,   -0.079,
       -0.077,   -0.031,    0.120,    0.048,    0.091,    0.060,    0.038,
        0.009,   -0.016,   -0.998,    3.464,   -1.432,    7.784,   -1.197,
       -2.407,   -1.067,   -6.061,   -0.712,   -6.638,    3.995,   -2.518,
       -3.672,    3.081,   -1.826,   -2.975
    },
    {  -0.029,    0.035,    0.048,    0.012,   -0.102,    0.055,   -0.040,
        0.018,    0.005,   -0.070,    0.067,   -0.042,    0.122,    0.067,
       -0.081,    0.041,    0.086,    0.014,    0.069,   -0.018,    0.000,
       -0.038,   -0.074,   -0.100,    0.095,    0.026,    0.089,   -0.042,
       -0.061,   -0.023,   -0.123,    3.991,   -0.902,    7.128,   -2.012,
       -2.886,   -1.835,   -6.570,   -1.633,   -7.078,    3.217,   -1.638,
       -3.684,    1.977,   -1.744,   -2.072
    },
    {  -0.148,   -0.016,   -0.061,    0.064,   -0.027,    0.035,    0.084,
        0.009,    0.041,    0.056,   -0.130,   -0.003,    0.097,   -0.050,
        0.049,   -0.100,    0.043,   -0.130,   -0.010,   -0.015,   -0.087,
        0.025,   -0.040,    0.053,    0.005,   -0.014,   -0.031,   -0.027,
       -0.021,    0.123,   -0.583,    3.550,   -1.317,    7.729,   -1.593,
       -3.780,   -2.600,   -6.540,   -1.654,   -7.193,    2.393,   -1.843,
       -3.190,    2.258,   -2.194,   -2.434
    },
    {  -0.090,    0.002,   -0.080,   -0.045,   -0.059,    0.072,    0.018,
        0.016,    0.122,   -0.016,   -0.070,    0.108,    0.028,    0.051,
        0.034,    0.071,    0.058,   -0.072,   -0.063,    0.014,   -0.168,
       -0.077,    0.028,   -0.029,    0.021,   -0.131,   -0.038,   -0.044,
        0.015,   -0.057,   -0.714,    2.153,   -1.615,    7.294,   -1.891,
       -3.867,   -2.284,   -6.727,   -1.487,   -7.562,    1.496,   -3.211,
       -3.543,    2.405,   -2.126,   -2.742
    },
    {  -0.081,   -0.024,    0.012,   -0.012,    0.031,    0.021,    0.140,
        0.011,   -0.028,    0.008,   -0.072,   -0.087,    0.183,   -0.080,
        0.020,   -0.113,    0.013,    0.046,    0.074,   -0.022,   -0.015,
        0.046,    0.065,   -0.000,    0.031,    0.066,   -0.009,   -0.001,
       -0.094,   -0.071,   -0.806,    2.702,   -1.921,    7.407,   -1.263,
       -3.313,   -3.043,   -6.295,   -1.152,   -8.150,    0.898,   -2.501,
       -3.553,    2.037,   -2.759,   -2.447
    },
    {   0.007,   -0.111,    0.011,    0.278,    0.056,   -0.225,    0.129,
       -0.111,   -0.058,    0.043,    0.026,   -0.105,    0.057,   -0.152,
       -0.028,    0.137,    0.095,   -0.246,    0.014,    0.309,    0.016,
        0.033,    0.122,    0.126,    0.047,    0.177,    0.026,   -0.038,
       -0.130,   -0.007,   -0.771,    2.898,   -2.135,    7.491,   -1.597,
       -2.186,   -3.505,   -6.602,   -0.761,   -7.744,    0.529,   -2.909,
       -4.058,    2.391,   -3.214,   -2.100
    },
    {  -0.051,    0.143,    0.069,    0.192,    0.032,   -0.166,    0.086,
        0.073,   -0.085,   -0.072,   -0.018,   -0.070,    0.092,   -0.021,
       -0.041,   -0.171,   -0.014,   -0.057,   -0.067,    0.201,    0.040,
       -0.077,    0.109,    0.060,    0.099,    0.247,    0.021,    0.046,
       -0.024,   -0.149,   -0.885,    2.724,   -0.804,    6.932,   -1.349,
       -2.296,   -3.145,   -6.479,   -1.315,   -6.584,    1.189,   -2.928,
       -4.646,    1.605,   -3.781,   -2.247
    },
    {   0.104,    0.044,   -0.035,   -0.197,   -0.064,    0.007,    0.056,
        0.080,    0.027,    0.012,    0.018,    0.068,   -0.086,   -0.015,
        0.037,   -0.018,    0.012,   -0.086,    0.089,   -0.103,    0.005,
       -0.037,    0.109,   -0.031,    0.011,   -0.054,    0.032,   -0.140,
       -0.160,    0.046,   -1.832,    2.604,   -0.777,    7.350,   -2.375,
       -2.858,   -2.948,   -6.223,   -0.800,   -6.424,    1.508,   -2.770,
       -3.776,    1.734,   -3.246,   -2.490
    },
    {  -0.009,   -0.236,   -0.003,   -0.029,    0.031,    0.177,   -0.017,
       -0.027,    0.024,   -0.118,   -0.114,   -0.015,    0.080,   -0.083,
        0.020,    0.156,    0.045,    0.088,   -0.117,   -0.104,   -0.006,
        0.057,   -0.001,    0.035,   -0.065,    0.107,    0.028,   -0.114,
        0.126,    0.072,   -0.985,    2.744,   -1.298,    6.921,   -2.684,
       -3.071,   -3.434,   -5.452,   -1.340,   -7.092,    0.964,   -2.090,
       -4.889,    2.357,   -3.143,   -2.204
    },
    {   0.037,   -0.043,    0.067,    0.090,   -0.011,    0.054,    0.038,
        0.029,   -0.011,   -0.122,    0.016,   -0.148,    0.077,    0.211,
        0.113,   -0.139,    0.027,   -0.162,   -0.056,   -0.114,   -0.018,
       -0.083,   -0.067,   -0.028,    0.000,   -0.106,    0.017,    0.170,
        0.034,   -0.183,   -1.105,    3.108,   -0.478,    6.566,   -1.797,
       -2.684,   -2.830,   -5.684,   -0.939,   -6.867,    1.873,   -2.767,
       -4.704,    2.325,   -2.884,   -2.718
    },
    {  -0.002,    0.118,    0.023,   -0.070,   -0.053,    0.011,    0.011,
       -0.013,   -0.006,    0.049,   -0.010,   -0.040,    0.024,    0.078,
       -0.013,    0.074,    0.051,   -0.129,   -0.015,   -0.050,    0.024,
        0.002,   -0.045,    0.036,   -0.066,    0.137,   -0.016,   -0.079,
       -0.026,   -0.014,   -1.117,    2.548,   -0.347,    6.098,   -1.773,
       -3.037,   -2.599,   -5.857,   -1.818,   -5.997,    2.465,   -2.366,
       -5.006,    2.268,   -2.755,   -2.409
    },
    {  -0.018,    0.070,   -0.018,   -0.066,   -0.023,    0.082,   -0.021,
       -0.078,   -0.034,    0.045,   -0.010,    0.031,    0.005,    0.057,
        0.020,    0.013,   -0.010,    0.004,   -0.022,    0.044,   -0.019,
       -0.036,   -0.039,    0.041,   -0.076,   -0.012,   -0.017,   -0.065,
       -0.012,   -0.047,   -1.837,    2.277,   -1.375,    7.235,   -1.137,
       -2.771,   -2.073,   -5.849,   -1.140,   -5.933,    2.566,   -2.939,
       -4.155,    1.549,   -3.435,   -2.444
    },
    {  -0.049,    0.047,   -0.004,    0.059,    0.022,    0.042,   -0.012,
       -0.031,    0.021,    0.001,   -0.016,   -0.069,   -0.004,   -0.063,
        0.039,    0.005,   -0.036,    0.058,    0.018,    0.003,   -0.040,
       -0.048,   -0.035,   -0.053,   -0.011,   -0.028,    0.007,   -0.019,
       -0.016,    0.018,   -2.326,    2.386,   -2.221,    7.204,   -1.064,
       -1.801,   -2.164,   -5.666,   -1.917,   -5.296,    2.044,   -2.487,
       -3.376,    2.206,   -3.845,   -2.999
    },
    {  -0.024,    0.032,    0.077,   -0.076,    0.043,    0.055,    0.006,
        0.035,    0.028,    0.027,    0.018,    0.035,    0.011,   -0.002,
        0.063,    0.014,    0.001,    0.012,    0.013,    0.090,    0.003,
       -0.050,   -0.016,   -0.008,   -0.011,    0.023,    0.026,   -0.004,
       -0.011,   -0.018,   -1.510,    2.359,   -2.475,    7.914,   -1.435,
       -2.144,   -2.282,   -5.521,   -2.054,   -5.997,    1.018,   -2.632,
       -3.512,    2.019,   -4.202,   -4.381
    },
    {   0.019,    0.006,    0.032,    0.054,    0.105,    0.048,    0.017,
       -0.059,    0.086,   -0.004,    0.188,   -0.034,   -0.101,   -0.023,
        0.028,    0.036,   -0.087,    0.023,    0.003,   -0.112,    0.029,
       -0.013,   -0.007,   -0.055,    0.032,    0.079,    0.077,    0.026,
        0.021,   -0.054,   -2.744,    2.737,   -1.580,    7.617,   -1.693,
       -1.522,   -2.362,   -5.496,   -1.205,   -6.782,    1.095,   -2.953,
       -2.889,    2.064,   -3.826,   -3.941
    },
    {   0.096,   -0.027,   -0.078,    0.022,   -0.042,    0.079,   -0.148,
        0.003,   -0.033,   -0.042,    0.132,   -0.009,    0.057,   -0.013,
       -0.103,   -0.014,   -0.089,   -0.023,    0.046,   -0.006,   -0.186,
        0.022,    0.001,   -0.016,    0.041,    0.064,   -0.164,    0.000,
        0.069,    0.026,   -3.135,    3.459,   -1.092,    7.652,   -0.242,
       -1.997,   -2.151,   -5.505,   -0.612,   -7.085,    1.754,   -2.688,
       -1.663,    1.582,   -4.079,   -4.049
    },
    {  -0.021,   -0.044,    0.024,    0.030,    0.139,    0.087,   -0.052,
        0.004,   -0.078,   -0.051,   -0.085,   -0.034,   -0.032,   -0.057,
       -0.036,    0.017,   -0.013,    0.110,   -0.139,    0.006,   -0.031,
       -0.036,   -0.110,    0.011,   -0.250,    0.098,    0.004,   -0.037,
        0.120,   -0.067,   -2.243,    3.389,   -1.034,    6.117,   -0.087,
       -2.501,   -2.253,   -5.890,   -0.384,   -6.952,    1.798,   -3.434,
       -1.778,    2.034,   -3.733,   -4.094
    },
    {  -0.139,    0.107,   -0.031,   -0.035,   -0.044,    0.013,    0.083,
        0.065,    0.129,   -0.031,   -0.079,    0.040,   -0.105,   -0.004,
       -0.077,    0.055,    0.005,    0.043,   -0.007,    0.010,   -0.115,
       -0.016,    0.115,    0.081,    0.199,    0.108,    0.127,   -0.045,
       -0.199,   -0.065,   -2.442,    3.748,   -1.436,    5.491,    0.482,
       -2.545,   -2.537,   -6.217,   -1.093,   -6.404,    2.554,   -3.161,
       -1.129,    1.307,   -3.877,   -4.072
    },
    {  -0.012,   -0.012,    0.041,   -0.031,    0.090,    0.002,   -0.002,
       -0.006,    0.015,   -0.006,   -0.006,    0.038,    0.029,   -0.054,
       -0.018,    0.048,   -0.030,   -0.004,   -0.074,    0.037,   -0.061,
       -0.002,    0.052,    0.001,    0.057,    0.041,    0.074,   -0.045,
       -0.037,   -0.052,   -2.180,    3.112,   -1.684,    5.378,    1.897,
       -2.783,   -2.787,   -6.185,   -1.333,   -7.756,    2.373,   -3.586,
       -1.053,    0.697,   -4.255,   -4.259
    },
    {   0.026,    0.029,    0.015,    0.009,   -0.090,   -0.016,    0.040,
        0.037,    0.076,   -0.009,    0.047,    0.028,    0.020,   -0.038,
        0.098,    0.069,    0.000,    0.041,    0.010,   -0.000,   -0.000,
       -0.033,   -0.029,    0.028,    0.022,    0.010,   -0.108,   -0.115,
        0.000,   -0.093,   -1.495,    3.404,   -2.024,    5.584,    1.635,
       -2.943,   -2.596,   -6.578,   -0.830,   -8.330,    1.816,   -4.150,
       -1.572,    1.449,   -4.381,   -3.433
    },
    {  -0.071,    0.036,    0.070,    0.002,    0.051,    0.002,   -0.119,
       -0.086,   -0.122,   -0.025,   -0.076,    0.029,    0.004,   -0.033,
       -0.078,    0.001,   -0.006,   -0.070,   -0.028,   -0.040,    0.048,
       -0.019,   -0.062,   -0.027,    0.014,   -0.019,    0.036,    0.011,
        0.076,    0.019,   -1.652,    4.424,   -2.052,    6.712,    0.845,
       -3.555,   -1.767,   -6.631,   -0.511,   -8.571,    1.737,   -3.733,
       -0.782,    1.670,   -4.250,   -2.315
    },
    {  -0.041,    0.028,   -0.027,    0.014,    0.030,    0.062,    0.056,
        0.047,    0.065,    0.016,    0.011,   -0.004,    0.053,   -0.008,
       -0.053,    0.005,    0.035,   -0.008,   -0.027,    0.003,    0.019,
       -0.020,    0.059,    0.012,    0.039,   -0.019,   -0.033,   -0.034,
        0.064,    0.001,   -0.907,    4.478,   -2.273,    6.892,    0.947,
       -3.134,   -1.697,   -6.742,   -0.883,   -8.505,    1.873,   -2.657,
       -1.922,    1.490,   -4.653,   -2.897
    },
    {  -0.017,   -0.009,   -0.053,   -0.018,   -0.009,    0.015,   -0.086,
        0.009,    0.037,   -0.012,   -0.008,   -0.013,   -0.031,   -0.017,
        0.047,   -0.012,    0.089,   -0.046,   -0.026,    0.024,    0.039,
       -0.005,    0.292,   -0.016,    0.011,   -0.001,   -0.060,    0.004,
       -0.006,    0.004,   -0.417,    4.281,   -1.953,    6.870,    1.151,
       -2.675,   -1.546,   -6.557,   -0.397,   -8.545,    1.586,   -2.637,
       -2.223,    2.633,   -3.568,   -2.017
    },
    {  -0.061,    0.041,   -0.077,    0.003,    0.050,    0.073,   -0.072,
        0.003,    0.013,    0.021,   -0.027,   -0.011,   -0.025,   -0.025,
        0.085,    0.005,    0.104,   -0.021,    0.026,   -0.007,    0.031,
        0.011,    0.188,    0.046,    0.065,   -0.043,   -0.021,   -0.032,
        0.097,    0.009,   -0.735,    3.689,   -1.389,    5.841,    0.991,
       -2.483,   -1.821,   -6.340,   -0.425,   -8.593,    1.491,   -2.453,
       -1.467,    1.799,   -3.990,   -2.876
    },
    {  -0.058,   -0.003,    0.028,   -0.000,   -0.094,    0.049,    0.005,
       -0.012,    0.020,   -0.027,    0.003,   -0.058,    0.096,    0.007,
       -0.072,    0.012,    0.062,   -0.016,    0.069,    0.029,    0.018,
       -0.012,   -0.105,    0.047,   -0.012,   -0.010,    0.096,   -0.049,
       -0.071,   -0.011,    0.131,    2.816,   -0.781,    6.504,    1.696,
       -3.438,   -1.644,   -6.025,   -0.332,   -7.664,    1.029,   -1.910,
       -1.423,    1.276,   -3.803,   -2.490
    },
    {   0.076,   -0.035,   -0.039,   -0.021,   -0.169,   -0.054,   -0.053,
        0.064,    0.241,   -0.035,    0.066,   -0.019,   -0.051,   -0.052,
        0.020,    0.063,    0.067,   -0.064,   -0.023,    0.004,    0.043,
       -0.025,   -0.019,    0.058,    0.106,   -0.009,   -0.006,   -0.031,
       -0.016,    0.040,    0.426,    2.703,   -1.090,    6.555,    1.917,
       -3.651,   -2.406,   -6.082,   -0.257,   -8.592,    1.550,   -3.165,
       -1.515,    1.289,   -3.978,   -2.226
    },
    {   0.156,    0.028,   -0.066,    0.020,   -0.199,    0.054,    0.032,
        0.004,    0.078,   -0.036,    0.011,   -0.017,   -0.024,   -0.017,
        0.094,   -0.017,    0.089,   -0.001,   -0.093,   -0.012,   -0.032,
        0.005,   -0.050,    0.010,    0.043,    0.018,    0.022,    0.005,
       -0.043,   -0.035,   -0.159,    3.595,   -1.182,    7.715,    1.850,
       -3.782,   -1.960,   -7.159,    0.317,   -8.645,    1.613,   -2.733,
       -2.354,    1.324,   -3.893,   -1.938
    },
    {   0.073,    0.016,    0.031,   -0.004,   -0.057,    0.042,   -0.155,
        0.034,   -0.182,   -0.034,    0.196,   -0.007,    0.032,   -0.013,
       -0.102,   -0.006,    0.145,   -0.019,    0.153,    0.011,    0.130,
       -0.014,   -0.058,    0.022,    0.299,   -0.023,   -0.031,    0.005,
        0.144,   -0.007,   -0.415,    2.552,   -1.331,    7.211,    1.310,
       -3.855,   -1.026,   -6.752,    0.963,   -8.500,    1.483,   -2.589,
       -2.418,    1.054,   -4.601,   -2.270
    },
    {   0.012,   -0.016,    0.290,    0.021,   -0.014,    0.010,   -0.071,
       -0.045,   -0.297,    0.009,    0.379,   -0.016,    0.052,   -0.028,
       -0.104,   -0.000,    0.064,   -0.062,    0.229,    0.019,    0.205,
       -0.023,    0.220,   -0.034,    0.135,    0.008,    0.031,    0.023,
        0.210,   -0.014,    0.764,    3.265,   -2.127,    8.066,    1.342,
       -3.419,   -1.038,   -6.162,    1.179,   -8.394,    0.631,   -2.219,
       -2.760,    0.854,   -3.955,   -2.183
    },
    {   0.092,   -0.027,    0.039,    0.027,    0.070,    0.015,   -0.052,
       -0.024,    0.061,   -0.076,    0.084,   -0.016,   -0.136,   -0.100,
       -0.372,    0.006,    0.372,    0.043,    0.111,   -0.008,    0.098,
        0.011,   -0.110,   -0.016,    0.115,   -0.030,   -0.038,    0.014,
        0.084,   -0.051,    0.399,    3.062,   -2.407,    8.676,    1.164,
       -2.899,   -1.883,   -6.957,    2.013,   -7.907,    1.072,   -2.824,
       -2.433,    0.328,   -3.729,   -3.340
    },
    {  -0.056,    0.046,    0.261,   -0.021,   -0.088,    0.010,   -0.211,
       -0.013,   -0.154,   -0.010,    0.147,   -0.022,   -0.134,   -0.021,
       -0.027,    0.025,    0.166,   -0.003,    0.045,    0.020,    0.212,
       -0.057,   -0.237,   -0.036,   -0.139,    0.010,    0.109,    0.031,
        0.276,   -0.043,    0.781,    2.046,   -1.613,    8.494,    0.264,
       -4.569,   -1.488,   -6.322,    1.595,   -7.047,    0.966,   -2.632,
       -1.936,    0.076,   -3.523,   -3.244
    },
    {   0.078,    0.052,   -0.002,   -0.007,   -0.019,   -0.003,   -0.016,
        0.019,   -0.112,    0.021,   -0.005,   -0.017,    0.102,   -0.025,
       -0.347,    0.017,    0.038,   -0.030,   -0.137,   -0.034,    0.265,
       -0.052,    0.024,   -0.042,   -0.032,    0.012,    0.008,   -0.005,
        0.235,   -0.038,    0.727,    2.476,   -1.506,    8.470,    0.107,
       -4.738,   -1.932,   -6.126,    1.779,   -8.191,    1.466,   -2.570,
       -1.638,   -0.122,   -2.803,   -2.935
    },
    {   0.054,   -0.060,    0.003,   -0.024,    0.078,    0.065,    0.130,
       -0.001,    0.131,   -0.070,    0.192,    0.000,    0.071,   -0.005,
       -0.205,   -0.007,    0.075,    0.002,   -0.001,    0.040,    0.163,
        0.015,    0.112,    0.035,    0.053,   -0.028,   -0.021,   -0.019,
        0.100,   -0.017,    0.687,    2.620,   -1.031,    8.386,   -0.175,
       -4.661,   -2.369,   -5.405,    1.357,   -7.802,    1.434,   -2.287,
       -2.014,    0.851,   -3.055,   -3.838
    },
    {  -0.009,   -0.020,    0.057,    0.026,   -0.056,    0.003,    0.157,
       -0.013,    0.115,   -0.010,    0.203,   -0.029,    0.095,   -0.022,
        0.040,    0.038,    0.035,   -0.045,    0.061,    0.009,    0.025,
       -0.014,   -0.037,   -0.013,   -0.063,    0.052,    0.087,   -0.050,
       -0.055,   -0.004,    0.334,    2.854,   -0.755,    8.053,    0.342,
       -4.305,   -1.220,   -5.621,    0.760,   -8.089,    1.340,   -1.294,
       -0.983,    0.878,   -3.714,   -3.497
    },
    {  -0.021,    0.025,   -0.010,   -0.028,   -0.084,    0.062,   -0.065,
        0.018,    0.116,    0.011,    0.160,   -0.014,    0.088,   -0.071,
        0.079,   -0.027,    0.134,    0.020,    0.134,    0.033,    0.087,
        0.033,    0.101,    0.039,    0.091,    0.005,   -0.003,    0.009,
       -0.061,    0.013,    0.621,    2.730,   -1.888,    8.234,    0.769,
       -4.431,   -0.803,   -5.251,    0.549,   -8.177,    2.453,   -1.220,
       -0.830,    1.148,   -3.681,   -4.100
    },
    {  -0.088,    0.018,   -0.039,    0.025,   -0.133,    0.019,    0.041,
       -0.007,    0.202,    0.028,    0.329,    0.015,    0.097,    0.013,
        0.011,    0.082,    0.094,   -0.062,    0.099,    0.043,   -0.064,
       -0.041,    0.202,   -0.017,    0.182,    0.041,   -0.053,   -0.042,
        0.042,    0.045,    0.945,    2.755,   -1.832,    7.459,    0.343,
       -3.659,   -0.170,   -4.502,    0.488,   -8.912,    2.167,   -1.864,
       -0.725,    1.479,   -3.655,   -3.545
    },
    {  -0.199,    0.009,   -0.069,   -0.032,   -0.381,    0.066,    0.021,
        0.018,    0.066,   -0.005,    0.201,   -0.038,    0.001,   -0.098,
        0.032,    0.033,   -0.118,    0.043,   -0.012,    0.091,    0.069,
        0.031,    0.089,    0.010,    0.173,    0.070,    0.059,    0.000,
        0.090,    0.058,    1.234,    3.200,   -2.800,    6.964,    0.289,
       -3.631,   -0.567,   -4.966,   -0.457,   -8.086,    2.181,   -2.543,
       -1.317,    1.778,   -3.919,   -3.707
    },
    {  -0.038,    0.028,    0.016,    0.010,   -0.302,   -0.017,    0.041,
        0.028,    0.129,   -0.069,   -0.083,    0.009,    0.076,    0.031,
       -0.212,   -0.022,    0.028,   -0.069,   -0.053,   -0.024,    0.045,
       -0.060,    0.039,    0.036,    0.163,   -0.049,    0.110,   -0.013,
       -0.177,   -0.027,    0.962,    2.848,   -2.277,    7.385,    0.224,
       -4.599,   -1.675,   -4.420,   -0.336,   -8.090,    1.493,   -2.314,
       -0.701,    2.163,   -3.288,   -3.542
    },
    {  -0.045,    0.014,    0.271,   -0.039,   -0.040,    0.030,    0.148,
       -0.064,    0.174,    0.024,   -0.087,   -0.069,    0.051,    0.062,
       -0.227,    0.042,   -0.065,   -0.090,    0.067,   -0.007,    0.158,
       -0.034,    0.127,   -0.050,   -0.145,    0.054,    0.376,   -0.003,
        0.094,    0.039,    1.759,    2.497,   -2.239,    7.257,   -1.492,
       -4.380,    0.065,   -4.619,   -0.591,   -7.628,    1.659,   -1.706,
       -1.655,    0.952,   -3.164,   -3.526
    },
    {   0.012,    0.083,    0.084,    0.031,   -0.147,   -0.021,    0.103,
       -0.028,    0.193,   -0.001,    0.033,   -0.069,    0.095,   -0.013,
       -0.081,    0.036,    0.110,   -0.081,    0.075,    0.042,    0.038,
        0.006,    0.071,   -0.063,   -0.027,    0.061,    0.062,   -0.050,
        0.073,    0.034,    2.048,    1.065,   -2.367,    7.941,   -1.315,
       -3.507,    0.708,   -3.732,   -0.795,   -7.900,    1.614,   -1.242,
       -2.135,    0.986,   -3.129,   -3.996
    },
    {  -0.023,    0.046,    0.132,    0.064,   -0.189,   -0.023,    0.195,
        0.019,   -0.038,    0.015,   -0.083,   -0.006,   -0.026,   -0.082,
       -0.048,    0.009,    0.240,   -0.061,   -0.014,    0.023,    0.157,
       -0.041,   -0.021,   -0.060,    0.159,    0.066,    0.060,   -0.011,
       -0.072,   -0.040,    1.845,    1.148,   -2.589,    8.610,   -1.048,
       -3.556,   -0.106,   -3.756,   -1.782,   -7.830,    1.565,   -0.889,
       -1.404,    1.013,   -2.899,   -3.350
    },
    {  -0.021,    0.039,    0.044,   -0.091,   -0.080,    0.030,   -0.149,
       -0.068,    0.010,   -0.066,    0.012,    0.037,    0.052,   -0.019,
       -0.111,   -0.054,    0.254,    0.039,    0.058,    0.016,   -0.024,
        0.024,    0.053,   -0.006,    0.113,   -0.040,    0.070,    0.005,
        0.066,   -0.018,    1.396,    1.736,   -1.930,    8.090,   -0.422,
       -3.845,    0.084,   -4.700,   -2.026,   -8.177,    1.032,   -0.795,
       -1.460,    0.354,   -2.980,   -3.427
    },
    {  -0.012,    0.091,    0.158,   -0.148,   -0.110,    0.045,    0.023,
       -0.111,   -0.032,   -0.047,   -0.012,    0.013,    0.233,    0.044,
        0.133,    0.057,    0.055,    0.054,   -0.102,    0.001,    0.035,
        0.049,    0.114,   -0.011,   -0.013,   -0.016,   -0.037,    0.029,
        0.132,   -0.166,    1.471,    1.734,   -1.413,    7.581,   -0.772,
       -3.653,    1.163,   -4.013,   -1.842,   -8.180,    0.709,   -0.873,
       -1.561,    0.505,   -2.289,   -3.986
    },
    {   0.070,   -0.007,    0.098,    0.051,    0.069,    0.028,    0.044,
        0.174,    0.104,    0.069,   -0.126,    0.266,    0.268,   -0.112,
        0.119,   -0.155,    0.158,    0.035,   -0.051,    0.117,   -0.050,
       -0.022,    0.093,   -0.020,   -0.227,    0.167,   -0.009,   -0.185,
        0.118,    0.059,    1.570,    1.945,   -1.507,    8.194,   -1.528,
       -3.760,    1.313,   -4.261,   -1.112,   -8.522,    1.036,   -1.969,
       -1.824,    0.191,   -2.728,   -4.492
    },
    {  -0.125,   -0.041,    0.101,    0.195,   -0.133,    0.166,    0.065,
        0.306,    0.144,    0.063,   -0.079,   -0.037,   -0.221,    0.008,
       -0.029,   -0.133,    0.048,   -0.022,    0.074,   -0.055,    0.133,
       -0.076,    0.094,    0.010,    0.235,   -0.055,    0.211,    0.029,
        0.103,   -0.010,    1.250,    2.468,   -1.670,    7.576,   -0.670,
       -2.552,    1.689,   -4.014,   -1.271,   -7.933,    0.650,   -1.706,
       -1.680,   -0.246,   -3.146,   -4.865
    },
    {  -0.372,    0.016,    0.107,    0.026,   -0.154,    0.026,   -0.158,
        0.111,    0.013,   -0.034,   -0.166,    0.107,   -0.297,    0.116,
       -0.020,    0.030,    0.230,   -0.137,   -0.033,    0.129,    0.076,
        0.038,    0.036,   -0.032,    0.165,    0.021,    0.227,    0.088,
       -0.006,   -0.062,    1.810,    2.222,   -1.950,    7.732,   -0.648,
       -3.065,    1.996,   -4.677,   -2.258,   -7.334,    0.271,   -2.337,
       -1.254,    0.275,   -3.313,   -4.307
    },
    {  -0.253,    0.043,   -0.038,   -0.012,   -0.147,   -0.116,   -0.246,
        0.116,   -0.081,   -0.101,   -0.034,   -0.015,   -0.072,   -0.005,
        0.030,   -0.113,    0.100,   -0.129,   -0.089,   -0.002,    0.055,
       -0.041,   -0.028,    0.099,    0.101,    0.014,    0.205,   -0.087,
        0.084,   -0.008,    1.494,    2.660,   -1.446,    8.195,   -0.741,
       -2.881,    1.032,   -5.002,   -2.698,   -6.432,    0.303,   -3.016,
       -2.464,   -0.477,   -4.574,   -3.902
    },
    {  -0.156,   -0.102,    0.023,    0.027,   -0.175,    0.107,   -0.177,
        0.056,    0.074,    0.001,    0.084,    0.247,    0.173,    0.024,
       -0.186,    0.064,    0.079,   -0.097,   -0.088,   -0.112,   -0.101,
        0.089,    0.098,   -0.085,   -0.052,   -0.145,    0.122,    0.031,
        0.065,    0.082,    1.452,    2.348,   -0.957,    8.039,   -0.435,
       -2.816,    1.126,   -5.082,   -2.333,   -6.467,   -0.240,   -3.409,
       -2.028,   -0.910,   -4.075,   -3.843
    },
    {  -0.057,   -0.007,   -0.018,   -0.015,   -0.104,    0.021,    0.088,
       -0.064,    0.184,    0.043,    0.051,   -0.080,   -0.043,    0.045,
        0.240,   -0.017,    0.080,   -0.061,    0.014,   -0.054,   -0.099,
       -0.042,   -0.034,   -0.066,   -0.115,   -0.010,    0.090,   -0.010,
        0.098,   -0.098,    0.931,    2.647,   -1.488,    8.345,   -0.017,
       -2.892,    1.171,   -5.548,   -2.592,   -5.981,   -0.492,   -2.480,
       -2.048,   -0.161,   -4.722,   -3.390
    },
    {  -0.024,    0.007,    0.150,    0.007,   -0.061,    0.045,    0.193,
        0.017,    0.056,   -0.036,   -0.165,    0.063,    0.047,   -0.066,
        0.062,   -0.038,    0.172,    0.030,    0.042,    0.019,   -0.004,
       -0.039,   -0.068,   -0.007,    0.027,   -0.070,    0.075,    0.023,
        0.017,    0.018,    0.842,    2.213,   -1.117,    9.439,    0.665,
       -1.176,    1.180,   -5.196,   -1.721,   -6.051,   -0.251,   -2.306,
       -1.707,    0.538,   -4.599,   -2.869
    },
    {   0.133,    0.003,    0.081,    0.052,   -0.153,    0.029,    0.108,
        0.079,    0.127,   -0.012,    0.061,    0.140,    0.100,   -0.055,
       -0.024,    0.066,    0.087,    0.010,    0.065,    0.068,   -0.057,
       -0.071,    0.113,   -0.022,   -0.076,    0.019,    0.136,   -0.014,
        0.052,    0.027,    0.673,    2.325,   -1.863,    8.397,    1.767,
       -0.687,    1.520,   -4.798,   -1.711,   -5.455,    0.727,   -2.098,
       -1.153,   -0.230,   -4.312,   -3.139
    },
    {  -0.160,    0.051,    0.075,   -0.016,   -0.033,   -0.081,   -0.121,
       -0.006,   -0.042,    0.001,   -0.022,    0.098,    0.220,   -0.139,
        0.200,   -0.001,    0.024,   -0.004,    0.008,    0.016,    0.147,
       -0.049,   -0.121,    0.006,    0.023,    0.126,   -0.210,   -0.051,
        0.154,    0.012,    0.593,    2.574,   -1.906,    8.946,    1.677,
       -0.852,    1.700,   -6.164,   -1.766,   -5.006,    1.262,   -2.981,
       -2.734,   -0.708,   -4.891,   -2.612
    },
    {  -0.128,    0.102,    0.219,   -0.129,    0.070,   -0.089,   -0.056,
       -0.228,   -0.152,    0.042,   -0.090,   -0.076,    0.112,   -0.196,
        0.210,   -0.047,    0.040,   -0.056,    0.122,    0.042,    0.167,
       -0.081,   -0.033,    0.087,    0.012,    0.085,   -0.060,    0.087,
        0.095,   -0.175,    0.140,    3.423,   -3.252,    7.918,    2.306,
       -1.224,    2.565,   -5.294,   -1.050,   -4.747,    1.469,   -1.965,
       -3.460,   -1.187,   -3.828,   -3.439
    },
    {  -0.098,    0.086,    0.336,   -0.186,   -0.113,   -0.135,   -0.004,
       -0.043,   -0.096,    0.126,    0.003,   -0.113,    0.087,   -0.051,
        0.042,   -0.087,   -0.133,   -0.212,    0.255,   -0.117,    0.065,
       -0.351,   -0.043,    0.100,   -0.042,    0.258,    0.069,   -0.061,
        0.505,   -0.119,    1.222,    2.474,   -1.892,    8.060,    2.443,
       -1.438,    2.755,   -5.455,   -0.023,   -4.815,    1.447,   -1.903,
       -3.672,   -0.108,   -4.187,   -3.490
    },
    {  -0.243,    0.202,    0.281,   -0.145,   -0.146,   -0.007,    0.030,
        0.051,   -0.214,   -0.051,    0.003,   -0.031,   -0.009,    0.106,
        0.022,   -0.056,   -0.054,   -0.131,    0.335,    0.079,    0.065,
       -0.114,   -0.016,    0.202,    0.080,    0.179,    0.123,   -0.038,
        0.317,   -0.122,    0.830,    2.449,   -1.152,    8.039,    1.781,
       -1.597,    1.573,   -5.560,    0.114,   -4.653,    1.648,   -2.944,
       -4.274,   -0.765,   -4.994,   -3.520
    },
    {  -0.075,    0.009,    0.083,   -0.012,   -0.212,   -0.005,    0.124,
        0.196,    0.106,   -0.083,   -0.012,    0.044,    0.121,   -0.082,
        0.218,    0.010,   -0.082,    0.079,   -0.155,   -0.057,    0.010,
       -0.028,    0.014,   -0.084,    0.053,    0.038,    0.076,   -0.040,
        0.075,    0.042,    1.106,    2.872,   -1.180,    7.440,    2.207,
       -1.130,    1.139,   -5.713,    0.070,   -5.206,    1.699,   -2.946,
       -3.336,   -2.006,   -4.512,   -2.814
    },
    {   0.009,   -0.018,   -0.075,   -0.039,   -0.015,   -0.030,   -0.259,
       -0.103,   -0.034,   -0.037,    0.051,    0.091,   -0.036,   -0.017,
       -0.217,    0.003,    0.261,    0.016,    0.243,   -0.084,    0.013,
       -0.042,    0.072,   -0.075,    0.109,   -0.159,    0.151,   -0.105,
        0.144,    0.037,    1.007,    2.904,   -1.341,    8.086,    1.842,
       -1.278,    1.387,   -5.710,    0.006,   -4.972,    1.470,   -2.707,
       -3.833,   -2.289,   -4.650,   -3.335
    },
    {  -0.000,    0.015,   -0.142,   -0.113,   -0.291,   -0.020,   -0.239,
        0.040,   -0.015,   -0.022,   -0.256,    0.031,   -0.187,   -0.060,
       -0.070,    0.044,    0.196,   -0.032,    0.071,   -0.105,   -0.116,
       -0.002,    0.017,    0.038,    0.158,   -0.146,    0.017,   -0.042,
        0.134,   -0.009,    1.128,    3.064,   -1.216,    6.838,    1.491,
       -1.287,    1.546,   -5.537,   -0.150,   -5.242,    2.721,   -3.407,
       -3.689,   -1.938,   -4.280,   -4.361
    },
    {  -0.301,    0.031,    0.249,   -0.069,   -0.269,    0.145,   -0.249,
        0.179,   -0.138,   -0.091,   -0.346,    0.107,    0.076,    0.182,
       -0.045,   -0.180,   -0.108,    0.141,   -0.046,    0.014,    0.035,
        0.083,   -0.277,    0.043,   -0.035,   -0.327,   -0.240,   -0.033,
        0.032,   -0.118,    0.192,    3.936,   -1.799,    7.452,    1.800,
       -2.471,    0.371,   -4.893,    0.811,   -5.272,    2.545,   -3.481,
       -3.638,   -1.394,   -3.879,   -4.166
    },
    {  -0.300,   -0.111,    0.226,   -0.070,   -0.228,    0.080,    0.008,
        0.330,   -0.087,   -0.117,   -0.322,    0.134,    0.044,    0.264,
       -0.204,   -0.132,   -0.224,   -0.074,   -0.109,    0.289,    0.075,
        0.083,    0.013,    0.139,    0.054,   -0.385,   -0.175,    0.045,
       -0.017,   -0.076,    1.061,    4.111,   -1.166,    7.530,    1.233,
       -1.718,    2.350,   -5.847,    0.213,   -4.191,    2.348,   -3.039,
       -2.739,   -1.703,   -4.478,   -4.894
    },
    {  -0.067,   -0.155,    0.063,    0.092,   -0.286,    0.172,   -0.231,
       -0.003,   -0.067,   -0.068,    0.001,    0.037,   -0.003,    0.157,
       -0.014,   -0.109,    0.008,   -0.201,   -0.143,    0.407,   -0.048,
        0.126,   -0.036,    0.053,    0.037,   -0.361,   -0.191,   -0.075,
        0.008,    0.261,    0.399,    4.803,   -0.783,    8.358,    1.082,
       -1.685,    1.901,   -6.522,    0.356,   -4.741,    2.131,   -2.674,
       -2.273,   -2.380,   -4.172,   -4.753
    },
    {   0.150,   -0.217,   -0.080,    0.284,   -0.186,    0.107,   -0.091,
       -0.087,   -0.046,   -0.030,   -0.098,    0.322,    0.025,   -0.010,
       -0.027,   -0.071,    0.206,   -0.247,    0.211,    0.358,   -0.072,
        0.066,    0.152,    0.026,    0.095,    0.012,    0.120,   -0.217,
       -0.060,    0.328,    0.141,    5.569,   -0.904,    7.968,    0.170,
       -1.949,    1.565,   -7.782,   -0.157,   -4.268,    2.343,   -3.306,
       -3.313,   -1.909,   -4.087,   -4.727
    },
    {   0.077,   -0.046,    0.076,   -0.001,   -0.198,    0.019,   -0.035,
       -0.097,    0.028,   -0.246,    0.043,    0.039,   -0.031,   -0.042,
        0.070,   -0.097,    0.051,    0.056,   -0.079,    0.278,   -0.013,
       -0.095,   -0.139,    0.075,    0.119,   -0.202,   -0.105,   -0.000,
        0.172,    0.250,   -0.550,    5.035,    0.493,    7.530,    0.443,
       -2.720,    1.034,   -7.793,   -0.132,   -3.774,    2.850,   -3.179,
       -2.862,   -1.679,   -5.494,   -4.591
    },
    {  -0.242,    0.070,    0.038,    0.003,    0.156,    0.119,   -0.115,
       -0.059,    0.026,    0.161,   -0.044,   -0.062,    0.021,    0.064,
       -0.057,   -0.119,   -0.266,   -0.111,    0.022,   -0.134,    0.004,
        0.114,    0.172,    0.027,   -0.297,    0.119,    0.147,   -0.072,
       -0.027,   -0.081,   -1.318,    5.831,   -0.303,    7.610,    0.309,
       -1.999,    1.547,   -7.841,   -0.361,   -3.915,    1.467,   -3.298,
       -3.204,   -1.126,   -5.677,   -4.872
    },
    {  -0.094,    0.215,   -0.053,    0.084,   -0.040,    0.330,   -0.081,
       -0.042,   -0.117,    0.315,   -0.090,   -0.251,   -0.010,   -0.004,
        0.006,   -0.183,   -0.164,   -0.122,    0.043,   -0.019,    0.146,
        0.135,    0.186,    0.192,   -0.179,    0.149,    0.171,    0.241,
       -0.106,   -0.097,   -0.612,    6.272,   -0.787,    7.241,   -0.312,
       -2.993,    1.302,   -7.856,   -0.130,   -3.679,    1.465,   -3.077,
       -2.387,   -0.893,   -6.406,   -4.137
    },
    {  -0.083,    0.150,   -0.013,    0.043,   -0.086,    0.220,   -0.071,
        0.016,   -0.146,    0.257,    0.027,   -0.234,   -0.059,   -0.018,
        0.008,   -0.116,   -0.009,   -0.012,    0.035,    0.042,    0.154,
        0.016,    0.031,    0.127,    0.019,    0.068,   -0.076,    0.275,
       -0.034,   -0.268,   -1.605,    6.661,   -1.539,    7.603,    0.739,
       -2.340,    2.012,   -7.429,   -0.159,   -4.669,    0.829,   -2.396,
       -2.786,   -1.768,   -6.205,   -4.459
    },
    {  -0.044,    0.146,   -0.042,    0.197,    0.080,    0.073,    0.010,
        0.048,    0.039,    0.119,   -0.113,   -0.063,    0.080,   -0.065,
        0.003,    0.009,   -0.028,    0.146,   -0.086,    0.241,   -0.049,
       -0.074,   -0.003,   -0.135,    0.009,    0.096,    0.055,    0.234,
       -0.008,   -0.226,   -1.199,    6.455,   -1.608,    7.993,    1.106,
       -2.458,    2.480,   -7.685,    0.361,   -4.164,    0.206,   -2.790,
       -2.771,   -2.499,   -5.664,   -4.778
    },
    {  -0.110,    0.007,   -0.072,    0.069,   -0.061,    0.036,   -0.122,
        0.092,    0.114,   -0.048,    0.015,   -0.004,    0.025,   -0.048,
       -0.079,    0.023,    0.030,   -0.061,    0.022,    0.000,    0.055,
        0.102,    0.003,   -0.147,    0.079,    0.004,    0.046,    0.077,
       -0.028,    0.012,    0.258,    5.378,   -1.020,    7.961,    0.652,
       -1.641,    1.955,   -7.207,    0.043,   -4.876,    0.312,   -2.418,
       -3.035,   -1.899,   -5.225,   -3.971
    },
    {  -0.013,   -0.024,    0.116,    0.146,   -0.023,    0.014,    0.056,
       -0.043,    0.014,    0.064,    0.140,   -0.092,   -0.058,   -0.047,
       -0.178,    0.007,    0.138,    0.039,    0.240,    0.076,   -0.011,
        0.009,    0.215,   -0.068,    0.071,   -0.001,    0.050,   -0.116,
       -0.042,   -0.085,   -0.591,    5.477,   -1.325,    8.763,    0.881,
       -1.555,    1.425,   -6.931,   -0.202,   -5.194,    0.257,   -2.385,
       -2.571,   -1.805,   -5.459,   -3.936
    },
    {  -0.166,    0.029,    0.058,   -0.038,   -0.044,    0.054,    0.129,
       -0.005,   -0.039,    0.025,    0.082,   -0.014,   -0.019,   -0.054,
        0.080,   -0.019,    0.073,   -0.031,    0.226,   -0.065,    0.068,
       -0.041,    0.134,    0.110,   -0.053,   -0.004,    0.113,    0.008,
       -0.108,    0.022,    0.278,    5.562,   -0.921,    8.455,    0.570,
       -2.167,    1.760,   -6.948,   -0.230,   -5.390,    0.285,   -2.614,
       -3.013,   -0.908,   -6.197,   -3.639
    },
    {  -0.113,    0.048,    0.038,   -0.037,   -0.161,   -0.074,   -0.062,
       -0.047,    0.019,    0.011,    0.080,    0.014,   -0.055,   -0.074,
       -0.028,   -0.005,    0.096,   -0.003,    0.000,   -0.011,   -0.160,
        0.017,   -0.147,   -0.069,    0.055,   -0.080,   -0.051,   -0.037,
       -0.022,    0.026,   -0.652,    6.318,   -1.251,    8.899,    0.618,
       -1.559,    2.237,   -7.542,    0.209,   -5.180,   -0.168,   -2.194,
       -2.830,   -1.818,   -6.237,   -4.261
    },
    {   0.033,    0.066,    0.078,   -0.047,   -0.020,   -0.021,   -0.045,
       -0.021,    0.046,   -0.027,    0.035,   -0.014,    0.081,   -0.017,
       -0.059,   -0.039,    0.003,   -0.033,    0.026,   -0.046,   -0.165,
        0.052,   -0.115,   -0.109,   -0.010,   -0.062,   -0.015,    0.003,
        0.062,   -0.017,   -1.711,    5.906,   -1.940,    8.403,    0.498,
       -0.771,    1.883,   -7.803,   -1.361,   -5.100,    0.422,   -2.243,
       -2.437,   -1.777,   -6.141,   -3.286
    },
    {   0.044,    0.016,    0.067,   -0.005,   -0.039,    0.030,   -0.064,
        0.055,    0.117,   -0.063,   -0.021,   -0.033,    0.067,   -0.000,
        0.087,   -0.019,    0.054,   -0.035,    0.131,    0.007,    0.016,
        0.020,   -0.086,   -0.061,    0.023,   -0.070,   -0.022,   -0.004,
       -0.035,   -0.002,   -0.853,    5.171,   -1.434,    7.925,    0.856,
       -0.442,    2.255,   -7.886,   -1.455,   -5.478,   -0.407,   -2.690,
       -1.871,   -2.091,   -6.534,   -3.674
    },
    {  -0.018,    0.036,    0.012,    0.024,   -0.002,    0.038,    0.012,
       -0.066,    0.030,    0.088,   -0.016,    0.009,    0.084,   -0.052,
        0.029,    0.005,    0.117,   -0.034,   -0.022,    0.017,   -0.047,
       -0.038,    0.033,    0.080,   -0.039,    0.084,   -0.015,   -0.002,
       -0.103,   -0.045,   -0.965,    4.595,   -0.771,    7.759,    1.650,
        0.139,    2.104,   -7.753,   -2.136,   -4.835,   -0.388,   -2.371,
       -2.424,   -1.779,   -8.161,   -3.926
    },
    {   0.026,    0.032,   -0.091,    0.090,   -0.021,   -0.078,    0.007,
        0.039,   -0.003,    0.012,   -0.032,    0.044,    0.076,   -0.113,
        0.122,    0.166,    0.004,   -0.041,    0.050,    0.098,   -0.035,
        0.011,    0.003,   -0.040,    0.030,   -0.019,   -0.006,   -0.001,
       -0.014,   -0.101,   -1.080,    3.939,   -1.197,    8.165,    1.292,
       -0.019,    2.059,   -7.815,   -2.403,   -5.360,   -0.098,   -3.253,
       -2.347,   -1.926,   -8.040,   -3.787
    },
    {   0.004,    0.002,   -0.005,    0.030,   -0.005,    0.034,   -0.009,
        0.049,    0.000,    0.110,    0.003,   -0.013,    0.042,   -0.067,
        0.024,    0.097,    0.020,    0.086,    0.007,    0.026,   -0.059,
       -0.016,    0.069,   -0.014,    0.067,   -0.027,   -0.016,    0.028,
       -0.046,   -0.149,   -1.374,    3.698,   -1.136,    8.970,    1.744,
        0.233,    1.771,   -8.097,   -1.965,   -4.439,    0.067,   -2.758,
       -2.343,   -2.261,   -8.184,   -3.748
    },
    {   0.022,   -0.084,   -0.033,    0.015,   -0.017,   -0.018,   -0.033,
        0.126,   -0.009,   -0.100,    0.013,    0.141,    0.023,   -0.016,
       -0.003,   -0.045,   -0.025,   -0.052,    0.034,   -0.010,    0.004,
        0.008,   -0.002,   -0.057,    0.019,   -0.005,   -0.004,    0.016,
       -0.000,   -0.102,   -1.664,    3.351,   -1.096,    8.241,    1.481,
       -0.512,    2.129,   -8.514,   -1.374,   -4.339,    0.117,   -2.699,
       -2.390,   -2.127,   -7.841,   -3.556
    },
    {   0.006,   -0.048,   -0.020,   -0.032,    0.002,    0.122,   -0.006,
       -0.002,    0.026,    0.046,    0.009,    0.061,    0.038,    0.037,
        0.001,    0.065,    0.006,   -0.002,    0.014,    0.027,    0.017,
       -0.015,    0.007,    0.035,    0.014,    0.040,   -0.025,   -0.022,
        0.026,   -0.023,   -1.511,    2.770,   -1.371,    7.839,    1.934,
       -0.513,    2.390,   -8.763,   -2.104,   -4.065,    0.323,   -2.659,
       -1.696,   -1.995,   -8.588,   -2.931
    },
    {   0.024,   -0.068,    0.025,   -0.060,   -0.040,    0.097,   -0.020,
        0.016,   -0.012,    0.031,    0.003,    0.016,   -0.018,    0.027,
        0.004,   -0.044,    0.015,   -0.015,    0.018,   -0.022,   -0.001,
        0.014,    0.026,    0.127,   -0.009,    0.006,    0.023,   -0.038,
        0.041,   -0.037,   -1.269,    2.998,   -2.023,    8.635,    2.236,
        0.284,    2.975,   -9.877,   -1.618,   -4.659,    0.469,   -3.240,
       -1.541,   -1.499,   -9.020,   -2.592
    },
    {   0.004,   -0.020,    0.051,   -0.054,   -0.017,    0.009,    0.017,
       -0.049,   -0.041,   -0.070,   -0.033,    0.039,   -0.032,   -0.033,
        0.003,    0.001,    0.006,   -0.039,   -0.000,    0.026,   -0.011,
       -0.024,    0.031,    0.077,   -0.001,   -0.027,    0.018,    0.003,
        0.015,   -0.017,   -1.443,    2.971,   -2.871,    9.092,    2.443,
        0.542,    3.453,   -9.830,   -1.987,   -4.525,    0.524,   -3.039,
       -1.580,   -1.677,   -8.755,   -2.713
    },
    {  -0.038,   -0.020,    0.004,   -0.035,   -0.018,    0.048,   -0.006,
        0.026,   -0.005,   -0.013,   -0.033,   -0.015,   -0.017,   -0.014,
        0.020,    0.021,    0.022,   -0.044,   -0.001,    0.037,   -0.015,
       -0.037,    0.060,    0.035,   -0.039,   -0.021,    0.003,    0.025,
       -0.005,   -0.045,   -1.487,    3.138,   -2.777,    9.223,    2.637,
        0.444,    3.030,   -9.988,   -1.664,   -4.691,    0.788,   -3.077,
       -1.634,   -1.402,   -9.572,   -3.030
    },
    {   0.054,   -0.041,    0.034,   -0.016,    0.010,    0.045,   -0.040,
        0.112,   -0.011,   -0.004,    0.014,    0.015,    0.029,   -0.049,
       -0.024,   -0.049,    0.016,    0.039,    0.051,    0.036,   -0.001,
       -0.035,   -0.021,    0.011,   -0.051,    0.011,   -0.002,    0.027,
        0.072,    0.022,   -1.524,    2.134,   -2.311,    9.278,    1.931,
        0.518,    2.040,   -8.876,   -2.227,   -4.436,    1.579,   -2.543,
       -0.909,   -0.832,   -9.547,   -2.341
    },
    {   0.030,   -0.027,   -0.028,   -0.052,   -0.026,    0.029,   -0.016,
        0.023,    0.020,   -0.016,   -0.068,   -0.038,    0.007,   -0.014,
        0.047,   -0.021,   -0.020,   -0.016,    0.013,   -0.040,    0.002,
       -0.051,    0.016,    0.089,    0.020,   -0.036,   -0.058,   -0.026,
       -0.065,   -0.010,   -2.128,    1.244,   -1.864,    8.558,    3.006,
        0.919,    1.026,   -8.446,   -2.639,   -3.982,    0.881,   -1.776,
       -1.272,   -1.560,  -10.228,   -1.721
    },
    {  -0.015,   -0.000,    0.020,   -0.022,    0.020,   -0.034,    0.032,
       -0.033,    0.018,   -0.009,    0.027,   -0.005,   -0.055,   -0.097,
        0.001,   -0.019,    0.014,   -0.028,    0.054,    0.048,    0.035,
       -0.080,   -0.004,    0.082,    0.010,   -0.031,    0.020,   -0.003,
       -0.033,   -0.041,   -2.197,    2.302,   -2.382,    8.840,    2.808,
        1.081,    0.924,   -8.249,   -2.297,   -4.266,    0.672,   -1.322,
       -1.303,   -0.985,  -10.132,   -1.302
    },
    {  -0.006,    0.024,    0.012,   -0.009,    0.045,    0.021,   -0.050,
        0.080,   -0.035,   -0.036,   -0.013,   -0.018,    0.019,   -0.055,
       -0.026,   -0.030,    0.037,   -0.019,   -0.047,    0.031,    0.006,
       -0.013,   -0.003,   -0.009,   -0.004,    0.068,    0.012,    0.014,
        0.073,    0.017,   -1.495,    2.293,   -2.255,    9.387,    2.948,
        0.567,    0.923,   -8.159,   -1.888,   -3.976,    1.722,   -2.151,
       -0.405,   -1.889,  -10.842,   -1.907
    },
    {  -0.030,    0.033,    0.004,   -0.048,   -0.000,    0.034,   -0.033,
        0.009,    0.053,    0.001,    0.021,    0.014,   -0.005,    0.009,
        0.023,   -0.014,   -0.016,   -0.003,   -0.003,    0.026,    0.050,
       -0.093,    0.018,   -0.034,   -0.027,   -0.054,   -0.038,    0.001,
        0.109,    0.035,   -1.842,    0.879,   -1.533,    8.497,    3.321,
        0.887,    0.471,   -7.248,   -2.754,   -4.143,    1.626,   -3.186,
       -0.252,   -2.025,  -10.323,   -1.959
    },
    {   0.057,   -0.010,   -0.017,   -0.067,    0.005,    0.029,   -0.020,
        0.017,    0.056,   -0.061,   -0.028,   -0.035,   -0.012,   -0.067,
        0.119,   -0.005,   -0.037,   -0.029,   -0.020,   -0.047,    0.027,
        0.043,    0.035,    0.015,   -0.036,    0.040,   -0.005,   -0.008,
        0.081,   -0.016,   -1.720,    1.851,   -1.372,    8.278,    2.226,
        0.774,    0.571,   -7.045,   -2.146,   -4.216,    0.838,   -3.083,
       -0.262,   -1.569,  -10.260,   -1.967
    },
    {  -0.009,   -0.088,   -0.006,    0.024,    0.024,   -0.015,   -0.035,
       -0.016,   -0.078,    0.081,    0.029,   -0.153,    0.045,   -0.034,
       -0.013,   -0.069,   -0.038,    0.008,    0.061,   -0.017,    0.138,
        0.001,    0.004,   -0.106,    0.040,   -0.110,   -0.019,   -0.073,
       -0.168,    0.015,   -1.771,    1.392,   -1.469,    8.758,    3.582,
        1.285,    0.720,   -6.762,   -1.254,   -3.791,    0.791,   -2.757,
       -0.193,   -1.219,  -10.215,   -2.022
    },
    {  -0.148,    0.007,    0.079,   -0.008,    0.033,   -0.074,   -0.011,
        0.028,   -0.023,    0.011,    0.079,   -0.085,    0.055,   -0.018,
       -0.015,    0.010,   -0.084,   -0.121,   -0.037,   -0.007,    0.085,
       -0.066,    0.035,   -0.039,    0.058,   -0.128,    0.005,   -0.058,
       -0.068,    0.041,   -1.404,    2.102,   -0.915,    8.750,    3.792,
        1.690,    1.009,   -7.334,   -1.384,   -3.563,    0.795,   -2.391,
       -0.128,   -0.891,   -9.998,   -2.166
    },
    {   0.043,    0.041,   -0.059,    0.087,   -0.031,   -0.131,   -0.060,
        0.081,   -0.063,    0.168,    0.087,   -0.076,    0.047,    0.009,
        0.051,   -0.090,    0.026,   -0.172,   -0.018,   -0.053,   -0.010,
        0.051,   -0.104,    0.039,    0.016,   -0.114,   -0.021,   -0.060,
       -0.064,    0.016,   -1.300,    2.456,   -1.042,    8.079,    4.515,
        1.457,    1.958,   -7.302,   -0.402,   -4.005,    0.685,   -2.051,
        0.737,   -1.310,  -10.518,   -2.292
    },
    {  -0.100,    0.001,   -0.140,   -0.090,   -0.132,    0.061,   -0.029,
       -0.029,   -0.036,   -0.027,    0.208,    0.048,    0.017,    0.009,
       -0.109,    0.054,    0.043,    0.124,    0.005,    0.008,   -0.048,
       -0.070,   -0.050,    0.043,   -0.065,    0.029,   -0.033,   -0.021,
       -0.068,   -0.070,   -1.629,    3.093,   -2.446,    7.599,    3.485,
        0.610,    2.141,   -6.549,    0.036,   -4.295,    0.269,   -3.291,
        1.849,   -1.740,  -10.160,   -2.954
    },
    {  -0.127,    0.001,   -0.013,    0.001,   -0.146,    0.050,   -0.064,
        0.071,    0.013,   -0.012,    0.304,    0.007,   -0.052,    0.017,
       -0.148,    0.025,    0.057,   -0.072,    0.043,    0.050,   -0.170,
       -0.024,    0.050,   -0.088,   -0.090,   -0.106,    0.024,    0.011,
       -0.098,    0.084,   -1.693,    3.806,   -1.554,    7.761,    4.266,
        0.494,    2.336,   -6.707,   -0.132,   -5.060,    0.422,   -3.635,
        1.523,   -1.430,  -10.038,   -3.412
    },
    {  -0.027,   -0.165,   -0.159,   -0.108,   -0.154,    0.013,    0.033,
       -0.003,   -0.103,   -0.189,    0.133,    0.095,    0.068,   -0.145,
        0.006,    0.137,    0.097,    0.116,    0.011,   -0.004,   -0.061,
        0.089,    0.146,   -0.230,    0.079,   -0.035,   -0.039,   -0.093,
       -0.092,   -0.048,   -1.222,    3.075,   -1.365,    8.052,    4.149,
        0.336,    2.101,   -7.159,   -0.022,   -5.115,    0.463,   -3.878,
        2.145,   -1.634,  -10.171,   -3.467
    }
  };


  double netfun(std::vector<double>& in, const double* w)
  {
    double x00 = in[0];
    double x;

    //Layer 1, Node 0
    x = w[0];
    x = x + w[1] * x00;
    double x10 = tanh(x);

    //Layer 1, Node 1
    x = w[2];
    x = x + w[3] * x00;
    double x11 = tanh(x);

    //Layer 1, Node 2
    x = w[4];
    x = x + w[5] * x00;
    double x12 = tanh(x);

    //Layer 1, Node 3
    x = w[6];
    x = x + w[7] * x00;
    double x13 = tanh(x);

    //Layer 1, Node 4
    x = w[8];
    x = x + w[9] * x00;
    double x14 = tanh(x);

    //Layer 1, Node 5
    x = w[10];
    x = x + w[11] * x00;
    double x15 = tanh(x);

    //Layer 1, Node 6
    x = w[12];
    x = x + w[13] * x00;
    double x16 = tanh(x);

    //Layer 1, Node 7
    x = w[14];
    x = x + w[15] * x00;
    double x17 = tanh(x);

    //Layer 1, Node 8
    x = w[16];
    x = x + w[17] * x00;
    double x18 = tanh(x);

    //Layer 1, Node 9
    x = w[18];
    x = x + w[19] * x00;
    double x19 = tanh(x);

    //Layer 1, Node 10
    x = w[20];
    x = x + w[21] * x00;
    double x110 = tanh(x);

    //Layer 1, Node 11
    x = w[22];
    x = x + w[23] * x00;
    double x111 = tanh(x);

    //Layer 1, Node 12
    x = w[24];
    x = x + w[25] * x00;
    double x112 = tanh(x);

    //Layer 1, Node 13
    x = w[26];
    x = x + w[27] * x00;
    double x113 = tanh(x);

    //Layer 1, Node 14
    x = w[28];
    x = x + w[29] * x00;
    double x114 = tanh(x);

    //Layer 2, Node 0
    x = w[30];
    x = x + w[31] * x10;
    x = x + w[32] * x11;
    x = x + w[33] * x12;
    x = x + w[34] * x13;
    x = x + w[35] * x14;
    x = x + w[36] * x15;
    x = x + w[37] * x16;
    x = x + w[38] * x17;
    x = x + w[39] * x18;
    x = x + w[40] * x19;
    x = x + w[41] * x110;
    x = x + w[42] * x111;
    x = x + w[43] * x112;
    x = x + w[44] * x113;
    x = x + w[45] * x114;
    double x20 = 1.0/(1.0+exp(-x));
    return x20;
  }
}; // End anonymous namespace

//-----------------------------------------------------------------------------
// Compute average over networks. Default is to use all networks
//-----------------------------------------------------------------------------

double HT250_MHT60_v2_HT250_v2_161205_163268_sel1(std::vector<double>& inputvars,
                                                  int first=0,
                                                  int last=nnetworks-1)
{
  if ( first < 0 ) first = 0;
  if ( last  < 0 ) last  = nnetworks-1;
  if ( last  > nnetworks-1 ) last = nnetworks-1;
  if ( first > last )
    {
      std::cerr << "** HT250_MHT60_v2_HT250_v2_161205_163268_sel1 ** first-index > last-index"
                << std::endl; exit(3);
    }

  // Compute average over networks
  std::vector<double> in(ninputs);
  in[0] = (inputvars[0] - mean[0]) / sigma[0];

  int   n = last - first + 1;
  double x = 0.0;
  for(int i=first; i <= last; i++) x += netfun(in, weight[i]);
  return x / n;
}

extern "C" double HT250_MHT60_v2_HT250_v2_161205_163268_sel1_dl(std::vector<double>& in,
                                                                int first=0,
                                                                int last=nnetworks-1)
{
  return HT250_MHT60_v2_HT250_v2_161205_163268_sel1(in, first, last);
}

extern "C" double HT250_MHT60_v2_HT250_v2_161205_163268_sel1_dl2(double* in,
                                                                 int first=0,
                                                                 int last=nnetworks-1)
{
  std::vector<double> invec;

  invec.push_back(in[0]);

  return HT250_MHT60_v2_HT250_v2_161205_163268_sel1(invec, first, last);
}
