//-----------------------------------------------------------------------------
// Network: HT300_MHT80_v2_HT300_v9_170065_173211_sel2
// Inputs:
//                                                  Offset       Scale
//    offlinevar                                 2.376e+01   1.552e+01
//
// Created: Wed Dec 21 19:43:38 2011
//-----------------------------------------------------------------------------
#include <cmath>
#include <vector>
#include <iostream>
#include <stdlib.h>
//-----------------------------------------------------------------------------
// Make following visible only to this programming unit
namespace {
  // NOTE: Network indices start at 0
  static const int nnetworks=100;
  static const int ninputs  =1;
  static const int nhidden  =15;
  static const int nparams  =46;

  static const double mean[ninputs]={
  2.37600e+01
  };

  static const double sigma[ninputs]={
  1.55200e+01
  };

  static const double weight[nnetworks][nparams]={
    {   0.095,    0.229,    1.162,    0.068,    0.635,   -0.015,    0.021,
        0.090,   -0.325,    0.009,    3.050,   -0.089,    0.189,   -0.118,
       -0.118,    0.128,   -1.694,    0.066,   -2.497,    0.075,    1.495,
       -0.196,    0.103,    0.011,   -0.554,    0.057,    1.480,    0.140,
        0.121,   -0.052,   -9.065,   -0.094,   -4.472,    6.932,   -2.257,
       -6.002,    1.166,   -5.919,    0.745,   -1.574,   -1.610,   -1.585,
        3.426,    2.493,    3.627,    0.398
    },
    {   0.099,    0.173,    1.229,    0.167,    0.643,   -0.034,    0.040,
        0.087,   -0.382,    0.028,    2.983,   -0.105,    0.123,   -0.130,
       -0.127,    0.153,   -1.792,    0.171,   -2.486,    0.103,    1.424,
       -0.236,    0.108,    0.033,   -0.637,    0.052,    1.347,    0.175,
        0.155,   -0.058,   -9.281,   -0.182,   -4.591,    6.396,   -2.289,
       -6.123,    1.244,   -6.343,    0.946,   -1.655,   -1.604,   -1.563,
        3.606,    2.538,    3.713,    0.304
    },
    {   0.008,    0.139,    1.198,    0.079,    0.674,    0.009,    0.021,
        0.065,   -0.367,   -0.039,    3.005,   -0.106,    0.192,   -0.016,
       -0.126,    0.145,   -1.829,    0.171,   -2.441,   -0.010,    1.434,
       -0.230,    0.095,    0.055,   -0.583,    0.010,    1.307,    0.163,
        0.220,    0.043,   -9.029,   -0.277,   -4.765,    6.280,   -2.730,
       -6.064,    1.322,   -6.368,    1.181,   -1.842,   -1.382,   -1.547,
        3.765,    2.322,    3.898,    0.297
    },
    {  -0.073,    0.140,    1.153,    0.079,    0.625,    0.015,    0.034,
       -0.100,   -0.465,   -0.040,    2.963,   -0.092,    0.257,    0.008,
       -0.136,    0.049,   -1.697,    0.077,   -2.502,   -0.105,    1.359,
       -0.189,    0.138,   -0.003,   -0.645,    0.030,    1.369,    0.141,
        0.184,   -0.037,   -8.990,   -0.011,   -4.569,    6.342,   -2.928,
       -6.051,    1.239,   -6.716,    1.448,   -1.672,   -1.385,   -1.411,
        3.920,    2.284,    3.742,    0.549
    },
    {  -0.071,    0.149,    1.173,    0.084,    0.651,    0.027,    0.165,
       -0.119,   -0.505,   -0.029,    2.847,   -0.028,    0.233,   -0.023,
       -0.113,   -0.037,   -1.784,    0.084,   -2.472,   -0.200,    1.349,
       -0.147,    0.064,    0.014,   -0.643,   -0.033,    1.298,    0.093,
        0.174,   -0.020,   -9.163,   -0.000,   -4.751,    6.691,   -2.585,
       -5.906,    1.512,   -6.445,    1.667,   -1.790,   -1.677,   -1.616,
        3.312,    2.651,    3.908,    0.393
    },
    {  -0.230,   -0.036,    1.182,   -0.003,    0.707,   -0.025,    0.270,
       -0.104,   -0.451,   -0.060,    2.939,    0.013,    0.217,   -0.013,
       -0.173,   -0.025,   -1.716,   -0.049,   -2.403,   -0.097,    1.355,
       -0.141,    0.100,    0.006,   -0.699,    0.034,    1.526,    0.038,
        0.304,   -0.032,   -8.560,    0.250,   -4.674,    6.566,   -2.697,
       -5.965,    1.476,   -6.385,    1.194,   -1.892,   -1.492,   -1.521,
        3.537,    2.302,    3.248,   -0.107
    },
    {  -0.311,   -0.125,    1.209,    0.005,    0.710,   -0.027,    0.246,
       -0.131,   -0.449,   -0.102,    2.850,   -0.059,    0.256,    0.027,
       -0.173,    0.015,   -1.719,   -0.031,   -2.287,   -0.133,    1.289,
       -0.131,    0.003,   -0.067,   -0.675,    0.156,    1.607,    0.011,
        0.276,   -0.049,   -8.738,    0.349,   -4.768,    6.818,   -2.736,
       -6.194,    1.711,   -6.391,    1.341,   -1.909,   -1.667,   -1.329,
        3.538,    2.465,    3.235,    0.060
    },
    {  -0.253,   -0.071,    1.225,    0.068,    0.669,   -0.044,    0.217,
       -0.139,   -0.453,   -0.091,    2.850,    0.086,    0.270,    0.002,
       -0.218,    0.045,   -1.736,   -0.009,   -2.226,   -0.067,    1.268,
       -0.110,    0.011,   -0.070,   -0.653,    0.161,    1.673,   -0.055,
        0.293,   -0.090,   -8.645,    0.337,   -4.652,    6.795,   -2.851,
       -6.090,    1.697,   -6.192,    1.124,   -1.940,   -1.530,   -1.410,
        3.514,    2.424,    3.311,    0.116
    },
    {  -0.236,   -0.207,    1.290,    0.092,    0.679,   -0.032,    0.223,
       -0.171,   -0.437,    0.004,    2.848,    0.023,    0.420,   -0.079,
       -0.250,    0.031,   -1.701,   -0.120,   -2.253,    0.059,    1.342,
       -0.039,   -0.002,   -0.020,   -0.598,    0.022,    1.874,    0.025,
        0.350,   -0.013,   -8.545,    0.554,   -4.444,    6.599,   -3.136,
       -6.266,    1.422,   -6.397,    0.785,   -2.156,   -1.787,   -1.109,
        3.465,    2.053,    3.332,    0.415
    },
    {  -0.340,   -0.083,    1.218,   -0.055,    0.804,    0.097,    0.240,
       -0.076,   -0.442,    0.100,    2.807,   -0.032,    0.552,   -0.077,
       -0.241,    0.044,   -1.605,   -0.083,   -2.344,    0.080,    1.374,
        0.074,    0.008,    0.113,   -0.544,   -0.163,    1.985,    0.089,
        0.348,    0.020,   -8.717,    0.368,   -4.559,    6.864,   -2.986,
       -6.606,    1.174,   -6.380,    0.771,   -2.272,   -2.123,   -1.149,
        3.621,    2.132,    3.194,    0.282
    },
    {  -0.367,   -0.123,    1.187,   -0.037,    0.896,    0.045,    0.216,
       -0.144,   -0.439,    0.056,    2.790,    0.005,    0.626,   -0.040,
       -0.206,    0.001,   -1.603,   -0.137,   -2.312,    0.085,    1.340,
        0.052,    0.104,    0.091,   -0.629,   -0.176,    1.947,    0.093,
        0.396,    0.018,   -8.679,   -0.150,   -4.731,    6.638,   -3.120,
       -6.602,    1.251,   -6.466,    0.850,   -2.306,   -2.385,   -1.675,
        3.511,    2.174,    3.180,    0.164
    },
    {  -0.341,   -0.120,    1.236,   -0.037,    0.865,    0.108,    0.293,
       -0.155,   -0.508,    0.073,    2.781,    0.012,    0.625,   -0.113,
       -0.208,   -0.075,   -1.627,   -0.128,   -2.269,    0.062,    1.349,
        0.053,    0.114,   -0.016,   -0.599,   -0.169,    1.945,    0.049,
        0.316,   -0.007,   -8.800,    0.068,   -4.860,    6.654,   -2.876,
       -6.433,    0.977,   -6.330,    0.963,   -2.515,   -2.617,   -1.447,
        3.523,    2.053,    2.962,    0.258
    },
    {  -0.238,   -0.232,    1.259,    0.122,    0.922,    0.122,    0.244,
       -0.160,   -0.579,    0.228,    2.801,   -0.013,    0.679,   -0.232,
       -0.200,   -0.046,   -1.580,   -0.120,   -2.321,    0.170,    1.344,
        0.043,    0.167,    0.040,   -0.654,   -0.060,    1.967,    0.094,
        0.328,   -0.015,   -8.696,    0.153,   -4.906,    6.773,   -2.986,
       -6.064,    0.842,   -6.427,    1.070,   -2.438,   -2.788,   -1.551,
        3.313,    2.155,    2.812,    0.376
    },
    {  -0.311,   -0.019,    1.305,    0.135,    0.821,    0.048,    0.168,
       -0.062,   -0.616,    0.086,    2.842,   -0.032,    0.674,   -0.118,
       -0.208,   -0.138,   -1.632,   -0.161,   -2.322,    0.173,    1.348,
       -0.036,    0.136,    0.081,   -0.652,    0.077,    1.932,    0.099,
        0.409,   -0.141,   -8.690,    0.091,   -4.374,    6.603,   -2.911,
       -6.118,    0.981,   -6.383,    0.868,   -2.105,   -2.563,   -1.533,
        3.087,    1.872,    2.604,    0.325
    },
    {  -0.379,    0.051,    1.403,    0.083,    0.913,   -0.015,    0.155,
       -0.062,   -0.585,    0.150,    2.778,   -0.059,    0.667,   -0.173,
       -0.286,   -0.061,   -1.729,   -0.171,   -2.352,    0.131,    1.215,
       -0.077,    0.049,    0.145,   -0.640,    0.019,    1.996,    0.158,
        0.494,   -0.039,   -8.924,    0.034,   -4.366,    6.787,   -3.280,
       -6.309,    1.042,   -6.310,    1.017,   -2.094,   -2.454,   -1.485,
        3.362,    1.908,    2.790,    0.238
    },
    {  -0.336,   -0.111,    1.361,    0.129,    0.909,    0.026,    0.081,
       -0.103,   -0.570,    0.100,    2.656,   -0.014,    0.806,   -0.112,
       -0.283,   -0.111,   -1.635,   -0.047,   -2.385,    0.148,    1.288,
       -0.060,    0.063,    0.154,   -0.713,    0.057,    1.885,    0.093,
        0.438,   -0.068,   -8.761,    0.097,   -4.588,    6.618,   -3.368,
       -6.396,    0.840,   -6.005,    0.864,   -2.279,   -2.672,   -1.255,
        2.975,    2.125,    2.847,    0.391
    },
    {  -0.336,   -0.068,    1.327,    0.060,    0.966,    0.050,    0.145,
       -0.107,   -0.574,    0.007,    2.626,   -0.066,    0.782,   -0.026,
       -0.203,   -0.145,   -1.618,   -0.150,   -2.497,    0.064,    1.238,
       -0.073,    0.131,    0.092,   -0.606,   -0.003,    1.942,    0.112,
        0.477,   -0.040,   -8.912,    0.223,   -4.303,    6.535,   -3.082,
       -6.266,    1.044,   -6.133,    0.974,   -2.243,   -2.333,   -1.528,
        3.053,    2.136,    2.910,    0.184
    },
    {  -0.269,   -0.004,    1.393,    0.039,    0.974,   -0.002,    0.116,
       -0.114,   -0.583,   -0.035,    2.590,   -0.120,    0.844,   -0.009,
       -0.263,   -0.146,   -1.517,   -0.078,   -2.512,   -0.004,    1.251,
       -0.116,    0.175,    0.051,   -0.656,    0.008,    1.890,   -0.022,
        0.502,   -0.088,   -8.614,    0.041,   -4.225,    6.402,   -3.073,
       -6.404,    1.122,   -6.210,    0.664,   -1.978,   -2.115,   -1.399,
        2.897,    2.119,    2.937,    0.276
    },
    {  -0.325,   -0.095,    1.342,   -0.007,    0.953,    0.016,    0.108,
       -0.149,   -0.584,    0.009,    2.682,    0.036,    0.846,    0.008,
       -0.220,   -0.155,   -1.611,   -0.115,   -2.367,    0.070,    1.205,
       -0.040,    0.122,    0.136,   -0.719,   -0.028,    1.891,    0.047,
        0.581,   -0.080,   -8.585,    0.008,   -4.416,    6.795,   -2.910,
       -6.386,    1.262,   -6.202,    0.762,   -1.778,   -2.010,   -1.551,
        2.912,    1.733,    2.880,    0.218
    },
    {  -0.347,   -0.015,    1.250,    0.022,    0.925,    0.022,    0.146,
       -0.035,   -0.621,   -0.002,    2.685,   -0.030,    0.889,   -0.074,
       -0.149,   -0.084,   -1.584,   -0.000,   -2.288,   -0.003,    1.095,
        0.023,    0.160,    0.080,   -0.763,    0.012,    1.932,    0.030,
        0.570,   -0.026,   -8.760,   -0.046,   -4.711,    6.851,   -2.834,
       -6.070,    1.380,   -6.028,    0.535,   -1.715,   -2.349,   -1.306,
        3.388,    1.938,    2.770,    0.112
    },
    {  -0.309,    0.035,    1.318,   -0.010,    1.044,    0.044,    0.197,
       -0.001,   -0.530,   -0.012,    2.723,    0.030,    0.857,   -0.083,
       -0.046,   -0.036,   -1.581,    0.076,   -2.273,    0.024,    1.094,
        0.036,    0.125,    0.052,   -0.728,    0.050,    1.950,    0.032,
        0.589,   -0.003,   -8.539,   -0.030,   -4.903,    7.103,   -2.975,
       -6.182,    1.290,   -6.033,    0.471,   -1.943,   -2.686,   -1.407,
        3.380,    1.948,    2.564,   -0.439
    },
    {  -0.228,   -0.025,    1.220,   -0.016,    1.088,    0.009,    0.207,
       -0.019,   -0.470,   -0.025,    2.646,    0.037,    0.766,   -0.043,
       -0.010,    0.023,   -1.600,   -0.011,   -2.191,   -0.018,    1.023,
       -0.075,    0.088,    0.054,   -0.653,    0.009,    2.105,   -0.017,
        0.450,    0.002,   -9.020,    0.105,   -4.633,    6.973,   -3.064,
       -5.937,    1.259,   -6.035,    0.774,   -2.207,   -2.637,   -1.541,
        3.639,    1.981,    2.662,   -0.292
    },
    {  -0.168,   -0.005,    1.234,   -0.031,    1.065,    0.037,    0.103,
       -0.019,   -0.500,   -0.015,    2.608,    0.005,    0.857,    0.003,
       -0.073,    0.038,   -1.576,    0.009,   -2.057,   -0.016,    1.052,
       -0.013,    0.041,    0.070,   -0.511,    0.059,    2.013,   -0.025,
        0.345,    0.037,   -9.071,    0.409,   -4.470,    7.052,   -2.562,
       -6.100,    1.263,   -6.110,    0.987,   -2.398,   -2.356,   -1.495,
        4.024,    1.839,    2.491,   -0.410
    },
    {  -0.239,    0.066,    1.228,   -0.017,    1.158,   -0.047,    0.092,
        0.005,   -0.505,    0.029,    2.585,    0.059,    0.843,   -0.061,
       -0.058,    0.158,   -1.536,   -0.030,   -2.198,    0.019,    1.042,
        0.021,    0.048,    0.105,   -0.606,    0.066,    2.062,   -0.011,
        0.344,    0.029,   -8.724,    0.391,   -4.408,    6.566,   -2.494,
       -6.296,    1.230,   -6.255,    1.061,   -2.425,   -2.343,   -1.750,
        3.959,    2.020,    2.609,   -0.445
    },
    {  -0.320,    0.053,    1.138,   -0.064,    1.180,    0.014,    0.075,
        0.040,   -0.452,   -0.029,    2.561,    0.090,    0.784,    0.019,
       -0.114,    0.051,   -1.614,    0.075,   -2.324,    0.018,    1.077,
        0.061,    0.177,    0.081,   -0.559,    0.134,    2.137,    0.011,
        0.251,   -0.056,   -8.870,    0.493,   -4.548,    6.309,   -2.303,
       -6.313,    1.144,   -6.320,    0.822,   -2.186,   -2.094,   -1.639,
        4.194,    1.748,    2.590,   -0.404
    },
    {  -0.361,    0.014,    1.086,   -0.048,    1.153,    0.022,   -0.053,
        0.019,   -0.495,   -0.043,    2.562,    0.028,    0.886,    0.026,
       -0.130,    0.050,   -1.664,    0.017,   -2.301,    0.031,    1.094,
       -0.001,    0.211,    0.064,   -0.585,    0.096,    2.165,   -0.053,
        0.237,   -0.096,   -8.938,    0.311,   -4.674,    6.239,   -1.809,
       -6.360,    0.984,   -6.377,    0.748,   -2.625,   -2.088,   -1.851,
        4.178,    1.575,    2.366,   -0.505
    },
    {  -0.437,   -0.024,    1.081,   -0.048,    1.211,   -0.023,   -0.082,
       -0.066,   -0.484,   -0.063,    2.467,    0.043,    0.851,    0.066,
       -0.267,   -0.078,   -1.616,    0.047,   -2.354,   -0.050,    1.175,
       -0.045,    0.290,    0.086,   -0.648,    0.114,    2.288,   -0.095,
        0.361,   -0.063,   -8.722,    0.451,   -4.832,    6.289,   -1.887,
       -6.397,    0.999,   -6.584,    0.931,   -2.852,   -2.219,   -2.101,
        3.956,    1.858,    2.238,   -0.247
    },
    {  -0.387,   -0.009,    1.087,   -0.079,    1.126,   -0.008,   -0.115,
       -0.105,   -0.492,   -0.028,    2.331,    0.040,    0.883,   -0.011,
       -0.271,    0.004,   -1.562,    0.083,   -2.320,    0.011,    1.135,
       -0.024,    0.219,    0.035,   -0.621,    0.026,    2.328,   -0.041,
        0.417,   -0.030,   -8.631,    0.765,   -5.091,    6.439,   -2.169,
       -6.326,    1.170,   -6.572,    1.030,   -2.780,   -2.103,   -1.935,
        3.925,    1.965,    2.623,    0.155
    },
    {  -0.592,    0.006,    1.110,    0.013,    1.206,   -0.010,    0.109,
        0.003,   -0.540,   -0.066,    2.551,   -0.019,    0.836,   -0.030,
       -0.209,    0.017,   -1.695,   -0.057,   -2.509,    0.045,    1.186,
        0.007,    0.182,    0.039,   -0.449,    0.049,    2.179,    0.089,
        0.443,   -0.086,   -8.296,    0.860,   -5.060,    6.540,   -2.149,
       -6.338,    1.195,   -6.693,    0.959,   -2.726,   -2.062,   -1.649,
        3.747,    1.935,    2.138,   -0.084
    },
    {  -0.593,   -0.016,    1.105,   -0.020,    1.242,    0.008,    0.081,
       -0.057,   -0.510,   -0.029,    2.622,   -0.029,    0.760,   -0.052,
       -0.081,    0.008,   -1.597,   -0.004,   -2.560,    0.039,    1.234,
       -0.006,    0.213,    0.049,   -0.493,    0.000,    2.088,   -0.008,
        0.441,   -0.064,   -8.295,    0.769,   -4.791,    6.168,   -1.866,
       -6.107,    1.321,   -6.643,    1.552,   -3.161,   -1.787,   -2.187,
        3.679,    2.230,    2.123,    0.083
    },
    {  -0.637,    0.014,    1.055,   -0.038,    1.333,   -0.036,    0.006,
       -0.029,   -0.419,   -0.050,    2.473,   -0.033,    0.797,   -0.021,
       -0.052,    0.029,   -1.667,   -0.072,   -2.617,    0.052,    1.193,
        0.008,    0.217,    0.038,   -0.438,   -0.010,    2.042,    0.039,
        0.449,   -0.033,   -8.487,    0.673,   -4.708,    6.136,   -2.078,
       -6.117,    1.084,   -6.649,    1.205,   -2.904,   -2.057,   -1.776,
        3.944,    2.054,    2.084,   -0.163
    },
    {  -0.590,    0.005,    0.911,   -0.048,    1.317,    0.092,    0.209,
       -0.069,   -0.361,    0.029,    2.522,   -0.029,    0.904,   -0.008,
       -0.020,    0.096,   -1.785,    0.001,   -2.592,   -0.008,    1.293,
       -0.024,    0.261,    0.015,   -0.364,    0.131,    2.034,   -0.052,
        0.460,   -0.041,   -8.213,    0.488,   -4.602,    6.372,   -1.848,
       -6.409,    0.977,   -6.657,    1.167,   -2.472,   -2.131,   -1.606,
        3.884,    1.953,    2.025,   -0.091
    },
    {  -0.494,    0.009,    0.910,   -0.067,    1.302,    0.057,    0.166,
       -0.008,   -0.321,   -0.012,    2.536,    0.061,    0.859,    0.010,
       -0.028,    0.086,   -1.704,   -0.083,   -2.624,   -0.046,    1.303,
       -0.079,    0.164,   -0.015,   -0.281,    0.097,    2.006,    0.064,
        0.533,   -0.025,   -8.045,    0.413,   -4.653,    6.481,   -1.785,
       -6.508,    0.781,   -6.624,    1.158,   -2.850,   -2.055,   -1.940,
        3.864,    1.940,    2.067,    0.043
    },
    {  -0.409,   -0.004,    0.893,   -0.024,    1.231,    0.020,    0.242,
       -0.035,   -0.374,   -0.077,    2.514,    0.107,    0.916,    0.062,
        0.030,    0.018,   -1.708,   -0.003,   -2.614,   -0.062,    1.226,
       -0.062,    0.110,    0.055,   -0.104,    0.007,    1.971,   -0.040,
        0.586,    0.045,   -8.298,    0.750,   -4.685,    6.895,   -1.811,
       -6.554,    0.901,   -7.025,    1.356,   -2.869,   -2.006,   -1.803,
        3.541,    1.977,    2.065,    0.127
    },
    {  -0.420,    0.036,    0.922,   -0.009,    1.252,    0.031,    0.210,
       -0.039,   -0.464,   -0.051,    2.573,    0.020,    0.866,   -0.007,
        0.015,    0.005,   -1.778,    0.038,   -2.465,   -0.003,    1.273,
        0.028,    0.052,    0.070,   -0.075,    0.005,    1.920,   -0.038,
        0.566,    0.042,   -8.389,    0.411,   -4.806,    6.649,   -2.024,
       -6.565,    1.159,   -6.934,    1.585,   -2.723,   -1.963,   -1.823,
        3.516,    1.906,    1.744,   -0.029
    },
    {  -0.442,    0.078,    1.002,   -0.020,    1.256,    0.064,    0.224,
        0.070,   -0.441,   -0.046,    2.683,    0.002,    0.867,   -0.008,
       -0.017,   -0.011,   -1.745,    0.057,   -2.466,    0.076,    1.287,
       -0.000,    0.158,    0.055,   -0.161,    0.095,    1.958,   -0.000,
        0.592,    0.071,   -8.081,    0.714,   -5.169,    6.866,   -2.031,
       -6.379,    1.040,   -6.818,    1.707,   -2.657,   -2.176,   -1.798,
        3.378,    1.819,    1.878,   -0.066
    },
    {  -0.383,   -0.005,    0.922,   -0.070,    1.331,    0.032,    0.147,
        0.048,   -0.357,   -0.056,    2.704,    0.017,    0.733,   -0.023,
       -0.222,   -0.029,   -1.559,   -0.022,   -2.468,    0.045,    1.237,
        0.008,    0.084,   -0.012,   -0.102,    0.125,    1.922,    0.026,
        0.610,    0.005,   -8.010,    0.587,   -5.163,    7.202,   -2.077,
       -6.231,    0.900,   -7.009,    1.972,   -2.574,   -2.167,   -1.892,
        3.522,    1.635,    2.107,   -0.381
    },
    {  -0.419,    0.028,    1.041,   -0.019,    1.342,    0.021,    0.077,
       -0.033,   -0.384,   -0.040,    2.745,   -0.060,    0.637,   -0.021,
       -0.238,   -0.047,   -1.576,    0.026,   -2.520,    0.070,    1.311,
        0.029,   -0.062,    0.018,   -0.199,    0.109,    1.974,    0.102,
        0.739,    0.026,   -7.892,    0.276,   -4.927,    7.102,   -2.400,
       -6.800,    0.945,   -6.871,    1.838,   -2.221,   -2.108,   -1.905,
        3.660,    1.547,    2.058,   -0.411
    },
    {  -0.373,   -0.040,    0.879,   -0.044,    1.314,    0.063,    0.166,
        0.048,   -0.352,   -0.041,    2.649,    0.008,    0.838,   -0.011,
       -0.268,    0.048,   -1.644,    0.039,   -2.549,    0.024,    1.299,
        0.046,    0.064,    0.040,   -0.157,    0.056,    1.890,    0.049,
        0.694,    0.060,   -7.906,    0.409,   -4.894,    7.100,   -2.445,
       -6.865,    0.798,   -6.802,    1.921,   -2.624,   -1.945,   -1.879,
        3.785,    1.496,    2.321,   -0.285
    },
    {  -0.358,    0.006,    0.888,   -0.068,    1.360,    0.063,    0.245,
        0.100,   -0.252,   -0.013,    2.734,   -0.042,    0.849,    0.019,
       -0.231,    0.027,   -1.620,    0.001,   -2.516,   -0.017,    1.290,
        0.004,    0.123,    0.113,   -0.094,    0.080,    1.878,    0.010,
        0.666,    0.084,   -7.846,    0.457,   -4.648,    7.135,   -2.508,
       -6.853,    0.714,   -6.465,    1.760,   -2.564,   -2.041,   -1.715,
        3.659,    1.818,    2.326,   -0.566
    },
    {  -0.240,   -0.030,    0.986,   -0.029,    1.294,    0.004,    0.399,
       -0.064,   -0.225,    0.001,    2.777,   -0.125,    0.899,   -0.037,
       -0.098,   -0.011,   -1.684,   -0.032,   -2.521,   -0.087,    1.298,
       -0.075,    0.088,    0.068,   -0.144,    0.013,    1.962,   -0.041,
        0.564,   -0.002,   -8.007,    0.398,   -4.695,    6.897,   -2.526,
       -6.843,    1.514,   -6.423,    1.982,   -2.732,   -2.272,   -1.406,
        3.906,    1.961,    2.109,   -0.407
    },
    {  -0.229,   -0.037,    0.953,    0.015,    1.304,   -0.039,    0.331,
       -0.086,   -0.208,   -0.036,    2.772,   -0.031,    0.902,   -0.036,
       -0.055,   -0.040,   -1.679,   -0.136,   -2.465,   -0.014,    1.291,
       -0.069,    0.133,    0.077,   -0.082,   -0.022,    1.901,   -0.037,
        0.511,    0.018,   -7.797,    0.417,   -5.050,    7.002,   -2.296,
       -6.828,    1.497,   -6.348,    1.774,   -2.751,   -1.751,   -1.387,
        3.980,    2.031,    2.070,   -0.675
    },
    {  -0.282,    0.023,    0.944,    0.066,    1.294,   -0.061,    0.372,
       -0.119,   -0.142,   -0.086,    2.894,   -0.011,    0.911,   -0.059,
       -0.077,   -0.039,   -1.710,   -0.112,   -2.480,    0.078,    1.233,
       -0.060,    0.188,    0.011,   -0.033,   -0.040,    1.854,   -0.088,
        0.562,    0.014,   -7.751,    0.458,   -5.030,    6.743,   -2.431,
       -6.545,    1.670,   -6.116,    1.711,   -3.008,   -1.813,   -1.643,
        4.007,    2.131,    2.032,   -0.502
    },
    {  -0.350,   -0.052,    0.919,   -0.065,    1.191,   -0.051,    0.335,
       -0.084,   -0.245,   -0.077,    2.851,    0.041,    0.842,   -0.051,
       -0.071,   -0.035,   -1.797,   -0.035,   -2.511,    0.059,    1.307,
       -0.022,    0.162,   -0.039,   -0.030,   -0.038,    1.915,    0.008,
        0.588,   -0.025,   -7.560,    0.596,   -5.310,    6.633,   -2.416,
       -6.553,    1.577,   -6.242,    1.352,   -2.781,   -1.867,   -1.809,
        3.823,    2.238,    2.003,   -0.523
    },
    {  -0.240,    0.063,    0.945,    0.008,    1.234,   -0.050,    0.345,
       -0.090,   -0.201,   -0.069,    2.685,    0.033,    0.888,   -0.071,
       -0.217,    0.015,   -1.773,   -0.046,   -2.510,    0.001,    1.226,
        0.055,    0.104,   -0.021,   -0.011,   -0.017,    1.888,    0.013,
        0.455,    0.027,   -7.622,    0.468,   -5.089,    6.849,   -2.434,
       -6.909,    1.150,   -6.052,    1.367,   -2.828,   -2.079,   -1.731,
        4.008,    2.363,    2.223,   -0.502
    },
    {  -0.235,    0.037,    1.092,   -0.020,    1.377,   -0.001,    0.395,
       -0.075,   -0.204,   -0.056,    2.726,    0.014,    0.904,    0.020,
       -0.214,    0.058,   -1.829,   -0.036,   -2.431,   -0.068,    1.293,
       -0.002,    0.130,    0.004,   -0.163,   -0.011,    2.016,    0.038,
        0.596,   -0.012,   -7.382,    0.371,   -5.070,    6.832,   -3.039,
       -6.834,    1.748,   -6.154,    1.264,   -2.702,   -1.980,   -1.524,
        3.631,    1.928,    2.231,   -0.513
    },
    {  -0.199,    0.049,    1.096,    0.014,    1.425,   -0.003,    0.436,
       -0.040,   -0.158,   -0.075,    2.778,   -0.011,    0.888,    0.011,
       -0.277,    0.018,   -1.789,   -0.038,   -2.405,   -0.004,    1.306,
       -0.033,    0.108,   -0.000,   -0.127,    0.042,    1.956,    0.014,
        0.549,   -0.007,   -7.283,   -0.107,   -5.189,    7.032,   -3.004,
       -6.504,    1.870,   -5.907,    1.199,   -2.753,   -1.916,   -1.412,
        3.446,    1.953,    2.144,   -0.740
    },
    {  -0.254,   -0.009,    1.120,   -0.028,    1.394,   -0.012,    0.476,
       -0.048,   -0.229,   -0.026,    2.703,    0.014,    0.807,   -0.006,
       -0.229,    0.054,   -1.755,   -0.061,   -2.458,   -0.025,    1.317,
       -0.008,    0.041,    0.083,   -0.012,   -0.019,    1.912,    0.038,
        0.473,   -0.011,   -7.401,   -0.068,   -5.356,    7.151,   -2.972,
       -6.495,    1.457,   -5.976,    0.888,   -2.602,   -1.840,   -1.383,
        3.711,    1.995,    2.115,   -0.570
    },
    {  -0.254,    0.024,    1.017,    0.035,    1.274,    0.001,    0.511,
       -0.071,   -0.183,   -0.081,    2.697,    0.016,    0.798,   -0.006,
       -0.312,   -0.025,   -1.767,   -0.033,   -2.545,   -0.006,    1.259,
       -0.013,    0.105,    0.022,   -0.049,   -0.022,    1.933,   -0.011,
        0.608,    0.023,   -7.381,    0.137,   -5.147,    6.975,   -2.750,
       -6.614,    1.527,   -6.307,    0.780,   -2.756,   -2.024,   -1.340,
        3.679,    1.759,    2.081,   -0.612
    },
    {  -0.205,   -0.105,    1.116,    0.038,    1.466,    0.018,    0.513,
       -0.013,   -0.215,   -0.038,    2.727,    0.045,    0.914,   -0.048,
       -0.232,    0.109,   -1.862,   -0.054,   -2.611,   -0.013,    1.259,
       -0.046,    0.118,    0.075,   -0.155,   -0.051,    1.849,   -0.047,
        0.537,   -0.021,   -7.335,    0.157,   -4.999,    6.682,   -2.903,
       -6.525,    1.810,   -6.095,    0.900,   -2.625,   -2.084,   -1.447,
        3.647,    1.799,    2.241,   -0.837
    },
    {  -0.146,    0.018,    1.140,    0.006,    1.586,    0.073,    0.534,
        0.058,   -0.252,    0.010,    2.664,    0.052,    0.996,   -0.077,
       -0.225,    0.003,   -1.861,    0.116,   -2.594,    0.034,    1.203,
       -0.003,    0.151,    0.123,   -0.248,    0.063,    1.851,    0.005,
        0.550,   -0.093,   -7.224,    0.222,   -4.970,    6.924,   -3.143,
       -6.569,    1.917,   -6.144,    1.144,   -2.796,   -2.020,   -1.787,
        3.572,    1.690,    2.136,   -0.970
    },
    {  -0.137,    0.027,    1.215,    0.020,    1.596,    0.001,    0.542,
        0.110,   -0.229,    0.001,    2.647,    0.019,    0.921,   -0.086,
       -0.266,   -0.054,   -1.885,    0.112,   -2.571,   -0.010,    1.274,
       -0.021,    0.217,    0.159,   -0.173,    0.029,    1.909,    0.028,
        0.557,   -0.127,   -7.254,    0.437,   -5.036,    6.763,   -2.840,
       -6.139,    2.064,   -6.083,    1.032,   -2.639,   -2.134,   -1.715,
        3.613,    1.525,    1.940,   -1.147
    },
    {  -0.227,    0.052,    1.153,   -0.032,    1.625,    0.073,    0.474,
        0.071,   -0.285,    0.000,    2.618,    0.039,    0.869,   -0.036,
       -0.272,    0.091,   -1.808,    0.091,   -2.617,    0.064,    1.226,
       -0.055,    0.155,    0.109,   -0.192,    0.012,    1.897,    0.041,
        0.537,   -0.084,   -7.111,    0.353,   -5.192,    6.773,   -2.869,
       -6.317,    2.122,   -6.381,    0.695,   -2.365,   -2.223,   -1.994,
        3.764,    1.726,    1.821,   -0.967
    },
    {  -0.268,    0.027,    1.094,   -0.043,    1.583,    0.052,    0.358,
        0.174,   -0.335,   -0.023,    2.666,    0.037,    0.928,   -0.027,
       -0.256,    0.076,   -1.818,    0.007,   -2.656,    0.044,    1.245,
       -0.105,    0.122,    0.176,   -0.175,   -0.002,    1.932,    0.021,
        0.623,   -0.043,   -7.169,    0.492,   -4.943,    7.062,   -2.855,
       -6.295,    1.883,   -6.427,    0.523,   -2.141,   -2.314,   -2.136,
        3.370,    1.441,    1.473,   -0.790
    },
    {  -0.233,   -0.040,    1.083,   -0.003,    1.534,    0.071,    0.229,
        0.084,   -0.285,   -0.055,    2.715,    0.145,    1.067,   -0.081,
       -0.450,    0.013,   -1.915,   -0.014,   -2.626,   -0.046,    1.240,
       -0.038,    0.173,    0.094,   -0.230,   -0.064,    1.977,   -0.031,
        0.701,    0.067,   -7.103,    0.390,   -4.783,    6.996,   -2.772,
       -6.285,    1.893,   -6.452,    0.598,   -2.166,   -2.477,   -2.308,
        3.528,    1.289,    1.617,   -0.752
    },
    {  -0.213,   -0.001,    1.046,   -0.020,    1.580,    0.059,    0.194,
        0.062,   -0.283,   -0.079,    2.745,    0.052,    0.972,   -0.054,
       -0.403,    0.023,   -1.971,   -0.046,   -2.596,   -0.077,    1.187,
       -0.020,    0.146,    0.028,   -0.321,   -0.025,    1.945,   -0.011,
        0.742,   -0.041,   -7.112,    0.504,   -4.987,    7.092,   -2.657,
       -6.294,    1.905,   -6.647,    0.495,   -1.993,   -2.533,   -2.024,
        3.496,    1.539,    1.338,   -0.608
    },
    {  -0.212,    0.018,    1.171,    0.036,    1.575,   -0.022,    0.285,
        0.049,   -0.333,   -0.064,    2.741,   -0.029,    0.936,   -0.053,
       -0.343,    0.053,   -1.913,   -0.012,   -2.463,   -0.004,    1.213,
       -0.000,    0.007,    0.096,   -0.292,   -0.033,    1.998,   -0.032,
        0.764,    0.017,   -7.190,    0.390,   -4.835,    7.569,   -2.397,
       -5.704,    1.912,   -6.546,    0.780,   -2.078,   -2.465,   -1.958,
        3.569,    1.760,    1.355,   -0.478
    },
    {  -0.122,    0.070,    1.115,    0.036,    1.507,    0.076,    0.235,
        0.051,   -0.347,   -0.067,    2.766,    0.081,    1.004,   -0.062,
       -0.385,    0.048,   -1.907,    0.035,   -2.467,    0.027,    1.208,
       -0.059,    0.156,    0.063,   -0.328,   -0.084,    2.030,    0.012,
        0.816,   -0.049,   -7.178,    0.400,   -5.086,    7.104,   -2.028,
       -5.520,    2.041,   -6.334,    0.802,   -1.815,   -2.145,   -1.851,
        3.808,    1.488,    1.530,   -0.518
    },
    {  -0.061,    0.020,    1.083,   -0.068,    1.540,    0.069,    0.370,
       -0.139,   -0.430,    0.033,    2.738,    0.085,    1.130,    0.051,
       -0.364,   -0.010,   -2.010,    0.081,   -2.562,   -0.072,    1.221,
       -0.118,    0.163,    0.064,   -0.215,    0.066,    1.862,    0.066,
        0.744,   -0.034,   -7.052,    0.456,   -5.023,    7.340,   -2.045,
       -5.629,    2.190,   -6.737,    0.778,   -1.706,   -2.038,   -2.068,
        3.286,    1.323,    1.440,   -0.235
    },
    {  -0.082,    0.025,    1.114,   -0.124,    1.492,    0.064,    0.366,
       -0.259,   -0.424,    0.083,    2.703,    0.003,    1.156,    0.036,
       -0.285,   -0.018,   -1.996,    0.030,   -2.509,   -0.011,    1.249,
       -0.112,    0.212,    0.064,   -0.202,    0.017,    1.905,    0.152,
        0.729,   -0.115,   -7.253,    0.708,   -5.300,    7.197,   -1.889,
       -5.741,    2.425,   -6.461,    1.015,   -1.706,   -1.896,   -1.927,
        2.990,    1.090,    1.620,   -0.408
    },
    {  -0.056,    0.023,    1.190,   -0.081,    1.409,    0.033,    0.380,
       -0.248,   -0.381,    0.081,    2.737,   -0.056,    1.152,    0.057,
       -0.322,    0.003,   -2.042,    0.011,   -2.436,   -0.090,    1.255,
       -0.170,    0.210,    0.119,   -0.193,    0.090,    1.954,    0.075,
        0.951,   -0.038,   -6.889,    0.417,   -4.909,    7.162,   -1.840,
       -5.789,    2.507,   -6.517,    1.378,   -1.692,   -1.913,   -1.821,
        2.906,    1.488,    1.564,   -0.503
    },
    {  -0.117,    0.094,    1.160,   -0.051,    1.391,    0.082,    0.349,
       -0.199,   -0.462,    0.030,    2.700,    0.012,    1.133,    0.168,
       -0.330,   -0.041,   -1.965,    0.060,   -2.443,   -0.043,    1.260,
       -0.096,    0.230,    0.145,   -0.187,    0.095,    1.954,    0.101,
        0.822,   -0.074,   -6.949,    0.388,   -4.626,    7.180,   -2.004,
       -5.901,    2.174,   -6.516,    1.407,   -1.702,   -1.931,   -2.104,
        2.695,    1.217,    1.375,   -0.469
    },
    {  -0.204,    0.063,    1.186,   -0.055,    1.247,    0.050,    0.388,
       -0.062,   -0.431,   -0.038,    2.641,    0.079,    1.214,    0.102,
       -0.208,   -0.024,   -1.996,    0.100,   -2.554,   -0.088,    1.234,
       -0.066,    0.263,    0.087,   -0.183,    0.079,    1.983,    0.090,
        0.806,   -0.053,   -6.903,    0.587,   -4.642,    7.020,   -1.812,
       -5.768,    2.067,   -6.549,    1.371,   -1.912,   -1.957,   -2.089,
        3.043,    0.844,    1.558,   -0.249
    },
    {  -0.174,    0.089,    1.161,   -0.062,    1.316,    0.028,    0.306,
       -0.038,   -0.390,   -0.131,    2.719,    0.070,    1.219,    0.152,
       -0.162,   -0.021,   -2.025,    0.141,   -2.438,   -0.194,    1.103,
       -0.079,    0.344,   -0.018,   -0.127,    0.093,    2.029,   -0.032,
        0.814,   -0.006,   -7.018,    0.588,   -4.752,    7.186,   -1.935,
       -5.769,    2.089,   -6.620,    1.368,   -1.793,   -1.981,   -2.044,
        2.828,    0.704,    1.436,   -0.489
    },
    {  -0.212,    0.081,    1.147,   -0.047,    1.184,    0.020,    0.199,
       -0.006,   -0.376,   -0.059,    2.581,   -0.033,    1.175,    0.081,
       -0.072,    0.113,   -2.029,   -0.017,   -2.442,   -0.232,    0.927,
       -0.115,    0.433,   -0.003,   -0.051,    0.033,    2.018,   -0.019,
        0.813,    0.026,   -6.889,    0.683,   -4.643,    6.864,   -2.007,
       -5.743,    2.219,   -6.569,    1.327,   -2.018,   -1.540,   -2.298,
        2.811,    0.798,    1.551,   -0.884
    },
    {  -0.226,    0.112,    1.373,   -0.018,    1.264,   -0.016,    0.148,
        0.162,   -0.398,   -0.108,    2.478,   -0.138,    1.192,    0.007,
        0.047,    0.066,   -1.995,   -0.054,   -2.200,   -0.245,    0.884,
       -0.063,    0.469,    0.021,   -0.128,    0.099,    2.061,   -0.004,
        0.840,    0.030,   -7.139,    0.951,   -4.714,    7.041,   -1.791,
       -6.237,    1.756,   -6.266,    1.489,   -2.144,   -1.265,   -2.339,
        2.906,    0.861,    1.651,   -0.838
    },
    {  -0.314,    0.125,    1.402,   -0.047,    1.245,   -0.003,    0.228,
        0.263,   -0.396,   -0.126,    2.426,   -0.080,    1.237,   -0.009,
       -0.043,    0.058,   -2.119,   -0.082,   -2.255,   -0.081,    0.944,
       -0.059,    0.558,    0.032,   -0.091,    0.026,    2.048,   -0.025,
        0.788,    0.009,   -6.841,    1.099,   -4.788,    7.227,   -1.727,
       -5.990,    2.239,   -6.593,    1.564,   -1.682,   -1.399,   -2.057,
        2.982,    0.768,    1.674,   -1.011
    },
    {  -0.273,    0.129,    1.352,   -0.060,    1.251,    0.048,    0.205,
        0.109,   -0.406,   -0.076,    2.485,   -0.102,    1.191,    0.024,
       -0.060,    0.058,   -2.091,   -0.143,   -2.315,   -0.009,    0.981,
       -0.013,    0.423,    0.055,   -0.182,    0.039,    1.974,   -0.058,
        0.669,    0.096,   -6.973,    1.360,   -4.608,    7.441,   -1.945,
       -5.927,    2.127,   -6.919,    1.563,   -1.846,   -1.590,   -1.999,
        3.171,    0.603,    1.620,   -1.047
    },
    {  -0.192,    0.066,    1.299,    0.003,    1.125,    0.053,    0.112,
        0.032,   -0.499,   -0.020,    2.415,    0.069,    1.180,   -0.075,
       -0.099,    0.087,   -2.014,   -0.116,   -2.187,    0.154,    1.023,
       -0.036,    0.516,    0.059,   -0.177,    0.016,    1.947,   -0.099,
        0.517,    0.113,   -6.961,    1.627,   -4.546,    7.347,   -2.308,
       -6.017,    2.134,   -7.339,    1.348,   -1.756,   -1.589,   -2.191,
        2.833,    0.737,    1.627,   -1.034
    },
    {  -0.220,   -0.002,    1.334,   -0.049,    1.197,    0.045,    0.196,
        0.086,   -0.404,   -0.081,    2.453,    0.008,    1.131,   -0.082,
        0.023,    0.002,   -2.024,   -0.035,   -2.370,    0.053,    0.982,
       -0.066,    0.391,   -0.004,   -0.252,    0.002,    1.886,   -0.085,
        0.708,    0.053,   -6.917,    1.612,   -4.371,    7.303,   -2.258,
       -6.444,    2.283,   -7.415,    1.157,   -1.903,   -1.914,   -2.155,
        3.004,    0.728,    1.344,   -0.989
    },
    {  -0.304,    0.055,    1.427,    0.000,    1.186,    0.018,    0.191,
       -0.127,   -0.442,   -0.049,    2.571,   -0.056,    1.093,    0.029,
       -0.025,   -0.032,   -2.249,   -0.023,   -2.197,   -0.009,    0.991,
        0.056,    0.347,    0.084,    0.012,    0.032,    2.072,    0.067,
        0.696,    0.113,   -7.329,    1.697,   -4.305,    7.311,   -2.277,
       -6.149,    2.371,   -7.249,    1.213,   -1.794,   -2.199,   -2.075,
        2.963,    1.024,    1.237,   -0.986
    },
    {  -0.252,    0.065,    1.395,    0.052,    1.144,    0.050,    0.218,
       -0.116,   -0.491,   -0.006,    2.534,   -0.119,    1.044,   -0.021,
        0.004,   -0.066,   -2.266,   -0.008,   -2.179,    0.034,    1.029,
        0.095,    0.367,    0.101,    0.028,    0.027,    2.093,    0.232,
        0.642,    0.086,   -7.068,    1.821,   -4.420,    7.153,   -2.473,
       -6.475,    2.206,   -7.267,    1.346,   -1.640,   -2.060,   -2.018,
        3.214,    1.077,    0.882,   -0.768
    },
    {  -0.294,    0.000,    1.459,    0.049,    1.110,    0.057,    0.189,
       -0.080,   -0.527,    0.017,    2.567,   -0.127,    0.985,   -0.089,
        0.013,   -0.046,   -2.194,    0.041,   -2.173,    0.068,    1.089,
        0.012,    0.301,    0.077,    0.095,    0.000,    1.914,    0.204,
        0.700,   -0.037,   -7.438,    1.968,   -4.704,    7.262,   -2.085,
       -6.212,    2.415,   -7.181,    1.356,   -1.939,   -2.214,   -1.822,
        3.005,    0.756,    0.878,   -0.923
    },
    {  -0.209,    0.087,    1.531,    0.106,    1.042,    0.066,    0.232,
       -0.040,   -0.499,   -0.013,    2.626,   -0.050,    0.955,   -0.040,
        0.031,    0.016,   -2.126,    0.118,   -2.121,    0.150,    1.043,
       -0.035,    0.336,    0.002,    0.046,    0.040,    1.945,    0.123,
        0.780,   -0.056,   -7.236,    1.934,   -4.749,    7.381,   -1.955,
       -6.232,    2.538,   -7.317,    1.536,   -1.733,   -2.361,   -2.003,
        2.990,    0.484,    0.989,   -1.065
    },
    {  -0.338,    0.007,    1.497,    0.037,    0.973,    0.040,    0.145,
       -0.021,   -0.405,   -0.051,    2.671,   -0.094,    0.963,   -0.022,
       -0.027,    0.011,   -2.227,    0.056,   -2.040,    0.047,    1.059,
        0.037,    0.339,    0.064,    0.129,    0.067,    2.018,    0.058,
        0.761,    0.039,   -6.865,    1.568,   -4.577,    7.359,   -2.151,
       -5.915,    2.321,   -7.208,    1.419,   -1.965,   -2.284,   -1.903,
        2.883,    0.698,    1.086,   -0.824
    },
    {  -0.268,   -0.062,    1.537,    0.087,    1.101,    0.042,    0.258,
       -0.102,   -0.430,   -0.044,    2.719,   -0.052,    0.911,   -0.040,
       -0.080,   -0.012,   -2.184,    0.091,   -1.982,    0.016,    1.029,
        0.011,    0.451,    0.031,    0.091,    0.042,    1.982,   -0.047,
        0.737,   -0.068,   -7.119,    1.629,   -4.742,    7.580,   -2.069,
       -5.829,    2.056,   -7.165,    1.326,   -1.996,   -2.215,   -1.956,
        3.022,    0.722,    0.912,   -0.868
    },
    {  -0.377,    0.015,    1.540,    0.091,    1.085,    0.018,    0.280,
       -0.074,   -0.462,   -0.022,    2.743,   -0.084,    0.896,   -0.050,
        0.033,    0.040,   -2.178,    0.036,   -1.917,   -0.025,    1.056,
        0.011,    0.443,    0.060,    0.079,    0.039,    2.039,   -0.023,
        0.640,    0.015,   -6.822,    1.666,   -4.652,    7.403,   -2.213,
       -6.013,    2.110,   -7.205,    1.328,   -1.995,   -2.150,   -2.073,
        2.840,    1.024,    0.602,   -0.798
    },
    {  -0.471,    0.014,    1.620,   -0.021,    0.985,   -0.003,    0.178,
       -0.031,   -0.588,   -0.070,    2.804,   -0.021,    0.829,   -0.047,
       -0.010,   -0.024,   -2.120,   -0.076,   -1.852,    0.060,    0.956,
       -0.037,    0.314,    0.028,    0.245,   -0.011,    1.925,   -0.006,
        0.685,    0.007,   -6.935,    1.326,   -4.522,    7.254,   -2.333,
       -5.986,    2.276,   -7.466,    0.873,   -1.969,   -2.219,   -2.083,
        2.910,    0.792,    0.209,   -0.775
    },
    {  -0.443,    0.017,    1.602,   -0.037,    1.033,    0.057,    0.139,
       -0.069,   -0.599,   -0.038,    2.710,   -0.033,    0.950,   -0.019,
        0.002,   -0.013,   -2.191,   -0.052,   -1.885,    0.002,    0.874,
        0.037,    0.341,    0.053,    0.234,   -0.036,    1.981,    0.016,
        0.743,   -0.039,   -7.331,    1.312,   -4.716,    7.291,   -2.304,
       -5.722,    2.284,   -7.469,    0.489,   -2.080,   -2.167,   -1.975,
        3.049,    0.808,    0.457,   -0.424
    },
    {  -0.382,    0.019,    1.603,   -0.024,    1.042,    0.064,    0.061,
       -0.113,   -0.566,   -0.060,    2.621,   -0.032,    1.007,    0.000,
        0.075,   -0.006,   -2.272,   -0.047,   -1.789,    0.005,    0.947,
        0.114,    0.316,    0.052,    0.261,   -0.053,    1.918,    0.010,
        0.688,    0.010,   -7.251,    1.267,   -4.500,    7.078,   -2.060,
       -5.373,    2.342,   -7.667,    0.348,   -2.018,   -2.327,   -1.704,
        3.156,    0.863,    0.503,   -0.654
    },
    {  -0.475,   -0.006,    1.701,   -0.015,    1.020,   -0.009,    0.201,
       -0.130,   -0.631,   -0.023,    2.700,   -0.012,    1.024,   -0.021,
       -0.007,   -0.009,   -2.146,   -0.010,   -1.856,    0.009,    0.810,
       -0.034,    0.323,    0.086,    0.122,    0.016,    1.927,    0.036,
        0.624,   -0.048,   -7.094,    1.007,   -4.235,    7.125,   -1.842,
       -5.281,    2.390,   -7.475,    0.187,   -1.937,   -2.455,   -1.661,
        3.045,    0.924,   -0.017,   -0.677
    },
    {  -0.464,   -0.021,    1.645,    0.029,    1.030,   -0.037,    0.220,
       -0.095,   -0.593,   -0.094,    2.630,    0.010,    1.069,   -0.048,
        0.117,    0.112,   -2.241,   -0.095,   -1.769,    0.043,    0.814,
       -0.027,    0.343,    0.027,    0.081,   -0.021,    1.904,    0.110,
        0.723,   -0.097,   -7.144,    0.758,   -4.336,    7.348,   -1.983,
       -5.360,    2.445,   -7.460,    0.130,   -2.190,   -2.408,   -1.990,
        3.102,    0.876,    0.054,   -0.620
    },
    {  -0.521,   -0.040,    1.645,    0.037,    1.011,   -0.012,    0.344,
       -0.026,   -0.638,   -0.072,    2.592,    0.007,    0.973,   -0.067,
        0.145,    0.102,   -2.258,   -0.061,   -1.777,    0.006,    0.874,
        0.011,    0.306,    0.039,    0.111,   -0.024,    1.884,    0.081,
        0.693,   -0.141,   -7.084,    0.664,   -4.300,    7.668,   -1.805,
       -5.304,    2.367,   -7.555,    0.320,   -1.903,   -2.368,   -1.827,
        3.101,    0.743,   -0.010,   -0.628
    },
    {  -0.469,   -0.095,    1.714,   -0.013,    1.031,    0.040,    0.290,
        0.018,   -0.757,   -0.094,    2.595,    0.095,    1.058,    0.012,
        0.104,    0.045,   -2.208,   -0.022,   -1.960,   -0.008,    0.999,
       -0.086,    0.250,    0.040,    0.160,    0.032,    1.931,    0.201,
        0.675,   -0.223,   -7.058,    0.565,   -4.309,    7.405,   -1.893,
       -5.552,    2.485,   -7.745,    0.525,   -1.868,   -2.321,   -1.849,
        3.063,    0.775,    0.051,   -0.651
    },
    {  -0.542,    0.007,    1.705,    0.045,    0.982,    0.032,    0.153,
       -0.019,   -0.828,   -0.042,    2.511,    0.141,    1.040,    0.074,
        0.021,    0.074,   -2.308,    0.055,   -2.074,   -0.019,    1.010,
       -0.144,    0.195,    0.080,    0.196,    0.109,    1.890,    0.149,
        0.560,   -0.324,   -7.012,    0.355,   -4.407,    7.266,   -1.734,
       -5.548,    2.576,   -7.826,    0.277,   -1.779,   -2.243,   -1.845,
        3.309,    0.826,   -0.235,   -0.490
    },
    {  -0.450,    0.036,    1.667,    0.058,    1.008,   -0.021,    0.254,
        0.023,   -0.783,   -0.052,    2.495,    0.045,    1.087,   -0.051,
       -0.026,    0.081,   -2.248,    0.062,   -2.017,    0.078,    1.054,
       -0.130,    0.267,    0.053,    0.158,    0.026,    1.834,    0.180,
        0.599,   -0.248,   -6.729,    0.409,   -4.598,    7.586,   -1.624,
       -5.290,    2.828,   -8.177,    0.459,   -2.037,   -2.239,   -2.009,
        3.381,    1.016,   -0.342,   -0.370
    },
    {  -0.453,    0.073,    1.604,    0.004,    0.986,    0.101,    0.242,
        0.046,   -0.801,   -0.012,    2.527,    0.055,    1.091,   -0.029,
       -0.025,    0.136,   -2.354,    0.059,   -2.009,    0.011,    1.047,
       -0.129,    0.238,   -0.004,    0.258,    0.047,    1.838,    0.167,
        0.636,   -0.249,   -6.682,    0.430,   -4.915,    7.745,   -1.546,
       -5.188,    2.979,   -8.194,    0.327,   -1.988,   -2.195,   -1.932,
        3.348,    0.944,   -0.313,   -0.420
    },
    {  -0.578,    0.103,    1.738,    0.010,    0.959,    0.103,    0.229,
        0.100,   -0.819,   -0.034,    2.438,    0.015,    1.168,   -0.070,
        0.026,    0.042,   -2.152,    0.070,   -2.072,    0.048,    1.017,
       -0.104,    0.389,   -0.029,    0.166,    0.063,    1.809,    0.115,
        0.619,   -0.230,   -6.593,    0.449,   -4.846,    7.811,   -1.484,
       -5.254,    2.859,   -8.216,    0.437,   -2.084,   -2.142,   -1.920,
        3.347,    1.029,   -0.551,   -0.489
    },
    {  -0.545,    0.057,    1.774,    0.032,    0.950,    0.116,    0.280,
        0.186,   -0.859,   -0.110,    2.416,    0.035,    1.207,   -0.102,
        0.093,   -0.014,   -2.223,    0.056,   -2.131,    0.186,    1.105,
       -0.113,    0.332,    0.001,    0.225,   -0.020,    1.849,    0.146,
        0.620,   -0.158,   -6.555,    0.099,   -4.676,    7.850,   -1.723,
       -5.220,    2.518,   -7.839,    0.231,   -2.011,   -1.867,   -1.734,
        3.584,    1.240,   -0.576,   -0.269
    },
    {  -0.585,    0.086,    1.739,    0.064,    0.947,    0.023,    0.200,
        0.085,   -0.783,   -0.155,    2.444,    0.022,    1.211,   -0.134,
        0.186,   -0.029,   -2.224,    0.038,   -2.050,    0.060,    1.021,
       -0.029,    0.440,   -0.068,    0.259,    0.168,    1.892,    0.033,
        0.579,   -0.147,   -6.736,   -0.226,   -4.524,    7.618,   -1.317,
       -5.040,    2.157,   -7.699,    0.093,   -1.864,   -2.109,   -1.457,
        3.440,    0.980,   -0.865,   -0.063
    },
    {  -0.587,    0.103,    1.737,    0.057,    0.896,   -0.049,    0.289,
        0.027,   -0.731,   -0.177,    2.450,    0.028,    1.224,   -0.143,
        0.242,   -0.072,   -2.277,    0.026,   -1.982,    0.121,    0.990,
       -0.019,    0.472,   -0.022,    0.302,    0.174,    1.856,    0.028,
        0.475,   -0.135,   -6.658,    0.153,   -4.699,    7.722,   -1.373,
       -5.001,    2.126,   -7.607,    0.212,   -1.983,   -2.202,   -1.296,
        3.432,    1.213,   -0.828,    0.073
    },
    {  -0.589,    0.151,    1.730,   -0.014,    0.927,    0.032,    0.259,
        0.045,   -0.749,   -0.063,    2.620,    0.012,    1.173,   -0.085,
        0.354,   -0.062,   -2.164,   -0.048,   -2.014,    0.101,    1.015,
       -0.049,    0.471,   -0.007,    0.141,    0.140,    1.935,    0.087,
        0.451,   -0.124,   -6.328,    0.167,   -4.652,    7.911,   -1.331,
       -5.194,    2.138,   -7.575,    0.361,   -1.875,   -1.839,   -1.580,
        3.763,    0.898,   -1.051,   -0.152
    },
    {  -0.745,    0.070,    1.644,    0.057,    1.052,   -0.006,    0.306,
       -0.072,   -0.633,   -0.069,    2.663,   -0.092,    1.092,   -0.073,
        0.308,   -0.076,   -2.115,   -0.079,   -1.977,    0.127,    0.945,
        0.000,    0.419,    0.041,    0.234,    0.089,    1.945,    0.009,
        0.403,   -0.053,   -6.519,   -0.316,   -4.417,    7.629,   -1.185,
       -5.027,    1.956,   -7.296,    0.030,   -1.933,   -1.846,   -1.971,
        3.786,    0.820,   -0.962,   -0.191
    },
    {  -0.622,   -0.001,    1.635,    0.072,    1.054,   -0.007,    0.278,
       -0.151,   -0.715,   -0.051,    2.729,   -0.116,    1.112,   -0.043,
        0.422,   -0.052,   -2.165,   -0.057,   -2.000,    0.058,    0.992,
        0.028,    0.410,    0.052,    0.267,    0.115,    2.021,    0.010,
        0.299,   -0.064,   -6.606,    0.064,   -4.414,    7.491,   -1.609,
       -5.047,    1.930,   -7.262,    0.225,   -1.895,   -2.066,   -1.975,
        3.767,    0.992,   -0.979,   -0.213
    },
    {  -0.702,    0.083,    1.699,    0.051,    1.137,   -0.001,    0.353,
       -0.129,   -0.671,   -0.065,    2.711,   -0.121,    1.154,   -0.054,
        0.420,   -0.069,   -2.269,   -0.092,   -1.972,    0.101,    1.119,
        0.032,    0.435,    0.065,    0.213,    0.070,    1.959,    0.078,
        0.235,   -0.032,   -6.642,   -0.062,   -4.475,    7.627,   -1.142,
       -4.831,    1.945,   -7.197,    0.502,   -1.701,   -2.046,   -1.898,
        3.785,    1.113,   -1.001,   -0.247
    },
    {  -0.815,    0.113,    1.750,    0.018,    1.112,   -0.019,    0.386,
       -0.092,   -0.688,   -0.048,    2.770,   -0.039,    1.160,   -0.084,
        0.448,   -0.047,   -2.369,   -0.229,   -2.056,    0.100,    1.156,
       -0.076,    0.416,    0.079,    0.218,   -0.030,    1.949,    0.044,
        0.245,   -0.005,   -6.455,    0.167,   -4.281,    7.621,   -1.077,
       -4.718,    2.073,   -7.401,    0.449,   -1.605,   -2.040,   -1.754,
        3.806,    1.244,   -0.909,   -0.297
    },
    {  -0.716,    0.168,    1.681,   -0.022,    1.154,    0.006,    0.350,
       -0.091,   -0.698,    0.038,    2.827,    0.002,    1.138,   -0.103,
        0.456,   -0.125,   -2.358,   -0.249,   -2.031,    0.109,    1.152,
       -0.066,    0.348,    0.115,    0.207,   -0.031,    1.855,    0.042,
        0.181,   -0.004,   -6.363,    0.345,   -4.398,    7.311,   -0.838,
       -4.700,    2.331,   -7.471,    0.761,   -1.703,   -2.000,   -1.713,
        4.059,    1.049,   -1.166,   -0.332
    },
    {  -0.775,    0.204,    1.571,   -0.039,    1.045,   -0.026,    0.370,
       -0.127,   -0.664,    0.011,    2.854,    0.003,    1.154,   -0.075,
        0.443,   -0.153,   -2.377,   -0.134,   -2.068,    0.138,    1.161,
       -0.095,    0.310,    0.098,    0.228,    0.028,    1.888,    0.008,
        0.165,   -0.037,   -6.361,    0.467,   -4.656,    7.164,   -1.111,
       -4.936,    2.438,   -7.142,    0.979,   -2.012,   -2.259,   -2.006,
        4.409,    0.964,   -1.115,   -0.525
    },
    {  -0.815,    0.229,    1.641,    0.004,    1.016,   -0.035,    0.347,
       -0.176,   -0.607,    0.008,    2.930,   -0.012,    1.120,   -0.071,
        0.415,   -0.124,   -2.389,   -0.172,   -2.049,    0.159,    1.064,
       -0.102,    0.366,    0.062,    0.176,    0.069,    1.920,    0.006,
        0.122,   -0.045,   -6.375,    0.770,   -4.444,    7.225,   -0.829,
       -4.991,    2.496,   -7.235,    0.873,   -2.185,   -2.161,   -2.191,
        4.290,    1.008,   -1.088,   -0.677
    },
    {  -0.783,    0.123,    1.582,   -0.100,    1.025,   -0.078,    0.376,
       -0.131,   -0.613,   -0.053,    2.938,    0.065,    1.171,   -0.063,
        0.402,   -0.060,   -2.329,   -0.108,   -2.052,    0.153,    1.023,
       -0.073,    0.434,    0.057,    0.214,    0.024,    1.922,   -0.085,
        0.108,   -0.102,   -6.227,    0.559,   -4.474,    7.309,   -0.870,
       -5.030,    2.372,   -7.454,    0.879,   -2.116,   -2.087,   -2.353,
        4.510,    0.909,   -1.221,   -0.735
    }
  };


  double netfun(std::vector<double>& in, const double* w)
  {
    double x00 = in[0];
    double x;

    //Layer 1, Node 0
    x = w[0];
    x = x + w[1] * x00;
    double x10 = tanh(x);

    //Layer 1, Node 1
    x = w[2];
    x = x + w[3] * x00;
    double x11 = tanh(x);

    //Layer 1, Node 2
    x = w[4];
    x = x + w[5] * x00;
    double x12 = tanh(x);

    //Layer 1, Node 3
    x = w[6];
    x = x + w[7] * x00;
    double x13 = tanh(x);

    //Layer 1, Node 4
    x = w[8];
    x = x + w[9] * x00;
    double x14 = tanh(x);

    //Layer 1, Node 5
    x = w[10];
    x = x + w[11] * x00;
    double x15 = tanh(x);

    //Layer 1, Node 6
    x = w[12];
    x = x + w[13] * x00;
    double x16 = tanh(x);

    //Layer 1, Node 7
    x = w[14];
    x = x + w[15] * x00;
    double x17 = tanh(x);

    //Layer 1, Node 8
    x = w[16];
    x = x + w[17] * x00;
    double x18 = tanh(x);

    //Layer 1, Node 9
    x = w[18];
    x = x + w[19] * x00;
    double x19 = tanh(x);

    //Layer 1, Node 10
    x = w[20];
    x = x + w[21] * x00;
    double x110 = tanh(x);

    //Layer 1, Node 11
    x = w[22];
    x = x + w[23] * x00;
    double x111 = tanh(x);

    //Layer 1, Node 12
    x = w[24];
    x = x + w[25] * x00;
    double x112 = tanh(x);

    //Layer 1, Node 13
    x = w[26];
    x = x + w[27] * x00;
    double x113 = tanh(x);

    //Layer 1, Node 14
    x = w[28];
    x = x + w[29] * x00;
    double x114 = tanh(x);

    //Layer 2, Node 0
    x = w[30];
    x = x + w[31] * x10;
    x = x + w[32] * x11;
    x = x + w[33] * x12;
    x = x + w[34] * x13;
    x = x + w[35] * x14;
    x = x + w[36] * x15;
    x = x + w[37] * x16;
    x = x + w[38] * x17;
    x = x + w[39] * x18;
    x = x + w[40] * x19;
    x = x + w[41] * x110;
    x = x + w[42] * x111;
    x = x + w[43] * x112;
    x = x + w[44] * x113;
    x = x + w[45] * x114;
    double x20 = 1.0/(1.0+exp(-x));
    return x20;
  }
}; // End anonymous namespace

//-----------------------------------------------------------------------------
// Compute average over networks. Default is to use all networks
//-----------------------------------------------------------------------------

double HT300_MHT80_v2_HT300_v9_170065_173211_sel2(std::vector<double>& inputvars,
                                                  int first=0,
                                                  int last=nnetworks-1)
{
  if ( first < 0 ) first = 0;
  if ( last  < 0 ) last  = nnetworks-1;
  if ( last  > nnetworks-1 ) last = nnetworks-1;
  if ( first > last )
    {
      std::cerr << "** HT300_MHT80_v2_HT300_v9_170065_173211_sel2 ** first-index > last-index"
                << std::endl; exit(3);
    }

  // Compute average over networks
  std::vector<double> in(ninputs);
  in[0] = (inputvars[0] - mean[0]) / sigma[0];

  int   n = last - first + 1;
  double x = 0.0;
  for(int i=first; i <= last; i++) x += netfun(in, weight[i]);
  return x / n;
}

extern "C" double HT300_MHT80_v2_HT300_v9_170065_173211_sel2_dl(std::vector<double>& in,
                                                                int first=0,
                                                                int last=nnetworks-1)
{
  return HT300_MHT80_v2_HT300_v9_170065_173211_sel2(in, first, last);
}

extern "C" double HT300_MHT80_v2_HT300_v9_170065_173211_sel2_dl2(double* in,
                                                                 int first=0,
                                                                 int last=nnetworks-1)
{
  std::vector<double> invec;

  invec.push_back(in[0]);

  return HT300_MHT80_v2_HT300_v9_170065_173211_sel2(invec, first, last);
}
