//-----------------------------------------------------------------------------
// Network: HT300_MHT80_v1_HT300_v6_166979_170064_sel1
// Inputs:
//                                                  Offset       Scale
//    offlinevar                                 2.662e+01   2.315e+01
//
// Created: Wed Dec 21 19:43:35 2011
//-----------------------------------------------------------------------------
#include <cmath>
#include <vector>
#include <iostream>
#include <stdlib.h>
//-----------------------------------------------------------------------------
// Make following visible only to this programming unit
namespace {
  // NOTE: Network indices start at 0
  static const int nnetworks=100;
  static const int ninputs  =1;
  static const int nhidden  =15;
  static const int nparams  =46;

  static const double mean[ninputs]={
  2.66200e+01
  };

  static const double sigma[ninputs]={
  2.31500e+01
  };

  static const double weight[nnetworks][nparams]={
    {   0.028,    0.255,    0.045,    0.002,    0.006,   -0.004,   -0.020,
        0.115,   -0.019,   -0.080,    0.023,   -0.079,   -0.027,   -0.057,
       -0.002,   -0.022,    0.045,    0.021,    0.044,    0.059,    0.012,
       -0.029,    0.020,    0.056,   -0.052,    0.097,   -0.048,   -0.082,
       -0.015,   -0.030,   -3.023,    1.410,   -0.643,    5.938,    0.374,
       -1.504,   -1.767,   -3.921,   -1.787,   -3.682,    2.287,   -2.030,
       -2.461,    1.907,   -0.908,   -1.961
    },
    {   0.025,    0.080,    0.073,    0.176,    0.027,    0.279,    0.063,
       -0.020,   -0.041,    0.026,    0.028,   -0.040,   -0.030,   -0.031,
       -0.035,   -0.010,    0.040,    0.211,    0.051,    0.217,    0.026,
       -0.121,    0.016,    0.004,   -0.024,   -0.025,    0.024,    0.092,
       -0.031,   -0.074,   -3.310,    1.227,   -0.844,    4.815,    0.338,
       -1.826,   -1.541,   -4.814,   -1.298,   -3.947,    2.188,   -1.997,
       -2.036,    2.003,   -0.684,   -2.167
    },
    {   0.027,    0.105,    0.011,   -0.055,   -0.023,    0.301,    0.001,
        0.081,   -0.011,   -0.314,   -0.019,   -0.131,    0.047,   -0.003,
       -0.039,   -0.013,   -0.032,    0.134,    0.081,    0.005,    0.085,
       -0.118,    0.025,   -0.040,    0.034,   -0.063,   -0.013,    0.073,
       -0.065,    0.248,   -3.199,    1.028,   -1.341,    4.432,   -0.630,
       -1.597,   -1.494,   -4.886,   -0.770,   -4.202,    2.802,   -2.097,
       -1.704,    1.587,   -0.370,   -2.234
    },
    {  -0.034,   -0.021,   -0.025,   -0.039,    0.017,   -0.010,    0.105,
       -0.195,   -0.025,   -0.021,   -0.058,    0.035,    0.006,   -0.098,
       -0.029,   -0.030,    0.033,    0.004,    0.039,    0.021,    0.056,
       -0.030,    0.023,   -0.112,   -0.030,    0.044,    0.033,    0.039,
       -0.011,   -0.100,   -2.786,    1.639,   -0.771,    4.656,   -1.025,
       -1.703,   -1.527,   -5.508,   -0.188,   -3.864,    2.575,   -1.601,
       -1.290,    1.351,   -0.529,   -1.544
    },
    {  -0.016,    0.171,   -0.027,   -0.002,    0.068,    0.282,   -0.027,
       -0.116,    0.029,   -0.154,    0.038,    0.464,   -0.020,   -0.062,
        0.017,   -0.087,    0.037,    0.005,   -0.027,   -0.155,   -0.064,
        0.187,    0.014,    0.002,    0.034,   -0.073,   -0.029,    0.244,
       -0.003,   -0.060,   -3.400,    1.584,   -1.136,    5.361,   -0.242,
       -1.390,   -0.885,   -4.881,    0.288,   -4.097,    1.840,   -1.950,
       -2.535,    2.084,   -0.132,   -1.790
    },
    {   0.058,   -0.316,   -0.019,   -0.093,   -0.081,    0.114,    0.035,
       -0.062,    0.024,    0.049,    0.035,    0.141,    0.065,   -0.270,
       -0.009,   -0.064,   -0.004,   -0.150,    0.046,   -0.197,   -0.022,
       -0.029,   -0.017,    0.108,   -0.015,    0.060,    0.056,    0.184,
        0.024,   -0.040,   -2.352,    2.236,   -0.971,    5.183,   -0.548,
       -1.553,   -0.983,   -4.743,   -0.790,   -4.401,    2.263,   -1.822,
       -2.106,    1.377,   -1.527,   -2.909
    },
    {  -0.004,   -0.335,    0.033,    0.017,    0.037,    0.136,    0.008,
       -0.033,    0.078,   -0.038,    0.062,   -0.138,    0.060,   -0.292,
        0.039,    0.098,   -0.032,   -0.067,   -0.012,   -0.243,   -0.031,
       -0.076,   -0.023,    0.052,    0.005,    0.166,    0.041,    0.158,
       -0.035,    0.079,   -3.017,    2.448,   -1.357,    5.533,   -0.661,
       -1.924,   -0.746,   -4.844,   -0.392,   -4.185,    2.101,   -1.630,
       -2.120,    1.855,   -1.772,   -2.546
    },
    {   0.016,   -0.011,    0.028,    0.037,   -0.039,   -0.010,    0.053,
       -0.026,    0.050,    0.022,    0.140,    0.100,    0.111,   -0.203,
       -0.019,    0.043,   -0.055,   -0.000,    0.106,    0.122,    0.007,
       -0.052,   -0.086,    0.104,    0.046,    0.100,    0.088,   -0.001,
        0.025,   -0.067,   -2.659,    2.383,   -1.109,    5.386,   -0.879,
       -1.680,   -0.711,   -4.394,   -0.819,   -4.142,    2.349,   -1.794,
       -2.085,    1.760,   -1.619,   -2.373
    },
    {   0.009,    0.054,    0.104,   -0.180,   -0.034,    0.068,    0.056,
        0.023,   -0.009,   -0.190,    0.103,   -0.041,    0.153,    0.142,
       -0.120,    0.021,   -0.014,   -0.149,    0.082,   -0.020,    0.114,
       -0.024,   -0.088,   -0.027,    0.148,   -0.112,    0.145,   -0.035,
        0.034,   -0.067,   -2.137,    2.776,   -0.704,    4.904,   -1.522,
       -2.025,   -1.337,   -4.853,   -1.535,   -4.506,    1.798,   -1.130,
       -2.111,    0.928,   -1.551,   -1.680
    },
    {  -0.179,    0.091,   -0.095,    0.100,    0.026,    0.190,    0.118,
       -0.028,    0.041,    0.147,   -0.101,    0.019,    0.115,   -0.033,
        0.048,    0.172,    0.037,   -0.060,   -0.001,   -0.090,   -0.124,
       -0.091,   -0.087,   -0.050,    0.066,    0.135,   -0.024,   -0.079,
       -0.056,    0.095,   -2.558,    2.437,   -1.014,    5.359,   -1.173,
       -2.688,   -1.948,   -4.789,   -1.510,   -4.596,    1.148,   -1.301,
       -1.743,    1.146,   -1.902,   -1.948
    },
    {  -0.150,   -0.015,   -0.113,    0.051,   -0.017,    0.118,    0.022,
        0.068,    0.138,    0.000,   -0.060,    0.021,    0.062,   -0.042,
        0.032,    0.053,    0.085,   -0.032,   -0.032,   -0.098,   -0.210,
       -0.022,    0.031,   -0.118,    0.034,    0.159,   -0.020,   -0.044,
       -0.038,   -0.012,   -2.514,    1.371,   -1.247,    5.058,   -1.420,
       -2.778,   -1.663,   -4.916,   -1.386,   -4.871,    0.497,   -2.335,
       -1.992,    1.175,   -1.843,   -2.204
    },
    {  -0.112,   -0.037,   -0.033,   -0.035,    0.057,    0.195,    0.169,
        0.017,   -0.017,    0.037,   -0.076,    0.074,    0.190,   -0.083,
        0.017,   -0.115,    0.005,    0.046,    0.100,   -0.033,   -0.063,
        0.079,    0.055,   -0.100,    0.078,   -0.051,    0.004,   -0.056,
       -0.143,   -0.045,   -2.735,    1.791,   -1.474,    5.098,   -0.896,
       -2.402,   -2.223,   -4.622,   -1.144,   -5.311,   -0.071,   -1.809,
       -1.985,    0.905,   -2.292,   -1.983
    },
    {   0.045,   -0.020,    0.013,    0.199,    0.093,   -0.155,    0.125,
       -0.087,   -0.086,   -0.093,    0.007,   -0.096,    0.095,   -0.170,
       -0.024,    0.033,    0.112,   -0.214,    0.012,    0.327,   -0.007,
       -0.046,    0.113,    0.153,    0.037,    0.046,    0.028,   -0.046,
       -0.137,   -0.068,   -2.555,    1.965,   -1.608,    5.162,   -1.176,
       -1.561,   -2.570,   -4.841,   -0.843,   -5.061,   -0.310,   -2.110,
       -2.317,    1.166,   -2.603,   -1.707
    },
    {  -0.110,    0.074,   -0.008,    0.055,   -0.131,   -0.060,   -0.067,
       -0.086,    0.059,   -0.050,   -0.102,   -0.056,    0.006,   -0.109,
        0.059,   -0.272,   -0.077,   -0.171,   -0.070,    0.180,   -0.004,
        0.089,   -0.083,    0.233,    0.039,    0.081,    0.038,   -0.030,
        0.183,   -0.074,   -2.361,    1.853,   -0.452,    4.572,   -1.045,
       -1.440,   -1.962,   -4.815,   -1.500,   -4.156,    0.110,   -2.123,
       -2.891,    0.477,   -3.275,   -1.901
    },
    {   0.061,    0.028,    0.006,   -0.226,   -0.106,    0.046,    0.049,
        0.019,    0.101,    0.073,   -0.072,    0.038,   -0.143,   -0.101,
        0.093,    0.024,   -0.027,   -0.091,    0.049,   -0.134,   -0.011,
       -0.019,    0.059,    0.049,    0.069,   -0.031,    0.070,   -0.170,
       -0.061,    0.051,   -3.116,    1.751,   -0.504,    4.939,   -1.786,
       -1.937,   -1.951,   -4.616,   -1.032,   -4.062,    0.399,   -2.032,
       -2.193,    0.604,   -2.763,   -2.052
    },
    {  -0.001,   -0.242,   -0.002,   -0.095,    0.048,    0.126,    0.008,
        0.069,   -0.013,   -0.241,   -0.086,   -0.029,    0.085,   -0.063,
       -0.025,    0.152,    0.036,    0.109,   -0.073,   -0.124,   -0.010,
       -0.003,    0.015,   -0.071,   -0.079,    0.171,    0.005,   -0.212,
        0.112,    0.039,   -2.724,    1.846,   -0.951,    4.691,   -2.015,
       -2.160,   -2.515,   -4.011,   -1.365,   -4.579,   -0.036,   -1.556,
       -2.991,    1.094,   -2.586,   -1.759
    },
    {   0.000,   -0.148,    0.023,    0.098,    0.030,    0.063,    0.031,
        0.070,    0.002,   -0.349,    0.001,   -0.241,    0.056,    0.307,
        0.041,   -0.211,   -0.021,   -0.255,   -0.048,   -0.168,   -0.088,
       -0.109,    0.014,   -0.039,    0.038,   -0.192,    0.002,    0.077,
        0.076,   -0.127,   -2.911,    2.106,   -0.337,    4.470,   -1.330,
       -1.938,   -2.066,   -4.195,   -1.064,   -4.419,    0.691,   -2.100,
       -2.808,    1.101,   -2.370,   -2.166
    },
    {   0.078,    0.124,    0.046,   -0.034,   -0.088,    0.046,    0.013,
       -0.092,   -0.047,   -0.070,   -0.080,   -0.327,    0.034,    0.076,
       -0.011,   -0.105,    0.107,    0.005,    0.021,   -0.177,    0.241,
       -0.041,   -0.040,    0.093,    0.015,    0.033,   -0.038,   -0.081,
       -0.101,   -0.201,   -2.588,    1.666,   -0.215,    4.097,   -1.302,
       -2.210,   -1.894,   -4.278,   -1.698,   -3.749,    1.138,   -1.796,
       -3.049,    1.049,   -2.238,   -1.920
    },
    {   0.007,   -0.039,    0.020,   -0.070,   -0.053,    0.049,    0.019,
       -0.135,    0.009,   -0.052,   -0.013,    0.026,   -0.091,    0.023,
        0.030,   -0.053,    0.050,   -0.192,    0.052,   -0.018,    0.212,
       -0.061,   -0.002,    0.120,    0.050,   -0.039,   -0.010,   -0.066,
        0.009,   -0.097,   -2.670,    1.639,   -0.713,    4.876,   -0.964,
       -2.116,   -1.694,   -4.332,   -1.468,   -3.229,    1.466,   -2.224,
       -3.033,    0.286,   -2.493,   -2.087
    },
    {   0.084,    0.231,   -0.126,    0.072,    0.022,    0.149,   -0.185,
       -0.043,   -0.167,    0.120,    0.167,   -0.106,   -0.006,   -0.026,
       -0.041,    0.077,   -0.005,    0.140,    0.243,   -0.070,   -0.129,
       -0.047,    0.070,   -0.129,   -0.201,    0.114,    0.215,   -0.020,
        0.081,   -0.050,   -3.008,    1.596,   -1.501,    4.897,   -0.807,
       -1.342,   -1.649,   -4.142,   -1.968,   -2.961,    0.976,   -1.861,
       -2.055,    0.831,   -2.949,   -2.405
    },
    {   0.044,    0.165,    0.186,   -0.071,    0.106,    0.088,    0.018,
        0.065,   -0.060,    0.105,    0.092,   -0.082,   -0.009,   -0.089,
        0.081,    0.020,    0.035,    0.083,    0.158,    0.068,   -0.014,
       -0.101,    0.093,   -0.061,   -0.021,    0.036,    0.078,    0.019,
        0.042,    0.003,   -2.490,    1.586,   -1.825,    5.483,   -1.100,
       -1.639,   -1.704,   -4.060,   -2.137,   -3.578,    0.153,   -1.945,
       -2.079,    0.765,   -3.278,   -3.549
    },
    {   0.119,   -0.023,   -0.202,    0.039,   -0.107,    0.088,    0.019,
        0.012,   -0.025,   -0.042,    0.108,    0.038,   -0.178,    0.023,
       -0.022,   -0.052,   -0.128,   -0.016,    0.026,   -0.116,    0.077,
       -0.071,    0.046,    0.010,   -0.032,    0.105,    0.156,   -0.019,
       -0.055,   -0.136,   -3.456,    1.864,   -1.171,    5.296,   -1.272,
       -1.145,   -1.745,   -4.036,   -1.475,   -4.216,    0.187,   -2.188,
       -1.536,    0.847,   -3.042,   -3.213
    },
    {   0.197,    0.013,   -0.119,   -0.092,   -0.093,    0.097,   -0.228,
        0.063,    0.010,   -0.053,    0.091,   -0.099,    0.134,   -0.026,
       -0.079,   -0.059,   -0.061,   -0.078,    0.026,    0.097,   -0.256,
       -0.049,   -0.104,    0.097,    0.110,   -0.106,   -0.152,   -0.034,
        0.094,    0.106,   -3.632,    2.438,   -0.798,    5.352,   -0.161,
       -1.495,   -1.606,   -4.064,   -0.972,   -4.509,    0.672,   -1.981,
       -0.626,    0.516,   -3.244,   -3.325
    },
    {  -0.072,    0.028,    0.109,   -0.053,    0.231,   -0.023,   -0.038,
       -0.046,   -0.017,   -0.148,   -0.127,   -0.047,   -0.019,   -0.037,
       -0.023,    0.058,    0.049,   -0.008,   -0.211,   -0.076,   -0.018,
       -0.058,   -0.166,   -0.069,   -0.267,    0.035,    0.039,   -0.131,
        0.159,   -0.066,   -3.084,    2.389,   -0.737,    4.218,    0.020,
       -1.861,   -1.711,   -4.351,   -0.763,   -4.435,    0.711,   -2.521,
       -0.666,    0.915,   -2.946,   -3.311
    },
    {  -0.118,    0.118,   -0.117,   -0.117,   -0.092,    0.032,    0.020,
        0.050,    0.104,   -0.138,   -0.007,    0.054,   -0.061,   -0.031,
       -0.110,    0.095,   -0.043,    0.088,   -0.084,   -0.057,   -0.138,
       -0.045,    0.189,    0.044,    0.159,    0.152,    0.172,   -0.078,
       -0.200,   -0.129,   -3.291,    2.676,   -1.071,    3.748,    0.425,
       -1.939,   -1.927,   -4.621,   -1.318,   -4.004,    1.272,   -2.354,
       -0.189,    0.362,   -3.070,   -3.329
    },
    {  -0.002,    0.080,    0.028,    0.098,    0.035,    0.042,   -0.050,
        0.059,   -0.008,    0.064,   -0.008,   -0.088,    0.072,   -0.045,
       -0.037,   -0.083,   -0.067,   -0.100,   -0.082,   -0.071,   -0.077,
        0.028,    0.051,    0.056,    0.033,   -0.076,    0.085,   -0.094,
       -0.072,    0.050,   -3.232,    2.199,   -1.255,    3.677,    1.482,
       -2.107,   -2.096,   -4.560,   -1.460,   -5.026,    1.117,   -2.659,
       -0.136,   -0.050,   -3.348,   -3.474
    },
    {   0.027,   -0.079,    0.026,    0.141,    0.019,    0.037,    0.035,
       -0.100,    0.123,    0.026,    0.018,   -0.094,    0.045,   -0.155,
        0.079,   -0.327,   -0.011,    0.127,   -0.142,   -0.228,   -0.027,
       -0.061,    0.015,    0.129,    0.056,    0.027,   -0.034,   -0.286,
        0.040,   -0.074,   -2.725,    2.404,   -1.546,    3.808,    1.288,
       -2.223,   -1.924,   -4.886,   -1.055,   -5.503,    0.718,   -3.093,
       -0.582,    0.540,   -3.456,   -2.861
    },
    {  -0.047,    0.154,    0.010,   -0.032,    0.005,    0.041,   -0.068,
       -0.021,   -0.121,   -0.088,   -0.090,    0.033,    0.047,   -0.235,
       -0.077,    0.129,    0.045,    0.146,   -0.071,   -0.078,    0.045,
       -0.017,   -0.010,    0.129,    0.049,   -0.121,    0.024,   -0.154,
        0.094,    0.063,   -2.472,    3.083,   -2.152,    4.113,    0.711,
       -2.077,   -1.581,   -4.908,   -0.801,   -5.289,    1.022,   -2.766,
       -0.637,    0.799,   -2.670,   -2.025
    },
    {   0.064,    0.028,    0.016,   -0.005,   -0.101,   -0.090,    0.039,
       -0.029,    0.056,   -0.057,    0.019,   -0.054,    0.026,   -0.105,
       -0.004,   -0.057,    0.041,   -0.048,   -0.029,    0.032,   -0.019,
        0.020,    0.025,    0.060,    0.068,   -0.066,   -0.017,    0.034,
        0.034,   -0.297,   -2.344,    3.232,   -1.819,    4.633,    0.840,
       -2.232,   -1.264,   -5.036,   -1.010,   -5.575,    0.797,   -1.980,
       -0.981,    0.565,   -3.509,   -2.446
    },
    {   0.038,   -0.022,    0.007,   -0.006,   -0.125,    0.084,    0.041,
        0.088,   -0.000,    0.018,    0.065,    0.018,    0.072,   -0.011,
        0.028,   -0.032,    0.045,   -0.060,   -0.018,    0.008,    0.002,
        0.032,    0.092,   -0.088,    0.057,    0.098,   -0.008,   -0.127,
        0.027,    0.130,   -1.822,    3.027,   -1.451,    4.654,    0.944,
       -1.952,   -1.098,   -4.836,   -0.649,   -5.628,    0.537,   -1.929,
       -1.117,    1.417,   -2.697,   -1.796
    },
    {  -0.011,    0.021,   -0.018,   -0.003,    0.065,    0.031,   -0.048,
       -0.075,   -0.017,    0.006,   -0.068,    0.004,   -0.051,   -0.033,
        0.113,    0.007,    0.125,   -0.089,    0.083,    0.150,    0.109,
       -0.038,    0.065,   -0.037,   -0.030,    0.016,    0.020,   -0.043,
        0.083,   -0.010,   -2.306,    2.606,   -1.000,    3.960,    0.811,
       -1.874,   -1.314,   -4.657,   -0.630,   -5.732,    0.423,   -1.766,
       -0.479,    0.815,   -3.090,   -2.411
    },
    {  -0.006,    0.062,    0.037,   -0.006,   -0.092,    0.153,   -0.005,
        0.023,    0.002,    0.126,    0.076,   -0.085,    0.109,    0.047,
       -0.050,    0.088,    0.050,   -0.080,    0.008,   -0.019,   -0.003,
       -0.032,   -0.047,   -0.079,    0.008,    0.156,    0.029,   -0.038,
        0.033,   -0.052,   -1.744,    1.884,   -0.484,    4.461,    1.328,
       -2.599,   -1.146,   -4.361,   -0.549,   -4.977,    0.073,   -1.325,
       -0.433,    0.438,   -2.915,   -2.048
    },
    {   0.078,   -0.011,   -0.040,    0.018,   -0.147,    0.046,   -0.032,
        0.046,    0.219,   -0.074,    0.072,    0.040,   -0.077,   -0.031,
        0.060,   -0.054,    0.117,   -0.107,    0.031,    0.059,    0.046,
        0.018,   -0.056,   -0.060,    0.120,    0.085,   -0.039,    0.026,
        0.001,    0.003,   -1.717,    1.803,   -0.752,    4.455,    1.505,
       -2.756,   -1.743,   -4.426,   -0.481,   -5.734,    0.459,   -2.314,
       -0.475,    0.435,   -3.071,   -1.873
    },
    {   0.155,    0.093,   -0.051,   -0.006,   -0.206,    0.034,    0.046,
       -0.005,    0.048,    0.021,   -0.001,   -0.062,   -0.034,   -0.014,
        0.127,    0.000,    0.058,    0.010,   -0.047,   -0.161,    0.001,
       -0.032,   -0.020,   -0.036,   -0.032,   -0.004,    0.006,   -0.142,
       -0.075,   -0.085,   -2.135,    2.483,   -0.807,    5.361,    1.461,
       -2.893,   -1.399,   -5.257,   -0.046,   -5.779,    0.517,   -1.983,
       -1.131,    0.479,   -2.991,   -1.664
    },
    {   0.103,    0.025,    0.033,    0.016,   -0.070,    0.048,   -0.153,
        0.046,   -0.114,   -0.070,    0.139,   -0.006,   -0.002,   -0.024,
       -0.111,    0.011,    0.085,   -0.028,    0.179,   -0.008,    0.096,
       -0.016,   -0.078,   -0.020,    0.335,    0.003,   -0.046,   -0.089,
        0.160,    0.000,   -2.353,    1.682,   -0.921,    4.980,    1.052,
       -2.946,   -0.683,   -4.931,    0.441,   -5.675,    0.439,   -1.863,
       -1.178,    0.258,   -3.523,   -1.909
    },
    {   0.022,    0.014,    0.315,    0.011,   -0.002,    0.192,   -0.049,
       -0.015,   -0.251,    0.005,    0.324,   -0.027,    0.050,   -0.019,
       -0.111,   -0.044,   -0.013,   -0.021,    0.246,    0.021,    0.178,
       -0.051,    0.204,    0.034,    0.158,    0.044,    0.017,    0.016,
        0.220,    0.017,   -1.698,    2.219,   -1.563,    5.585,    1.084,
       -2.573,   -0.738,   -4.464,    0.662,   -5.596,   -0.216,   -1.621,
       -1.445,    0.085,   -3.007,   -1.857
    },
    {   0.093,   -0.007,   -0.002,    0.008,    0.099,    0.082,   -0.031,
        0.005,    0.094,   -0.070,    0.017,   -0.038,   -0.131,   -0.003,
       -0.374,    0.042,    0.372,   -0.043,    0.088,   -0.025,    0.102,
        0.007,   -0.156,   -0.016,    0.100,   -0.030,   -0.035,    0.027,
        0.049,   -0.086,   -1.964,    2.085,   -1.787,    6.081,    0.964,
       -2.191,   -1.354,   -5.127,    1.331,   -5.271,    0.095,   -2.090,
       -1.240,   -0.328,   -2.865,   -2.735
    },
    {  -0.048,   -0.026,    0.268,   -0.023,   -0.102,    0.057,   -0.213,
       -0.015,   -0.162,   -0.118,    0.111,    0.028,   -0.115,   -0.018,
        0.048,    0.026,    0.089,   -0.024,    0.093,   -0.026,    0.182,
       -0.029,   -0.248,    0.011,   -0.125,   -0.052,    0.100,   -0.035,
        0.238,    0.001,   -1.646,    1.292,   -1.223,    5.952,    0.334,
       -3.410,   -1.061,   -4.659,    1.042,   -4.522,   -0.002,   -1.917,
       -0.871,   -0.474,   -2.725,   -2.701
    },
    {   0.031,   -0.012,    0.003,   -0.018,   -0.057,    0.121,   -0.030,
       -0.019,   -0.146,   -0.007,   -0.048,    0.024,    0.120,   -0.056,
       -0.249,    0.023,   -0.043,   -0.003,   -0.114,    0.004,    0.219,
       -0.010,   -0.039,    0.008,   -0.060,    0.002,    0.044,   -0.063,
        0.200,    0.015,   -1.818,    1.587,   -1.154,    5.981,    0.229,
       -3.531,   -1.405,   -4.556,    1.252,   -5.421,    0.400,   -1.904,
       -0.614,   -0.658,   -2.193,   -2.498
    },
    {   0.055,    0.015,    0.025,   -0.051,    0.090,    0.193,    0.153,
        0.038,    0.148,   -0.031,    0.183,   -0.048,    0.071,   -0.037,
       -0.124,    0.017,    0.039,    0.056,    0.014,    0.011,    0.142,
       -0.019,    0.082,    0.050,    0.024,   -0.006,   -0.008,   -0.097,
        0.044,    0.048,   -1.808,    1.691,   -0.795,    5.887,    0.050,
       -3.455,   -1.744,   -3.976,    0.965,   -5.088,    0.378,   -1.718,
       -0.879,    0.045,   -2.386,   -3.194
    },
    {  -0.029,   -0.152,    0.032,   -0.069,   -0.087,    0.075,    0.037,
       -0.242,    0.004,   -0.033,    0.069,   -0.209,    0.008,   -0.088,
        0.078,   -0.199,    0.022,   -0.134,    0.010,   -0.074,   -0.035,
       -0.050,   -0.030,   -0.136,   -0.067,    0.002,    0.095,    0.064,
       -0.026,   -0.014,   -2.130,    1.851,   -0.570,    5.609,    0.445,
       -3.184,   -0.860,   -4.130,    0.519,   -5.335,    0.331,   -0.964,
       -0.101,    0.088,   -2.848,   -2.931
    },
    {  -0.004,   -0.167,   -0.034,   -0.012,   -0.031,   -0.010,   -0.134,
       -0.246,    0.068,   -0.144,   -0.017,   -0.004,   -0.008,   -0.093,
        0.120,   -0.173,    0.061,   -0.241,    0.030,    0.046,    0.081,
       -0.060,    0.065,    0.007,    0.118,   -0.047,    0.076,    0.179,
        0.015,   -0.014,   -2.041,    1.794,   -1.430,    5.761,    0.888,
       -3.244,   -0.448,   -3.816,    0.379,   -5.280,    1.222,   -0.855,
        0.038,    0.315,   -2.870,   -3.411
    },
    {  -0.013,    0.066,   -0.049,    0.008,   -0.057,    0.027,   -0.025,
       -0.151,    0.102,   -0.278,    0.121,    0.109,    0.004,   -0.005,
        0.013,   -0.078,    0.060,   -0.059,    0.010,    0.244,   -0.104,
        0.054,    0.115,   -0.083,    0.135,   -0.086,    0.032,   -0.007,
        0.116,    0.064,   -1.978,    1.787,   -1.374,    5.179,    0.477,
       -2.728,    0.067,   -3.248,    0.288,   -5.921,    1.013,   -1.376,
        0.088,    0.553,   -2.850,   -2.966
    },
    {  -0.091,   -0.175,   -0.054,   -0.250,   -0.247,   -0.011,    0.008,
       -0.179,    0.070,    0.030,    0.100,    0.199,   -0.019,   -0.177,
        0.004,   -0.092,   -0.087,   -0.084,   -0.063,    0.083,   -0.015,
        0.082,    0.070,   -0.194,    0.181,   -0.062,   -0.021,   -0.036,
        0.123,   -0.018,   -1.907,    2.130,   -2.121,    4.815,    0.454,
       -2.706,   -0.238,   -3.603,   -0.440,   -5.277,    1.082,   -1.900,
       -0.362,    0.801,   -3.047,   -3.083
    },
    {   0.117,    0.152,    0.046,   -0.117,   -0.183,    0.028,    0.045,
       -0.146,    0.110,   -0.097,    0.023,    0.073,    0.006,   -0.145,
       -0.175,    0.082,   -0.003,   -0.161,    0.036,   -0.047,   -0.010,
        0.238,   -0.024,   -0.146,    0.232,   -0.014,   -0.005,    0.098,
        0.038,    0.075,   -2.128,    1.842,   -1.718,    5.124,    0.377,
       -3.410,   -1.080,   -3.193,   -0.342,   -5.286,    0.569,   -1.727,
        0.088,    1.091,   -2.564,   -2.932
    },
    {   0.069,    0.019,    0.131,   -0.064,   -0.104,    0.034,    0.100,
       -0.119,    0.141,    0.034,   -0.048,    0.055,   -0.105,   -0.111,
       -0.256,    0.084,   -0.051,   -0.109,    0.072,   -0.076,    0.028,
        0.028,    0.035,   -0.048,    0.013,    0.038,    0.182,    0.064,
        0.204,   -0.037,   -1.521,    1.574,   -1.717,    5.001,   -0.935,
       -3.262,    0.249,   -3.357,   -0.502,   -4.900,    0.670,   -1.228,
       -0.660,    0.123,   -2.440,   -2.897
    },
    {   0.053,    0.103,    0.016,    0.053,   -0.119,    0.019,    0.091,
       -0.061,    0.198,    0.029,    0.023,    0.002,    0.025,   -0.014,
       -0.090,    0.076,    0.067,   -0.197,    0.076,   -0.079,    0.007,
       -0.015,    0.035,   -0.079,    0.040,    0.003,    0.012,    0.013,
        0.097,   -0.027,   -1.187,    0.462,   -1.830,    5.510,   -0.752,
       -2.590,    0.713,   -2.659,   -0.688,   -5.034,    0.656,   -0.860,
       -0.986,    0.134,   -2.408,   -3.256
    },
    {   0.047,   -0.063,    0.102,   -0.143,   -0.148,   -0.005,    0.199,
       -0.056,   -0.009,    0.045,   -0.006,    0.020,   -0.069,    0.029,
       -0.096,   -0.062,    0.211,   -0.195,    0.076,    0.071,    0.134,
       -0.042,    0.002,    0.109,    0.153,   -0.046,    0.033,    0.050,
       -0.106,   -0.062,   -1.384,    0.506,   -2.029,    6.047,   -0.536,
       -2.604,    0.074,   -2.646,   -1.460,   -5.022,    0.587,   -0.614,
       -0.425,    0.191,   -2.274,   -2.778
    },
    {  -0.010,   -0.008,    0.035,   -0.111,   -0.025,    0.093,   -0.129,
        0.013,    0.066,   -0.070,    0.008,    0.005,   -0.006,   -0.062,
       -0.090,   -0.052,    0.208,    0.009,    0.045,    0.009,   -0.003,
       -0.003,    0.016,    0.082,    0.114,   -0.015,    0.060,   -0.057,
       -0.044,    0.037,   -1.698,    0.958,   -1.539,    5.637,   -0.059,
       -2.821,    0.194,   -3.373,   -1.608,   -5.302,    0.138,   -0.518,
       -0.507,   -0.315,   -2.328,   -2.808
    },
    {   0.003,    0.118,    0.096,   -0.067,   -0.089,    0.093,    0.039,
       -0.077,   -0.060,   -0.079,   -0.002,    0.139,    0.234,   -0.042,
        0.173,    0.001,   -0.022,    0.050,   -0.088,   -0.087,    0.032,
        0.001,    0.010,    0.022,   -0.109,   -0.013,   -0.078,   -0.007,
        0.106,   -0.033,   -1.695,    1.010,   -1.370,    5.067,   -0.291,
       -2.397,    0.875,   -2.240,   -1.547,   -5.272,   -0.205,   -0.764,
       -0.453,   -0.445,   -1.654,   -3.503
    },
    {   0.105,    0.103,    0.099,    0.118,    0.071,    0.057,    0.019,
       -0.010,    0.054,   -0.091,   -0.180,    0.083,    0.066,    0.086,
        0.013,    0.117,    0.106,   -0.005,   -0.016,   -0.065,   -0.132,
        0.073,    0.104,   -0.001,   -0.015,    0.046,   -0.012,   -0.175,
        0.174,   -0.145,   -1.728,    1.127,   -1.266,    5.670,   -0.870,
       -2.665,    1.098,   -2.893,   -0.967,   -5.576,    0.124,   -1.478,
       -0.757,   -0.510,   -2.104,   -3.724
    },
    {  -0.187,   -0.068,   -0.045,    0.086,   -0.058,    0.004,    0.035,
        0.150,    0.126,    0.047,    0.027,    0.050,   -0.100,   -0.157,
        0.008,   -0.020,    0.064,   -0.099,   -0.001,    0.064,    0.127,
       -0.132,   -0.041,    0.201,    0.142,   -0.090,    0.078,    0.066,
        0.006,   -0.119,   -1.941,    1.520,   -1.215,    5.245,   -0.224,
       -1.886,    1.537,   -3.043,   -1.074,   -5.090,   -0.127,   -1.166,
       -0.719,   -0.723,   -2.505,   -3.876
    },
    {  -0.316,    0.084,    0.007,   -0.106,   -0.089,    0.047,   -0.269,
        0.050,    0.043,   -0.092,   -0.117,    0.091,   -0.100,    0.211,
       -0.058,    0.038,    0.127,   -0.186,   -0.012,    0.097,    0.104,
        0.118,   -0.143,    0.097,    0.099,   -0.010,    0.120,    0.073,
       -0.111,   -0.183,   -1.704,    1.349,   -1.472,    5.368,   -0.248,
       -2.267,    1.742,   -3.508,   -1.838,   -4.628,   -0.402,   -1.642,
       -0.387,   -0.327,   -2.651,   -3.467
    },
    {  -0.186,   -0.050,   -0.092,   -0.072,   -0.051,   -0.040,   -0.234,
        0.187,   -0.052,   -0.105,    0.000,   -0.034,    0.032,    0.056,
       -0.004,   -0.055,    0.002,   -0.166,   -0.052,   -0.015,    0.055,
        0.007,   -0.072,    0.061,    0.037,    0.015,    0.135,   -0.069,
        0.068,   -0.134,   -1.847,    1.654,   -1.132,    5.721,   -0.283,
       -2.159,    1.000,   -3.758,   -2.167,   -3.904,   -0.377,   -2.164,
       -1.272,   -0.879,   -3.603,   -3.210
    },
    {  -0.152,   -0.106,    0.025,    0.033,   -0.134,    0.060,   -0.084,
        0.085,    0.038,    0.005,    0.135,    0.306,    0.102,    0.038,
       -0.086,   -0.037,    0.014,   -0.243,   -0.020,   -0.086,   -0.153,
       -0.001,    0.095,   -0.021,   -0.016,   -0.190,    0.050,   -0.030,
        0.034,    0.197,   -1.920,    1.405,   -0.790,    5.582,   -0.105,
       -2.113,    1.072,   -3.770,   -1.940,   -3.958,   -0.755,   -2.455,
       -0.960,   -1.188,   -3.242,   -3.090
    },
    {   0.024,   -0.008,   -0.106,   -0.041,    0.039,    0.051,    0.091,
       -0.038,    0.100,    0.038,   -0.044,   -0.059,   -0.033,    0.018,
        0.172,   -0.008,    0.065,   -0.130,   -0.018,   -0.107,   -0.027,
       -0.004,   -0.082,   -0.149,   -0.087,   -0.006,    0.082,   -0.028,
        0.111,   -0.082,   -2.374,    1.616,   -1.189,    5.775,    0.191,
       -2.143,    1.092,   -4.109,   -2.155,   -3.611,   -0.947,   -1.743,
       -1.000,   -0.633,   -3.719,   -2.704
    },
    {   0.003,    0.062,    0.042,   -0.006,   -0.037,    0.043,    0.156,
       -0.036,    0.124,   -0.033,   -0.195,   -0.038,    0.005,   -0.021,
        0.082,   -0.030,    0.075,   -0.064,   -0.064,   -0.074,   -0.053,
       -0.038,   -0.071,   -0.088,   -0.001,    0.032,    0.021,    0.005,
       -0.045,   -0.098,   -2.430,    1.309,   -0.890,    6.565,    0.692,
       -0.836,    1.042,   -3.806,   -1.430,   -3.631,   -0.759,   -1.567,
       -0.825,   -0.131,   -3.558,   -2.316
    },
    {   0.119,    0.055,    0.003,    0.032,   -0.062,    0.093,    0.038,
        0.078,    0.066,   -0.072,    0.064,    0.141,    0.075,   -0.029,
       -0.056,    0.033,    0.019,    0.008,    0.031,    0.105,   -0.010,
       -0.039,    0.084,    0.042,   -0.060,    0.055,    0.093,   -0.019,
        0.064,   -0.060,   -2.379,    1.405,   -1.458,    5.762,    1.541,
       -0.449,    1.302,   -3.506,   -1.438,   -3.135,   -0.037,   -1.457,
       -0.380,   -0.724,   -3.342,   -2.567
    },
    {   0.032,    0.046,   -0.086,   -0.079,   -0.018,    0.058,    0.026,
       -0.072,    0.026,    0.038,   -0.115,    0.106,    0.116,   -0.088,
        0.086,   -0.055,    0.084,    0.023,    0.095,   -0.002,   -0.046,
        0.014,   -0.063,   -0.034,   -0.014,    0.117,   -0.052,   -0.014,
        0.070,   -0.050,   -2.319,    1.599,   -1.490,    6.243,    1.475,
       -0.576,    1.415,   -4.577,   -1.464,   -2.777,    0.353,   -2.155,
       -1.598,   -1.130,   -3.792,   -2.158
    },
    {  -0.006,    0.063,    0.129,   -0.258,    0.001,    0.054,    0.053,
       -0.250,    0.017,    0.065,    0.104,   -0.165,   -0.116,   -0.195,
       -0.027,   -0.064,   -0.059,   -0.061,   -0.107,    0.086,    0.163,
       -0.023,    0.122,    0.026,   -0.103,    0.091,    0.134,    0.180,
       -0.068,   -0.230,   -2.814,    2.083,   -2.082,    5.759,    1.673,
       -0.827,    1.905,   -3.923,   -0.936,   -2.684,    0.678,   -1.827,
       -2.176,   -1.532,   -3.350,   -2.505
    },
    {   0.031,    0.059,    0.155,   -0.239,   -0.111,    0.072,    0.088,
       -0.151,    0.014,    0.174,    0.063,   -0.221,   -0.106,   -0.034,
       -0.162,   -0.091,   -0.155,   -0.200,    0.112,   -0.129,    0.026,
       -0.385,    0.079,   -0.017,   -0.133,    0.103,    0.212,   -0.000,
        0.288,   -0.079,   -1.917,    1.414,   -1.329,    5.714,    1.891,
       -0.973,    2.060,   -4.014,   -0.191,   -2.718,    0.591,   -1.582,
       -2.293,   -0.706,   -3.393,   -2.679
    },
    {  -0.109,    0.144,    0.081,   -0.230,   -0.084,    0.107,    0.128,
       -0.002,   -0.130,    0.016,    0.055,   -0.133,   -0.223,    0.137,
       -0.129,   -0.081,   -0.074,   -0.156,    0.294,    0.068,    0.031,
       -0.026,    0.089,    0.128,    0.032,    0.002,    0.238,   -0.069,
        0.133,   -0.135,   -2.330,    1.560,   -0.946,    5.577,    1.300,
       -1.036,    1.079,   -4.209,   -0.251,   -2.686,    0.487,   -2.362,
       -2.767,   -1.350,   -3.872,   -2.759
    },
    {  -0.071,    0.120,    0.189,   -0.088,   -0.180,    0.000,    0.176,
        0.029,    0.016,   -0.025,   -0.125,    0.031,   -0.016,    0.009,
        0.197,   -0.030,   -0.107,   -0.069,   -0.026,   -0.091,    0.053,
       -0.180,   -0.028,   -0.065,    0.065,   -0.189,    0.040,    0.045,
       -0.005,    0.013,   -2.155,    1.704,   -0.810,    5.228,    1.859,
       -0.784,    0.959,   -4.154,   -0.047,   -3.020,    0.827,   -2.343,
       -2.026,   -2.024,   -3.688,   -2.283
    },
    {   0.038,   -0.014,   -0.134,   -0.081,    0.067,    0.080,   -0.037,
       -0.033,    0.098,   -0.080,    0.117,    0.110,    0.026,    0.074,
        0.037,   -0.011,    0.099,   -0.013,    0.090,   -0.071,    0.048,
       -0.108,    0.161,   -0.101,    0.116,   -0.185,    0.070,   -0.042,
        0.037,    0.070,   -2.133,    1.661,   -0.918,    5.703,    1.584,
       -0.869,    1.192,   -4.083,   -0.055,   -2.837,    0.702,   -2.119,
       -2.356,   -2.192,   -3.786,   -2.676
    },
    {  -0.015,    0.022,   -0.011,   -0.100,   -0.055,    0.080,    0.060,
        0.142,   -0.023,   -0.047,   -0.035,    0.021,    0.068,    0.042,
        0.025,    0.067,   -0.060,    0.028,   -0.010,   -0.144,    0.062,
       -0.042,    0.053,   -0.038,    0.063,   -0.122,    0.034,   -0.052,
       -0.033,   -0.054,   -2.245,    1.814,   -0.806,    4.774,    1.377,
       -0.862,    1.333,   -3.911,   -0.096,   -3.059,    1.710,   -2.621,
       -2.223,   -1.803,   -3.468,   -3.452
    },
    {   0.023,    0.183,   -0.130,    0.070,   -0.024,    0.024,    0.016,
        0.115,    0.015,    0.039,   -0.019,    0.101,    0.005,    0.130,
        0.053,   -0.268,    0.108,   -0.070,    0.006,    0.163,    0.114,
        0.008,    0.078,   -0.053,   -0.020,   -0.175,    0.017,    0.117,
       -0.091,   -0.191,   -2.480,    2.460,   -1.253,    5.255,    1.601,
       -1.750,    0.417,   -3.363,    0.627,   -3.091,    1.579,   -2.649,
       -2.190,   -1.394,   -3.171,   -3.294
    },
    {  -0.160,    0.008,    0.102,    0.022,    0.117,    0.064,    0.076,
        0.360,    0.099,   -0.067,    0.071,    0.106,   -0.004,    0.272,
       -0.171,   -0.246,    0.004,   -0.053,   -0.079,    0.434,    0.060,
        0.099,    0.051,   -0.017,   -0.058,   -0.296,    0.128,    0.109,
        0.102,   -0.130,   -2.098,    2.642,   -1.331,    5.464,    1.817,
       -1.298,    1.260,   -4.183,    0.625,   -2.111,    1.891,   -2.190,
       -1.926,   -1.750,   -3.286,   -3.806
    },
    {  -0.182,    0.047,    0.059,    0.253,   -0.053,    0.094,   -0.158,
       -0.003,    0.034,   -0.065,    0.170,    0.046,    0.021,    0.218,
       -0.031,   -0.187,   -0.125,   -0.195,   -0.059,    0.486,   -0.031,
        0.033,   -0.098,   -0.045,   -0.069,   -0.244,   -0.037,   -0.084,
        0.061,    0.087,   -2.423,    3.079,   -0.723,    5.976,    1.349,
       -1.233,    1.160,   -4.647,    0.507,   -2.646,    1.479,   -1.957,
       -1.402,   -2.160,   -3.226,   -3.736
    },
    {   0.031,    0.189,   -0.031,    0.290,   -0.055,    0.086,   -0.111,
       -0.046,   -0.026,   -0.173,   -0.089,    0.208,    0.038,    0.187,
        0.037,    0.083,    0.024,   -0.009,    0.109,    0.420,   -0.036,
       -0.129,    0.025,   -0.004,    0.049,    0.070,    0.053,   -0.317,
        0.004,    0.273,   -2.387,    3.645,   -0.736,    5.569,    0.535,
       -1.371,    1.036,   -5.646,    0.070,   -2.284,    1.554,   -2.444,
       -2.101,   -1.732,   -3.259,   -3.697
    },
    {   0.030,   -0.054,   -0.048,    0.082,   -0.004,    0.043,   -0.003,
        0.013,    0.030,   -0.269,   -0.115,    0.148,    0.013,   -0.008,
        0.009,   -0.088,    0.051,    0.082,    0.108,    0.145,    0.018,
       -0.035,    0.088,   -0.111,    0.000,   -0.035,    0.005,   -0.030,
       -0.069,    0.034,   -2.838,    3.737,   -0.634,    5.204,    0.591,
       -2.139,    1.051,   -6.088,   -0.333,   -2.293,    1.235,   -2.675,
       -1.875,   -1.719,   -4.235,   -3.825
    },
    {  -0.053,    0.055,   -0.002,   -0.028,    0.032,    0.031,   -0.142,
       -0.016,    0.036,    0.091,    0.023,   -0.123,   -0.129,   -0.141,
        0.023,   -0.075,   -0.053,   -0.068,    0.134,    0.016,   -0.075,
       -0.039,    0.044,    0.108,   -0.019,   -0.115,    0.089,   -0.085,
       -0.001,    0.064,   -3.568,    3.957,   -0.486,    5.247,    0.604,
       -1.487,    1.233,   -5.809,   -0.225,   -2.106,    0.701,   -2.554,
       -2.025,   -1.148,   -4.530,   -3.862
    },
    {  -0.006,    0.187,    0.029,    0.076,   -0.088,    0.177,   -0.053,
        0.045,   -0.054,    0.225,    0.009,   -0.260,   -0.091,   -0.314,
       -0.046,   -0.103,   -0.022,   -0.092,    0.026,    0.161,    0.031,
        0.023,   -0.026,    0.214,   -0.008,   -0.139,    0.026,    0.293,
        0.027,   -0.005,   -3.079,    4.162,   -0.671,    4.961,    0.160,
       -2.218,    0.948,   -5.751,    0.027,   -1.869,    0.865,   -2.321,
       -1.320,   -0.970,   -5.111,   -3.280
    },
    {   0.019,   -0.012,   -0.019,   -0.068,   -0.010,    0.071,   -0.014,
        0.004,   -0.080,    0.168,   -0.069,   -0.069,   -0.082,   -0.201,
       -0.042,   -0.275,   -0.012,   -0.264,    0.086,    0.067,   -0.056,
       -0.157,    0.042,    0.336,    0.078,    0.084,    0.002,    0.202,
       -0.111,   -0.280,   -3.900,    4.304,   -0.487,    5.601,    1.408,
       -1.704,    1.816,   -5.931,    0.368,   -2.430,    0.249,   -1.621,
       -2.086,   -1.136,   -4.175,   -3.442
    },
    {  -0.029,    0.237,   -0.036,    0.146,    0.076,    0.011,    0.022,
        0.017,   -0.002,    0.158,   -0.039,    0.043,    0.017,   -0.107,
        0.001,   -0.157,   -0.027,   -0.031,   -0.061,    0.252,    0.008,
       -0.167,   -0.010,    0.079,   -0.023,    0.212,    0.001,    0.173,
       -0.009,   -0.161,   -3.328,    4.185,   -0.651,    5.805,    1.559,
       -1.836,    2.090,   -5.950,    0.722,   -2.098,   -0.131,   -1.924,
       -2.080,   -1.796,   -3.904,   -3.603
    },
    {   0.034,    0.106,   -0.070,    0.095,   -0.044,    0.043,   -0.112,
        0.051,    0.073,    0.065,   -0.001,   -0.075,   -0.013,   -0.192,
       -0.005,   -0.063,    0.002,   -0.062,   -0.018,   -0.002,    0.029,
        0.048,   -0.007,   -0.110,    0.018,    0.130,    0.004,    0.007,
        0.042,    0.175,   -2.451,    3.314,   -0.349,    5.732,    1.150,
       -1.211,    1.656,   -5.516,    0.386,   -2.690,   -0.000,   -1.674,
       -2.137,   -1.393,   -3.708,   -3.073
    },
    {   0.041,   -0.092,    0.080,    0.199,   -0.033,    0.109,    0.278,
       -0.162,   -0.116,    0.067,    0.038,   -0.117,    0.047,   -0.075,
       -0.025,   -0.069,    0.050,    0.120,    0.310,    0.023,   -0.040,
       -0.031,    0.051,   -0.128,    0.048,    0.065,    0.021,   -0.221,
       -0.097,   -0.061,   -3.103,    3.389,   -0.588,    6.330,    1.269,
       -1.125,    1.259,   -5.297,    0.162,   -2.917,   -0.044,   -1.647,
       -1.730,   -1.318,   -3.892,   -3.046
    },
    {  -0.122,   -0.049,    0.049,    0.020,   -0.084,    0.176,    0.009,
        0.037,   -0.006,    0.021,   -0.012,    0.007,   -0.093,   -0.111,
        0.167,    0.022,   -0.019,   -0.070,    0.090,   -0.030,    0.120,
       -0.032,    0.017,    0.234,   -0.118,    0.055,    0.064,    0.059,
       -0.048,   -0.034,   -2.337,    3.430,   -0.268,    6.018,    1.038,
       -1.598,    1.493,   -5.307,    0.182,   -3.025,   -0.013,   -1.821,
       -2.119,   -0.660,   -4.464,   -2.838
    },
    {  -0.053,    0.012,    0.089,   -0.090,   -0.124,    0.082,   -0.139,
        0.030,    0.056,   -0.214,    0.107,   -0.064,   -0.112,   -0.018,
       -0.096,    0.035,    0.028,   -0.099,   -0.102,    0.117,    0.010,
       -0.050,   -0.016,   -0.095,    0.065,   -0.046,   -0.044,    0.006,
        0.105,    0.042,   -2.847,    2.697,    0.072,    5.758,    0.819,
       -1.591,    1.903,   -5.836,   -0.737,   -3.079,   -0.182,   -1.742,
       -2.027,   -1.209,   -5.231,   -2.744
    },
    {   0.133,    0.046,    0.003,   -0.073,    0.046,    0.179,   -0.129,
       -0.036,    0.112,   -0.035,   -0.008,   -0.019,    0.084,    0.013,
       -0.176,   -0.007,   -0.008,   -0.102,   -0.103,   -0.037,   -0.188,
        0.051,   -0.116,    0.085,    0.022,   -0.034,   -0.047,    0.045,
        0.089,   -0.075,   -3.646,    2.784,   -0.689,    5.607,    0.830,
       -0.852,    1.589,   -6.021,   -1.563,   -2.971,    0.220,   -1.733,
       -1.763,   -1.229,   -4.941,   -2.157
    },
    {   0.136,    0.022,   -0.113,   -0.039,   -0.064,    0.186,   -0.195,
       -0.037,   -0.041,   -0.012,   -0.074,   -0.043,    0.038,   -0.044,
        0.028,   -0.004,   -0.122,   -0.016,    0.144,   -0.022,    0.057,
        0.102,   -0.069,    0.095,    0.178,    0.012,   -0.150,   -0.060,
       -0.030,    0.011,   -3.496,    2.678,   -0.261,    5.097,    1.367,
       -0.125,    1.678,   -6.396,   -1.840,   -2.810,   -0.123,   -1.167,
       -1.524,   -1.078,   -4.783,   -2.613
    },
    {   0.006,    0.037,   -0.023,   -0.004,   -0.002,    0.055,   -0.016,
       -0.019,    0.024,    0.031,   -0.026,   -0.003,    0.086,   -0.031,
       -0.034,   -0.056,    0.066,   -0.088,   -0.053,    0.024,   -0.076,
       -0.029,    0.002,    0.066,   -0.067,   -0.002,   -0.054,   -0.026,
       -0.157,   -0.072,   -3.382,    2.215,    0.171,    5.071,    1.897,
        0.200,    1.646,   -6.193,   -2.175,   -2.465,   -0.226,   -1.240,
       -1.903,   -1.003,   -6.136,   -2.816
    },
    {   0.051,    0.031,   -0.197,   -0.058,    0.002,    0.035,    0.068,
       -0.013,    0.055,    0.093,   -0.088,    0.013,    0.146,   -0.046,
        0.170,   -0.036,   -0.079,   -0.047,    0.085,   -0.020,   -0.139,
       -0.032,   -0.055,    0.024,   -0.085,   -0.035,   -0.093,   -0.017,
       -0.078,   -0.057,   -3.335,    1.725,   -0.129,    5.438,    1.610,
        0.059,    1.641,   -6.217,   -2.279,   -2.932,    0.001,   -2.007,
       -1.858,   -1.171,   -6.101,   -2.737
    },
    {  -0.083,    0.040,   -0.045,   -0.045,   -0.041,    0.051,    0.104,
        0.041,   -0.035,    0.070,   -0.047,   -0.015,   -0.049,   -0.045,
        0.011,   -0.007,   -0.042,   -0.001,    0.022,    0.005,   -0.004,
       -0.022,   -0.021,   -0.005,    0.104,   -0.033,   -0.047,   -0.009,
       -0.017,   -0.095,   -3.409,    1.523,   -0.099,    6.089,    1.953,
        0.197,    1.436,   -6.412,   -1.893,   -2.280,    0.089,   -1.674,
       -1.826,   -1.451,   -6.221,   -2.712
    },
    {  -0.040,   -0.045,    0.014,    0.016,    0.005,    0.068,    0.004,
        0.140,    0.033,    0.034,    0.014,    0.125,   -0.019,    0.010,
       -0.004,   -0.057,    0.009,   -0.074,   -0.009,    0.007,   -0.022,
        0.094,    0.027,   -0.014,    0.050,   -0.020,   -0.026,   -0.052,
        0.005,    0.006,   -3.151,    1.271,   -0.087,    5.540,    1.744,
       -0.443,    1.781,   -6.718,   -1.423,   -2.247,    0.089,   -1.648,
       -1.871,   -1.369,   -5.908,   -2.576
    },
    {  -0.001,    0.002,   -0.060,   -0.045,   -0.026,    0.056,   -0.069,
       -0.021,    0.013,    0.071,   -0.007,    0.057,   -0.031,    0.017,
       -0.010,   -0.004,   -0.049,   -0.011,    0.027,    0.051,    0.051,
        0.021,   -0.035,    0.032,    0.041,    0.003,   -0.010,   -0.123,
        0.011,   -0.040,   -3.059,    0.837,   -0.302,    5.241,    2.075,
       -0.436,    1.997,   -6.901,   -1.975,   -2.045,    0.243,   -1.628,
       -1.330,   -1.262,   -6.481,   -2.122
    },
    {   0.068,    0.024,   -0.003,    0.027,    0.034,   -0.003,    0.048,
        0.082,   -0.014,    0.158,   -0.065,    0.045,    0.049,   -0.010,
        0.002,   -0.139,   -0.003,    0.043,   -0.020,    0.038,   -0.003,
        0.052,    0.051,    0.098,   -0.139,   -0.115,    0.048,   -0.088,
       -0.012,   -0.071,   -2.617,    0.994,   -0.796,    5.850,    2.288,
        0.177,    2.423,   -7.726,   -1.590,   -2.517,    0.360,   -2.063,
       -1.210,   -0.870,   -6.800,   -1.841
    },
    {  -0.041,    0.085,    0.028,   -0.033,    0.006,    0.023,   -0.014,
        0.192,   -0.011,    0.265,   -0.020,    0.032,   -0.016,   -0.041,
        0.001,   -0.012,    0.011,    0.015,    0.016,   -0.093,    0.019,
        0.006,   -0.023,    0.048,    0.068,   -0.095,    0.041,    0.021,
        0.008,   -0.025,   -2.625,    0.994,   -1.453,    6.213,    2.371,
        0.328,    2.805,   -7.677,   -1.866,   -2.447,    0.395,   -1.878,
       -1.203,   -0.969,   -6.646,   -1.899
    },
    {   0.015,    0.064,   -0.032,    0.009,   -0.055,    0.101,   -0.005,
        0.201,   -0.010,    0.132,   -0.013,   -0.058,    0.020,    0.034,
        0.025,   -0.053,    0.012,    0.089,   -0.024,   -0.015,   -0.011,
        0.012,   -0.013,   -0.066,   -0.011,    0.004,    0.021,   -0.047,
       -0.027,   -0.061,   -2.444,    1.138,   -1.368,    6.302,    2.562,
        0.287,    2.475,   -7.796,   -1.621,   -2.566,    0.623,   -1.904,
       -1.253,   -0.809,   -7.242,   -2.159
    },
    {   0.002,    0.001,    0.035,   -0.002,    0.013,    0.043,   -0.049,
        0.288,    0.009,   -0.001,    0.021,    0.013,    0.017,   -0.033,
       -0.030,   -0.085,    0.026,    0.020,    0.051,    0.221,    0.012,
       -0.046,    0.024,   -0.091,   -0.019,   -0.092,   -0.009,    0.040,
        0.089,    0.103,   -2.971,    0.379,   -0.985,    6.345,    2.006,
        0.354,    1.722,   -6.956,   -2.059,   -2.368,    1.234,   -1.492,
       -0.713,   -0.375,   -7.243,   -1.610
    },
    {   0.040,    0.049,   -0.016,   -0.095,   -0.029,   -0.049,    0.022,
       -0.018,   -0.032,   -0.091,   -0.065,   -0.058,    0.011,   -0.084,
        0.101,   -0.008,   -0.092,   -0.052,   -0.081,   -0.212,   -0.015,
        0.010,   -0.030,    0.056,   -0.013,    0.127,   -0.057,   -0.156,
       -0.065,   -0.055,   -3.240,   -0.294,   -0.642,    5.820,    2.809,
        0.659,    0.957,   -6.617,   -2.373,   -2.032,    0.687,   -0.919,
       -0.981,   -0.920,   -7.737,   -1.140
    },
    {   0.039,   -0.039,    0.017,    0.008,   -0.054,   -0.073,    0.021,
       -0.063,    0.027,   -0.022,   -0.027,    0.052,   -0.005,   -0.081,
        0.077,   -0.106,   -0.008,   -0.027,    0.095,   -0.046,    0.021,
       -0.056,    0.003,    0.142,    0.095,   -0.125,   -0.029,   -0.138,
       -0.152,   -0.001,   -2.990,    0.514,   -1.026,    6.037,    2.645,
        0.788,    0.871,   -6.445,   -2.085,   -2.249,    0.538,   -0.583,
       -1.005,   -0.519,   -7.633,   -0.822
    },
    {  -0.010,    0.136,   -0.013,   -0.106,   -0.076,    0.060,    0.033,
       -0.035,    0.009,    0.064,    0.107,   -0.007,    0.012,   -0.095,
        0.071,   -0.040,    0.074,   -0.104,    0.016,    0.014,    0.012,
       -0.078,   -0.033,   -0.017,    0.052,    0.102,   -0.004,    0.042,
       -0.172,   -0.022,   -2.591,    0.462,   -0.901,    6.445,    2.762,
        0.416,    0.857,   -6.369,   -1.810,   -2.017,    1.338,   -1.202,
       -0.318,   -1.206,   -8.183,   -1.262
    },
    {   0.003,    0.012,    0.121,   -0.045,   -0.004,    0.081,   -0.007,
        0.090,    0.045,   -0.004,   -0.138,    0.006,   -0.059,   -0.003,
       -0.031,   -0.006,    0.088,    0.045,    0.043,   -0.006,    0.033,
       -0.025,    0.101,   -0.017,    0.030,   -0.054,   -0.029,   -0.029,
        0.165,    0.026,   -3.051,   -0.573,   -0.397,    5.783,    3.017,
        0.651,    0.487,   -5.668,   -2.463,   -2.187,    1.323,   -2.039,
       -0.180,   -1.334,   -7.781,   -1.279
    },
    {   0.091,   -0.026,    0.056,   -0.072,    0.068,    0.010,    0.025,
       -0.101,    0.014,   -0.014,   -0.065,   -0.089,   -0.029,   -0.170,
        0.075,    0.045,   -0.010,   -0.011,   -0.044,   -0.073,    0.042,
        0.026,    0.103,    0.027,    0.078,    0.030,    0.045,   -0.070,
        0.028,   -0.051,   -2.892,    0.137,   -0.292,    5.631,    2.218,
        0.563,    0.573,   -5.507,   -2.036,   -2.240,    0.729,   -1.954,
       -0.198,   -0.964,   -7.728,   -1.293
    },
    {  -0.021,   -0.013,   -0.027,   -0.055,    0.060,    0.033,   -0.028,
        0.048,   -0.050,    0.097,    0.010,   -0.155,    0.038,   -0.134,
       -0.004,   -0.065,   -0.080,   -0.025,    0.035,    0.009,    0.177,
       -0.068,    0.005,   -0.168,    0.055,   -0.217,    0.019,    0.028,
       -0.138,    0.065,   -3.000,   -0.217,   -0.370,    6.000,    3.240,
        0.956,    0.659,   -5.282,   -1.373,   -1.908,    0.677,   -1.702,
       -0.134,   -0.717,   -7.681,   -1.357
    },
    {  -0.107,   -0.021,   -0.039,    0.027,    0.023,   -0.114,   -0.093,
       -0.102,   -0.063,    0.029,    0.043,   -0.092,    0.060,   -0.054,
        0.079,   -0.026,   -0.126,   -0.264,   -0.083,   -0.028,    0.166,
       -0.211,   -0.002,   -0.065,    0.049,   -0.229,   -0.037,   -0.149,
       -0.047,    0.001,   -2.593,    0.571,    0.278,    5.887,    3.549,
        1.324,    0.695,   -5.601,   -1.551,   -1.890,    0.741,   -1.457,
       -0.042,   -0.397,   -7.477,   -1.549
    },
    {   0.127,    0.036,   -0.210,    0.021,   -0.003,   -0.053,   -0.245,
       -0.217,   -0.082,    0.157,    0.071,   -0.080,    0.079,   -0.029,
        0.115,   -0.176,   -0.010,   -0.247,   -0.020,   -0.067,    0.147,
       -0.106,   -0.141,    0.025,    0.038,   -0.162,   -0.152,   -0.139,
       -0.095,   -0.019,   -2.656,    0.472,   -0.066,    5.516,    3.980,
        1.129,    1.678,   -5.781,   -0.745,   -2.040,    0.614,   -1.233,
        0.506,   -0.926,   -7.847,   -1.512
    },
    {  -0.093,    0.068,   -0.384,   -0.031,   -0.183,   -0.013,   -0.107,
       -0.136,    0.028,    0.042,    0.169,   -0.052,    0.043,    0.023,
       -0.026,   -0.157,   -0.012,   -0.025,   -0.077,   -0.031,    0.079,
       -0.085,   -0.182,    0.091,   -0.039,   -0.010,   -0.091,   -0.154,
       -0.122,   -0.064,   -2.802,    0.722,   -0.873,    5.038,    3.199,
        0.702,    1.781,   -5.234,   -0.332,   -2.500,    0.188,   -2.008,
        1.198,   -1.192,   -7.874,   -1.916
    },
    {  -0.177,    0.037,   -0.117,    0.041,   -0.170,    0.028,   -0.029,
       -0.128,   -0.026,   -0.136,    0.169,    0.005,   -0.062,   -0.126,
       -0.056,   -0.057,    0.055,   -0.012,    0.003,   -0.056,   -0.085,
       -0.003,    0.045,   -0.051,   -0.093,   -0.045,    0.032,   -0.087,
       -0.138,   -0.011,   -2.814,    1.310,   -0.328,    5.242,    3.776,
        0.514,    1.999,   -5.340,   -0.546,   -2.975,    0.281,   -2.319,
        0.990,   -1.034,   -7.717,   -2.228
    },
    {  -0.088,   -0.153,   -0.102,   -0.116,   -0.140,    0.052,    0.091,
       -0.016,   -0.202,   -0.189,    0.015,    0.089,    0.008,   -0.149,
        0.014,   -0.006,    0.110,    0.058,    0.025,   -0.051,    0.048,
       -0.003,    0.128,   -0.259,    0.088,   -0.086,   -0.015,   -0.046,
       -0.011,   -0.083,   -2.388,    0.767,   -0.284,    5.474,    3.649,
        0.370,    1.882,   -5.672,   -0.490,   -2.964,    0.322,   -2.575,
        1.504,   -1.214,   -7.781,   -2.280
    }
  };


  double netfun(std::vector<double>& in, const double* w)
  {
    double x00 = in[0];
    double x;

    //Layer 1, Node 0
    x = w[0];
    x = x + w[1] * x00;
    double x10 = tanh(x);

    //Layer 1, Node 1
    x = w[2];
    x = x + w[3] * x00;
    double x11 = tanh(x);

    //Layer 1, Node 2
    x = w[4];
    x = x + w[5] * x00;
    double x12 = tanh(x);

    //Layer 1, Node 3
    x = w[6];
    x = x + w[7] * x00;
    double x13 = tanh(x);

    //Layer 1, Node 4
    x = w[8];
    x = x + w[9] * x00;
    double x14 = tanh(x);

    //Layer 1, Node 5
    x = w[10];
    x = x + w[11] * x00;
    double x15 = tanh(x);

    //Layer 1, Node 6
    x = w[12];
    x = x + w[13] * x00;
    double x16 = tanh(x);

    //Layer 1, Node 7
    x = w[14];
    x = x + w[15] * x00;
    double x17 = tanh(x);

    //Layer 1, Node 8
    x = w[16];
    x = x + w[17] * x00;
    double x18 = tanh(x);

    //Layer 1, Node 9
    x = w[18];
    x = x + w[19] * x00;
    double x19 = tanh(x);

    //Layer 1, Node 10
    x = w[20];
    x = x + w[21] * x00;
    double x110 = tanh(x);

    //Layer 1, Node 11
    x = w[22];
    x = x + w[23] * x00;
    double x111 = tanh(x);

    //Layer 1, Node 12
    x = w[24];
    x = x + w[25] * x00;
    double x112 = tanh(x);

    //Layer 1, Node 13
    x = w[26];
    x = x + w[27] * x00;
    double x113 = tanh(x);

    //Layer 1, Node 14
    x = w[28];
    x = x + w[29] * x00;
    double x114 = tanh(x);

    //Layer 2, Node 0
    x = w[30];
    x = x + w[31] * x10;
    x = x + w[32] * x11;
    x = x + w[33] * x12;
    x = x + w[34] * x13;
    x = x + w[35] * x14;
    x = x + w[36] * x15;
    x = x + w[37] * x16;
    x = x + w[38] * x17;
    x = x + w[39] * x18;
    x = x + w[40] * x19;
    x = x + w[41] * x110;
    x = x + w[42] * x111;
    x = x + w[43] * x112;
    x = x + w[44] * x113;
    x = x + w[45] * x114;
    double x20 = 1.0/(1.0+exp(-x));
    return x20;
  }
}; // End anonymous namespace

//-----------------------------------------------------------------------------
// Compute average over networks. Default is to use all networks
//-----------------------------------------------------------------------------

double HT300_MHT80_v1_HT300_v6_166979_170064_sel1(std::vector<double>& inputvars,
                                                  int first=0,
                                                  int last=nnetworks-1)
{
  if ( first < 0 ) first = 0;
  if ( last  < 0 ) last  = nnetworks-1;
  if ( last  > nnetworks-1 ) last = nnetworks-1;
  if ( first > last )
    {
      std::cerr << "** HT300_MHT80_v1_HT300_v6_166979_170064_sel1 ** first-index > last-index"
                << std::endl; exit(3);
    }

  // Compute average over networks
  std::vector<double> in(ninputs);
  in[0] = (inputvars[0] - mean[0]) / sigma[0];

  int   n = last - first + 1;
  double x = 0.0;
  for(int i=first; i <= last; i++) x += netfun(in, weight[i]);
  return x / n;
}

extern "C" double HT300_MHT80_v1_HT300_v6_166979_170064_sel1_dl(std::vector<double>& in,
                                                                int first=0,
                                                                int last=nnetworks-1)
{
  return HT300_MHT80_v1_HT300_v6_166979_170064_sel1(in, first, last);
}

extern "C" double HT300_MHT80_v1_HT300_v6_166979_170064_sel1_dl2(double* in,
                                                                 int first=0,
                                                                 int last=nnetworks-1)
{
  std::vector<double> invec;

  invec.push_back(in[0]);

  return HT300_MHT80_v1_HT300_v6_166979_170064_sel1(invec, first, last);
}
