//-----------------------------------------------------------------------------
// Network: HT300_MHT90_v2_HT300_v9_173212_176544_sel2
// Inputs:
//                                                  Offset       Scale
//    offlinevar                                 2.506e+01   1.629e+01
//
// Created: Wed Dec 21 19:43:40 2011
//-----------------------------------------------------------------------------
#include <cmath>
#include <vector>
#include <iostream>
#include <stdlib.h>
//-----------------------------------------------------------------------------
// Make following visible only to this programming unit
namespace {
  // NOTE: Network indices start at 0
  static const int nnetworks=100;
  static const int ninputs  =1;
  static const int nhidden  =15;
  static const int nparams  =46;

  static const double mean[ninputs]={
  2.50600e+01
  };

  static const double sigma[ninputs]={
  1.62900e+01
  };

  static const double weight[nnetworks][nparams]={
    {  -0.106,    0.153,    1.287,    0.009,   -0.361,    0.007,   -1.676,
       -0.070,   -0.672,   -0.011,    3.411,   -0.055,   -0.090,   -0.020,
        0.019,    0.052,   -3.026,    0.075,   -2.732,    0.073,    1.303,
       -0.216,   -0.272,    0.009,   -1.543,    0.026,    2.064,    0.103,
        1.087,    0.006,   -7.921,    0.782,   -5.254,    8.589,   -4.003,
       -6.212,   -0.710,   -7.676,    0.150,   -3.640,   -1.277,   -2.505,
        3.695,    1.643,    4.225,   -0.010
    },
    {  -0.103,    0.075,    1.367,    0.105,   -0.365,    0.038,   -1.655,
       -0.089,   -0.740,   -0.006,    3.335,   -0.065,   -0.148,    0.011,
        0.008,    0.065,   -3.142,    0.174,   -2.719,    0.107,    1.222,
       -0.239,   -0.271,    0.024,   -1.634,    0.020,    1.908,    0.133,
        1.128,    0.004,   -8.274,    0.682,   -5.464,    7.885,   -3.944,
       -6.331,   -0.644,   -8.280,    0.447,   -3.701,   -1.221,   -2.556,
        3.993,    1.780,    4.302,   -0.221
    },
    {  -0.206,    0.051,    1.334,    0.009,   -0.324,    0.106,   -1.669,
       -0.081,   -0.709,   -0.114,    3.362,   -0.074,   -0.068,    0.131,
        0.010,    0.062,   -3.187,    0.152,   -2.666,   -0.017,    1.238,
       -0.212,   -0.291,    0.050,   -1.575,   -0.010,    1.857,    0.140,
        1.202,    0.118,   -8.030,    0.541,   -5.805,    7.654,   -4.550,
       -6.185,   -0.646,   -8.341,    0.787,   -3.855,   -0.795,   -2.619,
        4.206,    1.544,    4.469,   -0.269
    },
    {  -0.299,    0.066,    1.285,    0.008,   -0.400,    0.088,   -1.662,
       -0.231,   -0.789,   -0.089,    3.312,   -0.047,    0.027,    0.040,
       -0.002,   -0.022,   -3.041,    0.037,   -2.731,   -0.110,    1.159,
       -0.195,   -0.256,   -0.042,   -1.650,    0.009,    1.930,    0.116,
        1.173,   -0.003,   -7.894,    0.928,   -5.452,    7.779,   -4.807,
       -6.202,   -0.684,   -8.812,    1.159,   -3.693,   -0.878,   -2.317,
        4.463,    1.446,    4.319,    0.085
    },
    {  -0.290,    0.084,    1.309,   -0.005,   -0.371,    0.093,   -1.517,
       -0.225,   -0.832,   -0.061,    3.178,    0.026,    0.005,    0.038,
        0.021,   -0.119,   -3.142,    0.051,   -2.702,   -0.218,    1.150,
       -0.156,   -0.348,   -0.054,   -1.650,   -0.066,    1.843,    0.065,
        1.162,    0.012,   -8.071,    0.896,   -5.647,    8.261,   -4.341,
       -6.036,   -0.220,   -8.453,    1.486,   -3.935,   -1.386,   -2.548,
        3.571,    1.910,    4.656,   -0.085
    },
    {  -0.472,   -0.064,    1.317,   -0.041,   -0.295,    0.007,   -1.391,
       -0.092,   -0.770,   -0.045,    3.284,    0.038,   -0.025,   -0.026,
       -0.048,   -0.050,   -3.066,   -0.078,   -2.621,   -0.098,    1.156,
       -0.173,   -0.304,    0.009,   -1.721,    0.020,    2.105,    0.034,
        1.314,   -0.027,   -7.248,    1.275,   -5.566,    8.114,   -4.505,
       -6.105,   -0.306,   -8.361,    0.803,   -4.049,   -1.096,   -2.443,
        3.900,    1.466,    3.689,   -0.835
    },
    {  -0.559,   -0.147,    1.348,   -0.019,   -0.272,    0.015,   -1.419,
       -0.061,   -0.771,   -0.112,    3.187,   -0.056,    0.006,   -0.008,
       -0.048,    0.007,   -3.069,   -0.056,   -2.497,   -0.160,    1.084,
       -0.206,   -0.412,   -0.044,   -1.703,    0.167,    2.191,    0.021,
        1.282,   -0.061,   -7.528,    1.427,   -5.746,    8.346,   -4.693,
       -6.456,   -0.045,   -8.401,    1.045,   -4.003,   -1.289,   -2.207,
        3.850,    1.716,    3.595,   -0.566
    },
    {  -0.491,   -0.076,    1.371,    0.057,   -0.318,    0.002,   -1.438,
       -0.065,   -0.755,   -0.092,    3.186,    0.107,    0.029,   -0.044,
       -0.104,    0.045,   -3.083,   -0.029,   -2.422,   -0.074,    1.059,
       -0.168,   -0.415,   -0.057,   -1.694,    0.164,    2.267,   -0.052,
        1.301,   -0.106,   -7.355,    1.385,   -5.545,    8.286,   -4.881,
       -6.333,   -0.017,   -8.114,    0.733,   -4.080,   -1.136,   -2.300,
        3.804,    1.625,    3.743,   -0.444
    },
    {  -0.478,   -0.206,    1.452,    0.056,   -0.339,   -0.008,   -1.452,
       -0.111,   -0.728,   -0.019,    3.181,    0.029,    0.237,   -0.100,
       -0.142,    0.030,   -3.044,   -0.159,   -2.453,    0.072,    1.149,
       -0.071,   -0.435,    0.009,   -1.625,   -0.016,    2.500,    0.041,
        1.369,   -0.012,   -7.262,    1.692,   -5.285,    7.999,   -5.259,
       -6.556,   -0.453,   -8.409,    0.256,   -4.329,   -1.448,   -1.911,
        3.752,    1.128,    3.725,   -0.043
    },
    {  -0.594,   -0.020,    1.374,   -0.114,   -0.216,    0.135,   -1.441,
        0.034,   -0.714,    0.087,    3.134,   -0.036,    0.421,    0.085,
       -0.136,    0.040,   -2.932,   -0.055,   -2.558,    0.069,    1.187,
        0.087,   -0.437,    0.148,   -1.568,   -0.167,    2.627,    0.082,
        1.365,    0.035,   -7.398,    1.384,   -5.352,    8.277,   -5.191,
       -7.113,   -0.693,   -8.369,    0.232,   -4.603,   -2.033,   -1.881,
        3.897,    1.101,    3.640,   -0.095
    },
    {  -0.632,   -0.080,    1.334,   -0.082,   -0.136,    0.092,   -1.474,
       -0.036,   -0.729,    0.035,    3.116,    0.006,    0.524,    0.045,
       -0.092,   -0.010,   -2.932,   -0.135,   -2.521,    0.086,    1.153,
        0.056,   -0.319,    0.119,   -1.647,   -0.210,    2.586,    0.098,
        1.423,    0.026,   -7.394,    0.710,   -5.645,    8.056,   -5.220,
       -7.061,   -0.638,   -8.492,    0.331,   -4.597,   -2.354,   -2.664,
        3.794,    1.262,    3.567,   -0.361
    },
    {  -0.597,   -0.076,    1.389,   -0.094,   -0.150,    0.088,   -1.374,
       -0.045,   -0.804,    0.036,    3.106,    0.015,    0.506,    0.001,
       -0.097,   -0.083,   -2.958,   -0.120,   -2.471,    0.045,    1.160,
        0.058,   -0.308,    0.005,   -1.619,   -0.169,    2.582,    0.035,
        1.329,   -0.003,   -7.529,    1.008,   -5.793,    8.070,   -4.895,
       -6.837,   -0.991,   -8.291,    0.502,   -4.931,   -2.719,   -2.309,
        3.811,    1.053,    3.293,   -0.206
    },
    {  -0.478,   -0.218,    1.408,    0.038,   -0.074,    0.084,   -1.420,
       -0.051,   -0.844,    0.083,    3.132,   -0.005,    0.625,   -0.059,
       -0.089,   -0.082,   -2.902,   -0.100,   -2.532,    0.177,    1.152,
        0.009,   -0.244,    0.053,   -1.676,   -0.083,    2.611,    0.086,
        1.338,   -0.019,   -7.365,    1.124,   -5.842,    8.200,   -5.120,
       -6.343,   -1.161,   -8.409,    0.677,   -4.836,   -2.985,   -2.442,
        3.492,    1.170,    3.100,    0.011
    },
    {  -0.555,    0.011,    1.453,    0.090,   -0.141,    0.047,   -1.492,
        0.015,   -0.878,   -0.089,    3.185,   -0.024,    0.618,    0.012,
       -0.102,   -0.156,   -2.951,   -0.119,   -2.534,    0.136,    1.151,
       -0.090,   -0.278,    0.084,   -1.681,    0.072,    2.576,    0.055,
        1.422,   -0.130,   -7.348,    1.012,   -5.090,    7.941,   -5.061,
       -6.419,   -0.960,   -8.351,    0.403,   -4.372,   -2.676,   -2.422,
        3.178,    0.753,    2.837,   -0.043
    },
    {  -0.635,    0.085,    1.564,    0.031,   -0.031,   -0.034,   -1.489,
        0.035,   -0.823,   -0.008,    3.113,   -0.043,    0.642,   -0.079,
       -0.195,   -0.055,   -3.062,   -0.127,   -2.567,    0.112,    1.003,
       -0.074,   -0.373,    0.120,   -1.664,   -0.029,    2.652,    0.095,
        1.519,   -0.007,   -7.742,    0.980,   -5.134,    8.166,   -5.516,
       -6.669,   -0.926,   -8.242,    0.642,   -4.292,   -2.471,   -2.395,
        3.574,    0.857,    3.041,   -0.192
    },
    {  -0.586,   -0.096,    1.513,    0.104,   -0.039,   -0.013,   -1.566,
        0.022,   -0.807,   -0.119,    2.974,   -0.005,    0.780,   -0.061,
       -0.191,   -0.138,   -2.952,   -0.002,   -2.615,    0.086,    1.088,
       -0.104,   -0.368,    0.087,   -1.749,    0.060,    2.530,    0.047,
        1.456,   -0.052,   -7.534,    1.055,   -5.465,    7.955,   -5.646,
       -6.750,   -1.247,   -7.856,    0.392,   -4.541,   -2.750,   -2.098,
        3.081,    1.193,    3.099,   -0.042
    },
    {  -0.589,   -0.053,    1.477,    0.029,    0.000,    0.066,   -1.472,
        0.011,   -0.777,   -0.038,    2.939,   -0.071,    0.777,    0.020,
       -0.102,   -0.176,   -2.930,   -0.158,   -2.749,   -0.018,    1.032,
       -0.148,   -0.304,    0.044,   -1.633,   -0.014,    2.596,    0.092,
        1.501,   -0.042,   -7.655,    1.206,   -4.978,    7.828,   -5.289,
       -6.624,   -0.859,   -7.971,    0.570,   -4.579,   -2.360,   -2.431,
        3.134,    1.120,    3.280,   -0.241
    },
    {  -0.510,    0.033,    1.556,   -0.025,    0.012,    0.080,   -1.521,
       -0.061,   -0.782,    0.031,    2.895,   -0.114,    0.854,    0.081,
       -0.173,   -0.092,   -2.807,   -0.062,   -2.768,   -0.074,    1.048,
       -0.156,   -0.246,    0.079,   -1.694,    0.020,    2.537,   -0.053,
        1.531,   -0.081,   -7.286,    0.966,   -4.913,    7.620,   -5.232,
       -6.797,   -0.792,   -8.108,    0.109,   -4.144,   -2.000,   -2.290,
        2.928,    1.147,    3.265,   -0.138
    },
    {  -0.572,   -0.080,    1.496,   -0.067,    0.005,    0.069,   -1.524,
       -0.081,   -0.788,    0.026,    3.002,    0.045,    0.849,    0.081,
       -0.124,   -0.155,   -2.914,   -0.125,   -2.601,    0.009,    0.996,
       -0.098,   -0.305,    0.150,   -1.769,   -0.027,    2.541,    0.023,
        1.622,   -0.086,   -7.212,    0.894,   -5.155,    8.130,   -5.108,
       -6.805,   -0.563,   -8.087,    0.251,   -3.902,   -1.886,   -2.487,
        2.925,    0.542,    3.219,   -0.140
    },
    {  -0.599,    0.004,    1.392,    0.030,   -0.065,    0.042,   -1.483,
        0.017,   -0.822,   -0.012,    3.006,   -0.026,    0.916,   -0.043,
       -0.043,   -0.079,   -2.884,    0.022,   -2.506,   -0.033,    0.868,
        0.014,   -0.273,    0.068,   -1.821,    0.030,    2.590,    0.011,
        1.612,   -0.033,   -7.377,    0.752,   -5.501,    8.099,   -5.199,
       -6.415,   -0.317,   -7.805,   -0.024,   -3.908,   -2.462,   -2.107,
        3.505,    0.723,    3.154,   -0.162
    },
    {  -0.559,    0.042,    1.477,   -0.008,    0.038,    0.043,   -1.427,
        0.038,   -0.713,   -0.003,    3.051,    0.040,    0.889,   -0.099,
        0.081,   -0.004,   -2.881,    0.070,   -2.487,    0.059,    0.868,
        0.012,   -0.317,   -0.020,   -1.777,    0.029,    2.610,    0.030,
        1.633,    0.032,   -7.053,    0.782,   -5.768,    8.499,   -5.317,
       -6.565,   -0.437,   -7.787,   -0.137,   -4.243,   -2.950,   -2.245,
        3.533,    0.743,    2.868,   -0.970
    },
    {  -0.469,   -0.030,    1.375,   -0.029,    0.047,    0.035,   -1.398,
        0.003,   -0.615,    0.002,    2.968,    0.022,    0.820,    0.001,
        0.122,   -0.014,   -2.898,   -0.007,   -2.396,   -0.071,    0.797,
       -0.102,   -0.387,    0.063,   -1.693,    0.018,    2.787,   -0.025,
        1.474,   -0.061,   -7.691,    0.959,   -5.347,    8.363,   -5.441,
       -6.237,   -0.437,   -7.761,    0.301,   -4.655,   -2.924,   -2.416,
        3.914,    0.766,    3.052,   -0.734
    },
    {  -0.393,   -0.010,    1.386,   -0.042,    0.064,    0.044,   -1.521,
        0.022,   -0.672,   -0.006,    2.929,   -0.022,    0.914,    0.023,
        0.053,   -0.004,   -2.870,   -0.007,   -2.239,   -0.036,    0.824,
       -0.014,   -0.430,    0.089,   -1.527,    0.020,    2.678,   -0.029,
        1.356,    0.021,   -7.646,    1.339,   -5.010,    8.500,   -4.775,
       -6.526,   -0.302,   -7.774,    0.601,   -5.029,   -2.641,   -2.260,
        4.435,    0.467,    2.924,   -0.809
    },
    {  -0.474,    0.091,    1.384,   -0.061,    0.171,   -0.036,   -1.524,
        0.049,   -0.657,    0.015,    2.904,    0.058,    0.912,   -0.042,
        0.065,    0.121,   -2.822,   -0.019,   -2.402,   -0.007,    0.815,
       -0.001,   -0.450,    0.168,   -1.641,    0.044,    2.731,   -0.025,
        1.358,    0.011,   -7.240,    1.351,   -4.998,    7.767,   -4.636,
       -6.761,   -0.430,   -8.036,    0.699,   -4.975,   -2.537,   -2.682,
        4.360,    0.798,    3.004,   -0.909
    },
    {  -0.574,    0.063,    1.270,   -0.105,    0.167,    0.021,   -1.570,
        0.051,   -0.626,   -0.035,    2.877,    0.094,    0.832,    0.058,
        0.005,    0.016,   -2.919,    0.107,   -2.551,    0.008,    0.859,
        0.056,   -0.279,    0.100,   -1.569,    0.137,    2.822,    0.011,
        1.248,   -0.088,   -7.414,    1.471,   -5.168,    7.419,   -4.406,
       -6.805,   -0.524,   -8.109,    0.354,   -4.678,   -2.217,   -2.506,
        4.667,    0.356,    3.013,   -0.804
    },
    {  -0.616,    0.017,    1.200,   -0.068,    0.161,    0.049,   -1.718,
        0.035,   -0.690,   -0.024,    2.878,    0.027,    0.938,    0.048,
       -0.015,    0.029,   -2.979,    0.023,   -2.526,    0.029,    0.873,
       -0.008,   -0.225,    0.061,   -1.610,    0.057,    2.856,   -0.056,
        1.231,   -0.098,   -7.421,    1.170,   -5.298,    7.393,   -3.667,
       -6.919,   -0.651,   -8.119,    0.236,   -5.377,   -2.291,   -2.747,
        4.678,    0.075,    2.778,   -0.943
    },
    {  -0.707,   -0.030,    1.193,   -0.072,    0.192,    0.026,   -1.761,
       -0.042,   -0.680,   -0.053,    2.770,    0.036,    0.904,    0.079,
       -0.171,   -0.095,   -2.927,    0.040,   -2.588,   -0.059,    0.972,
       -0.054,   -0.139,    0.095,   -1.674,    0.069,    2.999,   -0.098,
        1.371,   -0.065,   -7.149,    1.395,   -5.552,    7.484,   -3.683,
       -6.946,   -0.658,   -8.436,    0.497,   -5.652,   -2.443,   -3.118,
        4.390,    0.537,    2.560,   -0.631
    },
    {  -0.649,   -0.012,    1.190,   -0.074,    0.120,    0.022,   -1.808,
       -0.094,   -0.717,   -0.024,    2.620,    0.034,    0.919,   -0.019,
       -0.170,    0.002,   -2.866,    0.085,   -2.548,    0.012,    0.924,
       -0.040,   -0.195,    0.039,   -1.640,   -0.001,    3.042,   -0.043,
        1.433,   -0.029,   -7.068,    1.857,   -5.957,    7.663,   -4.064,
       -6.822,   -0.460,   -8.451,    0.639,   -5.504,   -2.229,   -2.921,
        4.341,    0.731,    3.059,   -0.089
    },
    {  -0.887,    0.008,    1.217,   -0.002,    0.125,    0.041,   -1.586,
        0.009,   -0.815,   -0.017,    2.878,   -0.020,    0.865,   -0.031,
       -0.090,   -0.022,   -3.026,   -0.036,   -2.770,    0.057,    0.991,
        0.002,   -0.217,    0.058,   -1.411,    0.016,    2.872,    0.090,
        1.462,   -0.125,   -6.532,    2.010,   -5.868,    7.955,   -3.894,
       -6.839,   -0.373,   -8.587,    0.522,   -5.481,   -2.231,   -2.454,
        4.150,    0.708,    2.427,   -0.467
    },
    {  -0.858,    0.006,    1.170,    0.004,    0.123,    0.018,   -1.709,
        0.031,   -0.776,   -0.032,    2.932,   -0.005,    0.775,   -0.064,
        0.084,   -0.020,   -2.912,   -0.029,   -2.806,    0.008,    1.051,
        0.033,   -0.146,    0.046,   -1.438,   -0.042,    2.743,    0.031,
        1.428,    0.026,   -6.613,    2.064,   -5.729,    8.052,   -3.642,
       -6.581,   -0.415,   -8.629,    0.738,   -5.542,   -2.243,   -2.580,
        4.030,    1.402,    2.696,   -0.201
    },
    {  -0.966,    0.013,    1.185,   -0.047,    0.227,    0.006,   -1.636,
       -0.014,   -0.763,   -0.055,    2.840,   -0.023,    0.813,   -0.047,
        0.074,    0.037,   -3.000,   -0.075,   -2.903,    0.052,    1.000,
        0.014,   -0.182,    0.029,   -1.381,   -0.015,    2.751,    0.031,
        1.516,   -0.005,   -6.852,    1.806,   -5.443,    7.582,   -3.688,
       -6.492,   -0.595,   -8.549,    0.735,   -5.561,   -2.274,   -2.522,
        4.478,    1.015,    2.375,   -0.668
    },
    {  -0.898,    0.046,    0.996,   -0.073,    0.102,    0.066,   -1.475,
       -0.022,   -0.675,    0.078,    2.877,   -0.015,    0.966,   -0.075,
        0.126,    0.131,   -3.136,   -0.052,   -2.864,   -0.010,    1.130,
        0.019,   -0.131,   -0.018,   -1.269,    0.104,    2.724,   -0.039,
        1.502,   -0.003,   -6.298,    1.426,   -5.130,    7.943,   -3.263,
       -6.943,   -0.540,   -8.432,    0.755,   -5.171,   -2.448,   -2.270,
        4.435,    0.783,    2.377,   -0.519
    },
    {  -0.790,    0.030,    1.010,   -0.115,    0.111,    0.029,   -1.520,
        0.071,   -0.637,   -0.016,    2.896,    0.110,    0.900,   -0.019,
        0.114,    0.100,   -3.038,   -0.137,   -2.907,   -0.054,    1.132,
       -0.060,   -0.253,   -0.036,   -1.189,    0.067,    2.698,    0.115,
        1.587,    0.018,   -6.083,    1.306,   -5.202,    7.968,   -3.256,
       -7.090,   -0.830,   -8.402,    0.833,   -5.735,   -2.276,   -2.834,
        4.374,    0.712,    2.386,   -0.310
    },
    {  -0.694,   -0.006,    0.983,   -0.086,    0.073,    0.038,   -1.440,
        0.017,   -0.722,   -0.030,    2.871,    0.191,    0.939,    0.079,
        0.183,    0.039,   -3.039,   -0.042,   -2.899,   -0.069,    1.041,
       -0.105,   -0.294,    0.035,   -0.993,   -0.006,    2.661,   -0.024,
        1.638,    0.086,   -6.391,    1.750,   -5.208,    8.569,   -3.300,
       -7.179,   -0.603,   -8.936,    1.116,   -5.813,   -2.247,   -2.605,
        3.913,    0.737,    2.426,   -0.161
    },
    {  -0.710,    0.058,    1.012,   -0.026,    0.055,    0.044,   -1.490,
        0.019,   -0.843,   -0.008,    2.939,    0.043,    0.885,   -0.017,
        0.167,    0.007,   -3.121,    0.039,   -2.729,    0.026,    1.096,
        0.025,   -0.356,    0.052,   -0.951,   -0.021,    2.605,   -0.045,
        1.618,    0.077,   -6.517,    1.288,   -5.382,    8.308,   -3.470,
       -7.153,   -0.232,   -8.804,    1.421,   -5.605,   -2.186,   -2.629,
        3.919,    0.700,    1.968,   -0.437
    },
    {  -0.738,    0.092,    1.095,   -0.032,    0.041,    0.030,   -1.489,
        0.083,   -0.828,   -0.013,    3.070,    0.004,    0.879,   -0.050,
        0.132,   -0.021,   -3.080,    0.052,   -2.733,    0.069,    1.111,
        0.001,   -0.224,    0.008,   -1.043,    0.084,    2.653,    0.008,
        1.649,    0.072,   -6.050,    1.724,   -5.879,    8.711,   -3.357,
       -6.877,   -0.373,   -8.618,    1.587,   -5.534,   -2.513,   -2.566,
        3.768,    0.642,    2.182,   -0.512
    },
    {  -0.671,   -0.020,    1.015,   -0.076,    0.133,    0.029,   -1.561,
        0.030,   -0.698,   -0.034,    3.096,    0.009,    0.740,   -0.052,
       -0.116,   -0.032,   -2.862,   -0.028,   -2.737,    0.017,    1.056,
        0.017,   -0.328,   -0.034,   -0.986,    0.107,    2.611,    0.031,
        1.670,   -0.007,   -6.012,    1.537,   -5.917,    9.037,   -3.589,
       -6.672,   -0.635,   -8.938,    1.979,   -5.375,   -2.439,   -2.764,
        3.898,    0.279,    2.451,   -0.942
    },
    {  -0.715,    0.033,    1.145,   -0.040,    0.092,    0.051,   -1.658,
        0.008,   -0.741,   -0.017,    3.142,   -0.061,    0.631,   -0.029,
       -0.132,   -0.049,   -2.885,    0.038,   -2.795,    0.078,    1.142,
        0.022,   -0.488,    0.006,   -1.082,    0.085,    2.671,    0.101,
        1.814,    0.015,   -5.881,    1.139,   -5.625,    8.988,   -3.866,
       -7.434,   -0.602,   -8.769,    1.775,   -4.815,   -2.318,   -2.799,
        4.156,    0.287,    2.340,   -1.066
    },
    {  -0.661,   -0.069,    0.959,   -0.051,    0.056,    0.048,   -1.559,
        0.054,   -0.721,    0.012,    3.036,    0.018,    0.855,   -0.033,
       -0.164,    0.048,   -2.962,    0.049,   -2.831,   -0.008,    1.131,
        0.042,   -0.333,    0.014,   -1.023,    0.031,    2.576,    0.037,
        1.759,    0.068,   -5.910,    1.347,   -5.575,    8.977,   -3.949,
       -7.510,   -0.820,   -8.671,    1.881,   -5.383,   -2.078,   -2.765,
        4.328,    0.192,    2.705,   -0.897
    },
    {  -0.636,   -0.012,    0.973,   -0.096,    0.119,    0.004,   -1.465,
        0.091,   -0.610,    0.042,    3.138,   -0.037,    0.861,   -0.030,
       -0.118,    0.072,   -2.932,    0.001,   -2.795,   -0.065,    1.121,
       -0.031,   -0.258,    0.109,   -0.948,    0.048,    2.563,   -0.027,
        1.725,    0.110,   -5.916,    1.407,   -5.325,    8.925,   -4.111,
       -7.476,   -0.999,   -8.266,    1.686,   -5.203,   -2.131,   -2.594,
        4.130,    0.617,    2.624,   -1.322
    },
    {  -0.570,   -0.052,    1.071,   -0.053,    0.098,    0.017,   -1.311,
        0.005,   -0.615,   -0.008,    3.242,   -0.136,    0.889,   -0.077,
       -0.056,    0.064,   -3.003,    0.009,   -2.780,   -0.057,    1.136,
       -0.047,   -0.333,   -0.020,   -1.007,   -0.014,    2.591,    0.016,
        1.668,    0.035,   -5.967,    1.515,   -5.127,    8.829,   -3.891,
       -7.348,   -0.391,   -8.339,    1.394,   -5.471,   -2.207,   -2.046,
        4.609,    0.614,    2.331,   -1.139
    },
    {  -0.571,   -0.051,    1.020,   -0.003,    0.142,    0.007,   -1.410,
       -0.001,   -0.642,   -0.052,    3.253,   -0.014,    0.857,   -0.062,
       -0.020,    0.014,   -2.998,   -0.078,   -2.713,    0.026,    1.127,
       -0.015,   -0.262,    0.027,   -0.923,   -0.040,    2.506,    0.019,
        1.621,    0.033,   -5.713,    1.476,   -5.710,    8.917,   -3.627,
       -7.366,   -0.214,   -8.181,    1.309,   -5.500,   -1.572,   -2.038,
        4.671,    0.789,    2.290,   -1.505
    },
    {  -0.638,    0.011,    1.008,    0.012,    0.121,   -0.000,   -1.371,
       -0.012,   -0.581,   -0.052,    3.393,    0.011,    0.864,   -0.096,
       -0.050,    0.034,   -3.036,   -0.035,   -2.728,    0.091,    1.064,
        0.008,   -0.201,   -0.000,   -0.862,   -0.038,    2.449,   -0.033,
        1.680,    0.035,   -5.710,    1.544,   -5.746,    8.547,   -3.767,
       -6.940,    0.041,   -7.883,    1.288,   -5.812,   -1.641,   -2.449,
        4.732,    1.014,    2.189,   -1.309
    },
    {  -0.709,   -0.052,    0.979,   -0.068,    0.038,    0.015,   -1.397,
       -0.062,   -0.687,   -0.047,    3.336,    0.032,    0.777,   -0.049,
       -0.034,   -0.013,   -3.134,    0.002,   -2.767,    0.078,    1.151,
       -0.002,   -0.230,    0.000,   -0.870,   -0.041,    2.529,    0.045,
        1.701,    0.005,   -5.386,    1.663,   -6.105,    8.322,   -3.930,
       -7.033,   -0.008,   -8.017,    0.823,   -5.553,   -1.787,   -2.638,
        4.388,    1.066,    2.211,   -1.224
    },
    {  -0.578,    0.042,    1.004,   -0.020,    0.048,    0.005,   -1.383,
       -0.049,   -0.646,   -0.060,    3.139,    0.005,    0.831,   -0.075,
       -0.206,    0.023,   -3.113,    0.027,   -2.764,    0.034,    1.050,
        0.054,   -0.292,   -0.001,   -0.828,   -0.038,    2.497,    0.052,
        1.550,    0.045,   -5.518,    1.495,   -5.846,    8.576,   -3.943,
       -7.525,   -0.599,   -7.753,    0.867,   -5.578,   -2.105,   -2.550,
        4.677,    1.266,    2.485,   -1.190
    },
    {  -0.582,    0.026,    1.205,   -0.066,    0.113,    0.032,   -1.307,
       -0.053,   -0.566,   -0.018,    3.186,    0.003,    0.906,   -0.028,
       -0.217,    0.071,   -3.174,   -0.018,   -2.673,   -0.041,    1.140,
       -0.002,   -0.324,   -0.007,   -1.022,   -0.018,    2.644,    0.058,
        1.716,   -0.008,   -5.323,    1.443,   -5.941,    8.526,   -4.647,
       -7.337,    0.114,   -7.992,    0.735,   -5.248,   -1.822,   -2.374,
        4.188,    0.788,    2.352,   -1.349
    },
    {  -0.540,    0.070,    1.201,   -0.018,    0.159,    0.029,   -1.260,
       -0.015,   -0.528,   -0.027,    3.245,   -0.018,    0.880,   -0.025,
       -0.287,    0.018,   -3.128,   -0.051,   -2.646,   -0.003,    1.154,
       -0.062,   -0.344,    0.010,   -0.974,    0.021,    2.574,    0.015,
        1.659,   -0.002,   -5.188,    0.804,   -6.118,    8.897,   -4.446,
       -6.833,    0.285,   -7.653,    0.655,   -5.301,   -1.727,   -2.220,
        3.976,    0.901,    2.220,   -1.723
    },
    {  -0.605,   -0.026,    1.228,   -0.022,    0.117,    0.033,   -1.215,
       -0.016,   -0.620,    0.015,    3.159,    0.014,    0.788,   -0.033,
       -0.230,    0.024,   -3.088,   -0.027,   -2.709,   -0.015,    1.167,
        0.013,   -0.416,    0.066,   -0.837,   -0.036,    2.524,    0.040,
        1.570,   -0.008,   -5.203,    0.822,   -6.233,    9.219,   -4.312,
       -6.838,   -0.151,   -7.653,    0.173,   -5.235,   -1.770,   -2.047,
        4.349,    0.956,    2.324,   -1.419
    },
    {  -0.598,    0.004,    1.085,   -0.015,    0.062,    0.021,   -1.189,
       -0.007,   -0.651,   -0.009,    3.153,   -0.014,    0.711,   -0.054,
       -0.318,   -0.019,   -3.099,    0.057,   -2.811,   -0.019,    1.094,
       -0.022,   -0.291,    0.026,   -0.868,    0.039,    2.550,    0.006,
        1.721,    0.018,   -5.294,    1.179,   -6.029,    8.958,   -3.898,
       -6.949,   -0.166,   -8.199,    0.051,   -5.328,   -1.913,   -2.082,
        4.344,    0.709,    2.160,   -1.581
    },
    {  -0.552,   -0.079,    1.220,    0.068,    0.178,    0.022,   -1.169,
        0.038,   -0.637,   -0.064,    3.189,    0.009,    0.902,   -0.064,
       -0.232,    0.110,   -3.206,   -0.010,   -2.886,   -0.023,    1.104,
       -0.041,   -0.323,    0.045,   -0.989,   -0.037,    2.452,    0.021,
        1.643,   -0.030,   -5.240,    1.258,   -5.838,    8.628,   -3.925,
       -6.761,    0.221,   -7.905,    0.224,   -5.130,   -1.986,   -2.237,
        4.354,    0.857,    2.373,   -1.974
    },
    {  -0.483,    0.038,    1.263,   -0.035,    0.317,    0.022,   -1.121,
        0.065,   -0.641,    0.031,    3.118,    0.078,    1.028,   -0.063,
       -0.232,   -0.025,   -3.201,    0.085,   -2.868,    0.080,    1.044,
        0.037,   -0.309,    0.089,   -1.105,    0.055,    2.452,   -0.027,
        1.661,   -0.119,   -5.183,    1.356,   -5.883,    8.872,   -4.290,
       -6.780,    0.271,   -8.040,    0.598,   -5.279,   -1.795,   -2.810,
        4.227,    0.726,    2.129,   -2.218
    },
    {  -0.468,   -0.023,    1.308,   -0.073,    0.324,    0.010,   -1.088,
        0.074,   -0.611,    0.027,    3.129,    0.052,    1.006,   -0.080,
       -0.268,   -0.054,   -3.184,    0.103,   -2.875,    0.021,    1.072,
       -0.041,   -0.296,    0.103,   -1.063,    0.023,    2.471,   -0.007,
        1.692,   -0.092,   -4.693,    1.324,   -6.023,    8.556,   -4.162,
       -6.154,    0.399,   -8.432,    0.560,   -4.916,   -2.140,   -2.417,
        4.027,    0.917,    2.239,   -2.112
    },
    {  -0.588,    0.037,    1.315,   -0.076,    0.350,    0.026,   -1.185,
        0.028,   -0.636,   -0.010,    3.059,    0.060,    0.882,   -0.022,
       -0.294,    0.065,   -3.159,    0.015,   -2.892,    0.084,    1.093,
       -0.034,   -0.306,    0.048,   -1.030,   -0.002,    2.523,    0.021,
        1.637,   -0.081,   -4.682,    1.363,   -6.170,    8.684,   -3.999,
       -6.430,    0.596,   -8.565,    0.000,   -4.657,   -2.247,   -2.894,
        4.391,    0.988,    1.945,   -1.994
    },
    {  -0.631,   -0.033,    1.236,   -0.097,    0.323,   -0.023,   -1.325,
        0.112,   -0.718,   -0.052,    3.114,    0.048,    0.934,   -0.067,
       -0.272,    0.038,   -3.166,   -0.056,   -2.939,    0.036,    1.103,
       -0.113,   -0.338,    0.063,   -1.010,    0.000,    2.560,    0.002,
        1.733,   -0.019,   -4.794,    1.532,   -5.819,    9.001,   -4.160,
       -6.445,    0.253,   -8.620,   -0.250,   -4.343,   -2.362,   -3.133,
        3.755,    0.488,    1.431,   -1.701
    },
    {  -0.591,   -0.017,    1.245,    0.032,    0.262,    0.050,   -1.501,
        0.075,   -0.684,   -0.003,    3.160,    0.168,    1.066,   -0.089,
       -0.496,   -0.018,   -3.298,   -0.073,   -2.893,   -0.050,    1.126,
       -0.004,   -0.208,    0.029,   -1.043,   -0.094,    2.637,   -0.049,
        1.805,    0.094,   -4.730,    1.433,   -5.584,    8.915,   -3.979,
       -6.428,    0.276,   -8.605,   -0.118,   -4.378,   -2.599,   -3.367,
        4.027,    0.248,    1.641,   -1.698
    },
    {  -0.563,    0.005,    1.201,   -0.006,    0.371,    0.056,   -1.528,
        0.036,   -0.671,   -0.002,    3.201,    0.050,    0.943,   -0.093,
       -0.444,    0.003,   -3.360,   -0.095,   -2.860,   -0.068,    1.054,
        0.004,   -0.241,   -0.044,   -1.161,   -0.050,    2.597,   -0.013,
        1.850,   -0.031,   -4.791,    1.623,   -5.906,    9.066,   -3.729,
       -6.403,    0.258,   -8.912,   -0.248,   -4.085,   -2.635,   -2.996,
        4.012,    0.656,    1.199,   -1.541
    },
    {  -0.556,    0.014,    1.336,    0.031,    0.398,    0.015,   -1.429,
       -0.004,   -0.749,   -0.054,    3.199,   -0.032,    0.888,   -0.081,
       -0.372,    0.038,   -3.291,   -0.043,   -2.710,   -0.007,    1.082,
        0.011,   -0.378,    0.018,   -1.122,   -0.022,    2.657,   -0.011,
        1.873,    0.010,   -4.850,    1.436,   -5.648,    9.739,   -3.429,
       -5.597,    0.325,   -8.725,    0.136,   -4.241,   -2.588,   -2.861,
        4.080,    0.933,    1.278,   -1.301
    },
    {  -0.450,    0.070,    1.276,    0.023,    0.363,    0.020,   -1.469,
        0.029,   -0.739,    0.012,    3.228,    0.085,    0.966,   -0.101,
       -0.430,    0.031,   -3.285,    0.037,   -2.715,    0.060,    1.073,
       -0.100,   -0.212,   -0.004,   -1.173,   -0.086,    2.696,    0.006,
        1.934,   -0.013,   -4.756,    1.397,   -5.917,    9.091,   -3.019,
       -5.400,    0.605,   -8.346,    0.131,   -3.959,   -2.206,   -2.659,
        4.405,    0.457,    1.609,   -1.272
    },
    {  -0.376,    0.030,    1.256,   -0.082,    0.455,    0.058,   -1.280,
       -0.095,   -0.792,    0.059,    3.195,    0.065,    1.101,    0.058,
       -0.418,   -0.011,   -3.405,    0.071,   -2.825,   -0.070,    1.085,
       -0.115,   -0.227,    0.075,   -1.065,    0.047,    2.501,    0.060,
        1.853,   -0.018,   -4.687,    1.487,   -5.907,    9.311,   -3.107,
       -5.517,    0.701,   -9.021,    0.135,   -3.709,   -1.945,   -3.053,
        3.626,    0.223,    1.376,   -0.938
    },
    {  -0.338,    0.032,    1.288,   -0.130,    0.428,    0.026,   -1.257,
       -0.234,   -0.736,    0.045,    3.143,   -0.096,    1.126,    0.058,
       -0.267,   -0.027,   -3.341,   -0.047,   -2.768,    0.031,    1.135,
       -0.091,   -0.095,    0.056,   -0.979,    0.042,    2.533,    0.172,
        1.868,   -0.151,   -4.940,    1.949,   -6.531,    8.861,   -2.786,
       -5.702,    1.241,   -8.578,    0.453,   -3.702,   -1.900,   -2.513,
        3.197,   -0.046,    1.893,   -1.343
    },
    {  -0.339,    0.031,    1.381,   -0.099,    0.323,    0.066,   -1.244,
       -0.177,   -0.730,    0.097,    3.187,   -0.119,    1.120,    0.087,
       -0.347,   -0.018,   -3.417,   -0.032,   -2.694,   -0.077,    1.128,
       -0.189,   -0.131,    0.076,   -1.015,    0.075,    2.594,    0.077,
        2.106,   -0.049,   -4.359,    1.458,   -5.799,    8.953,   -2.780,
       -5.807,    1.349,   -8.611,    0.950,   -3.760,   -1.933,   -2.453,
        3.067,    0.414,    1.772,   -1.334
    },
    {  -0.428,    0.100,    1.347,   -0.075,    0.307,    0.051,   -1.291,
       -0.131,   -0.819,    0.024,    3.146,   -0.027,    1.101,    0.195,
       -0.379,   -0.056,   -3.336,    0.020,   -2.709,   -0.027,    1.134,
       -0.092,   -0.139,    0.158,   -1.033,    0.087,    2.591,    0.102,
        1.942,   -0.086,   -4.488,    1.376,   -5.406,    8.942,   -3.164,
       -5.953,    0.806,   -8.627,    1.001,   -3.759,   -1.883,   -2.971,
        2.741,    0.042,    1.417,   -1.311
    },
    {  -0.528,    0.061,    1.375,   -0.041,    0.192,    0.021,   -1.253,
       -0.020,   -0.819,   -0.015,    3.085,    0.063,    1.196,    0.026,
       -0.246,   -0.020,   -3.375,    0.086,   -2.843,   -0.077,    1.101,
       -0.042,   -0.087,    0.104,   -1.031,    0.055,    2.630,    0.083,
        1.911,   -0.049,   -4.371,    1.588,   -5.356,    8.716,   -3.000,
       -5.786,    0.695,   -8.639,    0.958,   -4.111,   -1.961,   -2.917,
        3.201,   -0.609,    1.709,   -0.906
    },
    {  -0.501,    0.105,    1.348,   -0.046,    0.237,    0.061,   -1.346,
        0.018,   -0.772,   -0.071,    3.179,    0.055,    1.217,    0.088,
       -0.196,    0.002,   -3.408,    0.128,   -2.712,   -0.171,    0.950,
       -0.126,   -0.014,   -0.073,   -0.961,    0.017,    2.685,   -0.064,
        1.913,    0.019,   -4.536,    1.647,   -5.528,    9.015,   -3.085,
       -5.784,    0.721,   -8.739,    0.960,   -3.924,   -1.991,   -2.876,
        2.940,   -0.692,    1.529,   -1.285
    },
    {  -0.536,    0.033,    1.330,   -0.061,    0.142,    0.046,   -1.456,
        0.044,   -0.758,   -0.064,    3.022,   -0.030,    1.154,    0.030,
       -0.090,    0.113,   -3.409,   -0.007,   -2.718,   -0.171,    0.735,
       -0.092,    0.098,   -0.052,   -0.881,   -0.054,    2.674,   -0.045,
        1.911,    0.038,   -4.318,    1.729,   -5.331,    8.519,   -3.298,
       -5.823,    0.953,   -8.608,    0.877,   -4.262,   -1.403,   -3.202,
        2.876,   -0.623,    1.726,   -1.780
    },
    {  -0.555,    0.070,    1.580,   -0.120,    0.258,    0.009,   -1.521,
        0.185,   -0.805,   -0.031,    2.903,   -0.138,    1.172,   -0.085,
        0.047,    0.046,   -3.367,   -0.058,   -2.438,   -0.165,    0.695,
       -0.082,    0.144,   -0.030,   -0.965,   -0.049,    2.724,   -0.048,
        1.940,    0.040,   -4.728,    2.120,   -5.484,    8.722,   -2.977,
       -6.497,    0.245,   -8.223,    1.121,   -4.382,   -0.959,   -3.321,
        2.997,   -0.549,    1.813,   -1.752
    },
    {  -0.654,    0.077,    1.609,   -0.186,    0.275,   -0.011,   -1.432,
        0.247,   -0.823,   -0.031,    2.842,   -0.071,    1.215,   -0.117,
       -0.053,    0.027,   -3.512,   -0.087,   -2.502,    0.017,    0.758,
       -0.083,    0.258,   -0.035,   -0.923,   -0.123,    2.711,   -0.066,
        1.880,    0.019,   -4.284,    2.306,   -5.581,    8.942,   -2.917,
       -6.178,    0.950,   -8.665,    1.227,   -3.749,   -1.168,   -2.926,
        3.094,   -0.715,    1.869,   -1.955
    },
    {  -0.599,    0.071,    1.553,   -0.078,    0.262,    0.031,   -1.481,
        0.087,   -0.889,   -0.011,    2.910,   -0.105,    1.153,   -0.092,
       -0.061,    0.012,   -3.485,   -0.164,   -2.573,    0.092,    0.799,
       -0.027,    0.113,   -0.034,   -1.014,   -0.120,    2.623,   -0.103,
        1.735,    0.125,   -4.496,    2.681,   -5.330,    9.308,   -3.100,
       -6.030,    0.768,   -9.145,    1.220,   -3.950,   -1.413,   -2.850,
        3.389,   -0.882,    1.765,   -2.067
    },
    {  -0.507,    0.043,    1.554,   -0.015,    0.261,   -0.007,   -1.491,
        0.038,   -0.937,   -0.025,    2.921,    0.018,    1.177,   -0.120,
       -0.051,    0.023,   -3.422,   -0.155,   -2.469,    0.222,    0.848,
       -0.059,    0.185,   -0.011,   -1.017,   -0.102,    2.623,   -0.053,
        1.717,    0.130,   -4.476,    2.984,   -4.885,    9.053,   -3.626,
       -5.734,    1.127,   -9.683,    0.931,   -4.021,   -1.035,   -2.940,
        2.939,   -0.138,    1.776,   -1.725
    },
    {  -0.545,   -0.094,    1.513,   -0.035,    0.260,    0.006,   -1.500,
        0.014,   -0.858,   -0.088,    2.845,    0.037,    1.036,   -0.128,
        0.007,   -0.027,   -3.388,   -0.019,   -2.612,    0.105,    0.783,
       -0.044,    0.088,   -0.054,   -1.105,   -0.071,    2.509,   -0.108,
        1.724,    0.035,   -4.584,    3.031,   -4.887,    8.834,   -3.692,
       -6.417,    1.076,   -9.955,    0.656,   -4.017,   -1.431,   -3.099,
        3.089,   -0.325,    1.209,   -1.817
    },
    {  -0.636,    0.005,    1.564,   -0.139,    0.175,    0.066,   -1.606,
       -0.102,   -1.022,    0.018,    2.929,   -0.040,    0.926,    0.045,
       -0.065,   -0.036,   -3.641,   -0.034,   -2.379,    0.008,    0.782,
        0.048,    0.096,    0.125,   -0.780,    0.025,    2.712,    0.029,
        1.606,    0.202,   -5.105,    3.101,   -4.802,    8.869,   -3.778,
       -6.121,    1.199,   -9.690,    0.731,   -3.895,   -1.966,   -2.975,
        3.019,   -0.072,    1.120,   -1.813
    },
    {  -0.576,    0.031,    1.523,   -0.159,    0.106,    0.074,   -1.587,
       -0.082,   -1.083,    0.070,    2.882,   -0.124,    0.873,    0.069,
       -0.031,   -0.074,   -3.660,   -0.026,   -2.354,    0.047,    0.830,
        0.095,    0.116,    0.164,   -0.760,    0.035,    2.736,    0.239,
        1.536,    0.182,   -4.706,    3.278,   -4.964,    8.697,   -4.006,
       -6.605,    0.983,   -9.683,    0.914,   -3.687,   -1.816,   -2.870,
        3.403,    0.013,    0.647,   -1.506
    },
    {  -0.618,   -0.043,    1.593,   -0.210,    0.098,    0.046,   -1.625,
       -0.034,   -1.133,    0.045,    2.921,   -0.136,    0.787,    0.000,
       -0.019,   -0.067,   -3.576,    0.034,   -2.350,    0.082,    0.896,
        0.005,    0.046,    0.079,   -0.681,    0.006,    2.526,    0.210,
        1.602,    0.030,   -5.164,    3.479,   -5.309,    8.910,   -3.448,
       -6.263,    1.346,   -9.502,    0.940,   -4.171,   -2.103,   -2.535,
        3.112,   -0.431,    0.710,   -1.687
    },
    {  -0.545,    0.004,    1.657,   -0.071,   -0.056,   -0.006,   -1.542,
        0.024,   -1.211,    0.073,    3.035,   -0.154,    0.796,   -0.108,
        0.064,   -0.052,   -3.528,    0.098,   -2.219,    0.098,    0.970,
       -0.075,    0.094,    0.075,   -0.767,    0.107,    2.607,    0.131,
        1.676,    0.036,   -4.930,    3.357,   -4.976,    9.341,   -3.446,
       -6.318,    1.468,   -9.900,    1.298,   -3.945,   -2.287,   -2.667,
        3.224,   -0.836,    0.801,   -1.481
    },
    {  -0.693,   -0.041,    1.625,   -0.032,   -0.113,    0.018,   -1.649,
        0.054,   -1.044,    0.048,    3.068,   -0.150,    0.803,   -0.099,
       -0.030,   -0.045,   -3.626,    0.034,   -2.149,    0.002,    0.938,
        0.020,    0.089,    0.085,   -0.668,    0.086,    2.676,    0.052,
        1.671,    0.102,   -4.297,    2.864,   -4.894,    9.221,   -3.544,
       -5.899,    1.266,   -9.550,    1.077,   -4.302,   -2.270,   -2.534,
        3.003,   -0.502,    1.047,   -1.320
    },
    {  -0.609,   -0.111,    1.668,    0.058,    0.006,    0.019,   -1.544,
       -0.060,   -1.095,    0.027,    3.119,   -0.106,    0.747,   -0.108,
       -0.088,   -0.079,   -3.573,    0.083,   -2.087,   -0.015,    0.892,
        0.019,    0.229,    0.037,   -0.703,    0.076,    2.634,   -0.053,
        1.642,   -0.040,   -4.658,    3.002,   -5.187,    9.587,   -3.268,
       -5.734,    0.889,   -9.451,    0.943,   -4.325,   -2.167,   -2.624,
        3.208,   -0.374,    0.798,   -1.486
    },
    {  -0.727,    0.024,    1.671,    0.017,    0.016,    0.039,   -1.523,
       -0.015,   -1.125,    0.025,    3.143,   -0.096,    0.708,   -0.042,
        0.039,    0.006,   -3.564,    0.007,   -2.020,   -0.021,    0.909,
        0.006,    0.227,    0.059,   -0.717,    0.039,    2.696,   -0.006,
        1.533,    0.046,   -4.247,    3.086,   -5.095,    9.391,   -3.342,
       -5.948,    0.953,   -9.495,    0.925,   -4.307,   -2.062,   -2.794,
        2.968,    0.128,    0.345,   -1.453
    },
    {  -0.863,    0.018,    1.770,   -0.046,   -0.033,   -0.001,   -1.592,
       -0.003,   -1.168,   -0.031,    3.216,    0.048,    0.621,   -0.105,
       -0.022,   -0.001,   -3.441,   -0.007,   -1.931,    0.008,    0.703,
       -0.031,    0.028,   -0.096,   -0.513,   -0.047,    2.607,    0.008,
        1.567,   -0.021,   -4.633,    3.392,   -5.126,    9.654,   -3.442,
       -5.775,    1.354,   -9.718,    1.134,   -4.394,   -2.454,   -2.496,
        3.041,   -0.408,    0.465,   -1.651
    },
    {  -0.830,    0.010,    1.752,   -0.114,    0.072,    0.039,   -1.623,
       -0.053,   -1.157,    0.001,    3.098,   -0.004,    0.758,   -0.063,
       -0.024,   -0.005,   -3.543,   -0.050,   -1.980,    0.009,    0.621,
        0.038,    0.073,   -0.057,   -0.552,   -0.123,    2.657,    0.028,
        1.647,   -0.086,   -5.204,    3.166,   -5.402,    9.431,   -3.572,
       -5.437,    1.262,   -9.806,    0.368,   -4.451,   -2.244,   -2.477,
        3.198,   -0.453,    0.586,   -1.086
    },
    {  -0.775,    0.009,    1.753,   -0.107,    0.093,    0.108,   -1.699,
       -0.080,   -1.080,   -0.059,    2.994,    0.006,    0.815,   -0.001,
        0.056,   -0.018,   -3.619,   -0.035,   -1.861,    0.005,    0.674,
        0.145,    0.022,   -0.067,   -0.517,   -0.172,    2.600,    0.027,
        1.579,   -0.018,   -4.999,    2.963,   -5.015,    9.062,   -3.274,
       -5.013,    1.396,  -10.054,    0.075,   -4.407,   -2.503,   -2.094,
        3.333,   -0.338,    0.643,   -1.320
    },
    {  -0.861,   -0.012,    1.862,   -0.038,    0.117,    0.012,   -1.543,
       -0.084,   -1.174,    0.011,    3.082,   -0.000,    0.805,   -0.050,
       -0.036,   -0.014,   -3.494,   -0.002,   -1.946,    0.018,    0.543,
       -0.027,    0.064,    0.062,   -0.691,   -0.022,    2.592,    0.040,
        1.516,   -0.048,   -4.821,    2.560,   -4.678,    9.022,   -3.016,
       -4.869,    1.397,   -9.848,   -0.192,   -4.240,   -2.616,   -2.107,
        3.138,   -0.330,   -0.186,   -1.352
    },
    {  -0.856,   -0.027,    1.810,    0.054,    0.074,    0.011,   -1.526,
        0.036,   -1.121,   -0.061,    3.003,    0.025,    0.887,   -0.100,
        0.108,    0.118,   -3.610,   -0.088,   -1.845,    0.058,    0.564,
       -0.012,    0.068,   -0.011,   -0.741,   -0.025,    2.561,    0.080,
        1.640,   -0.084,   -4.866,    2.170,   -4.824,    9.294,   -3.282,
       -5.012,    1.471,   -9.839,   -0.268,   -4.616,   -2.558,   -2.580,
        3.200,   -0.462,   -0.090,   -1.219
    },
    {  -0.919,   -0.026,    1.815,    0.025,    0.087,    0.035,   -1.380,
        0.046,   -1.172,   -0.016,    2.960,    0.009,    0.766,   -0.069,
        0.136,    0.078,   -3.626,   -0.021,   -1.859,    0.006,    0.634,
        0.015,    0.029,   -0.007,   -0.709,   -0.040,    2.538,    0.036,
        1.609,   -0.099,   -4.773,    2.025,   -4.765,    9.723,   -3.062,
       -4.937,    1.366,   -9.976,   -0.032,   -4.208,   -2.505,   -2.351,
        3.193,   -0.674,   -0.182,   -1.185
    },
    {  -0.855,   -0.078,    1.889,    0.031,    0.116,    0.052,   -1.470,
        0.048,   -1.345,   -0.032,    2.962,    0.085,    0.844,   -0.034,
        0.088,   -0.017,   -3.574,   -0.027,   -2.066,   -0.028,    0.772,
       -0.009,   -0.011,    0.007,   -0.649,    0.039,    2.592,    0.095,
        1.588,   -0.111,   -4.771,    1.916,   -4.807,    9.359,   -3.098,
       -5.267,    1.532,  -10.256,    0.253,   -4.132,   -2.421,   -2.382,
        3.140,   -0.586,   -0.112,   -1.180
    },
    {  -0.931,    0.028,    1.870,    0.074,    0.083,    0.037,   -1.626,
        0.018,   -1.423,   -0.003,    2.873,    0.110,    0.802,   -0.042,
       -0.009,    0.042,   -3.688,    0.055,   -2.192,   -0.014,    0.780,
       -0.068,   -0.062,    0.027,   -0.618,    0.068,    2.541,    0.037,
        1.456,   -0.209,   -4.658,    1.585,   -4.901,    9.163,   -2.914,
       -5.295,    1.710,  -10.346,   -0.117,   -4.047,   -2.357,   -2.340,
        3.491,   -0.539,   -0.473,   -0.851
    },
    {  -0.823,    0.055,    1.824,    0.089,    0.116,    0.008,   -1.514,
        0.066,   -1.376,    0.020,    2.857,    0.013,    0.851,   -0.091,
       -0.063,    0.011,   -3.615,    0.063,   -2.125,    0.069,    0.834,
       -0.037,    0.026,    0.001,   -0.667,   -0.016,    2.471,    0.062,
        1.508,   -0.094,   -4.265,    1.653,   -5.179,    9.586,   -2.823,
       -4.936,    2.059,  -10.857,    0.134,   -4.409,   -2.343,   -2.588,
        3.583,   -0.315,   -0.627,   -0.609
    },
    {  -0.825,    0.081,    1.755,    0.031,    0.100,    0.040,   -1.529,
        0.102,   -1.397,    0.086,    2.896,    0.039,    0.848,   -0.084,
       -0.061,    0.066,   -3.735,    0.041,   -2.118,   -0.012,    0.826,
       -0.059,   -0.002,   -0.057,   -0.553,   -0.012,    2.475,    0.028,
        1.552,   -0.066,   -4.131,    1.647,   -5.562,    9.832,   -2.751,
       -4.856,    2.339,  -10.824,   -0.065,   -4.400,   -2.345,   -2.445,
        3.564,   -0.421,   -0.530,   -0.625
    },
    {  -0.968,    0.071,    1.904,    0.028,    0.065,    0.069,   -1.556,
        0.108,   -1.445,    0.047,    2.794,   -0.015,    0.940,   -0.072,
        0.003,   -0.005,   -3.504,    0.061,   -2.191,    0.016,    0.791,
       -0.024,    0.184,   -0.081,   -0.646,    0.024,    2.441,    0.004,
        1.528,   -0.081,   -3.957,    1.647,   -5.413,    9.903,   -2.751,
       -5.001,    2.218,  -10.838,    0.116,   -4.587,   -2.315,   -2.400,
        3.547,   -0.351,   -0.809,   -0.693
    },
    {  -0.929,    0.023,    1.948,    0.045,    0.075,    0.064,   -1.495,
        0.182,   -1.483,   -0.033,    2.770,    0.014,    0.989,   -0.117,
        0.078,   -0.083,   -3.587,    0.039,   -2.262,    0.167,    0.893,
       -0.018,    0.118,   -0.097,   -0.580,   -0.068,    2.488,    0.052,
        1.530,    0.011,   -3.927,    1.167,   -5.197,    9.937,   -3.076,
       -4.930,    1.710,  -10.314,   -0.162,   -4.456,   -1.899,   -2.150,
        3.888,   -0.040,   -0.865,   -0.365
    },
    {  -0.969,    0.064,    1.911,    0.022,    0.072,    0.050,   -1.577,
        0.028,   -1.377,   -0.152,    2.800,   -0.013,    1.006,   -0.110,
        0.182,   -0.046,   -3.587,    0.016,   -2.164,   -0.036,    0.794,
        0.054,    0.229,   -0.106,   -0.547,    0.153,    2.539,   -0.101,
        1.481,   -0.034,   -4.178,    0.704,   -4.941,    9.603,   -2.524,
       -4.715,    1.230,  -10.103,   -0.386,   -4.262,   -2.248,   -1.752,
        3.676,   -0.430,   -1.252,   -0.036
    },
    {  -0.971,    0.043,    1.908,    0.007,    0.036,    0.002,   -1.478,
       -0.032,   -1.329,   -0.146,    2.806,    0.006,    1.015,   -0.103,
        0.248,   -0.062,   -3.648,    0.010,   -2.087,   -0.023,    0.756,
        0.015,    0.279,    0.007,   -0.490,    0.079,    2.495,   -0.054,
        1.360,   -0.029,   -4.051,    1.207,   -5.176,    9.736,   -2.658,
       -4.666,    1.204,   -9.959,   -0.204,   -4.444,   -2.387,   -1.509,
        3.678,   -0.179,   -1.183,    0.198
    },
    {  -0.977,    0.056,    1.901,   -0.020,    0.018,    0.044,   -1.511,
       -0.030,   -1.342,   -0.013,    3.002,    0.005,    0.974,   -0.056,
        0.377,   -0.039,   -3.518,   -0.032,   -2.122,    0.018,    0.790,
       -0.039,    0.262,   -0.014,   -0.673,    0.054,    2.586,   -0.014,
        1.333,   -0.012,   -3.562,    1.193,   -5.090,   10.021,   -2.621,
       -4.961,    1.237,   -9.904,    0.019,   -4.317,   -1.891,   -1.897,
        4.156,   -0.649,   -1.480,   -0.091
    },
    {  -1.158,   -0.015,    1.804,    0.003,    0.124,    0.032,   -1.447,
       -0.017,   -1.205,   -0.004,    3.055,   -0.033,    0.893,   -0.046,
        0.324,    0.005,   -3.458,    0.002,   -2.082,    0.029,    0.715,
       -0.052,    0.187,    0.015,   -0.556,   -0.051,    2.596,    0.008,
        1.275,    0.034,   -3.900,    0.562,   -4.820,    9.638,   -2.299,
       -4.668,    0.919,   -9.555,   -0.475,   -4.317,   -1.835,   -2.494,
        4.174,   -0.671,   -1.419,   -0.225
    },
    {  -1.017,   -0.062,    1.796,    0.024,    0.105,    0.018,   -1.478,
       -0.061,   -1.297,   -0.024,    3.131,   -0.048,    0.922,   -0.066,
        0.455,    0.005,   -3.516,    0.007,   -2.108,   -0.037,    0.772,
       -0.053,    0.168,    0.033,   -0.517,   -0.015,    2.684,   -0.032,
        1.155,    0.012,   -3.998,    1.100,   -4.793,    9.498,   -2.814,
       -4.684,    0.906,   -9.488,   -0.189,   -4.291,   -2.172,   -2.473,
        4.165,   -0.409,   -1.421,   -0.266
    },
    {  -1.110,    0.022,    1.872,    0.010,    0.229,    0.040,   -1.390,
       -0.072,   -1.259,    0.075,    3.114,   -0.084,    0.956,   -0.084,
        0.452,   -0.052,   -3.639,   -0.033,   -2.081,    0.020,    0.916,
        0.009,    0.218,    0.003,   -0.578,   -0.086,    2.613,    0.035,
        1.080,    0.029,   -4.027,    0.886,   -4.861,    9.729,   -2.100,
       -4.381,    0.949,   -9.376,    0.235,   -4.036,   -2.162,   -2.342,
        4.202,   -0.225,   -1.433,   -0.311
    },
    {  -1.244,    0.041,    1.934,   -0.012,    0.210,   -0.000,   -1.351,
       -0.011,   -1.293,    0.034,    3.188,    0.027,    0.956,   -0.090,
        0.485,   -0.005,   -3.757,   -0.160,   -2.180,    0.018,    0.951,
       -0.084,    0.209,    0.036,   -0.571,   -0.116,    2.606,   -0.009,
        1.097,    0.028,   -3.718,    1.206,   -4.544,    9.719,   -2.026,
       -4.223,    1.137,   -9.633,    0.182,   -3.945,   -2.193,   -2.121,
        4.250,   -0.045,   -1.275,   -0.374
    },
    {  -1.128,    0.090,    1.862,   -0.041,    0.227,   -0.002,   -1.384,
        0.002,   -1.306,    0.113,    3.257,    0.091,    0.943,   -0.101,
        0.495,   -0.080,   -3.745,   -0.177,   -2.153,    0.018,    0.947,
       -0.058,    0.122,    0.057,   -0.575,   -0.104,    2.504,   -0.026,
        1.024,    0.027,   -3.535,    1.463,   -4.675,    9.360,   -1.600,
       -4.228,    1.541,   -9.677,    0.652,   -4.141,   -2.178,   -2.024,
        4.654,   -0.256,   -1.605,   -0.476
    },
    {  -1.197,    0.103,    1.733,   -0.058,    0.126,   -0.008,   -1.361,
       -0.012,   -1.249,    0.046,    3.288,    0.085,    0.956,   -0.063,
        0.480,   -0.082,   -3.764,   -0.040,   -2.194,    0.026,    0.957,
       -0.075,    0.071,    0.082,   -0.562,   -0.020,    2.541,   -0.048,
        1.005,   -0.011,   -3.544,    1.613,   -5.049,    9.072,   -2.117,
       -4.589,    1.684,   -9.223,    0.953,   -4.568,   -2.536,   -2.460,
        5.141,   -0.462,   -1.538,   -0.689
    },
    {  -1.248,    0.056,    1.807,   -0.006,    0.081,    0.016,   -1.391,
       -0.026,   -1.208,   -0.040,    3.376,    0.048,    0.908,   -0.081,
        0.448,   -0.028,   -3.778,   -0.031,   -2.174,    0.007,    0.841,
       -0.065,    0.148,   -0.011,   -0.617,    0.001,    2.578,   -0.050,
        0.953,   -0.000,   -3.501,    2.009,   -4.689,    9.212,   -1.699,
       -4.690,    1.827,   -9.309,    0.816,   -4.874,   -2.461,   -2.679,
        5.009,   -0.366,   -1.442,   -0.913
    },
    {  -1.217,   -0.014,    1.730,   -0.060,    0.087,    0.060,   -1.347,
        0.016,   -1.233,   -0.080,    3.386,    0.051,    0.965,   -0.072,
        0.431,    0.010,   -3.702,   -0.008,   -2.179,    0.040,    0.796,
       -0.034,    0.247,   -0.084,   -0.563,   -0.057,    2.584,   -0.043,
        0.934,   -0.005,   -3.300,    1.712,   -4.712,    9.379,   -1.653,
       -4.733,    1.699,   -9.620,    0.827,   -4.805,   -2.349,   -2.902,
        5.346,   -0.459,   -1.619,   -1.022
    }
  };


  double netfun(std::vector<double>& in, const double* w)
  {
    double x00 = in[0];
    double x;

    //Layer 1, Node 0
    x = w[0];
    x = x + w[1] * x00;
    double x10 = tanh(x);

    //Layer 1, Node 1
    x = w[2];
    x = x + w[3] * x00;
    double x11 = tanh(x);

    //Layer 1, Node 2
    x = w[4];
    x = x + w[5] * x00;
    double x12 = tanh(x);

    //Layer 1, Node 3
    x = w[6];
    x = x + w[7] * x00;
    double x13 = tanh(x);

    //Layer 1, Node 4
    x = w[8];
    x = x + w[9] * x00;
    double x14 = tanh(x);

    //Layer 1, Node 5
    x = w[10];
    x = x + w[11] * x00;
    double x15 = tanh(x);

    //Layer 1, Node 6
    x = w[12];
    x = x + w[13] * x00;
    double x16 = tanh(x);

    //Layer 1, Node 7
    x = w[14];
    x = x + w[15] * x00;
    double x17 = tanh(x);

    //Layer 1, Node 8
    x = w[16];
    x = x + w[17] * x00;
    double x18 = tanh(x);

    //Layer 1, Node 9
    x = w[18];
    x = x + w[19] * x00;
    double x19 = tanh(x);

    //Layer 1, Node 10
    x = w[20];
    x = x + w[21] * x00;
    double x110 = tanh(x);

    //Layer 1, Node 11
    x = w[22];
    x = x + w[23] * x00;
    double x111 = tanh(x);

    //Layer 1, Node 12
    x = w[24];
    x = x + w[25] * x00;
    double x112 = tanh(x);

    //Layer 1, Node 13
    x = w[26];
    x = x + w[27] * x00;
    double x113 = tanh(x);

    //Layer 1, Node 14
    x = w[28];
    x = x + w[29] * x00;
    double x114 = tanh(x);

    //Layer 2, Node 0
    x = w[30];
    x = x + w[31] * x10;
    x = x + w[32] * x11;
    x = x + w[33] * x12;
    x = x + w[34] * x13;
    x = x + w[35] * x14;
    x = x + w[36] * x15;
    x = x + w[37] * x16;
    x = x + w[38] * x17;
    x = x + w[39] * x18;
    x = x + w[40] * x19;
    x = x + w[41] * x110;
    x = x + w[42] * x111;
    x = x + w[43] * x112;
    x = x + w[44] * x113;
    x = x + w[45] * x114;
    double x20 = 1.0/(1.0+exp(-x));
    return x20;
  }
}; // End anonymous namespace

//-----------------------------------------------------------------------------
// Compute average over networks. Default is to use all networks
//-----------------------------------------------------------------------------

double HT300_MHT90_v2_HT300_v9_173212_176544_sel2(std::vector<double>& inputvars,
                                                  int first=0,
                                                  int last=nnetworks-1)
{
  if ( first < 0 ) first = 0;
  if ( last  < 0 ) last  = nnetworks-1;
  if ( last  > nnetworks-1 ) last = nnetworks-1;
  if ( first > last )
    {
      std::cerr << "** HT300_MHT90_v2_HT300_v9_173212_176544_sel2 ** first-index > last-index"
                << std::endl; exit(3);
    }

  // Compute average over networks
  std::vector<double> in(ninputs);
  in[0] = (inputvars[0] - mean[0]) / sigma[0];

  int   n = last - first + 1;
  double x = 0.0;
  for(int i=first; i <= last; i++) x += netfun(in, weight[i]);
  return x / n;
}

extern "C" double HT300_MHT90_v2_HT300_v9_173212_176544_sel2_dl(std::vector<double>& in,
                                                                int first=0,
                                                                int last=nnetworks-1)
{
  return HT300_MHT90_v2_HT300_v9_173212_176544_sel2(in, first, last);
}

extern "C" double HT300_MHT90_v2_HT300_v9_173212_176544_sel2_dl2(double* in,
                                                                 int first=0,
                                                                 int last=nnetworks-1)
{
  std::vector<double> invec;

  invec.push_back(in[0]);

  return HT300_MHT90_v2_HT300_v9_173212_176544_sel2(invec, first, last);
}
