//-----------------------------------------------------------------------------
// Network: HT300_MHT90_v2_HT300_v9_173212_176544_sel2
// Inputs:
//                                                  Offset       Scale
//    offlinevar                                 2.512e+01   1.630e+01
//
// Created: Mon Jan 23 06:18:55 2012
//-----------------------------------------------------------------------------
#include <cmath>
#include <vector>
#include <iostream>
#include <stdlib.h>
//-----------------------------------------------------------------------------
// Make following visible only to this programming unit
namespace {
  // NOTE: Network indices start at 0
  static const int nnetworks=100;
  static const int ninputs  =1;
  static const int nhidden  =15;
  static const int nparams  =46;

  static const double mean[ninputs]={
  2.51200e+01
  };

  static const double sigma[ninputs]={
  1.63000e+01
  };

  static const double weight[nnetworks][nparams]={
    {   0.131,    0.175,    1.468,   -0.017,   -0.167,    0.035,   -0.757,
       -0.020,   -0.154,    0.130,    2.897,   -0.108,    0.166,   -0.078,
        0.333,    0.114,   -2.245,    0.101,   -2.907,    0.102,    0.942,
       -0.239,   -0.048,    0.057,   -1.363,    0.019,    1.988,    0.204,
        0.290,   -0.054,   -7.717,    1.286,   -5.465,    7.915,   -3.395,
       -6.568,   -0.164,   -6.984,   -0.047,   -3.858,   -2.217,   -1.612,
        3.722,    1.459,    4.973,    0.358
    },
    {   0.130,    0.104,    1.544,    0.093,   -0.166,    0.072,   -0.730,
       -0.036,   -0.213,    0.162,    2.822,   -0.131,    0.102,   -0.049,
        0.321,    0.137,   -2.359,    0.206,   -2.895,    0.139,    0.868,
       -0.310,   -0.044,    0.083,   -1.449,    0.017,    1.838,    0.264,
        0.327,   -0.062,   -8.073,    1.163,   -5.682,    7.252,   -3.358,
       -6.724,   -0.110,   -7.590,    0.207,   -3.888,   -2.142,   -1.684,
        3.972,    1.605,    5.030,    0.215
    },
    {   0.029,    0.077,    1.514,   -0.012,   -0.145,    0.100,   -0.745,
       -0.033,   -0.173,    0.093,    2.847,   -0.131,    0.190,    0.032,
        0.320,    0.119,   -2.406,    0.140,   -2.843,    0.009,    0.893,
       -0.281,   -0.072,    0.076,   -1.393,   -0.018,    1.791,    0.250,
        0.400,    0.054,   -7.783,    1.038,   -5.953,    7.047,   -3.970,
       -6.610,   -0.059,   -7.622,    0.536,   -4.074,   -1.794,   -1.759,
        4.181,    1.329,    5.238,    0.197
    },
    {  -0.062,    0.090,    1.466,    0.014,   -0.225,    0.063,   -0.737,
       -0.136,   -0.237,    0.104,    2.800,   -0.114,    0.276,   -0.045,
        0.308,    0.021,   -2.264,    0.008,   -2.909,   -0.098,    0.833,
       -0.232,   -0.037,   -0.012,   -1.468,    0.005,    1.867,    0.199,
        0.366,   -0.038,   -7.645,    1.392,   -5.613,    7.167,   -4.211,
       -6.678,   -0.085,   -8.050,    0.898,   -3.937,   -1.883,   -1.444,
        4.404,    1.229,    5.103,    0.546
    },
    {  -0.060,    0.096,    1.489,    0.019,   -0.185,    0.049,   -0.601,
       -0.095,   -0.289,    0.071,    2.671,   -0.037,    0.241,   -0.050,
        0.331,   -0.070,   -2.362,    0.017,   -2.874,   -0.202,    0.830,
       -0.169,   -0.120,   -0.028,   -1.472,   -0.064,    1.789,    0.133,
        0.354,   -0.020,   -7.865,    1.388,   -5.850,    7.662,   -3.706,
       -6.472,    0.298,   -7.702,    1.184,   -4.106,   -2.288,   -1.723,
        3.590,    1.729,    5.334,    0.342
    },
    {  -0.239,   -0.061,    1.498,   -0.047,   -0.125,   -0.018,   -0.488,
        0.005,   -0.221,   -0.016,    2.773,   -0.003,    0.209,   -0.077,
        0.264,   -0.036,   -2.287,   -0.085,   -2.793,   -0.095,    0.856,
       -0.161,   -0.077,    0.010,   -1.542,    0.022,    2.051,    0.055,
        0.501,   -0.032,   -7.043,    1.747,   -5.739,    7.501,   -3.892,
       -6.559,    0.258,   -7.616,    0.542,   -4.256,   -2.050,   -1.592,
        3.892,    1.265,    4.456,   -0.335
    },
    {  -0.323,   -0.168,    1.528,   -0.055,   -0.104,   -0.011,   -0.518,
        0.041,   -0.227,   -0.109,    2.671,   -0.083,    0.241,   -0.055,
        0.261,    0.024,   -2.286,   -0.045,   -2.658,   -0.149,    0.792,
       -0.158,   -0.184,   -0.062,   -1.519,    0.167,    2.143,    0.015,
        0.468,   -0.053,   -7.301,    1.884,   -5.854,    7.721,   -4.049,
       -6.823,    0.578,   -7.624,    0.806,   -4.293,   -2.286,   -1.376,
        3.868,    1.430,    4.454,   -0.079
    },
    {  -0.255,   -0.089,    1.551,    0.022,   -0.152,   -0.009,   -0.546,
        0.016,   -0.219,   -0.081,    2.670,    0.079,    0.273,   -0.078,
        0.205,    0.056,   -2.301,   -0.020,   -2.585,   -0.060,    0.769,
       -0.122,   -0.187,   -0.068,   -1.510,    0.156,    2.217,   -0.053,
        0.488,   -0.094,   -7.141,    1.851,   -5.665,    7.670,   -4.208,
       -6.689,    0.597,   -7.355,    0.527,   -4.360,   -2.134,   -1.483,
        3.829,    1.356,    4.586,    0.007
    },
    {  -0.241,   -0.178,    1.628,    0.020,   -0.159,   -0.021,   -0.552,
       -0.050,   -0.190,   -0.036,    2.666,    0.007,    0.447,   -0.104,
        0.171,    0.039,   -2.261,   -0.142,   -2.616,    0.074,    0.855,
       -0.014,   -0.203,    0.028,   -1.445,   -0.032,    2.443,    0.037,
        0.552,   -0.005,   -7.040,    2.122,   -5.410,    7.396,   -4.584,
       -6.914,    0.197,   -7.631,    0.075,   -4.610,   -2.444,   -1.093,
        3.771,    0.868,    4.579,    0.405
    },
    {  -0.347,    0.070,    1.550,   -0.132,   -0.025,    0.133,   -0.549,
        0.007,   -0.194,    0.086,    2.621,   -0.032,    0.596,    0.090,
        0.177,    0.035,   -2.154,   -0.021,   -2.716,    0.047,    0.889,
        0.097,   -0.199,    0.147,   -1.389,   -0.156,    2.564,    0.062,
        0.549,    0.039,   -7.201,    1.873,   -5.504,    7.707,   -4.436,
       -7.362,   -0.065,   -7.576,    0.102,   -4.835,   -2.966,   -1.114,
        3.959,    0.879,    4.464,    0.277
    },
    {  -0.388,   -0.017,    1.505,   -0.094,    0.052,    0.078,   -0.566,
       -0.050,   -0.185,    0.034,    2.603,    0.003,    0.682,    0.060,
        0.220,   -0.011,   -2.156,   -0.116,   -2.681,    0.077,    0.854,
        0.078,   -0.087,    0.129,   -1.468,   -0.211,    2.521,    0.090,
        0.607,    0.033,   -7.212,    1.228,   -5.793,    7.470,   -4.503,
       -7.370,   -0.025,   -7.712,    0.176,   -4.819,   -3.263,   -1.861,
        3.861,    1.052,    4.374,    0.064
    },
    {  -0.353,   -0.022,    1.558,   -0.117,    0.024,    0.090,   -0.477,
       -0.044,   -0.261,    0.034,    2.594,    0.012,    0.687,   -0.010,
        0.212,   -0.079,   -2.181,   -0.104,   -2.632,    0.039,    0.862,
        0.076,   -0.080,    0.016,   -1.439,   -0.170,    2.519,    0.028,
        0.517,    0.002,   -7.358,    1.507,   -5.954,    7.494,   -4.179,
       -7.146,   -0.378,   -7.525,    0.331,   -5.117,   -3.591,   -1.541,
        3.877,    0.872,    4.096,    0.194
    },
    {  -0.242,   -0.091,    1.576,    0.008,    0.072,    0.085,   -0.512,
       -0.065,   -0.315,    0.062,    2.620,   -0.011,    0.766,   -0.055,
        0.217,   -0.058,   -2.126,   -0.084,   -2.686,    0.174,    0.859,
        0.039,   -0.028,    0.065,   -1.494,   -0.072,    2.546,    0.068,
        0.526,   -0.009,   -7.268,    1.617,   -6.060,    7.621,   -4.332,
       -6.621,   -0.607,   -7.671,    0.488,   -4.961,   -3.778,   -1.724,
        3.591,    1.042,    3.846,    0.337
    },
    {  -0.316,    0.091,    1.621,    0.057,   -0.013,    0.014,   -0.599,
        0.007,   -0.365,   -0.099,    2.670,   -0.023,    0.777,    0.025,
        0.203,   -0.125,   -2.176,   -0.089,   -2.688,    0.119,    0.860,
       -0.042,   -0.066,    0.052,   -1.499,    0.073,    2.510,    0.029,
        0.611,   -0.095,   -7.227,    1.541,   -5.324,    7.378,   -4.271,
       -6.682,   -0.393,   -7.607,    0.242,   -4.545,   -3.507,   -1.694,
        3.295,    0.627,    3.619,    0.273
    },
    {  -0.391,    0.099,    1.722,   -0.005,    0.105,   -0.060,   -0.599,
        0.001,   -0.319,   -0.061,    2.599,   -0.019,    0.788,   -0.091,
        0.113,   -0.008,   -2.284,   -0.088,   -2.718,    0.039,    0.715,
       -0.044,   -0.160,    0.061,   -1.482,   -0.028,    2.581,    0.020,
        0.707,    0.037,   -7.601,    1.492,   -5.367,    7.595,   -4.719,
       -6.930,   -0.363,   -7.519,    0.460,   -4.469,   -3.310,   -1.671,
        3.666,    0.724,    3.810,    0.135
    },
    {  -0.344,   -0.016,    1.675,    0.071,    0.104,   -0.029,   -0.682,
        0.019,   -0.311,   -0.079,    2.465,   -0.008,    0.930,   -0.094,
        0.116,   -0.098,   -2.178,    0.008,   -2.765,    0.050,    0.795,
       -0.070,   -0.143,    0.057,   -1.563,    0.059,    2.465,    0.028,
        0.647,   -0.018,   -7.431,    1.549,   -5.705,    7.387,   -4.838,
       -7.022,   -0.691,   -7.160,    0.207,   -4.680,   -3.552,   -1.391,
        3.192,    1.066,    3.841,    0.280
    },
    {  -0.345,    0.004,    1.641,   -0.010,    0.144,    0.047,   -0.594,
       -0.008,   -0.268,   -0.036,    2.433,   -0.067,    0.924,    0.016,
        0.208,   -0.131,   -2.160,   -0.138,   -2.893,   -0.053,    0.740,
       -0.121,   -0.082,    0.016,   -1.449,   -0.015,    2.522,    0.068,
        0.687,   -0.027,   -7.536,    1.680,   -5.241,    7.273,   -4.483,
       -6.879,   -0.313,   -7.239,    0.361,   -4.668,   -3.202,   -1.706,
        3.248,    0.990,    3.971,    0.081
    },
    {  -0.267,    0.071,    1.715,   -0.061,    0.162,    0.069,   -0.647,
       -0.047,   -0.278,    0.019,    2.392,   -0.072,    0.995,    0.089,
        0.139,   -0.011,   -2.044,   -0.016,   -2.910,   -0.072,    0.757,
       -0.109,   -0.024,    0.051,   -1.507,    0.035,    2.463,   -0.056,
        0.717,   -0.038,   -7.178,    1.445,   -5.176,    7.074,   -4.445,
       -7.055,   -0.248,   -7.369,   -0.089,   -4.265,   -2.867,   -1.579,
        3.047,    1.008,    3.959,    0.184
    },
    {  -0.328,   -0.029,    1.654,   -0.133,    0.152,    0.042,   -0.654,
       -0.067,   -0.292,    0.013,    2.497,    0.053,    0.991,    0.079,
        0.186,   -0.116,   -2.149,   -0.100,   -2.746,   -0.021,    0.703,
       -0.056,   -0.081,    0.131,   -1.579,   -0.021,    2.465,    0.015,
        0.807,   -0.062,   -7.115,    1.401,   -5.413,    7.575,   -4.291,
       -7.023,   -0.037,   -7.347,    0.078,   -4.027,   -2.755,   -1.787,
        3.057,    0.442,    3.910,    0.144
    },
    {  -0.355,    0.031,    1.551,    0.008,    0.091,    0.032,   -0.607,
        0.006,   -0.317,   -0.038,    2.500,   -0.032,    1.051,   -0.051,
        0.266,   -0.059,   -2.119,    0.036,   -2.656,   -0.039,    0.580,
        0.021,   -0.050,    0.042,   -1.631,    0.027,    2.513,    0.009,
        0.794,   -0.024,   -7.277,    1.308,   -5.735,    7.581,   -4.302,
       -6.574,    0.190,   -7.060,   -0.131,   -4.020,   -3.286,   -1.456,
        3.649,    0.619,    3.839,    0.066
    },
    {  -0.315,    0.044,    1.625,   -0.011,    0.211,    0.047,   -0.550,
        0.012,   -0.209,   -0.013,    2.544,    0.031,    1.009,   -0.100,
        0.387,   -0.002,   -2.115,    0.063,   -2.637,    0.069,    0.579,
        0.007,   -0.087,   -0.023,   -1.587,    0.024,    2.533,    0.036,
        0.817,    0.035,   -6.967,    1.323,   -5.984,    7.949,   -4.446,
       -6.737,    0.084,   -7.055,   -0.231,   -4.339,   -3.745,   -1.568,
        3.659,    0.639,    3.562,   -0.672
    },
    {  -0.234,   -0.037,    1.522,   -0.016,    0.206,    0.028,   -0.506,
        0.004,   -0.085,   -0.020,    2.462,    0.029,    0.944,   -0.020,
        0.426,   -0.022,   -2.132,   -0.014,   -2.545,   -0.061,    0.513,
       -0.085,   -0.170,    0.064,   -1.503,    0.001,    2.703,   -0.025,
        0.665,   -0.034,   -7.536,    1.484,   -5.552,    7.821,   -4.566,
       -6.431,    0.119,   -7.001,    0.192,   -4.764,   -3.756,   -1.706,
        4.010,    0.628,    3.771,   -0.431
    },
    {  -0.163,   -0.011,    1.538,   -0.034,    0.190,    0.036,   -0.626,
        0.012,   -0.123,   -0.025,    2.423,   -0.009,    1.054,    0.015,
        0.355,   -0.007,   -2.106,   -0.011,   -2.392,   -0.029,    0.546,
       -0.015,   -0.228,    0.086,   -1.343,    0.020,    2.596,   -0.024,
        0.552,    0.024,   -7.524,    1.865,   -5.255,    7.959,   -3.890,
       -6.662,    0.213,   -7.037,    0.489,   -5.086,   -3.453,   -1.596,
        4.522,    0.375,    3.616,   -0.553
    },
    {  -0.244,    0.077,    1.536,   -0.056,    0.293,   -0.031,   -0.630,
        0.028,   -0.114,    0.001,    2.398,    0.063,    1.050,   -0.064,
        0.369,    0.113,   -2.059,   -0.027,   -2.550,   -0.000,    0.539,
       -0.002,   -0.240,    0.133,   -1.455,    0.039,    2.649,   -0.021,
        0.552,    0.015,   -7.119,    1.860,   -5.226,    7.266,   -3.788,
       -6.907,    0.110,   -7.278,    0.574,   -5.055,   -3.372,   -1.977,
        4.434,    0.671,    3.710,   -0.622
    },
    {  -0.341,    0.058,    1.420,   -0.099,    0.308,    0.024,   -0.662,
        0.030,   -0.074,   -0.038,    2.372,    0.081,    0.957,    0.048,
        0.312,    0.015,   -2.152,    0.091,   -2.693,    0.008,    0.579,
        0.055,   -0.067,    0.057,   -1.383,    0.127,    2.736,    0.010,
        0.444,   -0.084,   -7.275,    1.980,   -5.373,    6.933,   -3.564,
       -6.921,    0.035,   -7.331,    0.252,   -4.776,   -3.078,   -1.803,
        4.731,    0.232,    3.721,   -0.531
    },
    {  -0.383,    0.023,    1.358,   -0.058,    0.282,    0.043,   -0.805,
        0.018,   -0.126,   -0.032,    2.373,    0.019,    1.070,    0.042,
        0.290,    0.024,   -2.211,    0.007,   -2.668,    0.027,    0.599,
        0.004,   -0.029,    0.044,   -1.424,    0.041,    2.768,   -0.055,
        0.428,   -0.079,   -7.310,    1.701,   -5.519,    6.898,   -2.859,
       -7.031,   -0.116,   -7.366,    0.131,   -5.411,   -3.117,   -2.056,
        4.744,   -0.011,    3.467,   -0.683
    },
    {  -0.472,   -0.017,    1.346,   -0.051,    0.329,    0.012,   -0.841,
       -0.043,   -0.110,   -0.059,    2.267,    0.028,    1.026,    0.087,
        0.140,   -0.076,   -2.159,    0.027,   -2.727,   -0.049,    0.697,
       -0.043,    0.057,    0.072,   -1.486,    0.056,    2.906,   -0.096,
        0.565,   -0.060,   -7.047,    1.894,   -5.760,    6.979,   -2.904,
       -7.093,   -0.118,   -7.669,    0.351,   -5.678,   -3.263,   -2.399,
        4.459,    0.421,    3.264,   -0.352
    },
    {  -0.412,   -0.001,    1.343,   -0.053,    0.260,    0.010,   -0.891,
       -0.092,   -0.157,   -0.030,    2.121,    0.027,    1.041,   -0.028,
        0.140,    0.011,   -2.102,    0.079,   -2.689,   -0.003,    0.648,
       -0.047,    0.006,    0.027,   -1.453,   -0.018,    2.949,   -0.058,
        0.625,   -0.018,   -7.006,    2.343,   -6.176,    7.131,   -3.241,
       -6.969,    0.034,   -7.714,    0.473,   -5.502,   -3.024,   -2.220,
        4.402,    0.638,    3.701,    0.148
    },
    {  -0.657,    0.024,    1.362,   -0.034,    0.279,    0.037,   -0.655,
       -0.035,   -0.204,   -0.034,    2.372,   -0.016,    0.974,    0.032,
        0.221,   -0.025,   -2.253,   -0.004,   -2.904,    0.048,    0.713,
       -0.012,   -0.021,    0.059,   -1.230,    0.008,    2.782,    0.062,
        0.653,   -0.140,   -6.469,    2.457,   -6.078,    7.407,   -3.146,
       -7.057,    0.149,   -7.828,    0.320,   -5.512,   -3.057,   -1.741,
        4.212,    0.586,    3.134,   -0.148
    },
    {  -0.634,    0.013,    1.311,   -0.023,    0.277,    0.018,   -0.760,
        0.028,   -0.132,   -0.047,    2.424,    0.008,    0.880,   -0.033,
        0.390,   -0.012,   -2.141,   -0.019,   -2.939,   -0.002,    0.776,
        0.026,    0.041,    0.033,   -1.256,   -0.023,    2.656,    0.016,
        0.622,    0.041,   -6.539,    2.492,   -5.948,    7.486,   -2.966,
       -6.879,    0.112,   -7.863,    0.497,   -5.578,   -3.068,   -1.850,
        4.078,    1.235,    3.389,    0.123
    },
    {  -0.740,    0.008,    1.327,   -0.015,    0.383,   -0.004,   -0.690,
       -0.025,   -0.117,   -0.052,    2.335,   -0.011,    0.915,   -0.051,
        0.382,    0.034,   -2.225,   -0.057,   -3.033,    0.048,    0.725,
        0.012,    0.008,    0.021,   -1.201,   -0.006,    2.665,    0.018,
        0.706,    0.012,   -6.756,    2.234,   -5.666,    7.038,   -3.021,
       -6.823,   -0.049,   -7.788,    0.482,   -5.607,   -3.107,   -1.781,
        4.495,    0.858,    3.095,   -0.292
    },
    {  -0.672,    0.032,    1.124,   -0.003,    0.314,    0.090,   -0.525,
       -0.030,   -0.019,    0.071,    2.371,   -0.023,    1.018,   -0.110,
        0.441,    0.089,   -2.357,   -0.019,   -2.991,   -0.013,    0.846,
        0.009,    0.081,    0.011,   -1.090,    0.121,    2.637,   -0.029,
        0.694,   -0.014,   -6.250,    1.880,   -5.378,    7.376,   -2.616,
       -7.247,   -0.020,   -7.706,    0.499,   -5.217,   -3.245,   -1.559,
        4.450,    0.661,    3.071,   -0.153
    },
    {  -0.564,    0.016,    1.132,   -0.090,    0.325,    0.048,   -0.572,
        0.044,    0.003,   -0.010,    2.389,    0.102,    0.960,   -0.053,
        0.428,    0.061,   -2.266,   -0.103,   -3.031,   -0.053,    0.850,
       -0.058,   -0.026,   -0.033,   -1.010,    0.087,    2.610,    0.106,
        0.777,    0.015,   -6.044,    1.776,   -5.448,    7.410,   -2.575,
       -7.340,   -0.289,   -7.654,    0.580,   -5.749,   -3.091,   -2.104,
        4.416,    0.591,    3.084,    0.020
    },
    {  -0.470,   -0.003,    1.108,   -0.092,    0.274,    0.023,   -0.496,
       -0.001,   -0.080,   -0.031,    2.366,    0.164,    1.007,    0.044,
        0.491,    0.012,   -2.268,   -0.031,   -3.020,   -0.067,    0.763,
       -0.092,   -0.071,    0.021,   -0.818,   -0.000,    2.573,   -0.023,
        0.829,    0.068,   -6.344,    2.204,   -5.456,    7.985,   -2.603,
       -7.413,   -0.084,   -8.168,    0.855,   -5.814,   -3.053,   -1.898,
        3.983,    0.625,    3.112,    0.150
    },
    {  -0.490,    0.057,    1.135,   -0.034,    0.264,    0.042,   -0.533,
        0.008,   -0.177,   -0.009,    2.432,    0.040,    0.951,   -0.031,
        0.479,    0.001,   -2.347,    0.034,   -2.856,    0.019,    0.818,
        0.020,   -0.136,    0.045,   -0.776,   -0.013,    2.519,   -0.039,
        0.809,    0.064,   -6.497,    1.767,   -5.649,    7.701,   -2.792,
       -7.459,    0.236,   -8.073,    1.098,   -5.587,   -2.963,   -1.924,
        3.966,    0.607,    2.645,   -0.101
    },
    {  -0.522,    0.087,    1.216,    0.003,    0.246,    0.040,   -0.520,
        0.086,   -0.145,   -0.018,    2.558,   -0.017,    0.947,   -0.080,
        0.446,   -0.027,   -2.307,    0.058,   -2.859,    0.072,    0.835,
        0.017,   -0.015,    0.014,   -0.865,    0.081,    2.564,    0.010,
        0.838,    0.065,   -6.080,    2.175,   -6.149,    8.059,   -2.715,
       -7.238,    0.078,   -7.920,    1.220,   -5.496,   -3.246,   -1.871,
        3.803,    0.563,    2.822,   -0.167
    },
    {  -0.448,   -0.016,    1.135,   -0.051,    0.357,    0.019,   -0.603,
        0.024,   -0.039,   -0.050,    2.585,    0.004,    0.799,   -0.066,
        0.198,   -0.035,   -2.089,   -0.022,   -2.860,    0.022,    0.777,
        0.023,   -0.103,   -0.037,   -0.805,    0.106,    2.523,    0.033,
        0.858,   -0.006,   -6.059,    2.020,   -6.201,    8.344,   -2.899,
       -7.007,   -0.213,   -8.226,    1.609,   -5.328,   -3.129,   -2.102,
        3.949,    0.254,    3.062,   -0.622
    },
    {  -0.495,    0.035,    1.260,   -0.053,    0.332,    0.042,   -0.685,
       -0.005,   -0.066,   -0.033,    2.630,   -0.066,    0.688,   -0.022,
        0.186,   -0.058,   -2.109,    0.033,   -2.917,    0.076,    0.860,
        0.027,   -0.257,    0.004,   -0.897,    0.090,    2.580,    0.103,
        0.996,    0.017,   -5.892,    1.605,   -5.901,    8.273,   -3.247,
       -7.816,   -0.145,   -8.045,    1.372,   -4.843,   -3.045,   -2.092,
        4.157,    0.218,    2.994,   -0.677
    },
    {  -0.440,   -0.064,    1.072,   -0.047,    0.312,    0.044,   -0.591,
        0.045,   -0.049,   -0.018,    2.527,    0.015,    0.895,   -0.056,
        0.157,    0.057,   -2.186,    0.050,   -2.949,   -0.006,    0.847,
        0.039,   -0.098,    0.019,   -0.838,    0.036,    2.487,    0.040,
        0.944,    0.069,   -5.954,    1.811,   -5.882,    8.248,   -3.304,
       -7.890,   -0.385,   -7.980,    1.469,   -5.348,   -2.784,   -2.086,
        4.325,    0.150,    3.307,   -0.542
    },
    {  -0.410,    0.016,    1.081,   -0.059,    0.388,   -0.023,   -0.506,
        0.060,    0.043,    0.002,    2.626,   -0.046,    0.895,   -0.085,
        0.204,    0.090,   -2.157,   -0.008,   -2.913,   -0.054,    0.836,
       -0.043,   -0.015,    0.096,   -0.764,    0.042,    2.473,   -0.027,
        0.909,    0.096,   -5.933,    1.864,   -5.621,    8.218,   -3.455,
       -7.838,   -0.529,   -7.572,    1.295,   -5.203,   -2.861,   -1.907,
        4.140,    0.538,    3.256,   -0.932
    },
    {  -0.338,   -0.034,    1.177,   -0.052,    0.393,   -0.018,   -0.353,
       -0.024,    0.038,   -0.035,    2.727,   -0.136,    0.911,   -0.089,
        0.271,    0.070,   -2.227,    0.003,   -2.904,   -0.062,    0.849,
       -0.055,   -0.082,   -0.018,   -0.824,   -0.013,    2.504,    0.009,
        0.847,    0.029,   -6.006,    1.981,   -5.447,    8.128,   -3.196,
       -7.676,    0.053,   -7.666,    1.045,   -5.428,   -2.908,   -1.417,
        4.611,    0.547,    2.943,   -0.782
    },
    {  -0.339,   -0.053,    1.126,   -0.011,    0.439,   -0.028,   -0.451,
       -0.013,    0.008,   -0.070,    2.738,   -0.025,    0.881,   -0.069,
        0.306,    0.028,   -2.222,   -0.088,   -2.838,    0.019,    0.840,
       -0.029,   -0.012,    0.018,   -0.743,   -0.037,    2.420,    0.019,
        0.801,    0.045,   -5.813,    1.955,   -6.039,    8.187,   -2.945,
       -7.711,    0.173,   -7.545,    0.929,   -5.409,   -2.257,   -1.435,
        4.666,    0.739,    2.855,   -1.159
    },
    {  -0.406,    0.010,    1.115,    0.011,    0.420,   -0.023,   -0.409,
       -0.014,    0.078,   -0.073,    2.876,    0.003,    0.889,   -0.093,
        0.277,    0.028,   -2.258,   -0.038,   -2.853,    0.090,    0.779,
        0.001,    0.047,   -0.011,   -0.684,   -0.040,    2.365,   -0.031,
        0.860,    0.039,   -5.794,    1.999,   -6.062,    7.815,   -3.126,
       -7.360,    0.430,   -7.253,    0.889,   -5.723,   -2.337,   -1.807,
        4.704,    0.936,    2.775,   -0.941
    },
    {  -0.469,   -0.057,    1.086,   -0.068,    0.329,    0.007,   -0.445,
       -0.061,   -0.045,   -0.051,    2.821,    0.029,    0.807,   -0.036,
        0.287,   -0.035,   -2.355,    0.002,   -2.890,    0.078,    0.860,
       -0.005,    0.023,   -0.001,   -0.688,   -0.040,    2.438,    0.056,
        0.881,   -0.003,   -5.489,    2.141,   -6.397,    7.637,   -3.209,
       -7.363,    0.381,   -7.378,    0.494,   -5.472,   -2.474,   -2.005,
        4.416,    0.998,    2.793,   -0.908
    },
    {  -0.342,    0.037,    1.105,   -0.016,    0.346,   -0.000,   -0.429,
       -0.043,   -0.004,   -0.055,    2.628,    0.007,    0.854,   -0.065,
        0.119,    0.011,   -2.337,    0.022,   -2.883,    0.034,    0.760,
        0.061,   -0.037,   -0.016,   -0.645,   -0.035,    2.405,    0.059,
        0.738,    0.042,   -5.609,    1.975,   -6.151,    7.889,   -3.232,
       -7.830,   -0.176,   -7.130,    0.533,   -5.501,   -2.778,   -1.918,
        4.681,    1.187,    3.056,   -0.868
    },
    {  -0.343,    0.027,    1.286,   -0.068,    0.469,    0.024,   -0.347,
       -0.053,    0.059,   -0.028,    2.675,    0.003,    0.902,   -0.024,
        0.114,    0.060,   -2.398,   -0.018,   -2.794,   -0.038,    0.843,
       -0.003,   -0.045,   -0.010,   -0.830,   -0.019,    2.548,    0.061,
        0.901,   -0.009,   -5.408,    1.891,   -6.234,    7.813,   -3.973,
       -7.735,    0.516,   -7.350,    0.369,   -5.206,   -2.524,   -1.720,
        4.173,    0.708,    2.945,   -0.961
    },
    {  -0.301,    0.068,    1.281,   -0.011,    0.528,    0.008,   -0.302,
       -0.013,    0.092,   -0.050,    2.732,   -0.016,    0.874,   -0.012,
        0.048,    0.006,   -2.353,   -0.047,   -2.767,   -0.002,    0.856,
       -0.053,   -0.059,    0.006,   -0.783,    0.022,    2.480,    0.018,
        0.846,   -0.009,   -5.325,    1.279,   -6.441,    8.109,   -3.821,
       -7.326,    0.634,   -7.055,    0.240,   -5.215,   -2.387,   -1.596,
        3.944,    0.834,    2.774,   -1.322
    },
    {  -0.366,   -0.033,    1.307,   -0.028,    0.487,    0.024,   -0.257,
       -0.026,    0.008,    0.009,    2.648,    0.021,    0.785,   -0.049,
        0.104,    0.017,   -2.315,   -0.016,   -2.828,   -0.012,    0.868,
        0.016,   -0.134,    0.070,   -0.650,   -0.038,    2.431,    0.037,
        0.761,   -0.018,   -5.347,    1.302,   -6.556,    8.400,   -3.701,
       -7.343,    0.213,   -7.055,   -0.216,   -5.144,   -2.421,   -1.434,
        4.294,    0.887,    2.866,   -1.033
    },
    {  -0.362,    0.018,    1.178,    0.005,    0.383,    0.021,   -0.235,
       -0.014,   -0.005,   -0.033,    2.642,   -0.021,    0.736,   -0.040,
        0.013,   -0.013,   -2.328,    0.046,   -2.925,   -0.027,    0.800,
       -0.027,   -0.033,    0.015,   -0.683,    0.042,    2.454,    0.020,
        0.905,    0.024,   -5.392,    1.598,   -6.333,    8.139,   -3.394,
       -7.516,    0.240,   -7.551,   -0.365,   -5.276,   -2.597,   -1.424,
        4.266,    0.614,    2.750,   -1.134
    },
    {  -0.320,   -0.077,    1.300,    0.077,    0.543,    0.026,   -0.200,
        0.039,    0.023,   -0.071,    2.675,    0.018,    0.903,   -0.060,
        0.101,    0.102,   -2.430,   -0.017,   -2.997,   -0.018,    0.808,
       -0.031,   -0.056,    0.042,   -0.801,   -0.055,    2.357,    0.012,
        0.834,   -0.036,   -5.374,    1.658,   -6.184,    7.768,   -3.501,
       -7.410,    0.576,   -7.296,   -0.250,   -5.056,   -2.633,   -1.571,
        4.237,    0.762,    2.921,   -1.496
    },
    {  -0.253,    0.045,    1.340,   -0.040,    0.672,    0.029,   -0.154,
        0.054,    0.024,    0.023,    2.607,    0.066,    1.021,   -0.091,
        0.101,   -0.033,   -2.426,    0.099,   -2.977,    0.074,    0.752,
        0.018,   -0.043,    0.089,   -0.913,    0.067,    2.356,   -0.026,
        0.853,   -0.112,   -5.262,    1.746,   -6.174,    8.045,   -3.870,
       -7.449,    0.681,   -7.387,    0.102,   -5.255,   -2.509,   -2.068,
        4.125,    0.601,    2.746,   -1.683
    },
    {  -0.238,   -0.017,    1.385,   -0.075,    0.664,    0.019,   -0.130,
        0.071,    0.044,    0.021,    2.617,    0.041,    0.999,   -0.096,
        0.063,   -0.060,   -2.409,    0.121,   -2.983,    0.020,    0.779,
       -0.057,   -0.031,    0.108,   -0.872,    0.035,    2.373,   -0.003,
        0.881,   -0.086,   -4.817,    1.719,   -6.321,    7.744,   -3.727,
       -6.837,    0.782,   -7.768,    0.082,   -4.891,   -2.817,   -1.717,
        3.934,    0.798,    2.830,   -1.611
    },
    {  -0.349,    0.028,    1.384,   -0.084,    0.728,    0.030,   -0.225,
        0.031,    0.008,   -0.013,    2.548,    0.060,    0.863,   -0.018,
        0.040,    0.053,   -2.384,    0.008,   -2.996,    0.075,    0.797,
       -0.039,   -0.025,    0.052,   -0.839,    0.006,    2.423,    0.021,
        0.830,   -0.077,   -4.877,    1.755,   -6.520,    7.814,   -3.583,
       -7.115,    0.899,   -7.939,   -0.447,   -4.576,   -2.848,   -2.217,
        4.249,    0.904,    2.482,   -1.538
    },
    {  -0.391,   -0.031,    1.309,   -0.099,    0.686,   -0.004,   -0.363,
        0.121,   -0.069,   -0.060,    2.602,    0.045,    0.919,   -0.055,
        0.060,    0.032,   -2.392,   -0.065,   -3.042,    0.032,    0.808,
       -0.107,   -0.060,    0.059,   -0.819,    0.002,    2.459,    0.002,
        0.924,   -0.018,   -4.988,    1.941,   -6.191,    8.151,   -3.658,
       -7.057,    0.568,   -7.995,   -0.641,   -4.273,   -2.952,   -2.466,
        3.685,    0.446,    1.990,   -1.292
    },
    {  -0.361,   -0.019,    1.322,    0.017,    0.620,    0.053,   -0.514,
        0.068,    0.002,   -0.035,    2.644,    0.163,    1.052,   -0.083,
       -0.154,   -0.020,   -2.519,   -0.069,   -2.996,   -0.048,    0.832,
       -0.021,    0.049,    0.040,   -0.853,   -0.084,    2.531,   -0.046,
        0.996,    0.083,   -4.956,    1.842,   -5.993,    8.053,   -3.497,
       -7.051,    0.561,   -8.021,   -0.551,   -4.288,   -3.135,   -2.726,
        3.923,    0.241,    2.134,   -1.293
    },
    {  -0.332,    0.002,    1.283,   -0.014,    0.695,    0.036,   -0.549,
        0.026,    0.005,   -0.038,    2.682,    0.044,    0.941,   -0.089,
       -0.108,   -0.001,   -2.580,   -0.087,   -2.962,   -0.067,    0.764,
       -0.010,    0.011,   -0.036,   -0.965,   -0.040,    2.491,   -0.011,
        1.040,   -0.038,   -4.980,    2.000,   -6.270,    8.191,   -3.310,
       -7.071,    0.577,   -8.282,   -0.698,   -4.045,   -3.202,   -2.342,
        3.893,    0.601,    1.749,   -1.105
    },
    {  -0.332,    0.020,    1.416,    0.026,    0.694,   -0.017,   -0.453,
        0.002,   -0.059,   -0.068,    2.680,   -0.032,    0.899,   -0.081,
       -0.039,    0.034,   -2.512,   -0.040,   -2.814,   -0.000,    0.796,
       -0.000,   -0.133,    0.022,   -0.926,   -0.027,    2.548,   -0.027,
        1.065,    0.021,   -5.071,    1.840,   -6.053,    8.832,   -2.982,
       -6.268,    0.604,   -8.135,   -0.311,   -4.160,   -3.121,   -2.249,
        3.973,    0.891,    1.786,   -0.918
    },
    {  -0.228,    0.055,    1.363,   -0.001,    0.632,    0.040,   -0.498,
        0.027,   -0.058,    0.021,    2.709,    0.097,    0.984,   -0.094,
       -0.097,    0.018,   -2.505,    0.038,   -2.822,    0.061,    0.787,
       -0.112,    0.030,    0.009,   -0.975,   -0.059,    2.587,    0.015,
        1.120,   -0.019,   -5.014,    1.845,   -6.356,    8.218,   -2.517,
       -6.032,    0.817,   -7.817,   -0.274,   -3.856,   -2.735,   -2.085,
        4.301,    0.479,    2.064,   -0.942
    },
    {  -0.147,    0.026,    1.339,   -0.087,    0.707,    0.046,   -0.332,
       -0.108,   -0.147,    0.040,    2.676,    0.055,    1.111,    0.060,
       -0.090,   -0.013,   -2.622,    0.064,   -2.929,   -0.076,    0.794,
       -0.114,    0.026,    0.077,   -0.868,    0.060,    2.397,    0.072,
        1.038,   -0.029,   -4.905,    1.925,   -6.317,    8.465,   -2.623,
       -6.143,    0.953,   -8.413,   -0.278,   -3.661,   -2.533,   -2.447,
        3.586,    0.242,    1.889,   -0.592
    },
    {  -0.165,    0.016,    1.368,   -0.166,    0.669,    0.018,   -0.352,
       -0.228,   -0.164,    0.093,    2.638,   -0.038,    1.128,    0.035,
       -0.001,   -0.004,   -2.605,    0.004,   -2.869,   -0.010,    0.825,
       -0.099,    0.095,    0.077,   -0.847,    0.027,    2.444,    0.167,
        1.020,   -0.116,   -5.159,    2.253,   -6.669,    8.272,   -2.438,
       -6.286,    1.290,   -8.024,    0.040,   -3.670,   -2.358,   -2.235,
        3.188,   -0.069,    2.147,   -0.820
    },
    {  -0.134,    0.031,    1.452,   -0.100,    0.586,    0.036,   -0.325,
       -0.203,   -0.130,    0.074,    2.675,   -0.092,    1.121,    0.070,
       -0.041,   -0.010,   -2.657,   -0.010,   -2.794,   -0.097,    0.826,
       -0.191,    0.100,    0.101,   -0.844,    0.071,    2.497,    0.079,
        1.267,   -0.036,   -4.638,    1.854,   -6.112,    8.248,   -2.334,
       -6.363,    1.434,   -8.069,    0.521,   -3.681,   -2.412,   -2.074,
        3.076,    0.422,    2.100,   -0.921
    },
    {  -0.205,    0.093,    1.420,   -0.096,    0.567,    0.033,   -0.369,
       -0.113,   -0.210,    0.024,    2.630,   -0.015,    1.107,    0.204,
       -0.056,   -0.049,   -2.562,    0.038,   -2.812,   -0.043,    0.836,
       -0.087,    0.108,    0.147,   -0.846,    0.095,    2.491,    0.110,
        1.113,   -0.080,   -4.752,    1.814,   -5.756,    8.221,   -2.628,
       -6.482,    0.949,   -8.096,    0.587,   -3.673,   -2.404,   -2.498,
        2.777,    0.051,    1.817,   -0.902
    },
    {  -0.293,    0.055,    1.439,   -0.099,    0.434,    0.012,   -0.340,
       -0.001,   -0.203,   -0.033,    2.565,    0.059,    1.204,    0.050,
        0.081,   -0.017,   -2.592,    0.080,   -2.935,   -0.079,    0.810,
       -0.031,    0.163,    0.087,   -0.830,    0.062,    2.520,    0.086,
        1.091,   -0.053,   -4.654,    2.049,   -5.748,    8.000,   -2.395,
       -6.289,    0.842,   -8.120,    0.569,   -3.989,   -2.473,   -2.445,
        3.222,   -0.537,    2.097,   -0.558
    },
    {  -0.273,    0.074,    1.410,   -0.128,    0.474,    0.025,   -0.421,
        0.009,   -0.128,   -0.097,    2.653,    0.048,    1.223,    0.087,
        0.131,   -0.009,   -2.622,    0.096,   -2.804,   -0.160,    0.674,
       -0.061,    0.236,   -0.085,   -0.757,    0.037,    2.568,   -0.058,
        1.100,    0.005,   -4.780,    2.076,   -5.875,    8.282,   -2.531,
       -6.343,    0.900,   -8.188,    0.539,   -3.843,   -2.533,   -2.363,
        2.967,   -0.649,    1.960,   -0.876
    },
    {  -0.310,    0.042,    1.393,   -0.098,    0.353,    0.010,   -0.536,
        0.026,   -0.119,   -0.080,    2.500,   -0.038,    1.166,    0.058,
        0.225,    0.105,   -2.624,   -0.029,   -2.807,   -0.177,    0.477,
       -0.099,    0.332,   -0.061,   -0.677,   -0.038,    2.555,   -0.041,
        1.098,    0.033,   -4.566,    2.176,   -5.683,    7.838,   -2.688,
       -6.319,    1.126,   -8.067,    0.505,   -4.171,   -1.980,   -2.702,
        2.944,   -0.576,    2.152,   -1.363
    },
    {  -0.330,    0.066,    1.632,   -0.143,    0.452,    0.008,   -0.597,
        0.211,   -0.149,   -0.082,    2.386,   -0.144,    1.191,   -0.065,
        0.356,    0.038,   -2.586,   -0.075,   -2.536,   -0.174,    0.433,
       -0.062,    0.369,   -0.039,   -0.761,   -0.030,    2.599,   -0.041,
        1.124,    0.038,   -4.922,    2.526,   -5.811,    8.051,   -2.416,
       -6.958,    0.500,   -7.692,    0.756,   -4.313,   -1.628,   -2.785,
        3.053,   -0.520,    2.274,   -1.317
    },
    {  -0.421,    0.081,    1.664,   -0.143,    0.457,    0.006,   -0.513,
        0.306,   -0.171,   -0.106,    2.326,   -0.078,    1.235,   -0.075,
        0.256,    0.024,   -2.727,   -0.103,   -2.598,    0.003,    0.495,
       -0.050,    0.477,   -0.035,   -0.719,   -0.107,    2.586,   -0.061,
        1.065,    0.016,   -4.521,    2.718,   -5.908,    8.268,   -2.361,
       -6.613,    1.149,   -8.127,    0.874,   -3.691,   -1.807,   -2.426,
        3.149,   -0.662,    2.306,   -1.538
    },
    {  -0.382,    0.059,    1.603,   -0.130,    0.435,    0.054,   -0.545,
        0.128,   -0.202,   -0.036,    2.392,   -0.103,    1.180,   -0.070,
        0.250,    0.005,   -2.700,   -0.167,   -2.666,    0.076,    0.542,
        0.001,    0.331,   -0.021,   -0.808,   -0.101,    2.502,   -0.090,
        0.928,    0.121,   -4.748,    3.052,   -5.715,    8.581,   -2.569,
       -6.536,    0.952,   -8.604,    0.814,   -3.858,   -2.013,   -2.341,
        3.391,   -0.816,    2.183,   -1.643
    },
    {  -0.300,    0.028,    1.608,   -0.064,    0.391,    0.027,   -0.554,
        0.092,   -0.246,   -0.031,    2.403,    0.018,    1.219,   -0.111,
        0.254,    0.018,   -2.639,   -0.162,   -2.565,    0.213,    0.595,
       -0.043,    0.387,    0.002,   -0.810,   -0.089,    2.501,   -0.047,
        0.909,    0.132,   -4.678,    3.338,   -5.235,    8.359,   -3.073,
       -6.254,    1.344,   -9.072,    0.556,   -3.976,   -1.707,   -2.411,
        2.984,   -0.136,    2.246,   -1.289
    },
    {  -0.322,   -0.090,    1.560,   -0.060,    0.403,    0.020,   -0.582,
        0.067,   -0.219,   -0.080,    2.328,    0.038,    1.075,   -0.114,
        0.306,   -0.031,   -2.606,   -0.020,   -2.700,    0.098,    0.523,
       -0.037,    0.298,   -0.046,   -0.897,   -0.065,    2.388,   -0.100,
        0.910,    0.032,   -4.756,    3.391,   -5.213,    8.162,   -3.114,
       -6.870,    1.318,   -9.307,    0.326,   -3.995,   -2.108,   -2.546,
        3.142,   -0.318,    1.735,   -1.387
    },
    {  -0.428,    0.018,    1.614,   -0.124,    0.303,    0.057,   -0.668,
       -0.113,   -0.338,   -0.018,    2.411,   -0.036,    0.984,    0.053,
        0.237,   -0.043,   -2.854,   -0.036,   -2.477,    0.013,    0.532,
        0.060,    0.295,    0.100,   -0.580,    0.024,    2.589,    0.022,
        0.799,    0.212,   -5.280,    3.482,   -5.165,    8.202,   -3.158,
       -6.554,    1.405,   -9.074,    0.412,   -3.849,   -2.586,   -2.451,
        3.089,   -0.045,    1.620,   -1.415
    },
    {  -0.376,    0.053,    1.574,   -0.139,    0.227,    0.082,   -0.642,
       -0.088,   -0.382,    0.039,    2.366,   -0.118,    0.936,    0.065,
        0.270,   -0.075,   -2.872,   -0.028,   -2.454,    0.052,    0.581,
        0.104,    0.312,    0.148,   -0.561,    0.034,    2.612,    0.228,
        0.733,    0.203,   -4.884,    3.650,   -5.301,    8.042,   -3.400,
       -7.039,    1.216,   -9.058,    0.566,   -3.670,   -2.459,   -2.338,
        3.455,    0.025,    1.188,   -1.107
    },
    {  -0.424,   -0.016,    1.641,   -0.209,    0.197,    0.069,   -0.680,
       -0.019,   -0.427,    0.045,    2.403,   -0.126,    0.864,   -0.021,
        0.280,   -0.055,   -2.789,    0.033,   -2.450,    0.085,    0.646,
        0.015,    0.242,    0.067,   -0.482,    0.004,    2.406,    0.199,
        0.795,    0.061,   -5.328,    3.846,   -5.643,    8.241,   -2.868,
       -6.715,    1.549,   -8.896,    0.567,   -4.120,   -2.721,   -2.026,
        3.187,   -0.388,    1.238,   -1.292
    },
    {  -0.328,    0.066,    1.716,   -0.101,    0.117,    0.023,   -0.632,
        0.011,   -0.403,    0.021,    2.471,   -0.054,    0.828,   -0.094,
        0.305,   -0.010,   -2.713,    0.127,   -2.390,    0.174,    0.596,
       -0.038,    0.288,   -0.066,   -0.531,    0.041,    2.442,    0.134,
        0.885,    0.013,   -5.049,    3.800,   -5.702,    8.433,   -2.644,
       -6.751,    1.720,   -9.078,    0.802,   -3.840,   -2.923,   -2.253,
        3.156,   -0.723,    1.387,   -1.485
    },
    {  -0.471,    0.005,    1.674,   -0.040,    0.056,    0.033,   -0.727,
        0.025,   -0.299,   -0.033,    2.520,   -0.085,    0.840,   -0.083,
        0.236,   -0.023,   -2.827,    0.055,   -2.300,    0.043,    0.612,
        0.040,    0.290,   -0.012,   -0.442,    0.051,    2.523,    0.058,
        0.863,    0.090,   -4.494,    3.289,   -5.425,    8.454,   -2.869,
       -6.354,    1.484,   -8.878,    0.646,   -4.204,   -2.876,   -2.074,
        3.025,   -0.429,    1.569,   -1.111
    },
    {  -0.404,   -0.051,    1.716,    0.048,    0.152,    0.004,   -0.608,
       -0.066,   -0.320,   -0.036,    2.574,   -0.038,    0.790,   -0.108,
        0.185,   -0.034,   -2.778,    0.086,   -2.235,    0.013,    0.582,
        0.015,    0.421,   -0.038,   -0.477,    0.015,    2.485,   -0.045,
        0.837,   -0.038,   -4.851,    3.388,   -5.659,    8.815,   -2.675,
       -6.252,    1.114,   -8.826,    0.497,   -4.227,   -2.766,   -2.131,
        3.220,   -0.332,    1.319,   -1.192
    },
    {  -0.520,   -0.034,    1.717,    0.042,    0.144,    0.009,   -0.586,
       -0.015,   -0.356,   -0.005,    2.601,   -0.081,    0.765,   -0.125,
        0.311,    0.013,   -2.772,    0.080,   -2.166,   -0.031,    0.610,
        0.026,    0.420,   -0.002,   -0.494,    0.020,    2.549,   -0.045,
        0.728,    0.036,   -4.444,    3.439,   -5.536,    8.633,   -2.800,
       -6.503,    1.191,   -8.876,    0.472,   -4.234,   -2.685,   -2.261,
        2.973,    0.114,    0.907,   -1.100
    },
    {  -0.620,    0.008,    1.816,   -0.014,    0.086,   -0.007,   -0.686,
       -0.018,   -0.496,   -0.032,    2.674,   -0.036,    0.693,   -0.067,
        0.244,   -0.031,   -2.700,   -0.061,   -2.084,    0.051,    0.487,
       -0.029,    0.254,    0.023,   -0.309,   -0.010,    2.414,   -0.012,
        0.782,   -0.004,   -4.625,    2.993,   -5.359,    8.496,   -2.938,
       -6.460,    1.442,   -9.208,   -0.103,   -4.190,   -2.791,   -2.260,
        3.059,   -0.188,    0.410,   -1.088
    },
    {  -0.586,    0.014,    1.799,   -0.005,    0.165,    0.060,   -0.716,
       -0.009,   -0.497,   -0.008,    2.568,   -0.011,    0.831,   -0.027,
        0.243,   -0.033,   -2.779,   -0.007,   -2.118,   -0.021,    0.393,
        0.030,    0.275,    0.025,   -0.334,    0.019,    2.478,    0.003,
        0.849,   -0.009,   -5.181,    2.963,   -5.636,    8.422,   -3.039,
       -6.081,    1.434,   -9.247,   -0.576,   -4.316,   -2.702,   -2.192,
        3.233,   -0.267,    0.724,   -0.618
    },
    {  -0.513,    0.025,    1.802,   -0.010,    0.197,    0.062,   -0.803,
       -0.015,   -0.462,   -0.026,    2.469,   -0.028,    0.891,   -0.018,
        0.316,   -0.024,   -2.868,    0.013,   -2.010,   -0.007,    0.471,
        0.083,    0.244,    0.041,   -0.308,    0.013,    2.406,   -0.009,
        0.788,    0.033,   -5.054,    2.884,   -5.324,    8.126,   -2.705,
       -5.619,    1.534,   -9.494,   -0.755,   -4.245,   -2.935,   -1.821,
        3.375,   -0.175,    0.805,   -0.905
    },
    {  -0.607,    0.001,    1.913,    0.007,    0.207,    0.023,   -0.647,
       -0.046,   -0.545,   -0.003,    2.557,    0.007,    0.887,   -0.052,
        0.220,    0.001,   -2.727,    0.005,   -2.085,    0.015,    0.308,
       -0.045,    0.261,    0.039,   -0.470,    0.009,    2.417,    0.036,
        0.717,   -0.038,   -4.891,    2.553,   -5.012,    8.120,   -2.442,
       -5.464,    1.548,   -9.281,   -0.944,   -4.097,   -3.063,   -1.828,
        3.189,   -0.153,    0.059,   -0.960
    },
    {  -0.602,    0.015,    1.862,    0.073,    0.193,    0.012,   -0.628,
        0.062,   -0.487,   -0.116,    2.480,    0.035,    0.946,   -0.112,
        0.364,    0.121,   -2.837,   -0.063,   -1.986,    0.063,    0.320,
        0.040,    0.270,   -0.047,   -0.518,   -0.048,    2.390,    0.077,
        0.836,   -0.045,   -4.926,    2.201,   -5.142,    8.379,   -2.672,
       -5.582,    1.633,   -9.266,   -0.993,   -4.467,   -3.026,   -2.271,
        3.266,   -0.284,    0.173,   -0.847
    },
    {  -0.662,   -0.014,    1.868,    0.044,    0.199,    0.032,   -0.490,
        0.056,   -0.549,   -0.060,    2.438,    0.020,    0.828,   -0.084,
        0.387,    0.085,   -2.851,   -0.025,   -2.001,    0.007,    0.390,
        0.036,    0.231,   -0.022,   -0.486,   -0.050,    2.367,    0.039,
        0.806,   -0.097,   -4.830,    2.067,   -5.078,    8.803,   -2.457,
       -5.506,    1.544,   -9.384,   -0.741,   -4.092,   -2.987,   -2.053,
        3.268,   -0.484,    0.102,   -0.824
    },
    {  -0.605,   -0.073,    1.944,    0.023,    0.204,    0.055,   -0.574,
        0.058,   -0.696,   -0.055,    2.439,    0.087,    0.917,   -0.033,
        0.343,   -0.004,   -2.800,   -0.024,   -2.203,   -0.008,    0.530,
       -0.002,    0.183,    0.005,   -0.426,    0.017,    2.422,    0.151,
        0.788,   -0.148,   -4.844,    1.963,   -5.130,    8.458,   -2.509,
       -5.826,    1.688,   -9.664,   -0.490,   -4.005,   -2.892,   -2.075,
        3.203,   -0.406,    0.156,   -0.821
    },
    {  -0.680,    0.035,    1.926,    0.080,    0.160,    0.030,   -0.730,
        0.007,   -0.778,   -0.019,    2.350,    0.129,    0.884,   -0.049,
        0.246,    0.033,   -2.912,    0.058,   -2.327,   -0.007,    0.540,
       -0.070,    0.127,    0.019,   -0.393,    0.078,    2.372,    0.095,
        0.665,   -0.240,   -4.755,    1.667,   -5.235,    8.275,   -2.307,
       -5.829,    1.838,   -9.760,   -0.830,   -3.907,   -2.813,   -2.051,
        3.538,   -0.349,   -0.205,   -0.552
    },
    {  -0.575,    0.067,    1.882,    0.088,    0.186,    0.010,   -0.618,
        0.062,   -0.727,   -0.031,    2.334,    0.020,    0.936,   -0.087,
        0.194,    0.016,   -2.841,    0.065,   -2.261,    0.089,    0.593,
       -0.044,    0.211,    0.002,   -0.440,   -0.020,    2.304,    0.114,
        0.710,   -0.135,   -4.365,    1.730,   -5.482,    8.680,   -2.215,
       -5.487,    2.185,  -10.225,   -0.575,   -4.267,   -2.818,   -2.283,
        3.637,   -0.137,   -0.332,   -0.314
    },
    {  -0.578,    0.094,    1.812,    0.031,    0.166,    0.075,   -0.635,
        0.103,   -0.748,    0.054,    2.371,    0.039,    0.933,   -0.085,
        0.195,    0.072,   -2.957,    0.049,   -2.253,    0.007,    0.586,
       -0.071,    0.181,   -0.063,   -0.328,   -0.011,    2.307,    0.084,
        0.754,   -0.110,   -4.239,    1.729,   -5.844,    8.918,   -2.144,
       -5.402,    2.450,  -10.197,   -0.754,   -4.258,   -2.819,   -2.153,
        3.621,   -0.232,   -0.241,   -0.335
    },
    {  -0.720,    0.101,    1.959,    0.013,    0.127,    0.081,   -0.657,
        0.108,   -0.786,    0.031,    2.271,   -0.004,    1.022,   -0.089,
        0.260,   -0.001,   -2.730,    0.058,   -2.324,    0.012,    0.552,
       -0.046,    0.363,   -0.084,   -0.420,    0.019,    2.274,    0.022,
        0.731,   -0.109,   -4.069,    1.743,   -5.700,    8.991,   -2.104,
       -5.522,    2.337,  -10.199,   -0.557,   -4.439,   -2.795,   -2.126,
        3.626,   -0.152,   -0.503,   -0.438
    },
    {  -0.680,    0.055,    2.001,    0.037,    0.146,    0.081,   -0.599,
        0.216,   -0.834,   -0.049,    2.247,    0.020,    1.067,   -0.129,
        0.331,   -0.076,   -2.811,    0.042,   -2.392,    0.165,    0.651,
       -0.038,    0.302,   -0.094,   -0.355,   -0.079,    2.319,    0.062,
        0.735,   -0.018,   -4.030,    1.277,   -5.484,    9.024,   -2.437,
       -5.467,    1.866,   -9.695,   -0.825,   -4.325,   -2.411,   -1.877,
        3.945,    0.137,   -0.546,   -0.116
    },
    {  -0.719,    0.081,    1.963,    0.033,    0.148,    0.020,   -0.686,
        0.041,   -0.740,   -0.147,    2.276,   -0.004,    1.082,   -0.146,
        0.431,   -0.055,   -2.812,    0.018,   -2.295,   -0.020,    0.551,
        0.047,    0.413,   -0.126,   -0.322,    0.150,    2.368,   -0.085,
        0.688,   -0.044,   -4.249,    0.829,   -5.221,    8.718,   -1.911,
       -5.265,    1.429,   -9.482,   -1.021,   -4.159,   -2.758,   -1.494,
        3.754,   -0.237,   -0.896,    0.195
    },
    {  -0.718,    0.063,    1.959,    0.017,    0.115,   -0.033,   -0.592,
       -0.023,   -0.696,   -0.187,    2.282,    0.010,    1.090,   -0.121,
        0.495,   -0.077,   -2.872,    0.009,   -2.219,    0.000,    0.513,
        0.022,    0.465,   -0.030,   -0.265,    0.101,    2.324,   -0.055,
        0.570,   -0.037,   -4.111,    1.295,   -5.426,    8.851,   -2.041,
       -5.227,    1.421,   -9.322,   -0.831,   -4.351,   -2.908,   -1.260,
        3.769,    0.009,   -0.813,    0.421
    },
    {  -0.728,    0.069,    1.954,   -0.026,    0.086,    0.029,   -0.616,
       -0.029,   -0.692,   -0.024,    2.476,    0.001,    1.054,   -0.067,
        0.627,   -0.042,   -2.743,   -0.036,   -2.253,    0.025,    0.549,
       -0.039,    0.443,   -0.015,   -0.447,    0.063,    2.414,   -0.011,
        0.541,   -0.020,   -3.634,    1.289,   -5.332,    9.118,   -1.997,
       -5.505,    1.466,   -9.260,   -0.615,   -4.243,   -2.452,   -1.622,
        4.226,   -0.431,   -1.080,    0.139
    },
    {  -0.906,   -0.013,    1.856,    0.036,    0.195,    0.024,   -0.554,
       -0.062,   -0.547,   -0.008,    2.526,   -0.070,    0.974,   -0.057,
        0.574,   -0.022,   -2.684,   -0.017,   -2.210,    0.060,    0.477,
       -0.047,    0.370,    0.019,   -0.332,   -0.041,    2.422,   -0.021,
        0.486,    0.034,   -3.924,    0.659,   -5.046,    8.751,   -1.746,
       -5.268,    1.193,   -8.910,   -1.080,   -4.274,   -2.425,   -2.160,
        4.240,   -0.482,   -0.995,    0.059
    },
    {  -0.769,   -0.066,    1.849,    0.060,    0.170,    0.007,   -0.579,
       -0.096,   -0.631,   -0.019,    2.600,   -0.071,    1.006,   -0.081,
        0.705,   -0.009,   -2.743,   -0.004,   -2.236,   -0.022,    0.536,
       -0.025,    0.349,    0.035,   -0.294,    0.007,    2.509,   -0.046,
        0.368,    0.006,   -4.031,    1.171,   -5.035,    8.617,   -2.259,
       -5.291,    1.169,   -8.861,   -0.830,   -4.236,   -2.731,   -2.139,
        4.216,   -0.239,   -1.009,    0.039
    },
    {  -0.860,    0.037,    1.923,    0.029,    0.289,    0.050,   -0.493,
       -0.120,   -0.600,    0.056,    2.583,   -0.105,    1.039,   -0.090,
        0.702,   -0.067,   -2.863,   -0.057,   -2.208,    0.034,    0.676,
        0.017,    0.396,    0.011,   -0.354,   -0.070,    2.438,    0.038,
        0.296,    0.037,   -4.076,    0.984,   -5.116,    8.836,   -1.590,
       -4.994,    1.192,   -8.772,   -0.446,   -3.976,   -2.703,   -2.018,
        4.242,   -0.063,   -1.038,   -0.003
    },
    {  -0.991,    0.061,    1.985,   -0.010,    0.269,    0.005,   -0.455,
       -0.048,   -0.633,    0.028,    2.656,    0.011,    1.038,   -0.093,
        0.733,   -0.028,   -2.980,   -0.183,   -2.307,    0.032,    0.711,
       -0.093,    0.388,    0.041,   -0.347,   -0.125,    2.432,   -0.002,
        0.312,    0.035,   -3.794,    1.298,   -4.826,    8.826,   -1.498,
       -4.833,    1.359,   -9.022,   -0.498,   -3.879,   -2.722,   -1.820,
        4.288,    0.118,   -0.900,   -0.078
    },
    {  -0.880,    0.120,    1.914,   -0.068,    0.278,    0.020,   -0.484,
       -0.040,   -0.628,    0.132,    2.723,    0.074,    1.029,   -0.115,
        0.745,   -0.109,   -2.968,   -0.205,   -2.279,    0.038,    0.710,
       -0.076,    0.298,    0.070,   -0.352,   -0.123,    2.332,   -0.008,
        0.241,    0.038,   -3.656,    1.564,   -4.985,    8.473,   -1.109,
       -4.838,    1.707,   -9.094,   -0.089,   -4.029,   -2.673,   -1.742,
        4.647,   -0.083,   -1.247,   -0.147
    },
    {  -0.945,    0.149,    1.786,   -0.095,    0.187,   -0.018,   -0.466,
       -0.059,   -0.590,    0.077,    2.755,    0.082,    1.042,   -0.085,
        0.727,   -0.134,   -2.987,   -0.074,   -2.320,    0.057,    0.718,
       -0.104,    0.255,    0.086,   -0.338,   -0.044,    2.368,   -0.044,
        0.222,    0.002,   -3.662,    1.715,   -5.337,    8.210,   -1.556,
       -5.145,    1.845,   -8.658,    0.216,   -4.436,   -3.015,   -2.168,
        5.123,   -0.261,   -1.182,   -0.399
    },
    {  -0.996,    0.104,    1.863,   -0.032,    0.134,    0.002,   -0.491,
       -0.069,   -0.532,    0.019,    2.841,    0.057,    0.998,   -0.093,
        0.698,   -0.072,   -3.002,   -0.073,   -2.301,    0.045,    0.607,
       -0.094,    0.325,    0.007,   -0.392,   -0.012,    2.405,   -0.042,
        0.172,    0.003,   -3.629,    2.101,   -5.002,    8.343,   -1.163,
       -5.232,    1.973,   -8.746,    0.076,   -4.720,   -2.937,   -2.382,
        4.994,   -0.172,   -1.098,   -0.605
    },
    {  -0.963,   -0.012,    1.796,   -0.071,    0.136,    0.049,   -0.453,
        0.028,   -0.543,   -0.080,    2.849,    0.080,    1.052,   -0.074,
        0.683,    0.004,   -2.935,    0.006,   -2.305,    0.053,    0.562,
       -0.040,    0.409,   -0.071,   -0.343,   -0.074,    2.405,   -0.030,
        0.155,   -0.004,   -3.429,    1.833,   -5.045,    8.510,   -1.144,
       -5.290,    1.810,   -9.043,    0.066,   -4.619,   -2.829,   -2.582,
        5.293,   -0.263,   -1.279,   -0.688
    }
  };


  double netfun(std::vector<double>& in, const double* w)
  {
    double x00 = in[0];
    double x;

    //Layer 1, Node 0
    x = w[0];
    x = x + w[1] * x00;
    double x10 = tanh(x);

    //Layer 1, Node 1
    x = w[2];
    x = x + w[3] * x00;
    double x11 = tanh(x);

    //Layer 1, Node 2
    x = w[4];
    x = x + w[5] * x00;
    double x12 = tanh(x);

    //Layer 1, Node 3
    x = w[6];
    x = x + w[7] * x00;
    double x13 = tanh(x);

    //Layer 1, Node 4
    x = w[8];
    x = x + w[9] * x00;
    double x14 = tanh(x);

    //Layer 1, Node 5
    x = w[10];
    x = x + w[11] * x00;
    double x15 = tanh(x);

    //Layer 1, Node 6
    x = w[12];
    x = x + w[13] * x00;
    double x16 = tanh(x);

    //Layer 1, Node 7
    x = w[14];
    x = x + w[15] * x00;
    double x17 = tanh(x);

    //Layer 1, Node 8
    x = w[16];
    x = x + w[17] * x00;
    double x18 = tanh(x);

    //Layer 1, Node 9
    x = w[18];
    x = x + w[19] * x00;
    double x19 = tanh(x);

    //Layer 1, Node 10
    x = w[20];
    x = x + w[21] * x00;
    double x110 = tanh(x);

    //Layer 1, Node 11
    x = w[22];
    x = x + w[23] * x00;
    double x111 = tanh(x);

    //Layer 1, Node 12
    x = w[24];
    x = x + w[25] * x00;
    double x112 = tanh(x);

    //Layer 1, Node 13
    x = w[26];
    x = x + w[27] * x00;
    double x113 = tanh(x);

    //Layer 1, Node 14
    x = w[28];
    x = x + w[29] * x00;
    double x114 = tanh(x);

    //Layer 2, Node 0
    x = w[30];
    x = x + w[31] * x10;
    x = x + w[32] * x11;
    x = x + w[33] * x12;
    x = x + w[34] * x13;
    x = x + w[35] * x14;
    x = x + w[36] * x15;
    x = x + w[37] * x16;
    x = x + w[38] * x17;
    x = x + w[39] * x18;
    x = x + w[40] * x19;
    x = x + w[41] * x110;
    x = x + w[42] * x111;
    x = x + w[43] * x112;
    x = x + w[44] * x113;
    x = x + w[45] * x114;
    double x20 = 1.0/(1.0+exp(-x));
    return x20;
  }
}; // End anonymous namespace

//-----------------------------------------------------------------------------
// Compute average over networks. Default is to use all networks
//-----------------------------------------------------------------------------

double HT300_MHT90_v2_HT300_v9_173212_176544_sel2(std::vector<double>& inputvars,
                                                  int first=0,
                                                  int last=nnetworks-1)
{
  if ( first < 0 ) first = 0;
  if ( last  < 0 ) last  = nnetworks-1;
  if ( last  > nnetworks-1 ) last = nnetworks-1;
  if ( first > last )
    {
      std::cerr << "** HT300_MHT90_v2_HT300_v9_173212_176544_sel2 ** first-index > last-index"
                << std::endl; exit(3);
    }

  // Compute average over networks
  std::vector<double> in(ninputs);
  in[0] = (inputvars[0] - mean[0]) / sigma[0];

  int   n = last - first + 1;
  double x = 0.0;
  for(int i=first; i <= last; i++) x += netfun(in, weight[i]);
  return x / n;
}

extern "C" double HT300_MHT90_v2_HT300_v9_173212_176544_sel2_dl(std::vector<double>& in,
                                                                int first=0,
                                                                int last=nnetworks-1)
{
  return HT300_MHT90_v2_HT300_v9_173212_176544_sel2(in, first, last);
}

extern "C" double HT300_MHT90_v2_HT300_v9_173212_176544_sel2_dl2(double* in,
                                                                 int first=0,
                                                                 int last=nnetworks-1)
{
  std::vector<double> invec;

  invec.push_back(in[0]);

  return HT300_MHT90_v2_HT300_v9_173212_176544_sel2(invec, first, last);
}
