//-----------------------------------------------------------------------------
// Network: HT300MHT90elNew
// Inputs:
//                                                  Offset       Scale
//    offlinevar                                 8.148e+01   6.988e+01
//
// Created: Wed Feb  8 08:37:07 2012
//-----------------------------------------------------------------------------
#include <cmath>
#include <vector>
#include <iostream>
#include <stdlib.h>
//-----------------------------------------------------------------------------
// Make following visible only to this programming unit
namespace {
  // NOTE: Network indices start at 0
  static const int nnetworks=100;
  static const int ninputs  =1;
  static const int nhidden  =15;
  static const int nparams  =46;

  static const double mean[ninputs]={
  8.14800e+01
  };

  static const double sigma[ninputs]={
  6.98800e+01
  };

  static const double weight[nnetworks][nparams]={
    {   0.400,    0.865,   -0.005,   -0.330,   -0.046,    0.217,    0.187,
        0.802,    0.107,    0.616,   -0.049,   -0.407,    0.161,   -0.317,
       -0.031,    0.762,   -0.096,    0.258,   -0.206,   -0.066,    0.197,
       -0.520,    0.484,    0.636,   -0.085,    0.094,    0.183,    0.837,
       -0.045,   -0.773,    4.399,    2.485,   -0.075,   11.324,   -1.659,
       -3.621,   -2.501,   -7.847,   -1.991,   -5.208,    4.376,   -5.169,
       -4.233,    2.566,   -1.442,   -2.140
    },
    {   0.309,    0.730,    0.087,   -0.140,   -0.118,    0.340,    0.215,
        0.786,   -0.002,    0.662,   -0.140,   -0.381,    0.092,   -0.332,
        0.003,    0.843,   -0.187,    0.449,   -0.235,   -0.052,    0.099,
       -0.672,    0.456,    0.720,   -0.180,    0.061,   -0.071,    0.930,
        0.022,   -0.844,    3.611,    1.946,   -0.333,    9.792,   -2.002,
       -4.108,   -2.042,   -9.128,   -1.426,   -5.517,    4.386,   -5.120,
       -4.027,    2.649,   -1.069,   -2.220
    },
    {   0.111,    0.746,   -0.013,   -0.344,   -0.106,    0.431,    0.152,
        0.701,   -0.011,    0.459,   -0.096,   -0.421,    0.208,   -0.153,
       -0.025,    0.807,   -0.202,    0.428,   -0.120,   -0.298,    0.100,
       -0.737,    0.376,    0.702,   -0.091,   -0.002,   -0.164,    0.960,
        0.052,   -0.663,    3.779,    1.907,   -1.087,    9.432,   -3.138,
       -3.726,   -2.067,   -9.339,   -0.548,   -5.787,    5.221,   -5.384,
       -3.382,    2.146,   -0.542,   -2.487
    },
    {  -0.029,    0.723,   -0.101,   -0.341,   -0.127,    0.391,    0.039,
        0.342,   -0.134,    0.467,   -0.139,   -0.343,    0.227,   -0.204,
        0.057,    0.724,   -0.048,    0.258,   -0.116,   -0.479,    0.052,
       -0.651,    0.360,    0.623,   -0.123,    0.034,    0.010,    0.933,
        0.126,   -0.762,    4.333,    2.494,   -0.224,    9.546,   -3.812,
       -3.938,   -1.996,  -10.162,    0.049,   -5.526,    5.131,   -4.486,
       -2.989,    1.859,   -1.079,   -1.490
    },
    {   0.088,    0.724,   -0.040,   -0.292,   -0.132,    0.368,    0.139,
        0.330,   -0.082,    0.411,   -0.206,   -0.235,    0.232,   -0.248,
        0.056,    0.532,   -0.112,    0.327,   -0.148,   -0.703,    0.107,
       -0.508,    0.124,    0.603,   -0.033,   -0.086,   -0.158,    0.800,
        0.092,   -0.698,    3.737,    2.539,   -0.793,   10.635,   -2.765,
       -3.457,   -1.074,   -9.349,    0.794,   -5.873,    4.021,   -5.028,
       -4.687,    2.957,   -0.357,   -1.990
    },
    {  -0.212,    0.428,   -0.043,   -0.393,   -0.068,    0.232,    0.369,
        0.211,    0.088,    0.319,   -0.048,   -0.165,    0.163,   -0.272,
       -0.090,    0.449,    0.046,    0.017,    0.124,   -0.740,    0.082,
       -0.735,    0.046,    0.622,   -0.160,    0.085,    0.237,    0.799,
        0.255,   -0.701,    5.621,    3.273,   -0.477,   10.293,   -3.197,
       -3.712,   -1.171,   -9.175,   -0.704,   -6.265,    4.649,   -4.761,
       -4.133,    1.922,   -2.456,   -3.435
    },
    {  -0.264,    0.301,    0.005,   -0.373,   -0.104,    0.214,    0.124,
        0.194,    0.121,    0.200,   -0.098,   -0.313,    0.211,   -0.219,
       -0.055,    0.533,    0.015,    0.124,    0.156,   -0.928,    0.054,
       -0.934,   -0.162,    0.564,   -0.050,    0.359,    0.284,    0.886,
        0.112,   -0.797,    4.543,    3.658,   -1.067,   10.829,   -3.418,
       -4.245,   -0.802,   -9.309,   -0.192,   -6.013,    4.412,   -4.516,
       -4.127,    2.648,   -2.825,   -3.020
    },
    {  -0.124,    0.390,    0.074,   -0.211,   -0.196,    0.198,    0.112,
        0.173,    0.169,    0.237,   -0.086,    0.020,    0.302,   -0.316,
       -0.175,    0.619,   -0.062,    0.184,    0.205,   -0.842,    0.047,
       -0.909,   -0.184,    0.547,    0.015,    0.401,    0.403,    0.784,
        0.147,   -0.882,    4.960,    3.600,   -0.757,   10.631,   -3.708,
       -3.925,   -0.797,   -8.666,   -0.832,   -5.959,    4.756,   -4.596,
       -4.072,    2.527,   -2.765,   -2.754
    },
    {  -0.067,    0.131,    0.202,   -0.249,   -0.145,    0.224,    0.103,
       -0.010,    0.162,    0.286,   -0.109,   -0.143,    0.471,   -0.445,
       -0.238,    0.565,   -0.054,   -0.104,    0.274,   -0.544,    0.034,
       -0.618,   -0.170,    0.652,    0.147,    0.066,    0.703,    0.826,
        0.176,   -0.632,    5.280,    4.246,   -0.219,    9.951,   -4.526,
       -4.377,   -1.708,   -9.229,   -1.751,   -6.427,    4.000,   -3.637,
       -4.086,    1.501,   -2.301,   -1.849
    },
    {  -0.258,    0.114,    0.007,   -0.474,    0.097,    0.581,    0.118,
        0.010,    0.137,    0.527,   -0.225,   -0.248,    0.595,   -0.183,
       -0.188,    0.497,    0.122,   -0.283,    0.151,   -0.269,   -0.093,
       -0.180,   -0.213,    0.808,    0.226,   -0.341,    0.741,    0.831,
        0.018,   -0.433,    5.075,    3.642,   -0.536,   10.498,   -3.997,
       -5.368,   -2.540,   -8.875,   -1.932,   -6.566,    3.300,   -3.765,
       -3.718,    1.835,   -3.000,   -2.107
    },
    {  -0.293,    0.070,   -0.065,   -0.386,    0.276,    0.531,    0.045,
       -0.087,    0.095,    0.561,   -0.203,   -0.218,    0.658,   -0.107,
       -0.089,    0.415,    0.139,   -0.475,    0.174,   -0.268,   -0.095,
       -0.287,    0.077,    0.731,    0.060,   -0.460,    0.671,    0.924,
        0.144,   -0.471,    5.087,    2.208,   -0.833,   10.022,   -4.346,
       -5.523,   -2.070,   -9.156,   -1.741,   -6.906,    2.350,   -5.190,
       -4.127,    1.892,   -2.998,   -2.415
    },
    {  -0.224,    0.019,    0.081,   -0.354,    0.241,    0.607,    0.214,
       -0.033,   -0.007,    0.642,   -0.256,   -0.158,    0.716,   -0.248,
       -0.103,    0.236,    0.064,   -0.315,    0.265,   -0.336,   -0.072,
       -0.204,    0.037,    0.555,    0.104,   -0.456,    0.648,    0.887,
       -0.020,   -0.493,    4.893,    2.788,   -1.073,    9.915,   -3.623,
       -5.250,   -2.827,   -8.623,   -1.518,   -7.493,    1.718,   -4.363,
       -4.245,    1.589,   -3.884,   -1.948
    },
    {   0.025,   -0.218,    0.159,    0.024,    0.338,    0.646,    0.110,
        0.050,   -0.137,    0.828,   -0.178,   -0.223,    0.784,   -0.385,
       -0.078,    0.293,    0.147,   -0.261,    0.104,   -0.051,   -0.059,
       -0.209,    0.101,    0.531,   -0.038,   -0.236,    0.669,    0.903,
        0.010,   -0.520,    5.040,    3.077,   -1.303,   10.245,   -3.953,
       -3.948,   -3.325,   -8.926,   -1.119,   -7.107,    1.220,   -4.758,
       -4.762,    1.926,   -4.202,   -1.645
    },
    {  -0.098,    0.101,    0.264,    0.093,    0.158,    0.562,   -0.018,
        0.153,   -0.186,    0.590,   -0.106,   -0.227,    0.802,   -0.143,
       -0.108,    0.025,   -0.011,   -0.362,    0.063,    0.010,   -0.058,
       -0.312,   -0.008,    0.571,   -0.039,   -0.004,    0.549,    0.887,
        0.165,   -0.735,    5.024,    2.868,    0.165,    9.512,   -3.736,
       -4.073,   -2.990,   -8.778,   -1.681,   -5.951,    1.958,   -4.771,
       -5.358,    1.085,   -4.974,   -1.809
    },
    {  -0.238,    0.139,    0.368,    0.125,    0.190,    0.440,    0.030,
        0.205,   -0.033,    0.756,   -0.134,   -0.316,    0.696,   -0.259,
       -0.193,    0.105,   -0.125,   -0.426,   -0.020,    0.127,   -0.228,
       -0.370,   -0.130,    0.552,   -0.030,   -0.227,    0.752,    0.996,
        0.276,   -0.581,    3.868,    2.749,   -0.030,    9.969,   -4.749,
       -4.585,   -2.670,   -8.701,   -1.111,   -5.778,    2.283,   -4.558,
       -4.445,    1.277,   -4.373,   -2.065
    },
    {  -0.102,   -0.185,    0.245,    0.185,    0.114,    0.614,   -0.124,
        0.087,    0.011,    0.371,   -0.371,   -0.143,    0.869,   -0.438,
       -0.165,    0.021,    0.089,   -0.090,   -0.136,   -0.078,    0.002,
       -0.425,   -0.089,    0.524,   -0.179,   -0.001,    0.384,    0.716,
        0.143,   -0.594,    4.582,    2.854,   -0.532,    9.601,   -5.132,
       -4.835,   -3.356,   -7.754,   -1.686,   -6.478,    1.653,   -3.933,
       -5.632,    1.855,   -4.205,   -1.698
    },
    {  -0.076,   -0.184,    0.179,    0.074,    0.243,    0.516,    0.031,
        0.116,    0.030,    0.277,   -0.419,   -0.221,    0.751,   -0.193,
        0.011,   -0.090,    0.085,   -0.283,   -0.321,   -0.226,   -0.127,
       -0.346,   -0.016,    0.399,    0.069,   -0.118,    0.437,    0.789,
        0.201,   -0.495,    4.389,    3.177,    0.327,    9.205,   -4.218,
       -4.428,   -2.772,   -7.887,   -1.346,   -6.196,    2.580,   -4.693,
       -5.382,    1.861,   -4.214,   -2.267
    },
    {   0.137,   -0.041,    0.271,    0.000,    0.013,    0.313,   -0.135,
       -0.053,   -0.023,    0.317,   -0.376,   -0.364,    0.559,   -0.202,
       -0.154,   -0.141,    0.235,   -0.304,   -0.207,   -0.358,    0.003,
       -0.406,    0.154,    0.414,   -0.010,   -0.071,    0.313,    0.632,
        0.211,   -0.667,    5.384,    2.572,    0.516,    8.746,   -4.127,
       -4.724,   -2.578,   -8.029,   -2.273,   -5.344,    3.132,   -4.314,
       -5.654,    1.774,   -4.018,   -2.090
    },
    {   0.014,   -0.206,    0.162,   -0.097,   -0.002,    0.445,   -0.105,
       -0.135,    0.002,    0.334,   -0.192,   -0.039,    0.622,   -0.125,
       -0.068,   -0.096,    0.074,   -0.348,    0.028,   -0.184,   -0.056,
       -0.367,    0.035,    0.485,   -0.175,   -0.155,    0.345,    0.676,
        0.364,   -0.638,    5.437,    2.527,   -0.151,    9.851,   -3.664,
       -4.560,   -2.360,   -8.061,   -1.960,   -4.633,    3.570,   -4.948,
       -5.611,    0.684,   -4.330,   -2.386
    },
    {  -0.023,   -0.095,   -0.034,    0.036,    0.090,    0.438,   -0.031,
       -0.003,   -0.138,    0.432,   -0.271,   -0.241,    0.828,   -0.261,
        0.036,   -0.190,    0.107,   -0.164,    0.187,   -0.186,   -0.330,
       -0.210,    0.060,    0.476,   -0.307,   -0.127,    0.411,    0.609,
        0.358,   -0.602,    4.698,    2.464,   -1.276,    9.871,   -3.468,
       -3.487,   -2.279,   -7.727,   -2.580,   -4.236,    2.890,   -4.485,
       -4.311,    1.443,   -4.895,   -2.770
    },
    {   0.015,    0.057,    0.201,    0.026,    0.252,    0.383,    0.108,
        0.081,    0.052,    0.576,   -0.113,   -0.123,    0.652,   -0.322,
        0.235,   -0.249,    0.140,    0.015,    0.152,    0.002,   -0.250,
       -0.125,    0.051,    0.404,   -0.187,   -0.052,    0.379,    0.557,
        0.332,   -0.507,    5.464,    2.449,   -1.683,   10.795,   -3.838,
       -3.847,   -2.378,   -7.652,   -2.822,   -5.097,    1.748,   -4.642,
       -4.297,    1.354,   -5.290,   -4.399
    },
    {   0.131,   -0.137,   -0.025,    0.196,    0.136,    0.253,    0.143,
        0.258,    0.178,    0.339,   -0.080,   -0.012,    0.366,   -0.396,
        0.259,   -0.367,    0.115,    0.041,    0.170,    0.112,   -0.224,
       -0.010,   -0.023,    0.357,   -0.036,   -0.097,    0.610,    0.237,
        0.053,   -0.230,    4.051,    2.804,   -0.829,   10.622,   -4.088,
       -3.054,   -2.429,   -7.995,   -2.175,   -5.998,    1.734,   -4.976,
       -3.336,    1.357,   -4.851,   -4.233
    },
    {   0.236,    0.008,   -0.026,    0.110,   -0.085,    0.336,   -0.127,
        0.230,    0.124,    0.323,   -0.041,   -0.023,    0.575,   -0.366,
        0.122,   -0.156,    0.116,    0.056,    0.451,   -0.024,   -0.115,
        0.063,   -0.149,    0.440,    0.293,    0.021,    0.242,    0.118,
       -0.026,   -0.080,    3.770,    3.618,   -0.360,   10.714,   -2.533,
       -3.619,   -2.280,   -8.156,   -1.516,   -6.536,    2.383,   -4.653,
       -2.076,    0.910,   -5.253,   -4.461
    },
    {   0.059,    0.215,   -0.001,    0.118,    0.046,    0.094,   -0.163,
        0.374,    0.123,    0.476,   -0.037,   -0.009,    0.451,   -0.524,
        0.093,    0.076,    0.191,   -0.299,    0.067,    0.113,   -0.038,
        0.089,   -0.230,    0.537,    0.024,   -0.179,    0.238,    0.153,
        0.114,   -0.101,    4.563,    3.541,   -0.265,    9.116,   -2.322,
       -4.179,   -2.411,   -8.607,   -1.284,   -6.500,    2.400,   -5.397,
       -2.174,    1.469,   -4.932,   -4.517
    },
    {  -0.128,    0.115,   -0.205,   -0.036,    0.150,    0.177,   -0.190,
        0.401,    0.174,    0.156,   -0.086,    0.179,    0.344,   -0.452,
        0.007,   -0.154,    0.056,    0.041,   -0.187,    0.136,    0.009,
        0.196,    0.223,    0.556,    0.160,    0.076,    0.468,    0.270,
       -0.133,   -0.261,    4.418,    3.902,   -0.699,    8.449,   -1.738,
       -4.171,   -2.708,   -8.864,   -2.036,   -5.840,    3.212,   -5.103,
       -1.475,    0.648,   -4.937,   -4.441
    },
    {  -0.175,   -0.002,   -0.256,   -0.066,    0.117,    0.101,   -0.403,
        0.369,    0.058,    0.111,   -0.084,    0.135,    0.529,   -0.389,
       -0.052,   -0.084,   -0.084,    0.014,   -0.094,    0.202,    0.015,
        0.123,    0.270,    0.496,    0.058,    0.091,    0.459,    0.189,
       -0.131,   -0.344,    4.627,    3.185,   -1.023,    8.316,   -0.213,
       -4.363,   -2.984,   -8.794,   -2.270,   -7.296,    2.949,   -5.540,
       -1.423,    0.022,   -5.314,   -4.582
    },
    {  -0.252,    0.032,   -0.230,   -0.157,    0.260,    0.000,   -0.399,
        0.119,   -0.013,    0.076,   -0.249,    0.220,    0.337,   -0.406,
       -0.316,   -0.387,    0.008,    0.146,   -0.188,    0.043,    0.169,
       -0.068,    0.417,    0.645,   -0.078,    0.216,    0.598,    0.050,
        0.121,   -0.328,    5.297,    3.551,   -1.324,    8.494,   -0.563,
       -4.597,   -2.844,   -9.186,   -1.619,   -8.042,    2.315,   -6.164,
       -2.260,    0.813,   -5.575,   -3.692
    },
    {  -0.184,    0.076,   -0.232,   -0.285,    0.109,    0.054,   -0.505,
       -0.083,   -0.083,    0.065,   -0.502,    0.225,    0.384,   -0.464,
       -0.323,   -0.180,    0.094,    0.260,   -0.108,    0.112,    0.104,
        0.012,    0.311,    0.464,   -0.019,    0.065,    0.676,    0.076,
        0.216,   -0.240,    5.304,    4.580,   -2.118,    8.847,   -1.324,
       -4.349,   -2.320,   -9.309,   -1.276,   -7.722,    2.726,   -5.742,
       -2.397,    1.205,   -4.566,   -2.550
    },
    {  -0.643,    0.460,   -0.175,    0.284,    0.201,    0.082,   -0.006,
        0.129,   -0.287,    0.204,    0.109,    0.123,    0.340,   -0.166,
       -0.079,    0.188,   -0.123,   -0.173,   -0.502,   -0.028,    0.235,
        0.057,    0.421,    0.316,    0.384,   -0.073,    0.302,   -0.018,
        0.240,   -0.109,    6.577,    4.914,   -1.578,    9.509,   -1.267,
       -4.542,   -1.918,   -9.451,   -1.540,   -8.019,    2.552,   -4.615,
       -2.987,    0.807,   -5.755,   -3.115
    },
    {  -0.630,    0.479,   -0.279,    0.251,    0.255,    0.087,   -0.219,
        0.045,   -0.258,    0.118,    0.230,    0.124,    0.168,   -0.188,
        0.268,    0.089,    0.157,   -0.170,   -0.622,   -0.064,    0.379,
        0.109,    0.658,    0.366,    0.346,   -0.252,    0.120,    0.062,
        0.209,   -0.058,    6.638,    4.776,   -1.103,    9.596,   -1.001,
       -4.134,   -1.670,   -9.233,   -0.986,   -8.270,    2.143,   -4.521,
       -3.144,    2.003,   -4.684,   -2.227
    },
    {  -0.825,    0.374,   -0.241,    0.081,    0.414,   -0.078,   -0.066,
        0.020,   -0.204,   -0.023,    0.072,    0.025,    0.297,   -0.186,
        0.234,    0.192,    0.030,   -0.296,   -0.748,    0.027,    0.263,
        0.140,    0.575,    0.294,    0.424,   -0.075,    0.139,    0.163,
        0.368,   -0.166,    6.151,    4.141,   -0.572,    8.545,   -1.171,
       -4.000,   -1.994,   -9.022,   -1.099,   -8.344,    2.009,   -4.388,
       -2.388,    1.132,   -5.269,   -3.023
    },
    {  -0.583,    0.507,   -0.543,   -0.113,    0.289,    0.087,    0.171,
       -0.071,   -0.087,    0.261,    0.143,    0.090,    0.427,   -0.182,
        0.320,    0.537,   -0.030,   -0.265,   -0.600,   -0.140,    0.464,
        0.151,    0.649,    0.153,    0.520,    0.027,    0.098,    0.041,
        0.335,   -0.077,    7.179,    3.400,    0.082,    9.170,   -0.335,
       -4.960,   -1.810,   -8.703,   -1.073,   -7.449,    1.642,   -3.828,
       -2.403,    0.560,   -5.084,   -2.689
    },
    {  -0.396,    0.385,   -0.390,   -0.231,    0.251,   -0.078,    0.010,
        0.155,   -0.009,   -0.091,    0.161,    0.402,    0.229,   -0.286,
        0.299,    0.226,    0.176,   -0.341,   -0.719,   -0.229,    0.394,
       -0.006,    0.291,    0.127,    0.580,   -0.051,    0.082,    0.365,
        0.439,   -0.014,    7.513,    3.277,   -0.226,    9.233,   -0.114,
       -5.140,   -2.619,   -8.844,   -0.878,   -8.507,    2.154,   -5.152,
       -2.479,    0.595,   -5.262,   -2.420
    },
    {  -0.202,    0.257,   -0.371,   -0.243,    0.105,   -0.053,    0.138,
        0.123,   -0.114,   -0.109,    0.127,    0.625,    0.299,   -0.173,
        0.364,    0.222,    0.188,   -0.306,   -0.649,   -0.240,    0.213,
       -0.124,    0.160,    0.187,    0.788,   -0.148,    0.055,    0.107,
        0.456,    0.193,    6.823,    4.259,   -0.339,   10.442,   -0.137,
       -5.271,   -2.160,   -9.987,   -0.257,   -8.565,    2.206,   -4.677,
       -3.382,    0.721,   -5.125,   -2.094
    },
    {  -0.318,    0.359,   -0.368,   -0.057,    0.116,    0.004,    0.057,
        0.214,   -0.344,   -0.029,    0.286,    0.240,    0.324,   -0.248,
        0.366,    0.116,    0.173,   -0.081,   -0.421,    0.095,    0.373,
        0.121,    0.149,    0.207,    0.928,   -0.138,    0.013,   -0.014,
        0.483,    0.210,    6.404,    3.346,   -0.301,    9.714,   -0.688,
       -5.317,   -1.229,   -9.613,    0.344,   -8.531,    2.293,   -4.595,
       -3.520,    0.188,   -5.842,   -2.586
    },
    {  -0.376,    0.473,   -0.218,   -0.081,    0.149,    0.071,    0.080,
        0.322,   -0.367,   -0.092,    0.514,    0.306,    0.274,   -0.307,
        0.318,    0.036,    0.235,    0.002,   -0.412,    0.052,    0.390,
        0.064,    0.412,    0.320,    0.762,    0.017,    0.087,    0.083,
        0.525,    0.295,    7.640,    4.032,   -1.155,   10.616,   -0.754,
       -4.865,   -1.448,   -8.966,    0.690,   -8.488,    1.353,   -4.259,
       -3.948,   -0.074,   -5.202,   -2.561
    },
    {  -0.254,    0.265,   -0.323,   -0.203,    0.276,   -0.006,   -0.047,
        0.282,   -0.094,   -0.136,    0.527,    0.339,    0.059,   -0.241,
       -0.162,   -0.052,    0.606,   -0.172,   -0.379,    0.076,    0.266,
        0.064,    0.172,    0.145,    0.800,    0.191,    0.010,    0.138,
        0.533,    0.116,    7.556,    3.860,   -1.448,   11.227,   -0.996,
       -4.350,   -2.376,   -9.836,    1.544,   -7.917,    1.853,   -4.919,
       -3.596,   -0.583,   -4.924,   -3.686
    },
    {  -0.368,    0.307,   -0.072,   -0.204,    0.224,    0.061,   -0.206,
        0.102,   -0.201,   -0.036,    0.644,    0.116,   -0.035,   -0.209,
       -0.154,   -0.189,    0.601,   -0.309,   -0.516,    0.226,    0.474,
        0.171,   -0.050,   -0.032,    0.618,    0.341,    0.221,    0.316,
        0.844,    0.175,    8.043,    2.818,   -0.548,   11.013,   -1.886,
       -6.107,   -2.055,   -9.199,    1.111,   -7.088,    1.780,   -4.695,
       -3.106,   -0.979,   -4.698,   -3.643
    },
    {  -0.231,    0.190,   -0.400,   -0.171,    0.248,    0.153,   -0.039,
        0.342,   -0.215,   -0.075,    0.416,    0.214,    0.244,   -0.230,
       -0.225,    0.083,    0.361,   -0.173,   -0.549,    0.187,    0.407,
        0.135,    0.215,    0.112,    0.688,    0.180,    0.025,    0.290,
        0.690,    0.348,    8.230,    3.255,   -0.517,   11.108,   -1.996,
       -6.344,   -2.382,   -9.070,    1.319,   -8.235,    2.222,   -4.566,
       -2.672,   -0.977,   -3.904,   -3.211
    },
    {  -0.206,    0.394,   -0.383,   -0.175,    0.373,    0.117,    0.095,
        0.401,   -0.038,   -0.124,    0.572,    0.078,    0.222,   -0.217,
       -0.151,    0.037,    0.366,   -0.274,   -0.444,    0.137,    0.358,
        0.079,    0.314,    0.256,    0.787,    0.244,   -0.010,    0.279,
        0.601,    0.447,    8.062,    3.434,    0.080,   10.903,   -2.235,
       -6.215,   -2.977,   -8.254,    0.889,   -7.793,    2.255,   -4.372,
       -3.100,    0.008,   -4.157,   -4.273
    },
    {  -0.165,    0.141,   -0.190,   -0.180,    0.325,   -0.077,    0.396,
        0.147,   -0.048,    0.018,    0.758,   -0.169,    0.290,   -0.278,
       -0.060,    0.110,    0.294,   -0.286,   -0.378,   -0.039,    0.385,
       -0.129,    0.198,   -0.016,    0.673,    0.066,    0.073,    0.212,
        0.537,    0.270,    7.773,    3.777,    0.339,   10.639,   -1.626,
       -5.871,   -1.858,   -8.518,    0.239,   -8.256,    2.243,   -3.323,
       -1.957,    0.127,   -4.849,   -3.987
    },
    {  -0.182,    0.075,   -0.266,   -0.087,    0.282,   -0.223,    0.202,
        0.065,   -0.037,   -0.049,    0.777,   -0.078,    0.305,   -0.213,
        0.014,    0.094,    0.388,   -0.520,   -0.269,    0.068,    0.389,
       -0.143,    0.358,    0.009,    0.825,   -0.010,   -0.032,    0.145,
        0.466,    0.274,    8.081,    3.669,   -0.803,   10.752,   -1.259,
       -5.944,   -1.583,   -8.141,    0.028,   -8.411,    3.575,   -3.305,
       -1.872,    0.251,   -4.855,   -4.834
    },
    {  -0.313,    0.182,   -0.296,   -0.013,    0.260,   -0.408,    0.282,
        0.091,    0.025,   -0.092,    1.026,   -0.060,    0.315,   -0.184,
       -0.033,    0.112,    0.369,   -0.525,   -0.274,    0.262,    0.274,
       -0.113,    0.477,   -0.127,    0.949,   -0.037,   -0.132,    0.044,
        0.539,    0.375,    8.288,    3.688,   -0.751,    9.980,   -1.721,
       -5.120,   -0.852,   -7.334,   -0.041,   -9.210,    3.226,   -3.996,
       -1.746,    0.606,   -4.862,   -4.304
    },
    {  -0.432,   -0.019,   -0.300,   -0.245,    0.023,   -0.287,    0.203,
        0.003,   -0.160,    0.011,    0.830,    0.149,    0.157,   -0.185,
        0.003,    0.007,    0.207,   -0.382,   -0.321,    0.113,    0.424,
       -0.075,    0.331,   -0.230,    0.837,   -0.050,    0.037,    0.026,
        0.518,    0.117,    8.819,    4.028,   -1.787,    9.525,   -1.798,
       -5.191,   -1.212,   -7.758,   -1.081,   -8.188,    3.244,   -4.591,
       -2.293,    1.043,   -5.056,   -4.471
    },
    {  -0.232,    0.308,   -0.230,   -0.013,    0.057,   -0.177,    0.226,
        0.023,   -0.055,    0.033,    0.500,    0.112,    0.316,   -0.307,
       -0.255,    0.189,    0.311,   -0.376,   -0.383,   -0.014,    0.326,
        0.054,    0.277,   -0.184,    0.851,    0.082,    0.062,    0.020,
        0.260,    0.269,    8.397,    3.709,   -1.278,    9.889,   -1.867,
       -6.184,   -2.496,   -7.237,   -0.960,   -8.343,    2.581,   -4.450,
       -1.732,    1.371,   -4.423,   -4.320
    },
    {  -0.274,    0.270,    0.077,   -0.165,    0.437,   -0.036,    0.347,
        0.014,   -0.046,    0.030,    0.627,    0.156,    0.381,   -0.056,
       -0.250,    0.287,    0.298,   -0.427,   -0.246,   -0.267,    0.501,
       -0.054,    0.336,   -0.133,    0.544,    0.117,    0.346,    0.080,
        0.580,    0.165,    9.257,    3.297,   -1.232,    9.840,   -3.649,
       -5.985,   -0.579,   -7.426,   -1.238,   -7.877,    2.738,   -3.723,
       -2.722,    0.121,   -4.268,   -4.294
    },
    {  -0.205,    0.279,    0.085,   -0.029,    0.406,   -0.085,    0.454,
       -0.054,    0.095,    0.133,    0.732,    0.087,    0.409,    0.010,
       -0.353,    0.232,    0.467,   -0.527,   -0.196,   -0.226,    0.534,
       -0.209,    0.327,   -0.169,    0.590,    0.210,    0.254,    0.095,
        0.495,   -0.072,    9.678,    1.798,   -1.375,   10.539,   -3.436,
       -5.009,    0.024,   -6.501,   -1.465,   -8.187,    2.703,   -3.209,
       -3.227,    0.100,   -4.259,   -4.852
    },
    {  -0.306,    0.207,    0.150,   -0.042,    0.239,    0.000,    0.541,
       -0.042,   -0.076,    0.142,    0.548,    0.137,    0.275,   -0.037,
       -0.243,    0.261,    0.513,   -0.537,   -0.316,   -0.176,    0.580,
       -0.153,    0.190,   -0.045,    0.829,   -0.034,    0.190,    0.105,
        0.332,   -0.003,    9.412,    2.039,   -1.613,   11.109,   -3.305,
       -5.056,   -0.987,   -6.626,   -2.357,   -8.281,    2.634,   -2.953,
       -2.555,    0.089,   -3.987,   -4.253
    },
    {  -0.214,    0.065,   -0.056,   -0.022,    0.092,   -0.140,    0.443,
       -0.130,   -0.063,    0.073,    0.430,    0.173,    0.108,   -0.026,
       -0.384,   -0.050,    0.518,   -0.406,   -0.385,   -0.118,    0.326,
       -0.127,    0.276,   -0.048,    0.622,   -0.165,    0.180,   -0.299,
        0.502,    0.147,    9.407,    2.586,   -0.979,   10.460,   -2.623,
       -5.439,   -0.816,   -7.587,   -2.697,   -8.499,    2.145,   -2.817,
       -2.572,   -0.705,   -4.046,   -4.356
    },
    {  -0.178,   -0.062,    0.151,   -0.096,    0.237,   -0.137,    0.487,
        0.099,   -0.069,    0.038,    0.486,    0.217,    0.402,   -0.086,
       -0.154,    0.255,    0.325,   -0.440,   -0.550,   -0.198,    0.369,
       -0.183,    0.351,   -0.151,    0.425,   -0.083,    0.076,   -0.219,
        0.427,    0.076,    9.396,    2.669,   -0.359,    9.806,   -3.135,
       -5.224,    0.102,   -6.961,   -2.331,   -8.606,    1.935,   -3.090,
       -2.784,   -0.792,   -3.406,   -5.088
    },
    {  -0.020,    0.119,    0.225,   -0.006,    0.436,   -0.022,    0.548,
        0.368,   -0.044,   -0.005,    0.313,    0.296,    0.665,   -0.307,
       -0.118,    0.162,    0.352,   -0.190,   -0.474,   -0.252,    0.250,
       -0.220,    0.331,    0.126,    0.133,   -0.001,    0.092,   -0.206,
        0.438,    0.012,    9.721,    2.870,   -0.446,   10.467,   -3.934,
       -5.304,    0.287,   -7.106,   -1.627,   -8.830,    2.278,   -4.167,
       -3.060,   -1.080,   -3.850,   -5.549
    },
    {  -0.004,    0.116,    0.408,    0.109,    0.363,   -0.227,    0.538,
        0.478,    0.115,   -0.009,    0.215,    0.183,    0.416,   -0.354,
       -0.162,   -0.027,    0.254,   -0.210,   -0.369,   -0.271,    0.417,
       -0.195,    0.436,    0.118,    0.293,   -0.082,    0.264,   -0.128,
        0.399,   -0.135,    9.637,    3.493,   -0.618,    9.860,   -2.901,
       -4.007,    0.763,   -6.840,   -1.882,   -8.277,    1.790,   -3.888,
       -2.862,   -1.549,   -4.347,   -5.986
    },
    {  -0.302,    0.215,    0.329,   -0.037,    0.294,   -0.078,    0.300,
        0.417,    0.002,   -0.003,    0.131,    0.192,    0.292,   -0.178,
       -0.128,    0.260,    0.439,   -0.233,   -0.477,   -0.039,    0.374,
       -0.211,    0.343,    0.115,    0.284,   -0.106,    0.303,   -0.051,
        0.307,   -0.124,    9.995,    3.180,   -0.955,    9.914,   -3.130,
       -4.593,    0.980,   -7.723,   -2.922,   -7.691,    1.532,   -4.599,
       -2.466,   -1.010,   -4.568,   -5.486
    },
    {  -0.371,    0.155,    0.195,   -0.108,    0.255,   -0.117,    0.026,
        0.675,   -0.151,   -0.080,    0.214,    0.133,    0.355,   -0.232,
       -0.088,    0.218,    0.382,   -0.364,   -0.552,   -0.011,    0.385,
       -0.361,    0.256,    0.194,    0.319,   -0.102,    0.365,   -0.050,
        0.442,   -0.079,   10.113,    3.507,   -0.365,   10.555,   -3.061,
       -4.482,    0.142,   -7.851,   -3.410,   -6.555,    1.314,   -5.113,
       -3.516,   -1.657,   -5.713,   -4.831
    },
    {  -0.289,   -0.061,    0.140,    0.022,    0.024,   -0.056,   -0.190,
        0.640,   -0.080,   -0.027,    0.257,    0.502,    0.538,   -0.245,
       -0.441,    0.123,    0.233,   -0.396,   -0.463,   -0.278,    0.256,
       -0.307,    0.366,    0.186,    0.162,   -0.275,    0.404,   -0.168,
        0.428,    0.256,   10.353,    3.210,    0.159,   10.379,   -2.813,
       -4.487,    0.126,   -7.845,   -3.148,   -6.609,    0.774,   -5.514,
       -3.045,   -2.085,   -5.173,   -4.775
    },
    {  -0.267,   -0.001,    0.103,   -0.008,   -0.008,   -0.209,   -0.096,
        0.684,    0.126,   -0.033,    0.321,    0.329,    0.362,   -0.284,
       -0.254,    0.157,    0.229,   -0.521,   -0.343,   -0.396,    0.127,
       -0.235,    0.242,    0.079,   -0.095,   -0.198,    0.341,   -0.137,
        0.470,    0.060,    9.911,    3.581,   -0.470,   10.623,   -2.230,
       -4.450,    0.049,   -8.588,   -3.290,   -6.259,    0.723,   -4.714,
       -3.215,   -1.383,   -6.040,   -4.473
    },
    {  -0.270,    0.084,    0.388,    0.216,   -0.071,   -0.243,    0.118,
        0.693,    0.103,   -0.092,    0.309,    0.051,    0.251,   -0.365,
       -0.110,    0.163,    0.347,   -0.403,   -0.039,   -0.222,    0.131,
       -0.219,   -0.073,    0.275,   -0.068,   -0.459,    0.448,   -0.194,
        0.516,    0.082,    9.946,    3.122,   -0.046,   11.790,   -1.247,
       -2.612,    0.244,   -8.132,   -2.382,   -6.383,    0.771,   -4.470,
       -2.778,   -0.680,   -5.842,   -3.830
    },
    {  -0.036,    0.185,    0.266,    0.210,   -0.134,   -0.282,    0.043,
        0.734,    0.122,   -0.089,    0.350,    0.274,    0.395,   -0.436,
       -0.242,    0.248,    0.289,   -0.334,   -0.038,   -0.217,    0.082,
       -0.266,    0.182,    0.232,   -0.155,   -0.510,    0.437,   -0.043,
        0.528,   -0.030,    9.892,    3.140,   -0.822,   10.626,   -0.571,
       -2.050,    0.472,   -7.524,   -2.407,   -5.531,    1.988,   -4.159,
       -2.233,   -1.355,   -5.426,   -4.090
    },
    {   0.047,    0.238,    0.236,   -0.214,   -0.113,   -0.016,    0.351,
        0.270,    0.009,    0.145,    0.276,    0.515,    0.661,   -0.243,
       -0.178,    0.253,    0.087,   -0.081,   -0.242,   -0.539,    0.171,
       -0.662,    0.104,    0.279,    0.052,   -0.182,    0.119,    0.153,
        0.357,   -0.170,    9.943,    3.364,   -0.824,   11.156,   -0.699,
       -2.266,    0.646,   -9.070,   -2.424,   -5.007,    2.650,   -5.064,
       -3.906,   -1.866,   -5.976,   -3.507
    },
    {   0.079,    0.196,    0.324,   -0.306,   -0.098,   -0.066,    0.325,
        0.039,   -0.022,    0.116,    0.157,    0.311,    0.616,   -0.313,
       -0.033,    0.228,    0.122,   -0.155,   -0.109,   -0.410,    0.198,
       -0.662,    0.174,    0.377,    0.085,   -0.151,    0.161,    0.356,
        0.290,   -0.399,    9.393,    4.275,   -2.208,   10.115,   -0.007,
       -2.657,    1.459,   -8.074,   -1.812,   -4.731,    3.007,   -3.768,
       -4.778,   -2.230,   -4.969,   -4.286
    },
    {   0.072,    0.158,    0.527,   -0.279,   -0.226,    0.026,    0.343,
        0.226,   -0.067,    0.207,    0.244,    0.290,    0.581,   -0.168,
       -0.258,    0.110,   -0.013,   -0.201,   -0.097,   -0.666,    0.221,
       -0.866,    0.092,    0.388,   -0.070,   -0.021,    0.244,    0.008,
        0.709,   -0.191,   10.637,    3.290,   -0.779,   10.292,    0.146,
       -2.846,    1.721,   -8.251,   -0.674,   -4.821,    3.018,   -3.880,
       -4.905,   -1.212,   -5.272,   -4.351
    },
    {  -0.109,    0.337,    0.423,   -0.185,   -0.279,    0.181,    0.215,
        0.371,   -0.200,    0.016,    0.146,    0.449,    0.489,    0.004,
       -0.262,    0.086,    0.108,   -0.098,   -0.066,   -0.507,    0.131,
       -0.578,    0.065,    0.499,   -0.061,   -0.049,    0.235,    0.013,
        0.360,   -0.183,   10.246,    3.246,    0.029,   10.292,   -0.526,
       -3.035,    0.546,   -8.360,   -0.527,   -4.674,    3.196,   -5.047,
       -5.557,   -1.907,   -6.118,   -4.378
    },
    {  -0.225,    0.296,    0.209,   -0.089,   -0.387,    0.255,    0.187,
        0.559,   -0.021,   -0.113,   -0.021,    0.560,    0.353,   -0.118,
        0.065,    0.135,    0.030,    0.128,   -0.223,   -0.538,    0.117,
       -0.408,    0.109,    0.404,    0.020,    0.013,    0.190,    0.021,
        0.133,   -0.070,   10.267,    3.709,   -0.063,    9.625,   -0.096,
       -2.561,    0.062,   -8.499,   -0.614,   -5.274,    3.171,   -5.047,
       -4.537,   -3.256,   -5.655,   -3.733
    },
    {  -0.136,    0.378,   -0.037,   -0.104,   -0.286,    0.430,   -0.119,
        0.488,    0.140,   -0.323,    0.101,    0.513,    0.239,    0.016,
        0.124,    0.099,    0.094,    0.422,    0.012,   -0.748,    0.014,
       -0.357,    0.275,    0.181,    0.250,    0.144,    0.312,   -0.165,
        0.184,    0.074,   10.268,    3.591,   -0.229,   10.155,   -0.630,
       -2.568,    0.199,   -8.460,   -0.626,   -5.259,    3.071,   -4.704,
       -5.091,   -3.650,   -5.742,   -4.307
    },
    {  -0.125,    0.419,   -0.149,   -0.248,   -0.545,    0.419,   -0.223,
        0.456,    0.217,   -0.288,   -0.152,    0.214,    0.096,    0.065,
        0.202,    0.341,    0.115,    0.149,   -0.104,   -0.858,   -0.146,
       -0.458,    0.267,    0.020,    0.430,    0.057,    0.223,   -0.107,
        0.175,    0.156,   10.640,    3.995,   -0.167,    9.045,   -0.745,
       -2.653,    0.624,   -8.265,   -0.685,   -5.403,    4.068,   -5.627,
       -4.855,   -3.076,   -5.352,   -5.389
    },
    {  -0.489,    0.509,    0.222,   -0.242,   -0.380,    0.135,   -0.406,
        0.646,    0.110,   -0.722,   -0.225,    0.299,    0.290,   -0.073,
        0.102,   -0.196,    0.163,    0.299,    0.130,   -0.294,    0.097,
       -0.336,    0.099,   -0.044,    0.083,    0.258,    0.037,    0.424,
        0.126,    0.060,    9.972,    4.894,   -0.835,    9.639,   -0.389,
       -3.866,   -0.627,   -7.518,    0.392,   -5.400,    3.758,   -5.745,
       -4.737,   -2.439,   -4.950,   -5.102
    },
    {  -0.609,    0.461,    0.262,   -0.249,   -0.325,    0.103,   -0.196,
        0.879,    0.109,   -0.692,   -0.302,    0.379,    0.303,   -0.054,
       -0.082,   -0.179,   -0.136,    0.239,    0.016,   -0.051,    0.192,
       -0.275,    0.248,   -0.021,    0.145,    0.085,    0.017,    0.372,
        0.001,    0.109,   10.635,    5.203,   -0.854,    9.934,   -0.212,
       -3.051,    0.490,   -8.575,    0.279,   -4.095,    4.308,   -5.022,
       -4.381,   -3.039,   -5.205,   -5.846
    },
    {  -0.539,    0.394,    0.084,   -0.096,   -0.342,    0.241,   -0.236,
        0.563,    0.019,   -0.525,   -0.120,    0.287,    0.284,   -0.005,
       -0.056,   -0.197,   -0.042,    0.094,   -0.194,    0.117,    0.283,
       -0.182,    0.032,   -0.040,    0.040,    0.092,   -0.039,    0.253,
       -0.097,    0.360,    9.882,    5.990,   -0.073,   10.904,   -0.809,
       -2.946,    0.466,   -9.411,    0.149,   -4.916,    3.655,   -4.750,
       -3.740,   -3.743,   -5.164,   -5.822
    },
    {  -0.332,    0.407,   -0.084,    0.070,   -0.445,    0.217,   -0.176,
        0.409,    0.100,   -0.458,   -0.191,    0.487,    0.148,    0.069,
       -0.132,   -0.084,    0.118,    0.082,    0.018,    0.459,    0.313,
       -0.307,    0.086,    0.084,    0.034,    0.125,    0.063,    0.144,
       -0.072,    0.541,    9.909,    6.676,   -0.045,   10.298,   -2.068,
       -3.026,    0.215,  -10.772,   -0.422,   -4.468,    3.746,   -5.318,
       -4.734,   -3.233,   -5.323,   -5.884
    },
    {  -0.266,    0.122,   -0.041,   -0.085,   -0.299,    0.163,   -0.051,
        0.463,    0.226,   -0.643,   -0.153,    0.407,    0.215,   -0.096,
        0.072,   -0.239,    0.068,    0.286,   -0.362,    0.202,    0.205,
       -0.270,   -0.069,   -0.017,   -0.227,    0.058,   -0.033,    0.181,
        0.113,    0.324,    9.358,    6.800,    0.076,    9.798,   -2.124,
       -3.952,    0.112,  -11.426,   -0.939,   -4.535,    3.318,   -5.562,
       -4.413,   -3.268,   -6.684,   -6.160
    },
    {  -0.501,    0.291,    0.196,   -0.154,   -0.312,    0.320,   -0.147,
        0.197,    0.062,   -0.474,    0.048,    0.287,    0.070,   -0.027,
        0.029,   -0.285,   -0.313,    0.057,   -0.013,    0.226,    0.267,
       -0.138,   -0.120,   -0.011,    0.313,    0.057,    0.192,    0.209,
        0.138,    0.575,    8.560,    6.958,    0.301,    9.734,   -2.058,
       -3.173,    0.436,  -10.906,   -0.837,   -4.244,    2.511,   -5.305,
       -4.690,   -2.308,   -6.972,   -6.029
    },
    {  -0.412,    0.267,    0.123,   -0.111,   -0.439,    0.426,   -0.101,
        0.215,   -0.041,   -0.391,    0.001,    0.158,    0.044,   -0.131,
        0.084,   -0.320,   -0.313,    0.062,   -0.018,    0.359,    0.381,
       -0.074,   -0.066,    0.096,    0.361,    0.017,    0.251,    0.439,
        0.031,    0.496,    9.390,    7.232,   -0.179,    9.312,   -2.813,
       -4.330,    0.169,  -10.875,   -0.592,   -3.895,    2.604,   -5.093,
       -3.793,   -2.013,   -7.841,   -5.132
    },
    {  -0.433,    0.293,    0.231,   -0.237,   -0.277,    0.131,   -0.087,
        0.092,   -0.366,   -0.345,    0.043,    0.326,    0.141,   -0.086,
       -0.072,   -0.511,   -0.081,   -0.221,    0.224,    0.296,    0.507,
       -0.292,   -0.454,    0.361,    0.153,    0.202,    0.165,    0.269,
        0.309,    0.337,    7.956,    7.523,    0.097,   10.229,   -1.033,
       -3.287,    1.195,  -11.329,   -0.055,   -4.721,    1.605,   -4.188,
       -4.770,   -2.286,   -6.769,   -5.694
    },
    {  -0.257,    0.444,    0.347,   -0.030,   -0.356,    0.101,   -0.005,
        0.164,   -0.333,   -0.272,    0.151,    0.375,    0.068,   -0.059,
       -0.019,   -0.447,    0.052,    0.017,    0.311,    0.461,    0.396,
       -0.388,   -0.331,    0.177,    0.042,    0.340,    0.250,    0.275,
        0.460,    0.325,    8.826,    7.324,   -0.106,   10.500,   -0.779,
       -3.429,    1.598,  -11.384,    0.488,   -4.244,    0.971,   -4.611,
       -4.712,   -3.250,   -6.478,   -6.077
    },
    {  -0.486,    0.269,    0.304,   -0.049,   -0.464,    0.111,   -0.181,
        0.198,   -0.088,   -0.173,    0.255,    0.156,    0.071,   -0.167,
       -0.147,   -0.425,   -0.158,   -0.084,    0.479,    0.276,    0.411,
       -0.217,   -0.355,    0.103,    0.201,    0.343,    0.348,    0.076,
        0.447,    0.411,   10.196,    6.272,    0.305,   10.493,   -1.342,
       -2.687,    1.138,  -10.773,   -0.049,   -5.102,    1.227,   -4.303,
       -4.819,   -2.614,   -6.129,   -5.129
    },
    {  -0.400,    0.163,    0.395,    0.109,   -0.279,    0.205,    0.009,
        0.006,   -0.240,   -0.109,    0.354,    0.188,   -0.027,   -0.116,
       -0.241,   -0.506,   -0.049,    0.032,    0.607,    0.255,    0.399,
       -0.223,   -0.059,    0.206,    0.209,    0.428,    0.315,   -0.051,
        0.419,    0.261,    9.396,    6.408,   -0.099,   11.371,   -1.126,
       -2.441,    0.411,  -10.408,   -0.087,   -5.338,    0.977,   -4.326,
       -4.280,   -2.775,   -6.504,   -5.352
    },
    {  -0.637,    0.240,    0.419,    0.120,   -0.341,    0.173,    0.062,
        0.081,   -0.311,   -0.034,    0.398,    0.062,   -0.073,   -0.088,
       -0.003,   -0.248,   -0.016,   -0.024,    0.772,    0.116,    0.440,
       -0.200,   -0.081,    0.259,    0.213,    0.281,    0.428,   -0.204,
        0.225,    0.384,   10.234,    6.555,    0.212,   11.078,   -1.430,
       -3.003,    0.677,  -10.390,   -0.125,   -5.583,    0.841,   -4.566,
       -4.709,   -1.930,   -7.309,   -5.123
    },
    {  -0.707,    0.261,    0.480,    0.027,   -0.523,   -0.088,   -0.075,
       -0.052,   -0.322,   -0.077,    0.430,   -0.038,   -0.051,   -0.067,
       -0.105,   -0.225,    0.110,   -0.093,    0.665,    0.215,    0.191,
       -0.163,   -0.304,    0.161,    0.428,    0.135,    0.174,   -0.261,
        0.276,    0.310,    9.608,    5.805,    0.563,   10.897,   -1.770,
       -2.846,    1.153,  -11.047,   -1.423,   -5.610,    0.406,   -4.612,
       -4.357,   -2.675,   -8.490,   -5.060
    },
    {  -0.601,    0.283,    0.452,   -0.194,   -0.366,   -0.206,   -0.112,
       -0.150,   -0.261,    0.041,    0.253,   -0.143,    0.139,   -0.092,
       -0.105,   -0.190,   -0.080,   -0.115,    0.588,    0.222,   -0.011,
       -0.030,   -0.353,    0.188,    0.350,   -0.078,    0.215,   -0.237,
        0.312,    0.183,    8.264,    5.739,   -0.345,   10.607,   -1.737,
       -1.896,    0.877,  -11.342,   -2.506,   -5.432,    1.030,   -4.522,
       -4.167,   -2.602,   -7.978,   -4.264
    },
    {  -0.409,    0.283,    0.390,   -0.137,   -0.375,   -0.206,   -0.213,
       -0.197,   -0.138,   -0.071,    0.079,   -0.125,    0.266,   -0.061,
        0.030,   -0.210,   -0.191,   -0.136,    0.687,    0.202,    0.130,
        0.105,   -0.387,    0.079,    0.370,   -0.237,    0.119,   -0.296,
        0.198,    0.288,    8.472,    5.648,    0.211,    9.863,   -0.996,
       -0.854,    1.012,  -11.938,   -2.935,   -5.214,    0.570,   -3.739,
       -3.770,   -2.421,   -7.847,   -4.881
    },
    {  -0.665,    0.175,    0.676,   -0.035,   -0.469,   -0.239,    0.030,
       -0.261,   -0.240,    0.043,    0.240,   -0.073,    0.309,   -0.133,
       -0.129,   -0.181,    0.005,   -0.065,    0.671,    0.153,   -0.131,
       -0.164,   -0.465,    0.174,    0.130,   -0.032,    0.135,   -0.180,
        0.095,    0.080,    8.638,    5.051,    0.752,    9.793,   -0.381,
       -0.387,    0.885,  -11.622,   -3.434,   -4.762,    0.412,   -3.833,
       -4.210,   -2.329,   -9.748,   -5.139
    },
    {  -0.607,    0.225,    0.528,    0.084,   -0.452,   -0.458,    0.066,
       -0.188,   -0.141,   -0.012,    0.092,   -0.048,    0.365,   -0.144,
        0.120,    0.026,   -0.186,   -0.306,    0.790,    0.252,   -0.122,
       -0.144,   -0.423,   -0.037,    0.040,   -0.171,    0.079,   -0.128,
        0.269,    0.017,    8.574,    4.251,    0.462,   10.186,   -0.848,
       -0.596,    0.943,  -11.624,   -3.636,   -5.419,    0.854,   -4.946,
       -4.173,   -2.455,   -9.632,   -4.962
    },
    {  -0.686,    0.071,    0.501,    0.105,   -0.507,   -0.303,    0.315,
        0.011,   -0.199,    0.049,    0.018,   -0.013,    0.225,   -0.115,
        0.171,    0.068,   -0.189,   -0.233,    0.728,    0.125,    0.008,
       -0.020,   -0.485,   -0.078,    0.092,   -0.173,    0.049,   -0.091,
        0.217,   -0.190,    8.624,    4.058,    0.457,   11.113,   -0.338,
       -0.372,    0.637,  -11.963,   -3.057,   -4.530,    0.938,   -4.480,
       -4.131,   -2.904,   -9.828,   -4.962
    },
    {  -0.611,    0.027,    0.646,    0.037,   -0.443,   -0.332,    0.205,
        0.069,   -0.505,    0.016,    0.033,    0.155,    0.284,   -0.155,
        0.096,   -0.025,   -0.114,   -0.187,    0.435,    0.117,    0.212,
       -0.222,   -0.585,   -0.109,    0.191,   -0.108,    0.110,    0.111,
        0.150,   -0.379,    8.789,    3.714,    0.471,   10.369,   -0.566,
       -1.202,    1.080,  -12.395,   -2.409,   -4.458,    0.963,   -4.417,
       -4.179,   -2.781,   -9.470,   -4.755
    },
    {  -0.661,    0.179,    0.516,    0.131,   -0.561,   -0.330,   -0.073,
        0.050,   -0.554,    0.010,   -0.086,    0.236,    0.306,   -0.109,
       -0.052,    0.019,   -0.245,   -0.025,    0.207,    0.131,    0.219,
       -0.268,   -0.581,   -0.084,    0.196,    0.021,    0.080,    0.069,
        0.009,   -0.538,    8.811,    3.161,    0.101,    9.987,   -0.105,
       -1.150,    1.374,  -12.706,   -3.194,   -4.180,    1.119,   -4.410,
       -3.361,   -2.662,  -10.267,   -4.148
    },
    {  -0.520,    0.216,    0.479,    0.157,   -0.510,   -0.357,    0.121,
        0.130,   -0.511,    0.079,   -0.106,    0.031,    0.383,   -0.233,
       -0.150,    0.017,   -0.146,   -0.005,    0.353,    0.295,    0.305,
       -0.215,   -0.480,   -0.155,    0.107,   -0.144,   -0.077,    0.088,
        0.068,   -0.339,    9.581,    3.313,   -0.567,   10.841,    0.195,
       -0.315,    1.985,  -13.776,   -2.668,   -4.821,    1.267,   -4.946,
       -3.201,   -2.113,  -10.790,   -3.660
    },
    {  -0.491,    0.266,    0.329,    0.080,   -0.479,   -0.240,    0.088,
        0.192,   -0.498,    0.217,   -0.044,    0.029,    0.352,   -0.248,
       -0.132,    0.133,   -0.320,    0.021,    0.308,    0.157,    0.265,
       -0.262,   -0.487,   -0.259,    0.284,   -0.107,   -0.045,    0.173,
        0.132,   -0.311,    9.604,    3.425,   -1.548,   11.479,    0.349,
       -0.032,    2.531,  -13.786,   -3.055,   -4.733,    1.240,   -4.711,
       -3.124,   -2.290,  -10.603,   -3.731
    },
    {  -0.691,    0.293,    0.568,    0.072,   -0.414,   -0.220,    0.036,
        0.252,   -0.578,    0.146,   -0.181,   -0.029,    0.413,   -0.220,
       -0.048,   -0.001,    0.014,    0.087,    0.194,    0.150,    0.165,
       -0.145,   -0.182,   -0.240,    0.103,   -0.027,   -0.184,    0.104,
        0.090,   -0.285,   10.312,    3.344,   -1.203,   11.323,    0.583,
       -0.378,    1.986,  -13.774,   -2.660,   -4.893,    1.608,   -4.676,
       -3.351,   -1.985,  -11.483,   -4.075
    },
    {  -0.583,    0.240,    0.575,    0.109,   -0.385,   -0.276,    0.131,
        0.466,   -0.565,    0.013,   -0.205,   -0.001,    0.480,   -0.336,
        0.059,   -0.106,   -0.168,    0.058,    0.044,    0.379,    0.294,
       -0.150,   -0.248,   -0.260,    0.243,   -0.224,   -0.129,    0.122,
        0.090,   -0.149,   10.180,    2.454,   -0.833,   11.448,   -0.179,
       -0.127,    0.979,  -12.766,   -3.244,   -4.650,    2.424,   -4.189,
       -2.554,   -1.367,  -11.439,   -3.391
    },
    {  -0.626,    0.272,    0.494,    0.152,   -0.395,   -0.308,    0.002,
        0.251,   -0.369,   -0.272,   -0.146,   -0.006,    0.513,   -0.341,
        0.210,   -0.107,   -0.182,    0.068,    0.189,    0.128,    0.126,
        0.023,   -0.083,   -0.348,    0.285,    0.181,   -0.069,   -0.008,
        0.006,   -0.163,    9.797,    1.391,   -0.329,   10.636,    1.070,
        0.295,   -0.095,  -12.222,   -3.613,   -4.180,    1.747,   -3.288,
       -3.002,   -2.139,  -12.168,   -2.737
    },
    {  -0.613,    0.267,    0.472,    0.133,   -0.459,   -0.278,    0.159,
        0.167,   -0.292,   -0.345,   -0.126,    0.010,    0.501,   -0.371,
        0.319,   -0.169,   -0.271,    0.052,    0.298,    0.210,    0.071,
        0.037,   -0.012,   -0.252,    0.366,    0.183,   -0.106,    0.002,
       -0.183,   -0.171,    9.876,    2.508,   -0.946,   10.931,    0.806,
        0.510,   -0.196,  -11.950,   -3.259,   -4.481,    1.503,   -2.857,
       -2.968,   -1.553,  -12.064,   -2.269
    },
    {  -0.619,    0.411,    0.458,    0.006,   -0.394,   -0.189,    0.099,
        0.169,   -0.343,   -0.103,    0.184,   -0.020,    0.428,   -0.346,
        0.510,   -0.168,   -0.043,   -0.095,    0.253,    0.214,    0.114,
       -0.050,   -0.016,   -0.170,    0.082,    0.189,   -0.000,    0.144,
       -0.235,   -0.165,   10.779,    2.654,   -0.822,   11.487,    1.000,
       -0.003,   -0.233,  -12.080,   -2.852,   -4.177,    2.655,   -3.746,
       -2.045,   -2.485,  -12.790,   -2.985
    },
    {  -0.752,    0.278,    0.188,    0.140,   -0.219,   -0.233,    0.153,
       -0.062,   -0.051,   -0.215,    0.241,   -0.219,    0.350,   -0.254,
        0.317,   -0.248,    0.137,   -0.202,    0.212,    0.291,    0.011,
        0.027,   -0.070,   -0.050,    0.268,    0.182,    0.194,    0.008,
       -0.231,   -0.106,   10.012,    1.354,   -0.196,   10.664,    1.448,
        0.415,   -0.730,  -11.259,   -3.917,   -4.345,    2.474,   -4.849,
       -1.883,   -2.631,  -12.262,   -3.023
    },
    {  -0.572,    0.150,    0.188,    0.166,   -0.156,   -0.171,    0.108,
       -0.233,   -0.205,   -0.171,    0.397,   -0.298,    0.367,   -0.336,
        0.546,   -0.235,    0.039,   -0.168,    0.197,    0.183,    0.072,
        0.082,   -0.109,   -0.026,    0.349,    0.232,    0.273,    0.044,
       -0.471,   -0.138,   10.299,    2.155,    0.078,   10.335,    0.345,
        0.235,   -0.547,  -10.870,   -3.103,   -4.431,    1.699,   -4.704,
       -1.912,   -2.106,  -12.157,   -3.076
    },
    {  -0.645,    0.237,    0.256,    0.162,   -0.067,   -0.182,    0.189,
       -0.160,   -0.150,   -0.082,    0.316,   -0.302,    0.439,   -0.350,
        0.515,   -0.232,   -0.084,   -0.248,    0.207,    0.171,    0.355,
        0.081,    0.010,   -0.171,    0.257,    0.049,    0.285,    0.038,
       -0.507,   -0.048,    9.983,    1.824,   -0.154,   10.928,    1.704,
        0.861,   -0.527,  -10.669,   -2.310,   -3.872,    1.603,   -4.435,
       -1.798,   -1.778,  -12.171,   -3.070
    },
    {  -0.864,    0.311,    0.371,    0.120,   -0.100,   -0.305,    0.261,
       -0.108,   -0.200,   -0.030,    0.441,   -0.142,    0.454,   -0.362,
        0.564,   -0.180,   -0.289,   -0.506,    0.045,    0.200,    0.403,
       -0.107,   -0.014,   -0.085,    0.259,   -0.140,    0.247,    0.065,
       -0.482,    0.025,   10.450,    2.630,    0.433,   10.966,    1.890,
        1.254,   -0.232,  -11.297,   -2.493,   -3.584,    1.558,   -4.068,
       -1.725,   -1.420,  -11.992,   -3.198
    },
    {  -0.708,    0.389,    0.253,    0.036,   -0.150,   -0.289,    0.188,
       -0.115,   -0.234,    0.147,    0.563,   -0.073,    0.522,   -0.354,
        0.599,   -0.322,   -0.222,   -0.523,    0.069,    0.209,    0.436,
       -0.059,   -0.120,    0.027,    0.274,   -0.128,    0.228,    0.103,
       -0.566,    0.046,   10.744,    3.125,    0.219,   10.313,    2.611,
        1.152,    0.679,  -11.297,   -1.528,   -4.030,    1.388,   -3.833,
       -0.802,   -2.023,  -12.605,   -3.188
    },
    {  -0.807,    0.455,   -0.018,    0.033,   -0.328,   -0.324,    0.197,
       -0.164,   -0.134,    0.034,    0.616,   -0.060,    0.498,   -0.286,
        0.538,   -0.387,   -0.251,   -0.327,    0.005,    0.253,    0.434,
       -0.101,   -0.237,    0.107,    0.228,   -0.012,    0.208,    0.010,
       -0.610,   -0.039,   10.823,    3.450,   -0.671,    9.527,    1.772,
        0.558,    0.918,  -10.359,   -0.823,   -4.888,    0.879,   -4.791,
        0.187,   -2.227,  -12.510,   -3.920
    },
    {  -0.925,    0.447,    0.091,    0.118,   -0.380,   -0.327,    0.141,
       -0.238,   -0.076,    0.016,    0.774,   -0.095,    0.446,   -0.315,
        0.499,   -0.342,   -0.264,   -0.382,    0.044,    0.267,    0.256,
       -0.104,   -0.078,    0.009,    0.142,    0.061,    0.307,    0.068,
       -0.718,   -0.037,   10.899,    4.249,    0.081,    9.826,    2.645,
        0.308,    1.228,  -10.504,   -1.075,   -5.538,    1.000,   -5.223,
       -0.099,   -2.044,  -12.266,   -4.338
    },
    {  -0.774,    0.183,   -0.035,   -0.126,   -0.309,   -0.370,    0.183,
       -0.118,   -0.115,    0.037,    0.707,    0.056,    0.494,   -0.306,
        0.413,   -0.233,   -0.135,   -0.252,    0.021,    0.227,    0.165,
       -0.036,    0.089,   -0.164,    0.208,   -0.066,    0.307,   -0.068,
       -0.666,   -0.109,   11.256,    3.693,    0.115,   10.254,    2.532,
        0.073,    0.881,  -11.074,   -1.097,   -5.438,    0.993,   -5.605,
        0.666,   -2.357,  -12.458,   -4.278
    }
  };


  double netfun(std::vector<double>& in, const double* w)
  {
    double x00 = in[0];
    double x;

    //Layer 1, Node 0
    x = w[0];
    x = x + w[1] * x00;
    double x10 = tanh(x);

    //Layer 1, Node 1
    x = w[2];
    x = x + w[3] * x00;
    double x11 = tanh(x);

    //Layer 1, Node 2
    x = w[4];
    x = x + w[5] * x00;
    double x12 = tanh(x);

    //Layer 1, Node 3
    x = w[6];
    x = x + w[7] * x00;
    double x13 = tanh(x);

    //Layer 1, Node 4
    x = w[8];
    x = x + w[9] * x00;
    double x14 = tanh(x);

    //Layer 1, Node 5
    x = w[10];
    x = x + w[11] * x00;
    double x15 = tanh(x);

    //Layer 1, Node 6
    x = w[12];
    x = x + w[13] * x00;
    double x16 = tanh(x);

    //Layer 1, Node 7
    x = w[14];
    x = x + w[15] * x00;
    double x17 = tanh(x);

    //Layer 1, Node 8
    x = w[16];
    x = x + w[17] * x00;
    double x18 = tanh(x);

    //Layer 1, Node 9
    x = w[18];
    x = x + w[19] * x00;
    double x19 = tanh(x);

    //Layer 1, Node 10
    x = w[20];
    x = x + w[21] * x00;
    double x110 = tanh(x);

    //Layer 1, Node 11
    x = w[22];
    x = x + w[23] * x00;
    double x111 = tanh(x);

    //Layer 1, Node 12
    x = w[24];
    x = x + w[25] * x00;
    double x112 = tanh(x);

    //Layer 1, Node 13
    x = w[26];
    x = x + w[27] * x00;
    double x113 = tanh(x);

    //Layer 1, Node 14
    x = w[28];
    x = x + w[29] * x00;
    double x114 = tanh(x);

    //Layer 2, Node 0
    x = w[30];
    x = x + w[31] * x10;
    x = x + w[32] * x11;
    x = x + w[33] * x12;
    x = x + w[34] * x13;
    x = x + w[35] * x14;
    x = x + w[36] * x15;
    x = x + w[37] * x16;
    x = x + w[38] * x17;
    x = x + w[39] * x18;
    x = x + w[40] * x19;
    x = x + w[41] * x110;
    x = x + w[42] * x111;
    x = x + w[43] * x112;
    x = x + w[44] * x113;
    x = x + w[45] * x114;
    double x20 = 1.0/(1.0+exp(-x));
    return x20;
  }
}; // End anonymous namespace

//-----------------------------------------------------------------------------
// Compute average over networks. Default is to use all networks
//-----------------------------------------------------------------------------

double HT300MHT90elNew(std::vector<double>& inputvars,
                       int first=0,
                       int last=nnetworks-1)
{
  if ( first < 0 ) first = 0;
  if ( last  < 0 ) last  = nnetworks-1;
  if ( last  > nnetworks-1 ) last = nnetworks-1;
  if ( first > last )
    {
      std::cerr << "** HT300MHT90elNew ** first-index > last-index"
                << std::endl; exit(3);
    }

  // Compute average over networks
  std::vector<double> in(ninputs);
  in[0] = (inputvars[0] - mean[0]) / sigma[0];

  int   n = last - first + 1;
  double x = 0.0;
  for(int i=first; i <= last; i++) x += netfun(in, weight[i]);
  return x / n;
}

extern "C" double HT300MHT90elNew_dl(std::vector<double>& in,
                                     int first=0,
                                     int last=nnetworks-1)
{
  return HT300MHT90elNew(in, first, last);
}

extern "C" double HT300MHT90elNew_dl2(double* in,
                                      int first=0,
                                      int last=nnetworks-1)
{
  std::vector<double> invec;

  invec.push_back(in[0]);

  return HT300MHT90elNew(invec, first, last);
}
