//-----------------------------------------------------------------------------
// Network: HT300MHT90muNew
// Inputs:
//                                                  Offset       Scale
//    offlinevar                                 9.894e+01   7.082e+01
//
// Created: Wed Feb  8 08:37:04 2012
//-----------------------------------------------------------------------------
#include <cmath>
#include <vector>
#include <iostream>
#include <stdlib.h>
//-----------------------------------------------------------------------------
// Make following visible only to this programming unit
namespace {
  // NOTE: Network indices start at 0
  static const int nnetworks=100;
  static const int ninputs  =1;
  static const int nhidden  =15;
  static const int nparams  =46;

  static const double mean[ninputs]={
  9.89400e+01
  };

  static const double sigma[ninputs]={
  7.08200e+01
  };

  static const double weight[nnetworks][nparams]={
    {   0.059,    1.617,    2.345,   -0.345,   -1.975,    0.840,   -2.183,
        0.885,    1.567,    0.597,    7.832,   -0.810,    2.013,   -1.697,
       -0.595,    1.007,   -3.208,   -0.285,   -8.463,    0.589,   -0.141,
        0.233,   -2.009,    1.054,   -8.431,    0.056,    3.545,    1.427,
        2.589,   -1.234,   14.423,    2.686,   -0.435,    8.929,   -0.033,
       -1.904,   -1.498,   -5.697,   -1.476,   -7.264,    2.969,   -3.413,
       -5.287,    2.981,   -0.677,   -2.649
    },
    {   0.227,    1.422,    2.531,   -0.040,   -2.008,    0.900,   -2.069,
        0.856,    1.314,    0.685,    7.581,   -0.766,    1.841,   -1.611,
       -0.603,    1.131,   -3.497,    0.048,   -8.542,    0.647,   -0.389,
        0.071,   -1.878,    1.238,   -8.547,   -0.013,    3.128,    1.561,
        2.604,   -1.290,   13.766,    2.386,   -0.761,    7.002,   -0.142,
       -2.495,   -1.066,   -7.313,   -0.701,   -7.720,    2.845,   -3.466,
       -4.588,    3.104,   -0.260,   -2.997
    },
    {  -0.093,    1.372,    2.419,   -0.333,   -2.005,    1.006,   -2.112,
        0.774,    1.400,    0.438,    7.647,   -0.798,    2.168,   -1.224,
       -0.612,    1.101,   -3.610,    0.042,   -8.385,    0.211,   -0.287,
        0.016,   -1.928,    1.303,   -8.386,   -0.124,    2.988,    1.607,
        2.772,   -1.002,   14.422,    2.144,   -1.663,    6.418,   -1.769,
       -2.200,   -1.049,   -7.475,    0.212,   -8.135,    3.946,   -3.568,
       -3.992,    2.472,    0.144,   -3.101
    },
    {  -0.259,    1.264,    2.255,   -0.344,   -2.159,    1.029,   -2.215,
        0.207,    1.212,    0.365,    7.519,   -0.687,    2.413,   -1.228,
       -0.591,    0.989,   -3.301,   -0.185,   -8.510,   -0.020,   -0.439,
        0.050,   -1.693,    1.112,   -8.519,   -0.061,    3.231,    1.535,
        2.848,   -1.197,   14.808,    2.340,   -0.687,    6.701,   -2.488,
       -2.406,   -1.114,   -8.550,    0.837,   -7.614,    3.645,   -2.687,
       -3.360,    2.150,   -0.240,   -2.072
    },
    {  -0.178,    1.225,    2.332,   -0.276,   -2.154,    0.897,   -1.766,
        0.202,    1.101,    0.292,    7.097,   -0.552,    2.418,   -1.173,
       -0.553,    0.670,   -3.591,   -0.051,   -8.406,   -0.394,   -0.385,
        0.221,   -1.962,    1.044,   -8.507,   -0.212,    2.955,    1.310,
        2.805,   -1.082,   14.123,    2.332,   -1.443,    8.045,   -0.992,
       -1.964,   -0.112,   -7.540,    1.793,   -7.852,    2.510,   -3.228,
       -5.376,    3.563,    0.345,   -2.645
    },
    {  -0.663,    0.912,    2.348,   -0.432,   -2.032,    0.764,   -1.431,
        0.061,    1.291,    0.147,    7.382,   -0.455,    2.403,   -1.107,
       -0.759,    0.566,   -3.385,   -0.434,   -8.213,   -0.418,   -0.313,
       -0.189,   -1.836,    1.061,   -8.700,    0.013,    3.637,    1.338,
        3.223,   -1.185,   16.578,    3.352,   -0.981,    7.575,   -1.664,
       -2.121,   -0.052,   -7.226,   -0.089,   -8.545,    3.059,   -3.005,
       -4.728,    2.164,   -1.980,   -4.451
    },
    {  -0.891,    0.832,    2.442,   -0.416,   -2.083,    0.864,   -1.486,
       -0.015,    1.317,   -0.062,    7.128,   -0.705,    2.595,   -1.098,
       -0.764,    0.686,   -3.420,   -0.392,   -7.894,   -0.718,   -0.475,
       -0.210,   -2.140,    1.003,   -8.639,    0.417,    3.841,    1.450,
        3.137,   -1.350,   15.707,    3.360,   -1.415,    7.924,   -2.149,
       -2.552,    0.696,   -7.058,    0.185,   -8.467,    2.522,   -2.545,
       -5.039,    2.717,   -2.152,   -3.619
    },
    {  -0.694,    0.974,    2.529,   -0.189,   -2.307,    0.853,   -1.500,
       -0.048,    1.409,   -0.034,    7.151,   -0.230,    2.767,   -1.224,
       -0.959,    0.801,   -3.499,   -0.355,   -7.730,   -0.553,   -0.571,
       -0.107,   -2.179,    0.966,   -8.588,    0.503,    4.037,    1.233,
        3.167,   -1.499,   15.780,    3.708,   -1.270,    7.911,   -2.276,
       -2.348,    0.383,   -6.423,   -0.242,   -8.076,    3.205,   -2.703,
       -4.654,    2.791,   -2.067,   -3.557
    },
    {  -0.584,    0.837,    2.733,   -0.230,   -2.214,    0.758,   -1.541,
       -0.192,    1.451,    0.109,    7.137,   -0.384,    3.188,   -1.396,
       -1.075,    0.658,   -3.388,   -0.719,   -7.827,   -0.009,   -0.280,
        0.160,   -2.212,    1.069,   -8.403,   -0.041,    4.691,    1.358,
        3.348,   -1.046,   15.787,    5.036,   -0.837,    7.324,   -3.008,
       -3.227,   -0.977,   -7.391,   -0.967,   -8.288,    2.533,   -1.398,
       -4.318,    1.672,   -2.243,   -2.660
    },
    {  -0.450,    1.073,    2.548,   -0.549,   -1.890,    0.999,   -1.478,
       -0.114,    1.568,    0.510,    7.004,   -0.462,    3.652,   -1.006,
       -1.093,    0.534,   -3.095,   -0.746,   -8.083,    0.295,   -0.128,
        0.306,   -2.272,    1.319,   -8.273,   -0.606,    5.003,    1.363,
        3.337,   -0.700,   15.326,    4.258,   -1.077,    7.785,   -2.779,
       -3.969,   -1.702,   -6.974,   -1.286,   -8.837,    1.081,   -1.540,
       -4.034,    1.651,   -2.516,   -2.796
    },
    {  -0.486,    1.071,    2.423,   -0.419,   -1.438,    0.874,   -1.576,
       -0.277,    1.530,    0.473,    6.948,   -0.413,    3.760,   -0.905,
       -0.967,    0.410,   -3.100,   -0.956,   -7.976,    0.306,   -0.219,
        0.155,   -1.877,    1.220,   -8.476,   -0.794,    4.898,    1.498,
        3.500,   -0.764,   15.459,    3.522,   -1.744,    7.604,   -3.036,
       -4.049,   -1.454,   -7.503,   -0.611,   -9.099,    0.171,   -2.826,
       -4.190,    2.051,   -2.697,   -3.494
    },
    {  -0.367,    0.886,    2.621,   -0.414,   -1.674,    1.096,   -1.306,
       -0.285,    1.361,    0.605,    6.895,   -0.403,    3.825,   -1.233,
       -0.955,    0.159,   -3.180,   -0.906,   -7.869,    0.260,   -0.182,
        0.259,   -1.883,    0.931,   -8.459,   -0.757,    4.850,    1.411,
        3.248,   -0.853,   15.145,    4.279,   -2.115,    7.663,   -2.278,
       -3.323,   -2.436,   -6.943,   -0.230,   -9.982,   -0.668,   -1.940,
       -4.275,    1.578,   -3.501,   -3.053
    },
    {  -0.091,    0.663,    2.706,    0.076,   -1.425,    0.934,   -1.396,
       -0.267,    1.317,    0.923,    6.958,   -0.518,    4.080,   -1.571,
       -0.928,    0.241,   -3.040,   -0.835,   -8.038,    0.660,   -0.163,
        0.249,   -1.778,    0.959,   -8.621,   -0.478,    4.927,    1.541,
        3.275,   -0.886,   15.278,    4.317,   -2.564,    8.024,   -2.567,
       -2.295,   -3.153,   -7.360,    0.276,   -9.333,   -1.111,   -2.472,
       -4.798,    2.154,   -4.102,   -2.704
    },
    {  -0.205,    0.938,    2.895,    0.124,   -1.678,    0.843,   -1.571,
       -0.134,    1.231,    0.813,    6.999,   -0.519,    4.182,   -1.373,
       -1.000,   -0.105,   -3.253,   -0.943,   -8.090,    0.684,   -0.178,
        0.117,   -1.911,    0.970,   -8.656,   -0.199,    4.783,    1.586,
        3.511,   -1.166,   15.137,    4.229,   -0.792,    7.403,   -2.290,
       -2.507,   -2.786,   -7.301,   -0.346,   -7.843,   -0.149,   -2.443,
       -5.379,    1.203,   -4.864,   -2.924
    },
    {  -0.158,    0.823,    3.130,    0.159,   -1.414,    0.372,   -1.582,
       -0.121,    1.438,    1.038,    6.805,   -0.612,    4.239,   -1.564,
       -1.209,    0.039,   -3.504,   -0.949,   -8.201,    0.800,   -0.583,
        0.002,   -2.096,    1.149,   -8.660,   -0.515,    4.908,    1.904,
        3.729,   -0.869,   14.257,    4.319,   -0.779,    7.920,   -3.657,
       -2.820,   -2.502,   -6.909,    0.257,   -7.691,    0.193,   -2.192,
       -4.295,    1.287,   -4.081,   -3.131
    },
    {  -0.275,    0.513,    2.932,    0.293,   -1.483,    0.942,   -1.765,
       -0.201,    1.436,    0.584,    6.407,   -0.401,    4.675,   -1.760,
       -1.185,   -0.063,   -3.124,   -0.438,   -8.396,    0.498,   -0.211,
       -0.062,   -2.046,    1.084,   -8.852,   -0.218,    4.604,    1.598,
        3.551,   -0.985,   14.708,    4.139,   -1.716,    7.527,   -3.837,
       -3.657,   -3.484,   -6.070,   -0.228,   -8.356,   -0.409,   -1.309,
       -5.656,    2.304,   -4.190,   -2.908
    },
    {  -0.351,    0.565,    2.818,    0.156,   -1.346,    0.996,   -1.521,
       -0.096,    1.475,    0.610,    6.293,   -0.553,    4.654,   -1.390,
       -0.928,   -0.237,   -3.061,   -0.781,   -8.779,    0.288,   -0.368,
        0.031,   -1.835,    0.905,   -8.518,   -0.367,    4.789,    1.731,
        3.688,   -0.864,   14.300,    4.244,   -0.523,    6.911,   -2.755,
       -3.250,   -2.499,   -6.245,    0.282,   -8.219,    0.687,   -2.240,
       -5.470,    2.144,   -3.696,   -3.426
    },
    {  -0.192,    0.828,    3.025,    0.064,   -1.354,    0.903,   -1.651,
       -0.233,    1.425,    0.851,    6.157,   -0.848,    4.881,   -1.000,
       -1.132,   -0.268,   -2.723,   -0.648,   -8.834,    0.129,   -0.280,
       -0.051,   -1.668,    1.027,   -8.691,   -0.335,    4.636,    1.330,
        3.797,   -1.087,   15.221,    3.823,   -0.447,    6.381,   -2.533,
       -3.767,   -2.313,   -6.575,   -0.896,   -6.836,    1.634,   -1.706,
       -5.688,    2.219,   -3.590,   -3.119
    },
    {  -0.273,    0.596,    2.873,   -0.078,   -1.371,    0.997,   -1.666,
       -0.360,    1.456,    0.790,    6.436,   -0.320,    4.904,   -1.040,
       -1.024,   -0.254,   -3.000,   -0.756,   -8.383,    0.367,   -0.401,
        0.006,   -1.863,    1.135,   -8.912,   -0.446,    4.695,    1.500,
        4.056,   -1.048,   15.391,    3.754,   -1.064,    7.520,   -2.162,
       -3.436,   -1.753,   -6.482,   -0.571,   -6.221,    1.968,   -2.576,
       -5.931,    0.657,   -3.792,   -3.144
    },
    {  -0.236,    0.725,    2.577,    0.165,   -1.427,    0.877,   -1.532,
       -0.170,    1.445,    0.927,    6.445,   -0.551,    5.060,   -1.224,
       -0.778,   -0.489,   -2.888,   -0.497,   -8.129,    0.237,   -0.719,
        0.137,   -1.737,    1.218,   -9.096,   -0.332,    4.844,    1.475,
        4.055,   -1.060,   14.765,    3.635,   -2.105,    7.393,   -2.271,
       -1.935,   -1.318,   -5.839,   -1.188,   -6.160,    0.702,   -2.263,
       -4.615,    1.297,   -4.293,   -3.424
    },
    {  -0.292,    0.812,    2.828,    0.170,   -1.128,    0.709,   -1.375,
       -0.004,    1.718,    1.246,    6.577,   -0.340,    4.946,   -1.289,
       -0.400,   -0.607,   -2.883,   -0.205,   -8.066,    0.459,   -0.707,
        0.281,   -1.787,    1.103,   -8.969,   -0.203,    4.900,    1.449,
        4.120,   -0.971,   15.750,    2.907,   -2.700,    8.192,   -2.702,
       -2.368,   -1.502,   -5.742,   -1.179,   -7.175,   -0.704,   -2.621,
       -4.775,    1.233,   -4.926,   -5.433
    },
    {  -0.218,    0.560,    2.583,    0.402,   -1.005,    0.575,   -1.310,
        0.278,    1.912,    1.173,    6.399,   -0.191,    4.758,   -1.444,
       -0.236,   -0.800,   -2.921,   -0.164,   -7.844,    0.549,   -0.909,
        0.303,   -1.971,    1.032,   -8.713,   -0.262,    5.339,    1.106,
        3.782,   -0.624,   13.878,    3.691,   -1.762,    8.024,   -2.833,
       -1.870,   -1.704,   -5.805,    0.003,   -8.048,   -0.441,   -2.827,
       -3.552,    1.481,   -4.619,   -4.960
    },
    {   0.087,    0.654,    2.565,    0.297,   -1.145,    0.551,   -1.745,
        0.317,    1.831,    1.152,    6.382,   -0.216,    5.106,   -1.278,
       -0.320,   -0.565,   -2.904,   -0.198,   -7.295,    0.332,   -0.852,
        0.488,   -2.279,    1.268,   -8.171,   -0.087,    4.948,    0.890,
        3.668,   -0.511,   14.007,    4.366,   -0.821,    7.780,   -1.131,
       -2.293,   -1.208,   -5.613,    0.854,   -8.662,    0.308,   -2.659,
       -2.106,    0.560,   -4.589,   -4.789
    },
    {  -0.295,    0.699,    2.582,    0.305,   -0.763,    0.402,   -1.826,
        0.479,    1.950,    1.289,    6.307,   -0.166,    5.095,   -1.509,
       -0.315,   -0.141,   -2.769,   -0.633,   -7.747,    0.423,   -0.885,
        0.339,   -2.483,    1.192,   -8.515,   -0.418,    5.057,    0.973,
        3.730,   -0.416,   15.200,    4.482,   -0.700,    6.034,   -0.799,
       -2.859,   -1.384,   -6.142,    0.719,   -8.464,    0.404,   -3.362,
       -1.700,    1.288,   -4.119,   -4.843
    },
    {  -0.542,    0.848,    2.157,    0.014,   -0.565,    0.468,   -2.020,
        0.573,    1.766,    0.969,    6.209,    0.205,    4.726,   -1.085,
       -0.526,   -0.596,   -3.180,    0.085,   -8.234,    0.570,   -0.752,
        0.580,   -1.711,    1.384,   -8.292,    0.118,    5.374,    1.106,
        3.369,   -0.869,   14.903,    4.761,   -0.937,    4.806,   -0.404,
       -2.889,   -1.486,   -6.260,   -0.072,   -8.103,    1.141,   -3.337,
       -1.403,   -0.079,   -4.023,   -4.469
    },
    {  -0.531,    0.756,    1.983,   -0.110,   -0.585,    0.559,   -2.467,
        0.578,    1.622,    0.839,    6.205,    0.201,    5.090,   -0.710,
       -0.614,   -0.424,   -3.382,    0.088,   -8.159,    0.706,   -0.726,
        0.363,   -1.588,    1.298,   -8.435,    0.218,    5.467,    0.860,
        3.320,   -1.170,   14.897,    4.106,   -1.268,    4.856,    1.496,
       -3.121,   -1.751,   -6.162,   -0.539,   -9.714,    0.890,   -3.759,
       -1.263,   -0.866,   -4.483,   -4.624
    },
    {  -0.673,    0.767,    1.975,   -0.238,   -0.307,    0.479,   -2.593,
        0.219,    1.577,    0.798,    5.901,    0.341,    4.935,   -0.538,
       -1.016,   -0.919,   -3.282,    0.219,   -8.375,    0.464,   -0.457,
        0.067,   -1.268,    1.456,   -8.637,    0.366,    5.885,    0.682,
        3.658,   -1.111,   15.700,    4.518,   -1.896,    5.121,    1.348,
       -3.410,   -1.642,   -6.845,    0.139,  -10.305,    0.383,   -4.373,
       -1.972,    0.281,   -4.825,   -3.661
    },
    {  -0.592,    0.717,    1.981,   -0.471,   -0.502,    0.434,   -2.727,
       -0.020,    1.490,    0.734,    5.603,    0.404,    5.016,   -0.779,
       -0.998,   -0.634,   -3.150,    0.485,   -8.254,    0.573,   -0.551,
        0.199,   -1.403,    1.397,   -8.561,    0.161,    5.959,    0.727,
        3.806,   -1.033,   15.816,    5.496,   -3.077,    5.554,    0.426,
       -3.159,   -1.217,   -7.013,    0.665,   -9.840,    1.033,   -3.743,
       -2.343,    0.893,   -3.593,   -2.333
    },
    {  -1.310,    0.807,    1.962,    0.296,   -0.127,    0.758,   -2.145,
        0.295,    1.210,    0.861,    6.330,    0.486,    4.741,   -0.015,
       -0.755,   -0.069,   -3.614,    0.018,   -8.857,    0.235,   -0.337,
        0.284,   -1.178,    1.252,   -7.917,   -0.198,    5.485,    0.513,
        3.882,   -0.674,   17.556,    5.799,   -2.544,    6.442,    0.633,
       -3.532,   -0.676,   -7.217,    0.470,  -10.265,    0.734,   -2.326,
       -2.731,    0.570,   -5.065,   -3.105
    },
    {  -1.208,    0.917,    1.818,    0.318,   -0.107,    0.679,   -2.459,
        0.164,    1.216,    0.741,    6.480,    0.500,    4.409,   -0.105,
       -0.307,   -0.158,   -3.317,   -0.077,   -8.956,    0.177,   -0.182,
        0.343,   -0.899,    1.253,   -7.988,   -0.451,    5.157,    0.570,
        3.801,   -0.638,   17.419,    5.715,   -2.164,    6.709,    1.085,
       -3.245,   -0.679,   -7.099,    1.049,   -9.994,    0.525,   -2.038,
       -2.561,    2.299,   -3.930,   -2.140
    },
    {  -1.513,    0.864,    1.853,    0.217,    0.022,    0.626,   -2.240,
        0.165,    1.151,    0.648,    6.230,    0.381,    4.505,   -0.158,
       -0.322,    0.022,   -3.551,   -0.507,   -9.218,    0.302,   -0.290,
        0.395,   -0.985,    1.209,   -7.838,   -0.184,    5.196,    0.652,
        4.039,   -0.875,   16.853,    5.034,   -1.412,    5.539,    0.930,
       -3.062,   -1.139,   -6.838,    1.075,  -10.012,    0.375,   -1.689,
       -1.303,    1.271,   -4.668,   -3.284
    },
    {  -1.346,    0.993,    1.378,    0.008,   -0.008,    0.703,   -1.927,
        0.033,    1.240,    0.947,    6.262,    0.471,    4.594,   -0.171,
       -0.164,    0.624,   -3.858,   -0.672,   -9.225,   -0.005,    0.050,
        0.350,   -0.828,    0.886,   -7.599,   -0.139,    5.035,    0.465,
        4.044,   -0.649,   18.112,    3.705,   -0.851,    5.978,    2.100,
       -4.388,   -1.145,   -6.608,    1.301,   -8.445,    0.037,   -1.253,
       -1.447,    0.838,   -4.604,   -2.965
    },
    {  -1.093,    0.784,    1.627,   -0.203,   -0.140,    0.498,   -2.208,
        0.398,    1.291,    0.581,    6.288,    0.972,    4.255,   -0.256,
       -0.219,    0.051,   -3.464,   -0.548,   -9.453,   -0.126,   -0.058,
        0.207,   -1.378,    0.903,   -7.518,   -0.224,    5.042,    0.990,
        4.207,   -0.518,   18.588,    3.771,   -1.112,    6.196,    2.223,
       -4.798,   -2.007,   -6.582,    1.415,   -9.917,    0.595,   -2.833,
       -1.297,    0.717,   -4.728,   -2.514
    },
    {  -0.948,    0.668,    1.639,   -0.231,   -0.218,    0.445,   -2.045,
        0.464,    1.093,    0.664,    6.238,    1.275,    4.248,   -0.140,
       -0.140,    0.181,   -3.394,   -0.413,   -9.484,   -0.168,   -0.318,
        0.122,   -1.577,    1.000,   -7.262,   -0.392,    5.034,    0.715,
        4.215,   -0.168,   17.835,    4.877,   -1.081,    7.628,    2.007,
       -5.161,   -1.324,   -7.867,    2.042,  -10.100,    0.589,   -2.316,
       -2.437,    0.706,   -4.497,   -2.028
    },
    {  -0.973,    0.837,    1.667,   -0.065,   -0.158,    0.552,   -2.186,
        0.650,    0.779,    0.540,    6.422,    0.806,    4.018,   -0.336,
       -0.175,    0.167,   -3.597,   -0.171,   -9.043,    0.264,   -0.177,
        0.331,   -1.655,    0.955,   -7.156,   -0.380,    4.884,    0.453,
        4.166,   -0.044,   17.563,    3.747,   -1.526,    7.195,    1.507,
       -5.267,   -0.287,   -7.460,    2.989,   -9.502,    0.676,   -1.884,
       -2.187,    0.605,   -5.582,   -2.683
    },
    {  -1.101,    0.900,    1.856,   -0.108,   -0.114,    0.551,   -2.197,
        0.801,    0.765,    0.584,    6.777,    0.901,    3.927,   -0.378,
       -0.302,   -0.076,   -3.469,   -0.057,   -9.057,    0.209,   -0.148,
        0.305,   -1.219,    1.138,   -7.416,   -0.152,    5.018,    0.615,
        4.239,   -0.057,   18.836,    4.755,   -2.879,    7.899,    1.749,
       -5.054,   -0.731,   -7.092,    3.497,   -9.252,   -0.177,   -1.512,
       -2.490,    0.448,   -4.952,   -2.895
    },
    {  -0.901,    0.639,    1.662,   -0.348,    0.004,    0.399,   -2.367,
        0.767,    1.052,    0.544,    6.817,    0.895,    3.623,   -0.271,
       -0.870,   -0.239,   -2.953,   -0.220,   -9.048,    0.249,   -0.288,
        0.279,   -1.541,    0.804,   -7.293,    0.122,    4.912,    0.668,
        4.315,   -0.250,   19.000,    4.248,   -2.823,    8.669,    1.091,
       -4.107,   -1.373,   -7.747,    4.344,   -8.973,   -0.031,   -2.431,
       -2.424,   -0.680,   -4.239,   -3.971
    },
    {  -0.952,    0.661,    1.981,   -0.436,    0.087,    0.602,   -2.634,
        0.584,    0.882,    0.540,    6.948,    0.548,    3.234,   -0.258,
       -0.905,   -0.390,   -3.058,   -0.172,   -9.206,    0.431,   -0.077,
        0.358,   -1.902,    0.520,   -7.566,    0.408,    5.068,    0.939,
        4.709,   -0.097,   19.461,    3.078,   -2.025,    8.664,    0.268,
       -6.363,   -1.088,   -7.234,    3.895,   -7.378,    0.064,   -1.977,
       -1.476,   -0.646,   -4.273,   -4.111
    },
    {  -0.852,    0.427,    1.514,   -0.348,   -0.027,    0.586,   -2.352,
        0.920,    0.928,    0.603,    6.681,    0.661,    3.796,   -0.064,
       -0.971,   -0.021,   -3.283,    0.034,   -9.310,    0.366,   -0.076,
        0.361,   -1.450,    0.747,   -7.369,    0.130,    4.828,    0.917,
        4.555,    0.080,   19.386,    3.669,   -1.915,    8.652,    0.060,
       -6.577,   -1.686,   -6.989,    4.187,   -8.931,    0.718,   -1.882,
       -1.041,   -0.903,   -3.354,   -3.719
    },
    {  -0.840,    0.637,    1.536,   -0.328,    0.004,    0.455,   -2.123,
        0.969,    1.174,    0.626,    6.941,    0.421,    3.821,   -0.085,
       -0.865,   -0.176,   -3.218,   -0.112,   -9.195,    0.265,   -0.083,
        0.297,   -1.243,    0.919,   -7.155,    0.215,    4.798,    0.839,
        4.482,    0.141,   19.433,    3.971,   -1.053,    8.445,   -0.332,
       -6.263,   -2.375,   -5.754,    3.514,   -8.580,    0.599,   -1.621,
       -1.625,    0.350,   -3.530,   -4.868
    },
    {  -0.646,    0.458,    1.807,   -0.395,   -0.038,    0.299,   -1.722,
        0.599,    1.209,    0.730,    7.226,    0.020,    3.856,   -0.057,
       -0.700,    0.011,   -3.406,   -0.058,   -9.148,   -0.029,   -0.030,
       -0.035,   -1.427,    0.556,   -7.299,    0.076,    4.864,    0.754,
        4.366,   -0.017,   19.119,    4.727,   -0.676,    8.443,    0.462,
       -5.366,   -0.985,   -5.995,    2.572,   -8.986,    0.562,   -0.158,
       -0.099,    0.489,   -4.369,   -4.491
    },
    {  -0.567,    0.454,    1.708,   -0.270,    0.004,    0.210,   -2.009,
        0.455,    1.209,    0.603,    7.287,    0.076,    3.765,    0.025,
       -0.581,    0.106,   -3.378,   -0.473,   -8.991,    0.080,   -0.056,
       -0.096,   -1.203,    0.540,   -7.035,    0.022,    4.677,    0.656,
        4.214,    0.084,   20.060,    4.575,   -1.998,    8.664,    0.909,
       -5.333,   -0.248,   -5.310,    2.205,   -9.259,    1.935,   -0.085,
       -0.040,    0.695,   -4.148,   -5.160
    },
    {  -0.747,    0.705,    1.670,   -0.197,   -0.123,    0.147,   -1.888,
        0.500,    1.346,    0.582,    7.659,    0.094,    3.782,    0.053,
       -0.662,    0.164,   -3.507,   -0.454,   -8.996,    0.371,   -0.203,
       -0.076,   -1.021,    0.369,   -6.874,    0.005,    4.547,    0.489,
        4.327,    0.094,   19.997,    4.767,   -2.194,    7.612,    0.592,
       -4.691,    0.352,   -4.613,    2.271,   -9.934,    1.807,   -0.951,
        0.327,    1.416,   -4.434,   -4.675
    },
    {  -0.849,    0.314,    1.616,   -0.513,   -0.311,    0.277,   -1.951,
        0.232,    1.130,    0.434,    7.487,    0.327,    3.625,   -0.087,
       -0.587,    0.028,   -3.780,   -0.413,   -9.100,    0.204,    0.034,
       -0.094,   -1.169,    0.008,   -6.905,   -0.052,    4.793,    0.317,
        4.388,   -0.125,   20.799,    5.219,   -3.117,    7.139,    0.197,
       -4.317,    0.173,   -4.850,    0.961,   -9.192,    1.470,   -1.745,
       -0.716,    1.491,   -4.415,   -4.463
    },
    {  -0.654,    0.665,    1.710,   -0.136,   -0.108,    0.231,   -1.966,
        0.314,    1.189,    0.510,    6.944,    0.320,    3.743,   -0.204,
       -0.983,    0.264,   -3.650,   -0.427,   -9.139,   -0.029,   -0.128,
        0.139,   -1.283,    0.159,   -6.868,    0.129,    4.756,    0.306,
        3.888,    0.102,   20.344,    4.552,   -2.552,    7.631,    0.203,
       -5.660,   -1.471,   -4.282,    1.059,   -9.018,    0.702,   -1.475,
        0.113,    2.116,   -3.707,   -4.409
    },
    {  -0.705,    0.592,    2.220,   -0.358,   -0.177,    0.323,   -1.795,
        0.246,    1.272,    0.666,    7.062,    0.336,    3.851,    0.157,
       -1.021,    0.434,   -3.802,   -0.383,   -8.892,   -0.379,    0.218,
       -0.017,   -1.213,    0.166,   -7.411,    0.207,    5.183,    0.332,
        4.337,   -0.076,   20.729,    4.481,   -2.971,    7.350,   -1.463,
       -5.913,    0.228,   -5.126,    0.956,   -7.828,    1.549,   -0.759,
       -0.771,    1.084,   -4.071,   -4.877
    },
    {  -0.599,    0.594,    2.220,   -0.129,   -0.227,    0.256,   -1.651,
        0.037,    1.390,    0.693,    7.254,    0.177,    3.770,    0.114,
       -1.242,    0.368,   -3.682,   -0.669,   -8.794,   -0.300,    0.279,
       -0.289,   -1.250,   -0.052,   -7.276,    0.355,    4.990,    0.231,
        4.174,   -0.342,   21.033,    2.873,   -3.513,    8.292,   -0.862,
       -5.077,    0.628,   -4.285,    0.961,   -7.788,    1.811,   -0.222,
       -1.071,    1.478,   -4.381,   -5.830
    },
    {  -0.726,    0.501,    2.297,   -0.144,   -0.239,    0.332,   -1.535,
        0.116,    1.203,    0.645,    7.007,    0.318,    3.537,    0.215,
       -1.104,    0.481,   -3.552,   -0.762,   -8.897,   -0.377,    0.351,
       -0.181,   -1.457,    0.183,   -6.910,    0.021,    4.861,    0.374,
        3.896,   -0.125,   21.054,    2.880,   -3.745,    9.193,   -0.560,
       -4.843,   -0.463,   -4.208,   -0.349,   -7.702,    1.647,    0.263,
       -0.206,    1.578,   -4.082,   -5.003
    },
    {  -0.696,    0.324,    1.964,   -0.200,   -0.482,    0.363,   -1.421,
       -0.027,    1.328,    0.443,    6.970,    0.369,    3.501,    0.179,
       -1.338,    0.143,   -3.625,   -0.858,   -9.179,   -0.230,    0.170,
       -0.156,   -1.208,    0.099,   -7.002,   -0.144,    4.908,   -0.398,
        4.334,    0.086,   21.206,    3.553,   -2.877,    8.437,    0.161,
       -5.237,   -0.115,   -5.314,   -0.765,   -8.200,    0.838,    0.445,
       -0.379,    0.594,   -4.028,   -4.946
    },
    {  -0.665,    0.147,    2.266,   -0.250,   -0.226,    0.470,   -1.400,
        0.387,    1.157,    0.634,    7.081,    0.464,    3.774,    0.146,
       -1.105,    0.590,   -3.907,   -0.789,   -9.403,   -0.402,    0.140,
       -0.264,   -1.133,    0.037,   -7.278,   -0.059,    4.662,   -0.210,
        4.140,   -0.003,   21.173,    3.961,   -2.594,    7.994,    0.340,
       -5.365,    0.723,   -4.872,    0.073,   -7.601,    0.857,    0.213,
       -0.014,    1.279,   -3.716,   -6.255
    },
    {  -0.554,    0.262,    2.412,   -0.053,   -0.150,    0.502,   -1.224,
        0.621,    1.069,    0.779,    6.882,    0.443,    4.134,   -0.020,
       -1.097,    0.319,   -3.911,   -0.312,   -9.315,   -0.303,    0.014,
       -0.241,   -1.128,    0.450,   -7.598,    0.073,    4.666,   -0.153,
        4.187,   -0.237,   21.387,    4.128,   -2.692,    8.392,   -0.751,
       -5.803,    0.928,   -5.221,    0.915,   -8.132,    1.317,   -1.073,
       -0.396,    0.916,   -4.342,   -6.963
    },
    {  -0.489,    0.377,    2.724,    0.227,   -0.125,    0.236,   -1.134,
        0.819,    1.245,    0.737,    6.825,    0.290,    3.906,   -0.215,
       -1.230,    0.049,   -4.068,   -0.335,   -9.248,   -0.377,    0.296,
       -0.232,   -0.915,    0.360,   -7.313,   -0.018,    4.893,   -0.110,
        4.184,   -0.390,   21.364,    4.805,   -2.933,    7.752,    0.447,
       -4.137,    1.429,   -4.968,    0.574,   -7.179,    0.801,   -0.849,
       -0.155,    0.427,   -4.831,   -7.309
    },
    {  -0.849,    0.391,    2.614,   -0.015,   -0.001,    0.284,   -1.450,
        0.663,    1.002,    0.579,    6.728,    0.303,    3.620,    0.000,
       -1.252,    0.497,   -3.871,   -0.371,   -9.410,   -0.053,    0.175,
       -0.271,   -1.054,    0.294,   -7.304,   -0.086,    4.905,   -0.032,
        4.049,   -0.351,   22.134,    4.491,   -3.332,    8.003,    0.434,
       -4.811,    1.865,   -5.898,   -0.753,   -6.398,    0.256,   -1.773,
        0.377,    1.110,   -5.072,   -6.500
    },
    {  -0.953,    0.372,    2.432,   -0.138,   -0.104,    0.232,   -1.811,
        1.093,    0.795,    0.481,    6.840,    0.220,    3.750,   -0.152,
       -1.199,    0.474,   -3.895,   -0.536,   -9.556,   -0.027,    0.214,
       -0.548,   -1.169,    0.379,   -7.221,   -0.103,    5.017,   -0.057,
        4.254,   -0.251,   21.741,    4.955,   -2.492,    8.571,    0.115,
       -4.624,    0.790,   -6.111,   -1.466,   -5.384,    0.088,   -2.573,
       -1.377,   -0.112,   -6.533,   -5.793
    },
    {  -0.916,    0.131,    2.411,    0.047,   -0.330,    0.442,   -2.225,
        1.018,    0.832,    0.681,    6.965,    0.720,    3.995,   -0.084,
       -1.762,    0.252,   -4.162,   -0.574,   -9.535,   -0.366,    0.120,
       -0.459,   -0.949,    0.297,   -7.365,   -0.336,    5.130,   -0.239,
        4.298,    0.114,   21.996,    4.535,   -1.928,    8.068,    0.499,
       -4.861,    0.822,   -6.187,   -1.038,   -5.374,   -0.530,   -2.806,
       -0.729,   -0.586,   -5.894,   -5.739
    },
    {  -0.860,    0.240,    2.348,    0.003,   -0.196,    0.433,   -2.298,
        1.056,    0.984,    0.715,    7.103,    0.480,    3.673,   -0.034,
       -1.616,    0.285,   -4.351,   -0.726,   -9.420,   -0.501,   -0.091,
       -0.361,   -1.122,    0.027,   -7.737,   -0.259,    5.010,   -0.204,
        4.435,   -0.293,   22.170,    4.747,   -2.440,    8.276,    0.835,
       -4.866,    1.067,   -6.656,   -1.610,   -4.892,   -0.972,   -1.579,
       -0.844,    0.211,   -6.589,   -4.874
    },
    {  -0.867,    0.330,    2.778,    0.351,   -0.304,    0.242,   -1.984,
        1.229,    0.993,    0.607,    7.080,    0.079,    3.502,   -0.051,
       -1.433,    0.336,   -4.143,   -0.480,   -8.919,   -0.281,   -0.074,
       -0.272,   -1.607,    0.371,   -7.674,   -0.641,    5.146,   -0.241,
        4.460,   -0.234,   21.869,    4.083,   -1.836,    9.753,    1.686,
       -2.515,    1.159,   -6.074,   -0.588,   -5.101,   -0.681,   -1.375,
       -0.498,    1.066,   -6.296,   -4.077
    },
    {  -0.537,    0.442,    2.630,    0.254,   -0.546,    0.266,   -2.042,
        1.183,    0.986,    0.756,    7.207,    0.487,    3.838,   -0.193,
       -1.652,    0.444,   -4.111,   -0.445,   -9.006,   -0.244,   -0.172,
       -0.475,   -1.051,    0.220,   -7.804,   -0.630,    5.289,   -0.093,
        4.596,   -0.477,   22.060,    3.950,   -2.593,    7.968,    2.798,
       -2.116,    1.931,   -5.266,   -0.833,   -4.522,    0.357,   -0.722,
        0.080,   -0.189,   -5.758,   -4.217
    },
    {  -0.441,    0.369,    2.586,   -0.326,   -0.509,    0.274,   -1.543,
        0.339,    0.807,    1.123,    7.172,    0.819,    4.265,    0.092,
       -1.628,    0.463,   -4.454,   -0.022,   -9.316,   -0.704,   -0.122,
       -1.017,   -1.166,    0.341,   -7.493,   -0.202,    4.830,    0.282,
        4.297,   -0.511,   22.183,    4.094,   -2.635,    8.528,    2.657,
       -2.113,    2.150,   -7.095,   -0.881,   -3.864,    1.121,   -1.400,
       -2.023,   -0.735,   -6.567,   -3.482
    },
    {  -0.343,    0.485,    2.726,   -0.517,   -0.558,    0.460,   -1.483,
       -0.056,    0.955,    1.032,    7.018,    0.483,    4.366,   -0.108,
       -1.332,    0.423,   -4.304,   -0.230,   -9.175,   -0.448,    0.018,
       -1.110,   -0.928,    0.414,   -7.344,   -0.178,    4.955,    0.564,
        4.314,   -0.927,   21.508,    5.232,   -4.322,    7.100,    3.389,
       -2.751,    3.481,   -5.802,   -0.052,   -3.709,    1.235,   -0.510,
       -3.062,   -1.468,   -4.962,   -4.459
    },
    {  -0.351,    0.477,    3.003,   -0.462,   -0.764,    0.363,   -1.464,
        0.145,    1.004,    1.014,    7.156,    0.370,    4.300,    0.256,
       -1.585,    0.302,   -4.529,   -0.218,   -9.005,   -0.772,   -0.053,
       -1.373,   -1.063,    0.447,   -7.494,    0.035,    5.123,    0.192,
        4.988,   -0.544,   22.966,    4.104,   -2.473,    7.465,    3.540,
       -2.499,    3.674,   -5.946,    1.339,   -3.781,    1.213,   -1.181,
       -3.296,   -0.202,   -5.336,   -4.505
    },
    {  -0.611,    0.610,    2.911,   -0.386,   -0.892,    0.392,   -1.580,
        0.356,    0.736,    0.783,    7.037,    0.603,    4.239,    0.472,
       -1.696,    0.267,   -4.317,   -0.105,   -9.000,   -0.622,   -0.057,
       -1.000,   -1.073,    0.697,   -7.520,   -0.023,    5.112,    0.233,
        4.533,   -0.621,   22.633,    3.925,   -1.372,    7.253,    2.518,
       -2.955,    2.267,   -6.007,    1.364,   -3.775,    1.325,   -2.193,
       -4.210,   -1.280,   -6.301,   -4.429
    },
    {  -0.877,    0.654,    3.003,   -0.303,   -1.287,    0.432,   -1.412,
        0.708,    0.820,    0.605,    6.845,    0.845,    4.451,    0.215,
       -1.318,    0.371,   -4.403,    0.183,   -9.328,   -0.821,   -0.049,
       -0.876,   -1.021,    0.667,   -7.438,    0.031,    5.186,    0.257,
        4.375,   -0.502,   22.632,    4.454,   -1.490,    6.492,    3.090,
       -2.273,    1.652,   -6.267,    1.319,   -4.375,    1.385,   -1.953,
       -3.002,   -2.811,   -5.775,   -3.612
    },
    {  -0.897,    0.718,    2.831,   -0.379,   -1.123,    0.559,   -1.671,
        0.662,    0.834,    0.506,    7.047,    0.941,    4.460,    0.285,
       -1.265,    0.346,   -4.500,    0.508,   -9.089,   -1.080,   -0.151,
       -0.929,   -0.691,    0.390,   -7.172,    0.113,    5.352,   -0.099,
        4.443,   -0.332,   22.498,    4.330,   -1.658,    7.242,    2.550,
       -2.639,    1.994,   -6.211,    1.224,   -4.149,    1.004,   -1.311,
       -3.728,   -3.238,   -5.905,   -4.294
    },
    {  -0.956,    0.746,    2.699,   -0.598,   -1.729,    0.366,   -1.916,
        0.693,    0.985,    0.673,    6.620,    0.514,    4.263,    0.322,
       -1.065,    0.741,   -4.496,    0.127,   -9.165,   -1.432,   -0.379,
       -1.222,   -0.469,    0.189,   -6.796,   -0.020,    5.334,   -0.093,
        4.452,   -0.173,   22.838,    4.321,   -1.361,    5.543,    1.972,
       -2.611,    2.255,   -5.820,    0.884,   -4.597,    2.645,   -1.951,
       -3.663,   -2.699,   -5.211,   -5.506
    },
    {  -0.815,    0.826,    3.435,   -0.441,   -1.396,    0.247,   -2.085,
        1.409,    0.793,    0.513,    6.239,    0.157,    4.313,   -0.116,
       -0.618,    0.534,   -4.369,    0.136,   -8.303,   -1.583,   -0.537,
       -1.122,   -0.473,    0.277,   -6.966,    0.145,    5.501,   -0.100,
        4.557,   -0.093,   22.180,    4.919,   -1.374,    5.708,    2.295,
       -4.231,    0.829,   -4.421,    1.228,   -5.276,    3.243,   -2.142,
       -3.522,   -2.879,   -4.458,   -4.972
    },
    {  -1.032,    0.762,    3.541,   -0.464,   -1.435,    0.265,   -1.838,
        1.686,    0.739,    0.329,    6.084,    0.382,    4.512,   -0.141,
       -0.908,    0.420,   -4.823,    0.027,   -8.508,   -1.010,   -0.373,
       -1.112,   -0.298,    0.246,   -6.850,   -0.083,    5.442,   -0.136,
        4.393,   -0.116,   23.433,    5.339,   -1.492,    6.064,    2.148,
       -3.091,    2.770,   -5.492,    1.363,   -3.742,    2.627,   -1.726,
       -3.418,   -3.493,   -4.245,   -5.445
    },
    {  -0.863,    0.544,    3.332,   -0.204,   -1.345,    0.347,   -2.032,
        1.092,    0.517,    0.373,    6.299,    0.264,    4.338,   -0.058,
       -0.909,    0.339,   -4.804,   -0.260,   -8.736,   -0.661,   -0.276,
       -0.971,   -0.704,    0.207,   -7.141,   -0.121,    5.141,   -0.289,
        3.936,    0.288,   22.956,    6.141,   -0.810,    7.265,    1.546,
       -3.083,    2.270,   -6.631,    1.486,   -4.276,    1.883,   -1.384,
       -2.365,   -3.942,   -4.345,   -5.616
    },
    {  -0.587,    0.610,    3.407,   -0.049,   -1.483,    0.251,   -1.996,
        1.022,    0.447,    0.389,    6.374,    0.573,    4.554,   -0.294,
       -0.888,    0.374,   -4.651,   -0.288,   -8.478,   -0.211,   -0.071,
       -1.094,   -0.609,    0.315,   -7.121,   -0.144,    5.146,   -0.126,
        3.984,    0.314,   22.845,    7.095,    0.219,    6.886,    0.498,
       -2.751,    3.171,   -8.411,    0.695,   -4.436,    3.198,   -1.050,
       -3.865,   -1.828,   -4.666,   -5.026
    },
    {  -0.739,    0.378,    3.320,   -0.147,   -1.542,    0.404,   -1.943,
        0.870,    0.810,    0.179,    6.137,    0.531,    4.337,   -0.524,
       -0.711,    0.117,   -4.614,   -0.068,   -9.001,   -0.243,    0.016,
       -1.054,   -0.944,    0.055,   -7.565,   -0.261,    4.804,   -0.362,
        4.086,    0.066,   22.694,    6.902,    0.368,    5.899,    0.202,
       -4.286,    3.132,   -8.844,   -0.292,   -4.503,    2.015,   -1.365,
       -3.685,   -2.499,   -5.968,   -5.068
    },
    {  -0.843,    0.604,    3.471,   -0.229,   -1.635,    0.266,   -2.212,
        0.571,    0.447,    0.422,    6.370,    0.429,    4.054,   -0.040,
       -0.874,    0.097,   -5.209,   -0.290,   -8.450,   -0.187,    0.043,
       -0.750,   -0.913,    0.101,   -6.773,   -0.170,    5.317,   -0.278,
        3.801,    0.813,   21.177,    7.378,    0.519,    5.944,    0.101,
       -3.102,    3.337,   -8.289,   -0.091,   -4.069,    0.761,   -1.663,
       -3.922,   -1.787,   -6.413,   -5.225
    },
    {  -0.532,    0.634,    3.372,   -0.190,   -1.772,    0.469,   -2.149,
        0.621,    0.270,    0.482,    6.269,    0.245,    3.902,   -0.095,
       -0.795,    0.035,   -5.255,   -0.288,   -8.407,   -0.038,    0.139,
       -0.700,   -0.855,    0.277,   -6.721,   -0.160,    5.378,    0.250,
        3.621,    0.846,   22.270,    7.729,    0.079,    5.536,   -0.580,
       -4.215,    2.752,   -8.162,    0.447,   -3.507,    1.057,   -1.521,
       -2.685,   -1.524,   -7.461,   -4.276
    },
    {  -0.525,    0.558,    3.567,   -0.216,   -1.885,    0.582,   -2.256,
        0.686,    0.192,    0.355,    6.378,    0.144,    3.719,   -0.259,
       -0.783,    0.056,   -5.027,   -0.140,   -8.377,    0.093,    0.326,
       -0.942,   -1.093,    0.260,   -6.499,   -0.214,    4.824,    0.204,
        3.820,    0.436,   20.981,    8.268,   -0.941,    6.178,    0.926,
       -3.264,    3.582,   -7.729,    0.573,   -4.663,    0.351,   -0.771,
       -3.165,   -2.545,   -7.260,   -4.767
    },
    {  -0.499,    0.575,    3.753,    0.080,   -2.099,    0.537,   -2.141,
        0.796,    0.210,    0.513,    6.595,    0.197,    3.614,   -0.385,
       -0.683,    0.061,   -4.848,    0.155,   -8.172,    0.375,    0.265,
       -1.054,   -0.899,    0.055,   -6.647,   -0.010,    4.963,    0.091,
        4.068,    0.345,   21.804,    7.686,   -1.112,    6.787,    1.501,
       -3.794,    4.062,   -8.163,    1.351,   -3.893,   -0.281,   -0.963,
       -3.156,   -3.414,   -6.679,   -5.239
    },
    {  -0.836,    0.567,    3.680,    0.019,   -2.313,    0.267,   -2.392,
        0.819,    0.668,    0.402,    6.732,   -0.064,    3.707,   -0.301,
       -0.900,    0.018,   -5.128,    0.033,   -7.897,    0.162,    0.298,
       -0.716,   -0.909,    0.042,   -6.443,    0.114,    5.212,   -0.066,
        4.059,    0.560,   23.100,    6.847,   -0.603,    7.024,    1.136,
       -2.250,    3.118,   -7.760,    1.108,   -4.600,    0.077,   -1.457,
       -3.162,   -2.338,   -6.307,   -4.382
    },
    {  -0.558,    0.527,    3.786,    0.294,   -1.824,    0.515,   -2.104,
        0.514,    0.463,    0.527,    6.876,   -0.018,    3.434,   -0.396,
       -1.016,   -0.101,   -4.992,    0.157,   -7.724,    0.134,    0.177,
       -0.814,   -0.472,    0.146,   -6.549,    0.198,    5.096,   -0.375,
        3.968,    0.227,   22.592,    6.762,   -0.801,    7.919,    1.329,
       -2.190,    2.562,   -7.227,    0.608,   -5.132,   -0.106,   -1.345,
       -2.635,   -2.321,   -6.488,   -4.217
    },
    {  -0.753,    0.531,    3.807,    0.273,   -1.865,    0.404,   -2.024,
        0.610,    0.382,    0.439,    6.962,   -0.125,    3.383,   -0.320,
       -0.658,    0.250,   -4.974,    0.108,   -7.514,   -0.062,    0.256,
       -0.770,   -0.532,    0.187,   -6.581,    0.013,    5.277,   -0.469,
        3.666,    0.467,   23.838,    7.003,   -0.342,    7.551,    0.968,
       -2.754,    2.905,   -7.350,    0.644,   -5.285,    0.016,   -1.828,
       -3.114,   -1.087,   -7.568,   -3.952
    },
    {  -0.934,    0.604,    4.047,    0.158,   -2.216,    0.192,   -2.229,
        0.384,    0.196,    0.202,    7.147,   -0.143,    3.315,   -0.405,
       -0.869,    0.079,   -4.772,   -0.063,   -7.329,    0.188,    0.070,
       -0.795,   -0.906,    0.161,   -6.139,   -0.096,    4.968,   -0.568,
        3.829,    0.392,   23.278,    6.218,    0.009,    7.393,    0.768,
       -2.652,    3.411,   -8.417,   -0.818,   -5.103,   -0.159,   -2.320,
       -2.665,   -1.693,   -9.086,   -4.065
    },
    {  -0.865,    0.717,    4.038,   -0.174,   -2.175,    0.223,   -2.252,
        0.202,    0.362,    0.426,    6.903,   -0.310,    3.807,   -0.559,
       -0.850,    0.094,   -4.942,   -0.167,   -7.418,    0.265,   -0.035,
       -0.751,   -0.916,    0.248,   -6.193,   -0.445,    5.138,   -0.545,
        4.023,    0.137,   21.385,    6.211,   -1.111,    6.909,    0.596,
       -1.676,    3.013,   -8.619,   -2.405,   -5.069,    0.401,   -1.811,
       -2.399,   -1.887,   -8.453,   -2.882
    },
    {  -0.715,    0.735,    4.063,   -0.086,   -2.187,    0.240,   -2.422,
        0.129,    0.551,    0.335,    6.679,   -0.318,    4.002,   -0.392,
       -0.669,    0.135,   -5.135,   -0.223,   -7.129,    0.272,    0.214,
       -0.588,   -1.073,    0.160,   -6.103,   -0.691,    4.983,   -0.565,
        3.849,    0.318,   21.605,    5.908,   -0.420,    6.078,    1.569,
       -0.582,    3.117,   -9.357,   -2.891,   -4.684,   -0.130,   -0.648,
       -1.949,   -1.522,   -8.207,   -3.719
    },
    {  -0.894,    0.608,    4.357,    0.030,   -2.254,   -0.032,   -2.016,
       -0.122,    0.385,    0.363,    6.888,   -0.212,    4.068,   -0.303,
       -0.901,    0.057,   -4.765,   -0.061,   -7.315,    0.221,   -0.144,
       -0.807,   -1.069,    0.332,   -6.519,   -0.251,    4.983,   -0.337,
        3.685,    0.089,   21.985,    5.503,    0.405,    5.955,    2.354,
        0.171,    3.111,   -8.834,   -3.514,   -4.233,   -0.408,   -1.464,
       -2.526,   -1.526,  -10.460,   -3.913
    },
    {  -0.892,    0.780,    4.193,    0.194,   -2.258,   -0.202,   -1.946,
        0.078,    0.522,    0.330,    6.687,   -0.184,    4.242,   -0.175,
       -0.491,    0.368,   -5.050,   -0.372,   -7.062,    0.357,   -0.055,
       -0.871,   -1.045,    0.081,   -6.653,   -0.459,    4.906,   -0.172,
        3.977,   -0.013,   21.658,    4.685,   -0.064,    6.535,    1.705,
       -0.201,    3.224,   -8.754,   -3.881,   -5.045,   -0.102,   -2.551,
       -2.406,   -1.778,  -10.255,   -3.706
    },
    {  -0.944,    0.627,    4.252,    0.299,   -2.276,   -0.051,   -1.594,
        0.265,    0.386,    0.434,    6.577,   -0.189,    3.993,   -0.049,
       -0.494,    0.334,   -5.058,   -0.411,   -7.136,    0.335,    0.140,
       -0.721,   -1.181,   -0.016,   -6.561,   -0.425,    4.853,    0.002,
        3.918,   -0.335,   22.114,    4.388,    0.278,    7.368,    2.040,
        0.312,    3.144,   -8.801,   -3.212,   -4.167,   -0.204,   -2.678,
       -2.583,   -2.578,  -10.161,   -3.368
    },
    {  -0.695,    0.502,    4.391,    0.143,   -2.180,    0.066,   -1.862,
        0.356,   -0.015,    0.359,    6.568,    0.034,    4.127,    0.087,
       -0.669,    0.149,   -4.938,   -0.215,   -7.595,    0.281,    0.421,
       -0.969,   -1.270,   -0.046,   -6.458,   -0.251,    4.965,    0.371,
        3.861,   -0.499,   22.096,    3.873,    0.089,    6.620,    1.897,
       -1.119,    3.564,   -9.529,   -2.315,   -3.967,    0.027,   -2.464,
       -2.478,   -2.234,   -9.839,   -3.351
    },
    {  -0.776,    0.739,    4.215,    0.275,   -2.301,   -0.076,   -2.276,
        0.334,   -0.129,    0.341,    6.443,    0.150,    4.098,    0.175,
       -0.955,    0.171,   -5.207,    0.070,   -7.803,    0.373,    0.353,
       -0.989,   -1.352,   -0.024,   -6.541,   -0.052,    4.752,    0.432,
        3.618,   -0.753,   22.307,    3.120,   -0.272,    6.069,    2.427,
       -1.134,    3.924,   -9.779,   -3.292,   -3.644,    0.257,   -2.487,
       -1.567,   -2.084,  -10.768,   -2.490
    },
    {  -0.557,    0.722,    4.089,    0.303,   -2.182,   -0.264,   -2.013,
        0.401,    0.000,    0.456,    6.430,   -0.181,    4.222,   -0.127,
       -1.075,    0.207,   -5.011,    0.073,   -7.625,    0.621,    0.553,
       -0.876,   -1.123,   -0.082,   -6.695,   -0.291,    4.550,    0.458,
        3.764,   -0.476,   23.428,    2.758,   -0.897,    6.941,    2.591,
       -0.579,    4.941,  -11.017,   -2.905,   -4.690,    0.216,   -2.560,
       -1.495,   -1.620,  -11.134,   -1.810
    },
    {  -0.638,    0.842,    3.954,    0.194,   -2.240,   -0.085,   -2.070,
        0.505,   -0.057,    0.665,    6.510,   -0.187,    4.186,   -0.294,
       -1.048,    0.353,   -5.268,    0.056,   -7.620,    0.439,    0.548,
       -1.001,   -1.198,   -0.228,   -6.424,   -0.260,    4.543,    0.495,
        3.871,   -0.486,   23.740,    2.856,   -1.942,    7.523,    2.798,
       -0.263,    5.584,  -10.916,   -3.401,   -4.601,    0.245,   -2.361,
       -1.553,   -1.855,  -10.811,   -1.870
    },
    {  -0.942,    0.858,    4.304,    0.233,   -2.215,    0.103,   -2.136,
        0.643,   -0.178,    0.565,    6.272,   -0.245,    4.363,   -0.167,
       -0.928,    0.179,   -4.709,    0.125,   -7.797,    0.536,    0.462,
       -0.777,   -0.750,   -0.295,   -6.640,   -0.164,    4.475,    0.439,
        3.822,   -0.556,   24.248,    2.978,   -1.483,    7.333,    2.728,
       -0.503,    5.310,  -10.762,   -3.152,   -5.132,    0.275,   -2.299,
       -1.715,   -1.839,  -11.490,   -1.956
    },
    {  -0.816,    0.944,    4.408,    0.269,   -2.281,    0.153,   -1.964,
        0.982,   -0.248,    0.339,    6.196,   -0.238,    4.542,   -0.182,
       -0.758,    0.036,   -4.988,    0.075,   -7.997,    0.863,    0.636,
       -0.901,   -0.838,   -0.337,   -6.366,   -0.458,    4.608,    0.388,
        3.859,   -0.355,   24.331,    2.160,   -0.920,    7.472,    1.798,
        0.104,    3.936,   -9.299,   -3.838,   -4.752,    1.397,   -2.141,
       -0.738,   -1.008,  -11.452,   -1.088
    },
    {  -0.863,    1.130,    4.315,    0.374,   -2.347,    0.152,   -2.145,
        0.779,   -0.010,   -0.069,    6.275,   -0.226,    4.640,   -0.207,
       -0.515,    0.005,   -5.004,    0.078,   -7.758,    0.606,    0.434,
       -0.795,   -0.593,   -0.532,   -6.285,    0.109,    4.727,    0.192,
        3.744,   -0.421,   23.608,    1.762,   -0.421,    6.572,    3.250,
        0.855,    2.596,   -8.642,   -4.260,   -4.119,    0.540,   -1.769,
       -1.089,   -2.010,  -12.236,   -0.331
    },
    {  -0.818,    1.244,    4.301,    0.375,   -2.460,   -0.015,   -1.900,
        0.704,    0.099,   -0.283,    6.298,   -0.198,    4.659,   -0.540,
       -0.410,   -0.020,   -5.152,    0.052,   -7.586,    0.777,    0.348,
       -0.802,   -0.500,   -0.375,   -6.149,    0.159,    4.638,    0.224,
        3.455,   -0.456,   23.916,    2.934,   -1.069,    6.871,    2.878,
        1.085,    2.498,   -8.307,   -3.809,   -4.569,    0.194,   -1.087,
       -0.969,   -1.328,  -12.040,    0.269
    },
    {  -0.866,    1.340,    4.270,    0.153,   -2.367,    0.224,   -1.994,
        0.670,    0.021,    0.072,    6.793,   -0.263,    4.501,   -0.362,
       -0.092,    0.032,   -4.784,   -0.176,   -7.659,    0.770,    0.419,
       -0.883,   -0.512,   -0.239,   -6.585,    0.186,    4.822,    0.361,
        3.374,   -0.466,   25.466,    2.433,   -0.548,    7.243,    2.741,
        0.475,    2.864,   -7.888,   -3.358,   -4.517,    1.250,   -1.822,
        0.190,   -2.870,  -12.674,   -0.217
    },
    {  -1.277,    1.235,    4.030,    0.390,   -1.982,    0.006,   -1.842,
        0.351,    0.321,   -0.233,    6.932,   -0.548,    4.285,   -0.259,
       -0.156,   -0.005,   -4.636,   -0.375,   -7.544,    0.944,    0.298,
       -0.783,   -0.642,   -0.081,   -6.266,    0.291,    4.847,    0.258,
        3.224,   -0.475,   24.485,    1.094,   -0.001,    6.459,    3.540,
        0.888,    1.855,   -6.969,   -4.381,   -4.334,    1.436,   -3.494,
        0.563,   -2.652,  -12.167,   -0.673
    },
    {  -0.918,    1.062,    4.019,    0.432,   -1.975,    0.075,   -1.918,
        0.100,    0.085,   -0.153,    7.132,   -0.669,    4.351,   -0.342,
        0.192,    0.044,   -4.801,   -0.350,   -7.606,    0.837,    0.432,
       -0.629,   -0.677,   -0.067,   -6.175,    0.403,    5.057,    0.351,
        2.921,   -0.538,   24.359,    2.276,    0.203,    6.203,    2.110,
        0.756,    1.980,   -6.749,   -3.638,   -4.433,    0.445,   -3.229,
        0.550,   -2.030,  -12.192,   -0.682
    },
    {  -1.014,    1.207,    4.145,    0.419,   -1.624,   -0.059,   -1.682,
        0.232,    0.221,    0.056,    7.038,   -0.690,    4.415,   -0.458,
        0.116,   -0.185,   -5.087,   -0.387,   -7.516,    0.701,    0.702,
       -0.777,   -0.529,   -0.209,   -6.271,    0.118,    4.855,    0.453,
        2.678,   -0.304,   24.493,    1.427,    0.219,    6.661,    3.750,
        1.216,    2.296,   -6.244,   -2.207,   -3.948,    0.267,   -2.550,
        0.672,   -1.715,  -11.949,   -0.588
    },
    {  -1.378,    1.329,    4.326,    0.330,   -1.693,   -0.247,   -1.560,
        0.296,    0.117,    0.156,    7.256,   -0.482,    4.434,   -0.602,
        0.174,   -0.171,   -5.402,   -0.904,   -7.780,    0.806,    0.734,
       -1.029,   -0.551,   -0.075,   -6.272,   -0.210,    4.888,    0.425,
        2.747,   -0.201,   25.280,    2.245,    1.053,    6.593,    3.990,
        1.867,    2.881,   -6.931,   -2.641,   -3.724,    0.190,   -2.268,
        0.572,   -1.365,  -11.646,   -0.693
    },
    {  -1.186,    1.407,    4.150,    0.122,   -1.598,   -0.200,   -1.637,
        0.215,    0.061,    0.346,    7.462,   -0.400,    4.347,   -0.794,
        0.248,   -0.346,   -5.358,   -0.907,   -7.713,    0.812,    0.804,
       -0.858,   -0.720,   -0.022,   -6.297,   -0.153,    4.665,    0.480,
        2.534,   -0.184,   25.748,    2.419,    0.679,    5.878,    5.072,
        1.505,    3.929,   -7.117,   -1.170,   -4.206,    0.242,   -1.672,
        1.823,   -1.829,  -12.465,   -0.989
    },
    {  -1.422,    1.410,    3.677,    0.152,   -1.973,   -0.185,   -1.698,
        0.223,    0.195,    0.170,    7.563,   -0.336,    4.353,   -0.696,
        0.180,   -0.405,   -5.336,   -0.543,   -7.810,    0.836,    0.860,
       -0.869,   -0.902,    0.081,   -6.428,   -0.003,    4.681,    0.338,
        2.425,   -0.343,   25.446,    2.905,   -0.594,    5.011,    3.868,
        0.856,    3.965,   -6.078,   -0.511,   -4.994,   -0.440,   -2.985,
        3.041,   -2.168,  -12.355,   -1.741
    },
    {  -1.598,    1.377,    3.918,    0.286,   -1.954,   -0.194,   -1.788,
        0.128,    0.323,    0.154,    7.781,   -0.444,    4.190,   -0.898,
        0.115,   -0.282,   -5.387,   -0.655,   -7.760,    0.844,    0.602,
       -0.879,   -0.686,   -0.103,   -6.561,    0.093,    4.765,    0.325,
        2.318,   -0.363,   25.542,    3.567,    0.332,    5.478,    4.960,
        0.283,    4.324,   -6.322,   -0.530,   -5.790,   -0.235,   -2.933,
        2.759,   -1.889,  -12.115,   -2.339
    },
    {  -1.485,    1.018,    3.741,   -0.105,   -1.933,   -0.254,   -1.680,
        0.357,    0.254,    0.217,    7.798,   -0.170,    4.333,   -1.054,
        0.074,   -0.153,   -5.207,   -0.484,   -7.750,    0.802,    0.393,
       -0.892,   -0.461,   -0.283,   -6.408,   -0.152,    4.790,    0.007,
        2.270,   -0.466,   26.226,    2.815,    0.376,    5.895,    4.864,
        0.174,    4.080,   -6.990,   -0.715,   -5.698,   -0.093,   -4.090,
        3.544,   -2.167,  -12.219,   -2.506
    }
  };


  double netfun(std::vector<double>& in, const double* w)
  {
    double x00 = in[0];
    double x;

    //Layer 1, Node 0
    x = w[0];
    x = x + w[1] * x00;
    double x10 = tanh(x);

    //Layer 1, Node 1
    x = w[2];
    x = x + w[3] * x00;
    double x11 = tanh(x);

    //Layer 1, Node 2
    x = w[4];
    x = x + w[5] * x00;
    double x12 = tanh(x);

    //Layer 1, Node 3
    x = w[6];
    x = x + w[7] * x00;
    double x13 = tanh(x);

    //Layer 1, Node 4
    x = w[8];
    x = x + w[9] * x00;
    double x14 = tanh(x);

    //Layer 1, Node 5
    x = w[10];
    x = x + w[11] * x00;
    double x15 = tanh(x);

    //Layer 1, Node 6
    x = w[12];
    x = x + w[13] * x00;
    double x16 = tanh(x);

    //Layer 1, Node 7
    x = w[14];
    x = x + w[15] * x00;
    double x17 = tanh(x);

    //Layer 1, Node 8
    x = w[16];
    x = x + w[17] * x00;
    double x18 = tanh(x);

    //Layer 1, Node 9
    x = w[18];
    x = x + w[19] * x00;
    double x19 = tanh(x);

    //Layer 1, Node 10
    x = w[20];
    x = x + w[21] * x00;
    double x110 = tanh(x);

    //Layer 1, Node 11
    x = w[22];
    x = x + w[23] * x00;
    double x111 = tanh(x);

    //Layer 1, Node 12
    x = w[24];
    x = x + w[25] * x00;
    double x112 = tanh(x);

    //Layer 1, Node 13
    x = w[26];
    x = x + w[27] * x00;
    double x113 = tanh(x);

    //Layer 1, Node 14
    x = w[28];
    x = x + w[29] * x00;
    double x114 = tanh(x);

    //Layer 2, Node 0
    x = w[30];
    x = x + w[31] * x10;
    x = x + w[32] * x11;
    x = x + w[33] * x12;
    x = x + w[34] * x13;
    x = x + w[35] * x14;
    x = x + w[36] * x15;
    x = x + w[37] * x16;
    x = x + w[38] * x17;
    x = x + w[39] * x18;
    x = x + w[40] * x19;
    x = x + w[41] * x110;
    x = x + w[42] * x111;
    x = x + w[43] * x112;
    x = x + w[44] * x113;
    x = x + w[45] * x114;
    double x20 = 1.0/(1.0+exp(-x));
    return x20;
  }
}; // End anonymous namespace

//-----------------------------------------------------------------------------
// Compute average over networks. Default is to use all networks
//-----------------------------------------------------------------------------

double HT300MHT90muNew(std::vector<double>& inputvars,
                       int first=0,
                       int last=nnetworks-1)
{
  if ( first < 0 ) first = 0;
  if ( last  < 0 ) last  = nnetworks-1;
  if ( last  > nnetworks-1 ) last = nnetworks-1;
  if ( first > last )
    {
      std::cerr << "** HT300MHT90muNew ** first-index > last-index"
                << std::endl; exit(3);
    }

  // Compute average over networks
  std::vector<double> in(ninputs);
  in[0] = (inputvars[0] - mean[0]) / sigma[0];

  int   n = last - first + 1;
  double x = 0.0;
  for(int i=first; i <= last; i++) x += netfun(in, weight[i]);
  return x / n;
}

extern "C" double HT300MHT90muNew_dl(std::vector<double>& in,
                                     int first=0,
                                     int last=nnetworks-1)
{
  return HT300MHT90muNew(in, first, last);
}

extern "C" double HT300MHT90muNew_dl2(double* in,
                                      int first=0,
                                      int last=nnetworks-1)
{
  std::vector<double> invec;

  invec.push_back(in[0]);

  return HT300MHT90muNew(invec, first, last);
}
