//-----------------------------------------------------------------------------
// Network: HT300_MHT75_v8_HT300_v7_166301_166373_sel1
// Inputs:
//                                                  Offset       Scale
//    offlinevar                                 2.678e+01   1.717e+01
//
// Created: Wed Dec 21 19:43:33 2011
//-----------------------------------------------------------------------------
#include <cmath>
#include <vector>
#include <iostream>
#include <stdlib.h>
//-----------------------------------------------------------------------------
// Make following visible only to this programming unit
namespace {
  // NOTE: Network indices start at 0
  static const int nnetworks=100;
  static const int ninputs  =1;
  static const int nhidden  =15;
  static const int nparams  =46;

  static const double mean[ninputs]={
  2.67800e+01
  };

  static const double sigma[ninputs]={
  1.71700e+01
  };

  static const double weight[nnetworks][nparams]={
    {   0.147,    0.207,   -0.042,    0.150,    0.046,    0.085,   -0.126,
       -0.130,   -0.087,    0.321,   -0.007,   -0.129,   -0.086,    0.018,
       -0.130,    0.232,    0.081,   -0.140,   -0.024,   -0.304,   -0.004,
       -0.194,   -0.082,    0.160,   -0.056,    0.235,    0.068,    0.007,
        0.057,    0.013,   -1.593,   -0.026,   -0.003,    0.011,   -0.018,
       -0.023,    0.027,    0.031,    0.035,    0.001,    0.045,    0.003,
        0.009,    0.001,   -0.022,    0.006
    },
    {   0.166,   -0.095,   -0.068,    0.164,   -0.182,    0.229,    0.017,
        0.036,   -0.061,    0.028,   -0.011,    0.122,   -0.031,    0.134,
       -0.102,    0.083,    0.222,    0.125,   -0.068,    0.130,   -0.051,
        0.119,    0.025,    0.040,   -0.035,    0.062,    0.219,   -0.077,
        0.038,    0.097,   -2.301,   -0.039,   -0.045,   -0.004,    0.058,
        0.060,    0.075,    0.087,   -0.075,   -0.045,   -0.016,    0.052,
       -0.059,   -0.009,    0.019,   -0.005
    },
    {  -0.006,    0.123,    0.104,   -0.003,    0.001,   -0.462,    0.016,
       -0.219,    0.001,    0.112,   -0.105,    0.013,   -0.035,   -0.352,
       -0.072,    0.177,   -0.221,    0.065,    0.093,   -0.219,    0.143,
        0.100,   -0.079,   -0.274,    0.130,   -0.149,   -0.031,    0.285,
       -0.233,   -0.041,   -1.846,   -0.003,    0.047,   -0.046,   -0.020,
       -0.106,   -0.043,   -0.088,    0.017,    0.082,   -0.046,   -0.073,
        0.013,    0.043,    0.017,    0.082
    },
    {  -0.016,   -0.317,    0.070,    0.107,    0.057,   -1.108,   -0.094,
       -0.110,   -0.016,    0.128,   -0.078,    0.819,   -0.102,   -0.110,
       -0.044,    0.767,   -0.072,    0.021,    0.071,   -0.416,    0.055,
        0.594,    0.047,   -0.633,    0.062,    0.782,    0.069,   -0.012,
        0.036,    0.267,   -1.908,   -0.023,    0.038,    0.029,   -0.005,
        0.032,    0.005,    0.057,   -0.042,    0.031,   -0.059,    0.003,
        0.061,    0.016,   -0.032,    0.000
    },
    {   0.063,    0.983,    0.055,   -1.483,   -0.040,   -1.528,   -0.010,
       -0.042,    0.043,    0.455,   -0.025,    0.690,   -0.020,    1.735,
       -0.022,    0.403,    0.013,    0.495,    0.004,    0.392,    0.087,
        1.509,   -0.039,    0.049,    0.016,    1.146,    0.012,    0.322,
        0.002,   -0.311,   -2.725,    0.033,    0.026,    0.047,    0.024,
        0.014,    0.108,    0.056,   -0.017,   -0.009,   -0.019,   -0.045,
        0.032,   -0.005,   -0.022,   -0.044
    },
    {  -0.034,    0.325,   -0.010,   -0.165,   -0.009,    1.026,   -0.033,
       -0.215,   -0.023,   -0.680,   -0.045,   -0.460,   -0.004,   -0.006,
       -0.007,   -0.532,    0.016,   -0.669,    0.053,   -0.746,   -0.019,
       -0.171,    0.035,   -0.539,   -0.008,   -0.276,   -0.042,   -0.197,
        0.011,   -1.381,   -2.557,   -0.003,   -0.031,    0.008,   -0.034,
       -0.057,   -0.055,    0.006,    0.006,   -0.020,   -0.026,    0.045,
       -0.037,   -0.034,   -0.025,    0.011
    },
    {   0.038,    0.418,   -0.008,   -0.219,   -0.033,   -0.429,    0.015,
       -0.050,   -0.021,    0.056,   -0.007,    0.218,   -0.010,    0.434,
       -0.015,    0.182,    0.029,    0.111,   -0.060,    0.002,   -0.013,
        0.417,   -0.007,   -0.248,   -0.016,    0.319,   -0.044,    0.022,
        0.033,    0.560,   -1.050,    0.027,    0.023,   -0.030,    0.008,
        0.022,    0.025,   -0.027,   -0.022,    0.004,    0.053,    0.004,
        0.028,    0.011,   -0.004,   -0.025
    },
    {   0.049,    0.041,    0.007,   -0.488,   -0.012,    0.104,    0.009,
        0.015,   -0.015,    0.578,    0.007,    0.232,   -0.046,    0.189,
       -0.014,   -0.031,    0.022,   -0.543,   -0.087,    0.311,   -0.050,
        0.072,    0.016,    0.194,   -0.029,   -0.132,   -0.017,   -0.115,
       -0.007,    0.273,   -1.493,    0.038,    0.011,    0.014,   -0.029,
        0.012,   -0.007,    0.009,   -0.006,   -0.009,    0.002,   -0.019,
        0.003,    0.009,    0.024,   -0.010
    },
    {  -0.016,   -0.134,   -0.025,    0.174,    0.011,    0.018,    0.011,
        0.058,    0.032,   -0.471,    0.041,   -0.158,    0.031,    0.140,
        0.056,    0.238,    0.003,    0.192,    0.041,   -0.259,    0.053,
       -0.149,   -0.028,    0.026,    0.056,    0.358,    0.026,   -0.010,
        0.030,   -0.158,   -1.912,   -0.029,   -0.001,   -0.003,    0.010,
        0.002,   -0.013,    0.002,    0.016,   -0.003,    0.002,    0.002,
       -0.007,    0.001,   -0.002,    0.003
    },
    {   0.033,   -0.084,    0.025,   -0.669,   -0.006,    0.167,   -0.013,
       -0.050,   -0.025,    0.390,   -0.037,    0.009,    0.029,    0.081,
       -0.019,   -0.121,    0.036,    0.007,   -0.015,   -0.105,   -0.038,
        0.168,    0.044,    0.178,   -0.010,   -0.292,    0.045,   -0.038,
       -0.043,    0.048,   -2.440,    0.035,   -0.007,    0.027,   -0.016,
        0.027,    0.001,   -0.007,   -0.034,    0.014,   -0.006,    0.011,
       -0.032,    0.018,   -0.003,    0.002
    },
    {  -0.008,   -0.201,   -0.009,   -0.250,    0.004,   -0.186,    0.008,
       -0.088,    0.002,   -0.254,    0.014,    0.119,    0.030,   -0.156,
       -0.044,   -0.167,   -0.017,   -0.138,    0.029,   -0.038,   -0.008,
        0.240,    0.010,    0.120,   -0.013,   -0.122,    0.046,   -0.069,
        0.019,   -0.092,   -2.265,    0.021,    0.010,   -0.002,   -0.011,
        0.002,    0.018,   -0.034,   -0.015,    0.007,   -0.004,    0.016,
       -0.027,    0.001,    0.021,   -0.005
    },
    {   0.002,   -0.130,    0.018,   -0.073,   -0.017,   -0.088,    0.048,
        0.146,   -0.028,    0.338,   -0.055,   -0.169,   -0.005,    0.056,
        0.005,    0.064,   -0.008,   -0.028,   -0.001,    0.021,   -0.033,
       -0.085,    0.072,    0.174,   -0.062,   -0.287,    0.030,    0.050,
       -0.012,   -0.068,   -2.035,   -0.004,    0.006,   -0.000,   -0.008,
       -0.001,   -0.003,   -0.012,   -0.000,   -0.004,    0.007,   -0.021,
       -0.029,    0.017,   -0.003,    0.015
    },
    {  -0.042,    0.058,   -0.140,   -0.062,   -0.048,   -0.143,   -0.003,
       -0.096,    0.026,   -0.042,   -0.012,   -0.105,    0.099,    0.082,
       -0.018,    0.189,   -0.094,    0.082,    0.046,    0.017,   -0.016,
        0.043,    0.093,    0.037,    0.016,   -0.006,   -0.050,   -0.024,
       -0.066,    0.078,   -1.856,    0.014,    0.004,   -0.009,    0.007,
       -0.008,    0.000,    0.008,    0.010,   -0.006,    0.013,    0.013,
        0.014,   -0.000,   -0.008,    0.003
    },
    {   0.071,   -0.080,   -0.141,    0.049,   -0.023,   -0.120,    0.041,
       -0.101,    0.002,    0.086,    0.106,   -0.039,    0.019,   -0.000,
       -0.122,    0.187,    0.022,    0.100,   -0.012,    0.086,    0.009,
       -0.033,    0.001,    0.078,    0.030,    0.030,   -0.007,   -0.016,
       -0.051,    0.022,   -1.991,    0.024,    0.001,   -0.004,    0.003,
       -0.001,    0.005,   -0.004,   -0.002,   -0.023,   -0.008,    0.008,
        0.006,    0.002,   -0.011,   -0.006
    },
    {   0.124,   -0.180,   -0.079,    0.013,    0.069,   -0.064,    0.015,
       -0.024,    0.042,   -0.025,    0.062,    0.008,   -0.005,   -0.192,
       -0.029,    0.194,   -0.036,   -0.113,    0.012,   -0.004,   -0.169,
        0.095,   -0.007,   -0.008,   -0.018,    0.006,   -0.017,    0.043,
       -0.123,    0.143,   -2.240,    0.033,    0.020,   -0.001,    0.000,
        0.008,    0.009,    0.010,    0.003,   -0.001,    0.006,    0.021,
        0.006,    0.001,   -0.013,   -0.014
    },
    {  -0.016,    0.255,    0.053,   -0.159,    0.001,   -0.088,   -0.019,
       -0.120,   -0.059,   -0.012,   -0.027,   -0.033,   -0.051,    0.247,
       -0.008,   -0.083,   -0.068,    0.168,    0.076,    0.027,    0.031,
        0.023,   -0.026,   -0.022,    0.007,   -0.058,   -0.050,   -0.002,
        0.025,   -0.036,   -1.932,   -0.003,    0.005,    0.000,    0.003,
       -0.005,    0.030,   -0.004,   -0.010,    0.031,   -0.000,   -0.025,
        0.027,   -0.017,    0.014,    0.013
    },
    {   0.013,   -0.067,   -0.022,    0.159,    0.009,    0.183,   -0.024,
        0.156,   -0.012,   -0.036,   -0.005,    0.170,    0.064,   -0.177,
       -0.044,    0.040,    0.025,   -0.111,   -0.014,   -0.039,   -0.015,
       -0.031,    0.013,    0.108,   -0.048,   -0.004,   -0.026,   -0.153,
       -0.017,    0.033,   -1.702,   -0.011,   -0.014,   -0.004,    0.003,
        0.009,   -0.017,    0.002,    0.003,   -0.012,   -0.008,    0.008,
        0.001,    0.016,   -0.005,    0.011
    },
    {  -0.005,   -0.150,   -0.006,   -0.020,    0.036,    0.084,   -0.027,
        0.134,   -0.002,   -0.061,    0.008,    0.219,   -0.000,   -0.304,
       -0.003,   -0.110,   -0.018,    0.151,    0.014,   -0.256,   -0.017,
       -0.085,    0.018,    0.113,   -0.012,   -0.239,   -0.023,   -0.090,
       -0.022,    0.058,   -2.044,   -0.021,   -0.014,   -0.008,   -0.002,
        0.010,    0.004,    0.012,    0.004,    0.002,   -0.011,    0.005,
        0.009,    0.021,   -0.031,    0.023
    },
    {  -0.019,   -0.035,    0.012,    0.044,   -0.025,   -0.098,    0.039,
       -0.026,    0.018,    0.079,   -0.004,   -0.083,   -0.009,    0.029,
       -0.001,    0.023,    0.021,   -0.037,   -0.013,    0.037,   -0.006,
        0.012,    0.027,   -0.003,    0.028,    0.038,    0.031,    0.042,
        0.001,    0.006,   -2.172,   -0.012,    0.033,    0.022,    0.000,
        0.021,   -0.037,   -0.001,    0.008,   -0.025,   -0.001,   -0.047,
       -0.018,    0.017,    0.040,   -0.007
    },
    {   0.000,    0.049,    0.035,   -0.118,    0.006,    0.031,    0.013,
       -0.017,    0.013,   -0.102,   -0.038,    0.037,   -0.013,    0.022,
       -0.000,   -0.038,    0.015,   -0.017,    0.008,   -0.014,    0.006,
        0.038,   -0.014,    0.001,    0.026,   -0.041,   -0.015,   -0.109,
       -0.037,    0.067,   -1.833,   -0.000,    0.042,    0.018,    0.040,
       -0.020,    0.016,   -0.009,   -0.016,    0.017,    0.020,   -0.019,
       -0.020,   -0.034,   -0.015,    0.034
    },
    {   0.004,   -0.012,   -0.041,    0.036,   -0.018,    0.003,   -0.032,
        0.048,   -0.020,    0.113,    0.059,   -0.026,    0.023,    0.062,
        0.016,   -0.015,   -0.032,    0.006,   -0.011,   -0.003,   -0.025,
        0.010,    0.024,    0.030,    0.012,    0.032,   -0.001,    0.014,
        0.041,   -0.077,   -2.682,    0.011,   -0.001,   -0.086,   -0.034,
        0.025,   -0.084,    0.003,    0.010,   -0.049,   -0.007,   -0.049,
        0.030,    0.080,    0.140,   -0.009
    },
    {  -0.007,    0.005,    0.026,   -0.091,    0.034,    0.036,    0.038,
       -0.103,    0.049,    0.009,   -0.074,    0.061,    0.015,   -0.110,
       -0.034,   -0.037,    0.011,    0.011,   -0.024,    0.024,    0.034,
       -0.047,   -0.022,   -0.004,   -0.028,   -0.010,    0.005,   -0.051,
       -0.072,    0.091,   -1.849,   -0.040,   -0.002,    0.003,   -0.016,
        0.025,   -0.031,    0.003,   -0.051,   -0.037,    0.020,    0.088,
        0.017,   -0.049,   -0.115,    0.049
    },
    {   0.044,    0.057,    0.045,   -0.049,   -0.010,    0.017,   -0.105,
       -0.078,    0.009,    0.002,    0.036,   -0.005,   -0.059,   -0.050,
       -0.037,    0.014,    0.029,    0.043,    0.035,    0.078,   -0.066,
       -0.025,   -0.042,   -0.007,    0.007,    0.055,    0.003,    0.018,
       -0.029,    0.133,   -2.302,    0.070,   -0.011,   -0.017,    0.029,
        0.033,    0.028,   -0.034,   -0.050,   -0.006,    0.019,   -0.063,
        0.046,   -0.001,    0.026,    0.060
    },
    {  -0.005,   -0.030,    0.015,    0.027,    0.047,   -0.023,   -0.071,
        0.021,   -0.057,   -0.062,    0.007,   -0.088,   -0.033,    0.075,
        0.009,    0.061,   -0.093,    0.001,    0.083,   -0.002,   -0.016,
       -0.079,   -0.028,    0.052,    0.126,   -0.063,    0.034,    0.025,
        0.011,    0.115,   -2.725,   -0.033,    0.010,    0.051,    0.067,
        0.037,    0.062,    0.048,   -0.084,   -0.008,    0.031,    0.002,
       -0.040,    0.045,    0.017,   -0.009
    },
    {   0.092,   -0.035,    0.100,    0.011,   -0.159,   -0.058,   -0.169,
       -0.093,    0.056,    0.023,    0.026,    0.042,    0.046,   -0.007,
        0.101,    0.055,   -0.000,    0.024,    0.160,    0.038,   -0.147,
       -0.054,   -0.091,    0.007,    0.050,    0.062,   -0.156,   -0.010,
        0.043,   -0.028,   -1.829,    0.045,    0.047,   -0.050,   -0.047,
        0.111,   -0.001,   -0.099,    0.058,    0.089,   -0.009,    0.048,
       -0.012,   -0.050,   -0.022,    0.161
    },
    {   0.114,    0.014,   -0.013,    0.034,   -0.032,   -0.034,    0.059,
       -0.074,    0.173,   -0.013,    0.017,   -0.002,    0.080,    0.005,
        0.038,   -0.012,    0.192,    0.047,    0.018,   -0.002,   -0.097,
       -0.035,   -0.033,   -0.062,    0.083,    0.062,    0.013,    0.048,
       -0.035,   -0.028,   -1.831,    0.012,    0.108,    0.264,    0.471,
       -0.150,   -0.065,    0.081,   -0.107,   -0.182,    0.215,    0.148,
        0.051,   -0.057,   -0.231,    0.010
    },
    {  -0.107,    0.061,   -0.044,   -0.082,    0.007,    0.016,    0.028,
       -0.116,    0.042,    0.040,   -0.079,   -0.040,    0.087,    0.038,
       -0.059,   -0.236,    0.100,    0.066,   -0.005,   -0.005,    0.097,
        0.001,    0.040,    0.007,   -0.017,    0.153,    0.025,   -0.067,
        0.104,    0.161,   -1.944,   -0.322,    0.427,   -0.077,    0.446,
       -0.376,   -0.191,    0.398,   -0.084,    0.111,    0.303,    0.193,
       -0.130,   -0.071,   -0.284,    0.528
    },
    {   0.070,   -0.081,    0.025,   -0.122,    0.007,   -0.111,    0.008,
       -0.147,   -0.017,   -0.138,    0.033,   -0.121,    0.001,    0.152,
        0.006,    0.281,   -0.075,   -0.040,    0.112,    0.097,   -0.052,
        0.187,    0.052,   -0.026,   -0.010,    0.100,   -0.038,    0.066,
       -0.008,    0.023,   -1.326,    0.320,   -0.370,   -0.146,    0.218,
       -0.031,   -0.261,    0.210,   -0.057,    0.542,    0.765,    0.694,
       -0.462,   -0.931,    0.184,    0.175
    },
    {  -0.051,    0.168,   -0.031,   -0.017,    0.068,   -0.114,    0.103,
       -0.140,    0.026,    0.001,    0.006,   -0.157,    0.004,    0.083,
       -0.057,    0.179,   -0.031,    0.049,   -0.051,    0.089,    0.006,
       -0.105,   -0.014,   -0.041,   -0.026,   -0.193,   -0.047,    0.113,
        0.048,    0.068,   -1.725,   -0.500,   -0.987,   -0.390,    0.485,
        0.826,   -0.628,    0.685,    0.942,   -0.040,    1.614,    0.610,
       -0.458,   -0.618,    0.017,    0.500
    },
    {   0.127,   -0.057,    0.153,   -0.024,   -0.136,    0.071,    0.042,
       -0.062,   -0.034,   -0.012,    0.044,   -0.026,   -0.053,    0.046,
        0.199,   -0.020,    0.086,   -0.047,    0.065,   -0.018,   -0.050,
       -0.148,   -0.106,   -0.078,    0.105,   -0.081,    0.129,   -0.015,
       -0.003,   -0.063,   -2.127,    0.352,    1.137,    0.072,   -0.555,
       -1.109,    0.358,    0.266,    0.298,   -0.998,   -1.433,   -1.195,
       -0.204,   -0.475,   -0.945,   -0.258
    },
    {  -0.041,   -0.132,    0.009,   -0.062,   -0.114,   -0.009,    0.080,
        0.061,    0.027,    0.005,   -0.075,    0.107,   -0.007,   -0.025,
       -0.075,    0.023,   -0.086,    0.003,   -0.153,   -0.056,   -0.021,
       -0.016,   -0.102,   -0.015,   -0.082,    0.178,    0.211,   -0.069,
        0.071,    0.135,   -2.166,   -0.953,   -0.192,    2.261,    0.072,
        1.314,   -0.754,    0.870,   -1.259,    0.409,   -0.025,    1.475,
       -0.562,    0.686,    0.721,    0.900
    },
    {   0.327,   -0.053,    0.207,    0.088,   -0.099,    0.069,    0.018,
       -0.128,    0.007,   -0.191,    0.267,   -0.189,   -0.079,    0.183,
        0.035,   -0.113,    0.186,   -0.022,    0.015,    0.080,   -0.031,
       -0.037,    0.038,    0.017,   -0.158,   -0.047,    0.306,    0.001,
        0.048,   -0.100,   -1.858,   -0.016,    0.553,    1.584,   -0.575,
       -0.325,   -0.185,    1.029,   -1.142,   -0.356,   -0.560,    0.016,
       -0.003,    0.338,    0.420,    1.352
    },
    {  -0.154,   -0.144,    0.062,    0.093,   -0.109,    0.064,    0.026,
       -0.225,   -0.060,    0.195,   -0.018,   -0.312,    0.036,    0.108,
        0.005,   -0.163,    0.003,   -0.000,   -0.126,    0.167,    0.014,
        0.027,    0.050,    0.286,   -0.031,   -0.103,    0.070,   -0.214,
       -0.026,    0.037,   -1.460,   -0.141,   -0.508,    0.693,   -0.282,
       -0.045,   -0.322,    0.087,   -0.482,   -0.392,    0.637,   -0.082,
        0.115,   -0.316,   -0.145,    0.447
    },
    {  -0.090,    0.022,   -0.052,    0.023,    0.081,   -0.041,   -0.203,
        0.103,   -0.076,   -0.079,   -0.174,    0.029,    0.012,   -0.051,
       -0.114,   -0.094,   -0.110,   -0.075,   -0.027,   -0.044,    0.181,
        0.025,    0.090,    0.026,    0.205,    0.041,   -0.059,   -0.030,
        0.028,   -0.144,   -1.748,    0.786,    0.409,    0.081,    0.581,
        0.106,    0.599,   -0.851,    0.557,    0.756,   -0.513,    0.437,
        0.128,   -0.050,   -0.127,   -0.563
    },
    {   0.010,    0.001,   -0.080,   -0.016,   -0.136,    0.010,   -0.203,
       -0.006,    0.095,   -0.039,    0.104,    0.015,   -0.120,   -0.018,
       -0.193,   -0.057,    0.085,   -0.010,   -0.016,   -0.024,    0.143,
       -0.046,    0.133,   -0.029,    0.001,   -0.015,   -0.109,    0.060,
       -0.023,   -0.040,   -2.471,    0.210,   -0.528,   -0.815,   -0.169,
       -0.751,   -0.255,    0.829,   -1.070,   -1.168,    0.383,   -0.431,
        0.686,   -0.682,    0.886,   -0.045
    },
    {   0.078,   -0.040,   -0.118,    0.008,   -0.125,   -0.007,   -0.072,
       -0.005,    0.034,   -0.019,   -0.160,   -0.001,   -0.089,   -0.015,
       -0.082,    0.008,    0.103,   -0.039,   -0.101,    0.030,    0.009,
       -0.010,   -0.077,   -0.033,    0.126,   -0.001,   -0.024,   -0.026,
       -0.049,    0.003,   -2.474,   -0.442,   -0.335,   -1.588,    0.990,
       -1.022,    0.063,   -0.694,   -0.559,   -0.296,    1.381,   -1.120,
        0.946,   -0.257,   -0.525,   -0.044
    },
    {  -0.115,    0.003,   -0.181,   -0.011,   -0.206,   -0.010,    0.125,
        0.033,   -0.016,   -0.027,   -0.308,    0.038,    0.002,    0.013,
        0.082,    0.003,    0.043,    0.062,   -0.166,   -0.033,    0.220,
       -0.034,   -0.114,    0.058,   -0.064,   -0.018,    0.034,   -0.011,
       -0.031,   -0.039,   -1.986,    0.796,    0.512,    0.852,   -1.394,
        1.206,   -0.444,    0.932,    0.648,   -0.206,    0.211,    0.511,
       -0.332,   -1.431,    0.817,    0.150
    },
    {   0.120,    0.042,   -0.244,   -0.010,    0.014,    0.011,    0.022,
       -0.007,   -0.043,   -0.006,   -0.030,   -0.044,    0.021,    0.033,
        0.187,   -0.032,    0.344,   -0.029,    0.124,    0.018,   -0.179,
       -0.014,   -0.094,   -0.033,    0.188,    0.008,   -0.088,    0.004,
       -0.029,   -0.007,   -2.172,    0.486,   -0.002,   -0.125,   -0.063,
        0.513,   -0.500,    0.494,    0.098,   -0.086,    0.184,    0.145,
       -0.213,   -0.363,    0.684,    0.378
    },
    {  -0.266,    0.008,   -0.193,   -0.110,   -0.010,   -0.009,   -0.040,
       -0.010,   -0.248,    0.074,    0.346,   -0.090,    0.093,    0.019,
        0.152,   -0.040,   -0.154,   -0.049,   -0.044,    0.009,   -0.062,
       -0.058,    0.266,   -0.060,   -0.240,    0.020,   -0.030,    0.090,
        0.109,    0.017,   -1.319,    0.699,    0.919,    0.074,    0.050,
        0.239,    0.129,    0.117,    0.044,    0.095,   -0.327,    0.087,
       -0.029,    0.560,    0.418,    0.319
    },
    {   0.024,    0.054,    0.142,    0.027,    0.179,    0.017,    0.175,
       -0.038,   -0.111,   -0.071,   -0.465,   -0.001,   -0.073,   -0.106,
       -0.573,   -0.040,   -0.273,    0.009,   -0.081,    0.027,   -0.104,
        0.021,   -0.264,   -0.006,    0.201,    0.013,   -0.194,    0.043,
       -0.139,   -0.026,   -2.356,   -0.191,    0.124,   -0.134,    0.079,
       -0.010,    0.108,   -0.061,   -0.040,   -0.066,    0.105,   -0.080,
        0.063,   -0.016,   -0.312,   -0.040
    },
    {   0.079,   -0.075,   -0.258,   -0.040,   -0.020,    0.005,   -0.080,
        0.099,   -0.051,    0.170,    0.092,   -0.145,    0.195,    0.060,
        0.102,   -0.047,    0.119,   -0.032,    0.212,   -0.018,   -0.033,
        0.037,    0.108,   -0.037,   -0.188,   -0.096,   -0.036,    0.063,
       -0.027,   -0.039,   -2.191,   -0.094,   -0.149,    0.062,    0.064,
       -0.015,   -0.042,   -0.034,    0.106,   -0.036,    0.017,    0.179,
       -0.258,    0.013,    0.141,   -0.026
    },
    {  -0.199,   -0.099,   -0.048,    0.009,   -0.188,   -0.016,    0.215,
       -0.031,   -0.136,   -0.387,    0.220,    0.042,   -0.346,   -0.013,
       -0.282,    0.062,    0.361,   -0.278,    0.327,    0.054,    0.054,
       -0.092,   -0.124,    0.037,   -0.032,    0.051,    0.267,   -0.158,
       -0.122,   -0.019,   -2.175,    0.145,    0.080,    0.011,   -0.076,
       -0.021,    0.035,   -0.006,    0.109,    0.044,   -0.140,   -0.018,
        0.168,    0.198,   -0.221,   -0.063
    },
    {   0.140,   -0.156,    0.133,   -0.027,   -0.001,   -0.090,   -0.208,
        0.077,   -0.224,   -0.148,   -0.140,    0.243,    0.058,    0.031,
        0.280,   -0.109,    0.050,    0.077,   -0.081,   -0.132,    0.095,
       -0.227,    0.028,   -0.069,   -0.034,   -0.136,   -0.170,    0.224,
       -0.180,   -0.181,   -1.987,   -0.206,   -0.168,   -0.319,    0.052,
        0.124,   -0.012,   -0.014,    0.189,   -0.240,   -0.114,   -0.183,
        0.132,   -0.109,   -0.017,   -0.055
    },
    {  -0.336,    0.242,   -0.511,    0.017,   -0.262,    0.322,    0.102,
       -0.309,    0.111,    0.094,   -0.092,    0.055,    0.023,   -0.138,
       -0.420,   -0.139,    0.062,   -0.138,   -0.279,    0.043,   -0.218,
        0.571,   -0.049,   -0.053,   -0.392,    0.136,    0.380,    0.218,
       -0.876,    0.301,   -1.854,    0.060,   -0.067,    0.318,   -0.087,
       -0.224,    0.087,    0.350,   -0.329,   -0.033,    0.227,    0.207,
       -0.069,    0.007,    0.091,    0.208
    },
    {  -0.112,   -0.219,    0.077,   -0.794,    0.108,   -0.151,    0.062,
        0.156,   -0.054,    0.278,    0.219,   -0.192,    0.220,   -0.215,
        0.112,    0.128,   -0.272,   -0.098,   -0.038,   -0.696,   -0.092,
        0.143,    0.246,    0.202,   -0.544,   -0.534,   -0.066,   -0.055,
        0.440,   -0.384,   -1.672,   -0.145,   -0.085,   -0.122,    0.171,
        0.099,   -0.049,   -0.162,    0.235,    0.039,   -0.305,   -0.298,
        0.055,   -0.186,    0.013,   -0.045
    },
    {  -0.552,    0.109,   -0.008,   -0.154,   -0.896,   -0.073,   -0.220,
       -0.143,    0.099,   -0.065,   -0.051,   -0.246,    0.428,   -0.085,
       -0.429,    0.157,   -0.133,   -0.067,    0.061,    0.291,    0.309,
       -0.054,   -0.452,    0.030,   -0.097,    0.236,   -0.720,   -0.011,
        0.008,   -0.017,   -2.312,    0.153,   -0.255,   -0.011,   -0.225,
       -0.101,   -0.202,    0.293,   -0.213,   -0.029,   -0.223,   -0.169,
        0.270,    0.201,   -0.099,    0.153
    },
    {   0.449,    0.177,    0.238,   -0.221,    0.432,   -0.252,   -0.176,
        0.349,   -0.031,    0.603,   -0.742,    0.367,   -0.135,    0.087,
        0.266,    0.175,   -0.165,    0.489,   -0.627,   -0.331,    0.206,
       -0.027,    0.979,    0.127,    0.433,   -0.021,    0.011,    0.153,
        0.890,    0.167,   -2.276,   -0.181,    0.817,   -0.741,   -0.171,
        0.692,   -0.276,    0.219,   -0.332,    0.738,   -0.439,    0.015,
        0.104,   -0.367,    0.583,    0.592
    },
    {  -0.245,   -0.707,    0.017,    0.197,    0.200,    0.273,    0.289,
        0.393,    0.017,   -0.229,    0.174,    1.189,    0.230,   -0.177,
       -0.042,    0.084,    0.291,    0.424,   -0.004,   -0.013,   -0.123,
        1.148,    0.030,    0.098,   -0.069,    0.531,   -0.003,    0.003,
       -0.170,    0.118,   -2.444,   -0.415,    0.686,   -0.839,    1.147,
       -0.307,    1.592,    1.595,    1.318,   -0.442,   -1.038,   -0.105,
       -1.276,   -0.240,   -0.041,    0.650
    },
    {   0.191,   -0.067,    0.100,    0.111,   -0.082,    0.020,    0.016,
       -0.085,    0.120,    0.472,   -0.037,   -0.716,    0.047,   -0.259,
       -0.063,   -0.569,   -0.277,    0.891,   -0.169,   -0.285,    0.194,
        0.512,   -0.155,   -0.146,   -0.012,   -0.295,    0.022,    0.124,
        0.231,    0.317,   -2.032,    0.258,    0.458,   -0.158,   -0.144,
       -0.169,   -0.447,    0.081,   -0.526,    0.272,    0.157,    0.087,
       -0.352,   -0.871,   -0.257,    0.746
    },
    {  -0.159,    0.100,   -0.233,   -0.074,   -0.076,    0.050,    0.327,
        0.001,    0.034,   -0.430,   -0.119,   -0.037,    0.051,    0.211,
        0.375,    0.195,    0.092,   -0.189,   -0.123,   -0.157,   -0.216,
        0.023,    0.002,    0.432,    0.193,    0.051,   -0.185,    0.134,
        0.074,    0.408,   -2.069,    0.018,   -0.238,    0.242,   -0.355,
       -0.648,    0.135,    0.432,   -0.062,    0.247,    0.183,    0.159,
        0.282,   -0.836,   -0.392,    0.051
    },
    {   0.335,    0.329,   -0.515,   -0.366,   -0.338,    0.110,   -0.140,
       -0.374,    0.064,    0.298,    0.403,    0.396,    0.279,   -0.160,
       -0.142,    0.471,    0.182,    0.078,    0.167,    0.136,    0.847,
       -0.078,   -0.981,   -0.079,    0.612,   -0.572,    0.281,    0.389,
       -0.167,    0.537,   -1.724,   -0.199,   -0.491,    0.108,   -0.180,
       -0.167,    0.323,    0.095,    0.750,   -0.130,    0.254,   -0.184,
        0.372,   -0.119,    0.376,    0.235
    },
    {   0.187,    0.597,   -0.110,    0.430,    0.403,    0.571,   -0.337,
       -0.234,    0.011,    0.088,    0.073,    0.170,    0.157,    0.300,
        0.366,    0.148,   -0.005,   -0.466,   -0.064,   -0.017,   -0.300,
       -0.624,    0.436,   -0.492,   -0.437,   -0.201,   -0.122,   -0.208,
        0.099,   -0.235,   -1.956,    0.205,    0.297,    0.419,   -0.198,
       -0.224,    0.119,    0.239,   -0.307,    0.201,    0.240,    0.023,
       -0.273,    0.151,    0.115,   -0.686
    },
    {  -0.028,   -0.278,   -0.131,    0.292,    0.664,   -0.139,    0.648,
       -0.056,    0.466,    0.120,    0.198,   -0.277,   -0.565,   -0.616,
       -0.105,    0.679,    0.691,    0.220,    0.594,   -0.546,    0.283,
       -0.607,   -0.048,    0.391,   -0.506,    0.079,    0.184,   -0.745,
        0.342,   -0.464,   -1.543,    0.327,    1.084,    0.444,   -0.100,
       -0.925,   -0.403,    0.427,    0.240,   -0.172,   -0.787,   -0.062,
        0.636,   -0.030,   -0.224,    0.012
    },
    {   0.092,    0.300,    0.343,   -4.732,   -0.703,   -0.024,    0.371,
       -0.860,   -0.121,   -1.085,   -0.082,   -0.020,    0.011,   -0.151,
        0.452,   -0.455,    0.382,    1.334,    0.081,    0.686,   -0.245,
       -1.001,   -0.218,   -1.820,   -0.243,    1.194,   -0.033,    0.018,
       -0.101,    2.130,   -1.482,    0.021,    0.279,    0.251,   -0.114,
        0.062,    0.085,   -0.026,    0.040,   -0.438,    0.191,   -0.202,
       -0.253,    0.434,   -0.187,    0.066
    },
    {  -0.027,    0.403,    0.167,    1.487,   -0.066,   -1.671,    0.077,
       -0.210,    0.051,    0.156,    0.025,    0.359,   -0.016,    1.875,
        0.119,    0.278,   -0.138,   -0.812,   -0.075,    0.345,   -0.107,
       -0.238,   -0.048,    2.318,   -0.053,    0.338,   -0.047,    0.757,
       -0.054,   -1.208,   -2.432,   -0.049,   -0.337,    0.330,    0.414,
        0.340,   -0.005,    0.224,    0.075,   -0.391,    0.290,    0.647,
        1.389,   -0.085,    0.629,    0.382
    },
    {  -0.256,   -1.181,    0.327,    2.695,   -0.364,    1.723,    0.328,
       -0.141,   -0.120,    3.199,   -0.222,    0.161,    0.091,    1.761,
        0.400,    4.004,   -0.225,   -0.425,   -0.339,   -2.674,   -0.106,
        4.232,   -0.145,   -0.355,   -0.168,    1.629,   -0.083,    0.744,
       -0.284,    1.306,   -1.611,    0.841,    0.734,    0.248,   -0.969,
        0.577,    0.712,    0.755,   -0.384,   -1.390,   -0.517,   -0.686,
        1.425,   -0.026,   -0.285,   -0.057
    },
    {  -0.166,   -1.608,    0.252,    2.699,    0.609,   -1.299,   -0.297,
        0.547,    0.163,   -5.271,   -0.307,   -3.301,   -0.605,    0.414,
        0.700,   -4.840,   -0.501,   -1.474,   -0.322,    3.040,    0.540,
       -1.643,   -0.143,   -6.079,   -0.203,    4.354,    0.196,   -2.923,
        0.421,    2.022,   -1.156,    0.135,    0.630,    0.049,    1.355,
        0.170,    0.370,    0.391,    0.015,   -0.206,    0.504,   -0.158,
        0.152,   -0.639,    0.337,    0.364
    },
    {   0.303,    9.048,    0.070,   -2.787,   -0.110,    2.833,   -0.383,
        2.771,    0.269,    0.405,    1.041,   10.277,    0.068,   -5.830,
        0.068,   -6.168,   -0.058,  -11.976,    0.097,    4.852,   -0.425,
       -4.986,   -0.164,  -11.824,   -0.176,  -11.751,    0.178,    2.969,
        0.352,   -1.316,   -1.981,   -0.110,    0.178,    0.867,    0.505,
        0.667,   -0.057,    0.717,    0.449,    0.121,    0.051,    0.293,
        0.822,   -0.475,    0.503,   -1.264
    },
    {   0.054,    1.367,   -0.096,    1.689,   -0.603,   -3.892,    0.735,
        1.652,    0.536,    0.806,   -0.168,   -0.623,   -0.248,    1.062,
       -0.059,   -3.818,   -0.136,   -2.468,    0.071,   -3.673,   -0.063,
       -2.036,   -0.372,    0.043,    0.319,   -2.567,    0.072,    5.282,
        0.492,    4.902,   -2.717,    0.199,    0.611,   -0.360,    1.239,
        0.240,    0.038,    1.244,    0.310,    0.525,    0.333,   -0.053,
       -0.565,    0.824,    0.263,   -0.267
    },
    {  -0.119,   -3.718,    0.285,   -8.319,    0.138,    3.207,    0.177,
       -1.415,    0.154,    2.924,   -0.165,   -1.934,   -0.894,    0.854,
       -0.689,   -2.328,    0.435,   -3.113,    0.190,    3.759,    0.353,
       -0.440,    0.398,   -2.004,    0.476,    0.731,   -0.212,    2.846,
        0.339,    2.871,   -1.797,   -0.320,   -0.316,   -0.161,   -0.480,
        0.245,   -0.259,    0.030,    0.220,    0.432,   -0.195,    0.158,
       -0.356,   -0.864,    0.455,    0.466
    },
    {   0.466,   -0.621,    0.130,    0.991,   -0.632,    2.050,   -0.286,
       -0.604,    0.164,    1.778,   -0.223,    1.585,    0.226,   -0.082,
        0.205,   -1.078,    0.054,   -0.636,    0.408,    2.201,    0.510,
       -0.127,    0.371,    0.751,    0.056,   -3.427,   -0.073,   -0.092,
       -0.314,    0.754,   -2.204,   -0.089,    0.564,    0.151,    0.419,
       -0.565,    0.134,    0.691,   -0.406,    0.234,    0.337,    0.002,
       -0.076,   -0.219,    0.322,    0.211
    },
    {  -1.259,   -0.319,    0.718,   -0.336,    0.598,   -0.158,    0.296,
        0.412,   -0.329,   -0.271,   -0.534,    0.255,    0.633,    0.629,
        2.176,   -0.415,    1.209,    0.223,   -0.605,    0.937,   -0.176,
        0.171,   -0.375,    0.224,   -0.891,   -0.276,    0.130,   -0.007,
       -0.346,    0.801,   -2.500,    0.056,    0.457,   -0.135,    0.498,
       -0.265,    0.964,    0.172,   -0.667,    0.934,    0.313,   -0.677,
       -0.256,    0.203,   -0.404,    0.537
    },
    {   0.142,    0.275,   -0.579,   -0.421,    0.108,   -0.435,    0.005,
       -0.632,   -0.529,   -0.122,   -0.037,    0.386,    0.296,   -0.260,
        0.675,    0.464,   -0.487,    0.375,   -0.746,    0.031,    1.121,
       -0.406,   -0.748,   -0.326,   -0.491,   -0.057,   -0.068,    0.167,
        0.299,    0.054,   -1.427,    0.802,   -0.026,    0.054,    0.174,
       -0.988,    0.620,   -0.306,    0.277,    0.377,    0.753,   -0.487,
       -0.622,    1.124,    0.589,    0.275
    },
    {   0.009,    0.092,    0.737,    0.323,   -0.060,   -0.289,    0.821,
       -0.213,   -0.336,    0.079,    0.020,    0.056,    0.424,   -0.385,
       -0.395,    0.004,    0.858,    0.170,    0.709,    0.102,   -0.067,
       -0.119,   -0.069,   -0.046,   -0.153,   -0.078,    1.068,   -0.246,
       -0.556,   -0.049,   -3.141,    0.473,    1.048,   -0.564,   -0.647,
        0.883,    0.877,   -1.215,   -0.748,   -0.034,    0.959,   -0.103,
       -1.435,    0.662,    0.737,    0.201
    },
    {  -0.988,   -0.171,    0.585,   -0.131,   -0.457,    0.001,   -0.201,
       -0.041,   -0.807,   -0.090,    0.098,    0.148,    0.462,   -0.013,
        0.447,   -0.099,    0.275,   -0.070,   -0.609,    0.136,    0.589,
        0.029,   -1.000,   -0.244,   -0.439,    0.170,   -0.496,    0.246,
       -0.342,    0.299,   -3.292,   -1.563,    0.240,   -0.656,   -1.139,
       -0.236,    0.845,   -0.425,   -1.226,    0.595,    1.448,    0.839,
       -0.596,    0.706,    0.297,    0.109
    },
    {  -0.121,    0.150,   -0.891,    0.055,   -1.178,   -0.059,   -1.053,
        0.056,    0.705,   -0.005,   -0.698,    0.084,   -0.218,   -0.161,
       -0.458,   -0.043,   -0.789,   -0.098,   -0.755,    0.040,   -1.333,
       -0.013,   -0.150,   -0.303,   -0.217,   -0.136,   -1.148,    0.198,
        0.136,    0.197,   -4.036,   -0.217,    0.588,   -0.921,    0.221,
        0.611,   -0.059,   -0.015,   -0.260,   -0.535,   -0.155,   -0.413,
       -0.593,   -0.596,    0.319,    0.991
    },
    {  -0.072,   -0.018,    0.330,   -0.104,    0.954,   -0.105,    0.544,
       -0.100,    1.061,    0.121,   -0.463,   -0.023,    0.272,    0.156,
       -0.995,    0.138,    0.191,   -0.057,    0.830,    0.209,   -0.463,
       -0.030,    0.897,   -0.011,   -0.898,    0.069,    0.199,   -0.156,
        1.329,   -0.049,    0.134,   -0.530,    0.082,   -1.003,   -0.053,
       -0.131,   -0.169,    0.635,    0.760,   -0.940,   -0.799,   -0.536,
       -0.215,    0.282,   -0.093,   -0.010
    },
    {   1.135,   -0.080,    0.922,    0.052,    0.044,    0.041,    0.188,
       -0.089,    1.529,   -0.031,    1.416,    0.022,    0.494,   -0.087,
        0.286,   -0.029,    1.210,    0.046,   -0.574,    0.013,   -0.503,
        0.011,    0.806,   -0.000,   -1.239,   -0.058,    0.499,   -0.013,
        0.410,    0.066,   -3.207,   -0.207,   -0.168,   -0.053,    0.310,
        0.338,    0.842,    0.203,    0.574,    0.812,    0.180,   -0.280,
        0.000,    0.009,   -0.350,    0.578
    },
    {  -1.548,    0.098,    0.014,   -0.119,   -0.310,    0.099,   -0.936,
        0.024,    0.692,    0.109,    0.549,   -0.287,    0.080,   -0.148,
       -0.187,    0.175,    0.184,    0.153,    1.167,   -0.080,   -0.047,
       -0.024,   -0.123,    0.024,    0.203,    0.090,   -0.552,    0.348,
        1.387,    0.002,   -3.479,   -0.936,   -0.525,    0.223,   -1.125,
        0.510,    1.149,   -0.527,    0.781,   -0.289,   -0.283,    0.483,
       -0.728,    0.820,    2.016,   -0.096
    },
    {  -0.373,    0.288,   -0.189,   -0.096,   -0.178,    0.313,    0.866,
       -0.185,    0.205,    0.060,   -0.697,   -0.027,    0.838,   -0.275,
        0.311,   -0.152,    1.194,    0.122,    0.213,   -0.265,   -0.504,
       -0.240,    0.170,   -0.054,   -0.649,   -0.179,   -0.128,    0.138,
        0.740,    0.031,   -2.647,    0.371,   -0.908,    0.916,   -0.625,
        1.458,    0.581,    0.586,    0.387,    0.874,   -0.630,   -0.416,
       -0.411,    0.298,   -0.338,   -0.072
    },
    {  -0.846,    0.092,    1.703,    0.025,    0.122,   -0.215,   -2.862,
        0.070,    0.964,   -0.030,    1.528,   -0.071,    0.712,    0.029,
       -0.218,    0.114,   -1.173,   -0.139,    1.101,   -0.151,    0.499,
        0.007,    0.708,    0.240,    0.599,   -0.019,   -0.253,   -0.207,
        2.359,    0.088,  -10.052,   -1.840,    0.421,   -1.261,   -0.124,
        2.374,    1.674,    2.855,    1.506,    0.145,   -1.218,   -0.216,
        2.490,    1.092,   -2.140,    0.000
    },
    {   0.140,    0.066,    0.214,   -0.108,   -1.068,   -0.149,   -1.776,
       -0.207,   -0.595,   -0.113,    0.191,   -0.027,   -0.856,    0.007,
        0.316,   -0.038,   -0.912,   -0.044,    0.270,   -0.010,    0.766,
       -0.070,    0.754,    0.223,    0.588,   -0.064,   -0.064,   -0.074,
        0.185,    0.012,   -6.937,   -1.075,   -1.412,   -0.752,   -1.188,
       -2.198,   -0.711,    1.411,    1.472,    2.581,   -1.032,    1.459,
        4.528,    1.152,   -3.598,    2.022
    },
    {   0.317,   -0.052,   -0.167,   -0.014,   -0.893,   -0.100,   -0.707,
        0.001,   -1.547,    0.025,    0.910,    0.149,   -0.365,   -0.026,
       -0.052,    0.091,   -1.153,   -0.143,   -0.059,   -0.169,    1.182,
        0.044,    0.079,   -0.014,    0.791,   -0.027,   -0.952,   -0.058,
        0.182,    0.173,  -10.840,    0.237,   -4.116,   -0.939,    1.442,
       -0.027,    2.657,    1.548,    1.770,   -2.244,   -3.155,    2.775,
        0.044,   -0.820,   -3.283,    0.162
    },
    {   0.233,    0.165,    0.747,    0.028,   -1.135,   -0.075,    0.935,
        0.040,   -0.182,   -0.047,    1.032,   -0.040,   -0.040,   -0.249,
        2.205,    0.025,    1.457,    0.024,    0.653,    0.203,    1.551,
        0.055,    0.558,   -0.079,   -1.495,   -0.059,   -0.043,    0.119,
        1.150,    0.148,   -6.979,   -0.125,    0.547,    3.618,   -1.630,
       -2.470,    0.798,   -2.846,    2.426,    2.180,   -1.832,   -0.005,
        1.048,   -2.919,    1.561,    1.634
    },
    {  -0.173,   -0.114,    1.001,   -0.044,   -2.221,   -0.136,   -0.092,
        0.019,   -0.513,    0.008,    1.263,   -0.074,   -0.700,    0.037,
        0.225,    0.007,   -1.278,   -0.093,   -0.086,    0.014,    1.570,
       -0.060,    0.101,   -0.026,    0.198,   -0.096,   -2.954,   -0.004,
       -0.895,    0.017,    0.921,   -3.257,   -0.097,    1.749,    0.009,
        2.032,   -0.483,    2.045,    1.703,   -1.931,   -2.708,    1.814,
        0.911,   -1.602,    1.768,    1.890
    },
    {   1.355,   -0.019,    1.069,    0.032,   -0.654,   -0.024,    0.881,
        0.004,    1.453,   -0.009,    1.523,   -0.023,   -1.833,    0.002,
        0.660,    0.011,   -0.988,    0.043,    2.062,    0.030,    2.215,
        0.034,    2.397,   -0.051,   -0.175,   -0.047,   -1.269,    0.008,
       -1.152,    0.003,    0.589,    0.498,   -0.697,    2.911,    1.513,
       -2.666,    1.106,    0.707,   -0.937,   -0.019,   -1.358,    0.628,
        2.202,   -2.467,    1.318,    0.204
    },
    {   0.695,   -0.022,   -0.239,    0.010,    0.039,   -0.028,    0.219,
        0.023,    0.182,   -0.058,    1.265,    0.061,    0.210,    0.039,
        0.346,   -0.038,    0.917,    0.008,    0.715,    0.064,    0.905,
       -0.015,   -0.195,   -0.034,   -0.812,   -0.083,   -0.429,   -0.043,
       -1.187,   -0.021,    2.646,   -0.891,   -0.521,   -0.518,   -0.755,
       -2.453,    0.353,    0.827,   -5.002,   -1.304,   -1.605,   -0.511,
        1.218,   -0.204,   -1.730,    0.800
    },
    {  -0.227,   -0.042,    0.082,   -0.014,   -0.172,    0.015,    0.271,
       -0.003,   -0.249,   -0.026,   -0.541,   -0.031,   -0.136,    0.034,
        0.738,   -0.014,    0.044,   -0.002,    0.679,    0.021,   -0.107,
       -0.026,    0.136,    0.058,   -0.076,    0.053,    0.295,    0.031,
        1.102,    0.021,   -1.201,   -0.734,   -1.451,   -0.043,   -0.595,
       -0.507,    0.014,   -0.054,    0.238,   -1.406,   -1.498,   -1.404,
        1.086,   -0.364,    0.333,   -0.212
    },
    {   0.095,   -0.043,   -0.339,   -0.060,    0.509,   -0.002,   -0.096,
        0.018,    0.416,    0.012,    0.235,   -0.001,   -0.173,   -0.030,
        0.258,   -0.004,    0.025,   -0.017,    0.059,   -0.044,   -0.637,
        0.049,   -0.026,   -0.015,   -0.102,    0.020,    0.245,    0.013,
        0.175,    0.014,   -4.759,   -0.580,   -4.482,    0.071,   -0.963,
        1.174,    0.840,   -0.900,   -1.031,    0.802,    0.930,   -0.954,
        0.688,    0.617,    0.407,    0.289
    },
    {  -0.323,   -0.011,   -0.204,   -0.025,   -0.072,    0.009,    0.233,
        0.035,   -0.400,    0.026,   -0.054,    0.013,    0.452,    0.006,
        0.036,    0.110,    0.366,    0.046,    0.149,    0.029,    0.117,
        0.046,   -0.096,   -0.023,    0.055,   -0.042,   -0.198,    0.056,
        0.036,   -0.017,   -3.461,    0.583,    0.054,    0.665,    0.505,
       -1.402,    0.392,    1.081,    1.688,    0.496,    1.537,    0.170,
       -1.075,   -0.365,    1.076,   -0.129
    },
    {  -0.136,    0.029,   -0.047,    0.011,    0.110,    0.002,    0.219,
        0.028,    0.392,    0.003,   -0.200,    0.023,    0.176,   -0.008,
        0.003,   -0.037,    0.123,   -0.026,   -0.189,    0.005,   -0.263,
       -0.019,    0.304,   -0.020,   -0.000,    0.026,   -0.173,   -0.030,
        0.159,    0.039,   -3.353,   -1.309,    0.610,   -1.502,   -0.811,
        2.722,    0.112,   -0.058,   -2.236,    1.823,   -0.172,    0.115,
       -0.646,    1.028,   -1.903,   -0.621
    },
    {   0.202,    0.003,   -0.486,   -0.045,    0.471,   -0.036,   -0.458,
       -0.083,    0.592,    0.039,    0.093,   -0.041,   -0.226,   -0.004,
       -0.155,    0.011,    0.915,    0.042,   -0.149,    0.038,   -0.120,
        0.006,    0.340,    0.005,    0.233,    0.002,    0.263,    0.053,
       -0.031,   -0.134,   -4.970,   -0.019,    1.231,   -0.381,   -4.718,
        2.896,    0.133,   -0.642,   -1.367,    0.872,    1.678,   -1.186,
       -2.355,    0.419,   -1.010,   -1.804
    },
    {  -0.063,   -0.042,   -0.516,    0.010,    0.295,   -0.004,    0.323,
       -0.075,   -0.071,    0.034,   -0.024,    0.040,    0.206,   -0.019,
        0.475,   -0.081,    0.457,    0.017,   -0.248,    0.027,   -0.044,
        0.044,    0.644,    0.042,   -0.334,   -0.065,    0.324,    0.029,
       -0.119,   -0.055,   -2.478,   -2.086,    0.846,    3.126,   -2.686,
        1.950,   -1.539,   -0.973,   -1.074,    3.300,   -0.278,   -0.723,
       -0.512,   -0.855,   -1.281,   -1.327
    },
    {  -0.189,   -0.006,   -0.198,    0.031,    0.061,    0.081,    0.346,
        0.009,   -0.189,    0.075,    0.285,   -0.070,   -0.032,    0.009,
        0.026,    0.081,   -0.099,    0.024,   -0.131,   -0.005,   -0.136,
       -0.033,    0.337,    0.023,    0.117,   -0.029,    0.207,   -0.104,
       -0.325,    0.023,   -1.602,   -5.058,    1.305,    1.300,   -2.894,
       -0.214,    2.176,   -0.371,    2.057,    1.667,    2.281,   -1.159,
       -1.015,   -1.787,   -1.730,   -0.578
    },
    {   0.534,   -0.134,   -0.211,   -0.065,    0.037,    0.008,   -0.122,
        0.019,   -0.006,   -0.199,    0.185,   -0.065,    0.423,   -0.056,
       -0.049,   -0.073,   -0.112,    0.104,    0.056,    0.002,   -0.061,
        0.086,    0.129,    0.008,   -0.141,   -0.096,   -0.111,   -0.031,
        0.548,   -0.008,   -2.045,   -3.102,   -0.841,   -0.667,    0.760,
       -0.757,    0.959,    0.506,    0.062,    4.925,    0.818,   -0.038,
        1.167,   -0.341,   -2.975,    1.634
    },
    {   0.359,   -0.173,    0.141,   -0.099,   -0.108,    0.111,   -0.424,
        0.048,    0.060,   -0.002,    0.164,   -0.067,    0.068,   -0.177,
        0.134,   -0.173,    0.109,    0.038,   -0.070,   -0.039,    0.169,
        0.051,   -0.030,   -0.054,   -0.097,   -0.130,   -0.123,   -0.030,
       -0.012,   -0.034,    0.215,   -3.397,   -3.790,    1.327,    2.074,
        3.180,    3.740,   -6.479,    2.121,    0.459,    3.244,   -2.564,
        3.091,    2.358,   -5.482,    4.660
    },
    {  -0.193,   -0.089,    0.088,   -0.041,   -0.471,   -0.069,    0.092,
        0.114,   -0.182,   -0.033,   -0.308,   -0.029,   -0.151,   -0.053,
        0.159,   -0.111,    0.025,    0.040,    0.390,    0.013,   -0.155,
        0.018,    0.030,   -0.088,    0.166,   -0.002,    0.428,   -0.097,
       -0.295,    0.047,    1.340,   -2.920,   -7.209,    3.805,    2.987,
        4.328,    5.306,   -5.487,   -0.378,    0.623,    3.114,   -2.081,
        1.924,    1.298,   -2.979,    3.013
    },
    {  -0.089,    0.083,   -0.030,   -0.156,   -0.226,    0.066,    0.023,
       -0.078,   -0.067,   -0.120,   -0.131,    0.109,    0.173,   -0.057,
       -0.066,   -0.028,   -0.041,   -0.019,    0.269,    0.116,    0.220,
       -0.022,   -0.120,   -0.087,    0.167,   -0.036,    0.035,    0.008,
       -0.325,   -0.007,   -0.555,   -1.212,   -7.135,    4.902,    3.143,
        3.174,    2.087,   -5.724,    1.165,    0.537,    4.571,   -2.046,
        1.123,    2.609,   -6.631,    1.701
    },
    {   0.343,   -0.117,    0.061,    0.066,    0.251,   -0.001,   -0.013,
       -0.052,    0.051,    0.094,    0.108,    0.015,    0.008,   -0.025,
       -0.087,   -0.022,   -0.067,   -0.029,    0.119,    0.039,   -0.367,
       -0.003,    0.337,    0.048,   -0.438,   -0.059,   -0.054,   -0.031,
        0.369,   -0.115,   -3.774,   -5.290,   -3.197,    4.587,    0.176,
        3.141,   -1.870,    0.210,   -1.232,    0.362,    7.980,    0.476,
        4.412,    3.620,   -5.079,    4.004
    },
    {  -0.064,    0.007,    0.069,   -0.093,    0.001,   -0.054,    0.216,
       -0.022,   -0.248,   -0.034,   -0.172,   -0.010,   -0.005,   -0.014,
       -0.077,   -0.027,    0.035,    0.072,   -0.077,    0.104,   -0.063,
       -0.005,   -0.175,   -0.045,   -0.098,   -0.071,   -0.217,   -0.005,
        0.116,    0.105,   -6.302,   -8.759,   -0.833,    0.243,    5.187,
        4.500,   -6.316,    1.670,   -3.797,    2.767,    3.595,    4.400,
        1.379,   -0.814,   -8.502,    5.490
    },
    {   0.025,    0.004,   -0.067,   -0.084,   -0.072,   -0.058,    0.090,
       -0.006,    0.064,    0.055,    0.175,   -0.034,    0.495,    0.127,
        0.082,    0.073,    0.093,    0.051,    0.452,    0.056,    0.061,
       -0.031,    0.131,   -0.007,   -0.329,   -0.030,   -0.068,   -0.011,
        0.351,   -0.008,   -5.902,   -1.832,   -3.351,    1.536,    2.935,
        4.543,   -5.262,    2.248,   -1.721,    0.598,    2.219,    5.471,
        1.089,    1.819,   -5.904,    6.044
    },
    {  -0.083,   -0.083,    0.266,   -0.062,    0.420,    0.040,    0.042,
        0.017,   -0.038,   -0.004,   -0.198,   -0.015,   -0.250,    0.119,
       -0.442,   -0.001,    0.016,   -0.054,   -0.407,   -0.054,    0.162,
        0.051,    0.058,    0.096,    0.251,    0.031,   -0.010,   -0.057,
       -0.096,   -0.077,   -0.839,   -1.825,   -2.188,    3.788,    3.138,
        1.928,   -5.732,    2.109,   -0.193,    1.225,    7.350,    1.018,
        4.764,   -2.361,   -8.346,    2.743
    },
    {   0.384,   -0.061,    1.060,   -0.011,    0.476,    0.034,   -0.437,
       -0.026,   -0.390,    0.037,   -0.149,   -0.112,   -0.776,    0.061,
       -0.733,   -0.010,    0.773,   -0.018,    0.390,    0.026,    0.208,
       -0.069,    0.436,    0.034,    0.660,   -0.001,   -0.076,    0.030,
        0.114,   -0.031,   -1.941,   -6.235,    2.172,   -1.810,    2.148,
        1.702,   -4.795,    3.361,   -4.105,   -0.434,    4.896,   -3.947,
        3.835,   -2.830,   -3.334,    1.136
    },
    {   0.122,    0.025,    0.501,    0.001,    0.597,   -0.040,    0.059,
        0.029,   -0.332,    0.008,    0.121,   -0.047,   -0.227,    0.002,
        0.034,   -0.053,   -0.408,   -0.061,    0.063,    0.008,    0.132,
        0.021,    0.296,   -0.025,    0.306,    0.011,    0.219,   -0.115,
       -0.614,    0.049,    1.269,   -3.190,    2.161,   -3.379,   -2.162,
        0.421,   -4.163,    3.797,   -0.166,   -1.305,    0.419,   -4.511,
        3.383,   -0.371,   -3.418,    1.325
    },
    {   0.056,   -0.071,   -0.093,    0.077,    0.975,   -0.039,   -0.056,
       -0.000,   -0.006,   -0.009,    0.048,   -0.021,    0.302,    0.025,
        0.198,    0.125,   -0.996,   -0.054,    0.239,   -0.022,    1.016,
       -0.029,    0.177,    0.052,   -0.584,    0.106,    0.245,    0.078,
       -1.108,   -0.066,    1.559,   -4.670,    0.423,   -0.011,    3.015,
        1.248,   -3.135,    3.150,    3.259,    1.552,    0.739,   -2.619,
        2.313,    0.878,   -2.596,    1.812
    },
    {  -0.556,   -0.116,   -0.579,    0.122,    1.209,   -0.042,   -0.311,
        0.049,   -0.225,   -0.076,    0.110,    0.022,   -0.581,    0.013,
        0.319,    0.061,   -0.650,    0.096,   -0.159,   -0.079,    0.573,
        0.013,   -0.062,   -0.024,   -0.350,    0.112,    0.065,    0.058,
       -0.668,   -0.030,    2.643,   -1.366,    2.781,    0.251,    3.159,
        1.735,   -0.815,    0.166,    0.273,    2.675,    0.392,    0.055,
        2.845,    1.901,   -1.855,    0.291
    },
    {   0.651,   -0.012,   -0.245,   -0.102,    0.019,   -0.166,   -0.676,
        0.022,   -0.186,   -0.153,    0.268,   -0.023,    0.071,   -0.073,
        0.201,   -0.086,    0.211,    0.035,   -0.280,    0.146,   -0.310,
        0.142,   -0.919,    0.227,    0.534,   -0.164,   -0.153,   -0.120,
       -0.213,    0.023,    4.630,    1.436,    2.104,   -3.610,    6.588,
        2.502,    4.516,   -0.109,    4.750,    1.474,    0.643,    1.393,
        6.777,   -0.246,   -1.580,    0.375
    },
    {  -0.038,    0.071,    0.127,    0.272,    0.569,    0.051,   -0.266,
       -0.062,   -0.102,   -0.011,   -0.052,    0.147,   -0.140,    0.028,
       -0.069,    0.055,   -0.304,    0.085,    0.031,   -0.122,   -0.321,
       -0.100,   -0.217,    0.006,    0.000,   -0.111,    0.037,    0.007,
        0.132,   -0.164,    1.853,    2.690,   -1.452,   -5.551,    0.725,
        0.357,    3.553,    1.834,    4.765,   -2.522,   -2.419,   -3.333,
       10.545,   -2.145,   -1.533,   -1.112
    },
    {  -0.712,    0.056,   -0.412,   -0.239,    0.512,   -0.053,    0.016,
        0.144,    0.057,   -0.014,    0.251,   -0.118,   -0.603,   -0.124,
       -0.140,   -0.015,   -0.225,   -0.132,    0.154,   -0.040,    0.394,
        0.053,   -0.203,    0.080,   -0.207,    0.210,   -0.548,   -0.112,
       -0.474,    0.015,    3.396,    5.932,    1.597,   -3.019,    3.803,
       -0.899,    4.458,    0.661,    1.859,   -5.708,   -1.391,   -4.466,
        6.589,   -0.483,   -0.051,   -2.772
    },
    {  -0.643,   -0.184,   -0.530,    0.004,    0.199,   -0.073,   -0.103,
       -0.059,    0.160,   -0.124,    0.050,   -0.152,   -0.107,   -0.032,
        0.063,   -0.055,    0.264,   -0.127,    0.361,    0.009,    0.370,
       -0.119,   -0.342,    0.112,    0.462,    0.031,   -0.603,    0.134,
       -0.680,    0.297,    3.374,    1.176,    1.488,   -1.177,    2.863,
       -1.836,    3.539,   -2.563,    1.830,   -4.940,    0.296,   -5.331,
        7.724,   -1.486,   -1.113,   -3.306
    }
  };


  double netfun(std::vector<double>& in, const double* w)
  {
    double x00 = in[0];
    double x;

    //Layer 1, Node 0
    x = w[0];
    x = x + w[1] * x00;
    double x10 = tanh(x);

    //Layer 1, Node 1
    x = w[2];
    x = x + w[3] * x00;
    double x11 = tanh(x);

    //Layer 1, Node 2
    x = w[4];
    x = x + w[5] * x00;
    double x12 = tanh(x);

    //Layer 1, Node 3
    x = w[6];
    x = x + w[7] * x00;
    double x13 = tanh(x);

    //Layer 1, Node 4
    x = w[8];
    x = x + w[9] * x00;
    double x14 = tanh(x);

    //Layer 1, Node 5
    x = w[10];
    x = x + w[11] * x00;
    double x15 = tanh(x);

    //Layer 1, Node 6
    x = w[12];
    x = x + w[13] * x00;
    double x16 = tanh(x);

    //Layer 1, Node 7
    x = w[14];
    x = x + w[15] * x00;
    double x17 = tanh(x);

    //Layer 1, Node 8
    x = w[16];
    x = x + w[17] * x00;
    double x18 = tanh(x);

    //Layer 1, Node 9
    x = w[18];
    x = x + w[19] * x00;
    double x19 = tanh(x);

    //Layer 1, Node 10
    x = w[20];
    x = x + w[21] * x00;
    double x110 = tanh(x);

    //Layer 1, Node 11
    x = w[22];
    x = x + w[23] * x00;
    double x111 = tanh(x);

    //Layer 1, Node 12
    x = w[24];
    x = x + w[25] * x00;
    double x112 = tanh(x);

    //Layer 1, Node 13
    x = w[26];
    x = x + w[27] * x00;
    double x113 = tanh(x);

    //Layer 1, Node 14
    x = w[28];
    x = x + w[29] * x00;
    double x114 = tanh(x);

    //Layer 2, Node 0
    x = w[30];
    x = x + w[31] * x10;
    x = x + w[32] * x11;
    x = x + w[33] * x12;
    x = x + w[34] * x13;
    x = x + w[35] * x14;
    x = x + w[36] * x15;
    x = x + w[37] * x16;
    x = x + w[38] * x17;
    x = x + w[39] * x18;
    x = x + w[40] * x19;
    x = x + w[41] * x110;
    x = x + w[42] * x111;
    x = x + w[43] * x112;
    x = x + w[44] * x113;
    x = x + w[45] * x114;
    double x20 = 1.0/(1.0+exp(-x));
    return x20;
  }
}; // End anonymous namespace

//-----------------------------------------------------------------------------
// Compute average over networks. Default is to use all networks
//-----------------------------------------------------------------------------

double HT300_MHT75_v8_HT300_v7_166301_166373_sel1(std::vector<double>& inputvars,
                                                  int first=0,
                                                  int last=nnetworks-1)
{
  if ( first < 0 ) first = 0;
  if ( last  < 0 ) last  = nnetworks-1;
  if ( last  > nnetworks-1 ) last = nnetworks-1;
  if ( first > last )
    {
      std::cerr << "** HT300_MHT75_v8_HT300_v7_166301_166373_sel1 ** first-index > last-index"
                << std::endl; exit(3);
    }

  // Compute average over networks
  std::vector<double> in(ninputs);
  in[0] = (inputvars[0] - mean[0]) / sigma[0];

  int   n = last - first + 1;
  double x = 0.0;
  for(int i=first; i <= last; i++) x += netfun(in, weight[i]);
  return x / n;
}

extern "C" double HT300_MHT75_v8_HT300_v7_166301_166373_sel1_dl(std::vector<double>& in,
                                                                int first=0,
                                                                int last=nnetworks-1)
{
  return HT300_MHT75_v8_HT300_v7_166301_166373_sel1(in, first, last);
}

extern "C" double HT300_MHT75_v8_HT300_v7_166301_166373_sel1_dl2(double* in,
                                                                 int first=0,
                                                                 int last=nnetworks-1)
{
  std::vector<double> invec;

  invec.push_back(in[0]);

  return HT300_MHT75_v8_HT300_v7_166301_166373_sel1(invec, first, last);
}
