//-----------------------------------------------------------------------------
// Network: HT300_MHT90_v2_HT300_v9_173212_176544_sel1
// Inputs:
//                                                  Offset       Scale
//    offlinevar                                 2.945e+01   2.229e+01
//
// Created: Mon Jan 23 06:18:54 2012
//-----------------------------------------------------------------------------
#include <cmath>
#include <vector>
#include <iostream>
#include <stdlib.h>
//-----------------------------------------------------------------------------
// Make following visible only to this programming unit
namespace {
  // NOTE: Network indices start at 0
  static const int nnetworks=100;
  static const int ninputs  =1;
  static const int nhidden  =15;
  static const int nparams  =46;

  static const double mean[ninputs]={
  2.94500e+01
  };

  static const double sigma[ninputs]={
  2.22900e+01
  };

  static const double weight[nnetworks][nparams]={
    {  -0.062,    0.358,    0.041,    0.029,    0.001,    0.111,   -0.040,
        0.010,   -0.077,    0.101,    0.003,   -0.154,    0.078,    0.087,
       -0.056,    0.057,    0.035,    0.057,    0.009,    0.129,    0.006,
       -0.146,   -0.007,    0.020,    0.061,    0.101,    0.010,    0.138,
        0.026,   -0.037,   -3.602,    1.287,   -0.332,    6.201,    0.760,
       -1.772,   -1.616,   -3.790,   -1.643,   -3.896,    2.879,   -2.088,
       -2.613,    2.204,   -0.979,   -1.963
    },
    {   0.044,    0.070,   -0.008,    0.212,    0.003,    0.150,    0.067,
       -0.008,    0.015,    0.077,    0.028,   -0.140,   -0.052,   -0.032,
        0.013,    0.073,    0.018,    0.182,    0.045,    0.252,    0.040,
       -0.170,    0.007,   -0.028,   -0.035,    0.037,    0.033,    0.119,
       -0.030,   -0.053,   -4.042,    1.169,   -0.516,    5.148,    0.646,
       -2.035,   -1.377,   -4.712,   -1.200,   -4.121,    2.823,   -2.140,
       -2.229,    2.248,   -0.653,   -2.224
    },
    {   0.003,    0.095,   -0.107,   -0.054,   -0.061,    0.217,   -0.031,
       -0.052,   -0.114,   -0.145,   -0.012,   -0.185,    0.048,    0.027,
       -0.054,   -0.055,   -0.011,    0.092,    0.065,    0.040,    0.051,
       -0.111,   -0.000,   -0.120,   -0.067,   -0.114,   -0.041,    0.186,
       -0.019,    0.150,   -3.776,    1.029,   -1.060,    4.839,   -0.418,
       -1.777,   -1.387,   -4.699,   -0.628,   -4.358,    3.518,   -2.273,
       -1.947,    1.760,   -0.296,   -2.320
    },
    {   0.027,    0.136,   -0.029,   -0.051,   -0.026,    0.205,   -0.022,
       -0.275,   -0.095,   -0.112,    0.040,    0.093,    0.088,   -0.035,
        0.081,    0.008,    0.002,    0.028,   -0.043,   -0.136,   -0.075,
       -0.122,   -0.035,   -0.040,    0.021,   -0.139,   -0.046,    0.093,
        0.020,   -0.098,   -3.497,    1.596,   -0.449,    4.963,   -0.820,
       -1.829,   -1.415,   -5.350,   -0.084,   -4.092,    3.288,   -1.742,
       -1.531,    1.576,   -0.459,   -1.682
    },
    {   0.023,    0.221,   -0.004,   -0.086,    0.067,    0.349,   -0.041,
       -0.283,    0.012,   -0.171,    0.030,    0.336,   -0.004,   -0.005,
        0.011,   -0.146,    0.073,    0.004,   -0.030,   -0.263,   -0.037,
        0.047,    0.031,   -0.108,    0.044,   -0.249,   -0.051,    0.091,
       -0.029,   -0.072,   -4.016,    1.590,   -0.849,    5.719,   -0.059,
       -1.558,   -0.695,   -4.666,    0.396,   -4.330,    2.463,   -2.107,
       -2.787,    2.323,   -0.082,   -1.922
    },
    {   0.084,   -0.235,   -0.030,   -0.116,   -0.080,   -0.006,   -0.043,
       -0.069,    0.043,   -0.047,    0.070,    0.097,    0.073,   -0.168,
       -0.040,   -0.006,    0.065,   -0.292,    0.004,   -0.163,   -0.009,
       -0.094,    0.015,    0.092,   -0.005,    0.026,   -0.009,   -0.001,
       -0.005,   -0.057,   -2.897,    2.174,   -0.661,    5.502,   -0.342,
       -1.742,   -0.805,   -4.613,   -0.650,   -4.639,    2.905,   -1.989,
       -2.349,    1.597,   -1.547,   -3.067
    },
    {   0.007,   -0.221,   -0.012,    0.001,   -0.024,   -0.116,   -0.026,
       -0.020,    0.078,   -0.114,    0.030,   -0.166,    0.051,   -0.166,
       -0.004,    0.126,   -0.053,   -0.236,   -0.004,   -0.114,   -0.039,
       -0.168,   -0.021,   -0.008,    0.009,    0.178,    0.000,    0.009,
       -0.025,   -0.001,   -3.683,    2.411,   -1.078,    5.829,   -0.480,
       -2.145,   -0.591,   -4.726,   -0.239,   -4.471,    2.739,   -1.805,
       -2.360,    2.131,   -1.823,   -2.742
    },
    {  -0.037,   -0.006,    0.003,    0.023,    0.002,    0.097,   -0.030,
       -0.047,    0.036,   -0.073,   -0.032,    0.152,    0.014,   -0.234,
        0.031,    0.061,   -0.012,    0.056,   -0.009,   -0.024,   -0.051,
       -0.033,   -0.013,    0.148,   -0.024,    0.158,   -0.050,    0.014,
       -0.036,    0.003,   -3.867,    2.376,   -0.844,    5.680,   -0.722,
       -1.875,   -0.515,   -4.241,   -0.696,   -4.415,    2.992,   -1.949,
       -2.288,    2.068,   -1.603,   -2.581
    },
    {  -0.046,    0.027,    0.022,   -0.127,    0.040,    0.066,   -0.012,
        0.123,    0.048,   -0.013,    0.027,   -0.043,    0.044,   -0.035,
        0.047,   -0.028,    0.019,   -0.154,   -0.017,    0.153,    0.007,
        0.047,   -0.051,    0.005,    0.003,   -0.147,   -0.003,    0.072,
        0.011,    0.061,   -3.415,    2.775,   -0.404,    5.189,   -1.381,
       -2.269,   -1.125,   -4.720,   -1.392,   -4.763,    2.386,   -1.313,
       -2.300,    1.220,   -1.553,   -1.914
    },
    {  -0.006,   -0.077,   -0.022,   -0.218,    0.001,   -0.036,    0.012,
        0.132,   -0.043,    0.273,   -0.014,   -0.240,   -0.012,   -0.056,
        0.028,    0.091,    0.028,   -0.267,    0.022,    0.159,    0.023,
       -0.157,    0.016,   -0.087,   -0.035,    0.145,    0.026,   -0.044,
       -0.009,    0.116,   -3.869,    2.419,   -0.803,    5.690,   -1.013,
       -2.939,   -1.795,   -4.639,   -1.406,   -4.886,    1.746,   -1.482,
       -1.914,    1.382,   -1.906,   -2.215
    },
    {   0.010,   -0.113,   -0.029,   -0.093,   -0.011,    0.095,   -0.024,
        0.056,    0.028,    0.185,   -0.011,   -0.049,   -0.017,   -0.041,
       -0.006,   -0.027,   -0.017,   -0.244,   -0.034,    0.106,    0.017,
       -0.055,   -0.026,   -0.020,   -0.002,   -0.060,    0.021,    0.002,
        0.029,    0.065,   -3.826,    1.303,   -1.026,    5.346,   -1.212,
       -3.055,   -1.447,   -4.781,   -1.219,   -5.151,    1.032,   -2.550,
       -2.170,    1.482,   -1.848,   -2.456
    },
    {   0.027,   -0.095,   -0.038,   -0.075,    0.019,    0.132,    0.014,
        0.026,   -0.024,    0.120,   -0.014,    0.060,    0.004,   -0.014,
       -0.040,   -0.153,   -0.044,   -0.197,   -0.060,    0.009,    0.046,
        0.103,   -0.025,   -0.075,    0.017,   -0.106,    0.031,   -0.039,
        0.029,   -0.002,   -4.162,    1.715,   -1.274,    5.355,   -0.705,
       -2.682,   -2.063,   -4.525,   -0.967,   -5.618,    0.464,   -2.045,
       -2.142,    1.216,   -2.301,   -2.237
    },
    {  -0.013,   -0.076,    0.054,    0.044,   -0.028,    0.011,    0.001,
        0.020,   -0.038,    0.078,    0.071,    0.013,   -0.073,   -0.007,
       -0.017,   -0.006,    0.043,   -0.199,   -0.025,    0.157,   -0.014,
       -0.063,    0.027,   -0.031,    0.078,    0.014,   -0.046,   -0.099,
       -0.037,    0.009,   -3.925,    1.892,   -1.373,    5.490,   -0.928,
       -1.794,   -2.414,   -4.717,   -0.712,   -5.325,    0.220,   -2.313,
       -2.555,    1.484,   -2.624,   -1.957
    },
    {  -0.048,    0.131,    0.010,    0.133,    0.026,    0.008,    0.045,
        0.038,    0.006,   -0.064,    0.005,   -0.075,   -0.021,    0.101,
       -0.001,   -0.147,   -0.011,   -0.148,    0.007,    0.227,    0.053,
        0.015,   -0.014,    0.051,    0.044,    0.136,    0.037,   -0.093,
        0.005,   -0.122,   -3.946,    1.731,   -0.352,    5.016,   -0.753,
       -1.871,   -2.179,   -4.626,   -1.086,   -4.427,    0.723,   -2.346,
       -2.992,    0.885,   -3.040,   -2.038
    },
    {   0.020,    0.067,    0.017,   -0.184,   -0.010,   -0.043,    0.018,
       -0.011,   -0.021,    0.003,    0.006,    0.088,   -0.018,   -0.134,
        0.019,    0.057,   -0.008,   -0.123,    0.001,   -0.064,    0.007,
       -0.117,    0.038,   -0.051,    0.018,   -0.009,   -0.031,   -0.074,
       -0.021,    0.073,   -3.969,    1.667,   -0.325,    5.369,   -1.517,
       -2.276,   -2.070,   -4.410,   -0.741,   -4.374,    0.995,   -2.186,
       -2.320,    0.987,   -2.591,   -2.250
    },
    {   0.002,   -0.136,    0.005,   -0.039,    0.012,   -0.066,   -0.005,
        0.003,   -0.013,   -0.189,    0.004,   -0.060,    0.005,   -0.024,
       -0.017,    0.102,    0.013,   -0.043,    0.003,   -0.067,   -0.011,
        0.079,    0.020,   -0.076,   -0.008,    0.212,   -0.000,   -0.304,
        0.016,    0.022,   -3.757,    1.752,   -0.738,    5.088,   -1.773,
       -2.439,   -2.510,   -3.779,   -1.184,   -4.889,    0.521,   -1.686,
       -3.179,    1.452,   -2.540,   -1.973
    },
    {   0.017,   -0.264,    0.004,    0.015,   -0.010,   -0.091,   -0.007,
        0.088,   -0.000,   -0.308,    0.000,   -0.083,    0.005,    0.021,
       -0.002,   -0.142,   -0.025,   -0.196,   -0.017,   -0.236,   -0.003,
       -0.037,   -0.016,   -0.084,   -0.023,    0.019,   -0.014,   -0.058,
        0.002,   -0.174,   -3.936,    2.015,   -0.145,    4.824,   -1.091,
       -2.175,   -2.031,   -4.012,   -0.913,   -4.750,    1.239,   -2.222,
       -3.008,    1.431,   -2.351,   -2.371
    },
    {   0.026,    0.096,    0.008,   -0.067,    0.013,   -0.098,   -0.017,
       -0.112,   -0.007,   -0.068,    0.014,   -0.197,    0.011,    0.039,
       -0.002,   -0.016,   -0.026,   -0.034,   -0.025,   -0.121,   -0.019,
       -0.183,   -0.015,    0.036,   -0.027,    0.184,   -0.022,   -0.239,
        0.021,   -0.082,   -3.901,    1.563,   -0.033,    4.418,   -1.060,
       -2.466,   -1.854,   -4.084,   -1.586,   -4.056,    1.654,   -1.899,
       -3.259,    1.374,   -2.270,   -2.138
    },
    {   0.034,   -0.020,   -0.009,   -0.092,    0.013,   -0.004,   -0.002,
       -0.102,    0.024,   -0.225,    0.030,    0.048,    0.032,    0.075,
       -0.021,    0.004,   -0.002,   -0.067,    0.009,    0.028,   -0.004,
       -0.085,   -0.012,   -0.007,    0.022,   -0.006,    0.007,   -0.124,
        0.042,   -0.073,   -3.659,    1.350,   -0.864,    5.243,   -0.593,
       -2.306,   -1.405,   -4.049,   -1.094,   -4.010,    1.732,   -2.395,
       -2.556,    0.842,   -2.842,   -2.186
    },
    {  -0.002,    0.173,   -0.011,    0.094,   -0.014,    0.048,   -0.038,
        0.013,    0.002,    0.058,   -0.012,   -0.093,   -0.061,   -0.147,
        0.046,    0.027,   -0.002,    0.011,    0.001,   -0.014,    0.011,
        0.004,   -0.014,   -0.051,    0.008,    0.024,   -0.026,   -0.094,
       -0.026,    0.030,   -4.020,    1.423,   -1.518,    5.232,   -0.522,
       -1.551,   -1.496,   -3.894,   -1.729,   -3.470,    1.343,   -2.019,
       -1.922,    1.301,   -3.171,   -2.642
    },
    {   0.004,    0.199,   -0.051,   -0.117,    0.015,    0.018,    0.004,
        0.061,   -0.021,    0.098,    0.022,    0.006,    0.071,   -0.203,
        0.002,    0.003,    0.007,    0.089,   -0.017,    0.194,   -0.032,
       -0.082,   -0.017,   -0.159,   -0.023,    0.034,   -0.001,    0.014,
        0.019,    0.009,   -3.640,    1.390,   -1.768,    5.833,   -0.798,
       -1.855,   -1.625,   -3.796,   -1.901,   -4.068,    0.516,   -2.156,
       -1.999,    1.205,   -3.480,   -3.818
    },
    {  -0.024,   -0.075,   -0.018,   -0.065,    0.022,   -0.005,    0.027,
        0.125,    0.026,   -0.078,   -0.028,    0.082,    0.018,   -0.161,
       -0.043,   -0.215,   -0.009,    0.057,   -0.001,   -0.151,    0.029,
       -0.109,   -0.020,    0.101,   -0.031,    0.084,   -0.011,   -0.110,
       -0.057,   -0.142,   -4.235,    1.699,   -1.091,    5.625,   -1.005,
       -1.372,   -1.678,   -3.816,   -1.272,   -4.669,    0.609,   -2.382,
       -1.509,    1.214,   -3.194,   -3.418
    },
    {  -0.035,   -0.062,   -0.018,   -0.111,    0.008,    0.002,    0.024,
        0.134,    0.019,    0.085,   -0.010,   -0.091,   -0.039,   -0.048,
       -0.029,    0.001,   -0.029,    0.001,   -0.009,   -0.040,    0.030,
       -0.005,    0.009,    0.159,   -0.006,    0.117,    0.001,   -0.311,
       -0.004,   -0.061,   -4.136,    2.283,   -0.710,    5.662,    0.140,
       -1.726,   -1.552,   -3.883,   -0.791,   -4.948,    1.085,   -2.176,
       -0.571,    0.904,   -3.408,   -3.551
    },
    {   0.007,    0.042,    0.006,   -0.084,   -0.007,   -0.293,    0.004,
        0.303,   -0.003,    0.319,    0.012,   -0.019,    0.019,   -0.326,
       -0.014,    0.252,   -0.003,   -0.295,    0.027,    0.052,    0.004,
        0.104,    0.021,    0.322,    0.003,   -0.042,    0.003,   -0.274,
        0.016,   -0.046,   -3.745,    2.202,   -0.631,    4.492,    0.247,
       -2.148,   -1.671,   -4.174,   -0.609,   -4.851,    1.140,   -2.717,
       -0.687,    1.252,   -3.098,   -3.527
    },
    {   0.009,   -0.022,    0.018,   -0.139,   -0.019,   -0.075,    0.031,
        0.266,   -0.008,   -0.099,    0.023,    0.262,   -0.017,   -0.170,
        0.030,   -0.070,   -0.044,   -0.131,    0.007,   -0.163,    0.027,
        0.033,   -0.001,    0.273,   -0.006,    0.172,   -0.081,   -0.165,
        0.030,    0.012,   -3.970,    2.501,   -0.956,    3.960,    0.732,
       -2.171,   -1.892,   -4.424,   -1.131,   -4.443,    1.734,   -2.521,
       -0.182,    0.630,   -3.260,   -3.527
    },
    {  -0.052,    0.033,   -0.008,   -0.033,    0.010,   -0.044,    0.039,
        0.184,    0.005,   -0.037,   -0.004,    0.099,   -0.047,   -0.084,
        0.049,    0.003,   -0.014,   -0.041,   -0.050,   -0.003,    0.018,
       -0.031,    0.021,    0.139,    0.015,    0.031,   -0.034,   -0.267,
        0.041,    0.093,   -4.050,    1.976,   -1.133,    3.887,    1.818,
       -2.326,   -2.050,   -4.388,   -1.323,   -5.412,    1.583,   -2.814,
       -0.151,    0.207,   -3.525,   -3.647
    },
    {   0.017,   -0.048,    0.018,   -0.093,   -0.076,   -0.059,    0.016,
        0.021,    0.078,   -0.057,    0.064,    0.082,    0.047,    0.024,
        0.047,   -0.305,   -0.064,   -0.091,    0.006,   -0.117,   -0.062,
       -0.045,   -0.008,    0.117,    0.028,    0.049,   -0.016,   -0.255,
        0.023,    0.017,   -3.645,    2.218,   -1.429,    4.024,    1.638,
       -2.445,   -1.883,   -4.747,   -0.911,   -5.904,    1.183,   -3.289,
       -0.592,    0.808,   -3.665,   -3.009
    },
    {   0.026,    0.053,    0.017,   -0.173,   -0.044,   -0.073,   -0.016,
       -0.123,    0.054,   -0.171,    0.076,    0.031,   -0.014,   -0.019,
        0.034,    0.004,   -0.013,    0.023,   -0.004,   -0.088,   -0.037,
       -0.139,    0.016,    0.112,   -0.052,   -0.018,    0.009,   -0.249,
       -0.033,   -0.020,   -3.577,    2.858,   -2.033,    4.312,    1.031,
       -2.303,   -1.534,   -4.767,   -0.752,   -5.675,    1.497,   -2.950,
       -0.633,    1.077,   -2.986,   -2.141
    },
    {  -0.066,    0.010,   -0.017,   -0.034,   -0.015,   -0.031,    0.050,
        0.019,   -0.053,   -0.106,    0.033,   -0.057,    0.039,    0.079,
       -0.038,   -0.011,    0.114,   -0.081,   -0.003,    0.215,   -0.017,
        0.042,    0.023,   -0.069,    0.031,    0.016,    0.047,    0.007,
       -0.029,   -0.305,   -2.893,    3.022,   -1.728,    4.882,    1.135,
       -2.509,   -1.238,   -4.875,   -0.955,   -5.953,    1.243,   -2.135,
       -0.974,    0.872,   -3.781,   -2.590
    },
    {   0.000,   -0.017,   -0.043,   -0.052,   -0.066,   -0.053,   -0.065,
        0.078,   -0.153,   -0.150,    0.050,   -0.054,   -0.016,    0.044,
        0.145,   -0.054,    0.192,   -0.100,    0.056,    0.118,    0.062,
       -0.034,    0.205,   -0.074,    0.004,   -0.024,   -0.021,   -0.036,
       -0.089,   -0.097,   -2.447,    2.918,   -1.363,    4.870,    1.224,
       -2.236,   -1.054,   -4.674,   -0.536,   -5.997,    0.992,   -2.067,
       -1.102,    1.737,   -2.949,   -1.956
    },
    {  -0.057,    0.026,   -0.103,   -0.132,    0.024,   -0.044,   -0.099,
       -0.079,   -0.069,   -0.027,    0.046,   -0.031,    0.000,   -0.114,
        0.088,    0.097,    0.123,   -0.108,    0.083,    0.123,    0.037,
        0.025,    0.159,   -0.019,    0.096,   -0.063,    0.046,    0.054,
        0.048,   -0.093,   -2.795,    2.534,   -0.887,    4.155,    1.079,
       -2.090,   -1.230,   -4.500,   -0.522,   -6.060,    0.847,   -1.928,
       -0.476,    1.101,   -3.353,   -2.478
    },
    {  -0.071,    0.083,   -0.107,   -0.147,   -0.155,    0.032,    0.059,
       -0.138,    0.022,    0.167,    0.096,    0.029,    0.052,   -0.070,
       -0.046,    0.425,    0.108,   -0.260,    0.077,   -0.052,    0.041,
        0.108,   -0.061,   -0.132,    0.061,    0.132,    0.138,    0.047,
       -0.122,   -0.222,   -2.126,    1.839,   -0.394,    4.650,    1.579,
       -2.841,   -1.103,   -4.223,   -0.384,   -5.355,    0.533,   -1.526,
       -0.468,    0.659,   -3.192,   -2.178
    },
    {   0.117,   -0.098,   -0.148,   -0.392,   -0.192,   -0.103,   -0.045,
        0.051,    0.179,   -0.308,    0.108,    0.340,   -0.073,   -0.276,
        0.047,    0.098,    0.134,   -0.167,   -0.017,   -0.131,    0.084,
        0.039,   -0.074,   -0.097,    0.188,   -0.036,   -0.018,    0.311,
        0.006,   -0.118,   -1.922,    1.756,   -0.662,    4.665,    1.754,
       -2.988,   -1.692,   -4.314,   -0.303,   -6.150,    0.953,   -2.496,
       -0.541,    0.655,   -3.338,   -1.991
    },
    {   0.199,   -0.071,   -0.138,   -0.330,   -0.238,   -0.091,    0.051,
        0.060,    0.045,   -0.255,    0.036,    0.474,   -0.035,   -0.222,
        0.119,    0.104,    0.163,   -0.040,   -0.110,   -0.006,   -0.034,
       -0.020,   -0.104,    0.089,    0.133,   -0.154,    0.028,   -0.123,
       -0.010,    0.025,   -2.323,    2.432,   -0.718,    5.570,    1.689,
       -3.056,   -1.392,   -5.125,    0.126,   -6.128,    0.998,   -2.161,
       -1.227,    0.719,   -3.218,   -1.744
    },
    {   0.166,    0.087,   -0.077,    0.071,   -0.196,    0.051,   -0.128,
       -0.033,   -0.161,   -0.057,    0.191,   -0.041,   -0.068,   -0.190,
        0.039,    0.010,    0.264,    0.057,    0.143,    0.073,    0.096,
        0.105,   -0.185,    0.105,    0.362,    0.003,   -0.117,   -0.265,
        0.132,    0.138,   -2.603,    1.607,   -0.785,    5.132,    1.313,
       -3.104,   -0.666,   -4.765,    0.637,   -6.003,    0.895,   -2.009,
       -1.232,    0.464,   -3.729,   -1.975
    },
    {   0.090,    0.226,    0.188,   -0.022,   -0.059,    0.223,   -0.116,
        0.281,   -0.296,   -0.208,    0.504,    0.074,   -0.083,   -0.186,
       -0.070,   -0.123,    0.263,    0.245,    0.228,    0.189,    0.178,
        0.084,    0.122,    0.092,    0.217,    0.081,   -0.010,    0.027,
        0.237,    0.229,   -1.759,    2.124,   -1.365,    5.692,    1.265,
       -2.732,   -0.787,   -4.279,    0.916,   -6.031,    0.187,   -1.774,
       -1.533,    0.261,   -3.213,   -1.975
    },
    {   0.143,    0.015,    0.000,   -0.207,    0.077,    0.092,   -0.086,
        0.247,    0.041,   -0.215,    0.187,    0.075,   -0.218,   -0.151,
       -0.414,   -0.146,    0.462,    0.061,    0.141,    0.163,    0.073,
        0.098,   -0.172,   -0.058,    0.164,    0.204,   -0.046,    0.108,
        0.129,    0.015,   -2.037,    1.976,   -1.604,    6.173,    1.137,
       -2.318,   -1.434,   -4.910,    1.584,   -5.669,    0.525,   -2.260,
       -1.319,   -0.124,   -3.053,   -2.903
    },
    {  -0.026,    0.226,    0.256,   -0.204,   -0.065,    0.239,   -0.256,
        0.038,   -0.170,   -0.026,    0.210,   -0.080,   -0.230,   -0.235,
       -0.047,   -0.181,    0.225,    0.197,    0.028,    0.267,    0.233,
        0.003,   -0.331,   -0.204,   -0.142,    0.298,    0.112,    0.178,
        0.354,    0.102,   -1.770,    1.122,   -1.006,    6.001,    0.463,
       -3.612,   -1.169,   -4.392,    1.274,   -4.969,    0.432,   -2.076,
       -0.935,   -0.300,   -2.863,   -2.834
    },
    {   0.135,   -0.096,   -0.053,   -0.167,    0.005,    0.235,   -0.060,
        0.193,   -0.143,    0.010,    0.053,    0.004,    0.040,   -0.054,
       -0.389,    0.097,    0.090,    0.012,   -0.126,    0.154,    0.281,
        0.078,   -0.051,   -0.061,   -0.002,    0.048,   -0.016,    0.055,
        0.317,    0.124,   -1.815,    1.420,   -0.927,    6.042,    0.388,
       -3.754,   -1.545,   -4.279,    1.432,   -5.851,    0.785,   -2.021,
       -0.654,   -0.448,   -2.324,   -2.583
    },
    {   0.097,   -0.093,   -0.023,   -0.065,    0.114,    0.194,    0.116,
        0.311,    0.124,   -0.061,    0.256,   -0.172,    0.032,   -0.065,
       -0.237,    0.090,    0.127,    0.026,    0.008,   -0.021,    0.185,
       -0.023,    0.080,    0.181,    0.094,    0.135,   -0.029,    0.021,
        0.158,    0.118,   -1.945,    1.579,   -0.543,    5.917,    0.128,
       -3.649,   -1.816,   -3.635,    1.082,   -5.547,    0.732,   -1.815,
       -1.007,    0.173,   -2.512,   -3.335
    },
    {   0.017,   -0.217,    0.098,   -0.042,    0.008,    0.077,    0.233,
       -0.174,    0.148,    0.036,    0.274,   -0.222,    0.090,   -0.293,
        0.030,   -0.079,    0.057,    0.070,    0.077,   -0.004,    0.062,
       -0.110,   -0.042,   -0.252,   -0.063,   -0.042,    0.110,   -0.105,
       -0.028,   -0.023,   -2.329,    1.760,   -0.331,    5.677,    0.474,
       -3.354,   -0.858,   -3.819,    0.580,   -5.750,    0.723,   -1.003,
       -0.202,    0.230,   -3.063,   -3.063
    },
    {  -0.009,    0.041,    0.136,    0.012,   -0.176,   -0.062,    0.009,
       -0.126,    0.182,    0.163,    0.010,   -0.205,    0.027,   -0.121,
        0.148,    0.128,   -0.041,   -0.193,    0.027,   -0.063,    0.048,
       -0.084,    0.104,   -0.238,    0.082,   -0.009,    0.104,    0.032,
        0.036,   -0.072,   -1.830,    0.978,   -1.174,    5.871,    0.269,
       -3.073,   -0.339,   -3.524,    1.083,   -5.920,    1.064,   -1.436,
       -0.419,   -0.187,   -2.480,   -3.612
    },
    {  -0.118,    0.087,    0.070,    0.054,   -0.208,   -0.079,    0.139,
       -0.068,    0.265,    0.024,    0.274,   -0.115,    0.064,   -0.177,
        0.073,    0.113,   -0.047,   -0.155,    0.059,    0.112,   -0.071,
       -0.012,    0.224,   -0.280,    0.236,   -0.034,    0.026,    0.007,
        0.084,    0.013,   -1.826,    1.246,   -1.154,    5.269,    0.056,
       -2.604,    0.098,   -2.982,    0.826,   -6.537,    1.006,   -1.806,
       -0.325,    0.286,   -2.660,   -3.156
    },
    {  -0.232,   -0.081,   -0.024,   -0.072,   -0.411,    0.035,    0.064,
       -0.121,    0.069,    0.043,    0.211,    0.055,   -0.028,   -0.143,
        0.066,   -0.010,   -0.205,   -0.176,   -0.013,    0.038,    0.102,
        0.000,    0.095,   -0.251,    0.213,   -0.142,    0.107,    0.080,
        0.100,    0.029,   -1.732,    1.732,   -1.912,    4.927,    0.065,
       -2.683,   -0.307,   -3.312,   -0.045,   -5.839,    1.154,   -2.293,
       -0.694,    0.627,   -2.916,   -3.213
    },
    {  -0.048,    0.169,    0.058,   -0.024,   -0.275,    0.255,    0.064,
       -0.112,    0.137,   -0.062,   -0.081,   -0.128,    0.068,   -0.103,
       -0.212,    0.124,   -0.014,    0.080,   -0.054,    0.018,    0.100,
       -0.009,    0.037,   -0.183,    0.200,   -0.038,    0.170,    0.066,
       -0.216,    0.139,   -1.981,    1.525,   -1.516,    5.196,    0.126,
       -3.447,   -1.165,   -2.916,   -0.047,   -5.850,    0.676,   -2.022,
       -0.172,    1.026,   -2.529,   -3.087
    },
    {  -0.028,    0.071,    0.352,    0.036,    0.009,    0.281,    0.192,
       -0.174,    0.205,    0.105,   -0.049,   -0.051,    0.010,   -0.019,
       -0.230,    0.212,   -0.129,   -0.001,    0.096,   -0.114,    0.207,
       -0.019,    0.116,   -0.098,   -0.118,    0.070,    0.449,    0.143,
        0.122,   -0.110,   -1.464,    1.288,   -1.488,    5.044,   -1.194,
       -3.298,    0.209,   -3.109,   -0.256,   -5.447,    0.835,   -1.575,
       -0.958,    0.079,   -2.460,   -3.004
    },
    {   0.036,    0.152,    0.095,    0.086,   -0.087,    0.158,    0.112,
       -0.031,    0.203,   -0.002,    0.052,   -0.062,    0.066,    0.168,
       -0.081,    0.015,    0.080,   -0.099,    0.092,   -0.003,    0.040,
       -0.141,    0.053,   -0.067,    0.007,    0.076,    0.073,    0.013,
        0.081,   -0.032,   -1.444,    0.177,   -1.674,    5.476,   -0.976,
       -2.691,    0.781,   -2.420,   -0.463,   -5.591,    0.863,   -1.193,
       -1.283,    0.059,   -2.523,   -3.358
    },
    {   0.007,    0.004,    0.143,   -0.023,   -0.130,    0.200,    0.217,
       -0.089,   -0.050,    0.058,   -0.029,   -0.004,   -0.053,    0.025,
       -0.057,    0.088,    0.239,   -0.065,    0.033,    0.039,    0.179,
       -0.026,   -0.010,   -0.019,    0.166,   -0.083,    0.084,    0.036,
       -0.096,    0.039,   -1.627,    0.221,   -1.810,    6.083,   -0.809,
       -2.652,    0.099,   -2.393,   -1.194,   -5.591,    0.778,   -0.915,
       -0.767,    0.108,   -2.322,   -2.849
    },
    {  -0.014,    0.019,    0.055,    0.120,    0.008,    0.164,   -0.147,
       -0.031,    0.054,   -0.185,    0.025,   -0.000,    0.012,   -0.114,
       -0.057,   -0.044,    0.249,    0.044,    0.046,   -0.108,   -0.026,
       -0.070,    0.034,    0.092,    0.079,    0.056,    0.086,    0.033,
        0.016,    0.021,   -1.952,    0.698,   -1.325,    5.694,   -0.344,
       -2.903,    0.219,   -3.100,   -1.372,   -5.884,    0.352,   -0.803,
       -0.792,   -0.415,   -2.414,   -2.850
    },
    {  -0.010,   -0.108,    0.139,    0.109,   -0.085,    0.164,   -0.001,
        0.074,   -0.021,   -0.341,   -0.018,    0.048,    0.168,   -0.042,
        0.116,    0.184,    0.062,    0.040,   -0.002,   -0.086,    0.050,
       -0.086,    0.102,   -0.042,    0.092,   -0.040,   -0.020,   -0.100,
        0.102,    0.043,   -2.014,    0.705,   -0.923,    5.302,   -0.581,
       -2.752,    1.043,   -2.564,   -1.198,   -5.914,    0.097,   -0.864,
       -0.830,   -0.286,   -1.854,   -3.322
    },
    {   0.084,    0.023,    0.070,    0.154,    0.059,    0.258,    0.005,
        0.183,    0.110,   -0.001,   -0.123,    0.165,    0.194,   -0.226,
        0.078,    0.075,    0.147,    0.196,   -0.033,    0.173,   -0.053,
        0.101,    0.077,    0.123,   -0.187,    0.046,   -0.007,   -0.147,
        0.109,   -0.136,   -1.909,    0.837,   -1.014,    5.715,   -1.194,
       -2.825,    1.179,   -2.758,   -0.656,   -6.226,    0.308,   -1.737,
       -1.092,   -0.558,   -2.219,   -3.654
    },
    {  -0.125,    0.068,    0.045,    0.129,   -0.073,    0.079,    0.064,
        0.188,    0.120,    0.118,   -0.054,   -0.003,   -0.170,   -0.191,
       -0.026,   -0.128,    0.039,    0.006,    0.053,   -0.031,    0.088,
        0.022,    0.028,    0.054,    0.248,   -0.086,    0.144,    0.025,
        0.094,   -0.213,   -2.127,    1.253,   -1.097,    5.252,   -0.476,
       -1.852,    1.509,   -2.627,   -0.848,   -5.707,   -0.019,   -1.534,
       -0.979,   -0.846,   -2.564,   -3.915
    },
    {  -0.332,    0.125,    0.070,   -0.160,   -0.133,    0.128,   -0.229,
        0.080,   -0.015,   -0.027,   -0.155,    0.022,   -0.218,    0.142,
       -0.021,    0.100,    0.201,   -0.046,   -0.002,    0.167,    0.062,
        0.092,   -0.056,    0.074,    0.191,   -0.081,    0.175,    0.091,
       -0.061,   -0.354,   -1.780,    1.043,   -1.376,    5.354,   -0.499,
       -2.277,    1.720,   -3.146,   -1.647,   -5.281,   -0.313,   -2.018,
       -0.654,   -0.404,   -2.704,   -3.460
    },
    {  -0.197,   -0.028,   -0.068,   -0.182,   -0.082,    0.082,   -0.182,
        0.268,   -0.061,   -0.138,   -0.006,   -0.027,   -0.006,    0.076,
        0.014,    0.112,    0.061,   -0.186,   -0.027,    0.084,    0.045,
       -0.011,    0.006,    0.148,    0.051,   -0.012,    0.145,    0.034,
        0.121,   -0.202,   -2.060,    1.400,   -1.021,    5.733,   -0.536,
       -2.166,    0.948,   -3.374,   -1.997,   -4.483,   -0.280,   -2.553,
       -1.566,   -0.966,   -3.669,   -3.151
    },
    {  -0.053,   -0.124,    0.044,    0.012,   -0.148,   -0.089,   -0.003,
        0.200,    0.098,   -0.132,    0.118,    0.134,    0.165,    0.008,
       -0.097,   -0.174,    0.050,   -0.185,   -0.021,   -0.136,   -0.131,
       -0.071,    0.101,   -0.030,   -0.047,   -0.224,    0.047,   -0.013,
        0.027,    0.083,   -2.178,    1.100,   -0.665,    5.644,   -0.353,
       -2.140,    1.021,   -3.426,   -1.782,   -4.498,   -0.645,   -2.854,
       -1.208,   -1.271,   -3.339,   -2.986
    },
    {  -0.073,   -0.033,   -0.130,    0.037,   -0.020,   -0.002,    0.037,
        0.018,    0.059,   -0.152,    0.007,   -0.104,   -0.029,    0.083,
        0.189,   -0.066,    0.081,   -0.229,   -0.009,   -0.097,   -0.046,
        0.048,   -0.037,   -0.096,   -0.074,   -0.049,    0.103,   -0.068,
        0.172,   -0.069,   -2.497,    1.309,   -1.065,    5.819,   -0.075,
       -2.182,    1.034,   -3.740,   -2.000,   -4.114,   -0.847,   -2.113,
       -1.223,   -0.707,   -3.817,   -2.596
    },
    {  -0.075,   -0.005,    0.085,    0.051,   -0.112,    0.026,    0.063,
       -0.093,    0.153,   -0.098,   -0.200,   -0.020,    0.007,   -0.071,
       -0.005,    0.069,    0.049,   -0.177,   -0.094,    0.007,   -0.017,
        0.036,   -0.035,    0.043,    0.049,   -0.012,    0.039,   -0.057,
       -0.105,   -0.046,   -2.566,    1.054,   -0.777,    6.607,    0.420,
       -0.843,    0.993,   -3.458,   -1.295,   -4.052,   -0.656,   -1.928,
       -0.960,   -0.139,   -3.615,   -2.207
    },
    {   0.101,    0.064,    0.002,    0.081,   -0.100,    0.000,    0.019,
        0.192,    0.088,    0.072,    0.014,    0.218,    0.092,   -0.223,
       -0.063,    0.010,    0.030,   -0.087,    0.003,    0.167,   -0.019,
       -0.295,    0.079,   -0.017,   -0.042,    0.001,    0.097,    0.193,
        0.041,   -0.012,   -2.802,    1.116,   -1.368,    5.784,    1.263,
       -0.441,    1.254,   -3.122,   -1.310,   -3.605,    0.052,   -1.799,
       -0.520,   -0.758,   -3.448,   -2.494
    },
    {   0.016,    0.203,   -0.040,   -0.195,   -0.080,    0.131,   -0.051,
       -0.156,    0.045,    0.071,   -0.115,    0.229,    0.186,    0.088,
        0.019,   -0.059,    0.068,   -0.008,    0.081,   -0.296,    0.007,
       -0.224,   -0.045,   -0.020,    0.027,    0.142,   -0.112,    0.129,
        0.041,   -0.148,   -2.633,    1.308,   -1.439,    6.215,    1.097,
       -0.528,    1.478,   -4.147,   -1.375,   -3.193,    0.390,   -2.560,
       -1.800,   -1.033,   -3.825,   -2.177
    },
    {  -0.042,    0.259,    0.177,   -0.448,   -0.003,    0.062,    0.077,
       -0.477,   -0.010,    0.060,    0.022,    0.024,   -0.130,    0.053,
        0.050,   -0.046,   -0.070,   -0.047,   -0.088,   -0.143,    0.204,
       -0.281,    0.106,    0.129,   -0.127,   -0.021,    0.209,    0.316,
       -0.073,   -0.414,   -3.205,    1.730,   -1.999,    5.720,    1.359,
       -0.845,    1.855,   -3.602,   -0.784,   -3.157,    0.781,   -2.160,
       -2.311,   -1.600,   -3.412,   -2.495
    },
    {  -0.018,    0.200,    0.271,   -0.349,   -0.104,    0.092,    0.089,
       -0.316,    0.029,    0.237,    0.026,    0.028,   -0.108,    0.138,
       -0.114,   -0.098,   -0.214,   -0.164,    0.117,   -0.363,    0.096,
       -0.528,    0.053,    0.007,   -0.204,    0.091,    0.274,    0.096,
        0.384,   -0.208,   -2.184,    1.135,   -1.166,    5.711,    1.502,
       -0.978,    2.099,   -3.625,   -0.058,   -3.179,    0.597,   -1.942,
       -2.435,   -0.723,   -3.423,   -2.720
    },
    {  -0.176,    0.399,    0.233,   -0.306,   -0.104,    0.155,    0.127,
       -0.170,   -0.109,    0.026,    0.030,    0.055,   -0.209,    0.268,
       -0.110,   -0.140,   -0.140,   -0.129,    0.288,   -0.162,    0.097,
       -0.272,    0.105,    0.182,   -0.034,    0.050,    0.316,    0.079,
        0.208,   -0.342,   -2.411,    1.176,   -0.666,    5.673,    1.031,
       -1.125,    1.258,   -3.698,    0.016,   -3.132,    0.683,   -2.720,
       -2.836,   -1.190,   -3.972,   -2.793
    },
    {  -0.042,    0.199,    0.080,   -0.161,   -0.119,    0.126,    0.072,
       -0.035,    0.091,   -0.009,    0.003,    0.136,    0.129,    0.002,
        0.255,   -0.049,   -0.082,    0.026,   -0.125,   -0.046,    0.023,
       -0.039,    0.029,    0.041,    0.090,   -0.025,    0.048,    0.106,
        0.063,   -0.242,   -2.148,    1.523,   -0.723,    5.156,    1.350,
       -0.776,    0.927,   -3.866,    0.018,   -3.538,    0.724,   -2.727,
       -2.105,   -2.165,   -3.567,   -2.258
    },
    {   0.111,    0.191,   -0.096,   -0.284,    0.020,   -0.115,    0.074,
       -0.079,   -0.038,   -0.158,    0.027,    0.345,    0.071,    0.035,
        0.279,   -0.014,   -0.050,   -0.093,   -0.131,    0.013,    0.127,
       -0.293,    0.074,    0.124,    0.130,   -0.092,    0.090,   -0.058,
        0.179,   -0.008,   -2.495,    1.572,   -0.831,    5.342,    0.754,
       -0.898,    1.211,   -4.185,    0.034,   -3.263,    0.612,   -2.492,
       -2.206,   -2.506,   -3.591,   -2.879
    },
    {   0.131,    0.095,   -0.144,   -0.242,   -0.153,    0.011,    0.146,
        0.018,    0.058,   -0.027,   -0.069,    0.035,    0.025,   -0.067,
        0.203,    0.196,   -0.007,    0.038,   -0.068,   -0.182,    0.177,
       -0.190,   -0.013,    0.022,    0.099,   -0.189,    0.125,   -0.064,
       -0.050,    0.017,   -2.225,    1.615,   -0.696,    4.764,    0.873,
       -0.836,    1.259,   -3.665,   -0.176,   -3.517,    1.554,   -2.964,
       -2.405,   -2.002,   -3.392,   -3.483
    },
    {   0.168,    0.012,   -0.124,   -0.122,    0.001,   -0.077,   -0.125,
        0.506,    0.118,   -0.046,   -0.095,   -0.239,    0.065,   -0.197,
        0.196,    0.073,    0.254,   -0.098,    0.303,    0.049,   -0.093,
       -0.037,    0.238,   -0.000,    0.132,   -0.041,    0.149,    0.052,
       -0.047,    0.071,   -2.724,    2.241,   -1.031,    5.094,    1.382,
       -1.955,    0.113,   -3.019,    0.228,   -3.776,    2.132,   -3.132,
       -2.362,   -1.827,   -3.188,   -3.289
    },
    {  -0.020,    0.050,    0.047,   -0.074,   -0.092,   -0.061,    0.051,
        0.605,    0.051,   -0.115,   -0.120,   -0.149,    0.070,   -0.252,
       -0.050,   -0.021,   -0.020,   -0.201,    0.017,    0.260,    0.073,
        0.012,    0.234,   -0.073,    0.132,   -0.096,    0.039,   -0.009,
       -0.056,    0.182,   -2.040,    2.527,   -0.976,    5.511,    0.702,
       -1.282,    1.807,   -3.794,    0.281,   -2.780,    0.766,   -2.736,
       -1.978,   -1.736,   -3.517,   -3.564
    },
    {  -0.108,    0.023,    0.002,    0.102,   -0.219,    0.006,   -0.092,
        0.223,    0.026,   -0.019,    0.032,   -0.121,    0.043,   -0.084,
        0.021,   -0.054,   -0.092,   -0.226,   -0.054,    0.487,    0.094,
        0.144,    0.109,   -0.084,    0.058,   -0.232,   -0.095,   -0.216,
       -0.128,    0.305,   -2.555,    3.014,   -0.505,    6.005,    0.616,
       -1.268,    1.371,   -4.312,    0.332,   -3.265,    0.702,   -2.391,
       -1.585,   -2.253,   -3.306,   -3.525
    },
    {   0.017,   -0.202,   -0.042,    0.203,    0.042,   -0.125,   -0.034,
       -0.025,   -0.095,   -0.039,   -0.120,    0.264,    0.111,   -0.284,
       -0.036,   -0.038,    0.079,   -0.165,    0.045,    0.496,   -0.036,
       -0.022,    0.027,   -0.064,    0.004,   -0.108,    0.148,   -0.204,
        0.034,    0.367,   -2.670,    3.569,   -0.535,    5.633,   -0.054,
       -1.462,    1.154,   -5.313,   -0.145,   -2.940,    0.900,   -2.848,
       -2.418,   -1.978,   -3.322,   -3.450
    },
    {  -0.006,   -0.269,   -0.074,    0.021,    0.033,   -0.063,   -0.024,
        0.028,    0.020,   -0.124,   -0.056,    0.116,    0.029,   -0.236,
       -0.011,   -0.082,    0.038,   -0.119,    0.029,    0.145,   -0.020,
        0.095,    0.105,   -0.085,   -0.075,   -0.010,    0.098,   -0.030,
       -0.055,   -0.045,   -3.174,    3.657,   -0.489,    5.285,    0.012,
       -2.220,    1.160,   -5.751,   -0.567,   -2.903,    0.667,   -3.052,
       -2.223,   -1.980,   -4.298,   -3.588
    },
    {  -0.069,    0.198,    0.066,   -0.051,    0.003,   -0.125,   -0.033,
       -0.105,    0.016,   -0.020,    0.017,   -0.059,   -0.041,   -0.298,
       -0.005,   -0.166,   -0.005,   -0.056,    0.031,    0.182,   -0.001,
       -0.034,   -0.010,    0.016,   -0.029,   -0.135,    0.008,   -0.072,
        0.075,    0.275,   -3.789,    3.871,   -0.334,    5.335,    0.016,
       -1.534,    1.291,   -5.453,   -0.438,   -2.675,    0.107,   -2.930,
       -2.332,   -1.375,   -4.583,   -3.621
    },
    {  -0.064,    0.233,    0.037,    0.041,   -0.085,    0.120,   -0.077,
       -0.081,   -0.051,    0.050,   -0.010,   -0.226,   -0.057,   -0.312,
        0.016,   -0.232,    0.007,   -0.132,    0.045,    0.346,    0.098,
       -0.051,   -0.011,    0.190,   -0.039,   -0.200,    0.026,    0.206,
        0.064,    0.313,   -3.238,    4.105,   -0.508,    5.029,   -0.483,
       -2.266,    0.985,   -5.435,   -0.191,   -2.462,    0.358,   -2.738,
       -1.612,   -1.240,   -5.141,   -2.934
    },
    {   0.013,    0.265,   -0.035,   -0.115,    0.077,    0.142,    0.081,
       -0.039,    0.040,    0.108,   -0.036,    0.003,    0.056,   -0.024,
       -0.079,   -0.302,    0.000,   -0.274,   -0.022,    0.161,   -0.065,
       -0.285,    0.017,    0.391,    0.097,    0.066,    0.011,    0.124,
       -0.051,    0.075,   -4.123,    4.250,   -0.225,    5.740,    0.994,
       -1.611,    1.804,   -5.457,    0.253,   -3.056,   -0.075,   -2.030,
       -2.433,   -1.373,   -4.260,   -3.283
    },
    {  -0.031,    0.288,   -0.037,    0.125,    0.125,    0.004,   -0.058,
        0.018,    0.099,    0.106,   -0.093,    0.113,    0.005,   -0.100,
        0.038,   -0.125,    0.050,   -0.023,   -0.058,    0.300,   -0.021,
       -0.255,   -0.003,    0.070,   -0.030,    0.164,    0.058,    0.068,
        0.052,   -0.018,   -3.602,    4.079,   -0.470,    5.906,    1.104,
       -1.769,    2.151,   -5.520,    0.638,   -2.672,   -0.547,   -2.292,
       -2.419,   -2.069,   -4.014,   -3.523
    },
    {  -0.051,    0.216,   -0.047,    0.069,    0.003,    0.197,   -0.086,
        0.051,    0.190,    0.020,    0.021,    0.079,    0.036,    0.011,
       -0.054,    0.004,    0.020,    0.019,    0.055,   -0.013,   -0.006,
       -0.057,   -0.016,   -0.083,    0.100,    0.035,    0.069,    0.104,
        0.046,    0.177,   -2.536,    3.236,   -0.176,    5.841,    0.645,
       -1.184,    1.689,   -5.067,    0.292,   -3.275,   -0.446,   -2.082,
       -2.484,   -1.701,   -3.782,   -2.904
    },
    {   0.057,   -0.094,    0.124,    0.215,    0.072,    0.216,    0.101,
       -0.157,    0.037,    0.104,    0.115,    0.009,   -0.013,   -0.017,
       -0.192,   -0.044,    0.131,    0.156,    0.253,    0.017,   -0.046,
       -0.019,    0.270,   -0.071,    0.137,    0.039,    0.075,   -0.220,
       -0.030,   -0.036,   -3.208,    3.289,   -0.419,    6.446,    0.804,
       -1.078,    1.282,   -4.842,    0.092,   -3.513,   -0.484,   -2.048,
       -2.087,   -1.661,   -4.025,   -2.862
    },
    {  -0.181,    0.146,    0.083,    0.074,   -0.046,    0.054,    0.175,
        0.031,   -0.071,    0.072,    0.103,   -0.093,   -0.025,    0.096,
        0.100,    0.001,    0.069,   -0.112,    0.306,   -0.072,    0.055,
        0.006,    0.181,    0.023,   -0.024,    0.083,    0.127,   -0.225,
       -0.163,    0.050,   -2.454,    3.373,   -0.088,    6.196,    0.554,
       -1.548,    1.503,   -4.825,    0.066,   -3.701,   -0.468,   -2.216,
       -2.417,   -0.937,   -4.608,   -2.622
    },
    {  -0.181,   -0.067,    0.076,   -0.161,   -0.226,   -0.133,   -0.063,
       -0.026,    0.006,   -0.073,    0.134,   -0.008,   -0.074,   -0.230,
       -0.034,   -0.003,    0.134,   -0.071,    0.043,    0.098,   -0.182,
       -0.024,   -0.179,   -0.123,    0.066,   -0.104,   -0.114,   -0.192,
       -0.037,    0.075,   -3.199,    3.938,   -0.338,    6.517,    0.560,
       -1.098,    1.921,   -5.307,    0.424,   -3.423,   -0.799,   -1.892,
       -2.317,   -1.639,   -4.586,   -3.169
    },
    {   0.038,   -0.060,   -0.066,   -0.352,   -0.106,   -0.059,   -0.111,
       -0.091,    0.065,    0.032,   -0.146,   -0.212,    0.131,   -0.177,
       -0.062,   -0.005,   -0.034,   -0.047,   -0.083,    0.122,   -0.222,
        0.044,   -0.211,   -0.121,   -0.053,   -0.322,   -0.126,   -0.037,
       -0.020,   -0.047,   -4.077,    3.656,   -0.898,    6.142,    0.504,
       -0.449,    1.648,   -5.512,   -0.736,   -3.340,   -0.341,   -1.964,
       -2.056,   -1.561,   -4.463,   -2.393
    },
    {   0.170,   -0.048,   -0.164,   -0.297,   -0.074,   -0.035,   -0.166,
       -0.136,    0.037,   -0.068,   -0.200,   -0.208,    0.147,   -0.086,
        0.096,   -0.011,   -0.117,   -0.107,    0.126,    0.139,    0.066,
        0.025,   -0.112,   -0.228,    0.134,   -0.458,   -0.170,   -0.022,
       -0.113,   -0.074,   -3.886,    3.354,   -0.440,    5.520,    0.996,
        0.225,    1.721,   -5.986,   -1.136,   -3.218,   -0.636,   -1.409,
       -1.794,   -1.362,   -4.414,   -2.757
    },
    {  -0.068,   -0.081,    0.092,    0.005,   -0.156,   -0.123,    0.044,
       -0.133,    0.080,    0.072,   -0.135,    0.016,    0.241,   -0.219,
       -0.038,    0.007,    0.092,   -0.130,   -0.023,    0.025,   -0.209,
       -0.030,   -0.213,    0.024,   -0.235,   -0.018,   -0.137,   -0.023,
       -0.247,   -0.192,   -3.732,    2.789,    0.007,    5.479,    1.480,
        0.528,    1.667,   -5.765,   -1.565,   -2.916,   -0.750,   -1.476,
       -2.117,   -1.317,   -5.834,   -2.976
    },
    {  -0.061,   -0.073,   -0.151,    0.140,   -0.137,   -0.257,    0.150,
        0.074,    0.125,   -0.022,   -0.200,    0.061,    0.237,   -0.198,
        0.210,    0.219,   -0.150,   -0.300,    0.122,    0.100,   -0.183,
        0.063,   -0.170,   -0.188,   -0.212,   -0.179,   -0.170,    0.005,
       -0.027,   -0.186,   -3.713,    2.256,   -0.290,    5.834,    1.177,
        0.390,    1.628,   -5.743,   -1.689,   -3.390,   -0.526,   -2.313,
       -2.073,   -1.510,   -5.788,   -2.885
    },
    {  -0.145,    0.034,   -0.140,    0.025,   -0.156,   -0.104,    0.344,
        0.071,    0.011,    0.059,   -0.175,    0.020,    0.015,   -0.195,
        0.197,    0.158,   -0.107,   -0.096,    0.044,   -0.031,    0.022,
        0.134,   -0.158,   -0.133,   -0.038,   -0.059,   -0.088,    0.014,
       -0.021,   -0.155,   -3.682,    2.057,   -0.257,    6.470,    1.537,
        0.529,    1.442,   -5.953,   -1.312,   -2.713,   -0.410,   -1.969,
       -2.055,   -1.834,   -5.896,   -2.833
    },
    {  -0.064,   -0.064,    0.056,   -0.028,   -0.065,    0.115,    0.197,
        0.162,   -0.205,   -0.053,   -0.133,    0.246,    0.077,    0.071,
        0.107,    0.097,   -0.064,   -0.095,   -0.206,   -0.118,    0.183,
       -0.038,   -0.207,   -0.090,    0.007,   -0.037,   -0.028,    0.088,
       -0.077,   -0.185,   -3.461,    1.788,   -0.251,    5.883,    1.343,
       -0.077,    1.730,   -6.243,   -0.817,   -2.677,   -0.376,   -1.925,
       -2.114,   -1.746,   -5.600,   -2.694
    },
    {  -0.140,    0.125,   -0.021,    0.026,   -0.156,    0.057,   -0.182,
        0.063,   -0.290,    0.063,   -0.178,    0.181,    0.052,    0.004,
       -0.063,    0.030,   -0.239,   -0.001,   -0.370,   -0.052,    0.158,
       -0.049,   -0.223,   -0.115,    0.032,    0.014,   -0.059,    0.037,
       -0.195,   -0.147,   -3.434,    1.344,   -0.460,    5.600,    1.676,
       -0.078,    2.002,   -6.431,   -1.388,   -2.474,   -0.203,   -1.936,
       -1.561,   -1.641,   -6.148,   -2.251
    },
    {   0.065,    0.132,   -0.117,    0.111,   -0.097,    0.150,    0.073,
        0.058,   -0.215,    0.092,   -0.286,   -0.060,    0.214,   -0.020,
       -0.193,    0.002,   -0.081,    0.056,   -0.237,    0.118,    0.212,
       -0.123,   -0.073,   -0.127,   -0.092,   -0.106,   -0.212,    0.095,
       -0.115,   -0.139,   -2.978,    1.497,   -0.963,    6.238,    1.910,
        0.554,    2.468,   -7.289,   -1.003,   -2.964,   -0.088,   -2.414,
       -1.428,   -1.231,   -6.481,   -2.064
    },
    {  -0.006,    0.177,   -0.167,    0.039,   -0.111,    0.211,    0.060,
        0.136,   -0.152,    0.221,   -0.133,   -0.023,    0.131,   -0.011,
       -0.122,    0.145,   -0.285,    0.063,   -0.132,   -0.061,    0.059,
       -0.158,   -0.112,   -0.191,    0.171,   -0.046,   -0.013,    0.195,
        0.002,   -0.067,   -2.860,    1.516,   -1.614,    6.581,    2.015,
        0.681,    2.846,   -7.247,   -1.304,   -2.903,   -0.034,   -2.196,
       -1.426,   -1.349,   -6.323,   -2.100
    },
    {  -0.137,    0.130,    0.057,   -0.008,   -0.016,    0.170,    0.035,
        0.171,   -0.145,    0.128,   -0.172,   -0.099,    0.100,   -0.034,
        0.001,    0.049,    0.057,    0.116,   -0.192,   -0.033,   -0.032,
       -0.081,    0.178,   -0.181,   -0.020,    0.026,   -0.066,    0.130,
       -0.028,   -0.164,   -2.501,    1.648,   -1.510,    6.631,    2.209,
        0.630,    2.456,   -7.334,   -1.000,   -3.012,    0.159,   -2.260,
       -1.512,   -1.198,   -6.945,   -2.373
    },
    {  -0.016,    0.056,   -0.006,    0.038,   -0.029,    0.210,    0.095,
        0.377,   -0.029,   -0.046,   -0.117,   -0.064,    0.106,   -0.130,
        0.085,   -0.018,   -0.110,    0.138,   -0.065,    0.233,   -0.002,
       -0.065,    0.152,   -0.201,    0.134,   -0.160,    0.015,    0.191,
        0.043,    0.093,   -2.581,    0.893,   -1.167,    6.633,    1.614,
        0.732,    1.679,   -6.459,   -1.432,   -2.819,    0.772,   -1.834,
       -0.957,   -0.725,   -6.951,   -1.855
    },
    {   0.066,    0.157,    0.002,   -0.077,   -0.143,   -0.033,   -0.008,
       -0.023,    0.003,   -0.262,   -0.062,   -0.032,   -0.074,   -0.264,
        0.034,   -0.106,    0.015,   -0.027,    0.036,   -0.186,   -0.105,
       -0.044,    0.111,   -0.132,   -0.013,    0.268,    0.039,   -0.019,
        0.010,   -0.004,   -3.057,    0.234,   -0.787,    6.126,    2.477,
        0.997,    0.909,   -6.180,   -1.794,   -2.428,    0.239,   -1.221,
       -1.351,   -1.291,   -7.450,   -1.332
    },
    {   0.054,    0.052,    0.031,   -0.053,   -0.063,   -0.154,    0.012,
       -0.065,    0.007,   -0.158,   -0.002,    0.045,    0.066,   -0.254,
        0.059,   -0.153,    0.023,   -0.021,    0.056,   -0.077,    0.042,
       -0.073,   -0.053,    0.050,    0.029,    0.048,   -0.018,   -0.071,
       -0.018,    0.017,   -3.016,    1.066,   -1.233,    6.335,    2.290,
        1.124,    0.782,   -6.007,   -1.520,   -2.702,    0.102,   -0.882,
       -1.347,   -0.818,   -7.365,   -1.031
    },
    {  -0.056,    0.237,   -0.018,   -0.142,   -0.136,    0.066,    0.041,
       -0.118,    0.012,    0.022,    0.154,   -0.022,   -0.011,   -0.132,
        0.135,   -0.081,    0.115,   -0.153,    0.023,    0.003,   -0.032,
       -0.087,    0.024,   -0.039,   -0.095,    0.175,    0.079,    0.061,
       -0.134,   -0.010,   -2.502,    1.049,   -1.084,    6.724,    2.425,
        0.779,    0.787,   -5.911,   -1.171,   -2.433,    0.900,   -1.532,
       -0.655,   -1.545,   -7.945,   -1.481
    },
    {   0.052,   -0.079,    0.117,    0.044,   -0.031,   -0.070,   -0.023,
       -0.049,    0.003,   -0.065,   -0.163,   -0.103,   -0.013,   -0.043,
       -0.060,   -0.071,    0.102,   -0.065,    0.047,    0.139,    0.107,
        0.016,    0.033,   -0.025,    0.166,   -0.183,   -0.047,   -0.166,
        0.076,    0.095,   -3.059,    0.015,   -0.546,    6.051,    2.654,
        1.013,    0.419,   -5.232,   -1.873,   -2.629,    0.803,   -2.337,
       -0.519,   -1.584,   -7.533,   -1.525
    },
    {   0.175,   -0.176,    0.024,    0.110,    0.006,   -0.137,   -0.037,
       -0.156,   -0.049,   -0.055,   -0.088,   -0.118,    0.003,   -0.200,
        0.078,   -0.099,    0.046,   -0.144,   -0.019,   -0.031,    0.080,
        0.013,    0.031,    0.000,    0.167,   -0.045,    0.034,   -0.161,
       -0.070,    0.067,   -2.992,    0.727,   -0.446,    5.897,    1.829,
        0.946,    0.449,   -5.090,   -1.410,   -2.672,    0.221,   -2.249,
       -0.519,   -1.232,   -7.461,   -1.535
    },
    {  -0.033,    0.049,    0.054,    0.096,    0.051,   -0.164,    0.064,
       -0.146,   -0.064,    0.129,    0.063,   -0.270,    0.122,   -0.256,
        0.033,   -0.162,   -0.097,   -0.150,    0.058,    0.031,    0.287,
        0.029,   -0.035,   -0.171,    0.050,   -0.252,    0.118,   -0.124,
       -0.281,    0.067,   -2.852,    0.384,   -0.507,    6.209,    2.861,
        1.350,    0.537,   -4.843,   -0.737,   -2.323,    0.168,   -1.994,
       -0.472,   -0.977,   -7.409,   -1.580
    },
    {  -0.187,    0.096,    0.064,    0.047,   -0.001,   -0.215,   -0.018,
        0.007,   -0.031,    0.108,    0.059,   -0.049,    0.068,   -0.182,
        0.080,   -0.057,   -0.137,   -0.363,   -0.089,    0.061,    0.176,
       -0.214,   -0.028,   -0.021,    0.097,   -0.328,    0.089,   -0.015,
       -0.122,    0.078,   -2.607,    0.926,   -0.068,    6.215,    3.009,
        1.633,    0.765,   -5.305,   -0.832,   -2.131,    0.157,   -1.711,
       -0.410,   -0.723,   -7.273,   -1.698
    },
    {  -0.036,    0.215,   -0.057,   -0.071,   -0.030,   -0.191,   -0.138,
       -0.100,   -0.089,    0.347,    0.184,    0.050,    0.138,   -0.137,
        0.073,   -0.249,   -0.066,   -0.317,   -0.036,    0.088,    0.140,
       -0.181,   -0.183,    0.128,    0.086,   -0.283,    0.036,   -0.000,
       -0.173,    0.070,   -2.363,    1.194,   -0.133,    5.710,    3.586,
        1.492,    1.476,   -5.281,   -0.077,   -2.483,    0.065,   -1.461,
        0.247,   -1.085,   -7.682,   -1.745
    },
    {  -0.183,    0.301,   -0.317,   -0.104,   -0.217,   -0.113,   -0.070,
       -0.092,    0.030,    0.210,    0.247,    0.081,    0.073,   -0.116,
       -0.056,   -0.268,   -0.031,   -0.082,   -0.078,    0.097,    0.058,
       -0.268,   -0.209,    0.215,    0.008,   -0.121,    0.039,    0.072,
       -0.165,   -0.044,   -2.375,    1.595,   -0.862,    5.158,    2.867,
        1.162,    1.550,   -4.670,    0.268,   -3.073,   -0.314,   -2.278,
        0.967,   -1.311,   -7.632,   -2.176
    },
    {  -0.239,    0.163,   -0.141,    0.013,   -0.235,   -0.052,   -0.085,
       -0.028,    0.014,    0.049,    0.258,    0.013,   -0.044,   -0.139,
       -0.090,   -0.108,    0.049,   -0.045,   -0.001,    0.074,   -0.119,
       -0.188,    0.031,    0.024,   -0.082,   -0.063,    0.087,    0.041,
       -0.183,   -0.006,   -2.331,    2.189,   -0.268,    5.357,    3.486,
        0.971,    1.775,   -4.757,    0.076,   -3.545,   -0.217,   -2.588,
        0.743,   -1.151,   -7.451,   -2.491
    },
    {  -0.130,   -0.131,   -0.213,   -0.201,   -0.213,   -0.098,    0.021,
        0.057,   -0.150,    0.047,    0.103,    0.184,    0.053,   -0.210,
       -0.029,   -0.034,    0.171,    0.051,    0.015,    0.059,   -0.023,
       -0.281,    0.171,   -0.164,    0.078,   -0.066,    0.023,    0.002,
       -0.071,   -0.044,   -2.032,    1.659,   -0.223,    5.590,    3.374,
        0.786,    1.618,   -5.151,    0.142,   -3.546,   -0.171,   -2.835,
        1.252,   -1.322,   -7.520,   -2.552
    }
  };


  double netfun(std::vector<double>& in, const double* w)
  {
    double x00 = in[0];
    double x;

    //Layer 1, Node 0
    x = w[0];
    x = x + w[1] * x00;
    double x10 = tanh(x);

    //Layer 1, Node 1
    x = w[2];
    x = x + w[3] * x00;
    double x11 = tanh(x);

    //Layer 1, Node 2
    x = w[4];
    x = x + w[5] * x00;
    double x12 = tanh(x);

    //Layer 1, Node 3
    x = w[6];
    x = x + w[7] * x00;
    double x13 = tanh(x);

    //Layer 1, Node 4
    x = w[8];
    x = x + w[9] * x00;
    double x14 = tanh(x);

    //Layer 1, Node 5
    x = w[10];
    x = x + w[11] * x00;
    double x15 = tanh(x);

    //Layer 1, Node 6
    x = w[12];
    x = x + w[13] * x00;
    double x16 = tanh(x);

    //Layer 1, Node 7
    x = w[14];
    x = x + w[15] * x00;
    double x17 = tanh(x);

    //Layer 1, Node 8
    x = w[16];
    x = x + w[17] * x00;
    double x18 = tanh(x);

    //Layer 1, Node 9
    x = w[18];
    x = x + w[19] * x00;
    double x19 = tanh(x);

    //Layer 1, Node 10
    x = w[20];
    x = x + w[21] * x00;
    double x110 = tanh(x);

    //Layer 1, Node 11
    x = w[22];
    x = x + w[23] * x00;
    double x111 = tanh(x);

    //Layer 1, Node 12
    x = w[24];
    x = x + w[25] * x00;
    double x112 = tanh(x);

    //Layer 1, Node 13
    x = w[26];
    x = x + w[27] * x00;
    double x113 = tanh(x);

    //Layer 1, Node 14
    x = w[28];
    x = x + w[29] * x00;
    double x114 = tanh(x);

    //Layer 2, Node 0
    x = w[30];
    x = x + w[31] * x10;
    x = x + w[32] * x11;
    x = x + w[33] * x12;
    x = x + w[34] * x13;
    x = x + w[35] * x14;
    x = x + w[36] * x15;
    x = x + w[37] * x16;
    x = x + w[38] * x17;
    x = x + w[39] * x18;
    x = x + w[40] * x19;
    x = x + w[41] * x110;
    x = x + w[42] * x111;
    x = x + w[43] * x112;
    x = x + w[44] * x113;
    x = x + w[45] * x114;
    double x20 = 1.0/(1.0+exp(-x));
    return x20;
  }
}; // End anonymous namespace

//-----------------------------------------------------------------------------
// Compute average over networks. Default is to use all networks
//-----------------------------------------------------------------------------

double HT300_MHT90_v2_HT300_v9_173212_176544_sel1(std::vector<double>& inputvars,
                                                  int first=0,
                                                  int last=nnetworks-1)
{
  if ( first < 0 ) first = 0;
  if ( last  < 0 ) last  = nnetworks-1;
  if ( last  > nnetworks-1 ) last = nnetworks-1;
  if ( first > last )
    {
      std::cerr << "** HT300_MHT90_v2_HT300_v9_173212_176544_sel1 ** first-index > last-index"
                << std::endl; exit(3);
    }

  // Compute average over networks
  std::vector<double> in(ninputs);
  in[0] = (inputvars[0] - mean[0]) / sigma[0];

  int   n = last - first + 1;
  double x = 0.0;
  for(int i=first; i <= last; i++) x += netfun(in, weight[i]);
  return x / n;
}

extern "C" double HT300_MHT90_v2_HT300_v9_173212_176544_sel1_dl(std::vector<double>& in,
                                                                int first=0,
                                                                int last=nnetworks-1)
{
  return HT300_MHT90_v2_HT300_v9_173212_176544_sel1(in, first, last);
}

extern "C" double HT300_MHT90_v2_HT300_v9_173212_176544_sel1_dl2(double* in,
                                                                 int first=0,
                                                                 int last=nnetworks-1)
{
  std::vector<double> invec;

  invec.push_back(in[0]);

  return HT300_MHT90_v2_HT300_v9_173212_176544_sel1(invec, first, last);
}
