//-----------------------------------------------------------------------------
// Network: HT300_MHT75_v7_HT300_v6_165922_166300_166374_166978_sel1
// Inputs:
//                                                  Offset       Scale
//    offlinevar                                 2.722e+01   2.288e+01
//
// Created: Mon Jan 23 06:18:44 2012
//-----------------------------------------------------------------------------
#include <cmath>
#include <vector>
#include <iostream>
#include <stdlib.h>
//-----------------------------------------------------------------------------
// Make following visible only to this programming unit
namespace {
  // NOTE: Network indices start at 0
  static const int nnetworks=100;
  static const int ninputs  =1;
  static const int nhidden  =15;
  static const int nparams  =46;

  static const double mean[ninputs]={
  2.72200e+01
  };

  static const double sigma[ninputs]={
  2.28800e+01
  };

  static const double weight[nnetworks][nparams]={
    {  -0.021,    0.168,    0.018,   -0.002,    0.008,   -0.012,   -0.040,
       -0.055,   -0.005,    0.046,   -0.007,   -0.066,    0.041,   -0.019,
       -0.005,    0.086,    0.007,    0.127,   -0.018,    0.127,   -0.017,
       -0.204,   -0.024,    0.029,    0.022,   -0.018,   -0.004,    0.197,
       -0.010,   -0.018,   -2.569,    2.488,   -2.316,    8.786,   -3.028,
       -3.598,   -1.756,   -6.373,   -0.951,   -4.006,    1.073,   -3.401,
        1.770,    0.677,    1.675,   -0.736
    },
    {   0.028,    0.074,    0.028,    0.118,    0.032,    0.041,    0.094,
       -0.089,    0.014,    0.024,    0.021,   -0.077,   -0.050,    0.005,
        0.044,    0.101,   -0.001,    0.221,   -0.017,    0.168,   -0.001,
       -0.268,    0.013,    0.061,   -0.030,   -0.027,    0.011,    0.234,
        0.011,   -0.022,   -2.903,    2.370,   -2.453,    8.012,   -3.062,
       -3.794,   -1.586,   -7.007,   -0.645,   -4.150,    1.027,   -3.404,
        2.057,    0.730,    1.885,   -0.879
    },
    {   0.032,    0.045,   -0.091,   -0.001,   -0.045,    0.092,   -0.006,
       -0.073,   -0.023,   -0.104,    0.068,   -0.081,    0.030,    0.150,
       -0.021,    0.087,   -0.061,    0.178,    0.031,   -0.013,    0.058,
       -0.269,    0.004,    0.080,   -0.004,   -0.056,    0.034,    0.220,
       -0.006,    0.113,   -2.667,    2.230,   -2.782,    7.776,   -3.710,
       -3.665,   -1.556,   -7.064,   -0.299,   -4.346,    1.452,   -3.443,
        2.277,    0.469,    2.065,   -0.909
    },
    {   0.053,    0.043,    0.002,    0.030,   -0.014,    0.047,   -0.043,
       -0.237,   -0.051,   -0.053,    0.010,   -0.033,    0.056,    0.082,
        0.021,   -0.000,    0.001,    0.086,   -0.037,   -0.119,    0.013,
       -0.170,    0.023,   -0.033,    0.003,   -0.026,   -0.007,    0.163,
        0.005,   -0.020,   -2.563,    2.626,   -2.407,    7.906,   -3.982,
       -3.687,   -1.571,   -7.554,    0.084,   -4.198,    1.366,   -3.096,
        2.531,    0.343,    1.916,   -0.528
    },
    {   0.073,    0.067,    0.004,    0.023,    0.004,    0.068,    0.022,
       -0.286,   -0.064,   -0.078,   -0.067,    0.059,    0.065,    0.055,
        0.008,   -0.110,   -0.044,    0.094,   -0.041,   -0.242,    0.017,
       -0.082,    0.005,   -0.023,    0.010,   -0.117,   -0.033,    0.101,
       -0.016,   -0.008,   -2.769,    2.603,   -2.654,    8.435,   -3.464,
       -3.493,   -1.129,   -7.144,    0.404,   -4.383,    0.871,   -3.338,
        1.635,    0.869,    2.199,   -0.730
    },
    {   0.063,   -0.099,   -0.042,    0.018,   -0.046,    0.002,   -0.023,
       -0.133,    0.001,   -0.010,    0.024,    0.049,    0.064,   -0.041,
       -0.041,   -0.052,    0.010,   -0.046,   -0.020,   -0.102,    0.009,
       -0.160,   -0.010,   -0.005,    0.009,    0.009,   -0.011,    0.021,
        0.004,   -0.030,   -2.040,    2.998,   -2.528,    8.262,   -3.638,
       -3.592,   -1.185,   -7.060,   -0.297,   -4.560,    1.145,   -3.216,
        1.972,    0.350,    1.240,   -1.473
    },
    {  -0.009,   -0.156,    0.004,    0.032,    0.013,    0.004,    0.021,
       -0.126,   -0.004,   -0.100,   -0.020,   -0.078,    0.061,   -0.027,
        0.036,    0.030,   -0.033,   -0.020,   -0.028,   -0.123,   -0.026,
       -0.201,   -0.045,   -0.075,    0.015,    0.180,    0.030,   -0.004,
       -0.028,   -0.053,   -2.476,    3.187,   -2.809,    8.518,   -3.720,
       -3.847,   -0.998,   -7.117,   -0.054,   -4.425,    1.055,   -3.075,
        1.984,    0.686,    1.059,   -1.268
    },
    {   0.014,   -0.067,    0.010,    0.107,    0.001,    0.027,    0.027,
       -0.117,   -0.011,   -0.064,    0.013,    0.114,    0.059,   -0.049,
        0.028,    0.070,   -0.035,    0.004,    0.015,   -0.027,   -0.005,
       -0.164,   -0.033,   -0.061,    0.008,    0.165,    0.053,   -0.076,
       -0.007,   -0.110,   -2.439,    3.174,   -2.656,    8.458,   -3.851,
       -3.672,   -1.014,   -6.803,   -0.372,   -4.443,    1.260,   -3.179,
        1.980,    0.633,    1.173,   -1.170
    },
    {  -0.018,   -0.217,   -0.022,    0.097,    0.009,   -0.088,    0.060,
       -0.213,   -0.000,   -0.009,    0.028,    0.029,    0.027,   -0.122,
        0.041,    0.040,    0.013,   -0.142,   -0.012,    0.124,   -0.014,
       -0.046,   -0.046,    0.041,    0.010,   -0.061,    0.004,    0.041,
       -0.019,    0.006,   -2.112,    3.474,   -2.382,    8.133,   -4.255,
       -3.917,   -1.431,   -7.103,   -0.870,   -4.719,    0.895,   -2.741,
        1.928,    0.088,    1.181,   -0.720
    },
    {  -0.031,    0.024,   -0.019,   -0.077,    0.019,    0.020,    0.023,
       -0.078,   -0.012,    0.035,   -0.040,   -0.072,    0.045,    0.038,
        0.028,    0.028,    0.011,   -0.084,    0.010,    0.091,   -0.004,
        0.122,   -0.042,    0.231,    0.017,   -0.226,   -0.014,    0.144,
       -0.003,    0.027,   -2.339,    3.226,   -2.607,    8.472,   -4.023,
       -4.389,   -1.860,   -7.097,   -0.872,   -4.813,    0.466,   -2.854,
        2.162,    0.222,    0.922,   -0.940
    },
    {  -0.006,   -0.045,    0.005,   -0.038,   -0.018,    0.046,   -0.014,
       -0.122,    0.024,    0.075,    0.012,   -0.032,   -0.001,    0.072,
       -0.015,   -0.036,   -0.000,   -0.178,   -0.019,    0.109,   -0.018,
        0.056,   -0.059,    0.130,    0.036,   -0.257,   -0.003,    0.134,
        0.017,    0.028,   -2.448,    2.467,   -2.769,    8.230,   -4.202,
       -4.431,   -1.664,   -7.166,   -0.771,   -4.984,    0.004,   -3.553,
        2.029,    0.232,    1.003,   -1.079
    },
    {   0.006,   -0.076,   -0.015,   -0.008,    0.013,    0.104,    0.036,
       -0.096,   -0.017,    0.106,   -0.020,    0.024,    0.035,   -0.015,
       -0.003,   -0.113,   -0.011,   -0.132,    0.006,    0.064,    0.014,
        0.091,    0.014,   -0.011,   -0.009,   -0.201,   -0.010,    0.053,
        0.006,    0.001,   -2.580,    2.781,   -2.938,    8.241,   -3.833,
       -4.213,   -2.051,   -6.971,   -0.596,   -5.293,   -0.373,   -3.205,
        2.052,    0.046,    0.677,   -0.941
    },
    {  -0.007,   -0.179,    0.003,    0.192,   -0.029,    0.237,    0.052,
       -0.087,   -0.032,    0.175,    0.017,    0.012,   -0.045,   -0.029,
       -0.023,   -0.084,    0.014,   -0.156,   -0.010,    0.236,    0.022,
        0.101,    0.028,   -0.009,    0.063,   -0.044,   -0.029,    0.100,
       -0.034,   -0.023,   -2.547,    2.901,   -3.050,    8.381,   -3.999,
       -3.623,   -2.293,   -7.140,   -0.424,   -5.113,   -0.576,   -3.402,
        1.739,    0.236,    0.420,   -0.787
    },
    {  -0.057,   -0.086,   -0.012,    0.065,    0.003,    0.124,    0.057,
       -0.069,   -0.002,    0.133,   -0.009,    0.057,   -0.029,   -0.056,
        0.033,   -0.300,    0.005,   -0.135,    0.006,    0.167,    0.024,
        0.138,    0.018,   -0.003,    0.092,    0.030,    0.003,    0.070,
       -0.005,   -0.092,   -2.495,    2.823,   -2.233,    7.929,   -3.926,
       -3.544,   -1.856,   -7.115,   -0.881,   -4.531,   -0.262,   -3.421,
        1.356,   -0.220,   -0.062,   -0.924
    },
    {   0.070,    0.059,    0.007,   -0.026,   -0.007,    0.156,   -0.001,
       -0.030,    0.012,    0.179,    0.015,    0.029,   -0.023,    0.031,
       -0.012,   -0.178,   -0.012,   -0.090,    0.065,    0.152,    0.023,
        0.063,    0.036,    0.041,    0.022,   -0.073,   -0.008,    0.139,
       -0.094,    0.016,   -3.017,    2.759,   -2.270,    8.213,   -4.420,
       -3.882,   -1.856,   -6.981,   -0.576,   -4.481,   -0.076,   -3.354,
        1.785,   -0.118,    0.255,   -1.031
    },
    {   0.012,   -0.096,    0.018,    0.138,   -0.013,    0.121,   -0.032,
       -0.023,   -0.029,    0.020,   -0.040,    0.040,   -0.005,   -0.120,
        0.028,   -0.188,    0.039,    0.024,   -0.084,    0.104,    0.032,
        0.005,   -0.033,    0.041,   -0.100,    0.047,    0.045,    0.065,
        0.038,   -0.022,   -2.670,    2.821,   -2.619,    8.036,   -4.578,
       -4.044,   -2.245,   -6.538,   -0.752,   -4.819,   -0.402,   -3.016,
        1.268,    0.204,    0.385,   -0.809
    },
    {   0.020,   -0.065,    0.045,    0.014,    0.012,    0.116,    0.030,
        0.035,   -0.015,    0.017,   -0.012,   -0.021,   -0.004,    0.025,
        0.052,   -0.232,   -0.002,   -0.103,   -0.023,   -0.047,   -0.027,
       -0.023,   -0.045,   -0.023,    0.010,   -0.047,   -0.006,    0.117,
       -0.038,   -0.018,   -2.724,    2.998,   -2.231,    7.878,   -4.115,
       -3.878,   -1.950,   -6.667,   -0.564,   -4.693,    0.065,   -3.401,
        1.343,    0.213,    0.435,   -1.080
    },
    {   0.058,    0.030,    0.076,   -0.079,    0.011,    0.054,    0.008,
       -0.061,   -0.033,   -0.046,   -0.015,   -0.092,    0.063,    0.039,
        0.067,   -0.071,    0.020,    0.015,    0.005,   -0.082,    0.011,
       -0.019,    0.025,    0.035,    0.041,    0.045,    0.021,   -0.047,
        0.011,   -0.044,   -2.372,    2.706,   -2.139,    7.661,   -4.087,
       -4.072,   -1.848,   -6.768,   -1.029,   -4.273,    0.386,   -3.203,
        1.116,    0.196,    0.480,   -0.934
    },
    {   0.024,   -0.074,    0.025,   -0.065,    0.002,    0.098,    0.014,
       -0.078,   -0.004,    0.073,   -0.012,    0.125,   -0.002,    0.016,
        0.015,   -0.137,    0.021,   -0.113,   -0.041,    0.005,    0.019,
        0.046,    0.009,    0.156,    0.029,   -0.035,    0.002,    0.044,
        0.007,   -0.028,   -2.537,    2.701,   -2.484,    8.194,   -3.860,
       -4.015,   -1.724,   -6.818,   -0.859,   -3.910,    0.614,   -3.499,
        1.128,   -0.327,    0.313,   -1.035
    },
    {   0.038,    0.068,   -0.111,    0.058,   -0.046,    0.083,   -0.031,
        0.023,   -0.083,    0.040,    0.077,   -0.050,    0.027,   -0.082,
       -0.013,   -0.030,    0.058,    0.006,    0.072,   -0.040,   -0.027,
        0.021,    0.041,    0.039,   -0.116,    0.035,    0.074,    0.012,
        0.041,   -0.018,   -2.770,    2.676,   -3.039,    8.182,   -3.771,
       -3.470,   -1.673,   -6.666,   -1.177,   -3.708,    0.251,   -3.247,
        1.803,    0.045,    0.024,   -1.255
    },
    {   0.010,    0.097,    0.100,   -0.020,    0.073,    0.071,    0.027,
        0.044,    0.043,    0.012,    0.041,   -0.004,   -0.024,   -0.094,
        0.007,    0.007,    0.037,    0.042,   -0.043,    0.070,    0.066,
       -0.025,   -0.019,   -0.045,    0.026,    0.028,   -0.047,    0.035,
        0.004,    0.017,   -2.471,    2.664,   -3.260,    8.602,   -3.963,
       -3.674,   -1.717,   -6.602,   -1.286,   -4.126,   -0.313,   -3.336,
        1.801,   -0.018,   -0.195,   -2.030
    },
    {   0.092,   -0.048,   -0.062,   -0.024,   -0.026,   -0.003,    0.017,
        0.004,    0.006,   -0.033,    0.126,    0.052,   -0.070,   -0.075,
        0.033,   -0.035,   -0.008,   -0.018,    0.005,   -0.099,   -0.019,
       -0.082,    0.024,    0.046,   -0.067,    0.045,    0.126,   -0.022,
        0.007,   -0.095,   -3.148,    2.846,   -2.821,    8.456,   -4.092,
       -3.340,   -1.721,   -6.587,   -0.845,   -4.559,   -0.288,   -3.502,
        2.195,    0.010,   -0.013,   -1.789
    },
    {   0.116,   -0.030,    0.000,   -0.062,    0.006,    0.075,   -0.070,
        0.034,   -0.018,   -0.028,    0.090,   -0.014,   -0.000,   -0.002,
        0.013,   -0.017,    0.005,   -0.019,    0.098,   -0.044,    0.030,
       -0.009,   -0.021,    0.085,    0.073,    0.028,   -0.042,   -0.036,
       -0.074,    0.016,   -3.191,    3.258,   -2.557,    8.572,   -3.318,
       -3.599,   -1.660,   -6.665,   -0.529,   -4.837,    0.075,   -3.388,
        2.763,   -0.206,   -0.230,   -1.942
    },
    {   0.026,    0.097,   -0.001,   -0.050,   -0.003,    0.052,   -0.023,
        0.093,   -0.013,    0.070,   -0.002,    0.054,    0.003,   -0.036,
       -0.016,    0.155,   -0.031,   -0.035,    0.020,   -0.006,    0.003,
        0.011,   -0.061,    0.224,   -0.055,    0.031,   -0.005,   -0.033,
        0.064,    0.006,   -2.739,    3.225,   -2.505,    7.799,   -3.213,
       -3.874,   -1.733,   -6.890,   -0.402,   -4.826,    0.115,   -3.775,
        2.678,    0.081,   -0.080,   -1.988
    },
    {  -0.114,    0.065,    0.021,   -0.090,   -0.004,    0.064,    0.070,
        0.102,    0.043,   -0.085,   -0.121,    0.116,   -0.074,   -0.019,
       -0.018,    0.045,    0.043,    0.073,   -0.015,    0.015,   -0.074,
        0.058,    0.038,    0.197,    0.057,    0.143,    0.031,    0.016,
       -0.076,   -0.113,   -2.895,    3.375,   -2.708,    7.429,   -2.927,
       -3.886,   -1.881,   -7.010,   -0.787,   -4.470,    0.512,   -3.626,
        3.026,   -0.333,   -0.133,   -1.933
    },
    {  -0.010,    0.010,    0.049,   -0.047,    0.027,    0.018,    0.013,
        0.055,    0.006,   -0.045,   -0.024,    0.043,    0.017,   -0.029,
        0.004,    0.052,    0.008,    0.006,   -0.041,    0.047,   -0.023,
       -0.028,    0.028,    0.096,    0.024,    0.076,    0.036,   -0.069,
       -0.015,   -0.151,   -2.770,    3.058,   -2.837,    7.371,   -2.175,
       -4.007,   -2.003,   -7.011,   -0.913,   -5.195,    0.425,   -3.847,
        3.027,   -0.652,   -0.358,   -2.045
    },
    {   0.023,   -0.038,    0.017,   -0.048,    0.016,   -0.032,    0.040,
       -0.061,    0.023,   -0.089,   -0.044,    0.043,    0.015,   -0.011,
       -0.008,   -0.104,    0.026,    0.007,   -0.087,   -0.059,   -0.005,
       -0.095,    0.044,    0.093,    0.053,    0.065,    0.021,   -0.109,
        0.031,   -0.082,   -2.535,    3.249,   -3.003,    7.496,   -2.298,
       -4.095,   -1.927,   -7.253,   -0.632,   -5.545,    0.145,   -4.170,
        2.721,   -0.231,   -0.479,   -1.642
    },
    {   0.021,    0.013,    0.021,   -0.037,   -0.008,    0.065,   -0.040,
       -0.093,   -0.051,   -0.025,   -0.132,    0.022,    0.033,   -0.017,
       -0.057,    0.044,    0.041,    0.082,   -0.055,   -0.019,    0.019,
       -0.046,   -0.021,    0.066,    0.057,   -0.027,    0.031,   -0.081,
        0.093,   -0.021,   -2.448,    3.714,   -3.393,    7.692,   -2.696,
       -3.991,   -1.698,   -7.249,   -0.504,   -5.408,    0.340,   -3.941,
        2.667,   -0.034,    0.033,   -1.095
    },
    {  -0.091,    0.006,    0.055,   -0.042,   -0.054,   -0.007,    0.199,
       -0.027,   -0.086,   -0.046,    0.174,   -0.023,   -0.104,   -0.001,
        0.097,   -0.017,    0.009,   -0.044,    0.018,    0.033,   -0.006,
       -0.056,   -0.094,    0.028,    0.074,   -0.041,   -0.146,    0.027,
       -0.059,   -0.156,   -1.881,    3.787,   -3.180,    8.034,   -2.687,
       -4.109,   -1.480,   -7.287,   -0.655,   -5.527,    0.197,   -3.368,
        2.469,   -0.204,   -0.485,   -1.364
    },
    {  -0.074,    0.009,    0.014,    0.000,   -0.056,    0.066,    0.044,
        0.024,   -0.045,    0.001,    0.202,    0.014,   -0.162,   -0.067,
        0.274,   -0.001,    0.166,   -0.048,   -0.018,   -0.012,    0.079,
        0.012,    0.036,   -0.013,    0.038,    0.035,   -0.245,    0.001,
       -0.086,    0.063,   -1.791,    3.716,   -2.940,    8.109,   -2.524,
       -3.945,   -1.376,   -7.237,   -0.391,   -5.698,    0.035,   -3.380,
        2.310,    0.403,   -0.065,   -0.967
    },
    {  -0.146,    0.010,    0.027,   -0.045,    0.030,   -0.034,    0.103,
       -0.008,   -0.016,   -0.026,    0.090,   -0.034,   -0.090,   -0.067,
        0.233,    0.014,    0.079,   -0.100,   -0.073,    0.063,    0.020,
        0.013,   -0.022,    0.005,    0.083,   -0.024,   -0.211,    0.043,
        0.008,    0.001,   -1.979,    3.424,   -2.617,    7.640,   -2.592,
       -3.871,   -1.511,   -7.118,   -0.374,   -5.752,   -0.049,   -3.266,
        2.741,   -0.010,   -0.354,   -1.388
    },
    {  -0.082,    0.067,   -0.178,    0.012,   -0.024,    0.015,    0.217,
       -0.061,    0.038,    0.131,    0.148,   -0.051,    0.056,   -0.047,
        0.223,    0.155,   -0.039,   -0.205,   -0.005,    0.009,    0.160,
        0.027,    0.090,   -0.037,    0.199,    0.109,   -0.137,   -0.006,
        0.030,   -0.046,   -1.304,    2.984,   -2.291,    8.001,   -2.155,
       -4.360,   -1.413,   -6.983,   -0.287,   -5.347,   -0.266,   -2.977,
        2.697,   -0.257,   -0.333,   -1.209
    },
    {   0.047,    0.016,   -0.140,   -0.117,   -0.051,   -0.030,    0.131,
        0.045,    0.099,   -0.044,    0.125,    0.164,   -0.006,   -0.030,
        0.180,    0.079,    0.024,   -0.216,   -0.041,   -0.049,    0.125,
       -0.045,   -0.033,   -0.106,    0.238,    0.067,   -0.172,    0.198,
        0.091,    0.008,   -1.092,    2.927,   -2.423,    8.016,   -2.039,
       -4.444,   -1.823,   -7.038,   -0.234,   -5.776,   -0.003,   -3.636,
        2.626,   -0.241,   -0.449,   -1.080
    },
    {   0.151,   -0.107,   -0.116,   -0.101,   -0.155,    0.056,    0.124,
       -0.010,    0.015,   -0.034,    0.018,    0.201,    0.078,    0.055,
        0.128,    0.030,   -0.044,   -0.177,   -0.009,   -0.076,   -0.011,
       -0.104,   -0.034,   -0.001,    0.243,   -0.016,   -0.079,    0.001,
        0.066,    0.095,   -1.411,    3.401,   -2.472,    8.631,   -2.061,
       -4.505,   -1.572,   -7.599,    0.071,   -5.849,    0.047,   -3.412,
        2.150,   -0.189,   -0.410,   -0.944
    },
    {   0.110,    0.076,   -0.061,   -0.038,   -0.159,    0.046,    0.097,
        0.013,   -0.103,    0.014,    0.101,    0.048,    0.013,   -0.088,
        0.154,    0.017,   -0.051,    0.001,    0.147,    0.059,    0.080,
        0.030,   -0.120,    0.028,    0.334,   -0.036,   -0.189,   -0.035,
        0.079,    0.091,   -1.609,    2.841,   -2.519,    8.376,   -2.366,
       -4.560,   -1.107,   -7.379,    0.378,   -5.766,   -0.014,   -3.332,
        2.131,   -0.376,   -0.732,   -1.125
    },
    {   0.080,    0.173,    0.011,   -0.018,   -0.144,    0.039,    0.124,
        0.087,   -0.116,   -0.051,    0.317,    0.010,   -0.012,   -0.093,
        0.139,   -0.034,    0.009,    0.046,    0.166,    0.088,    0.119,
        0.024,    0.027,    0.017,    0.295,    0.080,   -0.159,    0.020,
        0.143,    0.083,   -1.009,    3.234,   -2.956,    8.806,   -2.344,
       -4.338,   -1.147,   -7.122,    0.564,   -5.775,   -0.457,   -3.178,
        1.944,   -0.503,   -0.416,   -1.106
    },
    {   0.122,    0.024,   -0.072,   -0.071,   -0.027,    0.002,    0.038,
        0.039,    0.043,   -0.087,    0.283,    0.004,   -0.151,   -0.091,
       -0.147,   -0.057,    0.244,   -0.037,    0.129,    0.030,    0.057,
        0.032,   -0.120,   -0.044,    0.317,    0.128,   -0.173,    0.043,
        0.131,   -0.010,   -1.109,    3.135,   -3.096,    9.126,   -2.453,
       -4.055,   -1.559,   -7.555,    0.991,   -5.478,   -0.228,   -3.499,
        2.118,   -0.770,   -0.284,   -1.690
    },
    {   0.050,    0.033,    0.078,   -0.094,   -0.064,    0.006,   -0.059,
        0.002,   -0.051,   -0.014,    0.309,   -0.064,   -0.248,   -0.133,
       -0.118,   -0.093,    0.212,    0.007,    0.054,    0.095,    0.162,
        0.023,   -0.266,    0.007,    0.170,    0.108,   -0.086,    0.134,
        0.284,    0.016,   -0.873,    2.599,   -2.665,    9.073,   -2.903,
       -4.951,   -1.367,   -7.256,    0.775,   -5.065,   -0.289,   -3.394,
        2.340,   -0.898,   -0.206,   -1.666
    },
    {   0.131,   -0.040,   -0.138,   -0.018,   -0.045,    0.063,    0.040,
        0.056,   -0.034,   -0.067,    0.214,    0.007,   -0.046,   -0.111,
       -0.191,    0.048,    0.122,    0.027,    0.002,    0.010,    0.158,
        0.049,   -0.083,    0.001,    0.261,    0.033,   -0.194,    0.063,
        0.236,    0.069,   -0.817,    2.833,   -2.618,    9.055,   -2.979,
       -5.038,   -1.577,   -7.168,    0.870,   -5.642,   -0.034,   -3.359,
        2.512,   -0.975,    0.150,   -1.481
    },
    {   0.131,   -0.011,   -0.115,   -0.074,    0.041,    0.154,    0.128,
        0.143,    0.092,   -0.058,    0.306,   -0.043,   -0.034,    0.009,
       -0.131,    0.004,    0.136,    0.025,    0.050,   -0.031,    0.127,
        0.059,    0.003,    0.103,    0.308,    0.039,   -0.189,    0.053,
        0.174,    0.106,   -0.866,    2.918,   -2.356,    8.977,   -3.091,
       -4.992,   -1.816,   -6.776,    0.669,   -5.426,   -0.048,   -3.232,
        2.325,   -0.489,    0.029,   -1.956
    },
    {   0.137,   -0.092,    0.015,   -0.012,    0.028,   -0.021,    0.259,
       -0.124,    0.067,   -0.010,    0.349,   -0.129,   -0.002,   -0.110,
       -0.045,   -0.071,    0.039,   -0.046,    0.072,    0.026,    0.110,
       -0.058,   -0.070,   -0.088,    0.167,   -0.045,   -0.121,   -0.007,
        0.086,   -0.021,   -0.922,    3.065,   -2.213,    8.869,   -2.779,
       -4.819,   -1.236,   -6.900,    0.355,   -5.612,   -0.067,   -2.705,
        2.839,   -0.418,   -0.341,   -1.828
    },
    {   0.089,   -0.076,   -0.017,    0.024,   -0.019,   -0.071,    0.126,
       -0.103,    0.080,   -0.023,    0.329,    0.003,    0.036,   -0.056,
       -0.005,   -0.073,    0.086,   -0.230,    0.138,    0.058,    0.118,
       -0.050,   -0.010,   -0.007,    0.250,   -0.055,   -0.200,   -0.023,
        0.048,    0.014,   -0.769,    2.988,   -2.796,    8.961,   -2.544,
       -4.863,   -1.037,   -6.677,    0.265,   -5.665,    0.529,   -2.655,
        2.910,   -0.290,   -0.322,   -2.183
    },
    {   0.015,    0.023,   -0.035,    0.086,   -0.027,   -0.055,    0.168,
       -0.073,    0.142,   -0.024,    0.472,    0.043,    0.035,   -0.067,
       -0.042,   -0.045,    0.037,   -0.185,    0.118,    0.150,    0.036,
       -0.021,    0.066,   -0.080,    0.321,   -0.060,   -0.255,   -0.083,
        0.117,    0.016,   -0.673,    2.997,   -2.762,    8.573,   -2.772,
       -4.471,   -0.680,   -6.298,    0.236,   -6.100,    0.378,   -3.010,
        2.951,   -0.115,   -0.338,   -1.896
    },
    {  -0.061,   -0.066,   -0.049,   -0.119,   -0.175,   -0.060,    0.127,
       -0.078,    0.043,   -0.011,    0.360,    0.070,   -0.037,   -0.095,
       -0.028,   -0.055,   -0.085,   -0.116,    0.053,    0.091,    0.112,
       -0.006,    0.011,   -0.072,    0.276,   -0.064,   -0.140,    0.025,
        0.138,   -0.030,   -0.573,    3.241,   -3.268,    8.298,   -2.801,
       -4.465,   -0.915,   -6.571,   -0.263,   -5.670,    0.393,   -3.370,
        2.642,    0.044,   -0.470,   -1.979
    },
    {   0.062,    0.041,    0.002,   -0.002,   -0.143,    0.012,    0.137,
       -0.051,    0.072,   -0.067,    0.136,    0.025,    0.018,   -0.118,
       -0.181,    0.023,   -0.034,   -0.042,    0.042,    0.021,    0.039,
        0.092,   -0.048,   -0.048,    0.278,   -0.042,   -0.139,    0.095,
       -0.017,    0.051,   -0.684,    3.051,   -2.999,    8.559,   -2.826,
       -4.990,   -1.509,   -6.282,   -0.200,   -5.693,    0.043,   -3.254,
        2.939,    0.243,   -0.154,   -1.922
    },
    {   0.043,    0.020,    0.189,   -0.024,    0.014,    0.017,    0.232,
       -0.058,    0.131,   -0.003,    0.239,    0.016,    0.046,   -0.010,
       -0.180,    0.079,   -0.105,   -0.143,    0.136,   -0.075,    0.142,
        0.009,   -0.035,   -0.059,    0.102,   -0.024,   -0.003,    0.079,
        0.168,   -0.010,   -0.274,    2.876,   -2.972,    8.533,   -3.703,
       -4.886,   -0.588,   -6.399,   -0.339,   -5.499,    0.154,   -2.928,
        2.402,   -0.374,   -0.125,   -1.928
    },
    {   0.059,    0.078,    0.140,    0.037,   -0.010,    0.025,    0.212,
       -0.010,    0.158,   -0.008,    0.215,   -0.031,    0.048,    0.012,
       -0.162,    0.007,   -0.015,   -0.132,    0.125,   -0.008,    0.100,
       -0.046,   -0.061,   -0.021,    0.092,    0.029,   -0.061,    0.022,
        0.085,    0.008,   -0.064,    2.136,   -3.055,    8.916,   -3.601,
       -4.429,   -0.280,   -5.948,   -0.455,   -5.669,    0.132,   -2.665,
        2.145,   -0.362,   -0.127,   -2.203
    },
    {  -0.005,    0.010,    0.156,   -0.009,   -0.050,    0.013,    0.254,
       -0.025,    0.029,    0.024,    0.114,   -0.008,   -0.052,    0.010,
       -0.100,    0.063,    0.034,   -0.163,    0.054,   -0.014,    0.140,
       -0.026,   -0.127,    0.029,    0.254,   -0.074,   -0.118,    0.036,
       -0.018,   -0.006,   -0.099,    2.158,   -3.169,    9.250,   -3.488,
       -4.439,   -0.722,   -5.932,   -0.958,   -5.634,    0.063,   -2.486,
        2.516,   -0.319,   -0.001,   -1.871
    },
    {   0.010,    0.011,    0.031,    0.021,   -0.177,    0.034,    0.108,
       -0.018,    0.010,   -0.093,    0.053,   -0.002,   -0.003,   -0.040,
       -0.152,   -0.035,    0.070,    0.009,   -0.020,   -0.043,    0.031,
       -0.008,    0.015,    0.045,    0.147,    0.056,   -0.017,    0.039,
        0.157,    0.021,    0.040,    2.453,   -2.867,    8.952,   -3.113,
       -4.584,   -0.628,   -6.412,   -1.123,   -5.839,   -0.228,   -2.409,
        2.467,   -0.649,   -0.076,   -1.904
    },
    {   0.007,   -0.071,    0.159,    0.064,   -0.031,    0.009,    0.186,
        0.057,    0.013,   -0.205,    0.077,    0.041,    0.182,   -0.035,
        0.025,    0.070,   -0.025,   -0.060,   -0.108,    0.007,    0.054,
       -0.063,   -0.029,   -0.025,    0.009,   -0.088,   -0.130,   -0.037,
        0.063,   -0.031,   -0.043,    2.520,   -2.743,    8.547,   -3.312,
       -4.324,   -0.210,   -5.615,   -1.034,   -5.764,   -0.478,   -2.613,
        2.530,   -0.808,    0.414,   -2.326
    },
    {   0.032,    0.169,    0.164,    0.059,   -0.004,   -0.007,    0.206,
       -0.009,    0.008,   -0.119,   -0.064,    0.132,    0.130,   -0.091,
        0.054,   -0.096,    0.030,    0.059,   -0.061,    0.023,   -0.016,
        0.044,   -0.023,    0.031,    0.070,    0.100,   -0.052,   -0.033,
        0.177,   -0.078,   -0.023,    2.590,   -2.657,    8.945,   -3.726,
       -4.475,   -0.051,   -6.034,   -0.617,   -5.957,   -0.263,   -3.092,
        2.335,   -0.849,    0.098,   -2.483
    },
    {  -0.038,    0.096,    0.139,    0.009,   -0.077,   -0.034,    0.105,
        0.018,    0.107,   -0.003,   -0.055,    0.032,   -0.053,   -0.110,
        0.007,   -0.119,    0.041,   -0.002,    0.023,   -0.045,    0.130,
        0.003,    0.062,    0.080,    0.169,    0.019,    0.104,   -0.010,
        0.070,   -0.078,   -0.230,    2.836,   -2.674,    8.759,   -3.305,
       -3.939,    0.257,   -6.178,   -0.730,   -5.708,   -0.410,   -2.867,
        2.318,   -0.994,   -0.212,   -2.670
    },
    {  -0.172,    0.117,    0.133,   -0.041,   -0.071,    0.020,    0.057,
        0.002,    0.035,   -0.016,   -0.103,    0.088,   -0.085,    0.012,
       -0.010,    0.033,    0.141,   -0.033,   -0.054,    0.071,    0.068,
       -0.023,   -0.011,    0.032,    0.148,    0.006,    0.079,    0.034,
        0.076,   -0.085,   -0.075,    2.697,   -2.859,    8.837,   -3.324,
       -4.206,    0.410,   -6.525,   -1.262,   -5.397,   -0.609,   -3.229,
        2.563,   -0.746,   -0.313,   -2.390
    },
    {  -0.164,   -0.008,    0.017,   -0.064,   -0.103,   -0.023,   -0.093,
        0.156,   -0.029,   -0.042,   -0.018,    0.062,    0.016,    0.000,
        0.015,   -0.007,    0.082,   -0.176,   -0.071,    0.022,    0.068,
       -0.122,   -0.037,    0.066,    0.111,   -0.004,    0.097,   -0.003,
        0.159,   -0.041,   -0.263,    2.943,   -2.616,    9.114,   -3.362,
       -4.129,   -0.093,   -6.703,   -1.478,   -4.917,   -0.588,   -3.583,
        1.936,   -1.132,   -0.970,   -2.215
    },
    {  -0.045,   -0.047,    0.030,    0.022,   -0.146,    0.029,   -0.068,
        0.088,    0.056,   -0.033,    0.070,    0.204,    0.190,    0.021,
       -0.136,   -0.027,   -0.022,   -0.195,   -0.012,   -0.055,   -0.041,
       -0.050,    0.012,    0.009,   -0.036,   -0.108,    0.012,   -0.051,
        0.047,    0.050,   -0.331,    2.794,   -2.366,    9.054,   -3.212,
       -4.131,   -0.061,   -6.748,   -1.316,   -4.954,   -0.880,   -3.797,
        2.182,   -1.353,   -0.705,   -2.180
    },
    {  -0.068,   -0.019,    0.020,   -0.017,   -0.093,    0.032,    0.009,
        0.068,    0.134,   -0.024,    0.082,    0.051,    0.030,    0.037,
        0.048,   -0.005,    0.020,   -0.212,    0.011,   -0.082,   -0.056,
       -0.013,   -0.063,   -0.094,   -0.091,   -0.051,    0.012,   -0.011,
        0.093,   -0.102,   -0.544,    2.940,   -2.643,    9.245,   -3.012,
       -4.165,   -0.007,   -7.023,   -1.458,   -4.727,   -1.007,   -3.335,
        2.152,   -0.975,   -1.063,   -1.951
    },
    {  -0.050,    0.025,    0.144,    0.034,   -0.046,   -0.020,    0.115,
       -0.052,    0.057,   -0.058,   -0.014,   -0.095,   -0.043,   -0.008,
        0.094,    0.028,    0.084,   -0.179,    0.081,    0.001,   -0.019,
        0.020,   -0.128,    0.045,   -0.011,   -0.027,    0.068,   -0.012,
        0.063,   -0.006,   -0.568,    2.744,   -2.447,    9.902,   -2.610,
       -3.275,    0.038,   -6.871,   -1.030,   -4.878,   -0.880,   -3.270,
        2.252,   -0.622,   -1.080,   -1.727
    },
    {   0.061,    0.092,    0.081,    0.061,   -0.109,    0.009,    0.049,
        0.076,    0.085,   -0.014,    0.045,    0.083,    0.067,   -0.015,
       -0.004,    0.055,    0.048,   -0.083,    0.084,    0.059,   -0.030,
       -0.133,    0.010,   -0.047,   -0.075,   -0.105,    0.083,    0.027,
        0.094,   -0.145,   -0.590,    2.766,   -2.824,    9.231,   -2.076,
       -2.999,    0.194,   -6.598,   -0.990,   -4.469,   -0.370,   -3.147,
        2.600,   -1.024,   -0.851,   -1.806
    },
    {  -0.023,    0.067,    0.028,   -0.115,   -0.025,    0.054,    0.061,
       -0.095,    0.025,    0.083,    0.013,    0.108,    0.174,    0.057,
        0.063,    0.007,   -0.013,    0.092,   -0.025,   -0.098,    0.047,
       -0.231,   -0.100,    0.054,    0.034,    0.057,   -0.184,    0.069,
        0.023,   -0.057,   -0.663,    2.878,   -2.818,    9.467,   -2.136,
       -3.113,    0.276,   -7.329,   -0.994,   -4.208,   -0.063,   -3.588,
        1.810,   -1.267,   -1.102,   -1.485
    },
    {  -0.088,    0.083,    0.105,   -0.171,   -0.031,    0.035,    0.052,
       -0.239,   -0.030,    0.124,   -0.000,   -0.001,    0.115,    0.055,
        0.056,    0.017,   -0.035,    0.091,    0.020,   -0.015,    0.061,
       -0.158,   -0.016,    0.090,   -0.035,    0.016,    0.022,    0.198,
       -0.036,   -0.134,   -0.979,    3.234,   -3.227,    9.219,   -1.930,
       -3.282,    0.603,   -6.936,   -0.648,   -4.176,    0.163,   -3.312,
        1.381,   -1.569,   -0.868,   -1.727
    },
    {  -0.027,    0.068,    0.151,   -0.171,   -0.095,    0.033,    0.064,
       -0.174,   -0.014,    0.145,    0.023,   -0.071,    0.088,    0.085,
        0.039,   -0.010,   -0.074,    0.014,    0.124,   -0.127,    0.034,
       -0.310,   -0.011,    0.086,   -0.018,    0.069,    0.037,    0.079,
        0.211,   -0.054,   -0.433,    2.804,   -2.671,    9.198,   -1.818,
       -3.362,    0.759,   -6.968,   -0.109,   -4.165,    0.095,   -3.199,
        1.261,   -0.995,   -0.906,   -1.875
    },
    {  -0.095,    0.169,    0.109,   -0.145,   -0.134,    0.065,    0.045,
       -0.105,   -0.097,    0.015,    0.028,    0.039,    0.029,    0.180,
        0.064,   -0.043,   -0.008,    0.060,    0.134,   -0.051,    0.031,
       -0.232,    0.032,    0.182,    0.061,    0.086,    0.057,    0.096,
        0.128,   -0.101,   -0.597,    2.770,   -2.342,    9.132,   -2.151,
       -3.465,    0.168,   -7.035,   -0.039,   -4.094,    0.183,   -3.749,
        0.955,   -1.331,   -1.293,   -1.931
    },
    {  -0.042,    0.123,    0.036,   -0.090,   -0.126,   -0.024,    0.085,
        0.034,    0.077,   -0.035,   -0.008,    0.122,    0.052,   -0.054,
        0.092,   -0.008,   -0.029,    0.113,   -0.085,   -0.107,    0.014,
       -0.196,    0.004,    0.141,    0.030,    0.063,    0.015,    0.079,
        0.018,   -0.054,   -0.522,    3.028,   -2.413,    8.842,   -1.908,
       -3.223,   -0.041,   -7.112,   -0.062,   -4.382,    0.189,   -3.748,
        1.440,   -1.954,   -1.052,   -1.630
    },
    {  -0.020,    0.177,    0.032,   -0.073,   -0.079,   -0.020,   -0.073,
        0.059,   -0.021,   -0.107,    0.034,    0.106,    0.052,   -0.044,
       -0.114,   -0.012,    0.147,    0.135,    0.184,   -0.255,    0.021,
       -0.241,   -0.067,    0.012,    0.043,    0.078,    0.044,   -0.076,
        0.101,    0.053,   -0.590,    3.023,   -2.488,    9.196,   -2.104,
       -3.279,    0.084,   -7.105,   -0.080,   -4.322,    0.097,   -3.590,
        1.166,   -2.145,   -1.118,   -1.917
    },
    {  -0.061,    0.036,   -0.028,   -0.140,   -0.228,    0.001,   -0.110,
        0.096,   -0.043,   -0.019,   -0.182,   -0.018,   -0.032,   -0.021,
       -0.013,    0.122,    0.143,   -0.023,    0.037,   -0.250,   -0.081,
       -0.177,    0.004,   -0.038,    0.055,   -0.055,    0.003,   -0.077,
        0.115,    0.039,   -0.520,    3.158,   -2.415,    8.615,   -2.207,
       -3.267,    0.225,   -7.064,   -0.152,   -4.500,    0.791,   -3.996,
        1.126,   -1.950,   -1.029,   -2.524
    },
    {  -0.204,    0.033,    0.090,   -0.255,   -0.127,    0.062,   -0.117,
        0.207,   -0.105,   -0.194,   -0.175,   -0.003,    0.083,    0.133,
       -0.015,   -0.146,   -0.064,    0.019,   -0.054,    0.067,    0.048,
       -0.033,   -0.105,   -0.044,   -0.093,   -0.005,   -0.098,    0.092,
       -0.004,   -0.147,   -0.881,    3.609,   -2.735,    8.879,   -2.006,
       -3.905,   -0.414,   -6.714,    0.352,   -4.505,    0.705,   -4.037,
        1.115,   -1.658,   -0.859,   -2.404
    },
    {  -0.239,    0.002,    0.086,   -0.249,   -0.079,    0.016,    0.017,
        0.357,   -0.064,   -0.233,   -0.158,    0.051,    0.117,    0.106,
       -0.122,   -0.133,   -0.182,   -0.019,   -0.101,    0.237,    0.104,
       -0.021,    0.043,   -0.052,   -0.010,   -0.104,   -0.038,    0.045,
       -0.040,   -0.143,   -0.590,    3.797,   -2.802,    9.045,   -1.839,
       -3.590,    0.178,   -7.216,    0.290,   -3.834,    0.940,   -3.720,
        1.310,   -1.908,   -0.917,   -2.748
    },
    {  -0.132,   -0.026,    0.014,   -0.150,   -0.091,    0.047,   -0.061,
        0.140,   -0.032,   -0.190,    0.041,    0.000,    0.102,    0.082,
       -0.040,   -0.139,   -0.076,   -0.123,   -0.110,    0.313,    0.094,
        0.047,   -0.081,   -0.052,    0.019,   -0.102,   -0.062,   -0.023,
       -0.070,    0.009,   -0.738,    4.095,   -2.386,    9.440,   -2.127,
       -3.537,    0.125,   -7.585,    0.244,   -4.201,    0.644,   -3.569,
        1.687,   -2.213,   -0.860,   -2.724
    },
    {   0.011,   -0.084,   -0.037,    0.077,   -0.125,    0.087,   -0.049,
        0.062,   -0.012,   -0.100,   -0.021,    0.167,    0.092,    0.021,
       -0.026,   -0.022,    0.073,   -0.106,    0.075,    0.415,    0.042,
       -0.045,    0.053,   -0.021,    0.065,   -0.051,    0.049,   -0.128,
       -0.074,    0.080,   -0.822,    4.506,   -2.360,    9.208,   -2.666,
       -3.656,    0.067,   -8.256,   -0.080,   -3.984,    0.730,   -3.896,
        1.163,   -1.963,   -0.922,   -2.713
    },
    {   0.009,   -0.132,   -0.032,   -0.027,   -0.074,    0.020,   -0.021,
        0.080,    0.069,   -0.197,   -0.016,    0.108,    0.080,   -0.054,
        0.024,   -0.092,    0.065,    0.046,   -0.130,    0.224,    0.003,
       -0.045,   -0.019,   -0.087,   -0.123,   -0.065,    0.001,   -0.068,
        0.012,   -0.040,   -1.063,    4.593,   -2.290,    8.950,   -2.665,
       -4.155,    0.049,   -8.573,   -0.337,   -3.980,    0.483,   -4.034,
        1.326,   -1.944,   -1.566,   -2.810
    },
    {  -0.168,   -0.029,    0.091,   -0.145,   -0.037,    0.030,   -0.035,
       -0.118,   -0.023,   -0.112,    0.059,   -0.015,    0.028,    0.041,
       -0.004,   -0.146,   -0.226,   -0.153,    0.072,    0.162,    0.061,
       -0.033,   -0.051,    0.073,    0.115,   -0.036,    0.063,    0.026,
        0.053,    0.215,   -1.430,    4.691,   -2.203,    8.951,   -2.667,
       -3.729,    0.175,   -8.320,   -0.273,   -3.867,    0.101,   -3.922,
        1.231,   -1.511,   -1.730,   -2.798
    },
    {  -0.110,   -0.036,    0.042,   -0.133,   -0.138,    0.068,   -0.009,
       -0.149,   -0.085,   -0.061,    0.015,   -0.118,    0.010,    0.059,
        0.040,   -0.181,   -0.205,   -0.200,    0.089,    0.217,    0.135,
       -0.020,   -0.023,    0.182,    0.118,   -0.017,    0.085,    0.243,
       -0.020,    0.182,   -1.067,    4.831,   -2.314,    8.779,   -2.951,
       -4.248,    0.021,   -8.281,   -0.087,   -3.694,    0.209,   -3.772,
        1.651,   -1.434,   -2.176,   -2.428
    },
    {  -0.126,   -0.099,    0.095,   -0.132,   -0.136,   -0.004,   -0.047,
       -0.096,   -0.116,   -0.013,    0.065,   -0.154,   -0.078,   -0.038,
        0.059,   -0.162,   -0.100,   -0.152,    0.057,    0.243,    0.139,
       -0.090,   -0.066,    0.183,    0.201,   -0.031,   -0.115,    0.217,
        0.004,    0.019,   -1.540,    5.012,   -2.595,    9.010,   -2.363,
       -3.883,    0.423,   -8.104,   -0.094,   -4.179,   -0.102,   -3.380,
        1.368,   -1.888,   -2.100,   -2.607
    },
    {   0.001,   -0.039,    0.131,   -0.039,   -0.209,   -0.036,    0.041,
       -0.020,   -0.174,   -0.032,    0.160,   -0.187,   -0.086,   -0.163,
        0.135,   -0.138,   -0.019,   -0.028,    0.168,    0.247,    0.166,
       -0.170,    0.017,    0.140,    0.033,    0.108,   -0.030,    0.147,
        0.089,    0.051,   -1.159,    4.823,   -2.180,    9.447,   -2.441,
       -4.005,    0.640,   -8.463,    0.295,   -4.022,   -0.331,   -3.449,
        1.468,   -2.328,   -1.935,   -2.307
    },
    {  -0.147,   -0.111,    0.115,   -0.049,   -0.260,    0.034,   -0.091,
        0.013,   -0.028,    0.002,    0.227,   -0.219,   -0.125,   -0.169,
        0.042,   -0.136,   -0.164,   -0.070,    0.277,    0.134,    0.149,
       -0.031,    0.013,    0.119,    0.153,    0.096,    0.032,    0.058,
        0.076,    0.112,   -0.548,    4.312,   -2.114,    9.326,   -2.529,
       -3.537,    0.406,   -8.119,    0.055,   -4.375,   -0.263,   -3.341,
        1.268,   -1.984,   -1.692,   -2.168
    },
    {  -0.098,   -0.149,    0.202,    0.096,   -0.182,   -0.014,    0.048,
       -0.102,   -0.081,    0.045,    0.299,   -0.177,   -0.166,   -0.217,
       -0.022,   -0.161,   -0.070,   -0.028,    0.364,    0.109,    0.137,
       -0.037,    0.182,    0.142,    0.164,    0.080,   -0.002,   -0.050,
        0.068,   -0.058,   -1.055,    4.420,   -2.353,    9.757,   -2.348,
       -3.447,    0.108,   -7.892,   -0.079,   -4.477,   -0.339,   -3.366,
        1.489,   -1.981,   -1.808,   -2.240
    },
    {  -0.245,   -0.072,    0.206,    0.052,   -0.194,    0.037,    0.084,
       -0.038,   -0.109,    0.029,    0.313,   -0.149,   -0.185,   -0.065,
        0.121,   -0.019,   -0.054,   -0.107,    0.445,    0.023,    0.149,
       -0.035,    0.164,    0.147,    0.150,    0.031,    0.066,   -0.070,
       -0.060,    0.078,   -0.594,    4.461,   -2.166,    9.573,   -2.525,
       -3.739,    0.256,   -7.872,   -0.107,   -4.581,   -0.353,   -3.479,
        1.275,   -1.529,   -2.192,   -2.102
    },
    {  -0.279,   -0.026,    0.235,    0.024,   -0.230,    0.005,   -0.031,
       -0.030,   -0.156,   -0.050,    0.296,   -0.066,   -0.185,   -0.029,
        0.018,   -0.004,    0.009,   -0.094,    0.356,    0.044,   -0.003,
       -0.031,   -0.037,    0.053,    0.244,    0.005,   -0.081,   -0.060,
       -0.001,    0.054,   -0.800,    3.977,   -1.956,    9.408,   -2.689,
       -3.700,    0.523,   -8.199,   -0.785,   -4.607,   -0.518,   -3.446,
        1.398,   -1.880,   -2.717,   -2.048
    },
    {  -0.194,   -0.012,    0.174,   -0.034,   -0.122,    0.043,   -0.064,
       -0.044,   -0.119,    0.031,    0.137,   -0.061,   -0.018,   -0.039,
        0.010,   -0.000,   -0.114,   -0.078,    0.262,   -0.018,   -0.108,
        0.060,   -0.030,    0.032,    0.171,   -0.045,   -0.031,    0.018,
        0.055,   -0.024,   -1.530,    4.028,   -2.440,    9.276,   -2.677,
       -3.211,    0.350,   -8.371,   -1.344,   -4.544,   -0.216,   -3.440,
        1.541,   -1.881,   -2.550,   -1.659
    },
    {  -0.067,   -0.040,    0.102,   -0.013,   -0.103,    0.087,   -0.125,
       -0.081,   -0.048,   -0.010,    0.006,   -0.069,    0.069,    0.009,
        0.081,    0.010,   -0.178,   -0.153,    0.291,   -0.012,    0.017,
        0.127,   -0.056,    0.004,    0.164,   -0.107,   -0.091,    0.011,
       -0.011,    0.050,   -1.410,    3.951,   -2.140,    8.936,   -2.291,
       -2.701,    0.439,   -8.670,   -1.545,   -4.440,   -0.447,   -3.049,
        1.692,   -1.764,   -2.474,   -1.992
    },
    {  -0.221,   -0.010,    0.286,   -0.000,   -0.115,   -0.008,    0.012,
       -0.133,   -0.110,    0.028,    0.118,   -0.012,    0.063,   -0.028,
       -0.011,   -0.023,   -0.088,   -0.071,    0.295,    0.010,   -0.184,
       -0.086,   -0.081,    0.066,    0.008,    0.001,   -0.107,    0.004,
       -0.104,   -0.087,   -1.374,    3.637,   -1.885,    8.927,   -1.972,
       -2.482,    0.381,   -8.485,   -1.772,   -4.201,   -0.542,   -3.078,
        1.474,   -1.722,   -3.361,   -2.121
    },
    {  -0.182,    0.003,    0.162,    0.069,   -0.106,   -0.022,    0.035,
       -0.026,   -0.037,   -0.073,    0.012,    0.026,    0.114,   -0.042,
        0.143,    0.123,   -0.187,   -0.172,    0.333,    0.059,   -0.151,
       -0.045,   -0.064,   -0.043,   -0.037,   -0.084,   -0.116,    0.062,
        0.031,   -0.108,   -1.126,    3.234,   -1.995,    9.158,   -2.197,
       -2.590,    0.415,   -8.491,   -1.812,   -4.562,   -0.279,   -3.656,
        1.501,   -1.820,   -3.352,   -2.060
    },
    {  -0.216,   -0.015,    0.128,    0.039,   -0.110,    0.044,    0.188,
        0.041,   -0.068,   -0.009,   -0.033,    0.006,    0.016,   -0.022,
        0.153,    0.081,   -0.172,   -0.125,    0.256,    0.012,   -0.045,
       -0.000,   -0.109,   -0.042,    0.002,   -0.074,   -0.117,    0.021,
        0.001,   -0.147,   -1.142,    3.124,   -1.998,    9.631,   -1.928,
       -2.504,    0.270,   -8.662,   -1.558,   -4.143,   -0.242,   -3.425,
        1.513,   -2.031,   -3.448,   -2.061
    },
    {  -0.179,   -0.086,    0.242,   -0.008,   -0.059,    0.107,    0.098,
        0.095,   -0.253,   -0.070,   -0.030,    0.136,    0.067,    0.058,
        0.111,   -0.028,   -0.138,   -0.139,    0.082,   -0.023,    0.090,
       -0.045,   -0.152,   -0.029,    0.067,    0.001,   -0.092,    0.108,
       -0.028,   -0.264,   -1.146,    2.961,   -2.011,    9.285,   -2.013,
       -2.890,    0.511,   -8.890,   -1.258,   -4.118,   -0.241,   -3.407,
        1.479,   -1.966,   -3.260,   -2.018
    },
    {  -0.201,    0.056,    0.162,    0.044,   -0.143,    0.064,   -0.083,
        0.056,   -0.243,   -0.063,   -0.091,    0.175,    0.061,    0.041,
       -0.002,    0.015,   -0.182,   -0.020,   -0.086,   -0.014,    0.095,
       -0.129,   -0.164,    0.019,    0.098,    0.069,   -0.065,    0.048,
       -0.126,   -0.335,   -1.124,    2.658,   -2.162,    9.080,   -1.781,
       -2.876,    0.661,   -9.021,   -1.639,   -3.976,   -0.128,   -3.392,
        1.853,   -1.897,   -3.649,   -1.708
    },
    {  -0.129,    0.076,    0.159,    0.073,   -0.113,   -0.027,    0.048,
        0.110,   -0.251,   -0.021,   -0.133,    0.051,    0.127,   -0.079,
       -0.056,    0.008,   -0.149,   -0.035,   -0.004,    0.102,    0.164,
       -0.107,   -0.104,   -0.038,    0.050,   -0.035,   -0.190,    0.065,
       -0.094,   -0.246,   -0.761,    2.765,   -2.502,    9.504,   -1.639,
       -2.456,    0.957,   -9.592,   -1.378,   -4.302,   -0.061,   -3.688,
        1.942,   -1.628,   -3.872,   -1.574
    },
    {  -0.116,    0.099,    0.056,    0.025,   -0.146,   -0.012,    0.041,
        0.133,   -0.207,    0.078,   -0.074,    0.057,    0.110,   -0.097,
       -0.049,    0.088,   -0.237,   -0.007,   -0.009,    0.004,    0.105,
       -0.136,   -0.122,   -0.092,    0.170,   -0.010,   -0.116,    0.054,
       -0.027,   -0.219,   -0.713,    2.788,   -2.940,    9.758,   -1.540,
       -2.345,    1.220,   -9.590,   -1.579,   -4.258,   -0.028,   -3.563,
        1.923,   -1.717,   -3.789,   -1.624
    },
    {  -0.245,    0.115,    0.205,    0.012,   -0.083,    0.082,   -0.009,
        0.160,   -0.251,    0.070,   -0.160,    0.009,    0.141,   -0.022,
        0.024,   -0.007,    0.009,    0.036,   -0.086,    0.022,    0.053,
       -0.080,    0.102,   -0.122,    0.047,    0.023,   -0.167,    0.012,
       -0.059,   -0.202,   -0.406,    2.823,   -2.847,    9.790,   -1.428,
       -2.442,    0.955,   -9.635,   -1.382,   -4.342,    0.095,   -3.569,
        1.884,   -1.586,   -4.244,   -1.815
    },
    {  -0.155,    0.043,    0.169,    0.043,   -0.041,    0.176,    0.057,
        0.287,   -0.198,   -0.009,   -0.147,    0.031,    0.165,    0.014,
        0.092,   -0.082,   -0.100,    0.028,   -0.131,    0.201,    0.118,
       -0.044,    0.054,   -0.148,    0.128,   -0.096,   -0.088,    0.059,
       -0.026,   -0.102,   -0.451,    2.345,   -2.640,    9.833,   -1.807,
       -2.358,    0.470,   -9.096,   -1.699,   -4.230,    0.529,   -3.320,
        2.249,   -1.275,   -4.266,   -1.461
    },
    {  -0.169,    0.074,    0.110,    0.054,   -0.056,    0.140,   -0.018,
        0.102,   -0.071,   -0.200,   -0.100,    0.007,    0.151,    0.006,
        0.164,   -0.058,   -0.082,    0.038,   -0.023,    0.006,    0.006,
        0.068,    0.162,   -0.172,    0.151,    0.183,   -0.025,   -0.084,
       -0.071,   -0.100,   -0.768,    1.879,   -2.413,    9.474,   -1.210,
       -2.119,   -0.048,   -8.883,   -1.932,   -3.994,    0.182,   -2.922,
        2.033,   -1.664,   -4.662,   -1.138
    },
    {  -0.146,    0.064,    0.087,    0.041,   -0.108,   -0.015,    0.101,
        0.012,   -0.004,   -0.236,   -0.075,    0.018,    0.144,   -0.114,
        0.230,   -0.079,   -0.131,    0.052,    0.073,    0.027,   -0.042,
        0.059,    0.209,   -0.066,    0.193,    0.122,   -0.063,   -0.047,
       -0.198,   -0.076,   -0.593,    2.399,   -2.696,    9.606,   -1.344,
       -2.051,   -0.113,   -8.766,   -1.725,   -4.171,    0.059,   -2.692,
        2.057,   -1.359,   -4.612,   -0.915
    },
    {  -0.161,    0.105,    0.089,   -0.019,   -0.087,    0.074,    0.051,
        0.004,   -0.033,   -0.034,    0.112,    0.004,    0.127,   -0.007,
        0.340,   -0.045,    0.009,   -0.038,    0.020,    0.051,    0.003,
       -0.013,    0.191,   -0.051,    0.010,    0.095,    0.028,    0.030,
       -0.213,   -0.056,   -0.166,    2.400,   -2.624,    9.894,   -1.273,
       -2.312,   -0.102,   -8.733,   -1.523,   -4.019,    0.609,   -3.119,
        2.529,   -1.836,   -4.946,   -1.240
    },
    {  -0.257,   -0.009,   -0.027,   -0.015,    0.008,    0.002,    0.102,
       -0.092,    0.122,   -0.003,    0.110,   -0.079,    0.074,    0.013,
        0.106,   -0.010,    0.110,   -0.093,    0.062,    0.067,   -0.043,
       -0.057,    0.009,    0.018,    0.132,   -0.047,    0.069,   -0.056,
       -0.167,    0.051,   -0.534,    1.684,   -2.263,    9.489,   -1.045,
       -2.117,   -0.336,   -8.295,   -2.020,   -4.114,    0.554,   -3.658,
        2.559,   -1.909,   -4.762,   -1.266
    },
    {  -0.130,   -0.066,   -0.042,    0.018,    0.030,    0.022,    0.070,
       -0.167,    0.028,   -0.004,    0.204,   -0.093,    0.097,    0.012,
        0.273,    0.001,    0.043,   -0.107,    0.034,   -0.007,    0.008,
       -0.024,    0.012,    0.033,    0.184,    0.012,    0.168,   -0.062,
       -0.322,    0.011,   -0.495,    2.179,   -2.173,    9.355,   -1.626,
       -2.177,   -0.277,   -8.164,   -1.679,   -4.153,    0.140,   -3.594,
        2.564,   -1.663,   -4.694,   -1.274
    },
    {  -0.193,    0.012,    0.041,   -0.077,    0.059,   -0.054,    0.136,
       -0.208,    0.061,    0.089,    0.154,   -0.161,    0.149,   -0.074,
        0.235,   -0.058,   -0.043,   -0.167,    0.055,    0.066,    0.180,
       -0.044,    0.040,    0.020,    0.100,   -0.076,    0.106,    0.057,
       -0.335,    0.025,   -0.525,    1.950,   -2.221,    9.587,   -0.909,
       -1.878,   -0.207,   -8.035,   -1.236,   -3.916,    0.129,   -3.430,
        2.596,   -1.494,   -4.660,   -1.311
    },
    {  -0.349,    0.047,    0.121,   -0.061,    0.040,   -0.132,    0.187,
       -0.124,    0.024,    0.113,    0.244,   -0.043,    0.150,   -0.120,
        0.275,   -0.034,   -0.188,   -0.313,   -0.056,    0.084,    0.225,
       -0.094,    0.030,    0.013,    0.106,   -0.176,    0.098,    0.036,
       -0.320,    0.076,   -0.274,    2.303,   -1.910,    9.576,   -0.811,
       -1.702,   -0.046,   -8.301,   -1.306,   -3.786,    0.134,   -3.229,
        2.626,   -1.290,   -4.529,   -1.382
    },
    {  -0.239,    0.094,    0.058,   -0.085,    0.013,   -0.139,    0.156,
       -0.109,    0.022,    0.245,    0.322,    0.009,    0.177,   -0.123,
        0.296,   -0.135,   -0.143,   -0.305,   -0.026,    0.086,    0.239,
       -0.043,   -0.080,    0.058,    0.113,   -0.154,    0.023,    0.062,
       -0.385,    0.091,   -0.201,    2.534,   -1.991,    9.245,   -0.446,
       -1.793,    0.399,   -8.300,   -0.821,   -3.998,    0.062,   -3.095,
        3.060,   -1.550,   -4.835,   -1.387
    },
    {  -0.288,    0.109,   -0.122,   -0.110,   -0.074,   -0.141,    0.154,
       -0.154,    0.066,    0.166,    0.344,    0.008,    0.130,   -0.081,
        0.242,   -0.180,   -0.179,   -0.237,   -0.071,    0.121,    0.215,
       -0.047,   -0.133,    0.102,    0.093,   -0.057,    0.029,    0.049,
       -0.391,    0.070,   -0.189,    2.739,   -2.467,    8.911,   -0.860,
       -2.046,    0.488,   -7.877,   -0.498,   -4.390,   -0.216,   -3.591,
        3.536,   -1.690,   -4.849,   -1.728
    },
    {  -0.363,    0.103,   -0.047,   -0.055,   -0.138,   -0.108,    0.126,
       -0.183,    0.111,    0.136,    0.448,   -0.003,    0.096,   -0.079,
        0.211,   -0.138,   -0.175,   -0.274,   -0.046,    0.122,    0.101,
       -0.050,   -0.034,    0.046,    0.036,   -0.008,    0.089,    0.052,
       -0.465,    0.077,   -0.168,    3.156,   -2.096,    9.038,   -0.455,
       -2.156,    0.630,   -7.963,   -0.642,   -4.728,   -0.140,   -3.805,
        3.398,   -1.601,   -4.728,   -1.931
    },
    {  -0.293,   -0.078,   -0.134,   -0.181,   -0.146,   -0.100,    0.146,
       -0.050,    0.048,    0.095,    0.383,    0.107,    0.131,   -0.082,
        0.156,   -0.036,   -0.060,   -0.197,   -0.046,    0.099,    0.065,
       -0.029,    0.069,   -0.052,    0.094,   -0.113,    0.108,   -0.061,
       -0.390,    0.034,    0.058,    2.813,   -2.048,    9.217,   -0.483,
       -2.263,    0.541,   -8.227,   -0.615,   -4.723,   -0.101,   -3.985,
        3.752,   -1.728,   -4.827,   -1.961
    }
  };


  double netfun(std::vector<double>& in, const double* w)
  {
    double x00 = in[0];
    double x;

    //Layer 1, Node 0
    x = w[0];
    x = x + w[1] * x00;
    double x10 = tanh(x);

    //Layer 1, Node 1
    x = w[2];
    x = x + w[3] * x00;
    double x11 = tanh(x);

    //Layer 1, Node 2
    x = w[4];
    x = x + w[5] * x00;
    double x12 = tanh(x);

    //Layer 1, Node 3
    x = w[6];
    x = x + w[7] * x00;
    double x13 = tanh(x);

    //Layer 1, Node 4
    x = w[8];
    x = x + w[9] * x00;
    double x14 = tanh(x);

    //Layer 1, Node 5
    x = w[10];
    x = x + w[11] * x00;
    double x15 = tanh(x);

    //Layer 1, Node 6
    x = w[12];
    x = x + w[13] * x00;
    double x16 = tanh(x);

    //Layer 1, Node 7
    x = w[14];
    x = x + w[15] * x00;
    double x17 = tanh(x);

    //Layer 1, Node 8
    x = w[16];
    x = x + w[17] * x00;
    double x18 = tanh(x);

    //Layer 1, Node 9
    x = w[18];
    x = x + w[19] * x00;
    double x19 = tanh(x);

    //Layer 1, Node 10
    x = w[20];
    x = x + w[21] * x00;
    double x110 = tanh(x);

    //Layer 1, Node 11
    x = w[22];
    x = x + w[23] * x00;
    double x111 = tanh(x);

    //Layer 1, Node 12
    x = w[24];
    x = x + w[25] * x00;
    double x112 = tanh(x);

    //Layer 1, Node 13
    x = w[26];
    x = x + w[27] * x00;
    double x113 = tanh(x);

    //Layer 1, Node 14
    x = w[28];
    x = x + w[29] * x00;
    double x114 = tanh(x);

    //Layer 2, Node 0
    x = w[30];
    x = x + w[31] * x10;
    x = x + w[32] * x11;
    x = x + w[33] * x12;
    x = x + w[34] * x13;
    x = x + w[35] * x14;
    x = x + w[36] * x15;
    x = x + w[37] * x16;
    x = x + w[38] * x17;
    x = x + w[39] * x18;
    x = x + w[40] * x19;
    x = x + w[41] * x110;
    x = x + w[42] * x111;
    x = x + w[43] * x112;
    x = x + w[44] * x113;
    x = x + w[45] * x114;
    double x20 = 1.0/(1.0+exp(-x));
    return x20;
  }
}; // End anonymous namespace

//-----------------------------------------------------------------------------
// Compute average over networks. Default is to use all networks
//-----------------------------------------------------------------------------

double HT300_MHT75_v7_HT300_v6_165922_166300_166374_166978_sel1(std::vector<double>& inputvars,
                                                                int first=0,
                                                                int last=nnetworks-1)
{
  if ( first < 0 ) first = 0;
  if ( last  < 0 ) last  = nnetworks-1;
  if ( last  > nnetworks-1 ) last = nnetworks-1;
  if ( first > last )
    {
      std::cerr << "** HT300_MHT75_v7_HT300_v6_165922_166300_166374_166978_sel1 ** first-index > last-index"
                << std::endl; exit(3);
    }

  // Compute average over networks
  std::vector<double> in(ninputs);
  in[0] = (inputvars[0] - mean[0]) / sigma[0];

  int   n = last - first + 1;
  double x = 0.0;
  for(int i=first; i <= last; i++) x += netfun(in, weight[i]);
  return x / n;
}

extern "C" double HT300_MHT75_v7_HT300_v6_165922_166300_166374_166978_sel1_dl(std::vector<double>& in,
                                                                              int first=0,
                                                                              int last=nnetworks-1)
{
  return HT300_MHT75_v7_HT300_v6_165922_166300_166374_166978_sel1(in, first, last);
}

extern "C" double HT300_MHT75_v7_HT300_v6_165922_166300_166374_166978_sel1_dl2(double* in,
                                                                               int first=0,
                                                                               int last=nnetworks-1)
{
  std::vector<double> invec;

  invec.push_back(in[0]);

  return HT300_MHT75_v7_HT300_v6_165922_166300_166374_166978_sel1(invec, first, last);
}
