//-----------------------------------------------------------------------------
// Network: HT300_MHT75_v7_HT300_v6_165922_166300_166374_166978_sel1
// Inputs:
//                                                  Offset       Scale
//    offlinevar                                 2.714e+01   2.306e+01
//
// Created: Wed Dec 21 19:43:31 2011
//-----------------------------------------------------------------------------
#include <cmath>
#include <vector>
#include <iostream>
#include <stdlib.h>
//-----------------------------------------------------------------------------
// Make following visible only to this programming unit
namespace {
  // NOTE: Network indices start at 0
  static const int nnetworks=100;
  static const int ninputs  =1;
  static const int nhidden  =15;
  static const int nparams  =46;

  static const double mean[ninputs]={
  2.71400e+01
  };

  static const double sigma[ninputs]={
  2.30600e+01
  };

  static const double weight[nnetworks][nparams]={
    {  -0.005,    0.231,   -0.003,    0.022,   -0.013,    0.028,    0.012,
       -0.047,   -0.013,    0.105,    0.003,   -0.058,   -0.010,   -0.005,
        0.027,    0.123,    0.008,    0.173,    0.016,    0.121,   -0.001,
       -0.244,    0.016,    0.034,   -0.025,   -0.004,    0.013,    0.197,
       -0.009,   -0.024,   -2.646,    3.235,   -2.842,    9.093,   -3.406,
       -3.576,   -2.166,   -7.244,   -1.074,   -4.118,    1.429,   -2.272,
        1.186,    0.940,    2.056,   -0.618
    },
    {  -0.009,    0.172,    0.003,    0.139,    0.023,    0.078,    0.011,
       -0.086,   -0.014,    0.086,   -0.001,   -0.076,   -0.001,    0.024,
        0.003,    0.144,   -0.012,    0.276,    0.005,    0.172,    0.001,
       -0.348,   -0.001,    0.071,   -0.001,   -0.019,   -0.016,    0.277,
        0.006,   -0.030,   -2.912,    3.107,   -2.982,    8.301,   -3.425,
       -3.788,   -1.977,   -7.910,   -0.750,   -4.275,    1.380,   -2.274,
        1.473,    0.998,    2.267,   -0.755
    },
    {  -0.002,    0.144,   -0.021,    0.006,    0.018,    0.143,    0.012,
       -0.070,   -0.043,   -0.036,    0.015,   -0.087,    0.028,    0.162,
       -0.001,    0.128,   -0.032,    0.231,    0.018,   -0.003,    0.029,
       -0.343,    0.008,    0.099,   -0.018,   -0.054,   -0.023,    0.270,
       -0.033,    0.105,   -2.824,    2.932,   -3.335,    8.041,   -4.078,
       -3.661,   -1.932,   -7.981,   -0.398,   -4.507,    1.825,   -2.290,
        1.686,    0.738,    2.426,   -0.783
    },
    {   0.030,    0.136,   -0.002,    0.034,    0.020,    0.075,    0.004,
       -0.234,   -0.074,   -0.044,    0.027,   -0.050,    0.071,    0.136,
        0.038,    0.047,   -0.008,    0.157,   -0.042,   -0.111,    0.001,
       -0.270,    0.001,   -0.005,   -0.012,   -0.031,    0.005,    0.215,
        0.000,   -0.015,   -2.578,    3.349,   -2.941,    8.193,   -4.366,
       -3.677,   -1.957,   -8.489,    0.007,   -4.345,    1.738,   -1.936,
        1.971,    0.607,    2.287,   -0.391
    },
    {   0.058,    0.152,   -0.010,    0.008,    0.047,    0.084,    0.006,
       -0.271,   -0.029,   -0.075,   -0.034,    0.023,    0.033,    0.103,
       -0.032,   -0.064,    0.036,    0.176,   -0.061,   -0.248,    0.012,
       -0.190,    0.016,    0.001,   -0.006,   -0.124,   -0.043,    0.153,
       -0.015,   -0.005,   -2.842,    3.348,   -3.186,    8.752,   -3.846,
       -3.483,   -1.493,   -8.037,    0.339,   -4.518,    1.208,   -2.229,
        1.041,    1.138,    2.600,   -0.600
    },
    {   0.048,   -0.035,   -0.052,    0.058,   -0.041,   -0.002,   -0.031,
       -0.186,    0.016,   -0.044,    0.034,    0.058,    0.068,   -0.005,
       -0.043,   -0.053,    0.029,   -0.028,   -0.026,   -0.121,   -0.002,
       -0.247,    0.004,    0.004,   -0.001,   -0.022,   -0.002,    0.081,
        0.010,   -0.016,   -2.057,    3.747,   -3.067,    8.562,   -4.029,
       -3.562,   -1.575,   -7.972,   -0.363,   -4.670,    1.485,   -2.051,
        1.405,    0.624,    1.572,   -1.368
    },
    {  -0.014,   -0.131,   -0.011,    0.140,    0.029,    0.030,    0.004,
       -0.147,    0.004,   -0.129,   -0.011,   -0.045,    0.061,   -0.007,
        0.016,   -0.009,   -0.010,   -0.049,   -0.037,   -0.240,   -0.029,
       -0.292,   -0.043,   -0.079,    0.014,    0.167,    0.026,    0.059,
       -0.042,   -0.061,   -2.478,    3.954,   -3.346,    8.846,   -4.132,
       -3.873,   -1.404,   -8.027,   -0.102,   -4.521,    1.365,   -1.907,
        1.395,    1.006,    1.357,   -1.174
    },
    {  -0.004,   -0.067,   -0.009,    0.207,    0.006,   -0.001,    0.023,
       -0.190,    0.003,   -0.137,    0.019,    0.156,    0.039,   -0.064,
       -0.004,    0.042,   -0.011,   -0.014,    0.007,   -0.150,   -0.022,
       -0.305,   -0.017,   -0.097,    0.015,    0.204,    0.031,   -0.042,
       -0.016,   -0.130,   -2.533,    3.939,   -3.179,    8.787,   -4.272,
       -3.690,   -1.421,   -7.700,   -0.428,   -4.542,    1.586,   -2.035,
        1.389,    0.955,    1.474,   -1.065
    },
    {   0.004,   -0.259,   -0.016,    0.182,    0.012,   -0.047,    0.051,
       -0.258,    0.004,   -0.029,    0.026,    0.083,    0.034,   -0.093,
        0.030,    0.026,    0.028,   -0.179,   -0.023,    0.025,   -0.017,
       -0.181,   -0.038,   -0.022,    0.001,   -0.018,    0.006,    0.065,
       -0.016,   -0.000,   -2.082,    4.249,   -2.897,    8.446,   -4.685,
       -3.942,   -1.855,   -8.001,   -0.940,   -4.836,    1.215,   -1.570,
        1.345,    0.382,    1.482,   -0.599
    },
    {  -0.026,   -0.100,   -0.011,   -0.051,    0.008,    0.165,    0.002,
       -0.174,    0.005,    0.101,   -0.032,   -0.023,    0.041,    0.167,
        0.026,    0.022,    0.010,   -0.120,    0.003,    0.110,   -0.001,
        0.060,   -0.011,    0.174,    0.020,   -0.232,   -0.010,    0.121,
        0.005,    0.017,   -2.339,    3.968,   -3.131,    8.812,   -4.468,
       -4.421,   -2.306,   -7.980,   -0.938,   -4.951,    0.782,   -1.686,
        1.599,    0.507,    1.228,   -0.818
    },
    {  -0.013,   -0.188,    0.003,   -0.001,   -0.032,    0.093,   -0.018,
       -0.220,    0.019,    0.084,    0.014,    0.003,   -0.017,    0.133,
       -0.004,   -0.037,   -0.004,   -0.222,   -0.030,    0.121,    0.000,
       -0.015,   -0.039,    0.091,    0.042,   -0.293,    0.001,    0.150,
        0.007,    0.022,   -2.483,    3.179,   -3.285,    8.544,   -4.650,
       -4.480,   -2.085,   -8.072,   -0.843,   -5.120,    0.285,   -2.433,
        1.443,    0.534,    1.302,   -0.976
    },
    {   0.004,   -0.188,   -0.008,   -0.020,    0.003,    0.111,    0.031,
       -0.189,   -0.013,    0.122,   -0.019,    0.030,    0.024,    0.051,
       -0.012,   -0.133,   -0.020,   -0.167,    0.000,    0.076,    0.027,
       -0.012,    0.015,   -0.041,   -0.001,   -0.252,   -0.011,    0.080,
        0.013,   -0.018,   -2.599,    3.512,   -3.463,    8.567,   -4.255,
       -4.247,   -2.491,   -7.874,   -0.662,   -5.443,   -0.104,   -2.057,
        1.473,    0.353,    0.957,   -0.821
    },
    {  -0.021,   -0.250,    0.017,    0.200,   -0.032,    0.088,    0.048,
       -0.302,   -0.013,    0.212,    0.015,    0.000,   -0.082,    0.010,
       -0.023,   -0.115,    0.033,   -0.282,   -0.021,    0.259,    0.034,
       -0.043,    0.008,   -0.023,    0.070,   -0.117,   -0.013,    0.145,
       -0.026,   -0.024,   -2.569,    3.634,   -3.572,    8.688,   -4.445,
       -3.636,   -2.745,   -8.054,   -0.480,   -5.269,   -0.317,   -2.277,
        1.156,    0.550,    0.688,   -0.661
    },
    {  -0.010,   -0.006,    0.012,    0.254,    0.001,   -0.029,   -0.021,
       -0.072,    0.007,    0.082,    0.003,   -0.087,    0.011,   -0.034,
       -0.016,   -0.208,    0.017,   -0.204,    0.015,    0.248,    0.004,
       -0.119,    0.009,    0.048,    0.040,    0.087,   -0.004,    0.135,
       -0.011,   -0.176,   -2.552,    3.531,   -2.857,    8.393,   -4.281,
       -3.715,   -2.581,   -8.008,   -0.738,   -4.638,    0.027,   -2.295,
        0.830,    0.159,    0.327,   -0.743
    },
    {  -0.021,    0.024,    0.003,    0.130,    0.015,   -0.159,   -0.023,
       -0.068,   -0.022,    0.182,   -0.000,    0.003,   -0.026,   -0.154,
        0.010,   -0.134,    0.019,   -0.284,    0.017,    0.251,    0.025,
       -0.143,   -0.021,    0.110,    0.006,   -0.050,   -0.012,    0.230,
        0.019,   -0.047,   -2.920,    3.445,   -2.867,    8.643,   -4.820,
       -4.006,   -2.516,   -7.859,   -0.495,   -4.592,    0.212,   -2.247,
        1.261,    0.242,    0.597,   -0.877
    },
    {   0.035,   -0.101,    0.008,    0.224,   -0.015,   -0.057,    0.008,
       -0.164,    0.006,    0.017,    0.015,   -0.019,    0.010,   -0.065,
        0.021,   -0.229,   -0.039,   -0.129,   -0.015,    0.207,    0.012,
       -0.192,    0.001,    0.077,   -0.025,    0.060,    0.017,    0.138,
       -0.013,   -0.100,   -2.600,    3.528,   -3.183,    8.433,   -4.987,
       -4.129,   -2.813,   -7.410,   -0.760,   -4.910,   -0.147,   -1.858,
        0.699,    0.548,    0.679,   -0.653
    },
    {   0.008,   -0.168,    0.012,    0.149,    0.008,   -0.029,    0.004,
       -0.063,    0.001,   -0.041,    0.023,   -0.050,    0.013,   -0.019,
        0.002,   -0.256,   -0.019,   -0.213,   -0.001,    0.068,   -0.010,
       -0.144,   -0.003,    0.009,   -0.003,   -0.017,    0.026,    0.171,
        0.007,   -0.055,   -2.679,    3.724,   -2.763,    8.276,   -4.518,
       -3.946,   -2.504,   -7.587,   -0.553,   -4.808,    0.383,   -2.251,
        0.799,    0.573,    0.762,   -0.962
    },
    {   0.013,   -0.100,    0.015,    0.103,   -0.023,    0.000,   -0.001,
       -0.058,   -0.031,    0.038,   -0.059,   -0.122,    0.014,   -0.027,
        0.004,   -0.237,    0.048,   -0.116,    0.035,   -0.027,    0.034,
       -0.143,   -0.021,    0.053,    0.011,    0.007,   -0.046,   -0.018,
       -0.009,   -0.131,   -2.395,    3.418,   -2.657,    8.043,   -4.487,
       -4.151,   -2.378,   -7.695,   -1.072,   -4.405,    0.713,   -2.062,
        0.568,    0.555,    0.809,   -0.809
    },
    {   0.010,   -0.189,    0.014,    0.045,   -0.001,    0.052,    0.009,
       -0.139,   -0.011,    0.047,   -0.017,    0.103,   -0.010,    0.028,
       -0.004,   -0.246,    0.029,   -0.205,   -0.012,    0.085,    0.029,
       -0.069,   -0.011,    0.138,    0.022,   -0.042,   -0.044,    0.071,
       -0.002,   -0.121,   -2.586,    3.409,   -3.013,    8.597,   -4.250,
       -4.085,   -2.248,   -7.749,   -0.901,   -4.030,    0.948,   -2.365,
        0.577,    0.010,    0.639,   -0.915
    },
    {   0.031,    0.010,   -0.103,    0.039,   -0.035,    0.046,   -0.024,
       -0.037,   -0.074,    0.060,    0.068,   -0.036,    0.037,   -0.040,
       -0.012,   -0.125,    0.041,   -0.051,    0.069,    0.001,   -0.033,
        0.018,    0.062,    0.088,   -0.098,    0.007,    0.116,    0.037,
        0.056,   -0.046,   -2.762,    3.379,   -3.582,    8.574,   -4.159,
       -3.516,   -2.197,   -7.595,   -1.223,   -3.819,    0.563,   -2.121,
        1.274,    0.403,    0.353,   -1.144
    },
    {   0.026,    0.107,    0.090,   -0.011,    0.063,    0.020,    0.029,
        0.022,    0.031,    0.071,    0.059,    0.014,   -0.008,   -0.120,
        0.031,   -0.047,    0.039,    0.022,   -0.030,    0.049,    0.026,
        0.008,   -0.004,    0.013,   -0.001,    0.045,   -0.007,    0.030,
        0.013,   -0.007,   -2.398,    3.360,   -3.805,    9.014,   -4.350,
       -3.735,   -2.259,   -7.516,   -1.336,   -4.255,   -0.026,   -2.218,
        1.269,    0.345,    0.121,   -1.949
    },
    {   0.070,   -0.063,    0.005,   -0.022,    0.018,   -0.001,    0.041,
        0.017,    0.005,   -0.071,    0.140,    0.042,   -0.070,   -0.132,
        0.076,    0.001,    0.005,   -0.019,    0.020,   -0.058,    0.002,
       -0.063,    0.046,    0.005,   -0.027,    0.003,    0.107,   -0.018,
        0.016,   -0.013,   -3.076,    3.551,   -3.351,    8.861,   -4.486,
       -3.384,   -2.257,   -7.508,   -0.879,   -4.704,    0.001,   -2.395,
        1.675,    0.370,    0.311,   -1.696
    },
    {   0.113,   -0.043,    0.033,   -0.063,    0.008,    0.110,   -0.074,
        0.038,   -0.026,   -0.023,    0.079,   -0.009,    0.032,    0.012,
        0.023,   -0.003,   -0.006,   -0.031,    0.134,   -0.032,    0.023,
       -0.003,   -0.015,    0.057,    0.119,    0.016,   -0.061,   -0.033,
       -0.053,    0.038,   -3.145,    3.970,   -3.076,    8.983,   -3.679,
       -3.657,   -2.190,   -7.585,   -0.552,   -4.996,    0.376,   -2.289,
        2.267,    0.139,    0.087,   -1.854
    },
    {   0.029,    0.064,    0.012,   -0.042,    0.015,    0.139,   -0.035,
        0.125,   -0.007,    0.079,    0.012,    0.044,    0.018,    0.012,
       -0.016,    0.141,   -0.006,   -0.073,    0.005,    0.004,   -0.001,
        0.018,   -0.067,    0.185,   -0.062,   -0.004,   -0.016,   -0.024,
        0.061,    0.044,   -2.664,    3.929,   -3.016,    8.178,   -3.574,
       -3.949,   -2.267,   -7.818,   -0.424,   -4.987,    0.416,   -2.705,
        2.174,    0.436,    0.239,   -1.903
    },
    {  -0.132,    0.083,   -0.016,   -0.094,   -0.026,    0.126,    0.077,
        0.133,    0.051,   -0.074,   -0.110,    0.121,   -0.079,    0.084,
       -0.038,    0.041,    0.017,   -0.024,   -0.038,    0.023,   -0.055,
        0.081,    0.060,    0.181,    0.060,    0.118,    0.074,    0.015,
       -0.081,   -0.106,   -2.822,    4.092,   -3.240,    7.790,   -3.276,
       -3.966,   -2.414,   -7.937,   -0.809,   -4.633,    0.813,   -2.543,
        2.533,    0.016,    0.206,   -1.850
    },
    {  -0.016,    0.040,    0.047,   -0.087,    0.009,    0.051,    0.002,
        0.115,   -0.009,   -0.084,   -0.029,    0.063,    0.027,    0.093,
        0.001,    0.071,   -0.016,   -0.094,   -0.044,    0.068,   -0.011,
        0.017,    0.025,    0.113,    0.011,    0.103,    0.036,   -0.074,
       -0.030,   -0.214,   -2.716,    3.755,   -3.370,    7.718,   -2.498,
       -4.088,   -2.549,   -7.952,   -0.949,   -5.371,    0.722,   -2.787,
        2.530,   -0.306,   -0.027,   -1.969
    },
    {  -0.011,    0.020,    0.008,   -0.142,   -0.004,   -0.014,    0.005,
       -0.042,   -0.008,   -0.082,   -0.092,    0.074,    0.038,    0.089,
       -0.023,   -0.124,    0.023,   -0.018,   -0.092,   -0.046,   -0.002,
       -0.107,    0.064,    0.172,    0.018,    0.144,    0.047,   -0.139,
        0.049,   -0.172,   -2.430,    3.941,   -3.549,    7.837,   -2.610,
       -4.180,   -2.459,   -8.202,   -0.653,   -5.734,    0.441,   -3.138,
        2.223,    0.130,   -0.171,   -1.563
    },
    {   0.031,    0.031,    0.020,   -0.155,   -0.061,   -0.007,   -0.063,
       -0.138,   -0.038,   -0.031,   -0.176,    0.071,    0.051,   -0.001,
       -0.033,   -0.013,    0.033,    0.046,   -0.053,    0.021,    0.002,
       -0.024,   -0.028,    0.084,    0.039,    0.028,    0.043,   -0.047,
        0.094,   -0.082,   -2.301,    4.419,   -3.982,    8.018,   -3.035,
       -4.050,   -2.229,   -8.213,   -0.517,   -5.592,    0.638,   -2.882,
        2.156,    0.331,    0.412,   -0.941
    },
    {  -0.152,    0.001,    0.048,    0.094,    0.031,    0.069,    0.225,
        0.009,   -0.118,    0.046,    0.188,   -0.072,   -0.074,   -0.020,
        0.030,    0.020,    0.031,   -0.119,   -0.047,    0.055,    0.030,
       -0.041,   -0.061,   -0.020,    0.122,    0.021,   -0.129,    0.104,
        0.026,   -0.083,   -1.743,    4.515,   -3.762,    8.375,   -3.035,
       -4.165,   -2.015,   -8.252,   -0.676,   -5.728,    0.511,   -2.279,
        1.947,    0.148,   -0.123,   -1.232
    },
    {  -0.147,    0.005,    0.014,    0.017,    0.010,    0.022,    0.098,
        0.021,   -0.076,    0.004,    0.247,    0.008,   -0.169,   -0.130,
        0.235,   -0.002,    0.201,   -0.034,   -0.089,   -0.021,    0.110,
        0.020,    0.058,    0.021,    0.087,   -0.061,   -0.258,    0.010,
       -0.015,    0.060,   -1.581,    4.418,   -3.494,    8.465,   -2.860,
       -3.991,   -1.889,   -8.171,   -0.407,   -5.900,    0.332,   -2.299,
        1.788,    0.791,    0.313,   -0.795
    },
    {  -0.229,    0.012,    0.030,   -0.020,    0.103,   -0.056,    0.156,
       -0.013,   -0.041,   -0.030,    0.138,   -0.034,   -0.087,   -0.086,
        0.203,    0.037,    0.111,   -0.092,   -0.141,    0.056,    0.046,
        0.018,    0.003,    0.005,    0.123,   -0.032,   -0.226,    0.057,
        0.070,   -0.021,   -1.671,    4.106,   -3.178,    7.982,   -2.925,
       -3.934,   -2.020,   -8.036,   -0.394,   -5.954,    0.233,   -2.196,
        2.238,    0.359,   -0.008,   -1.225
    },
    {  -0.158,    0.088,   -0.165,   -0.052,    0.018,   -0.006,    0.297,
       -0.078,    0.030,    0.066,    0.197,    0.029,    0.044,   -0.044,
        0.224,    0.224,   -0.009,   -0.126,   -0.087,    0.000,    0.185,
        0.028,    0.107,   -0.026,    0.229,    0.079,   -0.187,   -0.011,
        0.078,   -0.038,   -0.992,    3.654,   -2.843,    8.358,   -2.479,
       -4.444,   -1.905,   -7.870,   -0.317,   -5.511,   -0.001,   -1.908,
        2.197,    0.101,    0.011,   -1.041
    },
    {  -0.023,   -0.030,   -0.123,   -0.112,   -0.004,   -0.061,    0.201,
        0.074,    0.086,   -0.040,    0.178,    0.177,   -0.047,   -0.153,
        0.192,    0.083,    0.092,   -0.088,   -0.123,   -0.066,    0.151,
       -0.098,   -0.048,   -0.058,    0.276,    0.016,   -0.212,    0.201,
        0.140,    0.013,   -0.822,    3.575,   -3.017,    8.350,   -2.349,
       -4.556,   -2.310,   -7.916,   -0.262,   -6.025,    0.265,   -2.589,
        2.139,    0.125,   -0.089,   -0.891
    },
    {   0.099,   -0.106,   -0.118,   -0.108,   -0.128,   -0.016,    0.211,
       -0.020,    0.018,   -0.038,    0.085,    0.208,    0.005,   -0.179,
        0.189,    0.067,    0.056,    0.023,   -0.075,   -0.074,    0.023,
       -0.144,   -0.081,   -0.010,    0.350,   -0.048,   -0.155,    0.017,
        0.129,    0.117,   -1.054,    4.048,   -3.066,    8.997,   -2.337,
       -4.624,   -2.014,   -8.538,    0.073,   -6.050,    0.302,   -2.360,
        1.646,    0.186,   -0.061,   -0.732
    },
    {   0.040,    0.031,   -0.065,    0.026,   -0.131,   -0.003,    0.181,
       -0.069,   -0.111,   -0.018,    0.183,   -0.020,   -0.032,   -0.161,
        0.195,   -0.004,    0.031,    0.068,    0.088,    0.020,    0.105,
        0.015,   -0.151,    0.023,    0.422,   -0.015,   -0.247,   -0.069,
        0.129,    0.060,   -1.306,    3.473,   -3.100,    8.727,   -2.693,
       -4.690,   -1.564,   -8.275,    0.372,   -5.992,    0.254,   -2.282,
        1.634,   -0.039,   -0.387,   -0.940
    },
    {  -0.001,   -0.001,    0.015,    0.001,   -0.108,    0.030,    0.201,
        0.046,   -0.122,   -0.065,    0.368,    0.034,   -0.069,   -0.208,
        0.172,   -0.042,    0.091,    0.112,    0.087,    0.080,    0.131,
        0.020,    0.006,    0.035,    0.350,    0.061,   -0.208,    0.002,
        0.180,    0.127,   -0.713,    3.878,   -3.540,    9.166,   -2.687,
       -4.456,   -1.630,   -7.998,    0.562,   -6.012,   -0.211,   -2.122,
        1.439,   -0.180,   -0.059,   -0.938
    },
    {   0.062,   -0.061,   -0.068,   -0.075,   -0.004,    0.007,    0.111,
        0.068,    0.039,   -0.097,    0.355,    0.055,   -0.200,   -0.128,
       -0.122,   -0.052,    0.322,   -0.035,    0.067,    0.052,    0.069,
        0.043,   -0.131,   -0.038,    0.381,    0.116,   -0.229,    0.048,
        0.182,    0.032,   -0.839,    3.779,   -3.681,    9.498,   -2.802,
       -4.156,   -2.068,   -8.431,    1.013,   -5.708,    0.028,   -2.451,
        1.622,   -0.469,    0.088,   -1.540
    },
    {   0.001,    0.009,    0.086,   -0.104,   -0.042,    0.030,    0.013,
        0.015,   -0.043,    0.001,    0.403,   -0.046,   -0.306,   -0.168,
       -0.112,   -0.122,    0.309,    0.061,   -0.004,    0.114,    0.170,
        0.065,   -0.282,   -0.046,    0.256,    0.159,   -0.151,    0.160,
        0.344,    0.042,   -0.602,    3.227,   -3.226,    9.444,   -3.272,
       -5.078,   -1.877,   -8.107,    0.791,   -5.292,   -0.035,   -2.352,
        1.863,   -0.621,    0.170,   -1.520
    },
    {   0.077,   -0.074,   -0.139,   -0.033,   -0.023,    0.060,    0.112,
        0.074,   -0.028,   -0.048,    0.289,    0.028,   -0.095,   -0.154,
       -0.165,    0.043,    0.199,    0.052,   -0.057,    0.033,    0.160,
        0.070,   -0.087,    0.006,    0.328,    0.041,   -0.253,    0.090,
        0.282,    0.082,   -0.518,    3.464,   -3.181,    9.425,   -3.341,
       -5.160,   -2.078,   -8.044,    0.885,   -5.879,    0.226,   -2.311,
        2.037,   -0.679,    0.530,   -1.317
    },
    {   0.089,   -0.042,   -0.123,   -0.014,    0.050,    0.006,    0.200,
        0.125,    0.096,   -0.043,    0.381,   -0.029,   -0.095,   -0.190,
       -0.120,    0.035,    0.208,    0.019,   -0.005,   -0.027,    0.136,
        0.015,   -0.002,    0.109,    0.388,    0.074,   -0.248,    0.030,
        0.230,    0.105,   -0.476,    3.571,   -2.915,    9.359,   -3.464,
       -5.113,   -2.340,   -7.603,    0.653,   -5.635,    0.216,   -2.143,
        1.819,   -0.141,    0.397,   -1.811
    },
    {   0.129,   -0.056,    0.010,   -0.051,    0.029,   -0.048,    0.344,
       -0.004,    0.082,   -0.014,    0.444,   -0.170,   -0.070,   -0.152,
       -0.040,    0.052,    0.105,   -0.035,    0.027,   -0.072,    0.129,
       -0.048,   -0.079,   -0.056,    0.259,   -0.008,   -0.185,    0.035,
        0.139,    0.019,   -0.548,    3.712,   -2.764,    9.237,   -3.147,
       -4.925,   -1.704,   -7.737,    0.336,   -5.831,    0.196,   -1.607,
        2.365,   -0.068,   -0.012,   -1.662
    },
    {   0.090,   -0.075,   -0.021,    0.002,   -0.002,   -0.099,    0.233,
       -0.024,    0.093,   -0.055,    0.448,   -0.047,   -0.040,   -0.125,
       -0.002,    0.022,    0.146,   -0.195,    0.102,    0.017,    0.130,
       -0.029,   -0.015,   -0.030,    0.350,   -0.043,   -0.279,    0.036,
        0.098,    0.039,   -0.433,    3.617,   -3.370,    9.341,   -2.946,
       -4.984,   -1.530,   -7.495,    0.230,   -5.902,    0.831,   -1.576,
        2.442,    0.032,    0.017,   -2.050
    },
    {   0.013,    0.019,   -0.036,    0.086,   -0.001,   -0.080,    0.279,
       -0.013,    0.156,   -0.039,    0.600,   -0.000,   -0.049,   -0.136,
       -0.036,    0.026,    0.088,   -0.195,    0.086,    0.126,    0.053,
        0.012,    0.065,   -0.106,    0.424,   -0.061,   -0.340,   -0.043,
        0.166,    0.041,   -0.369,    3.627,   -3.335,    8.945,   -3.176,
       -4.581,   -1.168,   -7.093,    0.197,   -6.339,    0.661,   -1.945,
        2.496,    0.194,    0.011,   -1.758
    },
    {  -0.067,   -0.092,   -0.051,   -0.099,   -0.159,   -0.047,    0.221,
       -0.040,    0.051,   -0.020,    0.482,    0.061,   -0.095,   -0.107,
       -0.022,   -0.030,   -0.047,   -0.116,    0.027,    0.079,    0.139,
        0.004,    0.007,   -0.097,    0.368,   -0.065,   -0.214,    0.018,
        0.183,   -0.025,   -0.227,    3.872,   -3.858,    8.657,   -3.196,
       -4.574,   -1.405,   -7.356,   -0.317,   -5.894,    0.680,   -2.308,
        2.178,    0.364,   -0.119,   -1.838
    },
    {   0.083,    0.135,   -0.003,    0.020,   -0.135,   -0.023,    0.217,
       -0.106,    0.084,   -0.054,    0.250,   -0.003,   -0.020,   -0.111,
       -0.194,    0.037,   -0.003,    0.008,    0.022,    0.011,    0.045,
        0.074,   -0.052,   -0.074,    0.379,   -0.051,   -0.221,    0.066,
        0.015,    0.038,   -0.335,    3.672,   -3.569,    8.924,   -3.219,
       -5.116,   -2.014,   -7.081,   -0.244,   -5.927,    0.318,   -2.199,
        2.474,    0.568,    0.200,   -1.787
    },
    {   0.068,    0.058,    0.199,   -0.026,    0.026,   -0.017,    0.318,
       -0.052,    0.138,    0.003,    0.346,   -0.003,    0.011,   -0.043,
       -0.190,    0.085,   -0.092,   -0.106,    0.118,   -0.074,    0.148,
       -0.010,   -0.043,   -0.045,    0.184,   -0.025,   -0.072,    0.066,
        0.215,   -0.017,    0.034,    3.489,   -3.540,    8.898,   -4.127,
       -5.016,   -1.071,   -7.204,   -0.390,   -5.728,    0.433,   -1.876,
        1.917,   -0.082,    0.238,   -1.792
    },
    {   0.089,    0.090,    0.178,    0.032,    0.021,   -0.000,    0.314,
       -0.004,    0.177,    0.004,    0.344,   -0.028,    0.023,   -0.021,
       -0.213,    0.018,   -0.024,   -0.131,    0.130,   -0.024,    0.128,
       -0.061,   -0.065,   -0.041,    0.180,    0.020,   -0.125,    0.031,
        0.130,   -0.017,    0.259,    2.718,   -3.628,    9.301,   -4.023,
       -4.543,   -0.756,   -6.727,   -0.514,   -5.906,    0.411,   -1.605,
        1.657,   -0.073,    0.236,   -2.080
    },
    {   0.015,    0.024,    0.201,    0.014,   -0.023,    0.017,    0.364,
       -0.016,    0.053,    0.038,    0.242,   -0.017,   -0.079,   -0.010,
       -0.145,    0.073,    0.028,   -0.165,    0.054,   -0.022,    0.158,
       -0.029,   -0.141,    0.028,    0.347,   -0.078,   -0.185,    0.044,
        0.025,    0.006,    0.248,    2.743,   -3.744,    9.648,   -3.901,
       -4.554,   -1.213,   -6.711,   -1.036,   -5.860,    0.342,   -1.412,
        2.042,   -0.020,    0.366,   -1.733
    },
    {   0.023,    0.017,    0.048,    0.063,   -0.177,    0.023,    0.257,
       -0.018,    0.032,   -0.111,    0.165,    0.009,   -0.051,   -0.020,
       -0.213,   -0.048,    0.026,   -0.037,   -0.044,   -0.016,    0.056,
       -0.018,    0.001,    0.016,    0.237,    0.011,   -0.080,    0.016,
        0.203,    0.020,    0.338,    3.045,   -3.431,    9.348,   -3.517,
       -4.704,   -1.108,   -7.212,   -1.208,   -6.085,    0.041,   -1.343,
        1.993,   -0.363,    0.287,   -1.773
    },
    {   0.020,   -0.076,    0.174,    0.001,   -0.029,    0.018,    0.249,
        0.077,    0.025,   -0.140,    0.175,    0.039,    0.142,   -0.044,
       -0.045,    0.065,   -0.034,   -0.096,   -0.107,    0.017,    0.065,
       -0.051,   -0.010,   -0.043,    0.076,   -0.089,   -0.168,   -0.051,
        0.086,   -0.019,    0.279,    3.053,   -3.131,    9.045,   -3.763,
       -4.609,   -0.587,   -6.822,   -1.041,   -6.016,   -0.162,   -1.404,
        1.973,   -0.340,    0.718,   -2.076
    },
    {   0.069,    0.067,    0.187,    0.017,    0.084,   -0.000,    0.238,
        0.054,    0.029,   -0.156,    0.052,    0.049,    0.285,    0.045,
       -0.002,    0.022,   -0.000,   -0.038,   -0.062,    0.041,   -0.005,
        0.030,   -0.004,    0.148,   -0.093,    0.062,   -0.125,   -0.051,
        0.082,   -0.142,    0.257,    3.159,   -3.171,    9.338,   -4.198,
       -4.634,   -0.518,   -6.975,   -0.645,   -6.183,    0.024,   -2.008,
        1.840,   -0.505,    0.479,   -2.323
    },
    {   0.047,   -0.013,    0.196,   -0.029,    0.023,    0.042,    0.226,
        0.070,    0.067,   -0.121,    0.045,    0.021,    0.196,    0.030,
       -0.025,   -0.019,    0.029,    0.000,   -0.052,   -0.023,    0.030,
       -0.071,   -0.003,    0.170,   -0.023,    0.025,   -0.065,   -0.018,
        0.101,   -0.106,    0.705,    3.121,   -3.364,    8.971,   -4.037,
       -3.953,   -0.425,   -7.419,   -0.655,   -5.746,   -0.305,   -1.618,
        1.639,   -0.268,    0.573,   -2.250
    },
    {  -0.141,    0.030,    0.196,   -0.054,   -0.015,    0.085,    0.109,
        0.021,    0.039,   -0.063,   -0.041,    0.061,    0.089,    0.077,
       -0.036,    0.091,    0.121,   -0.030,   -0.065,    0.082,    0.059,
       -0.035,   -0.012,    0.057,    0.023,    0.004,    0.005,    0.020,
        0.036,   -0.080,    0.621,    3.142,   -3.506,    9.109,   -3.897,
       -4.282,   -0.171,   -7.546,   -1.266,   -5.503,   -0.450,   -2.128,
        1.998,   -0.228,    0.275,   -2.104
    },
    {  -0.147,   -0.044,    0.045,   -0.093,   -0.081,    0.018,   -0.066,
        0.124,   -0.027,   -0.092,    0.030,    0.053,    0.151,   -0.004,
       -0.005,    0.045,    0.074,   -0.108,   -0.068,    0.034,    0.069,
       -0.126,   -0.027,    0.057,    0.027,    0.004,    0.048,    0.001,
        0.158,   -0.003,    0.381,    3.407,   -3.257,    9.394,   -3.938,
       -4.207,   -0.686,   -7.710,   -1.497,   -5.016,   -0.417,   -2.517,
        1.357,   -0.654,   -0.428,   -1.922
    },
    {  -0.045,   -0.000,    0.017,    0.035,   -0.200,    0.047,   -0.083,
        0.079,    0.070,   -0.041,    0.045,    0.151,    0.176,    0.017,
       -0.147,   -0.006,   -0.021,   -0.186,    0.025,   -0.076,   -0.027,
       -0.054,    0.052,    0.037,   -0.010,   -0.120,    0.041,   -0.071,
        0.014,    0.104,    0.289,    3.273,   -2.991,    9.345,   -3.769,
       -4.212,   -0.643,   -7.725,   -1.377,   -5.086,   -0.689,   -2.776,
        1.613,   -0.921,   -0.223,   -1.893
    },
    {  -0.070,    0.005,    0.033,   -0.012,   -0.105,    0.038,    0.009,
        0.060,    0.132,   -0.027,    0.095,    0.023,    0.074,    0.044,
        0.023,    0.016,    0.002,   -0.228,    0.016,   -0.090,   -0.065,
       -0.013,   -0.043,   -0.072,   -0.116,   -0.066,   -0.005,   -0.026,
        0.097,   -0.041,    0.005,    3.426,   -3.274,    9.572,   -3.552,
       -4.254,   -0.582,   -8.012,   -1.517,   -4.842,   -0.826,   -2.304,
        1.580,   -0.537,   -0.609,   -1.657
    },
    {  -0.054,    0.025,    0.175,    0.034,   -0.050,   -0.013,    0.125,
       -0.035,    0.062,   -0.038,    0.016,   -0.104,   -0.008,   -0.014,
        0.091,    0.037,    0.072,   -0.178,    0.092,    0.013,   -0.029,
        0.029,   -0.151,    0.047,   -0.041,   -0.032,    0.056,   -0.006,
        0.098,   -0.007,   -0.062,    3.232,   -3.068,   10.262,   -3.133,
       -3.333,   -0.543,   -7.851,   -1.071,   -4.993,   -0.696,   -2.245,
        1.699,   -0.171,   -0.628,   -1.425
    },
    {   0.065,    0.120,    0.098,    0.065,   -0.119,   -0.008,    0.053,
        0.032,    0.089,   -0.045,    0.067,    0.017,    0.091,   -0.013,
       -0.011,    0.066,    0.033,   -0.162,    0.094,    0.047,   -0.040,
       -0.057,    0.007,   -0.026,   -0.099,   -0.121,    0.080,    0.045,
        0.119,   -0.099,   -0.111,    3.255,   -3.466,    9.569,   -2.583,
       -3.045,   -0.385,   -7.570,   -1.033,   -4.591,   -0.167,   -2.107,
        2.056,   -0.589,   -0.395,   -1.514
    },
    {   0.089,    0.145,    0.102,   -0.022,   -0.052,    0.004,    0.083,
       -0.043,    0.010,    0.010,    0.094,    0.047,    0.224,    0.034,
        0.055,    0.028,   -0.020,   -0.081,    0.021,   -0.051,   -0.032,
       -0.123,   -0.079,    0.040,   -0.043,   -0.022,   -0.065,    0.036,
        0.014,   -0.061,   -0.115,    3.599,   -3.610,   10.053,   -2.492,
       -3.257,   -0.740,   -8.553,   -1.100,   -4.306,   -0.064,   -2.512,
        0.732,   -0.640,   -0.589,   -1.140
    },
    {  -0.055,    0.083,    0.112,   -0.139,   -0.067,   -0.035,    0.071,
       -0.158,   -0.028,    0.091,    0.020,   -0.067,    0.137,    0.014,
        0.054,    0.069,   -0.061,   -0.065,    0.040,    0.026,    0.046,
       -0.076,    0.002,    0.066,   -0.043,   -0.045,    0.057,    0.179,
       -0.044,   -0.156,   -0.421,    3.824,   -4.000,    9.732,   -2.351,
       -3.400,   -0.242,   -8.032,   -0.732,   -4.195,    0.224,   -2.299,
        0.454,   -0.982,   -0.370,   -1.376
    },
    {   0.015,    0.068,    0.175,   -0.125,   -0.138,   -0.033,    0.080,
       -0.123,   -0.011,    0.102,    0.061,   -0.121,    0.111,    0.002,
        0.038,    0.029,   -0.108,   -0.091,    0.156,   -0.082,    0.015,
       -0.221,    0.015,    0.033,   -0.032,    0.005,    0.107,    0.076,
        0.202,   -0.034,    0.120,    3.368,   -3.376,    9.650,   -2.243,
       -3.471,   -0.027,   -8.081,   -0.146,   -4.240,    0.209,   -2.142,
        0.405,   -0.443,   -0.426,   -1.538
    },
    {  -0.041,    0.182,    0.147,   -0.063,   -0.157,   -0.011,    0.037,
       -0.024,   -0.100,    0.039,    0.056,   -0.045,    0.083,    0.008,
        0.058,    0.016,   -0.030,   -0.060,    0.143,    0.004,    0.007,
       -0.068,    0.037,    0.110,    0.018,   -0.009,    0.117,    0.102,
        0.101,   -0.111,   -0.062,    3.304,   -3.028,    9.583,   -2.594,
       -3.557,   -0.626,   -8.170,   -0.078,   -4.140,    0.289,   -2.679,
        0.098,   -0.805,   -0.836,   -1.577
    },
    {  -0.045,    0.137,    0.051,    0.010,   -0.135,    0.001,    0.079,
        0.068,    0.060,   -0.011,   -0.008,    0.042,    0.081,   -0.081,
        0.093,    0.016,   -0.018,    0.006,   -0.089,   -0.045,    0.020,
       -0.016,    0.006,    0.036,    0.028,   -0.029,    0.013,    0.044,
        0.016,   -0.070,   -0.025,    3.589,   -3.090,    9.269,   -2.352,
       -3.303,   -0.827,   -8.245,   -0.094,   -4.431,    0.302,   -2.679,
        0.629,   -1.469,   -0.588,   -1.272
    },
    {  -0.018,    0.206,    0.037,   -0.053,   -0.100,   -0.023,   -0.045,
       -0.009,    0.034,   -0.047,    0.068,    0.028,    0.067,   -0.056,
       -0.101,    0.005,    0.150,    0.033,    0.181,   -0.111,    0.004,
        0.007,   -0.040,   -0.111,    0.053,   -0.040,    0.031,   -0.139,
        0.092,    0.057,   -0.088,    3.603,   -3.180,    9.630,   -2.541,
       -3.372,   -0.680,   -8.239,   -0.115,   -4.352,    0.180,   -2.552,
        0.374,   -1.642,   -0.653,   -1.581
    },
    {  -0.032,    0.028,    0.003,   -0.033,   -0.244,    0.009,   -0.097,
        0.004,   -0.002,   -0.024,   -0.149,   -0.052,   -0.007,   -0.080,
       -0.021,    0.116,    0.143,    0.053,    0.061,   -0.119,   -0.087,
       -0.127,    0.015,   -0.044,    0.068,   -0.050,    0.004,   -0.087,
        0.107,    0.047,   -0.062,    3.713,   -3.096,    9.036,   -2.656,
       -3.346,   -0.524,   -8.197,   -0.178,   -4.545,    0.920,   -2.989,
        0.349,   -1.455,   -0.535,   -2.222
    },
    {   0.033,    0.132,    0.191,    0.016,   -0.185,   -0.065,   -0.114,
        0.222,   -0.028,   -0.209,   -0.246,   -0.208,    0.031,   -0.071,
        0.123,    0.048,    0.177,   -0.025,    0.251,   -0.137,   -0.117,
       -0.038,    0.072,   -0.040,    0.051,   -0.029,    0.063,   -0.052,
        0.123,    0.026,   -0.504,    4.115,   -3.258,    9.254,   -2.337,
       -4.090,   -1.279,   -7.791,    0.083,   -4.676,    1.346,   -3.074,
        0.479,   -1.379,   -0.421,   -2.195
    },
    {  -0.047,    0.167,    0.195,    0.017,   -0.174,   -0.051,   -0.010,
        0.321,   -0.045,   -0.292,   -0.245,   -0.147,    0.052,   -0.039,
       -0.024,    0.022,    0.023,   -0.071,    0.108,    0.057,   -0.038,
       -0.011,    0.146,   -0.050,    0.075,   -0.111,    0.014,   -0.080,
        0.055,   -0.012,    0.033,    4.296,   -3.177,    9.420,   -2.831,
       -3.580,   -0.071,   -8.291,    0.127,   -3.876,    0.398,   -2.716,
        0.848,   -1.280,   -0.574,   -2.427
    },
    {  -0.077,    0.045,    0.117,    0.062,   -0.201,   -0.045,   -0.048,
        0.173,   -0.058,   -0.173,   -0.095,   -0.155,    0.042,   -0.108,
       -0.001,    0.037,    0.001,   -0.127,   -0.009,    0.148,    0.011,
        0.090,    0.009,   -0.038,    0.010,   -0.168,   -0.093,   -0.134,
       -0.059,    0.095,   -0.222,    4.617,   -2.909,    9.882,   -2.908,
       -3.530,   -0.334,   -8.698,    0.132,   -4.278,    0.356,   -2.537,
        1.070,   -1.649,   -0.450,   -2.426
    },
    {  -0.013,    0.026,    0.065,    0.128,   -0.190,   -0.096,   -0.026,
        0.131,   -0.050,   -0.169,   -0.035,   -0.008,    0.045,   -0.158,
        0.001,    0.037,    0.059,   -0.106,    0.064,    0.299,    0.043,
        0.026,    0.024,   -0.008,    0.016,   -0.116,   -0.047,   -0.072,
       -0.037,    0.110,   -0.318,    5.013,   -2.594,    9.685,   -3.143,
       -3.235,   -0.218,   -9.308,   -0.162,   -4.315,    1.166,   -2.653,
        0.417,   -0.938,   -0.388,   -2.136
    },
    {   0.005,    0.014,    0.013,    0.012,   -0.092,   -0.119,    0.004,
        0.081,    0.067,   -0.234,   -0.044,    0.006,    0.076,   -0.103,
        0.042,   -0.050,    0.053,   -0.047,   -0.118,    0.165,    0.005,
       -0.057,   -0.005,   -0.042,   -0.153,   -0.070,   -0.038,   -0.157,
        0.032,    0.078,   -0.662,    5.104,   -2.638,    9.430,   -3.172,
       -3.874,   -0.342,   -9.660,   -0.447,   -4.240,    0.782,   -2.862,
        0.596,   -1.083,   -1.059,   -2.340
    },
    {  -0.199,   -0.013,    0.058,   -0.012,   -0.070,    0.061,   -0.006,
       -0.070,   -0.025,   -0.239,    0.046,   -0.026,    0.022,   -0.013,
       -0.007,   -0.078,   -0.175,   -0.003,    0.037,    0.113,    0.016,
        0.089,   -0.067,    0.045,    0.132,    0.044,    0.101,   -0.060,
        0.052,    0.211,   -1.015,    5.209,   -2.615,    9.425,   -3.197,
       -3.547,   -0.278,   -9.424,   -0.366,   -4.040,    0.276,   -2.771,
        0.493,   -0.716,   -1.253,   -2.360
    },
    {  -0.144,   -0.012,    0.018,    0.029,   -0.164,    0.117,    0.019,
       -0.061,   -0.101,   -0.224,    0.008,   -0.114,    0.012,    0.005,
        0.039,   -0.120,   -0.161,    0.030,    0.062,    0.172,    0.097,
        0.133,   -0.041,    0.140,    0.131,    0.063,    0.121,    0.173,
       -0.024,    0.180,   -0.735,    5.372,   -2.750,    9.245,   -3.484,
       -4.078,   -0.465,   -9.381,   -0.147,   -3.835,    0.349,   -2.650,
        0.935,   -0.675,   -1.721,   -2.005
    },
    {  -0.119,    0.026,    0.109,   -0.040,   -0.016,    0.016,    0.002,
       -0.069,   -0.228,   -0.212,    0.015,    0.065,    0.029,    0.066,
       -0.092,   -0.185,    0.028,   -0.097,    0.142,    0.107,    0.128,
       -0.076,   -0.238,    0.241,   -0.004,    0.112,    0.003,    0.054,
        0.097,   -0.011,   -1.423,    5.579,   -2.631,    9.754,   -2.569,
       -3.698,    0.100,   -9.645,    0.021,   -4.256,   -0.091,   -2.211,
        0.416,   -0.822,   -1.113,   -2.203
    },
    {  -0.001,    0.121,    0.183,    0.079,   -0.073,    0.006,    0.049,
       -0.023,   -0.189,   -0.230,    0.078,    0.122,   -0.003,    0.035,
       -0.051,   -0.125,    0.118,    0.027,    0.186,    0.213,    0.058,
       -0.137,   -0.156,    0.099,   -0.074,    0.142,    0.052,    0.002,
        0.187,   -0.060,   -0.989,    5.489,   -2.741,    9.914,   -2.420,
       -3.810,    0.324,   -9.695,    0.252,   -4.018,   -0.358,   -2.441,
        0.463,   -1.292,   -0.976,   -2.372
    },
    {  -0.150,    0.016,    0.143,    0.019,   -0.132,   -0.013,   -0.067,
        0.012,   -0.068,   -0.208,    0.145,   -0.011,   -0.020,   -0.052,
       -0.134,   -0.113,   -0.030,   -0.045,    0.296,    0.076,    0.077,
       -0.012,   -0.166,    0.084,    0.023,    0.109,    0.125,   -0.038,
        0.162,    0.045,   -0.326,    4.912,   -2.503,    9.884,   -2.728,
       -3.410,    0.038,   -9.382,    0.042,   -4.450,   -0.278,   -2.252,
        0.364,   -1.000,   -0.850,   -1.954
    },
    {  -0.102,   -0.072,    0.220,    0.090,   -0.042,    0.030,    0.071,
       -0.119,   -0.140,   -0.174,    0.216,   -0.012,   -0.043,   -0.049,
       -0.201,   -0.122,    0.068,    0.049,    0.388,    0.045,    0.058,
       -0.013,   -0.003,    0.078,    0.006,    0.083,    0.088,   -0.138,
        0.149,   -0.093,   -0.862,    4.997,   -2.724,   10.325,   -2.598,
       -3.276,   -0.296,   -9.202,   -0.056,   -4.610,   -0.370,   -2.256,
        0.657,   -0.981,   -1.010,   -1.969
    },
    {  -0.244,   -0.038,    0.224,    0.034,   -0.066,    0.025,    0.101,
       -0.040,   -0.184,   -0.086,    0.244,   -0.034,   -0.085,   -0.066,
       -0.049,   -0.009,    0.072,    0.018,    0.484,   -0.032,    0.080,
       -0.013,   -0.011,    0.075,    0.001,    0.032,    0.153,   -0.110,
        0.016,    0.019,   -0.420,    5.048,   -2.522,   10.143,   -2.805,
       -3.581,   -0.144,   -9.184,   -0.064,   -4.717,   -0.396,   -2.358,
        0.445,   -0.517,   -1.425,   -1.811
    },
    {  -0.272,   -0.010,    0.235,   -0.002,   -0.152,   -0.031,   -0.019,
       -0.036,   -0.195,   -0.029,    0.242,   -0.044,   -0.121,   -0.087,
       -0.084,   -0.015,    0.090,   -0.073,    0.364,    0.054,   -0.034,
       -0.021,   -0.150,    0.027,    0.146,   -0.012,   -0.019,   -0.013,
        0.044,    0.012,   -0.644,    4.543,   -2.298,    9.976,   -2.972,
       -3.534,    0.131,   -9.532,   -0.751,   -4.750,   -0.576,   -2.319,
        0.582,   -0.879,   -1.973,   -1.748
    },
    {  -0.183,    0.019,    0.172,    0.001,   -0.052,    0.050,   -0.053,
       -0.017,   -0.151,   -0.016,    0.091,   -0.008,    0.018,   -0.022,
       -0.076,   -0.038,   -0.037,   -0.027,    0.271,   -0.018,   -0.126,
        0.037,   -0.134,    0.031,    0.096,    0.020,    0.029,    0.002,
        0.095,   -0.022,   -1.392,    4.606,   -2.787,    9.871,   -2.964,
       -3.029,   -0.051,   -9.692,   -1.334,   -4.684,   -0.270,   -2.326,
        0.734,   -0.898,   -1.809,   -1.368
    },
    {  -0.070,    0.011,    0.107,   -0.004,   -0.064,    0.060,   -0.116,
       -0.061,   -0.074,   -0.029,   -0.022,   -0.026,    0.088,    0.008,
        0.020,   -0.020,   -0.121,   -0.088,    0.304,    0.001,    0.001,
        0.085,   -0.131,    0.043,    0.116,   -0.001,   -0.046,   -0.006,
        0.022,    0.019,   -1.271,    4.522,   -2.471,    9.515,   -2.559,
       -2.505,    0.043,   -9.985,   -1.544,   -4.559,   -0.513,   -1.920,
        0.894,   -0.776,   -1.732,   -1.706
    },
    {  -0.200,   -0.002,    0.272,    0.005,   -0.033,    0.018,    0.016,
       -0.072,   -0.145,    0.028,    0.069,    0.008,    0.065,   -0.073,
       -0.093,   -0.011,   -0.017,    0.000,    0.300,    0.017,   -0.192,
       -0.061,   -0.182,    0.021,   -0.056,    0.007,   -0.048,    0.024,
       -0.062,   -0.060,   -1.241,    4.202,   -2.210,    9.501,   -2.213,
       -2.272,   -0.013,   -9.806,   -1.768,   -4.308,   -0.614,   -1.941,
        0.669,   -0.724,   -2.650,   -1.827
    },
    {  -0.174,    0.024,    0.166,    0.035,   -0.039,    0.075,    0.036,
        0.057,   -0.070,   -0.076,   -0.025,    0.038,    0.132,    0.004,
        0.074,    0.086,   -0.135,   -0.137,    0.347,    0.065,   -0.158,
        0.026,   -0.149,   -0.082,   -0.089,   -0.057,   -0.065,    0.090,
        0.064,   -0.072,   -0.920,    3.780,   -2.303,    9.782,   -2.448,
       -2.405,    0.006,   -9.799,   -1.837,   -4.651,   -0.316,   -2.549,
        0.657,   -0.861,   -2.625,   -1.740
    },
    {  -0.256,   -0.009,    0.269,    0.021,   -0.073,    0.094,    0.096,
        0.007,   -0.117,   -0.019,   -0.074,    0.013,   -0.028,   -0.029,
        0.037,   -0.022,   -0.045,   -0.002,    0.194,    0.047,    0.045,
        0.020,   -0.195,    0.007,   -0.019,    0.025,   -0.071,    0.004,
        0.092,   -0.010,   -0.676,    3.721,   -2.075,   10.273,   -1.923,
       -2.646,    0.037,  -10.078,   -1.528,   -4.398,   -0.591,   -2.255,
        0.985,   -1.356,   -2.497,   -1.673
    },
    {  -0.195,   -0.034,    0.225,    0.010,    0.001,    0.069,    0.152,
        0.030,   -0.297,   -0.078,   -0.076,    0.094,    0.132,    0.025,
        0.082,   -0.010,   -0.129,   -0.104,    0.177,   -0.057,    0.040,
       -0.039,   -0.267,   -0.034,   -0.005,    0.017,   -0.045,    0.037,
       -0.011,   -0.161,   -0.894,    3.522,   -2.281,    9.856,   -2.224,
       -2.798,    0.173,  -10.222,   -1.225,   -4.239,   -0.349,   -2.277,
        0.692,   -1.077,   -2.511,   -1.667
    },
    {  -0.241,    0.061,    0.193,    0.076,   -0.096,    0.065,   -0.051,
        0.002,   -0.307,   -0.054,   -0.136,    0.113,    0.104,    0.008,
       -0.030,    0.025,   -0.190,   -0.001,   -0.010,   -0.001,    0.069,
       -0.070,   -0.269,    0.000,    0.044,    0.091,   -0.061,   -0.022,
       -0.124,   -0.255,   -1.031,    3.213,   -2.519,    9.639,   -2.058,
       -2.688,    0.291,  -10.337,   -1.631,   -4.030,   -0.183,   -2.271,
        1.021,   -0.921,   -2.981,   -1.406
    },
    {  -0.143,    0.098,    0.140,    0.072,   -0.045,   -0.033,    0.103,
        0.059,   -0.300,   -0.036,   -0.176,    0.013,    0.180,   -0.092,
       -0.078,    0.017,   -0.156,   -0.018,    0.091,    0.065,    0.110,
       -0.076,   -0.209,   -0.052,   -0.021,   -0.028,   -0.164,    0.017,
       -0.093,   -0.182,   -0.696,    3.324,   -2.897,   10.084,   -1.925,
       -2.227,    0.593,  -10.921,   -1.364,   -4.353,   -0.091,   -2.586,
        1.089,   -0.616,   -3.227,   -1.245
    },
    {  -0.123,    0.119,    0.049,    0.022,   -0.103,   -0.011,    0.079,
        0.083,   -0.243,    0.061,   -0.103,    0.039,    0.150,   -0.084,
       -0.064,    0.085,   -0.235,   -0.017,    0.060,   -0.023,    0.070,
       -0.093,   -0.197,   -0.074,    0.114,   -0.012,   -0.095,    0.025,
       -0.026,   -0.142,   -0.652,    3.347,   -3.355,   10.343,   -1.828,
       -2.098,    0.863,  -10.920,   -1.575,   -4.306,   -0.054,   -2.459,
        1.061,   -0.702,   -3.144,   -1.300
    },
    {  -0.247,    0.099,    0.188,    0.012,   -0.021,    0.070,    0.030,
        0.111,   -0.298,    0.044,   -0.195,   -0.017,    0.163,   -0.023,
        0.007,   -0.003,   -0.006,    0.040,   -0.016,    0.008,    0.019,
       -0.047,    0.019,   -0.105,   -0.008,    0.018,   -0.160,   -0.019,
       -0.061,   -0.146,   -0.363,    3.389,   -3.271,   10.395,   -1.713,
       -2.192,    0.582,  -10.960,   -1.373,   -4.396,    0.099,   -2.475,
        0.999,   -0.570,   -3.614,   -1.494
    },
    {  -0.167,    0.024,    0.178,    0.037,   -0.005,    0.159,    0.084,
        0.240,   -0.265,   -0.041,   -0.184,    0.017,    0.190,   -0.004,
        0.078,   -0.083,   -0.097,    0.035,   -0.081,    0.199,    0.109,
       -0.025,   -0.037,   -0.129,    0.073,   -0.102,   -0.093,    0.057,
       -0.038,   -0.032,   -0.389,    2.876,   -3.038,   10.422,   -2.090,
       -2.106,    0.058,  -10.399,   -1.677,   -4.264,    0.518,   -2.200,
        1.364,   -0.230,   -3.656,   -1.132
    },
    {  -0.183,    0.053,    0.119,    0.039,   -0.008,    0.119,    0.003,
        0.067,   -0.136,   -0.210,   -0.136,   -0.005,    0.172,    0.021,
        0.154,   -0.045,   -0.088,    0.040,    0.021,   -0.013,   -0.001,
        0.063,    0.080,   -0.141,    0.105,    0.166,   -0.035,   -0.078,
       -0.083,   -0.060,   -0.750,    2.398,   -2.809,   10.047,   -1.473,
       -1.851,   -0.478,  -10.180,   -1.916,   -4.022,    0.153,   -1.797,
        1.154,   -0.637,   -4.077,   -0.793
    },
    {  -0.164,    0.039,    0.100,    0.027,   -0.053,   -0.013,    0.116,
       -0.014,   -0.072,   -0.220,   -0.112,    0.013,    0.164,   -0.087,
        0.222,   -0.067,   -0.144,    0.053,    0.109,   -0.002,   -0.046,
        0.036,    0.135,   -0.027,    0.158,    0.100,   -0.082,   -0.044,
       -0.211,   -0.045,   -0.597,    2.951,   -3.100,   10.194,   -1.599,
       -1.790,   -0.545,  -10.063,   -1.710,   -4.201,    0.040,   -1.561,
        1.159,   -0.322,   -4.024,   -0.564
    },
    {  -0.172,    0.100,    0.094,   -0.030,   -0.039,    0.053,    0.068,
       -0.003,   -0.091,   -0.037,    0.078,   -0.001,    0.140,    0.012,
        0.327,   -0.041,   -0.002,   -0.057,    0.059,    0.045,   -0.006,
       -0.012,    0.118,   -0.037,   -0.025,    0.101,    0.011,    0.005,
       -0.223,   -0.037,   -0.114,    2.937,   -3.020,   10.479,   -1.532,
       -2.042,   -0.542,  -10.027,   -1.476,   -4.034,    0.601,   -2.009,
        1.663,   -0.830,   -4.372,   -0.898
    },
    {  -0.262,   -0.009,   -0.019,   -0.025,    0.014,    0.018,    0.108,
       -0.057,    0.094,    0.007,    0.095,   -0.054,    0.085,   -0.018,
        0.095,    0.001,    0.108,   -0.042,    0.077,    0.045,   -0.054,
       -0.048,   -0.015,    0.014,    0.110,   -0.063,    0.049,   -0.058,
       -0.167,    0.046,   -0.482,    2.192,   -2.646,   10.053,   -1.295,
       -1.839,   -0.777,   -9.567,   -1.991,   -4.139,    0.542,   -2.576,
        1.711,   -0.908,   -4.188,   -0.929
    },
    {  -0.140,   -0.048,   -0.031,    0.005,    0.037,    0.023,    0.082,
       -0.123,   -0.007,   -0.003,    0.185,   -0.068,    0.109,   -0.003,
        0.265,    0.003,    0.037,   -0.052,    0.052,   -0.021,   -0.002,
       -0.029,   -0.016,    0.020,    0.156,   -0.001,    0.146,   -0.088,
       -0.323,    0.008,   -0.464,    2.714,   -2.553,    9.918,   -1.902,
       -1.905,   -0.724,   -9.439,   -1.648,   -4.178,    0.119,   -2.506,
        1.711,   -0.652,   -4.117,   -0.929
    },
    {  -0.205,    0.008,    0.053,   -0.107,    0.064,   -0.085,    0.150,
       -0.100,    0.030,    0.106,    0.142,   -0.102,    0.153,   -0.138,
        0.223,   -0.083,   -0.048,   -0.108,    0.070,    0.056,    0.162,
       -0.022,    0.021,    0.012,    0.064,   -0.106,    0.084,    0.071,
       -0.335,    0.013,   -0.541,    2.485,   -2.612,   10.162,   -1.154,
       -1.595,   -0.655,   -9.310,   -1.192,   -3.923,    0.107,   -2.342,
        1.750,   -0.475,   -4.092,   -0.956
    },
    {  -0.361,    0.017,    0.136,   -0.053,    0.049,   -0.121,    0.198,
       -0.027,   -0.007,    0.096,    0.231,    0.025,    0.142,   -0.146,
        0.263,   -0.028,   -0.194,   -0.258,   -0.040,    0.051,    0.204,
       -0.078,    0.008,    0.014,    0.070,   -0.174,    0.077,    0.021,
       -0.318,    0.065,   -0.295,    2.855,   -2.296,   10.160,   -1.070,
       -1.410,   -0.501,   -9.597,   -1.269,   -3.788,    0.095,   -2.131,
        1.785,   -0.263,   -3.971,   -1.036
    },
    {  -0.261,    0.049,    0.068,   -0.062,    0.025,   -0.128,    0.160,
       -0.005,   -0.011,    0.214,    0.311,    0.088,    0.177,   -0.128,
        0.281,   -0.121,   -0.150,   -0.268,   -0.010,    0.047,    0.211,
       -0.048,   -0.098,    0.069,    0.060,   -0.156,   -0.011,    0.042,
       -0.389,    0.078,   -0.290,    3.107,   -2.380,    9.801,   -0.715,
       -1.468,   -0.056,   -9.616,   -0.803,   -4.003,    0.024,   -2.000,
        2.244,   -0.552,   -4.271,   -0.998
    },
    {  -0.313,    0.041,   -0.113,   -0.071,   -0.070,   -0.123,    0.158,
       -0.023,    0.040,    0.136,    0.330,    0.103,    0.121,   -0.102,
        0.228,   -0.161,   -0.179,   -0.210,   -0.056,    0.074,    0.199,
       -0.058,   -0.156,    0.119,    0.048,   -0.066,    0.006,    0.033,
       -0.390,    0.054,   -0.229,    3.314,   -2.861,    9.470,   -1.131,
       -1.750,    0.042,   -9.167,   -0.454,   -4.408,   -0.268,   -2.517,
        2.738,   -0.683,   -4.293,   -1.366
    },
    {  -0.387,    0.017,   -0.038,   -0.010,   -0.125,   -0.076,    0.129,
       -0.041,    0.082,    0.078,    0.435,    0.084,    0.078,   -0.080,
        0.195,   -0.096,   -0.181,   -0.227,   -0.031,    0.068,    0.076,
       -0.061,   -0.053,    0.047,   -0.015,   -0.024,    0.059,    0.030,
       -0.465,    0.052,   -0.174,    3.731,   -2.469,    9.609,   -0.695,
       -1.871,    0.208,   -9.246,   -0.592,   -4.759,   -0.198,   -2.735,
        2.591,   -0.586,   -4.170,   -1.591
    },
    {  -0.308,   -0.070,   -0.120,   -0.101,   -0.144,   -0.064,    0.151,
        0.050,    0.026,    0.036,    0.376,    0.136,    0.098,   -0.132,
        0.143,   -0.005,   -0.053,   -0.090,   -0.034,    0.060,    0.038,
       -0.027,    0.060,   -0.072,    0.047,   -0.095,    0.078,   -0.037,
       -0.392,    0.015,    0.047,    3.369,   -2.417,    9.800,   -0.730,
       -1.991,    0.117,   -9.512,   -0.560,   -4.745,   -0.159,   -2.927,
        2.967,   -0.722,   -4.276,   -1.615
    }
  };


  double netfun(std::vector<double>& in, const double* w)
  {
    double x00 = in[0];
    double x;

    //Layer 1, Node 0
    x = w[0];
    x = x + w[1] * x00;
    double x10 = tanh(x);

    //Layer 1, Node 1
    x = w[2];
    x = x + w[3] * x00;
    double x11 = tanh(x);

    //Layer 1, Node 2
    x = w[4];
    x = x + w[5] * x00;
    double x12 = tanh(x);

    //Layer 1, Node 3
    x = w[6];
    x = x + w[7] * x00;
    double x13 = tanh(x);

    //Layer 1, Node 4
    x = w[8];
    x = x + w[9] * x00;
    double x14 = tanh(x);

    //Layer 1, Node 5
    x = w[10];
    x = x + w[11] * x00;
    double x15 = tanh(x);

    //Layer 1, Node 6
    x = w[12];
    x = x + w[13] * x00;
    double x16 = tanh(x);

    //Layer 1, Node 7
    x = w[14];
    x = x + w[15] * x00;
    double x17 = tanh(x);

    //Layer 1, Node 8
    x = w[16];
    x = x + w[17] * x00;
    double x18 = tanh(x);

    //Layer 1, Node 9
    x = w[18];
    x = x + w[19] * x00;
    double x19 = tanh(x);

    //Layer 1, Node 10
    x = w[20];
    x = x + w[21] * x00;
    double x110 = tanh(x);

    //Layer 1, Node 11
    x = w[22];
    x = x + w[23] * x00;
    double x111 = tanh(x);

    //Layer 1, Node 12
    x = w[24];
    x = x + w[25] * x00;
    double x112 = tanh(x);

    //Layer 1, Node 13
    x = w[26];
    x = x + w[27] * x00;
    double x113 = tanh(x);

    //Layer 1, Node 14
    x = w[28];
    x = x + w[29] * x00;
    double x114 = tanh(x);

    //Layer 2, Node 0
    x = w[30];
    x = x + w[31] * x10;
    x = x + w[32] * x11;
    x = x + w[33] * x12;
    x = x + w[34] * x13;
    x = x + w[35] * x14;
    x = x + w[36] * x15;
    x = x + w[37] * x16;
    x = x + w[38] * x17;
    x = x + w[39] * x18;
    x = x + w[40] * x19;
    x = x + w[41] * x110;
    x = x + w[42] * x111;
    x = x + w[43] * x112;
    x = x + w[44] * x113;
    x = x + w[45] * x114;
    double x20 = 1.0/(1.0+exp(-x));
    return x20;
  }
}; // End anonymous namespace

//-----------------------------------------------------------------------------
// Compute average over networks. Default is to use all networks
//-----------------------------------------------------------------------------

double HT300_MHT75_v7_HT300_v6_165922_166300_166374_166978_sel1(std::vector<double>& inputvars,
                                                                int first=0,
                                                                int last=nnetworks-1)
{
  if ( first < 0 ) first = 0;
  if ( last  < 0 ) last  = nnetworks-1;
  if ( last  > nnetworks-1 ) last = nnetworks-1;
  if ( first > last )
    {
      std::cerr << "** HT300_MHT75_v7_HT300_v6_165922_166300_166374_166978_sel1 ** first-index > last-index"
                << std::endl; exit(3);
    }

  // Compute average over networks
  std::vector<double> in(ninputs);
  in[0] = (inputvars[0] - mean[0]) / sigma[0];

  int   n = last - first + 1;
  double x = 0.0;
  for(int i=first; i <= last; i++) x += netfun(in, weight[i]);
  return x / n;
}

extern "C" double HT300_MHT75_v7_HT300_v6_165922_166300_166374_166978_sel1_dl(std::vector<double>& in,
                                                                              int first=0,
                                                                              int last=nnetworks-1)
{
  return HT300_MHT75_v7_HT300_v6_165922_166300_166374_166978_sel1(in, first, last);
}

extern "C" double HT300_MHT75_v7_HT300_v6_165922_166300_166374_166978_sel1_dl2(double* in,
                                                                               int first=0,
                                                                               int last=nnetworks-1)
{
  std::vector<double> invec;

  invec.push_back(in[0]);

  return HT300_MHT75_v7_HT300_v6_165922_166300_166374_166978_sel1(invec, first, last);
}
