//-----------------------------------------------------------------------------
// Network: HT350_MHT90_v1_HT350_v8_176545_178410_sel2
// Inputs:
//                                                  Offset       Scale
//    offlinevar                                 2.552e+01   1.658e+01
//
// Created: Mon Jan 23 06:18:57 2012
//-----------------------------------------------------------------------------
#include <cmath>
#include <vector>
#include <iostream>
#include <stdlib.h>
//-----------------------------------------------------------------------------
// Make following visible only to this programming unit
namespace {
  // NOTE: Network indices start at 0
  static const int nnetworks=100;
  static const int ninputs  =1;
  static const int nhidden  =15;
  static const int nparams  =46;

  static const double mean[ninputs]={
  2.55200e+01
  };

  static const double sigma[ninputs]={
  1.65800e+01
  };

  static const double weight[nnetworks][nparams]={
    {  -0.364,    0.355,   -0.308,    0.011,    0.762,   -0.040,    0.279,
        0.512,   -0.772,    0.018,    1.029,   -0.068,   -0.128,   -0.043,
        0.258,    0.072,   -0.704,   -0.060,   -0.938,    0.025,    1.193,
       -0.200,    0.048,    0.040,   -0.081,    0.045,   -0.070,    0.181,
        1.236,   -0.040,  -17.355,   -0.503,   -5.132,    6.338,   -1.042,
       -6.344,    1.205,   -5.393,    1.919,    0.082,   -0.152,    0.668,
        3.751,    3.736,    5.566,    2.256
    },
    {  -0.361,    0.328,   -0.278,    0.068,    0.791,   -0.020,    0.287,
        0.538,   -0.833,    0.004,    0.986,   -0.076,   -0.200,   -0.030,
        0.258,    0.087,   -0.772,    0.003,   -0.930,    0.036,    1.141,
       -0.249,    0.070,    0.059,   -0.122,    0.059,   -0.142,    0.193,
        1.259,   -0.043,  -17.481,   -0.548,   -5.200,    5.965,   -1.024,
       -6.444,    1.294,   -5.710,    2.072,   -0.005,   -0.178,    0.684,
        3.894,    3.761,    5.657,    2.189
    },
    {  -0.425,    0.313,   -0.307,    0.016,    0.808,    0.006,    0.280,
        0.511,   -0.817,   -0.050,    1.002,   -0.084,   -0.152,    0.049,
        0.262,    0.080,   -0.797,    0.007,   -0.900,   -0.044,    1.148,
       -0.275,    0.062,    0.068,   -0.080,    0.035,   -0.157,    0.194,
        1.302,    0.019,  -17.344,   -0.636,   -5.364,    5.855,   -1.336,
       -6.385,    1.309,   -5.736,    2.244,   -0.093,    0.033,    0.676,
        3.999,    3.624,    5.743,    2.178
    },
    {  -0.484,    0.318,   -0.336,    0.010,    0.756,   -0.004,    0.310,
        0.389,   -0.878,   -0.043,    0.973,   -0.088,   -0.088,    0.030,
        0.249,    0.013,   -0.699,   -0.047,   -0.946,   -0.129,    1.096,
       -0.269,    0.079,    0.046,   -0.132,    0.067,   -0.132,    0.206,
        1.272,   -0.025,  -17.264,   -0.452,   -5.173,    5.933,   -1.564,
       -6.404,    1.302,   -5.982,    2.436,   -0.019,   -0.009,    0.820,
        4.119,    3.559,    5.659,    2.367
    },
    {  -0.483,    0.316,   -0.332,    0.011,    0.775,   -0.010,    0.401,
        0.387,   -0.904,   -0.049,    0.897,   -0.053,   -0.109,    0.020,
        0.270,   -0.031,   -0.759,   -0.025,   -0.925,   -0.197,    1.092,
       -0.222,    0.030,    0.043,   -0.126,    0.051,   -0.172,    0.193,
        1.262,   -0.018,  -17.361,   -0.407,   -5.297,    6.207,   -1.304,
       -6.312,    1.524,   -5.789,    2.600,   -0.135,   -0.249,    0.675,
        3.686,    3.822,    5.811,    2.274
    },
    {  -0.591,    0.230,   -0.316,   -0.005,    0.802,   -0.024,    0.485,
        0.371,   -0.858,   -0.047,    0.958,   -0.025,   -0.102,    0.007,
        0.220,   -0.052,   -0.712,   -0.109,   -0.875,   -0.188,    1.098,
       -0.301,    0.044,    0.042,   -0.179,    0.125,   -0.058,    0.133,
        1.356,   -0.053,  -16.947,   -0.211,   -5.225,    6.102,   -1.459,
       -6.336,    1.481,   -5.736,    2.249,   -0.188,   -0.090,    0.699,
        3.844,    3.571,    5.328,    1.884
    },
    {  -0.642,    0.181,   -0.305,    0.014,    0.803,    0.005,    0.470,
        0.415,   -0.854,   -0.049,    0.900,   -0.065,   -0.082,   -0.002,
        0.222,   -0.028,   -0.715,   -0.096,   -0.795,   -0.255,    1.052,
       -0.352,   -0.020,    0.017,   -0.175,    0.199,   -0.008,    0.099,
        1.335,   -0.072,  -17.153,   -0.131,   -5.373,    6.245,   -1.529,
       -6.474,    1.582,   -5.768,    2.376,   -0.134,   -0.134,    0.770,
        3.844,    3.725,    5.241,    2.002
    },
    {  -0.602,    0.210,   -0.301,    0.049,    0.765,    0.011,    0.462,
        0.411,   -0.843,   -0.045,    0.903,    0.041,   -0.061,   -0.049,
        0.191,   -0.001,   -0.727,   -0.082,   -0.753,   -0.219,    1.039,
       -0.352,   -0.020,    0.004,   -0.165,    0.224,    0.049,    0.059,
        1.347,   -0.109,  -17.049,   -0.147,   -5.307,    6.256,   -1.583,
       -6.424,    1.595,   -5.631,    2.227,   -0.182,   -0.064,    0.715,
        3.836,    3.707,    5.295,    2.080
    },
    {  -0.591,    0.110,   -0.244,    0.060,    0.773,   -0.026,    0.463,
        0.369,   -0.833,   -0.001,    0.899,   -0.015,    0.051,   -0.116,
        0.165,   -0.025,   -0.702,   -0.168,   -0.773,   -0.100,    1.091,
       -0.260,   -0.031,    0.042,   -0.134,    0.119,    0.176,    0.103,
        1.386,   -0.069,  -16.995,    0.017,   -5.165,    6.108,   -1.823,
       -6.546,    1.378,   -5.786,    1.978,   -0.326,   -0.232,    0.901,
        3.808,    3.441,    5.294,    2.288
    },
    {  -0.667,    0.086,   -0.278,   -0.018,    0.837,    0.052,    0.486,
        0.366,   -0.811,    0.079,    0.869,   -0.053,    0.185,   -0.072,
        0.162,   -0.016,   -0.632,   -0.184,   -0.837,   -0.009,    1.113,
       -0.108,   -0.043,    0.118,   -0.106,   -0.017,    0.241,    0.089,
        1.380,   -0.047,  -17.131,   -0.108,   -5.285,    6.300,   -1.721,
       -6.795,    1.181,   -5.784,    1.979,   -0.385,   -0.460,    0.853,
        3.920,    3.505,    5.161,    2.199
    },
    {  -0.680,    0.067,   -0.288,    0.005,    0.914,    0.019,    0.462,
        0.363,   -0.831,    0.048,    0.855,   -0.024,    0.221,   -0.079,
        0.186,   -0.039,   -0.634,   -0.230,   -0.816,   -0.013,    1.084,
       -0.130,    0.035,    0.108,   -0.168,   -0.039,    0.199,    0.145,
        1.412,   -0.035,  -17.095,   -0.454,   -5.348,    6.137,   -1.815,
       -6.785,    1.253,   -5.823,    2.028,   -0.431,   -0.668,    0.466,
        3.858,    3.537,    5.194,    2.093
    },
    {  -0.659,    0.062,   -0.258,    0.000,    0.892,    0.080,    0.519,
        0.357,   -0.875,    0.033,    0.849,   -0.013,    0.221,   -0.139,
        0.192,   -0.090,   -0.653,   -0.211,   -0.789,   -0.025,    1.094,
       -0.120,    0.039,    0.017,   -0.149,   -0.036,    0.203,    0.089,
        1.356,   -0.050,  -17.185,   -0.301,   -5.433,    6.150,   -1.674,
       -6.654,    1.053,   -5.727,    2.104,   -0.575,   -0.837,    0.625,
        3.862,    3.441,    5.031,    2.153
    },
    {  -0.581,   -0.007,   -0.232,    0.070,    0.938,    0.040,    0.490,
        0.362,   -0.899,    0.045,    0.862,   -0.027,    0.282,   -0.161,
        0.196,   -0.074,   -0.623,   -0.202,   -0.827,    0.058,    1.089,
       -0.126,    0.070,    0.049,   -0.191,    0.049,    0.216,    0.105,
        1.364,   -0.044,  -17.066,   -0.264,   -5.509,    6.272,   -1.693,
       -6.427,    0.974,   -5.805,    2.202,   -0.544,   -0.990,    0.573,
        3.714,    3.519,    4.910,    2.291
    },
    {  -0.633,    0.101,   -0.230,    0.080,    0.869,    0.011,    0.443,
        0.327,   -0.918,   -0.034,    0.898,   -0.035,    0.269,   -0.111,
        0.200,   -0.138,   -0.657,   -0.215,   -0.832,    0.074,    1.092,
       -0.153,    0.058,    0.074,   -0.174,    0.124,    0.225,    0.120,
        1.417,   -0.119,  -17.011,   -0.329,   -5.155,    6.196,   -1.644,
       -6.506,    1.095,   -5.790,    2.070,   -0.319,   -0.853,    0.591,
        3.563,    3.324,    4.763,    2.298
    },
    {  -0.679,    0.109,   -0.173,    0.061,    0.951,   -0.052,    0.437,
        0.323,   -0.902,   -0.023,    0.859,   -0.029,    0.281,   -0.123,
        0.149,   -0.086,   -0.726,   -0.205,   -0.855,    0.082,    1.000,
       -0.131,    0.010,    0.123,   -0.157,    0.074,    0.279,    0.108,
        1.476,   -0.008,  -17.153,   -0.376,   -5.165,    6.353,   -1.917,
       -6.681,    1.153,   -5.732,    2.189,   -0.322,   -0.797,    0.625,
        3.770,    3.355,    4.889,    2.268
    },
    {  -0.645,    0.011,   -0.219,    0.110,    0.943,   -0.036,    0.379,
        0.340,   -0.896,   -0.088,    0.774,   -0.010,    0.342,   -0.167,
        0.156,   -0.130,   -0.661,   -0.121,   -0.877,    0.051,    1.046,
       -0.174,    0.022,    0.097,   -0.200,    0.117,    0.220,    0.083,
        1.429,   -0.074,  -17.029,   -0.353,   -5.322,    6.233,   -1.975,
       -6.731,    1.016,   -5.487,    2.074,   -0.458,   -0.961,    0.827,
        3.498,    3.496,    4.939,    2.375
    },
    {  -0.642,    0.013,   -0.224,    0.063,    0.962,   -0.037,    0.441,
        0.308,   -0.867,   -0.114,    0.754,   -0.042,    0.346,   -0.121,
        0.210,   -0.146,   -0.649,   -0.179,   -0.948,    0.011,    1.012,
       -0.158,    0.046,    0.061,   -0.137,    0.076,    0.240,    0.106,
        1.449,   -0.063,  -17.082,   -0.298,   -5.135,    6.214,   -1.761,
       -6.681,    1.205,   -5.555,    2.158,   -0.435,   -0.764,    0.671,
        3.538,    3.489,    4.970,    2.289
    },
    {  -0.594,    0.047,   -0.193,    0.015,    0.973,   -0.056,    0.411,
        0.276,   -0.878,   -0.079,    0.732,   -0.090,    0.374,   -0.120,
        0.174,   -0.126,   -0.579,   -0.141,   -0.959,   -0.027,    1.023,
       -0.170,    0.092,    0.097,   -0.161,    0.107,    0.219,    0.035,
        1.463,   -0.103,  -16.847,   -0.441,   -5.088,    6.133,   -1.749,
       -6.800,    1.271,   -5.624,    1.920,   -0.258,   -0.621,    0.766,
        3.428,    3.479,    4.989,    2.380
    },
    {  -0.631,   -0.010,   -0.222,    0.023,    0.952,   -0.055,    0.407,
        0.263,   -0.872,   -0.061,    0.794,    0.013,    0.381,   -0.112,
        0.202,   -0.139,   -0.642,   -0.170,   -0.859,    0.027,    0.990,
       -0.132,    0.051,    0.134,   -0.207,    0.068,    0.221,    0.062,
        1.513,   -0.106,  -16.843,   -0.460,   -5.264,    6.405,   -1.641,
       -6.780,    1.349,   -5.632,    2.009,   -0.081,   -0.525,    0.642,
        3.432,    3.212,    4.911,    2.355
    },
    {  -0.647,    0.013,   -0.281,    0.066,    0.933,   -0.033,    0.438,
        0.274,   -0.895,    0.003,    0.793,   -0.041,    0.422,   -0.154,
        0.247,   -0.158,   -0.624,   -0.102,   -0.804,    0.002,    0.919,
       -0.050,    0.075,    0.159,   -0.241,    0.078,    0.239,    0.082,
        1.512,   -0.098,  -17.017,   -0.491,   -5.556,    6.410,   -1.605,
       -6.524,    1.382,   -5.511,    1.900,    0.026,   -0.714,    0.780,
        3.736,    3.377,    4.761,    2.268
    },
    {  -0.619,    0.042,   -0.225,    0.059,    1.018,   -0.011,    0.472,
        0.284,   -0.833,    0.040,    0.817,    0.009,    0.408,   -0.167,
        0.314,   -0.168,   -0.621,   -0.035,   -0.794,    0.049,    0.917,
       -0.013,    0.049,    0.125,   -0.225,    0.089,    0.244,    0.078,
        1.522,   -0.058,  -16.833,   -0.482,   -5.648,    6.608,   -1.716,
       -6.612,    1.346,   -5.495,    1.838,   -0.170,   -0.978,    0.726,
        3.731,    3.364,    4.648,    1.867
    },
    {  -0.554,   -0.045,   -0.280,    0.081,    1.041,   -0.011,    0.492,
        0.234,   -0.778,   -0.032,    0.764,    0.062,    0.354,   -0.157,
        0.336,   -0.158,   -0.635,   -0.011,   -0.735,    0.076,    0.863,
        0.020,    0.014,    0.149,   -0.181,    0.024,    0.354,    0.044,
        1.407,    0.034,  -17.227,   -0.354,   -5.417,    6.482,   -1.812,
       -6.401,    1.299,   -5.509,    2.037,   -0.342,   -0.924,    0.597,
        3.919,    3.391,    4.723,    1.931
    },
    {  -0.511,   -0.015,   -0.277,    0.071,    1.027,    0.012,    0.422,
        0.200,   -0.803,   -0.017,    0.738,    0.073,    0.411,   -0.145,
        0.292,   -0.082,   -0.617,    0.007,   -0.647,    0.056,    0.883,
        0.028,   -0.010,    0.152,   -0.078,    0.008,    0.308,   -0.016,
        1.322,    0.078,  -17.215,   -0.156,   -5.300,    6.585,   -1.417,
       -6.553,    1.340,   -5.554,    2.194,   -0.521,   -0.764,    0.662,
        4.201,    3.266,    4.624,    1.877
    },
    {  -0.566,    0.028,   -0.280,    0.062,    1.085,   -0.040,    0.426,
        0.264,   -0.795,   -0.010,    0.722,    0.087,    0.417,   -0.132,
        0.304,    0.006,   -0.586,   -0.065,   -0.749,    0.087,    0.877,
        0.045,   -0.005,    0.137,   -0.144,   -0.023,    0.355,    0.023,
        1.313,    0.073,  -16.970,   -0.169,   -5.272,    6.230,   -1.389,
       -6.700,    1.299,   -5.674,    2.248,   -0.532,   -0.739,    0.466,
        4.153,    3.406,    4.695,    1.853
    },
    {  -0.616,    0.006,   -0.308,    0.034,    1.094,   -0.050,    0.409,
        0.290,   -0.767,   -0.035,    0.703,    0.134,    0.389,   -0.112,
        0.256,   -0.091,   -0.636,    0.049,   -0.832,    0.096,    0.894,
        0.073,    0.078,    0.139,   -0.127,    0.014,    0.373,    0.013,
        1.242,   -0.001,  -17.108,   -0.083,   -5.365,    6.013,   -1.265,
       -6.684,    1.215,   -5.733,    2.055,   -0.333,   -0.533,    0.530,
        4.315,    3.199,    4.663,    1.871
    },
    {  -0.641,   -0.023,   -0.332,    0.007,    1.073,   -0.051,    0.329,
        0.288,   -0.795,   -0.031,    0.704,    0.107,    0.462,   -0.124,
        0.245,   -0.057,   -0.671,    0.031,   -0.816,    0.110,    0.911,
        0.044,    0.083,    0.125,   -0.155,    0.024,    0.389,   -0.031,
        1.232,   -0.059,  -17.143,   -0.213,   -5.420,    5.971,   -0.933,
       -6.723,    1.121,   -5.759,    1.983,   -0.679,   -0.551,    0.383,
        4.320,    3.054,    4.530,    1.774
    },
    {  -0.691,   -0.024,   -0.314,   -0.024,    1.108,   -0.059,    0.307,
        0.232,   -0.784,   -0.014,    0.634,    0.127,    0.459,   -0.144,
        0.135,   -0.161,   -0.637,    0.066,   -0.853,    0.049,    0.965,
       -0.010,    0.121,    0.129,   -0.216,    0.061,    0.453,   -0.059,
        1.312,   -0.041,  -17.012,   -0.095,   -5.500,    5.988,   -1.040,
       -6.732,    1.118,   -5.925,    2.100,   -0.835,   -0.637,    0.184,
        4.148,    3.257,    4.436,    1.916
    },
    {  -0.651,   -0.014,   -0.308,   -0.048,    1.046,   -0.056,    0.281,
        0.145,   -0.794,    0.002,    0.531,    0.131,    0.483,   -0.164,
        0.130,   -0.126,   -0.596,    0.119,   -0.830,    0.070,    0.933,
        0.029,    0.073,    0.083,   -0.196,    0.009,    0.483,   -0.038,
        1.354,   -0.030,  -16.963,    0.142,   -5.699,    6.086,   -1.238,
       -6.673,    1.222,   -5.921,    2.174,   -0.777,   -0.543,    0.289,
        4.120,    3.348,    4.704,    2.201
    },
    {  -0.784,    0.073,   -0.248,    0.055,    1.106,    0.063,    0.422,
        0.124,   -0.852,    0.061,    0.674,    0.085,    0.469,   -0.125,
        0.162,    0.050,   -0.687,   -0.012,   -0.960,    0.003,    0.957,
        0.043,    0.047,    0.111,   -0.093,   -0.027,    0.342,    0.022,
        1.362,   -0.014,  -16.716,    0.226,   -5.565,    6.162,   -1.244,
       -6.664,    1.289,   -5.983,    2.090,   -0.769,   -0.535,    0.512,
        4.012,    3.290,    4.415,    1.988
    },
    {  -0.765,    0.075,   -0.237,    0.044,    1.124,    0.036,    0.351,
        0.088,   -0.817,    0.037,    0.701,    0.069,    0.440,   -0.160,
        0.257,    0.001,   -0.612,   -0.018,   -0.982,   -0.005,    0.986,
        0.048,    0.076,    0.106,   -0.138,   -0.094,    0.230,    0.018,
        1.336,   -0.002,  -16.714,    0.225,   -5.441,    6.216,   -1.191,
       -6.571,    1.313,   -5.985,    2.194,   -0.875,   -0.597,    0.469,
        3.932,    3.583,    4.602,    2.161
    },
    {  -0.827,    0.068,   -0.252,    0.044,    1.204,    0.012,    0.390,
        0.075,   -0.829,   -0.002,    0.652,    0.024,    0.443,   -0.144,
        0.260,    0.034,   -0.666,   -0.105,   -1.038,    0.023,    0.956,
        0.042,    0.073,    0.062,   -0.089,   -0.061,    0.254,    0.020,
        1.391,   -0.064,  -16.829,    0.075,   -5.296,    5.961,   -1.250,
       -6.528,    1.228,   -5.931,    2.174,   -0.896,   -0.630,    0.500,
        4.148,    3.377,    4.463,    1.943
    },
    {  -0.772,    0.090,   -0.326,   -0.010,    1.174,    0.027,    0.490,
       -0.014,   -0.768,    0.049,    0.669,    0.027,    0.544,   -0.126,
        0.274,    0.155,   -0.747,   -0.118,   -1.008,   -0.033,    1.019,
        0.021,    0.103,    0.002,   -0.053,    0.024,    0.195,   -0.042,
        1.368,   -0.042,  -16.633,   -0.049,   -5.112,    6.082,   -1.085,
       -6.714,    1.199,   -5.935,    2.151,   -0.660,   -0.658,    0.552,
        4.131,    3.251,    4.446,    1.937
    },
    {  -0.707,    0.079,   -0.333,   -0.041,    1.163,   -0.018,    0.473,
        0.033,   -0.734,    0.046,    0.682,    0.092,    0.512,   -0.146,
        0.266,    0.096,   -0.694,   -0.135,   -1.028,   -0.058,    1.031,
       -0.040,    0.038,   -0.053,    0.008,   -0.013,    0.180,    0.016,
        1.425,   -0.030,  -16.529,   -0.111,   -5.201,    6.113,   -1.018,
       -6.788,    1.024,   -5.916,    2.180,   -0.920,   -0.555,    0.256,
        4.114,    3.256,    4.412,    2.041
    },
    {  -0.643,    0.013,   -0.340,   -0.060,    1.108,   -0.039,    0.524,
       -0.015,   -0.770,    0.030,    0.667,    0.138,    0.545,   -0.155,
        0.305,    0.053,   -0.696,   -0.049,   -1.020,   -0.051,    0.975,
       -0.070,    0.000,   -0.019,    0.134,   -0.031,    0.154,   -0.046,
        1.457,    0.041,  -16.731,    0.146,   -5.197,    6.398,   -1.050,
       -6.811,    1.105,   -6.216,    2.316,   -0.932,   -0.506,    0.340,
        3.883,    3.273,    4.419,    2.075
    },
    {  -0.650,    0.063,   -0.309,   -0.033,    1.122,   -0.021,    0.499,
        0.017,   -0.849,    0.055,    0.703,    0.045,    0.506,   -0.156,
        0.291,    0.046,   -0.745,    0.001,   -0.912,    0.036,    1.006,
        0.022,   -0.046,    0.032,    0.147,   -0.023,    0.093,   -0.039,
        1.444,    0.048,  -16.765,   -0.115,   -5.227,    6.246,   -1.208,
       -6.811,    1.340,   -6.123,    2.470,   -0.870,   -0.513,    0.352,
        3.866,    3.196,    4.241,    1.963
    },
    {  -0.663,    0.104,   -0.243,   -0.038,    1.122,   -0.013,    0.509,
        0.067,   -0.841,    0.073,    0.777,    0.066,    0.511,   -0.186,
        0.271,    0.016,   -0.723,    0.019,   -0.911,    0.049,    1.014,
       -0.015,    0.026,    0.023,    0.086,    0.010,    0.102,   -0.058,
        1.460,    0.071,  -16.541,    0.111,   -5.423,    6.407,   -1.229,
       -6.661,    1.274,   -6.016,    2.542,   -0.841,   -0.685,    0.376,
        3.774,    3.119,    4.394,    1.911
    },
    {  -0.623,    0.029,   -0.312,   -0.070,    1.178,   -0.025,    0.458,
        0.055,   -0.772,    0.026,    0.799,    0.065,    0.409,   -0.128,
        0.128,   -0.025,   -0.592,   -0.027,   -0.915,    0.037,    0.981,
       -0.004,   -0.021,   -0.035,    0.138,    0.046,    0.103,   -0.021,
        1.473,    0.011,  -16.515,    0.015,   -5.507,    6.621,   -1.249,
       -6.561,    1.117,   -6.184,    2.767,   -0.726,   -0.632,    0.282,
        3.865,    2.995,    4.475,    1.698
    },
    {  -0.645,    0.044,   -0.224,   -0.031,    1.191,   -0.020,    0.397,
        0.035,   -0.818,    0.043,    0.826,   -0.005,    0.345,   -0.140,
        0.119,   -0.066,   -0.604,   -0.006,   -0.951,    0.074,    1.031,
        0.031,   -0.117,   -0.051,    0.069,    0.092,    0.129,    0.041,
        1.564,    0.026,  -16.410,   -0.210,   -5.275,    6.574,   -1.499,
       -6.975,    1.182,   -6.070,    2.650,   -0.509,   -0.625,    0.287,
        3.978,    2.916,    4.497,    1.666
    },
    {  -0.611,   -0.016,   -0.340,   -0.052,    1.170,   -0.001,    0.456,
        0.102,   -0.801,    0.082,    0.757,    0.023,    0.470,   -0.149,
        0.097,    0.016,   -0.653,    0.039,   -0.972,    0.053,    1.020,
        0.024,   -0.020,   -0.029,    0.101,    0.037,    0.069,    0.032,
        1.526,    0.076,  -16.412,   -0.113,   -5.260,    6.579,   -1.527,
       -7.023,    1.080,   -6.022,    2.704,   -0.803,   -0.512,    0.316,
        4.061,    2.877,    4.681,    1.766
    },
    {  -0.599,    0.047,   -0.345,   -0.044,    1.207,    0.016,    0.511,
        0.114,   -0.737,    0.070,    0.822,   -0.032,    0.469,   -0.150,
        0.133,    0.000,   -0.637,    0.006,   -0.950,    0.026,    1.014,
       -0.011,    0.034,    0.014,    0.154,    0.042,    0.074,    0.004,
        1.505,    0.086,  -16.416,   -0.082,   -5.145,    6.564,   -1.593,
       -7.004,    0.981,   -5.811,    2.604,   -0.701,   -0.533,    0.402,
        3.963,    3.106,    4.626,    1.545
    },
    {  -0.555,   -0.016,   -0.273,   -0.075,    1.207,   -0.042,    0.612,
        0.005,   -0.742,    0.059,    0.886,   -0.085,    0.478,   -0.140,
        0.170,    0.026,   -0.681,    0.000,   -0.941,   -0.029,    1.024,
       -0.045,   -0.015,   -0.029,    0.112,    0.008,    0.084,    0.029,
        1.468,    0.031,  -16.425,   -0.034,   -5.086,    6.563,   -1.417,
       -6.958,    1.295,   -5.872,    2.462,   -0.837,   -0.579,    0.691,
        4.217,    3.137,    4.439,    1.652
    },
    {  -0.560,   -0.036,   -0.295,   -0.025,    1.232,   -0.087,    0.553,
       -0.007,   -0.750,   -0.002,    0.890,   -0.027,    0.485,   -0.126,
        0.183,    0.015,   -0.676,   -0.086,   -0.895,    0.015,    1.019,
       -0.031,    0.014,    0.000,    0.153,   -0.014,    0.015,    0.032,
        1.439,    0.053,  -16.335,   -0.033,   -5.352,    6.568,   -1.331,
       -6.942,    1.363,   -5.805,    2.402,   -0.843,   -0.230,    0.667,
        4.243,    3.202,    4.432,    1.427
    },
    {  -0.600,    0.003,   -0.299,   -0.004,    1.232,   -0.073,    0.573,
       -0.022,   -0.711,   -0.055,    0.984,   -0.009,    0.502,   -0.147,
        0.161,    0.017,   -0.696,   -0.071,   -0.905,    0.086,    0.976,
       -0.006,    0.054,   -0.034,    0.185,   -0.026,   -0.033,    0.010,
        1.483,    0.050,  -16.272,   -0.029,   -5.347,    6.391,   -1.430,
       -6.764,    1.550,   -5.615,    2.386,   -1.065,   -0.318,    0.513,
        4.264,    3.290,    4.416,    1.583
    },
    {  -0.644,   -0.046,   -0.311,   -0.079,    1.146,   -0.061,    0.556,
       -0.035,   -0.762,   -0.036,    0.951,    0.038,    0.457,   -0.117,
        0.168,   -0.016,   -0.759,   -0.051,   -0.931,    0.049,    1.029,
       -0.009,    0.026,   -0.055,    0.181,   -0.032,    0.023,    0.018,
        1.495,   -0.006,  -16.197,    0.090,   -5.596,    6.254,   -1.441,
       -6.757,    1.438,   -5.744,    2.140,   -0.844,   -0.305,    0.340,
        4.114,    3.375,    4.347,    1.543
    },
    {  -0.558,    0.027,   -0.304,   -0.022,    1.165,   -0.073,    0.559,
       -0.029,   -0.746,    0.019,    0.830,    0.026,    0.451,   -0.157,
        0.063,    0.033,   -0.749,   -0.038,   -0.929,    0.005,    0.960,
        0.045,   -0.001,   -0.028,    0.211,   -0.009,    0.009,    0.025,
        1.398,    0.036,  -16.230,   -0.010,   -5.470,    6.419,   -1.446,
       -7.035,    1.159,   -5.603,    2.170,   -0.891,   -0.498,    0.407,
        4.255,    3.473,    4.496,    1.588
    },
    {  -0.557,    0.033,   -0.211,   -0.046,    1.269,   -0.054,    0.598,
       -0.037,   -0.742,    0.059,    0.862,    0.043,    0.463,   -0.159,
        0.068,    0.077,   -0.789,   -0.069,   -0.874,   -0.070,    1.011,
        0.006,    0.019,   -0.061,    0.107,    0.017,    0.114,    0.002,
        1.501,    0.001,  -16.059,   -0.083,   -5.446,    6.409,   -1.890,
       -6.985,    1.596,   -5.676,    2.090,   -0.798,   -0.429,    0.551,
        3.993,    3.154,    4.509,    1.566
    },
    {  -0.531,    0.059,   -0.204,   -0.011,    1.302,   -0.049,    0.626,
       -0.048,   -0.716,    0.046,    0.895,    0.016,    0.454,   -0.152,
        0.022,    0.067,   -0.760,   -0.119,   -0.857,   -0.051,    1.019,
       -0.054,    0.004,   -0.048,    0.130,    0.056,    0.064,   -0.000,
        1.465,   -0.056,  -15.964,   -0.426,   -5.479,    6.578,   -1.864,
       -6.736,    1.721,   -5.479,    2.027,   -0.866,   -0.414,    0.653,
        3.867,    3.159,    4.499,    1.399
    },
    {  -0.570,    0.032,   -0.177,   -0.022,    1.280,   -0.051,    0.654,
       -0.044,   -0.763,    0.046,    0.839,    0.040,    0.415,   -0.115,
        0.053,    0.082,   -0.738,   -0.119,   -0.898,   -0.069,    1.021,
       -0.015,   -0.052,   -0.026,    0.208,   -0.015,    0.022,    0.052,
        1.412,   -0.016,  -16.006,   -0.397,   -5.521,    6.698,   -1.818,
       -6.725,    1.478,   -5.507,    1.782,   -0.816,   -0.414,    0.724,
        4.047,    3.177,    4.567,    1.537
    },
    {  -0.569,    0.001,   -0.248,   -0.050,    1.196,   -0.065,    0.672,
       -0.061,   -0.752,   -0.010,    0.838,    0.058,    0.404,   -0.127,
       -0.003,    0.017,   -0.748,   -0.118,   -0.962,   -0.023,    0.977,
       -0.016,    0.003,    0.008,    0.184,   -0.030,    0.044,   -0.046,
        1.499,    0.025,  -16.060,   -0.213,   -5.356,    6.515,   -1.696,
       -6.769,    1.479,   -5.789,    1.705,   -0.884,   -0.501,    0.701,
        4.023,    2.997,    4.537,    1.444
    },
    {  -0.530,   -0.070,   -0.193,   -0.023,    1.339,   -0.043,    0.670,
        0.015,   -0.787,    0.000,    0.862,    0.060,    0.489,   -0.166,
        0.058,    0.127,   -0.819,   -0.128,   -1.010,   -0.078,    0.978,
       -0.032,    0.023,   -0.024,    0.113,   -0.021,   -0.007,   -0.052,
        1.444,   -0.005,  -15.899,   -0.243,   -5.207,    6.409,   -1.735,
       -6.753,    1.794,   -5.552,    1.772,   -0.883,   -0.651,    0.727,
        4.003,    3.027,    4.721,    1.369
    },
    {  -0.487,   -0.015,   -0.189,    0.036,    1.423,    0.006,    0.690,
        0.074,   -0.802,    0.035,    0.823,    0.072,    0.525,   -0.208,
        0.068,    0.072,   -0.819,   -0.028,   -1.000,   -0.050,    0.940,
       -0.032,    0.050,    0.037,    0.054,   -0.006,    0.019,   -0.050,
        1.452,   -0.057,  -15.800,   -0.218,   -5.236,    6.598,   -1.891,
       -6.813,    1.871,   -5.566,    1.958,   -1.003,   -0.605,    0.490,
        3.940,    2.957,    4.609,    1.309
    },
    {  -0.480,   -0.010,   -0.123,    0.030,    1.424,   -0.052,    0.704,
        0.105,   -0.758,    0.013,    0.811,    0.039,    0.474,   -0.172,
        0.033,    0.019,   -0.835,   -0.031,   -0.983,   -0.063,    0.990,
       -0.036,    0.082,    0.057,    0.097,   -0.000,    0.057,   -0.006,
        1.457,   -0.069,  -15.793,   -0.071,   -5.280,    6.511,   -1.660,
       -6.523,    2.004,   -5.521,    1.878,   -0.914,   -0.718,    0.557,
        3.967,    2.839,    4.469,    1.197
    },
    {  -0.544,    0.016,   -0.153,    0.001,    1.440,    0.017,    0.657,
        0.066,   -0.787,    0.035,    0.788,    0.046,    0.449,   -0.144,
        0.022,    0.125,   -0.778,   -0.012,   -1.015,   -0.004,    0.954,
       -0.068,    0.029,    0.022,    0.074,   -0.030,    0.037,   -0.013,
        1.439,   -0.040,  -15.689,   -0.123,   -5.354,    6.518,   -1.689,
       -6.636,    2.055,   -5.724,    1.616,   -0.725,   -0.788,    0.359,
        4.078,    2.976,    4.421,    1.319
    },
    {  -0.572,    0.004,   -0.189,    0.002,    1.408,    0.011,    0.574,
        0.141,   -0.821,    0.051,    0.821,    0.049,    0.478,   -0.190,
        0.034,    0.123,   -0.785,   -0.055,   -1.043,   -0.010,    0.966,
       -0.124,    0.002,    0.035,    0.084,   -0.037,    0.054,   -0.039,
        1.501,   -0.021,  -15.783,   -0.019,   -5.238,    6.681,   -1.692,
       -6.623,    1.824,   -5.797,    1.523,   -0.507,   -0.799,    0.229,
        3.765,    2.788,    4.096,    1.436
    },
    {  -0.540,   -0.056,   -0.191,   -0.007,    1.366,    0.068,    0.461,
        0.083,   -0.804,    0.055,    0.856,    0.169,    0.558,   -0.169,
       -0.106,    0.064,   -0.857,   -0.076,   -1.019,   -0.069,    0.959,
       -0.078,    0.068,    0.050,    0.047,   -0.063,    0.086,   -0.044,
        1.550,    0.095,  -15.703,   -0.103,   -5.121,    6.659,   -1.619,
       -6.632,    1.855,   -5.804,    1.571,   -0.548,   -0.943,    0.127,
        3.889,    2.677,    4.209,    1.487
    },
    {  -0.525,   -0.034,   -0.204,   -0.011,    1.393,    0.064,    0.445,
        0.092,   -0.777,    0.047,    0.879,    0.121,    0.496,   -0.172,
       -0.075,    0.072,   -0.897,   -0.102,   -0.997,   -0.101,    0.920,
       -0.064,    0.031,    0.006,   -0.028,   -0.050,    0.062,   -0.036,
        1.578,    0.022,  -15.730,   -0.009,   -5.240,    6.712,   -1.537,
       -6.612,    1.867,   -5.970,    1.479,   -0.434,   -0.982,    0.306,
        3.876,    2.844,    4.012,    1.569
    },
    {  -0.520,   -0.021,   -0.111,    0.042,    1.388,    0.026,    0.509,
        0.104,   -0.812,    0.032,    0.880,    0.061,    0.442,   -0.168,
       -0.032,    0.093,   -0.852,   -0.052,   -0.898,   -0.056,    0.934,
       -0.059,   -0.065,    0.108,   -0.004,   -0.097,    0.102,   -0.039,
        1.585,    0.055,  -15.795,   -0.105,   -5.145,    7.085,   -1.332,
       -6.171,    1.892,   -5.917,    1.691,   -0.516,   -0.931,    0.334,
        3.940,    3.020,    3.985,    1.682
    },
    {  -0.458,    0.026,   -0.159,    0.062,    1.342,    0.079,    0.480,
        0.102,   -0.805,    0.016,    0.899,    0.111,    0.493,   -0.207,
       -0.059,    0.094,   -0.849,   -0.049,   -0.898,   -0.045,    0.935,
       -0.072,    0.024,    0.057,   -0.031,   -0.142,    0.137,   -0.020,
        1.627,    0.002,  -15.784,   -0.101,   -5.336,    6.745,   -1.060,
       -6.042,    1.981,   -5.757,    1.712,   -0.319,   -0.692,    0.414,
        4.114,    2.826,    4.108,    1.659
    },
    {  -0.420,    0.030,   -0.201,   -0.007,    1.370,    0.069,    0.594,
       -0.015,   -0.842,    0.080,    0.889,    0.137,    0.579,   -0.125,
       -0.039,    0.072,   -0.921,    0.031,   -0.968,   -0.117,    0.952,
       -0.197,    0.023,    0.032,    0.056,   -0.047,    0.043,    0.017,
        1.584,   -0.047,  -15.673,   -0.093,   -5.359,    6.921,   -1.047,
       -6.153,    2.069,   -6.052,    1.703,   -0.234,   -0.600,    0.261,
        3.722,    2.728,    3.986,    1.905
    },
    {  -0.432,    0.041,   -0.182,   -0.016,    1.336,    0.060,    0.583,
       -0.118,   -0.840,    0.088,    0.868,    0.066,    0.605,   -0.144,
        0.019,    0.058,   -0.911,   -0.003,   -0.932,   -0.072,    0.969,
       -0.202,    0.064,    0.034,    0.068,   -0.096,    0.077,    0.039,
        1.568,   -0.115,  -15.835,    0.092,   -5.572,    6.809,   -0.974,
       -6.229,    2.224,   -5.848,    1.861,   -0.223,   -0.482,    0.357,
        3.513,    2.582,    4.106,    1.754
    },
    {  -0.412,    0.030,   -0.131,   -0.027,    1.283,    0.009,    0.603,
       -0.086,   -0.817,    0.097,    0.889,    0.013,    0.584,   -0.150,
       -0.004,    0.050,   -0.944,   -0.011,   -0.875,   -0.115,    0.974,
       -0.236,    0.067,    0.042,    0.075,   -0.026,    0.110,    0.010,
        1.731,   -0.068,  -15.598,   -0.102,   -5.269,    6.758,   -0.924,
       -6.248,    2.271,   -5.917,    2.135,   -0.199,   -0.476,    0.399,
        3.437,    2.845,    4.071,    1.661
    },
    {  -0.458,    0.088,   -0.160,    0.006,    1.266,    0.053,    0.580,
       -0.043,   -0.867,    0.066,    0.867,    0.062,    0.569,   -0.113,
       -0.008,    0.046,   -0.891,    0.023,   -0.880,   -0.089,    0.980,
       -0.189,    0.081,    0.080,    0.085,   -0.024,    0.123,    0.007,
        1.640,   -0.092,  -15.637,   -0.138,   -5.116,    6.773,   -1.054,
       -6.334,    2.013,   -5.922,    2.165,   -0.195,   -0.476,    0.184,
        3.286,    2.679,    3.892,    1.694
    },
    {  -0.512,    0.069,   -0.149,    0.061,    1.159,    0.020,    0.593,
        0.040,   -0.850,    0.016,    0.835,    0.091,    0.609,   -0.181,
        0.081,    0.052,   -0.911,    0.086,   -0.963,   -0.117,    0.958,
       -0.125,    0.111,    0.052,    0.095,   -0.020,    0.166,   -0.031,
        1.612,   -0.073,  -15.625,   -0.007,   -5.145,    6.638,   -0.924,
       -6.217,    1.920,   -5.950,    2.148,   -0.337,   -0.479,    0.200,
        3.522,    2.370,    3.999,    1.845
    },
    {  -0.479,    0.062,   -0.167,    0.046,    1.176,    0.014,    0.605,
        0.040,   -0.869,   -0.009,    0.826,    0.160,    0.627,   -0.190,
        0.083,    0.104,   -0.886,    0.079,   -0.971,   -0.103,    1.007,
       -0.201,    0.135,    0.063,    0.108,   -0.079,    0.180,   -0.095,
        1.657,   -0.035,  -15.705,    0.016,   -5.179,    6.735,   -1.124,
       -6.249,    2.030,   -6.055,    2.143,   -0.279,   -0.528,    0.252,
        3.474,    2.263,    3.966,    1.617
    },
    {  -0.504,    0.051,   -0.175,   -0.008,    1.060,   -0.023,    0.572,
        0.052,   -0.866,   -0.002,    0.697,    0.072,    0.597,   -0.157,
        0.124,    0.180,   -0.866,   -0.038,   -1.018,   -0.133,    0.956,
       -0.218,    0.176,    0.043,    0.144,   -0.101,    0.168,   -0.071,
        1.676,    0.000,  -15.513,    0.046,   -5.163,    6.625,   -1.027,
       -6.303,    2.088,   -5.907,    2.094,   -0.493,   -0.255,    0.091,
        3.371,    2.372,    4.017,    1.466
    },
    {  -0.669,    0.072,   -0.075,    0.015,    1.149,   -0.063,    0.552,
        0.128,   -0.964,   -0.039,    0.684,    0.128,    0.634,   -0.154,
        0.130,    0.049,   -0.878,   -0.051,   -0.996,    0.104,    1.147,
       -0.195,    0.120,   -0.055,    0.006,   -0.099,    0.176,    0.109,
        1.643,   -0.018,  -15.610,    0.234,   -5.324,    6.897,   -0.825,
       -6.646,    1.782,   -5.628,    2.324,   -0.582,   -0.350,    0.139,
        3.302,    2.504,    4.101,    1.604
    },
    {  -0.725,    0.067,   -0.062,    0.005,    1.139,   -0.074,    0.606,
        0.206,   -0.969,   -0.066,    0.644,    0.146,    0.647,   -0.173,
        0.075,    0.052,   -0.964,   -0.072,   -1.029,    0.183,    1.184,
       -0.175,    0.197,   -0.052,    0.042,   -0.136,    0.184,    0.081,
        1.607,   -0.025,  -15.425,    0.307,   -5.349,    6.969,   -0.749,
       -6.509,    2.091,   -5.877,    2.306,   -0.256,   -0.245,    0.318,
        3.410,    2.379,    4.079,    1.456
    },
    {  -0.672,    0.067,   -0.087,    0.024,    1.152,   -0.063,    0.580,
        0.098,   -1.009,   -0.048,    0.677,    0.121,    0.593,   -0.184,
        0.074,    0.051,   -0.938,   -0.114,   -1.063,    0.214,    1.190,
       -0.127,    0.118,   -0.032,   -0.011,   -0.113,    0.128,    0.046,
        1.525,    0.039,  -15.486,    0.466,   -5.146,    7.148,   -0.898,
       -6.478,    2.056,   -6.079,    2.278,   -0.429,   -0.383,    0.382,
        3.589,    2.220,    4.094,    1.443
    },
    {  -0.622,    0.060,   -0.106,    0.054,    1.126,   -0.046,    0.582,
        0.084,   -1.035,   -0.052,    0.698,    0.172,    0.610,   -0.178,
        0.084,    0.047,   -0.901,   -0.117,   -1.002,    0.297,    1.228,
       -0.146,    0.163,   -0.022,    0.002,   -0.118,    0.149,    0.049,
        1.522,    0.054,  -15.432,    0.581,   -4.919,    7.046,   -1.108,
       -6.368,    2.248,   -6.310,    2.110,   -0.491,   -0.182,    0.375,
        3.376,    2.606,    4.088,    1.662
    },
    {  -0.661,   -0.035,   -0.148,    0.013,    1.076,    0.021,    0.569,
        0.072,   -0.981,   -0.082,    0.665,    0.098,    0.541,   -0.179,
        0.120,    0.009,   -0.884,   -0.037,   -1.086,    0.212,    1.196,
       -0.121,    0.100,   -0.028,   -0.038,   -0.109,    0.105,   -0.036,
        1.520,    0.041,  -15.462,    0.590,   -4.964,    6.976,   -1.080,
       -6.736,    2.220,   -6.438,    1.982,   -0.492,   -0.407,    0.334,
        3.453,    2.548,    3.774,    1.636
    },
    {  -0.720,   -0.051,   -0.058,    0.023,    1.028,   -0.012,    0.519,
       -0.024,   -1.071,   -0.016,    0.702,    0.055,    0.510,   -0.169,
        0.052,   -0.022,   -1.044,   -0.091,   -0.939,    0.195,    1.202,
       -0.018,    0.072,    0.001,    0.141,   -0.031,    0.187,   -0.013,
        1.447,    0.218,  -15.782,    0.654,   -4.950,    6.973,   -1.097,
       -6.542,    2.238,   -6.349,    2.025,   -0.381,   -0.614,    0.358,
        3.410,    2.705,    3.689,    1.591
    },
    {  -0.678,   -0.046,   -0.062,    0.065,    0.984,    0.011,    0.531,
       -0.025,   -1.104,    0.038,    0.664,   -0.004,    0.499,   -0.174,
        0.066,   -0.054,   -1.056,   -0.098,   -0.916,    0.232,    1.235,
        0.005,    0.071,    0.031,    0.139,   -0.030,    0.186,    0.091,
        1.405,    0.222,  -15.609,    0.770,   -5.008,    6.855,   -1.260,
       -6.767,    2.113,   -6.350,    2.118,   -0.258,   -0.536,    0.378,
        3.610,    2.721,    3.457,    1.714
    },
    {  -0.711,   -0.001,   -0.015,    0.033,    1.014,   -0.057,    0.495,
       -0.043,   -1.256,    0.023,    0.685,    0.061,    0.471,   -0.157,
        0.028,   -0.140,   -1.038,   -0.172,   -0.807,    0.190,    1.334,
       -0.083,   -0.113,    0.107,    0.104,    0.033,    0.167,    0.011,
        1.497,    0.137,  -15.912,    0.872,   -4.956,    7.148,   -0.815,
       -6.598,    2.396,   -6.483,    2.205,   -0.496,   -0.774,    0.603,
        3.341,    2.646,    3.727,    1.627
    },
    {  -0.660,    0.006,    0.032,    0.090,    0.919,   -0.017,    0.543,
       -0.006,   -1.266,    0.007,    0.751,    0.017,    0.479,   -0.212,
        0.080,   -0.132,   -1.000,   -0.088,   -0.759,    0.249,    1.351,
       -0.119,   -0.050,    0.059,    0.073,    0.079,    0.182,    0.005,
        1.524,    0.136,  -15.737,    0.816,   -4.918,    7.221,   -0.997,
       -6.624,    2.406,   -6.524,    2.332,   -0.402,   -0.815,    0.485,
        3.502,    2.294,    3.636,    1.730
    },
    {  -0.751,   -0.064,    0.019,    0.037,    0.887,   -0.024,    0.477,
        0.002,   -1.171,    0.004,    0.768,   -0.022,    0.502,   -0.177,
        0.011,   -0.138,   -1.067,   -0.108,   -0.709,    0.194,    1.335,
       -0.037,   -0.072,    0.072,    0.130,    0.098,    0.226,   -0.006,
        1.522,    0.164,  -15.463,    0.585,   -4.847,    7.169,   -1.027,
       -6.377,    2.292,   -6.411,    2.222,   -0.560,   -0.787,    0.527,
        3.373,    2.486,    3.769,    1.779
    },
    {  -0.691,   -0.088,    0.066,    0.090,    0.988,    0.017,    0.545,
       -0.078,   -1.209,    0.022,    0.793,   -0.002,    0.458,   -0.212,
       -0.032,   -0.151,   -1.034,   -0.077,   -0.668,    0.182,    1.303,
       -0.045,    0.007,    0.091,    0.097,    0.114,    0.181,   -0.070,
        1.502,    0.076,  -15.642,    0.652,   -4.936,    7.332,   -0.962,
       -6.297,    2.128,   -6.355,    2.149,   -0.592,   -0.766,    0.482,
        3.489,    2.517,    3.698,    1.701
    },
    {  -0.770,   -0.064,    0.083,    0.088,    0.971,    0.016,    0.563,
       -0.043,   -1.228,    0.017,    0.805,   -0.011,    0.456,   -0.181,
        0.042,   -0.072,   -1.027,   -0.078,   -0.617,    0.125,    1.316,
       -0.039,   -0.015,    0.107,    0.086,    0.062,    0.217,   -0.064,
        1.434,    0.125,  -15.444,    0.703,   -4.840,    7.186,   -1.078,
       -6.397,    2.170,   -6.385,    2.145,   -0.572,   -0.714,    0.372,
        3.365,    2.736,    3.504,    1.704
    },
    {  -0.846,   -0.026,    0.114,    0.032,    0.895,   -0.021,    0.501,
       -0.074,   -1.282,   -0.024,    0.863,   -0.017,    0.394,   -0.160,
        0.013,   -0.101,   -0.985,   -0.098,   -0.575,    0.163,    1.240,
       -0.046,   -0.108,    0.097,    0.222,    0.026,    0.168,   -0.070,
        1.467,    0.080,  -15.488,    0.438,   -4.723,    7.103,   -1.152,
       -6.393,    2.325,   -6.543,    1.819,   -0.583,   -0.795,    0.393,
        3.420,    2.578,    3.249,    1.745
    },
    {  -0.835,   -0.039,    0.064,   -0.031,    0.931,   -0.026,    0.483,
       -0.103,   -1.273,    0.028,    0.800,   -0.067,    0.471,   -0.159,
        0.027,   -0.087,   -1.042,   -0.106,   -0.603,    0.152,    1.192,
        0.000,   -0.079,    0.106,    0.227,   -0.077,    0.234,   -0.055,
        1.518,    0.007,  -15.813,    0.430,   -4.957,    7.104,   -1.108,
       -6.206,    2.278,   -6.588,    1.543,   -0.614,   -0.704,    0.453,
        3.477,    2.584,    3.345,    1.998
    },
    {  -0.796,   -0.063,    0.047,   -0.001,    0.935,   -0.026,    0.423,
       -0.112,   -1.239,   -0.025,    0.739,   -0.078,    0.482,   -0.176,
        0.089,   -0.073,   -1.105,   -0.093,   -0.537,    0.121,    1.253,
        0.088,   -0.089,    0.092,    0.258,   -0.099,    0.201,   -0.045,
        1.483,    0.057,  -15.724,    0.375,   -4.804,    6.973,   -0.906,
       -5.982,    2.340,   -6.733,    1.435,   -0.600,   -0.836,    0.670,
        3.552,    2.641,    3.376,    1.859
    },
    {  -0.866,   -0.061,    0.087,    0.004,    0.936,   -0.043,    0.527,
       -0.134,   -1.291,    0.015,    0.805,   -0.038,    0.480,   -0.118,
        0.037,   -0.074,   -1.015,   -0.041,   -0.588,    0.102,    1.158,
       -0.022,   -0.067,    0.127,    0.168,   -0.019,    0.228,    0.002,
        1.441,    0.006,  -15.619,    0.176,   -4.662,    6.995,   -0.724,
       -5.924,    2.344,   -6.616,    1.327,   -0.521,   -0.886,    0.705,
        3.442,    2.676,    2.950,    1.858
    },
    {  -0.861,   -0.099,    0.053,    0.048,    0.940,   -0.065,    0.542,
       -0.117,   -1.260,   -0.007,    0.753,   -0.024,    0.520,   -0.142,
        0.126,    0.033,   -1.084,   -0.132,   -0.524,    0.146,    1.161,
       -0.006,   -0.060,    0.104,    0.135,   -0.049,    0.207,    0.060,
        1.514,   -0.021,  -15.649,   -0.016,   -4.763,    7.147,   -0.829,
       -5.987,    2.363,   -6.633,    1.287,   -0.706,   -0.828,    0.466,
        3.485,    2.626,    2.973,    1.919
    },
    {  -0.901,   -0.115,    0.049,    0.050,    0.909,   -0.041,    0.641,
       -0.040,   -1.279,    0.023,    0.728,   -0.007,    0.466,   -0.136,
        0.149,    0.059,   -1.102,   -0.117,   -0.522,    0.100,    1.202,
        0.039,   -0.096,    0.075,    0.153,   -0.045,    0.191,    0.073,
        1.488,   -0.078,  -15.644,   -0.054,   -4.749,    7.355,   -0.713,
       -5.915,    2.277,   -6.724,    1.411,   -0.466,   -0.778,    0.551,
        3.482,    2.520,    2.908,    1.895
    },
    {  -0.864,   -0.145,    0.121,    0.062,    0.931,   -0.050,    0.598,
        0.007,   -1.388,    0.005,    0.720,    0.048,    0.541,   -0.140,
        0.118,    0.027,   -1.064,   -0.060,   -0.657,    0.059,    1.288,
       -0.029,   -0.135,    0.055,    0.183,   -0.029,    0.205,    0.094,
        1.474,   -0.103,  -15.553,   -0.164,   -4.735,    7.219,   -0.746,
       -6.152,    2.419,   -6.831,    1.563,   -0.505,   -0.791,    0.596,
        3.451,    2.546,    2.975,    1.971
    },
    {  -0.921,   -0.060,    0.116,    0.102,    0.894,   -0.055,    0.501,
        0.004,   -1.441,    0.013,    0.660,    0.081,    0.518,   -0.171,
        0.062,    0.037,   -1.138,    0.006,   -0.747,    0.029,    1.303,
       -0.057,   -0.176,    0.060,    0.223,    0.025,    0.179,    0.020,
        1.388,   -0.153,  -15.506,   -0.329,   -4.797,    7.129,   -0.628,
       -6.158,    2.494,   -6.898,    1.377,   -0.455,   -0.739,    0.613,
        3.632,    2.576,    2.776,    2.133
    },
    {  -0.868,   -0.061,    0.071,    0.056,    0.934,   -0.061,    0.558,
        0.005,   -1.384,   -0.028,    0.683,   -0.009,    0.560,   -0.132,
        0.027,    0.036,   -1.077,   -0.024,   -0.679,    0.079,    1.365,
       -0.056,   -0.118,    0.049,    0.122,    0.009,    0.070,    0.094,
        1.445,   -0.146,  -15.491,   -0.294,   -4.759,    7.333,   -0.547,
       -5.937,    2.532,   -7.289,    1.572,   -0.880,   -0.694,    0.608,
        3.686,    2.656,    2.630,    2.366
    },
    {  -0.868,   -0.026,    0.045,    0.030,    0.903,   -0.013,    0.546,
        0.031,   -1.391,    0.030,    0.701,   -0.007,    0.565,   -0.123,
        0.025,    0.068,   -1.151,   -0.024,   -0.675,    0.028,    1.355,
       -0.084,   -0.149,   -0.003,    0.187,    0.012,    0.071,    0.094,
        1.467,   -0.140,  -15.427,   -0.256,   -5.040,    7.445,   -0.512,
       -5.854,    2.674,   -7.270,    1.447,   -0.762,   -0.663,    0.594,
        3.672,    2.621,    2.665,    2.267
    },
    {  -0.952,    0.005,    0.145,    0.028,    0.898,    0.013,    0.536,
        0.077,   -1.441,    0.053,    0.619,   -0.017,    0.580,   -0.148,
        0.068,    0.025,   -1.012,    0.014,   -0.737,    0.071,    1.317,
       -0.037,   -0.022,   -0.046,    0.165,    0.025,    0.087,    0.108,
        1.436,   -0.144,  -15.313,   -0.244,   -5.057,    7.503,   -0.443,
       -5.919,    2.608,   -7.267,    1.528,   -0.768,   -0.626,    0.583,
        3.659,    2.710,    2.495,    2.194
    },
    {  -0.920,   -0.031,    0.177,    0.032,    0.882,    0.059,    0.576,
        0.150,   -1.466,    0.026,    0.603,    0.005,    0.610,   -0.170,
        0.114,   -0.025,   -1.060,    0.010,   -0.780,    0.169,    1.382,
       -0.028,   -0.083,   -0.059,    0.201,   -0.057,    0.123,    0.149,
        1.427,   -0.097,  -15.259,   -0.508,   -4.952,    7.542,   -0.614,
       -5.908,    2.375,   -6.979,    1.378,   -0.704,   -0.439,    0.720,
        3.831,    2.874,    2.480,    2.374
    },
    {  -0.945,    0.006,    0.164,    0.042,    0.852,    0.079,    0.524,
        0.069,   -1.394,   -0.037,    0.619,    0.003,    0.611,   -0.150,
        0.173,   -0.056,   -1.058,    0.013,   -0.721,    0.080,    1.322,
        0.021,   -0.027,   -0.095,    0.212,    0.042,    0.154,    0.123,
        1.391,   -0.163,  -15.452,   -0.693,   -4.853,    7.340,   -0.347,
       -5.740,    2.085,   -6.896,    1.257,   -0.556,   -0.596,    0.862,
        3.736,    2.668,    2.259,    2.486
    },
    {  -0.946,    0.029,    0.168,    0.042,    0.817,    0.034,    0.585,
        0.040,   -1.364,   -0.062,    0.624,    0.014,    0.624,   -0.166,
        0.210,   -0.092,   -1.095,    0.008,   -0.675,    0.109,    1.299,
        0.021,   -0.005,   -0.065,    0.243,    0.042,    0.126,    0.119,
        1.315,   -0.160,  -15.399,   -0.420,   -4.983,    7.417,   -0.398,
       -5.701,    2.058,   -6.852,    1.336,   -0.635,   -0.643,    0.977,
        3.724,    2.814,    2.281,    2.578
    },
    {  -0.947,    0.079,    0.179,    0.019,    0.835,    0.048,    0.564,
        0.051,   -1.371,    0.015,    0.740,   -0.007,    0.612,   -0.161,
        0.285,   -0.091,   -1.013,   -0.050,   -0.695,    0.106,    1.316,
       -0.005,   -0.017,   -0.064,    0.120,    0.032,    0.173,    0.136,
        1.297,   -0.136,  -15.172,   -0.426,   -4.953,    7.539,   -0.374,
       -5.833,    2.057,   -6.828,    1.450,   -0.542,   -0.373,    0.761,
        3.965,    2.578,    2.114,    2.425
    },
    {  -1.054,    0.061,    0.121,    0.040,    0.911,    0.014,    0.597,
       -0.023,   -1.283,   -0.055,    0.774,   -0.070,    0.549,   -0.131,
        0.254,   -0.095,   -0.976,   -0.086,   -0.668,    0.134,    1.261,
        0.025,   -0.053,    0.000,    0.190,    0.073,    0.181,    0.100,
        1.254,   -0.109,  -15.367,   -0.725,   -4.793,    7.308,   -0.292,
       -5.665,    1.887,   -6.672,    1.181,   -0.559,   -0.324,    0.401,
        3.992,    2.519,    2.178,    2.326
    },
    {  -0.968,    0.017,    0.123,    0.060,    0.911,    0.021,    0.581,
       -0.080,   -1.341,   -0.032,    0.819,   -0.094,    0.573,   -0.144,
        0.335,   -0.078,   -1.016,   -0.073,   -0.684,    0.094,    1.298,
        0.053,   -0.064,   -0.002,    0.210,    0.088,    0.231,    0.103,
        1.181,   -0.114,  -15.399,   -0.469,   -4.747,    7.228,   -0.588,
       -5.689,    1.897,   -6.619,    1.334,   -0.566,   -0.513,    0.418,
        3.998,    2.634,    2.202,    2.315
    },
    {  -1.026,    0.057,    0.172,    0.032,    0.978,    0.006,    0.633,
       -0.052,   -1.318,   -0.006,    0.809,   -0.085,    0.582,   -0.159,
        0.334,   -0.090,   -1.093,   -0.089,   -0.667,    0.086,    1.384,
        0.061,   -0.036,   -0.019,    0.171,    0.026,    0.190,    0.156,
        1.135,   -0.060,  -15.420,   -0.574,   -4.770,    7.332,   -0.245,
       -5.527,    1.920,   -6.556,    1.551,   -0.434,   -0.512,    0.476,
        4.015,    2.716,    2.210,    2.287
    },
    {  -1.085,    0.067,    0.205,    0.023,    0.955,    0.027,    0.633,
       -0.058,   -1.326,   -0.020,    0.826,   -0.067,    0.584,   -0.145,
        0.360,   -0.065,   -1.137,   -0.214,   -0.709,    0.081,    1.424,
       -0.033,   -0.027,   -0.013,    0.186,   -0.032,    0.158,    0.123,
        1.096,   -0.031,  -15.193,   -0.321,   -4.542,    7.306,   -0.144,
       -5.448,    1.947,   -6.610,    1.520,   -0.448,   -0.524,    0.623,
        4.073,    2.866,    2.317,    2.240
    },
    {  -1.000,    0.092,    0.166,    0.018,    0.977,    0.058,    0.599,
       -0.076,   -1.323,    0.027,    0.846,   -0.061,    0.586,   -0.155,
        0.369,   -0.115,   -1.112,   -0.231,   -0.682,    0.075,    1.429,
       -0.029,   -0.076,   -0.003,    0.185,   -0.025,    0.070,    0.108,
        1.022,   -0.030,  -15.165,   -0.304,   -4.672,    7.150,   -0.019,
       -5.474,    2.238,   -6.712,    1.777,   -0.480,   -0.536,    0.644,
        4.246,    2.674,    2.117,    2.214
    },
    {  -1.042,    0.109,    0.086,    0.027,    0.891,    0.046,    0.616,
       -0.105,   -1.283,    0.003,    0.865,   -0.075,    0.595,   -0.169,
        0.361,   -0.130,   -1.125,   -0.148,   -0.708,    0.095,    1.439,
       -0.046,   -0.114,    0.003,    0.204,    0.016,    0.097,    0.089,
        1.013,   -0.069,  -15.187,   -0.265,   -4.931,    7.053,   -0.219,
       -5.668,    2.326,   -6.520,    1.933,   -0.679,   -0.707,    0.427,
        4.470,    2.592,    2.090,    2.113
    },
    {  -1.071,    0.113,    0.144,    0.052,    0.881,    0.050,    0.598,
       -0.133,   -1.255,   -0.023,    0.917,   -0.069,    0.580,   -0.175,
        0.336,   -0.129,   -1.135,   -0.178,   -0.694,    0.098,    1.365,
       -0.058,   -0.063,   -0.014,    0.167,    0.037,    0.113,    0.081,
        0.980,   -0.059,  -15.151,   -0.086,   -4.745,    7.137,   -0.009,
       -5.739,    2.417,   -6.560,    1.870,   -0.845,   -0.684,    0.332,
        4.393,    2.636,    2.143,    2.014
    },
    {  -1.049,    0.029,    0.116,   -0.043,    0.869,    0.075,    0.621,
       -0.080,   -1.260,   -0.021,    0.920,   -0.038,    0.606,   -0.173,
        0.324,   -0.084,   -1.085,   -0.138,   -0.695,    0.095,    1.331,
       -0.045,   -0.015,   -0.091,    0.188,   -0.009,    0.111,    0.007,
        0.960,   -0.116,  -15.068,   -0.226,   -4.737,    7.194,   -0.044,
       -5.747,    2.353,   -6.716,    1.876,   -0.810,   -0.635,    0.190,
        4.573,    2.553,    2.073,    1.941
    }
  };


  double netfun(std::vector<double>& in, const double* w)
  {
    double x00 = in[0];
    double x;

    //Layer 1, Node 0
    x = w[0];
    x = x + w[1] * x00;
    double x10 = tanh(x);

    //Layer 1, Node 1
    x = w[2];
    x = x + w[3] * x00;
    double x11 = tanh(x);

    //Layer 1, Node 2
    x = w[4];
    x = x + w[5] * x00;
    double x12 = tanh(x);

    //Layer 1, Node 3
    x = w[6];
    x = x + w[7] * x00;
    double x13 = tanh(x);

    //Layer 1, Node 4
    x = w[8];
    x = x + w[9] * x00;
    double x14 = tanh(x);

    //Layer 1, Node 5
    x = w[10];
    x = x + w[11] * x00;
    double x15 = tanh(x);

    //Layer 1, Node 6
    x = w[12];
    x = x + w[13] * x00;
    double x16 = tanh(x);

    //Layer 1, Node 7
    x = w[14];
    x = x + w[15] * x00;
    double x17 = tanh(x);

    //Layer 1, Node 8
    x = w[16];
    x = x + w[17] * x00;
    double x18 = tanh(x);

    //Layer 1, Node 9
    x = w[18];
    x = x + w[19] * x00;
    double x19 = tanh(x);

    //Layer 1, Node 10
    x = w[20];
    x = x + w[21] * x00;
    double x110 = tanh(x);

    //Layer 1, Node 11
    x = w[22];
    x = x + w[23] * x00;
    double x111 = tanh(x);

    //Layer 1, Node 12
    x = w[24];
    x = x + w[25] * x00;
    double x112 = tanh(x);

    //Layer 1, Node 13
    x = w[26];
    x = x + w[27] * x00;
    double x113 = tanh(x);

    //Layer 1, Node 14
    x = w[28];
    x = x + w[29] * x00;
    double x114 = tanh(x);

    //Layer 2, Node 0
    x = w[30];
    x = x + w[31] * x10;
    x = x + w[32] * x11;
    x = x + w[33] * x12;
    x = x + w[34] * x13;
    x = x + w[35] * x14;
    x = x + w[36] * x15;
    x = x + w[37] * x16;
    x = x + w[38] * x17;
    x = x + w[39] * x18;
    x = x + w[40] * x19;
    x = x + w[41] * x110;
    x = x + w[42] * x111;
    x = x + w[43] * x112;
    x = x + w[44] * x113;
    x = x + w[45] * x114;
    double x20 = 1.0/(1.0+exp(-x));
    return x20;
  }
}; // End anonymous namespace

//-----------------------------------------------------------------------------
// Compute average over networks. Default is to use all networks
//-----------------------------------------------------------------------------

double HT350_MHT90_v1_HT350_v8_176545_178410_sel2(std::vector<double>& inputvars,
                                                  int first=0,
                                                  int last=nnetworks-1)
{
  if ( first < 0 ) first = 0;
  if ( last  < 0 ) last  = nnetworks-1;
  if ( last  > nnetworks-1 ) last = nnetworks-1;
  if ( first > last )
    {
      std::cerr << "** HT350_MHT90_v1_HT350_v8_176545_178410_sel2 ** first-index > last-index"
                << std::endl; exit(3);
    }

  // Compute average over networks
  std::vector<double> in(ninputs);
  in[0] = (inputvars[0] - mean[0]) / sigma[0];

  int   n = last - first + 1;
  double x = 0.0;
  for(int i=first; i <= last; i++) x += netfun(in, weight[i]);
  return x / n;
}

extern "C" double HT350_MHT90_v1_HT350_v8_176545_178410_sel2_dl(std::vector<double>& in,
                                                                int first=0,
                                                                int last=nnetworks-1)
{
  return HT350_MHT90_v1_HT350_v8_176545_178410_sel2(in, first, last);
}

extern "C" double HT350_MHT90_v1_HT350_v8_176545_178410_sel2_dl2(double* in,
                                                                 int first=0,
                                                                 int last=nnetworks-1)
{
  std::vector<double> invec;

  invec.push_back(in[0]);

  return HT350_MHT90_v1_HT350_v8_176545_178410_sel2(invec, first, last);
}
