//-----------------------------------------------------------------------------
// Network: HT350_MHT90_v1_HT350_v8_176545_178410_sel1
// Inputs:
//                                                  Offset       Scale
//    offlinevar                                 3.107e+01   6.727e+01
//
// Created: Wed Dec 21 19:43:41 2011
//-----------------------------------------------------------------------------
#include <cmath>
#include <vector>
#include <iostream>
#include <stdlib.h>
//-----------------------------------------------------------------------------
// Make following visible only to this programming unit
namespace {
  // NOTE: Network indices start at 0
  static const int nnetworks=100;
  static const int ninputs  =1;
  static const int nhidden  =15;
  static const int nparams  =46;

  static const double mean[ninputs]={
  3.10700e+01
  };

  static const double sigma[ninputs]={
  6.72700e+01
  };

  static const double weight[nnetworks][nparams]={
    {  -0.080,    1.031,    0.504,   -0.161,   -0.435,   -0.401,   -0.458,
        0.136,    0.060,   -0.207,    1.021,   -0.007,   -0.332,   -0.154,
       -0.225,    0.842,   -0.877,   -0.102,   -1.501,   -0.022,    0.818,
        0.135,    0.119,    0.221,   -0.874,   -0.149,    1.231,    0.647,
        0.636,   -0.244,   -6.753,    0.928,   -4.030,    7.228,   -2.024,
       -5.952,    1.336,   -6.179,    1.774,   -2.563,   -2.334,   -0.633,
        2.593,    1.992,    2.315,    1.081
    },
    {  -0.085,    0.987,    0.595,   -0.045,   -0.440,   -0.409,   -0.425,
        0.120,    0.004,   -0.215,    0.933,   -0.021,   -0.389,   -0.122,
       -0.252,    0.903,   -0.985,    0.013,   -1.483,   -0.005,    0.730,
        0.076,    0.123,    0.253,   -0.962,   -0.154,    1.062,    0.703,
        0.664,   -0.260,   -7.080,    0.868,   -4.197,    6.639,   -2.002,
       -6.121,    1.393,   -6.671,    2.097,   -2.617,   -2.270,   -0.687,
        2.820,    2.107,    2.365,    0.892
    },
    {  -0.196,    0.961,    0.553,   -0.117,   -0.378,   -0.409,   -0.443,
        0.125,    0.020,   -0.246,    0.962,   -0.042,   -0.310,   -0.019,
       -0.258,    0.874,   -1.033,    0.025,   -1.429,   -0.142,    0.741,
        0.027,    0.106,    0.257,   -0.894,   -0.199,    1.022,    0.714,
        0.740,   -0.153,   -6.891,    0.647,   -4.482,    6.512,   -2.528,
       -5.990,    1.383,   -6.692,    2.293,   -2.737,   -1.886,   -0.766,
        2.968,    1.932,    2.462,    0.866
    },
    {  -0.291,    0.960,    0.511,   -0.064,   -0.452,   -0.423,   -0.423,
       -0.068,   -0.068,   -0.200,    0.909,   -0.064,   -0.211,   -0.064,
       -0.268,    0.753,   -0.878,   -0.057,   -1.508,   -0.270,    0.659,
        0.012,    0.146,    0.140,   -0.978,   -0.180,    1.107,    0.697,
        0.702,   -0.240,   -6.774,    0.814,   -4.160,    6.706,   -2.753,
       -5.955,    1.367,   -7.066,    2.457,   -2.597,   -1.948,   -0.507,
        3.138,    1.859,    2.305,    1.224
    },
    {  -0.282,    0.973,    0.524,   -0.039,   -0.415,   -0.413,   -0.273,
       -0.082,   -0.136,   -0.248,    0.773,   -0.018,   -0.248,   -0.081,
       -0.224,    0.666,   -0.987,   -0.018,   -1.467,   -0.399,    0.650,
        0.067,    0.055,    0.125,   -0.974,   -0.236,    1.013,    0.630,
        0.688,   -0.221,   -6.934,    0.939,   -4.350,    7.087,   -2.324,
       -5.819,    1.728,   -6.752,    2.809,   -2.782,   -2.354,   -0.699,
        2.421,    2.264,    2.576,    1.043
    },
    {  -0.469,    0.850,    0.535,   -0.083,   -0.346,   -0.419,   -0.144,
       -0.131,   -0.077,   -0.298,    0.883,    0.014,   -0.271,   -0.036,
       -0.292,    0.635,   -0.910,   -0.171,   -1.390,   -0.397,    0.662,
       -0.121,    0.096,    0.114,   -1.048,   -0.143,    1.291,    0.631,
        0.849,   -0.273,   -6.191,    1.185,   -4.240,    6.968,   -2.473,
       -5.875,    1.699,   -6.679,    2.176,   -2.914,   -2.138,   -0.588,
        2.683,    1.852,    1.779,    0.455
    },
    {  -0.544,    0.813,    0.551,   -0.033,   -0.294,   -0.390,   -0.178,
       -0.156,   -0.110,   -0.411,    0.781,   -0.082,   -0.246,    0.040,
       -0.267,    0.701,   -0.920,   -0.146,   -1.246,   -0.517,    0.580,
       -0.234,   -0.020,    0.053,   -1.011,    0.017,    1.380,    0.644,
        0.808,   -0.332,   -6.429,    1.194,   -4.404,    7.181,   -2.563,
       -6.054,    1.927,   -6.757,    2.262,   -2.897,   -2.306,   -0.418,
        2.680,    2.025,    1.743,    0.712
    },
    {  -0.469,    0.865,    0.562,    0.082,   -0.322,   -0.426,   -0.209,
       -0.162,   -0.118,   -0.377,    0.785,    0.095,   -0.220,   -0.027,
       -0.313,    0.737,   -0.946,   -0.111,   -1.174,   -0.455,    0.557,
       -0.243,   -0.023,    0.045,   -0.996,    0.051,    1.460,    0.554,
        0.829,   -0.406,   -6.300,    1.186,   -4.257,    7.133,   -2.697,
       -5.927,    1.919,   -6.511,    2.001,   -2.940,   -2.152,   -0.519,
        2.657,    1.968,    1.856,    0.788
    },
    {  -0.446,    0.695,    0.650,    0.059,   -0.309,   -0.447,   -0.224,
       -0.216,   -0.099,   -0.272,    0.777,    0.034,   -0.042,   -0.142,
       -0.350,    0.702,   -0.905,   -0.264,   -1.209,   -0.269,    0.654,
       -0.128,   -0.035,    0.099,   -0.933,   -0.122,    1.707,    0.639,
        0.897,   -0.303,   -6.214,    1.413,   -4.030,    6.899,   -3.032,
       -6.107,    1.550,   -6.756,    1.564,   -3.165,   -2.421,   -0.174,
        2.601,    1.533,    1.850,    1.143
    },
    {  -0.533,    0.663,    0.570,   -0.056,   -0.146,   -0.137,   -0.219,
       -0.166,   -0.109,   -0.034,    0.728,   -0.041,    0.124,   -0.061,
       -0.303,    0.709,   -0.793,   -0.330,   -1.318,   -0.143,    0.694,
        0.047,   -0.034,    0.228,   -0.874,   -0.321,    1.829,    0.710,
        0.890,   -0.268,   -6.363,    1.244,   -4.156,    7.135,   -2.885,
       -6.518,    1.264,   -6.758,    1.607,   -3.345,   -2.877,   -0.211,
        2.805,    1.551,    1.747,    1.030
    },
    {  -0.576,    0.651,    0.544,   -0.044,   -0.074,   -0.200,   -0.235,
       -0.238,   -0.092,   -0.091,    0.702,    0.006,    0.224,   -0.077,
       -0.285,    0.676,   -0.770,   -0.404,   -1.268,   -0.144,    0.649,
        0.017,    0.089,    0.203,   -0.962,   -0.404,    1.772,    0.757,
        0.945,   -0.250,   -6.347,    0.739,   -4.355,    6.917,   -3.004,
       -6.551,    1.373,   -6.832,    1.805,   -3.398,   -3.188,   -0.848,
        2.702,    1.663,    1.691,    0.814
    },
    {  -0.542,    0.640,    0.597,   -0.029,   -0.103,   -0.143,   -0.138,
       -0.235,   -0.170,   -0.027,    0.695,    0.004,    0.224,   -0.160,
       -0.287,    0.564,   -0.809,   -0.388,   -1.220,   -0.163,    0.659,
        0.021,    0.093,    0.079,   -0.929,   -0.396,    1.770,    0.697,
        0.849,   -0.280,   -6.455,    0.906,   -4.483,    6.962,   -2.694,
       -6.352,    1.068,   -6.645,    1.863,   -3.664,   -3.499,   -0.542,
        2.706,    1.492,    1.454,    0.973
    },
    {  -0.416,    0.547,    0.608,   -0.038,   -0.020,   -0.223,   -0.188,
       -0.232,   -0.222,    0.049,    0.723,   -0.034,    0.328,   -0.285,
       -0.273,    0.607,   -0.754,   -0.370,   -1.276,   -0.009,    0.649,
        0.026,    0.160,    0.118,   -0.984,   -0.296,    1.790,    0.745,
        0.854,   -0.290,   -6.339,    1.063,   -4.567,    7.045,   -2.854,
       -5.878,    0.875,   -6.806,    2.057,   -3.561,   -3.701,   -0.698,
        2.467,    1.606,    1.272,    1.103
    },
    {  -0.487,    0.713,    0.645,   -0.139,   -0.104,   -0.248,   -0.276,
       -0.167,   -0.271,   -0.087,    0.780,   -0.024,    0.317,   -0.206,
       -0.267,    0.432,   -0.820,   -0.433,   -1.280,    0.036,    0.651,
       -0.071,    0.115,    0.164,   -0.979,   -0.134,    1.734,    0.739,
        0.944,   -0.439,   -6.328,    1.030,   -3.930,    6.801,   -2.789,
       -5.926,    1.029,   -6.772,    1.848,   -3.158,   -3.419,   -0.689,
        2.199,    1.253,    1.031,    1.062
    },
    {  -0.544,    0.738,    0.749,   -0.183,    0.044,   -0.336,   -0.278,
       -0.126,   -0.222,   -0.004,    0.703,   -0.056,    0.303,   -0.317,
       -0.339,    0.476,   -0.928,   -0.478,   -1.307,    0.115,    0.491,
       -0.111,    0.019,    0.249,   -0.960,   -0.232,    1.797,    0.828,
        1.038,   -0.332,   -6.683,    1.032,   -3.967,    6.990,   -3.208,
       -6.141,    1.048,   -6.693,    2.080,   -3.094,   -3.227,   -0.678,
        2.535,    1.344,    1.196,    0.915
    },
    {  -0.494,    0.609,    0.691,   -0.060,    0.039,   -0.259,   -0.367,
       -0.174,   -0.215,   -0.025,    0.560,    0.013,    0.450,   -0.345,
       -0.337,    0.463,   -0.817,   -0.303,   -1.354,    0.007,    0.579,
       -0.120,    0.027,    0.213,   -1.043,   -0.154,    1.660,    0.752,
        0.966,   -0.386,   -6.474,    0.996,   -4.214,    6.846,   -3.323,
       -6.239,    0.823,   -6.298,    1.807,   -3.322,   -3.505,   -0.376,
        2.073,    1.614,    1.261,    1.126
    },
    {  -0.489,    0.608,    0.655,   -0.103,    0.092,   -0.223,   -0.270,
       -0.155,   -0.182,   -0.080,    0.522,   -0.053,    0.429,   -0.209,
       -0.237,    0.393,   -0.791,   -0.443,   -1.491,   -0.053,    0.520,
       -0.117,    0.097,    0.143,   -0.920,   -0.210,    1.726,    0.795,
        1.011,   -0.366,   -6.606,    1.117,   -3.835,    6.756,   -2.955,
       -6.093,    1.097,   -6.394,    1.911,   -3.305,   -3.132,   -0.672,
        2.134,    1.588,    1.384,    0.944
    },
    {  -0.400,    0.681,    0.725,   -0.152,    0.115,   -0.178,   -0.322,
       -0.246,   -0.192,   -0.096,    0.482,   -0.149,    0.481,   -0.131,
       -0.298,    0.397,   -0.659,   -0.400,   -1.501,   -0.120,    0.534,
       -0.164,    0.158,    0.202,   -0.978,   -0.190,    1.650,    0.632,
        1.039,   -0.445,   -6.246,    0.962,   -3.750,    6.557,   -2.960,
       -6.261,    1.183,   -6.510,    1.563,   -2.993,   -2.864,   -0.528,
        1.960,    1.558,    1.425,    1.052
    },
    {  -0.469,    0.570,    0.661,   -0.189,    0.090,   -0.181,   -0.323,
       -0.271,   -0.192,   -0.050,    0.598,    0.051,    0.488,   -0.147,
       -0.246,    0.383,   -0.778,   -0.435,   -1.324,   -0.020,    0.478,
       -0.081,    0.088,    0.268,   -1.052,   -0.234,    1.648,    0.707,
        1.130,   -0.437,   -6.210,    0.941,   -4.000,    6.996,   -2.793,
       -6.224,    1.324,   -6.526,    1.697,   -2.742,   -2.737,   -0.741,
        1.981,    1.077,    1.352,    1.023
    },
    {  -0.497,    0.605,    0.555,   -0.105,    0.046,   -0.148,   -0.280,
       -0.191,   -0.226,    0.034,    0.601,   -0.040,    0.544,   -0.284,
       -0.160,    0.297,   -0.741,   -0.349,   -1.235,   -0.062,    0.345,
        0.049,    0.140,    0.358,   -1.117,   -0.198,    1.714,    0.715,
        1.131,   -0.444,   -6.355,    0.839,   -4.358,    6.994,   -2.755,
       -5.804,    1.461,   -6.315,    1.432,   -2.679,   -3.191,   -0.469,
        2.560,    1.257,    1.274,    0.990
    },
    {  -0.443,    0.659,    0.639,   -0.106,    0.182,   -0.146,   -0.218,
       -0.151,   -0.111,    0.117,    0.644,    0.050,    0.499,   -0.347,
       -0.030,    0.260,   -0.725,   -0.251,   -1.212,    0.000,    0.346,
        0.095,    0.104,    0.357,   -1.070,   -0.147,    1.730,    0.708,
        1.151,   -0.418,   -6.122,    0.896,   -4.585,    7.343,   -2.886,
       -5.965,    1.366,   -6.312,    1.360,   -2.962,   -3.581,   -0.563,
        2.554,    1.302,    0.993,    0.281
    },
    {  -0.324,    0.486,    0.530,   -0.063,    0.208,   -0.252,   -0.181,
       -0.035,   -0.006,    0.043,    0.556,    0.129,    0.401,   -0.382,
        0.011,    0.147,   -0.732,   -0.234,   -1.100,   -0.103,    0.259,
        0.138,    0.049,    0.434,   -0.969,   -0.178,    1.889,    0.554,
        0.965,   -0.274,   -6.712,    1.132,   -4.258,    7.180,   -2.991,
       -5.666,    1.344,   -6.353,    1.763,   -3.303,   -3.521,   -0.698,
        2.916,    1.347,    1.112,    0.420
    },
    {  -0.235,    0.528,    0.522,   -0.078,    0.236,   -0.235,   -0.326,
       -0.033,   -0.084,    0.088,    0.530,    0.150,    0.470,   -0.280,
       -0.046,    0.217,   -0.724,   -0.203,   -0.940,   -0.143,    0.290,
        0.164,    0.008,    0.482,   -0.787,   -0.139,    1.763,    0.475,
        0.840,   -0.196,   -6.743,    1.455,   -4.026,    7.302,   -2.352,
       -5.864,    1.352,   -6.386,    1.986,   -3.542,   -3.199,   -0.627,
        3.349,    1.154,    0.940,    0.292
    },
    {  -0.317,    0.592,    0.513,   -0.113,    0.333,   -0.385,   -0.330,
        0.015,   -0.069,    0.125,    0.503,    0.167,    0.466,   -0.381,
       -0.032,    0.341,   -0.673,   -0.332,   -1.104,   -0.094,    0.281,
        0.187,   -0.011,    0.525,   -0.900,   -0.232,    1.808,    0.498,
        0.837,   -0.174,   -6.422,    1.523,   -4.022,    6.627,   -2.267,
       -6.066,    1.268,   -6.653,    2.109,   -3.511,   -3.097,   -0.964,
        3.313,    1.430,    0.994,    0.161
    },
    {  -0.428,    0.559,    0.434,   -0.143,    0.310,   -0.314,   -0.351,
        0.088,    0.011,    0.019,    0.461,    0.287,    0.415,   -0.262,
       -0.117,    0.191,   -0.750,   -0.118,   -1.245,   -0.004,    0.325,
        0.260,    0.168,    0.574,   -0.828,   -0.086,    1.894,    0.569,
        0.707,   -0.326,   -6.573,    1.652,   -4.192,    6.318,   -2.048,
       -6.083,    1.179,   -6.730,    1.806,   -3.245,   -2.823,   -0.814,
        3.613,    1.065,    0.994,    0.235
    },
    {  -0.478,    0.508,    0.387,   -0.181,    0.257,   -0.253,   -0.497,
        0.111,   -0.018,   -0.017,    0.458,    0.279,    0.553,   -0.188,
       -0.147,    0.218,   -0.807,   -0.126,   -1.214,   -0.004,    0.353,
        0.212,    0.175,    0.559,   -0.874,   -0.044,    1.928,    0.492,
        0.689,   -0.440,   -6.488,    1.390,   -4.285,    6.292,   -1.467,
       -6.170,    1.112,   -6.697,    1.691,   -3.907,   -2.958,   -0.976,
        3.685,    0.756,    0.886,    0.156
    },
    {  -0.566,    0.546,    0.380,   -0.241,    0.319,   -0.295,   -0.538,
       -0.017,   -0.023,   -0.005,    0.342,    0.339,    0.503,   -0.154,
       -0.309,    0.055,   -0.745,   -0.128,   -1.269,   -0.110,    0.449,
        0.124,    0.272,    0.619,   -0.939,    0.027,    2.065,    0.426,
        0.827,   -0.420,   -6.282,    1.571,   -4.462,    6.371,   -1.510,
       -6.232,    1.115,   -6.953,    1.915,   -4.150,   -3.072,   -1.282,
        3.357,    1.149,    0.680,    0.424
    },
    {  -0.509,    0.552,    0.379,   -0.308,    0.235,   -0.312,   -0.589,
       -0.107,   -0.065,    0.055,    0.193,    0.365,    0.524,   -0.198,
       -0.305,    0.100,   -0.689,   -0.021,   -1.230,   -0.051,    0.397,
        0.182,    0.214,    0.581,   -0.902,   -0.037,    2.110,    0.449,
        0.892,   -0.402,   -6.179,    1.891,   -4.766,    6.561,   -1.867,
       -6.133,    1.265,   -6.929,    2.009,   -4.038,   -2.917,   -1.108,
        3.263,    1.292,    1.137,    0.949
    },
    {  -0.749,    0.660,    0.449,   -0.065,    0.263,    0.026,   -0.338,
        0.018,   -0.109,    0.165,    0.432,    0.376,    0.515,   -0.032,
       -0.247,    0.258,   -0.805,   -0.106,   -1.439,   -0.124,    0.469,
        0.206,    0.160,    0.564,   -0.677,   -0.137,    1.924,    0.352,
        0.913,   -0.294,   -5.771,    2.073,   -4.664,    6.788,   -1.767,
       -6.209,    1.417,   -7.040,    1.951,   -4.034,   -2.893,   -0.680,
        3.083,    1.271,    0.551,    0.598
    },
    {  -0.724,    0.661,    0.434,   -0.075,    0.239,    0.014,   -0.451,
       -0.022,   -0.008,    0.167,    0.473,    0.364,    0.457,   -0.070,
       -0.092,    0.190,   -0.654,   -0.119,   -1.471,   -0.142,    0.533,
        0.211,    0.225,    0.556,   -0.716,   -0.244,    1.791,    0.372,
        0.872,   -0.281,   -5.795,    2.119,   -4.490,    6.843,   -1.646,
       -6.039,    1.462,   -7.027,    2.151,   -4.160,   -2.944,   -0.725,
        2.975,    1.794,    0.840,    0.860
    },
    {  -0.839,    0.639,    0.455,   -0.070,    0.345,   -0.034,   -0.375,
       -0.008,    0.005,    0.120,    0.383,    0.312,    0.503,   -0.050,
       -0.103,    0.241,   -0.743,   -0.257,   -1.567,   -0.080,    0.477,
        0.235,    0.188,    0.547,   -0.658,   -0.155,    1.806,    0.410,
        0.959,   -0.387,   -5.992,    1.851,   -4.252,    6.430,   -1.693,
       -6.001,    1.299,   -6.959,    2.126,   -4.187,   -2.987,   -0.683,
        3.292,    1.470,    0.588,    0.512
    },
    {  -0.747,    0.656,    0.277,   -0.172,    0.266,    0.048,   -0.200,
       -0.070,    0.115,    0.317,    0.412,    0.301,    0.654,   -0.086,
       -0.064,    0.496,   -0.854,   -0.335,   -1.509,   -0.169,    0.598,
        0.197,    0.260,    0.399,   -0.545,   -0.095,    1.763,    0.283,
        0.929,   -0.314,   -5.577,    1.593,   -4.006,    6.710,   -1.332,
       -6.390,    1.331,   -6.885,    2.165,   -3.829,   -3.072,   -0.495,
        3.276,    1.286,    0.548,    0.567
    },
    {  -0.640,    0.636,    0.287,   -0.270,    0.258,   -0.049,   -0.244,
        0.027,    0.160,    0.241,    0.435,    0.444,    0.599,   -0.081,
       -0.075,    0.388,   -0.762,   -0.371,   -1.556,   -0.222,    0.605,
        0.100,    0.136,    0.355,   -0.459,   -0.121,    1.738,    0.461,
        1.018,   -0.286,   -5.339,    1.456,   -4.086,    6.754,   -1.285,
       -6.457,    1.051,   -6.850,    2.188,   -4.314,   -2.971,   -0.975,
        3.247,    1.224,    0.601,    0.781
    },
    {  -0.533,    0.531,    0.260,   -0.276,    0.203,   -0.046,   -0.162,
        0.015,    0.078,    0.230,    0.414,    0.593,    0.639,   -0.036,
       -0.004,    0.380,   -0.774,   -0.308,   -1.541,   -0.229,    0.511,
        0.033,    0.080,    0.382,   -0.252,   -0.178,    1.691,    0.326,
        1.068,   -0.123,   -5.583,    1.790,   -4.084,    7.273,   -1.313,
       -6.531,    1.193,   -7.293,    2.391,   -4.365,   -2.957,   -0.785,
        2.828,    1.258,    0.649,    0.913
    },
    {  -0.549,    0.635,    0.305,   -0.216,    0.182,   -0.030,   -0.203,
        0.126,   -0.031,    0.205,    0.471,    0.436,    0.606,   -0.115,
       -0.026,    0.361,   -0.832,   -0.230,   -1.366,   -0.042,    0.569,
        0.139,    0.016,    0.416,   -0.211,   -0.176,    1.637,    0.239,
        1.051,   -0.084,   -5.738,    1.429,   -4.186,    7.022,   -1.521,
       -6.580,    1.572,   -7.181,    2.690,   -4.207,   -2.872,   -0.790,
        2.810,    1.187,    0.223,    0.667
    },
    {  -0.577,    0.687,    0.406,   -0.207,    0.157,   -0.018,   -0.190,
        0.164,   -0.006,    0.210,    0.597,    0.460,    0.613,   -0.089,
       -0.067,    0.308,   -0.785,   -0.174,   -1.364,   -0.074,    0.586,
        0.111,    0.150,    0.462,   -0.305,   -0.095,    1.682,    0.292,
        1.079,   -0.080,   -5.317,    1.666,   -4.509,    7.377,   -1.522,
       -6.454,    1.447,   -6.986,    2.779,   -4.161,   -3.177,   -0.710,
        2.575,    1.106,    0.425,    0.648
    },
    {  -0.501,    0.547,    0.311,   -0.283,    0.266,   -0.061,   -0.268,
        0.165,    0.097,    0.153,    0.624,    0.468,    0.450,   -0.057,
       -0.298,    0.230,   -0.584,   -0.227,   -1.362,   -0.054,    0.525,
        0.099,    0.050,    0.349,   -0.244,    0.012,    1.626,    0.307,
        1.093,   -0.154,   -5.253,    1.495,   -4.570,    7.677,   -1.657,
       -6.189,    1.194,   -7.263,    3.085,   -3.985,   -3.131,   -0.896,
        2.734,    0.852,    0.672,    0.295
    },
    {  -0.535,    0.546,    0.454,   -0.336,    0.233,   -0.030,   -0.359,
        0.107,    0.064,    0.144,    0.661,    0.346,    0.349,   -0.077,
       -0.320,    0.119,   -0.579,   -0.230,   -1.417,    0.005,    0.613,
        0.156,   -0.111,    0.275,   -0.353,    0.131,    1.687,    0.416,
        1.246,   -0.096,   -5.086,    1.161,   -4.270,    7.609,   -1.987,
       -6.911,    1.334,   -7.064,    2.936,   -3.622,   -3.079,   -0.855,
        2.936,    0.760,    0.648,    0.235
    },
    {  -0.478,    0.489,    0.251,   -0.302,    0.222,    0.022,   -0.263,
        0.245,    0.066,    0.188,    0.555,    0.402,    0.558,   -0.043,
       -0.343,    0.296,   -0.668,   -0.143,   -1.446,    0.067,    0.595,
        0.147,    0.055,    0.362,   -0.291,    0.015,    1.580,    0.421,
        1.181,   -0.032,   -5.182,    1.354,   -4.246,    7.580,   -2.043,
       -6.986,    1.101,   -7.018,    3.034,   -4.061,   -2.807,   -0.860,
        3.065,    0.700,    0.891,    0.315
    },
    {  -0.458,    0.598,    0.241,   -0.306,    0.300,   -0.012,   -0.182,
        0.265,    0.154,    0.131,    0.654,    0.316,    0.556,   -0.018,
       -0.296,    0.268,   -0.652,   -0.200,   -1.405,    0.012,    0.580,
        0.104,    0.132,    0.435,   -0.212,    0.048,    1.563,    0.395,
        1.150,    0.004,   -5.154,    1.437,   -4.005,    7.509,   -2.129,
       -6.947,    0.864,   -6.644,    2.839,   -3.930,   -2.845,   -0.742,
        2.937,    1.152,    0.847,   -0.056
    },
    {  -0.375,    0.508,    0.336,   -0.338,    0.306,   -0.033,   -0.020,
        0.142,    0.146,    0.191,    0.761,    0.159,    0.581,   -0.073,
       -0.217,    0.285,   -0.730,   -0.170,   -1.399,   -0.101,    0.598,
       -0.025,    0.068,    0.355,   -0.273,    0.003,    1.603,    0.378,
        1.090,   -0.070,   -5.230,    1.635,   -3.899,    7.444,   -1.863,
       -6.777,    1.351,   -6.732,    2.611,   -4.128,   -2.881,   -0.313,
        3.420,    1.184,    0.576,    0.058
    },
    {  -0.377,    0.477,    0.301,   -0.311,    0.315,   -0.142,   -0.115,
        0.099,    0.150,    0.150,    0.769,    0.189,    0.575,   -0.082,
       -0.190,    0.291,   -0.711,   -0.336,   -1.327,   -0.049,    0.591,
       -0.047,    0.123,    0.373,   -0.191,   -0.016,    1.515,    0.365,
        1.040,   -0.014,   -5.049,    1.602,   -4.393,    7.499,   -1.666,
       -6.816,    1.484,   -6.604,    2.535,   -4.141,   -2.310,   -0.317,
        3.454,    1.324,    0.512,   -0.281
    },
    {  -0.447,    0.549,    0.298,   -0.290,    0.279,   -0.206,   -0.067,
        0.088,    0.234,    0.063,    0.909,    0.194,    0.599,   -0.090,
       -0.230,    0.302,   -0.735,   -0.317,   -1.343,    0.056,    0.527,
       -0.029,    0.178,    0.303,   -0.131,   -0.033,    1.459,    0.302,
        1.104,   -0.019,   -4.981,    1.683,   -4.405,    7.166,   -1.838,
       -6.469,    1.781,   -6.302,    2.546,   -4.497,   -2.432,   -0.621,
        3.524,    1.468,    0.498,   -0.057
    },
    {  -0.512,    0.403,    0.263,   -0.426,    0.162,   -0.192,   -0.096,
        0.048,    0.126,    0.090,    0.852,    0.292,    0.520,   -0.122,
       -0.210,    0.233,   -0.841,   -0.343,   -1.377,    0.025,    0.613,
       -0.034,    0.137,    0.182,   -0.135,   -0.042,    1.527,    0.256,
        1.122,   -0.100,   -4.782,    1.861,   -4.810,    6.962,   -1.858,
       -6.451,    1.648,   -6.476,    2.142,   -4.188,   -2.474,   -0.861,
        3.294,    1.598,    0.442,   -0.068
    },
    {  -0.358,    0.560,    0.268,   -0.267,    0.199,   -0.150,   -0.087,
        0.047,    0.133,    0.101,    0.646,    0.275,    0.553,   -0.157,
       -0.384,    0.322,   -0.830,   -0.336,   -1.359,   -0.044,    0.493,
        0.072,    0.092,    0.198,   -0.080,    0.006,    1.478,    0.286,
        0.959,   -0.009,   -4.910,    1.740,   -4.600,    7.167,   -1.880,
       -6.877,    1.138,   -6.265,    2.192,   -4.206,   -2.729,   -0.789,
        3.519,    1.759,    0.667,   -0.053
    },
    {  -0.353,    0.576,    0.467,   -0.354,    0.335,   -0.147,   -0.007,
        0.050,    0.176,    0.126,    0.696,    0.312,    0.593,   -0.044,
       -0.393,    0.397,   -0.898,   -0.343,   -1.263,   -0.181,    0.577,
        0.016,    0.096,    0.198,   -0.280,    0.056,    1.634,    0.320,
        1.132,   -0.072,   -4.606,    1.577,   -4.543,    7.161,   -2.605,
       -6.801,    1.866,   -6.375,    2.047,   -4.047,   -2.622,   -0.534,
        3.068,    1.240,    0.692,   -0.062
    },
    {  -0.306,    0.618,    0.476,   -0.313,    0.362,   -0.140,    0.053,
       -0.015,    0.244,    0.146,    0.750,    0.275,    0.589,   -0.061,
       -0.467,    0.418,   -0.831,   -0.507,   -1.222,   -0.187,    0.593,
       -0.098,    0.064,    0.143,   -0.239,    0.144,    1.558,    0.304,
        1.072,   -0.194,   -4.452,    1.031,   -4.641,    7.466,   -2.524,
       -6.427,    2.082,   -6.036,    1.981,   -4.164,   -2.586,   -0.351,
        2.859,    1.271,    0.626,   -0.339
    },
    {  -0.376,    0.582,    0.509,   -0.318,    0.316,   -0.117,    0.102,
       -0.002,    0.161,    0.195,    0.657,    0.325,    0.500,   -0.048,
       -0.412,    0.449,   -0.780,   -0.511,   -1.283,   -0.229,    0.606,
       -0.039,   -0.016,    0.233,   -0.100,    0.012,    1.505,    0.354,
        0.978,   -0.112,   -4.535,    1.126,   -4.787,    7.697,   -2.420,
       -6.443,    1.685,   -6.062,    1.635,   -4.079,   -2.570,   -0.236,
        3.171,    1.338,    0.654,   -0.136
    },
    {  -0.366,    0.491,    0.371,   -0.363,    0.182,   -0.150,    0.134,
       -0.064,    0.179,    0.165,    0.649,    0.334,    0.468,   -0.077,
       -0.494,    0.352,   -0.788,   -0.587,   -1.370,   -0.208,    0.530,
       -0.041,    0.075,    0.206,   -0.134,   -0.022,    1.509,    0.042,
        1.120,   -0.038,   -4.526,    1.376,   -4.550,    7.465,   -2.142,
       -6.570,    1.754,   -6.473,    1.519,   -4.240,   -2.777,   -0.201,
        3.131,    1.051,    0.605,   -0.204
    },
    {  -0.325,    0.437,    0.526,   -0.363,    0.331,   -0.159,    0.159,
        0.115,    0.191,    0.156,    0.673,    0.368,    0.641,   -0.094,
       -0.414,    0.555,   -0.881,   -0.545,   -1.442,   -0.274,    0.531,
       -0.071,    0.061,    0.213,   -0.261,    0.001,    1.406,    0.158,
        1.036,   -0.085,   -4.462,    1.405,   -4.329,    7.175,   -2.291,
       -6.508,    2.147,   -6.198,    1.669,   -4.116,   -2.867,   -0.285,
        3.091,    1.114,    0.809,   -0.498
    },
    {  -0.251,    0.482,    0.565,   -0.295,    0.468,   -0.108,    0.195,
        0.213,    0.175,    0.178,    0.604,    0.382,    0.758,   -0.120,
       -0.406,    0.443,   -0.888,   -0.382,   -1.417,   -0.239,    0.465,
       -0.076,    0.084,    0.304,   -0.380,    0.023,    1.395,    0.138,
        1.046,   -0.133,   -4.329,    1.408,   -4.281,    7.449,   -2.628,
       -6.557,    2.221,   -6.249,    1.889,   -4.280,   -2.774,   -0.713,
        2.949,    0.970,    0.671,   -0.629
    },
    {  -0.230,    0.422,    0.594,   -0.313,    0.473,   -0.136,    0.223,
        0.231,    0.193,    0.149,    0.621,    0.355,    0.721,   -0.146,
       -0.433,    0.395,   -0.876,   -0.353,   -1.422,   -0.289,    0.495,
       -0.156,    0.097,    0.322,   -0.330,   -0.005,    1.410,    0.151,
        1.074,   -0.119,   -4.001,    1.391,   -4.449,    7.139,   -2.512,
       -6.014,    2.261,   -6.633,    1.880,   -3.896,   -2.983,   -0.440,
        2.766,    1.173,    0.684,   -0.609
    },
    {  -0.349,    0.517,    0.609,   -0.273,    0.505,   -0.094,    0.129,
        0.250,    0.183,    0.132,    0.528,    0.338,    0.601,   -0.099,
       -0.460,    0.534,   -0.826,   -0.368,   -1.420,   -0.171,    0.513,
       -0.138,    0.090,    0.284,   -0.300,   -0.036,    1.453,    0.165,
        1.009,   -0.143,   -4.050,    1.405,   -4.583,    7.231,   -2.426,
       -6.288,    2.403,   -6.759,    1.407,   -3.635,   -3.023,   -0.865,
        3.034,    1.231,    0.382,   -0.546
    },
    {  -0.392,    0.478,    0.531,   -0.303,    0.451,   -0.101,   -0.016,
        0.411,    0.114,    0.090,    0.585,    0.329,    0.671,   -0.146,
       -0.435,    0.531,   -0.832,   -0.425,   -1.469,   -0.183,    0.527,
       -0.258,    0.048,    0.325,   -0.280,   -0.046,    1.492,    0.138,
        1.112,   -0.086,   -4.141,    1.561,   -4.308,    7.522,   -2.463,
       -6.216,    2.059,   -6.810,    1.164,   -3.338,   -3.111,   -1.086,
        2.533,    0.864,   -0.063,   -0.303
    },
    {  -0.335,    0.437,    0.526,   -0.209,    0.390,   -0.076,   -0.200,
        0.357,    0.154,    0.095,    0.614,    0.562,    0.796,   -0.158,
       -0.648,    0.455,   -0.948,   -0.514,   -1.397,   -0.290,    0.540,
       -0.168,    0.182,    0.354,   -0.312,   -0.149,    1.550,    0.070,
        1.171,    0.080,   -4.107,    1.476,   -4.119,    7.443,   -2.336,
       -6.211,    2.068,   -6.826,    1.273,   -3.363,   -3.285,   -1.313,
        2.748,    0.659,    0.075,   -0.299
    },
    {  -0.311,    0.484,    0.492,   -0.230,    0.437,   -0.081,   -0.221,
        0.375,    0.189,    0.070,    0.649,    0.495,    0.700,   -0.152,
       -0.591,    0.481,   -1.010,   -0.557,   -1.356,   -0.351,    0.480,
       -0.150,    0.122,    0.288,   -0.427,   -0.130,    1.502,    0.077,
        1.216,   -0.029,   -4.166,    1.664,   -4.388,    7.549,   -2.147,
       -6.225,    2.091,   -7.084,    1.205,   -3.134,   -3.320,   -0.995,
        2.736,    0.966,   -0.298,   -0.167
    },
    {  -0.304,    0.547,    0.632,   -0.130,    0.422,   -0.132,   -0.115,
        0.406,    0.128,    0.030,    0.638,    0.369,    0.650,   -0.177,
       -0.503,    0.533,   -0.924,   -0.463,   -1.188,   -0.267,    0.508,
       -0.131,   -0.038,    0.452,   -0.386,   -0.258,    1.551,    0.059,
        1.230,    0.008,   -4.185,    1.483,   -4.158,    8.140,   -1.888,
       -5.498,    2.112,   -6.892,    1.473,   -3.268,   -3.290,   -0.869,
        2.801,    1.230,   -0.201,    0.053
    },
    {  -0.193,    0.615,    0.561,   -0.095,    0.373,   -0.127,   -0.165,
        0.403,    0.116,    0.071,    0.688,    0.461,    0.733,   -0.192,
       -0.560,    0.535,   -0.939,   -0.453,   -1.206,   -0.243,    0.500,
       -0.156,    0.138,    0.366,   -0.431,   -0.304,    1.592,    0.115,
        1.293,   -0.080,   -4.177,    1.427,   -4.439,    7.586,   -1.502,
       -5.278,    2.243,   -6.610,    1.436,   -2.925,   -2.883,   -0.734,
        3.053,    0.917,    0.004,    0.012
    },
    {  -0.122,    0.599,    0.530,   -0.277,    0.457,   -0.039,    0.024,
        0.171,    0.045,    0.225,    0.670,    0.550,    0.879,   -0.078,
       -0.537,    0.534,   -1.077,   -0.279,   -1.331,   -0.391,    0.520,
       -0.417,    0.108,    0.384,   -0.312,   -0.131,    1.388,    0.246,
        1.210,   -0.151,   -4.096,    1.457,   -4.417,    7.791,   -1.563,
       -5.384,    2.303,   -7.169,    1.389,   -2.717,   -2.674,   -1.032,
        2.380,    0.721,   -0.188,    0.313
    },
    {  -0.137,    0.599,    0.558,   -0.324,    0.423,   -0.112,    0.002,
        0.013,    0.010,    0.285,    0.648,    0.431,    0.893,   -0.106,
       -0.438,    0.523,   -1.064,   -0.330,   -1.269,   -0.310,    0.549,
       -0.405,    0.187,    0.430,   -0.286,   -0.182,    1.430,    0.356,
        1.180,   -0.272,   -4.288,    1.653,   -4.687,    7.640,   -1.462,
       -5.555,    2.556,   -6.774,    1.541,   -2.727,   -2.528,   -0.773,
        1.987,    0.475,    0.071,    0.154
    },
    {  -0.103,    0.582,    0.626,   -0.347,    0.363,   -0.061,    0.029,
        0.045,    0.039,    0.273,    0.681,    0.362,    0.858,   -0.037,
       -0.473,    0.497,   -1.121,   -0.339,   -1.189,   -0.406,    0.551,
       -0.549,    0.190,    0.432,   -0.280,   -0.061,    1.494,    0.236,
        1.455,   -0.181,   -3.793,    1.381,   -4.216,    7.612,   -1.318,
       -5.593,    2.732,   -6.815,    2.045,   -2.770,   -2.603,   -0.673,
        1.923,    0.899,    0.059,    0.065
    },
    {  -0.178,    0.684,    0.595,   -0.262,    0.351,   -0.039,   -0.016,
        0.149,   -0.058,    0.217,    0.647,    0.432,    0.834,   -0.068,
       -0.484,    0.477,   -1.031,   -0.274,   -1.205,   -0.344,    0.557,
       -0.421,    0.204,    0.482,   -0.275,   -0.062,    1.486,    0.265,
        1.290,   -0.206,   -3.859,    1.386,   -3.912,    7.583,   -1.582,
       -5.666,    2.303,   -6.821,    2.089,   -2.780,   -2.624,   -1.074,
        1.707,    0.583,   -0.169,    0.096
    },
    {  -0.280,    0.684,    0.619,   -0.151,    0.200,   -0.117,    0.022,
        0.324,   -0.051,    0.238,    0.601,    0.491,    0.900,   -0.287,
       -0.324,    0.506,   -1.057,   -0.109,   -1.326,   -0.409,    0.518,
       -0.351,    0.245,    0.453,   -0.251,   -0.017,    1.479,    0.284,
        1.225,   -0.162,   -3.714,    1.582,   -3.889,    7.383,   -1.364,
       -5.481,    2.208,   -6.802,    2.022,   -3.097,   -2.723,   -1.001,
        2.135,    0.036,    0.133,    0.458
    },
    {  -0.261,    0.752,    0.596,   -0.138,    0.236,   -0.103,   -0.072,
        0.328,    0.018,    0.133,    0.687,    0.476,    0.915,   -0.266,
       -0.274,    0.502,   -1.069,    0.042,   -1.175,   -0.550,    0.365,
       -0.371,    0.324,    0.324,   -0.171,    0.041,    1.505,    0.163,
        1.206,   -0.112,   -3.829,    1.582,   -3.998,    7.655,   -1.529,
       -5.548,    2.261,   -6.853,    1.995,   -2.965,   -2.769,   -0.903,
        1.874,   -0.080,    0.010,    0.159
    },
    {  -0.317,    0.796,    0.553,   -0.221,    0.126,   -0.168,   -0.197,
        0.380,   -0.000,    0.132,    0.545,    0.308,    0.831,   -0.235,
       -0.164,    0.639,   -1.077,   -0.076,   -1.196,   -0.709,    0.156,
       -0.464,    0.426,    0.225,   -0.081,    0.023,    1.476,    0.189,
        1.190,   -0.070,   -3.640,    1.689,   -3.867,    7.231,   -1.636,
       -5.500,    2.402,   -6.757,    1.915,   -3.233,   -2.233,   -1.250,
        1.869,    0.024,    0.183,   -0.286
    },
    {  -0.332,    0.809,    0.817,   -0.119,    0.257,   -0.253,   -0.268,
        0.589,   -0.052,    0.023,    0.433,    0.195,    0.854,   -0.338,
       -0.011,    0.526,   -1.040,   -0.060,   -0.908,   -0.686,    0.108,
       -0.359,    0.467,    0.236,   -0.173,    0.102,    1.513,    0.214,
        1.208,   -0.049,   -3.939,    2.057,   -3.978,    7.406,   -1.375,
       -6.077,    1.849,   -6.410,    2.158,   -3.377,   -1.938,   -1.336,
        1.996,    0.093,    0.317,   -0.232
    },
    {  -0.421,    0.825,    0.840,   -0.127,    0.278,   -0.250,   -0.183,
        0.711,   -0.089,   -0.002,    0.389,    0.264,    0.885,   -0.325,
       -0.105,    0.498,   -1.191,   -0.102,   -0.982,   -0.497,    0.174,
       -0.347,    0.575,    0.215,   -0.129,    0.019,    1.487,    0.187,
        1.141,   -0.065,   -3.541,    2.233,   -4.046,    7.607,   -1.330,
       -5.768,    2.416,   -6.775,    2.243,   -2.838,   -2.112,   -1.021,
        2.105,   -0.019,    0.375,   -0.398
    },
    {  -0.390,    0.832,    0.797,   -0.069,    0.230,   -0.210,   -0.217,
        0.519,   -0.115,    0.049,    0.436,    0.224,    0.845,   -0.295,
       -0.132,    0.478,   -1.149,   -0.182,   -1.044,   -0.389,    0.217,
       -0.269,    0.423,    0.202,   -0.229,    0.025,    1.397,    0.120,
        0.992,    0.049,   -3.711,    2.561,   -3.806,    7.916,   -1.556,
       -5.711,    2.335,   -7.163,    2.249,   -3.044,   -2.355,   -0.904,
        2.331,   -0.225,    0.312,   -0.469
    },
    {  -0.280,    0.781,    0.729,    0.031,    0.139,   -0.249,   -0.338,
        0.445,   -0.241,    0.015,    0.371,    0.371,    0.817,   -0.288,
       -0.168,    0.526,   -1.065,   -0.275,   -0.900,   -0.106,    0.268,
       -0.321,    0.527,    0.196,   -0.230,   -0.006,    1.362,   -0.009,
        0.812,    0.152,   -3.660,    2.859,   -3.725,    7.770,   -2.047,
       -5.804,    2.306,   -7.642,    1.957,   -2.944,   -2.360,   -1.147,
        1.934,   -0.052,    0.353,   -0.407
    },
    {  -0.306,    0.692,    0.757,   -0.014,    0.236,   -0.257,   -0.216,
        0.475,   -0.094,   -0.083,    0.423,    0.302,    0.762,   -0.293,
       -0.028,    0.412,   -1.068,   -0.084,   -1.120,   -0.257,    0.224,
       -0.335,    0.351,    0.161,   -0.332,   -0.007,    1.263,    0.034,
        1.025,    0.060,   -3.697,    2.782,   -3.615,    7.619,   -2.113,
       -6.244,    2.325,   -7.801,    1.664,   -3.013,   -2.619,   -1.183,
        2.072,   -0.062,   -0.094,   -0.393
    },
    {  -0.412,    0.744,    0.884,   -0.094,    0.193,   -0.205,   -0.248,
        0.306,   -0.182,   -0.011,    0.538,    0.275,    0.716,   -0.136,
       -0.087,    0.392,   -1.336,   -0.166,   -0.905,   -0.291,    0.232,
       -0.175,    0.333,    0.248,   -0.004,    0.053,    1.503,    0.176,
        1.016,    0.318,   -4.129,    2.963,   -3.499,    7.602,   -2.070,
       -5.903,    2.492,   -7.582,    1.802,   -2.949,   -3.037,   -1.109,
        2.063,    0.290,   -0.164,   -0.332
    },
    {  -0.370,    0.748,    0.850,   -0.086,    0.114,   -0.155,   -0.216,
        0.319,   -0.229,    0.056,    0.488,    0.186,    0.671,   -0.163,
       -0.058,    0.363,   -1.354,   -0.155,   -0.880,   -0.231,    0.281,
       -0.130,    0.354,    0.315,    0.016,    0.060,    1.527,    0.396,
        0.950,    0.316,   -3.785,    3.107,   -3.609,    7.448,   -2.288,
       -6.322,    2.337,   -7.577,    1.960,   -2.787,   -2.899,   -1.008,
        2.387,    0.359,   -0.560,   -0.056
    },
    {  -0.409,    0.691,    0.924,   -0.097,    0.085,   -0.136,   -0.255,
        0.362,   -0.279,    0.108,    0.534,    0.143,    0.598,   -0.188,
       -0.042,    0.359,   -1.268,   -0.094,   -0.877,   -0.174,    0.351,
       -0.229,    0.282,    0.319,    0.095,    0.033,    1.312,    0.384,
        1.017,    0.164,   -4.180,    3.276,   -3.898,    7.639,   -1.833,
       -6.033,    2.643,   -7.421,    1.947,   -3.199,   -3.135,   -0.715,
        2.159,   -0.022,   -0.506,   -0.214
    },
    {  -0.298,    0.794,    1.001,   -0.016,    0.002,   -0.137,   -0.205,
        0.403,   -0.257,    0.099,    0.601,    0.172,    0.562,   -0.217,
       -0.015,    0.379,   -1.183,   -0.008,   -0.805,   -0.045,    0.299,
       -0.272,    0.332,    0.200,    0.040,    0.092,    1.345,    0.343,
        1.102,    0.110,   -3.876,    3.233,   -3.904,    7.813,   -1.657,
       -6.083,    2.850,   -7.549,    2.171,   -3.002,   -3.369,   -0.895,
        2.153,   -0.345,   -0.314,   -0.351
    },
    {  -0.427,    0.664,    0.960,   -0.057,   -0.066,   -0.121,   -0.310,
        0.392,   -0.148,    0.090,    0.654,    0.091,    0.565,   -0.242,
       -0.082,    0.359,   -1.303,   -0.052,   -0.713,   -0.144,    0.318,
       -0.164,    0.327,    0.253,    0.134,    0.127,    1.433,    0.260,
        1.086,    0.202,   -3.376,    2.846,   -3.650,    7.810,   -1.827,
       -5.720,    2.647,   -7.374,    2.074,   -3.335,   -3.332,   -0.755,
        2.055,   -0.076,   -0.142,   -0.012
    },
    {  -0.352,    0.640,    1.015,   -0.006,    0.036,   -0.058,   -0.186,
        0.280,   -0.171,    0.137,    0.694,    0.110,    0.528,   -0.258,
       -0.149,    0.326,   -1.248,   -0.016,   -0.628,   -0.163,    0.281,
       -0.181,    0.473,    0.293,    0.097,    0.162,    1.397,    0.162,
        1.056,    0.069,   -3.743,    2.862,   -3.877,    8.151,   -1.723,
       -5.626,    2.323,   -7.313,    1.925,   -3.329,   -3.234,   -0.781,
        2.188,   -0.065,   -0.399,   -0.138
    },
    {  -0.478,    0.614,    1.023,    0.052,    0.003,   -0.075,   -0.156,
        0.339,   -0.192,    0.161,    0.720,    0.066,    0.523,   -0.234,
       -0.021,    0.430,   -1.242,   -0.039,   -0.550,   -0.220,    0.315,
       -0.175,    0.465,    0.316,    0.081,    0.088,    1.468,    0.099,
        0.948,    0.172,   -3.312,    2.854,   -3.705,    8.001,   -1.884,
       -5.882,    2.458,   -7.299,    1.904,   -3.398,   -3.225,   -0.858,
        1.987,    0.308,   -0.707,   -0.015
    },
    {  -0.550,    0.601,    1.097,    0.020,   -0.074,   -0.115,   -0.251,
        0.219,   -0.321,    0.066,    0.804,    0.050,    0.432,   -0.280,
       -0.070,    0.314,   -1.163,   -0.119,   -0.490,   -0.098,    0.203,
       -0.187,    0.285,    0.289,    0.260,    0.039,    1.313,    0.012,
        0.991,    0.134,   -3.476,    2.396,   -3.565,    7.861,   -2.009,
       -5.841,    2.652,   -7.591,    1.338,   -3.353,   -3.326,   -0.831,
        2.047,    0.020,   -1.200,   -0.011
    },
    {  -0.481,    0.589,    1.075,   -0.111,    0.014,   -0.088,   -0.284,
        0.141,   -0.326,    0.132,    0.708,   -0.017,    0.555,   -0.313,
       -0.053,    0.317,   -1.251,   -0.167,   -0.547,   -0.074,    0.112,
       -0.129,    0.297,    0.338,    0.237,   -0.107,    1.379,    0.046,
        1.066,    0.024,   -4.011,    2.386,   -3.870,    7.766,   -2.040,
       -5.463,    2.565,   -7.650,    0.857,   -3.410,   -3.142,   -0.810,
        2.193,    0.032,   -0.962,    0.399
    },
    {  -0.370,    0.576,    1.070,   -0.082,    0.044,   -0.052,   -0.371,
        0.116,   -0.283,    0.059,    0.612,   -0.020,    0.592,   -0.213,
        0.033,    0.309,   -1.338,   -0.184,   -0.444,   -0.092,    0.196,
       -0.010,    0.255,    0.313,    0.264,   -0.198,    1.299,    0.062,
        0.999,    0.099,   -3.859,    2.343,   -3.566,    7.491,   -1.740,
       -5.045,    2.663,   -7.869,    0.710,   -3.380,   -3.356,   -0.499,
        2.359,    0.133,   -0.853,    0.167
    },
    {  -0.475,    0.472,    1.186,   -0.037,    0.064,   -0.076,   -0.212,
       -0.014,   -0.383,    0.072,    0.719,    0.018,    0.575,   -0.256,
       -0.058,    0.236,   -1.201,   -0.115,   -0.542,   -0.086,    0.033,
       -0.178,    0.269,    0.384,    0.098,   -0.057,    1.315,    0.079,
        0.934,    0.014,   -3.757,    2.120,   -3.329,    7.464,   -1.469,
       -4.875,    2.631,   -7.721,    0.556,   -3.206,   -3.435,   -0.536,
        2.225,    0.167,   -1.572,    0.094
    },
    {  -0.451,    0.514,    1.136,    0.030,    0.057,   -0.089,   -0.191,
        0.047,   -0.327,    0.009,    0.632,    0.061,    0.642,   -0.232,
        0.087,    0.427,   -1.305,   -0.268,   -0.430,   -0.084,    0.041,
       -0.156,    0.278,    0.315,    0.047,   -0.133,    1.291,    0.163,
        1.056,   -0.029,   -3.710,    1.902,   -3.362,    7.700,   -1.694,
       -4.958,    2.745,   -7.694,    0.580,   -3.614,   -3.411,   -1.017,
        2.410,    0.088,   -1.392,    0.255
    },
    {  -0.505,    0.415,    1.140,    0.070,    0.058,   -0.007,   -0.046,
        0.092,   -0.389,    0.041,    0.593,    0.029,    0.512,   -0.214,
        0.116,    0.450,   -1.315,   -0.286,   -0.454,   -0.102,    0.119,
       -0.079,    0.227,    0.280,    0.081,   -0.136,    1.264,    0.198,
        1.023,   -0.154,   -3.682,    1.813,   -3.357,    8.063,   -1.471,
       -4.869,    2.614,   -7.835,    0.817,   -3.226,   -3.333,   -0.831,
        2.401,   -0.083,   -1.501,    0.245
    },
    {  -0.440,    0.387,    1.229,    0.010,    0.049,    0.018,   -0.135,
        0.175,   -0.532,    0.037,    0.574,    0.201,    0.623,   -0.111,
        0.058,    0.429,   -1.260,   -0.211,   -0.640,   -0.140,    0.261,
       -0.186,    0.182,    0.300,    0.144,   -0.074,    1.329,    0.339,
        1.009,   -0.212,   -3.708,    1.746,   -3.408,    7.761,   -1.529,
       -5.151,    2.768,   -8.087,    1.108,   -3.146,   -3.282,   -0.850,
        2.364,   -0.061,   -1.443,    0.225
    },
    {  -0.507,    0.491,    1.203,    0.079,   -0.014,    0.003,   -0.294,
        0.152,   -0.606,   -0.002,    0.476,    0.299,    0.592,   -0.080,
       -0.043,    0.457,   -1.366,   -0.112,   -0.764,   -0.150,    0.272,
       -0.237,    0.115,    0.344,    0.174,    0.032,    1.272,    0.344,
        0.872,   -0.373,   -3.610,    1.527,   -3.494,    7.590,   -1.332,
       -5.156,    2.914,   -8.172,    0.849,   -3.075,   -3.215,   -0.850,
        2.711,   -0.011,   -1.737,    0.504
    },
    {  -0.395,    0.519,    1.158,    0.091,    0.032,   -0.004,   -0.182,
        0.196,   -0.563,    0.054,    0.468,    0.158,    0.640,   -0.174,
       -0.094,    0.456,   -1.296,   -0.107,   -0.700,   -0.021,    0.327,
       -0.221,    0.211,    0.282,    0.123,   -0.081,    1.202,    0.351,
        0.929,   -0.262,   -3.283,    1.604,   -3.745,    7.941,   -1.222,
       -4.826,    3.184,   -8.617,    1.073,   -3.372,   -3.184,   -1.076,
        2.795,    0.211,   -1.879,    0.691
    },
    {  -0.389,    0.575,    1.081,    0.044,    0.000,    0.067,   -0.202,
        0.243,   -0.576,    0.167,    0.505,    0.157,    0.635,   -0.192,
       -0.087,    0.519,   -1.402,   -0.109,   -0.690,   -0.101,    0.317,
       -0.270,    0.178,    0.201,    0.234,   -0.068,    1.194,    0.354,
        0.963,   -0.270,   -3.189,    1.647,   -4.088,    8.143,   -1.128,
       -4.733,    3.399,   -8.616,    0.932,   -3.347,   -3.157,   -0.980,
        2.782,    0.136,   -1.811,    0.654
    },
    {  -0.523,    0.578,    1.229,    0.072,    0.017,    0.149,   -0.234,
        0.301,   -0.635,    0.120,    0.403,    0.120,    0.694,   -0.146,
       -0.018,    0.411,   -1.167,   -0.077,   -0.765,   -0.013,    0.278,
       -0.195,    0.381,    0.119,    0.135,   -0.035,    1.158,    0.346,
        0.939,   -0.303,   -3.039,    1.624,   -3.974,    8.195,   -1.085,
       -4.838,    3.237,   -8.616,    1.051,   -3.491,   -3.098,   -0.953,
        2.769,    0.258,   -2.070,    0.600
    },
    {  -0.476,    0.560,    1.266,    0.091,    0.001,    0.230,   -0.172,
        0.419,   -0.666,    0.039,    0.376,    0.159,    0.757,   -0.150,
        0.057,    0.363,   -1.242,   -0.104,   -0.829,    0.121,    0.384,
       -0.198,    0.296,    0.120,    0.199,   -0.154,    1.200,    0.365,
        0.934,   -0.224,   -3.033,    1.156,   -3.808,    8.184,   -1.429,
       -4.780,    2.780,   -8.162,    0.763,   -3.360,   -2.741,   -0.713,
        3.034,    0.533,   -2.139,    0.897
    },
    {  -0.509,    0.610,    1.223,    0.141,    0.009,    0.256,   -0.262,
        0.332,   -0.565,   -0.123,    0.415,    0.168,    0.784,   -0.106,
        0.167,    0.342,   -1.242,   -0.102,   -0.733,    0.044,    0.286,
       -0.103,    0.405,   -0.011,    0.230,    0.076,    1.248,    0.290,
        0.883,   -0.271,   -3.221,    0.733,   -3.572,    7.891,   -0.970,
       -4.597,    2.361,   -7.954,    0.572,   -3.216,   -3.048,   -0.373,
        2.870,    0.216,   -2.445,    1.200
    },
    {  -0.501,    0.656,    1.215,    0.145,   -0.022,    0.183,   -0.165,
        0.297,   -0.523,   -0.188,    0.426,    0.177,    0.800,   -0.182,
        0.237,    0.281,   -1.304,   -0.109,   -0.654,    0.141,    0.249,
       -0.091,    0.451,    0.001,    0.289,    0.098,    1.201,    0.299,
        0.758,   -0.300,   -3.063,    1.179,   -3.733,    8.017,   -1.064,
       -4.561,    2.348,   -7.818,    0.747,   -3.409,   -3.191,   -0.171,
        2.894,    0.460,   -2.343,    1.434
    },
    {  -0.515,    0.724,    1.216,    0.060,   -0.039,    0.246,   -0.193,
        0.303,   -0.520,   -0.029,    0.613,    0.140,    0.765,   -0.099,
        0.361,    0.269,   -1.165,   -0.201,   -0.672,    0.147,    0.279,
       -0.138,    0.437,    0.051,    0.098,    0.101,    1.298,    0.370,
        0.725,   -0.309,   -2.688,    1.204,   -3.693,    8.245,   -1.006,
       -4.782,    2.350,   -7.797,    0.944,   -3.263,   -2.737,   -0.523,
        3.291,    0.067,   -2.634,    1.160
    },
    {  -0.675,    0.730,    1.109,    0.152,    0.080,    0.266,   -0.132,
        0.184,   -0.362,   -0.179,    0.655,    0.032,    0.692,   -0.081,
        0.295,    0.201,   -1.087,   -0.295,   -0.618,    0.247,    0.198,
       -0.063,    0.357,    0.114,    0.210,    0.155,    1.300,    0.318,
        0.658,   -0.329,   -2.992,    0.696,   -3.466,    7.936,   -0.774,
       -4.559,    2.108,   -7.494,    0.532,   -3.271,   -2.705,   -1.011,
        3.290,   -0.013,   -2.570,    1.036
    },
    {  -0.531,    0.662,    1.110,    0.174,    0.049,    0.289,   -0.159,
        0.082,   -0.445,   -0.137,    0.729,   -0.027,    0.740,   -0.087,
        0.428,    0.217,   -1.149,   -0.283,   -0.637,    0.213,    0.259,
       -0.002,    0.336,    0.113,    0.249,    0.205,    1.398,    0.352,
        0.535,   -0.357,   -3.105,    1.142,   -3.463,    7.809,   -1.260,
       -4.580,    2.094,   -7.447,    0.755,   -3.227,   -3.003,   -0.975,
        3.260,    0.166,   -2.596,    1.011
    },
    {  -0.605,    0.735,    1.175,    0.155,    0.170,    0.289,   -0.071,
        0.114,   -0.406,   -0.081,    0.705,   -0.017,    0.762,   -0.129,
        0.424,    0.214,   -1.263,   -0.307,   -0.607,    0.171,    0.406,
        0.000,    0.381,    0.059,    0.189,    0.080,    1.320,    0.390,
        0.453,   -0.267,   -3.213,    1.002,   -3.590,    8.001,   -0.673,
       -4.295,    2.078,   -7.391,    1.084,   -2.941,   -2.966,   -0.877,
        3.257,    0.300,   -2.670,    0.937
    },
    {  -0.732,    0.804,    1.241,    0.139,    0.129,    0.215,   -0.029,
        0.135,   -0.429,   -0.049,    0.776,    0.050,    0.776,   -0.128,
        0.455,    0.224,   -1.380,   -0.512,   -0.703,    0.218,    0.446,
       -0.127,    0.362,    0.089,    0.196,   -0.047,    1.316,    0.366,
        0.466,   -0.227,   -2.972,    1.286,   -3.342,    7.978,   -0.584,
       -4.145,    2.220,   -7.619,    1.027,   -2.846,   -2.981,   -0.701,
        3.295,    0.458,   -2.558,    0.877
    },
    {  -0.612,    0.874,    1.173,    0.088,    0.131,    0.219,   -0.056,
        0.141,   -0.422,    0.075,    0.839,    0.076,    0.781,   -0.148,
        0.462,    0.126,   -1.363,   -0.524,   -0.661,    0.240,    0.442,
       -0.100,    0.272,    0.135,    0.189,   -0.038,    1.219,    0.376,
        0.387,   -0.226,   -2.874,    1.496,   -3.496,    7.664,   -0.285,
       -4.157,    2.543,   -7.682,    1.394,   -2.966,   -2.971,   -0.618,
        3.618,    0.217,   -2.883,    0.810
    },
    {  -0.664,    0.917,    1.029,    0.081,    0.046,    0.201,   -0.039,
        0.112,   -0.390,    0.010,    0.884,    0.082,    0.782,   -0.087,
        0.453,    0.110,   -1.385,   -0.366,   -0.720,    0.267,    0.454,
       -0.120,    0.227,    0.184,    0.198,    0.037,    1.249,    0.323,
        0.371,   -0.279,   -2.849,    1.672,   -3.798,    7.422,   -0.647,
       -4.425,    2.661,   -7.283,    1.673,   -3.352,   -3.256,   -1.007,
        4.060,    0.119,   -2.805,    0.596
    },
    {  -0.711,    0.942,    1.104,    0.137,   -0.001,    0.225,   -0.071,
        0.079,   -0.350,    0.010,    0.971,    0.068,    0.751,   -0.031,
        0.414,    0.158,   -1.396,   -0.399,   -0.694,    0.285,    0.345,
       -0.137,    0.310,    0.118,    0.144,    0.071,    1.299,    0.331,
        0.311,   -0.295,   -2.848,    1.992,   -3.479,    7.531,   -0.324,
       -4.512,    2.769,   -7.353,    1.590,   -3.643,   -3.179,   -1.195,
        3.936,    0.214,   -2.714,    0.401
    },
    {  -0.657,    0.828,    1.020,   -0.022,   -0.012,    0.209,   -0.028,
        0.167,   -0.357,    0.032,    0.971,    0.179,    0.822,   -0.064,
        0.388,    0.228,   -1.304,   -0.325,   -0.688,    0.274,    0.298,
       -0.111,    0.399,    0.015,    0.193,   -0.023,    1.295,    0.203,
        0.288,   -0.345,   -2.680,    1.693,   -3.497,    7.660,   -0.348,
       -4.576,    2.666,   -7.611,    1.584,   -3.588,   -3.113,   -1.363,
        4.204,    0.086,   -2.859,    0.356
    }
  };


  double netfun(std::vector<double>& in, const double* w)
  {
    double x00 = in[0];
    double x;

    //Layer 1, Node 0
    x = w[0];
    x = x + w[1] * x00;
    double x10 = tanh(x);

    //Layer 1, Node 1
    x = w[2];
    x = x + w[3] * x00;
    double x11 = tanh(x);

    //Layer 1, Node 2
    x = w[4];
    x = x + w[5] * x00;
    double x12 = tanh(x);

    //Layer 1, Node 3
    x = w[6];
    x = x + w[7] * x00;
    double x13 = tanh(x);

    //Layer 1, Node 4
    x = w[8];
    x = x + w[9] * x00;
    double x14 = tanh(x);

    //Layer 1, Node 5
    x = w[10];
    x = x + w[11] * x00;
    double x15 = tanh(x);

    //Layer 1, Node 6
    x = w[12];
    x = x + w[13] * x00;
    double x16 = tanh(x);

    //Layer 1, Node 7
    x = w[14];
    x = x + w[15] * x00;
    double x17 = tanh(x);

    //Layer 1, Node 8
    x = w[16];
    x = x + w[17] * x00;
    double x18 = tanh(x);

    //Layer 1, Node 9
    x = w[18];
    x = x + w[19] * x00;
    double x19 = tanh(x);

    //Layer 1, Node 10
    x = w[20];
    x = x + w[21] * x00;
    double x110 = tanh(x);

    //Layer 1, Node 11
    x = w[22];
    x = x + w[23] * x00;
    double x111 = tanh(x);

    //Layer 1, Node 12
    x = w[24];
    x = x + w[25] * x00;
    double x112 = tanh(x);

    //Layer 1, Node 13
    x = w[26];
    x = x + w[27] * x00;
    double x113 = tanh(x);

    //Layer 1, Node 14
    x = w[28];
    x = x + w[29] * x00;
    double x114 = tanh(x);

    //Layer 2, Node 0
    x = w[30];
    x = x + w[31] * x10;
    x = x + w[32] * x11;
    x = x + w[33] * x12;
    x = x + w[34] * x13;
    x = x + w[35] * x14;
    x = x + w[36] * x15;
    x = x + w[37] * x16;
    x = x + w[38] * x17;
    x = x + w[39] * x18;
    x = x + w[40] * x19;
    x = x + w[41] * x110;
    x = x + w[42] * x111;
    x = x + w[43] * x112;
    x = x + w[44] * x113;
    x = x + w[45] * x114;
    double x20 = 1.0/(1.0+exp(-x));
    return x20;
  }
}; // End anonymous namespace

//-----------------------------------------------------------------------------
// Compute average over networks. Default is to use all networks
//-----------------------------------------------------------------------------

double HT350_MHT90_v1_HT350_v8_176545_178410_sel1(std::vector<double>& inputvars,
                                                  int first=0,
                                                  int last=nnetworks-1)
{
  if ( first < 0 ) first = 0;
  if ( last  < 0 ) last  = nnetworks-1;
  if ( last  > nnetworks-1 ) last = nnetworks-1;
  if ( first > last )
    {
      std::cerr << "** HT350_MHT90_v1_HT350_v8_176545_178410_sel1 ** first-index > last-index"
                << std::endl; exit(3);
    }

  // Compute average over networks
  std::vector<double> in(ninputs);
  in[0] = (inputvars[0] - mean[0]) / sigma[0];

  int   n = last - first + 1;
  double x = 0.0;
  for(int i=first; i <= last; i++) x += netfun(in, weight[i]);
  return x / n;
}

extern "C" double HT350_MHT90_v1_HT350_v8_176545_178410_sel1_dl(std::vector<double>& in,
                                                                int first=0,
                                                                int last=nnetworks-1)
{
  return HT350_MHT90_v1_HT350_v8_176545_178410_sel1(in, first, last);
}

extern "C" double HT350_MHT90_v1_HT350_v8_176545_178410_sel1_dl2(double* in,
                                                                 int first=0,
                                                                 int last=nnetworks-1)
{
  std::vector<double> invec;

  invec.push_back(in[0]);

  return HT350_MHT90_v1_HT350_v8_176545_178410_sel1(invec, first, last);
}
